{"layerSizes":[3,5,5,2],"connections":[{"weights":[-4.371456545014375e-84,-6.032153719990188e-84,3.0233327478547674e-84,-5.463501448461586e-82,-4.6897652183591998e-82,1.359150280272397e-81,-6.534443484950528e-85,-3.406013550239858e-83,8.067213937022259e-84,-3.703581431734374e-83,-1.1180677852418423e-83,5.558032002355411e-84,-1.3169288284720035e-83,-1.1554307649796447e-83,1.1232692227637344e-84],"biases":[0.0,-11.108395561926168,0.0,-0.176415787850788,0.0],"activationType":2},{"weights":[-7.099160229297306e-85,-1.1187684074927428e-83,1.1235279572298556e-83,1.8212715247858305e-84,-4.091998485394086e-84,6.146197825066169e-84,-1.9684758655138885e-81,8.7817253266248e-84,1.009808387853352e-83,4.352705081614401e-84,-1.9638714456268134e-83,-1.1619772574045506e-83,5.8793626851512949e-84,2.7812631892302104e-84,-1.8195864044052216e-83,1.8699219820614076e-84,-2.8180910800120005e-84,-1.1917111444371804e-84,-2.344097873109127e-84,1.562184237380621e-83,-7.175435842808094e-84,-3.3638297712501405e-84,-3.583875997082264e-86,1.236104532091e-84,-3.1040637398210358e-84],"biases":[0.0,-22.09438343568833,-0.3554073363572581,0.0,0.0],"activationType":2},{"weights":[-4.507743660576515e-84,-1.514659129221657e-82,2.6623346260106586e-84,3.5676611995819606e-84,-6.480042467903735e-84,2.938069482831536e-84,1.6523113675857758e-82,-1.071561875576393e-83,-1.475841872802968e-83,-8.882802117754684e-84],"biases":[2.4902875289227288,-2.4902875289227288],"activationType":5}],"costFunctionType":0}