{"layerSizes":[2,4,4,2],"connections":[{"weights":[-0.000046880072850647,-0.000007333492072433954,-0.000033186591453520095,-0.000012211182813633898,0.000013079829562231126,-0.00004946005749599102,-0.00006649474278349478,-0.000049347702369202926],"biases":[0.0,0.0,0.0,-0.30793034677820438],"activationType":2},{"weights":[-0.0000035834587102571539,-0.000028997336432108345,0.000021537390192616137,0.000037309386048925295,-0.00000627507958185125,-0.000012622075288593753,-0.000015045623729321644,-0.00003900627960305446,0.000038896209747682535,-0.000005906842685703425,0.000015855292961347116,0.000007495506732499286,-0.00001748683817574642,-0.000004720633686757788,-0.0000038787692957946368,0.000022985521400936218],"biases":[-0.45729478738207238,0.0,-0.044412959259868659,-0.3537993672445873],"activationType":2},{"weights":[0.000030015252003709068,0.0000366128920493512,-0.000009830527361719561,0.00004917333142204684,0.00003039942992331821,0.00002112187017471167,-0.000010601941091083258,-0.000019531367073562898],"biases":[-0.3027705695291523,-0.41379664124739698],"activationType":5}],"costFunctionType":0}