{"layerSizes":[100,5,5,5,4],"connections":[{"weights":[0.000007778127972049521,-0.00000640395765361204,0.0000025682421494412134,-0.00001640469590788258,-0.000005340401138909529,0.000001911600847660349,0.000002763923640956088,-2.9829082020460807e-8,-0.000015721763713353335,-0.000013823998399724344,0.000010688058543239677,-0.000005014808646731056,0.0000020871727292533339,-9.071380511655778e-7,-0.000006116555687768764,0.0000166349564023845,-0.000006126970463369631,-0.00002039385042052075,0.000013095400835589661,-9.66277841750166e-7,-0.0000055819519689156628,0.000006121454816911798,-0.000007398350709451966,-0.000004604643846185915,-0.0000051575004188752689,-1.2579072842902033e-7,-0.0000024541167411054159,0.0000016216026111370035,-0.0000029827339376314908,8.652589498997137e-7,-0.00000457698017506994,0.000006537515347649353,0.000008178610096722568,0.000004867551844717611,-0.0000020420243921634018,0.000004457882460149297,-0.000010318996349632718,-0.000006001074046525563,-0.000006240415078871263,0.000010492330363655928,-0.000008669309412755843,0.0000018359782378427237,0.0000028405137609328385,-0.000010970480705666153,2.0541093439754565e-8,-0.00000987846685512545,3.5071714737756287e-7,0.000004425072236193688,0.000015934787853152835,-0.0000010926842325371343,-0.0000019096093235927487,-0.000008476160278973993,-0.0000026616440119866599,-0.000003692243632614901,0.0000021317260765996605,-5.129668647244154e-7,0.000011203392903657974,0.000006184425901346351,-0.000010631385699939042,-0.000007479693794471987,0.00000185836689108031,-0.000010478773236994194,2.2591724057929304e-7,-0.000006653818032733421,-0.000014500942490877414,-0.000009993756778883572,0.000002960748315232467,0.000010011375054761431,-0.0000032661567364302378,-0.000004306395878803017,0.00000225505599941843,0.0000025355810153957248,-0.0000120655080454081,0.000017250034532064802,-0.00001352748087569155,-0.000009931508198166285,0.00001896722762221892,-0.000005987210766325211,0.000012701470576829654,-0.0000022687412139144119,0.0000074252106141695918,0.000006014444519957996,-0.000009219707475801702,0.0000019191344742539778,4.338514531631334e-7,0.0000013520090368252849,0.000002939056992246886,0.000007608047524983056,-0.000002799301751934192,-0.000009778085322738973,0.000003314560676390365,0.0000020373706857888276,0.000012929818560241608,0.000006521543023663075,-0.0000070585158369454548,0.0000067714407649012808,-0.0000012778981206697594,0.0000019015597253923782,-0.000008265682934249584,0.0000032287910454157078,0.000006374586727239931,-0.000009287039455152176,-0.00001025561802800951,-0.0000018019759577279749,-0.000011526003226375236,-0.0000030866331670095597,0.000005818504965326089,0.000006038769673003912,-0.0000063259099157822898,-0.000005596887921631025,0.000003786851453835702,0.00000376037181690381,0.000013301824935395632,0.0000023593567496021008,-5.910204472093507e-7,-0.000008792763299259363,-0.000012561306219283163,0.0000023966679406903824,0.000001425857070656058,-0.000011058016208795665,-7.165429312187425e-7,0.0000032333256134658154,0.000004714448496823297,0.000011609458454395476,0.000001972504584979807,0.000004408183489237626,2.5057266729156638e-7,-0.0000017084433871070347,0.000009097280753556426,-0.000008680178571600539,0.0000013605831131495755,-0.000008107083823797042,-0.000011393740860399032,0.000005265922792065328,-0.000008862788498299894,-0.000014362098395010324,0.000007571588579160873,-0.000003894428043804699,-0.0000042746070164012489,-2.2132620193349437e-7,0.00000416023353091083,0.0000018707397519669132,5.72279275165619e-7,-0.000007163051736124237,0.000007584374350216409,0.000003818167199034817,0.0000024087943240582615,-0.0000028299977172773197,0.00000441996771234127,-0.00001490982769529501,0.000008742157625389707,-0.000009176175512745115,0.000004104653846089787,-0.00001457508093140716,-3.4408263393921839e-7,0.000011644670585948763,0.000006420099028829942,-0.000007842909273247312,-0.000012561182090248675,0.0000034811989859237326,0.000004166453356751077,-0.000004834154946770252,-0.0000027997606021146,0.00000932411601245757,0.0000013186238915797885,-0.000005367255624736155,0.00001356069630376913,0.0000036514947253271369,-0.00000940158530037599,-0.000010217419531808615,0.000013959903764209203,-0.000005120213375379232,-0.0000023611226062222686,0.00001536097220358526,-0.000004392865605677901,-0.000009607891496550462,-0.000004222131212825554,-0.0000019756433185279397,0.000004105565166989004,-0.0000025800723533870985,0.000008548488996326268,-0.0000016413306571988955,-0.0000051727933795466649,5.516388016366297e-7,-0.000008943717937860162,0.0000031600267267249236,-0.000014437094611205,-0.0000061688098928940978,0.000004439810709199472,0.000009052966266877688,-0.00001570211796003352,0.000008403516775569835,-0.000002547346547985818,0.0000011771962531247504,0.000016027888336921754,-0.00000442274665600201,0.000008082783291430549,0.000013388686155563458,0.000002752542179788259,0.0000019476040974252447,-0.00008900715085472861,-0.0000799053283282414,-0.00009807347426318907,-0.00007867097080284403,-0.00008289532116322119,-0.00008715385122167177,-0.0000780304916180081,-0.00007488682857376713,-0.00008981671558908538,-0.00007983583323929344,-0.00008213521368191809,-0.00004067229054995549,-0.00016496270237366926,-0.0001600234418409367,-0.0001699875263137016,-0.00017425585031714214,-0.00017448507550911035,-0.00016714063314507408,-0.0001733285496698257,-0.00008958934251759102,-0.00009764856450323319,-0.00015397045724769993,-0.00007696275142853005,-0.00008803441571884184,-0.000172815161280316,-0.00017930107041752544,-0.00008080423167577327,-0.00018012244928832208,-0.00017468444363591848,-0.00009147048742741271,-0.0000759858205620293,-0.00016407511872146106,-0.00015882410925109502,-0.00016985886553125618,-0.0001751465738908699,-0.00015306721261709193,-0.0001748621827174112,-0.0001690546337809705,-0.00017090362406110474,-0.00008259131686032098,-0.00009967341588864063,-0.00007347861415398929,-0.00017362724095601356,-0.00009450778924505211,-0.00017951937149074832,-0.00007364823195073502,-0.00017353650464804147,-0.00014914600795222778,-0.00016566199151093753,-0.00009052879273755446,-0.00008911409041164538,-0.00016930803520770146,-0.00017880343965628813,-0.00008844264456926387,-0.00016344046598452166,-0.00015941058374481593,-0.0001708090626415737,-0.00007864206079238019,-0.00008037276923617966,-0.00007870449987596073,-0.00009183211146414394,-0.00015649990367220596,-0.00015792139532618793,-0.00017018229577836754,-0.00015730985166913691,-0.00016159122898963248,-0.00015599711645675738,-0.00015771713551377477,-0.0001609017846713164,-0.00007828303801582151,-0.00008212903786408578,-0.000162499088461744,-0.00006891739441919096,-0.00009429295493652045,-0.00008166777720560924,-0.00015747860716730928,-0.00017237864719970826,-0.00009121813261493728,-0.00016744109322307417,-0.00008400810079534378,-0.00009299596152129752,-0.00016174027482218287,-0.0001751305496788125,-0.00016229403116803373,-0.0001792196662154391,-0.00017627625020343304,-0.00018359019514536164,-0.0001679655519660781,-0.00017019734739743026,-0.00008710383828368315,-0.00008754761384087708,-0.00007626319403360202,-0.00008979757647004591,-0.00007242701989376039,-0.00008810494469870367,-0.00008778001990001655,-0.00009920250496280237,-0.00007913215919777516,-0.00007683277643893593,-0.00009348117654245459,5.930009199420244e-7,-0.000008790210343478711,-0.0000018826025492892917,0.0000052252566294456929,-0.000002962300732914094,-0.0000068456769838023409,-0.000018452239050467215,0.000008896972714029845,0.000013214351686509522,0.000013269464694147985,0.0000021696927375378906,0.000009870747058933976,-0.0000035433771093924959,-0.00000848909659200244,-0.000024982651273646055,0.0000015993489301462976,-0.000004009601837260014,-0.000018713892070307874,-2.690159638281194e-8,0.00001275288500498624,-0.000001281469975441905,-0.000013541328890651795,0.0000049564480739448689,-0.000005556620161932275,-0.000019908974198057022,-0.000013078753599098276,-0.000004292951927538774,-0.000014621395140909879,-0.00001603043306593779,-0.0000017008089853247264,0.000002548738719987509,-0.0000063206876079530868,5.142184764625601e-7,-9.445643767949006e-7,0.000009395090645797584,-0.000005226582677365909,0.0000021289925274030489,0.00001606635862097917,-0.000008029636997866935,-0.000006307812204578513,0.0000071115870620679668,-0.000008956261066941794,0.000006898057188599184,2.950230796161777e-7,-0.00001440085598160476,-0.000011123382972410932,0.000006225449357734043,-0.000002513625426476529,0.000011427707204047364,0.000004864002191093517,0.000006792121815097609,0.000012223148205799844,0.000003691981525192948,-0.0000015473588240462067,0.000006246754753168289,-0.0000019060640688548318,-0.0000017764849526889833,-0.000007155428592874787,-0.000006987889574341851,1.6094047924641838e-7,0.000003654175693668806,0.000008578509727347164,-0.000007559570880666077,0.000007179506583724311,-0.000016467053659831617,-0.000003784146636921653,-0.0000013784507595673919,-0.000007583725528596524,-0.000006958205189906873,-0.000018191388002147304,-0.0000014308102814971777,0.000007174388694610602,0.0000029154424174303019,0.00000919876496433935,-0.000003789294438318607,6.813288047706064e-7,3.464060157092161e-7,-0.0000030014023627709755,6.143779208229954e-7,0.0000052960571181746819,-0.00001053813688820538,0.000007484382516174346,-0.000005148043491622185,0.0000032187275232983847,0.0000015717393889633705,2.044635110645059e-7,-0.000008781144033873442,0.0000050707442210680448,-0.00001504459281218054,5.91353320942259e-7,-0.000003058249193700461,-0.000013221268723512654,0.0000071923830331464639,0.0000055402024247124408,-0.000005039430625168755,-0.000023547472917901685,7.030689733777675e-7,0.00001077458888473555,-0.0000029355016640961585,2.293328362762787e-7,-0.0001690749840967091,-0.0001484060667948321,-0.0001623190889778015,-0.00017144880756644198,-0.0001503840542061067,-0.00015217589659617534,-0.00016001142876283063,-0.0001671294288188829,-0.00015100783949736603,-0.00017015554371753507,-0.00016679476956985834,-0.00007117607702569885,-0.0003218124387922147,-0.000319085586972374,-0.00031966581785341293,-0.00033309123192767654,-0.00031718943814107643,-0.00033173757840646397,-0.0003201068489970439,-0.00015171829662079584,-0.00015438933301539917,-0.0003289397041002411,-0.00015342136563900306,-0.00015445692812524262,-0.0003133188956687202,-0.0003243954107120064,-0.00016395790667571384,-0.00032207860528706494,-0.00033193248046540526,-0.0001654589152059915,-0.00015152677728835876,-0.00032737498765085554,-0.0003179207104325017,-0.00032060674428890327,-0.00031628883981528607,-0.0003054403937022785,-0.00032142598081364034,-0.00032702170048781634,-0.00030593713714959446,-0.00016617692062819431,-0.00015912872597538658,-0.0001558846391599746,-0.0003188811033192967,-0.00017926962299446992,-0.00032449473068389375,-0.0001495501393209467,-0.0003208508558394263,-0.00032751770625229237,-0.00031633323699096404,-0.00016588173474976132,-0.00015772296051517885,-0.00032438078959855216,-0.0003175119302829047,-0.00015812217324285324,-0.00031276029127061525,-0.00031495905241901755,-0.00032544547667544374,-0.0001587351857006067,-0.0001692819406550087,-0.00015964085745094633,-0.0001651777287277245,-0.0003294518922110464,-0.0003163159559889957,-0.00032018395954446323,-0.0003189153260259954,-0.0003221658049883411,-0.00030897664807459754,-0.0003135403830900594,-0.000328153261215048,-0.00015745352935027184,-0.0001589904859647519,-0.0003247323631467008,-0.00016246492865274451,-0.00017178560658941968,-0.00016305506330421048,-0.0003128553016801642,-0.00030135912226726235,-0.00016532869527220023,-0.00031542793154073844,-0.00015363529762876652,-0.00014604075271163017,-0.0003260741944714516,-0.0003217972295329534,-0.00031807890670005625,-0.00032061398725283707,-0.0003144716231571539,-0.0003060114291216589,-0.00031859111856826714,-0.00032421344198305623,-0.00016845041351470528,-0.00016635467665138416,-0.000158938697748573,-0.00015126062683745863,-0.00016513975380117571,-0.00015360939631202486,-0.00016387498872056175,-0.00016353255688662696,-0.00015436591183067908,-0.0001727636261362478,-0.00016426250170966162],"biases":[0.0,0.0,-0.4713889539242132,0.0,-0.8982381333261479],"activationType":2},{"weights":[-0.000028118053208578054,0.00003187215166341961,0.00001560053100776231,0.000110366973192499,-0.00013669653014369593,0.0000205609476673467,0.000039013315717017045,-0.00008440019728945336,0.000017063894018833725,-0.0000333843945006487,-0.00006811434637901715,0.000013305770150934785,-0.00007448406245794824,0.000021548559033609925,-0.00005557951032542323,0.000023521893440878152,0.0000590735380145032,-0.0000697480126687532,0.00006820626181120973,0.000019552657229308423,0.000009091217010062606,0.000029196356698700826,-0.00010849058978446265,0.000019330099827173816,-0.000059270645631653114],"biases":[-0.5478040773884014,-0.1803123741400709,-0.2630509600462306,0.0,-0.32420640786811658],"activationType":2},{"weights":[-0.00002521005979951454,-0.00004120104859211612,0.00004046638002371375,-0.0000288921121275927,-0.00003684299400036828,0.000006372151609600291,-0.0000062103949274253979,-0.000042325674061677445,-0.000019140435331640537,-0.000007222710282619323,-0.0005220562534514447,-0.00002701546478086724,-0.00007157548069553725,-0.00004995835139566521,-0.00011144938784128709,0.0002462130569897207,-0.000011361827002064134,0.00012564040801618328,0.0000014670035634352653,0.00010975921104989053,-0.000026294928375424563,0.00000608770655531044,-0.000042895874683839506,0.000021377195785430005,0.000017770224808966125],"biases":[0.0,0.0,-0.9345291315746922,-26.340114904064959,0.0],"activationType":2},{"weights":[0.000017234237673016354,-0.00011280746544759665,0.0000689117762132605,-0.0012426723690848509,-0.0000835954741703924,0.000021051340972296796,0.0000258332954928965,0.00009949501172355586,0.0012684240492806853,-0.000035917454772214124,0.000027893464345810323,0.0000013122412663151487,-0.000144576846038288,-0.000006870637510837062,-0.000001245339699635074,-0.00004316972955615789,-0.000028304530232714115,0.000217965371366914,-0.000625728207699577,-0.000013595086332383885],"biases":[312.47162130304948,312.7130119504453,311.70718775471547,312.7955342940602],"activationType":4}],"costFunctionType":1}