{"layerSizes":[100,5,5,5,4],"connections":[{"weights":[0.00022477857776493824,0.00012580728589752568,-0.0004923313909157819,0.0003125183221650657,0.00008986065774260525,0.00024093521951264348,-0.00007347117425242639,-0.00013498416010229218,0.000028725207603827924,0.00015481992135265768,0.00021516049026158322,0.00021711965918754208,0.00008183424580498395,0.00015134178744122292,-0.00026353832783164644,-0.00003399705888642995,0.000023456523616522937,-0.00045554606954160677,0.000055947556302864016,-0.00028384591587286574,0.00007061100396699992,0.000014116185430365314,-0.000052937027816649434,-0.0004686761484688208,-0.0003289408861232248,0.00007154903987372371,-0.0000838939257767339,-0.0001097978662713551,-0.0003866202028877505,0.0004439898755695469,0.000005561069479955898,-0.000017735084105661074,-0.00025841937225763744,0.00017849508510529567,-0.00029541361116888765,0.00007776035022640713,0.0003364727921249566,-0.00011165097741500596,0.00019403464279035037,0.00003076019720882311,0.00009238386321278776,0.00005416051524039773,-0.0002187093393838681,-0.00012247438401948488,-0.00033418614495831926,-0.00019886891518561026,-0.0000319106711002581,-0.0003254474744035116,-0.000046199197101662766,0.00025871855078066973,0.0005379571623558997,0.00031533279172715024,0.00006708916701970084,0.00019534905264078495,0.00014441031677454904,-0.000342115670360586,0.0006286546675504129,0.00018760943447442935,0.0003391026629491091,0.00023257368091012776,0.00023199230447060485,0.00008243361571758758,-0.0003888366074106565,0.00041678660305007867,-0.0002739520452825993,0.00016791610973416232,-0.00005534810617212929,0.0001455333123836404,0.0001226008967653775,0.0003494383193560189,0.00006945863463949098,-0.000036655245466313915,-0.000053042098652265134,0.0004200116344620736,-0.00033199492263924865,0.00036655965320018364,0.00016719562063915354,0.00027751384524911263,-0.00029725418803803355,0.0002507986373608781,-0.00025794555676376024,0.0003557720107492031,-0.0005868396618224009,0.000008620002844832641,-0.0000936755372434259,-0.00007587169262381132,-0.00006960400301994678,-0.00040323234364578593,-0.0004943754357662519,-0.000011319856254114278,0.0001191703607473164,0.00011686028765383444,0.0002859504093460715,-0.0004013531597935618,0.00013617167404994662,-0.0002188087306353996,0.0001427486002993581,-0.00039173852020870986,0.00019070323167349259,-0.00040183410674993,-0.00019052570475486434,0.0002594153894873023,0.00003555444399264206,0.0005254210006934967,0.00006433749966957373,-0.00009583321396806094,0.00018380105043338307,-0.00013164054911183178,-0.0002039979745775188,0.00011219343025697336,0.00003442518490625905,-0.00019208485065638,-0.0001600731306209379,-0.000044718384271153195,-0.00023756287028759988,0.000037366140120194914,-0.0003586480470723509,0.0000031867040851703925,0.0006029104090907363,-0.0003614777048067187,0.00012006472359593636,0.00008015843092289787,0.00032524313386038595,-0.0004619120986813617,0.0003040526134177341,-0.000024682849036616212,0.00031542295552834605,-0.00043344365793102654,-0.0002921801186644045,-0.0002221548849900033,-0.0001521162538450857,-0.00010298468835334259,-0.00005187359058552281,0.0004165135002155871,0.0001311534593584916,-0.00034703393169638726,0.0004043597965118235,0.00019066769421938746,0.000052065344055766465,-0.000279197707147629,-0.00033267383294751935,-0.0004102562367401862,-0.00010822827058807028,0.00003717447350400288,-0.00044408884716164865,-0.0003227848826928455,0.00010278902768019517,-0.00013809957646781357,-0.00009135907023730038,-0.0001659437986647352,0.00009028338091455449,-0.00010710381214858549,-0.00011347499715404821,0.00036447095350664553,0.00016215674207674158,-0.000009050264768348955,-0.00007156509012070397,-0.0005039326026926454,0.00003895405030557035,-0.00015363108687837021,0.00014519198035728832,-0.00014688235309531084,-0.00001663907194273557,-0.000025842362384158486,0.0003707551993981465,-0.00008280564715155294,0.00032791952550321985,0.0001674967052131763,0.0001958728421260202,-0.00011259558692829773,0.00013809003300333157,0.000250430224884793,0.0002791374443368743,-0.000056287466681932375,-0.00010731480139799566,0.0002040347001287475,-0.00019927177103754295,0.000011608007101923761,-0.00009953641436926453,0.00013997023081752926,0.00013213070968773937,0.00008551578140191154,-0.0003348766235341241,0.0001217877607093412,0.00011672182205205616,-0.00000900248063889445,0.00023516671072147628,0.0001599086556609104,-0.00009629112123093693,-0.000001000359326815562,-0.00044284530425566795,0.0003000317180968994,-0.00017760066563045219,0.00024988957114973573,0.0003429385294490495,-0.00014500575144913263,0.0003470544103077013,-0.000052632180998016535,-0.0008092599986473899,0.00015900033432714219,0.000020192683859040938,0.0002174418104829457,0.0002338818386531111,-0.0001387791605508309,-0.000018169327367973897,-0.0003281118510028901,0.00014200773565045484,-0.000005704642528470923,0.00026667736570866376,-0.00005545115154085713,0.00003596989803079941,0.00026866825078382763,-0.000244657605380623,-0.00002967563100926185,0.0002972583098262863,0.00003175166580049759,0.00011721784674662888,-0.00011064592589253348,-0.000020368663997946076,0.00006445920585291436,0.00019110769501220665,-0.00028972220815042026,0.00009048410029213336,-0.00006473262609587704,-0.000389399138345183,0.00029610167308122715,0.0002920030297067605,-0.000011920275641625125,-0.000417472480468187,-0.00006711760473606724,-0.0006036912066132439,-0.0004193194376827533,0.00009324492728233249,-0.0001640914599730336,-0.00040412249081194196,0.00016072559673656854,-0.00013094341785759687,0.00004448088868025538,0.00024728091874517494,0.0005114844599875213,-0.0002463797252909193,0.000005066054442851206,0.00007907696960883552,0.0000315029810181927,-0.000026257548434417275,-0.0004979525244589422,0.00009777107587561351,0.000047865651964822756,0.000014967821295430914,0.00014626588956075107,-0.0003797262984034514,0.0002341196518330037,-0.00040781358812935634,0.00024231540532074236,0.0005456718393686307,-0.000030045748606287556,-0.0003283183303629036,-0.00004223193912820833,-0.0002451076657212436,0.0001907195005978338,0.0005689326316777389,0.0002471551575105896,-0.00011842332701865373,-0.00010946742783789781,0.000033693684385038486,0.00017225846064518037,0.0005291609041189615,0.0001482076032027872,0.00034107905643246584,-0.00010589977346754729,-0.00018220293820633973,0.00018327319921710157,0.00014146595558134047,-0.0003318795686540442,0.0005537891796909156,-0.0001690387977915909,0.00043966190544791244,-0.0000010479987317533513,-0.00008012482839946397,-0.0002583063009544747,0.0002378875824321896,-0.00014131608582676968,0.00011440239157747439,-0.00041111400072102683,0.00019482961278805572,-0.0001970291502843186,-0.00011866825870539421,-0.00018615836282920038,-0.0001303663504406994,-0.0003587456390312511,-0.00028778740929840676,-0.00027223754859588485,0.00007740208245892528,-0.000012629521858851356,-0.00003962946496487307,-0.000055846610092250435,0.0002350026474517946,-0.00013681004196794048,-0.00028318736226547593,-0.0003282676934740123,0.000017233443889566914,0.00021524365833582856,-0.00007080783115321278,-0.00026566868993277713,-0.00039372751909226935,0.00006259529663692322,0.00006136300117621135,0.0005175249278548359,0.0002839781494300632,0.00036256082818236855,0.0004250262859305586,0.00011776569628022551,0.00006947682242332371,0.00017063690324944122,-0.00007155385271875505,0.0004514179540806746,-0.00006534436471402445,0.000016509393452814942,-0.00010997284339984947,0.00019803068643864223,0.00009043178417832881,-0.00045349121630156876,0.00020311265008783545,-0.00014539324875786555,-0.0000882650449990117,-0.00001607905187340097,0.0004828234241070577,0.00005210490052214235,-0.00034064786165544336,-0.00044396972898430695,-0.00025712903711438853,0.00010578599945208062,0.0002897493601568149,-0.00003019512047736444,-0.00009641876312549873,0.000451828287379213,-0.00015308514311562592,0.00012961145756072766,0.00015839968825482887,0.00028316199962270664,0.00032317725483465003,0.000499999672695728,0.0003241545405066733,-0.000025946615785309932,0.0004814236319022497,-0.00032130590946351646,-0.00038827907243379036,-0.00013692099116605194,0.00010337547772447245,0.0000013113482392662124,-0.0003394041129621368,-0.0002507259857497725,0.0002922308661853856,-0.00007656756179631856,-0.0003180580336688906,-0.00002757477704552957,0.00007118242078233395,-0.00022967200075974203,-0.0000564770220502034,-0.0002883317648972371,0.00013907579781272035,0.00025017634867829426,1.0408883767392206e-7,0.000029204946162948015,0.00035322819961062005,-0.00021415957807392028,0.00018119728540031343,-0.00020325063529882896,-0.000158334744976564,-0.00020285251845754887,0.0001670779526339194,-0.0002561781581631538,0.0004359633743157283,0.00020926301640373488,0.0004587787413022835,-0.0002838487205396907,-0.0001940737076311098,-0.00014048033285896745,0.00004811596721971106,-0.00010811055838424387,-0.00004127645749188508,0.00026588538741446265,-0.0002922646897660936,0.00032133970956375033,0.00017101943369782853,0.00014053677878224298,0.00002541480903277563,0.0005746266877206476,-0.00037495395480238237,-0.00002415088892360225,-0.000298070015858049,0.00008127738550962168,0.000027584856194463708,-0.00010937601730216929,0.0005764301634807496,-0.00044039294132957674,0.00021913060252370538,0.00016220310233138415,-0.00019316023971421097,-0.00003913279954089881,-0.00015707807227949072,0.000016871636063837707,0.0004097717175454088,-0.000082690455285145,0.00017093293886463957,0.00006305365439693246,0.0005108172742465561,-0.0003124550716430617,-0.00031118336298950145,9.257895140806969e-7,0.00017905764530621324,-0.0005562448244075212,0.0001854203438956039,0.00026234864435102705,0.00009213883364619143,-0.0003803588266309252,-0.0002950166139622777,-0.000019394798019706747,0.0004327314593023629,0.00008143674196676334,0.00010460302912545036,0.000029181593044045374,-0.00027503749009669717,-0.0002589335521717095,0.00006908709197699241,0.00007395557404901749,0.0001520696131067353,0.0003960905188129484,0.0003207320466134944,0.0001341563080080874,-0.000029254580858466352,-0.000002998243158659427,0.0002100389571063307,0.000028215315154722187,-0.000005041197401069795,0.000010077505031986893,0.0003440774436125449,0.0001016837051902389,0.00003561516465717201,0.00019341511844092786,0.00016336505063415082,0.0003291560721078296,0.0001746397873276461,0.00008410408286355359,0.0005529448130594017,0.00028220576538567254,0.00009658948243249023,-0.0002873220801734284,0.0002510792456341122,-0.00018008055472189125,-0.00009531451207133613,0.00017617682763512672,0.00011786589042069201,-0.00010977422611365044,0.0004828397890125613,-0.0005231376737178736,-0.00011010117997582925,-0.00029004425891401934,0.00030682684595973635,-0.00006660818877045936,-0.00007469821574284582,0.00012646802043275482,-0.00010879171115595484,-0.00005356822294498441,-0.0002988295750832036,0.0000037331850154582306,-0.00045600828374468507,0.0003084443493691713,-0.0003513957194905881,0.0002736154035664342,-0.00015999529565151487,0.00007768226307787064,-0.00004720296542740698,0.0002979843221189767,0.00035064220193182675,0.0003290325566506407,0.0003693346047254526,-0.0001711179318045351,-0.00006846167677505837,0.00032844616369109966,0.00003507434363295973,-0.00044870450431879735,0.0000657144903668713,-0.0002869383631063947,-0.0002871813543054544,0.0004265583619569901,0.0002926967944251688,-0.00023125442970034344,-0.0001019025315443094,0.00009235943731023336,0.0005193259360630122,-0.0004120857860312229,0.0001694262212386608,0.0002214320371998998,0.00015611915280381686,0.0004758659685962928,-0.0005776309256191582,0.0005148111054334207,-0.00037605720194452096,-0.00003743798196673973],"biases":[0.0,0.0,0.0,0.0,0.0],"activationType":2},{"weights":[0.0009597299961279759,0.000795985995547455,0.0006158451358948725,0.0003746923218893676,0.0007700521740026408,0.00006409089629341693,-0.001775070054569562,0.0000010098551441505169,-0.00025100151539839355,0.00037395204586208083,-0.0006027690782877947,0.0006600602618882043,0.0007072389851165616,0.0006112777782977407,-0.00019514808491930314,0.0007828390321832923,-0.0008114595743510327,0.00022083216770275125,-0.000006005322249431607,-0.0004991188413672708,-0.0017501147486697086,0.0004983539528519218,0.0023049568765667138,-0.0005933412273329525,-0.000971109036237093],"biases":[0.0,0.0,0.0,0.0,0.0],"activationType":2},{"weights":[-0.002687428797215432,-0.00045535247149054237,0.002300443158116003,-0.0013369931784229753,-0.0006106390500202381,-0.0013854600661239352,-0.0016995342189057466,-0.0004799871472096743,-0.0011920030618324009,0.0004164921288304049,-0.0004744158590123859,-0.00007573908624620164,0.0007984274805201579,0.001087159338631863,0.0005458602814010933,-0.0013490906202043266,-0.0012978569650471863,0.0019088788035652772,0.0006200006061062292,-0.001002128153876749,-0.000040097599030566035,0.0002061855261086514,-0.00212253805730984,0.0006505067146905797,-0.0015099472017339865],"biases":[0.0,0.0,0.0,0.0,0.0],"activationType":2},{"weights":[-0.00029813759933865333,-0.00026021590611162107,-0.0002817814383276021,-0.0009379891883583595,0.0005894859911873022,-0.0005381184869482809,-0.0007832477031564001,0.0013244645669988839,0.0013915404867009079,-0.0018427660230223634,-0.0006107944330080097,-0.002388732907544749,0.00011541255753961804,-0.0012305024132380865,-0.0009965562096712559,-0.000204543321135228,-0.0007570540987287042,0.000823170594377674,0.0011422925344411943,0.0008906988803816353],"biases":[191.219211201625,191.05983938633202,192.07394035248942,190.68949727842728],"activationType":4}],"costFunctionType":1}