{"LearningRate":0.05,"hiddenAType":1,"outputAType":4,"layersSize":[4,15,15,2],"Layers":[{"InputSize":4,"NodeSize":15,"Weights":[{"weigths":[-0.32799376834769969,-0.09912523086686447,0.0915837609415864,-0.018085262967177549]},{"weigths":[0.9188341289163888,0.14653041106141546,-0.40208839773491736,0.3971678346542448]},{"weigths":[0.20416894711004145,-0.6346054475981564,-0.08430368195615856,-0.0469836385528534]},{"weigths":[-0.4278727923432779,0.19266726611802049,-0.10450222066720219,-0.7333627192298234]},{"weigths":[0.016684015447348843,-0.18901955712782585,-0.05713679241415278,0.14032654888869162]},{"weigths":[-0.12243505178892712,-0.05352573317690092,-0.046409687516840599,-0.07408420686028458]},{"weigths":[0.4024054859202987,-0.011634830882315279,-0.29343926073964429,0.3723728576704334]},{"weigths":[0.4301507175695546,-0.2852335308089485,0.37012680490211177,0.3851794804980742]},{"weigths":[-0.0820604555996577,-0.5324556833343765,0.15795649462137563,-0.19425991047578676]},{"weigths":[-0.22130985986924812,-0.10767624056795272,-0.1212443989308169,0.12017099235890298]},{"weigths":[0.005401280271729222,-0.07197751638823138,-0.03380988750680936,-0.2817395419908945]},{"weigths":[-0.20993848407167235,0.07589649497481607,-0.1512553543627559,-0.47060654860211345]},{"weigths":[-0.021184998350961594,-0.09808482828268056,-0.08304364030307526,-0.2914339141551221]},{"weigths":[-0.396593468127485,0.309484218811808,0.11141467837325703,-0.3418141002666937]},{"weigths":[-0.37405313688292315,-0.378214326709109,1.0454845267467119,0.247439108289208]}],"Biases":[-0.028087588556578819,-0.7752980855161611,-0.28357963430582119,0.155003238912966,-0.0233675141336585,-0.021265322626663507,0.01853088496793893,-0.55300218302651,0.049650860743377888,-0.037814108067828488,0.03536141058355892,0.052967739236805078,-0.098446896150621,0.24635011580087935,-0.06995817433735385],"_Inputs":[4.472122669219971,2.2313709259033205,0.4701228141784668,0.4164804220199585],"_Outputs":[-1.6805838861863929,3.6328622054367685,-0.8457142606907353,-1.6824360569878892,-0.33894383991620716,-0.7408912220122841,1.8056157979469237,1.06714328664924,-1.512828331843634,-1.2747002916157487,-0.2342084725082456,-0.9828455307162612,-0.5719527937444471,-0.9297364149001312,-1.9836235060243984]},{"InputSize":15,"NodeSize":15,"Weights":[{"weigths":[0.20200682638638005,-0.29856585919358316,-0.2986992735381517,-0.04266363502669126,0.06289032190339955,0.14839354462389618,-0.1130322910518819,-0.372530698866966,-0.18213671139650346,-0.17021654995110736,-0.1980075741267835,-0.117044072400513,-0.23726704892761919,0.027362501708753097,-0.23689566497388188]},{"weigths":[0.05991736375720304,-0.08017014983115795,0.12315281353328933,-0.3637890761432507,0.02575353419279109,0.03546418600883854,-0.3702876378131137,-0.12848366850935306,0.15665026763608437,0.015733588996944396,-0.14666652419239499,-0.3548543016276227,-0.169265359590774,0.08617531441119862,0.4151523575976367]},{"weigths":[0.14138206641210214,0.030978930966455707,0.18820603625752087,0.1424253892189842,0.20484724920710743,0.057950355687759257,0.017300916167452223,0.2559781178217428,0.05206052976981943,-0.12399825400359242,-0.0620550199450171,0.18837170915505603,-0.1905232369658925,-0.21717937276311728,-0.0017762964588331357]},{"weigths":[-0.2613473156508645,-0.21207362780235387,0.18442883886855403,0.0073898277754981659,0.15929742254009544,0.004702444432877958,-0.1310104439213799,-0.1520077380201412,-0.11354759156022139,0.1945958451002264,0.19599781075949164,0.18059462449249415,0.05352365458919404,-0.17179513290674684,0.08391829810620769]},{"weigths":[-0.13511743673156999,0.38291246519149566,0.060644430022700198,0.07050899580154861,-0.09537621139625098,-0.050498387965101917,0.1467544826903894,-0.017515113575800248,-0.2855044344560367,-0.24353436536207449,-0.019984753029537444,0.2789629352062607,0.2369803343769108,0.30761453282677805,-0.30105838371420959]},{"weigths":[-0.2457193806378712,-0.5050954490178271,-0.32512529071294407,0.11661585233890189,0.00026238539423467454,0.22380149602388667,-0.31906693379545805,-0.5020184662977756,0.03944151026556448,-0.23355995999366783,-0.018316619942797216,-0.03539504001878535,-0.07832103201717135,0.1808016450632796,-0.3993188330321452]},{"weigths":[-0.036239589977217549,-0.0863837416170546,-0.006977721793144013,-0.2986430784236227,0.10970792269591114,-0.23527109900504168,-0.14728137962980257,0.1322038782636279,0.10755951202260424,0.0020618072218484887,-0.1776777809236833,0.12181799724076369,-0.1784088025772028,-0.4235466959712786,0.3417556478699317]},{"weigths":[-0.08789560013575507,0.3599684820852917,0.0715565724418705,-0.05041426499911535,-0.08410017632285714,-0.24551561805127265,0.19966574267858556,-0.2811907499470643,-0.0755769228428565,-0.004380582078309488,-0.25338415748451179,-0.2910646148647213,-0.20001823227574379,-0.12284096655298005,-0.15182286698749543]},{"weigths":[-0.16978019266333853,-0.05974704089233071,-0.18968775732986355,-0.13255186221193103,-0.06403060903519474,-0.23296190261452355,-0.1627729366939161,0.04691902415160462,-0.004909316706096301,-0.23305508305086665,-0.258033726521446,0.03470415352560841,-0.17590892296788855,-0.006405338448388904,-0.23534647191521269]},{"weigths":[0.16939757202099998,-0.17586628359264895,-0.0021039249083769854,-0.09768998424417742,0.008107849431866349,0.009389557059055302,-0.0028505981936910046,0.02138655754997961,-0.21302369724339682,-0.0597709123340138,-0.2007404677760384,-0.23087656934221177,-0.15210247254523774,0.004218996101835678,0.050618175686253558]},{"weigths":[0.14989199141614419,0.5238650071210903,0.47545848580965086,0.2174321107862516,-0.20837857335963087,-0.07293757831986082,-0.4074067775689478,-0.02998867927487562,0.1489439231103341,-0.2306488149760813,0.0765004459024417,0.058400692686917329,0.0564970822396451,0.22624933849172439,-0.1772191873945475]},{"weigths":[-0.051670674785578327,-0.06469127315735422,0.3082685365297577,-0.42753633506504498,0.0888973087876487,0.1722449890432492,-0.05507903132807849,0.06754555553973418,0.1028963198073319,0.14419505675960113,0.17876401743161858,-0.27983408397488648,-0.15221292762582953,-0.019491787286997378,0.34754951847253015]},{"weigths":[0.1791435623309659,-0.1138297029242978,-0.1627870305830397,-0.17114414899075978,-0.009050902716390306,0.20641929514337094,0.06641667337298453,-0.018368797362567709,0.1554646236130252,0.24259143297818995,-0.21842284315462519,-0.22998023261110674,-0.14641117292240669,0.043638149516408829,-0.054069786203023429]},{"weigths":[-0.09603161434466032,-0.36821670848511575,-0.2522180353559457,0.5441695214083202,0.024103625742422944,0.0438449398896361,0.08468207416948262,-0.29150445374733349,-0.038947975396953719,-0.005518474903016049,0.06913224930510248,0.21012902276708068,-0.06054809751032374,0.4138705023552851,-0.5810009077110221]},{"weigths":[0.2481705180201468,-0.8029355975859437,-0.17951161640399289,0.1764877655300741,0.05825951665883466,-0.00014169375880518844,-0.18615403264429127,-0.4480347027730047,-0.2739975658076968,0.003093631718844813,0.28701536915732947,0.1907122179076015,0.09410788064156255,0.004626578082053281,0.14750056938102905]}],"Biases":[0.4023667890697041,-0.054134137274469907,-0.15879573925453753,-0.16595206168764718,0.22816355017726287,0.48752083640436619,-0.35605408226330229,-0.18301070203966644,-0.03257325665002492,0.1667358215966076,-0.19102449710335996,0.06919433765436464,-0.030080097354743888,-0.0658226431031562,0.6229910792089414],"_Inputs":[-0.016805838861863929,3.6328622054367685,-0.008457142606907354,-0.01682436056987889,-0.0033894383991620714,-0.007408912220122841,1.8056157979469237,1.06714328664924,-0.01512828331843634,-0.012747002916157487,-0.0023420847250824564,-0.009828455307162613,-0.00571952793744447,-0.009297364149001312,-0.019836235060243985],"_Outputs":[-1.2729904283946807,-1.1543367473187534,0.2500346226145555,-1.3363766939948223,1.869693030350259,-2.446467751247109,-0.7919887246709001,1.197872014400426,-0.475774158041011,-0.451953535011901,0.9380051763270868,-0.19130109098559495,-0.34475235426536929,-1.5610715370528379,-3.115721253446612]},{"InputSize":15,"NodeSize":2,"Weights":[{"weigths":[-0.7497588967012038,0.680379021828277,-0.3034823859043955,0.2468173800684866,-0.45825051652262369,-0.9152032719510839,-0.8825570673230854,0.5155250861924535,0.1773561209896283,-0.276919360032839,-0.7402105790984065,0.5134304142079883,-0.584143262892631,1.0467579459508037,-0.7418699985914521]},{"weigths":[0.08339745722803034,0.6147216611348764,0.47872261702032439,0.021791494961307064,-0.5707976108747264,0.15339240598646465,0.3952366229985366,0.5304622608329653,-0.5235734593885052,0.11802327592735147,-0.08160857435509249,-0.35538460048926875,-0.5987616145010462,0.06371362152252393,0.8552131718692896]}],"Biases":[0.08805183465002094,-0.5640277342377549],"_Inputs":[-0.012729904283946808,-0.011543367473187533,0.2500346226145555,-0.013363766939948223,1.869693030350259,-0.02446467751247109,-0.007919887246709001,1.197872014400426,-0.00475774158041011,-0.00451953535011901,0.9380051763270868,-0.0019130109098559495,-0.003447523542653693,-0.01561071537052838,-0.03115721253446612],"_Outputs":[-0.8834632136903443,-0.9908819904085877]}]}