{"LearningRate":0.004999999888241291,"hiddenAType":1,"outputAType":4,"layersSize":[9,128,128,2],"Layers":[{"InputSize":9,"NodeSize":128,"Weights":[-0.0009276354685425758,-0.07200644165277481,0.016467714682221414,-0.016659434884786607,-0.06866125017404556,0.04825783520936966,-0.08634686470031738,-0.048283182084560397,-0.0101127028465271,0.005120834801346064,0.03644504398107529,-0.029099425300955774,0.008550149388611317,-0.06726077198982239,-0.02049282379448414,0.0042149401269853119,-0.006973763927817345,0.005092783831059933,-0.05703205242753029,0.04254135116934776,-0.08106055855751038,-0.07807967066764832,-0.07289209961891175,-0.05747126787900925,0.032514702528715137,-0.0747784748673439,-0.012997947633266449,-0.0682755634188652,-0.012542321346700192,-0.01621185801923275,-0.03394104167819023,-0.003223004750907421,0.0008412780589424074,0.03042319044470787,-0.08463753014802933,0.01860828511416912,0.008912041783332825,0.0360734686255455,-0.014818803407251835,-0.06326823681592941,-0.08239108324050904,-0.07604346424341202,-0.01567324809730053,-0.06741148978471756,0.011650362983345986,-0.012527571991086007,-0.004389806184917688,0.035776954144239429,-0.015986569225788118,0.01902404986321926,-0.08009609580039978,-0.09749424457550049,-0.04744212329387665,-0.017454663291573526,-0.023265685886144639,-0.07880809903144837,0.04988011717796326,-0.017844388261437417,-0.049780700355768207,-0.0018574520945549012,0.07874853909015656,-0.01857672445476055,0.00744972238317132,-0.0047773923724889759,0.017953068017959596,-0.07659054547548294,-0.06284715980291367,0.02931477315723896,0.0491473414003849,-0.08590885996818543,-0.05470723658800125,-0.04212849959731102,-0.013309691101312638,-0.004647900816053152,-0.014455972239375115,-0.00973530299961567,-0.07145825773477555,-0.07137255370616913,0.044564105570316318,-0.0057037039659917358,0.026221469044685365,-0.030016103759407998,0.017437521368265153,-0.08747009187936783,-0.026642629876732827,0.004871712066233158,0.03184864670038223,-0.1037164106965065,-0.09059733897447586,0.06047650799155235,0.06531340628862381,-0.08595738559961319,0.06315434724092484,0.0336906872689724,-0.023816147819161416,-0.04068602994084358,-0.04548664763569832,-0.08270961046218872,0.056191131472587588,0.06146860122680664,-0.08115369081497193,-0.004015667829662561,-0.044767335057258609,-0.007978732697665692,0.0034541497007012369,-0.008176969364285469,-0.07732553780078888,-0.006051276810467243,0.001988436561077833,-0.03813331201672554,-0.04081059247255325,-0.02419590763747692,-0.03292248025536537,-0.07304549962282181,-0.030800409615039827,0.047765228897333148,0.0029400342609733345,-0.12766973674297334,-0.039747510105371478,0.08342034369707108,-0.013807778246700764,0.017802096903324128,-0.011695211753249169,0.015555011108517647,-0.024563642218708993,-0.016624202951788904,-0.0898948609828949,-0.06532610952854157,0.03965073451399803,-0.006094921380281448,0.046421200037002566,-0.08977318555116654,0.03790300711989403,0.05537944659590721,0.011288641020655632,-0.05598660558462143,-0.005063188727945089,-0.053129833191633227,-0.05433370918035507,0.005890158005058765,0.024723323062062265,-0.07677379995584488,-0.02564389631152153,0.07348377257585526,0.0709308385848999,0.03772418946027756,-0.15729407966136933,-0.07962358742952347,0.04323267936706543,0.011933572590351105,0.003344746306538582,-0.1567476987838745,0.05383855476975441,0.05398442596197128,-0.0811370313167572,-0.08259441703557968,0.005213375203311443,0.01656106300652027,-0.06360938400030136,0.00015859350969549268,-0.0357772633433342,-0.021939121186733247,0.06237156316637993,-0.00043361535063013434,-0.040979690849781039,-0.0825626477599144,-0.050360724329948428,0.04130132496356964,-0.019101334735751153,0.08977103978395462,-0.03779606893658638,0.03917240723967552,0.09452088177204132,-0.1992827206850052,-0.12748442590236665,-0.0028748009353876116,0.010304851457476616,0.0021839402616024019,0.01981380581855774,0.05088672786951065,-0.11749192327260971,0.01091504842042923,0.10401465743780136,0.07575704157352448,0.12085814774036408,-0.019561557099223138,-0.0076984534971416,0.0007903933874331415,0.006666707806289196,-0.017489517107605935,0.015501964837312699,0.0451122522354126,-0.10184308141469956,-0.0031037465669214727,-0.014561274088919163,-0.052892204374074939,-0.006234491243958473,0.036005496978759769,-0.04052259400486946,-0.014514383859932423,0.0056163109838962559,-0.017038697376847268,0.012467724271118641,0.09804467856884003,-0.07064621150493622,0.0032623466104269029,-0.03802138566970825,-0.10054565966129303,0.03687542304396629,-0.10142553597688675,-0.04627388343214989,0.02888575568795204,-0.038371551781892779,0.0538627915084362,0.03622043877840042,-0.006116366479545832,-0.08990200608968735,0.016073649749159814,0.04604135826230049,0.02213871479034424,-0.09002143889665604,-0.006834297440946102,0.0028637119103223087,-0.07948260754346848,0.0067662885412573818,-0.014481902122497559,-0.08506976068019867,0.017113111913204194,0.00417246762663126,0.03706200048327446,0.0076153213158249859,-0.04785364493727684,-0.04733176529407501,0.030619466677308084,-0.12198459357023239,-0.08429475873708725,-0.0032155888620764019,-0.004298147279769182,0.07554710656404495,0.01955394633114338,-0.02415679208934307,0.0349443256855011,0.029447773471474649,0.04063669219613075,0.038570862263441089,-0.08584950864315033,-0.027359014376997949,-0.05294439569115639,0.08523457497358322,-0.018767094239592553,0.016037950292229654,-0.02896294742822647,0.016302110627293588,-0.12790518999099732,-0.11565270274877548,-0.002926422283053398,0.06015780568122864,-0.043805915862321857,0.03623240813612938,0.010001725517213345,0.017608165740966798,-0.005129875149577856,-0.014342422597110272,-0.016628120094537736,0.025485962629318239,-0.014137757010757923,-0.08666443079710007,0.03341525048017502,-0.057684071362018588,0.011324605904519558,-0.06382067501544953,0.07487248629331589,0.0564432255923748,-0.06695607304573059,-0.09699694812297821,-0.03873491659760475,-0.05831964686512947,0.047706808894872668,0.04788896068930626,0.09843683987855911,0.04397973418235779,-0.10104279220104218,-0.08444081246852875,0.03910401836037636,0.03240886330604553,-0.005174340680241585,-0.13181409239768983,-0.00471477909013629,-0.06190010532736778,0.04526977241039276,-0.0703897550702095,-0.008796213194727898,0.024242127314209939,-0.08427609503269196,-0.08616231381893158,0.038559690117836,-0.035944294184446338,0.03139306604862213,0.04121001809835434,-0.04093568027019501,-0.08545858412981034,0.041852403432130817,-0.04309787228703499,-0.09662620723247528,-0.045148901641368869,-0.017148684710264207,0.04445074871182442,-0.08648902177810669,-0.07791229337453842,0.020069941878318788,-0.0793805792927742,-0.05393706262111664,-0.04608435183763504,0.011915013194084168,-0.023410169407725335,0.03443596884608269,0.04374091699719429,0.03156299889087677,-0.08573637902736664,0.045276712626218799,-0.0629572793841362,0.02204074338078499,-0.09644850343465805,0.04276525229215622,-0.12796595692634583,-0.12034337967634201,0.03345702588558197,0.0019692289642989637,-0.0026085202116519214,0.05548296123743057,0.10220933705568314,-0.04419489949941635,0.019122818484902383,-0.026020999997854234,0.015798071399331094,-0.024194316938519479,-0.0639791414141655,-0.04657807946205139,0.02672325260937214,-0.054278414696455,-0.06257300823926926,0.041225023567676547,0.0225832536816597,-0.02140985243022442,0.027044204995036126,-0.07115031033754349,0.022001562640070916,-0.019839134067296983,-0.06722837686538696,-0.02470487542450428,-0.024605317041277887,-0.03685922920703888,-0.058520037680864337,-0.18247820436954499,0.007675171829760075,0.017221182584762574,0.00045139584108255804,0.0010340830776840449,-0.08068200945854187,0.09954701364040375,-0.0685444325208664,0.057585421949625018,-0.043331440538167956,0.012293259613215924,-0.062049318104982379,-0.059581056237220767,-0.02808966115117073,-0.07343082129955292,-0.02112097479403019,-0.02232486568391323,-0.03780203312635422,-0.030618414282798768,-0.03847932815551758,0.03957108408212662,-0.022372115403413774,0.05210272595286369,0.01485504861921072,0.016085943207144738,0.07282011955976486,-0.07195284962654114,0.07464417815208435,-0.11005770415067673,-0.015643535181879998,-0.01006906945258379,0.0323932059109211,0.017980489879846574,0.03325435891747475,-0.0071303569711744789,-0.07411576062440872,-0.05039951205253601,0.024819370359182359,0.030955472961068155,-0.0758085697889328,0.04739009216427803,-0.11374304443597794,-0.0046835909597575668,-0.044798579066991809,-0.08196892589330673,-0.01048986054956913,-0.02184714563190937,0.007680103648453951,-0.06323636323213577,0.017258217558264734,0.0225841011852026,-0.0022610980086028578,-0.04023998975753784,0.05258456617593765,-0.04448280856013298,-0.05212347209453583,0.01598193682730198,0.011652961373329163,-0.08632781356573105,-0.03895086422562599,0.04663875326514244,-0.04197021573781967,0.0114454235881567,0.043937232345342639,-0.006079937797039747,-0.038891345262527469,-0.030618784949183465,-0.07920324802398682,-0.043574944138526919,0.06587707996368408,0.07477106899023056,0.023369653150439264,-0.06428427249193192,-0.14208723604679109,0.022697720676660539,0.02944176457822323,-0.044808149337768558,-0.097917340695858,0.06348481774330139,-0.09112078696489334,0.020438844338059427,0.09566710144281388,0.08174007385969162,0.10673251003026962,0.009409064427018166,0.0077654775232076649,0.015912942588329316,0.005810585338622332,0.048094492405653,-0.10293103009462357,0.011943021789193154,-0.05163830146193504,-0.017358791083097459,0.039280351251363757,0.037314750254154208,-0.03734217584133148,0.012195847928524018,-0.017743032425642015,0.01345906499773264,-0.09432855248451233,-0.078715018928051,0.04541706293821335,-0.08117701858282089,-0.002873026067391038,0.046670880168676379,-0.0045983376912772659,0.12610700726509095,0.04121452942490578,-0.023958491161465646,-0.09369100630283356,0.0567820779979229,0.04034975916147232,0.027783207595348359,0.04536253213882446,-0.044899649918079379,0.017057068645954133,-0.01740448735654354,-0.038475990295410159,-0.09968925267457962,-0.02916114591062069,0.06149257719516754,0.015290983021259308,-0.03728663921356201,-0.016382532194256784,0.03180341422557831,-0.05623136833310127,-0.009686611592769623,0.018657676875591279,0.07645543664693833,-0.08821309357881546,0.027227848768234254,-0.05922336131334305,0.042345307767391208,-0.0926097109913826,-0.009627647697925568,0.04036835953593254,-0.05323977768421173,-0.005763980094343424,-0.004305554088205099,-0.05996178090572357,0.02047756500542164,0.03282453492283821,-0.04727936536073685,-0.055868539959192279,0.0054668253287673,-0.03482530638575554,0.026649028062820436,-0.03446114808320999,-0.022985100746154786,0.026335744187235833,0.0015951936366036535,-0.11018167436122894,-0.016450054943561555,0.05948551371693611,-0.058757610619068149,-0.06926120072603226,0.06419822573661804,0.04959842935204506,0.010286015458405018,-0.007094926666468382,-0.004659405443817377,-0.013902788050472737,0.0073964549228549,-0.012940635904669762,-0.03741731494665146,-0.09814947843551636,-0.023743852972984315,0.001890726387500763,0.04780925437808037,0.05804534628987312,0.013397462666034699,-0.08734718710184097,-0.01580977439880371,-0.04913334921002388,0.05212043970823288,0.01391652412712574,-0.05608779191970825,-0.059144217520952228,-0.05861964449286461,0.0024047107435762884,-0.026334736496210099,-0.15432383120059968,0.06722992658615112,0.028322245925664903,-0.03446279838681221,0.0714571475982666,0.01791037619113922,0.07812485098838806,0.06517636775970459,-0.1536208540201187,-0.09217008948326111,0.04585222899913788,0.004667502362281084,-0.03111698105931282,-0.044082723557949069,0.11003199219703675,-0.03158801421523094,-0.07426540553569794,-0.008636829443275929,-0.02549010142683983,0.0390419140458107,-0.0890607163310051,0.05083955079317093,-0.01653500832617283,7.199192850748659e-7,0.06323248147964478,0.06485544890165329,-0.11554073542356491,-0.13064952194690705,0.049035169184207919,0.04203546792268753,-0.007587210275232792,-0.016186129301786424,0.06231987848877907,0.20439951121807099,0.1832825392484665,-0.4150724709033966,-0.2936347424983978,0.0033707383554428818,0.01150053646415472,0.040152549743652347,-0.023632291704416276,0.09551673382520676,0.027194343507289888,0.021361226215958597,0.037906475365161899,-0.06355683505535126,-0.035040177404880527,-0.06066093593835831,-0.05588043853640556,0.016791146248579027,0.02329615131020546,0.008946984075009823,-0.02296546846628189,-0.1190686747431755,0.0703049972653389,0.0025435523129999639,0.005112102720886469,0.0027473843656480314,-0.06938862800598145,0.032007522881031039,0.0238624457269907,0.032838381826877597,-0.05216001719236374,-0.08002118021249771,0.034849248826503757,-0.004969330504536629,-0.030331086367368699,-0.04848993197083473,0.026020802557468416,-0.05672333016991615,-0.021914690732955934,-0.07895257323980332,-0.06632128357887268,-0.07874031364917755,-0.0060670883394777779,0.05756700038909912,0.028630107641220094,0.04187638312578201,-0.049426231533288959,-0.09471768885850907,0.0677187591791153,-0.00344924908131361,-0.07183115184307099,0.015473157167434693,0.009242195636034012,-0.084462471306324,0.009463108144700528,-0.07708156108856201,-0.024304872378706933,-0.05927804857492447,-0.07261725515127182,0.04063945636153221,-0.05672368407249451,0.06112120300531387,0.047359567135572436,0.03126434609293938,0.015101075172424317,0.015560229308903218,-0.10509833693504334,-0.054917238652706149,-0.053696226328611377,-0.03139264136552811,-0.00736233452335,0.010858867317438126,0.09541773796081543,-0.00764748640358448,-0.08333461731672287,-0.01913726143538952,-0.06701425462961197,0.048485688865184787,-0.05060609430074692,0.053878217935562137,-0.06940246373414993,0.020087426528334619,-0.0010138950310647488,0.01922007091343403,0.023381521925330163,-0.0884765014052391,0.00876378919929266,-0.025514399632811548,-0.0823601558804512,-0.01744900643825531,-0.01192977000027895,-0.0360882505774498,0.018530696630477907,-0.03736792504787445,0.012775566428899765,-0.010003567673265934,-0.07198408246040344,-0.05876821652054787,-0.05714163929224014,0.04392030090093613,-0.08959702402353287,-0.021655399352312089,-0.02671569027006626,0.06763771921396256,-0.017210092395544053,-0.060648124665021899,0.023985113948583604,0.039280395954847339,-0.029618095606565477,-0.0019938661716878416,0.03469555452466011,-0.08145672082901001,0.041799452155828479,0.005883445031940937,-0.05479356646537781,-0.012175281532108784,-0.07124295085668564,-0.004739956930279732,0.003162518609315157,-0.05167412385344505,-0.017146971076726915,0.030152374878525735,-0.09013745933771134,0.07640083134174347,-0.07152695208787918,0.028422052040696145,0.0352729968726635,-0.004828439559787512,-0.05342518538236618,-0.08549972623586655,0.020655453205108644,-0.0730670616030693,0.033664852380752566,0.03307447209954262,-0.0880165845155716,-0.0038644932210445406,-0.004887530580163002,0.008054913952946663,0.03703929856419563,-0.040823183953762057,-0.07761484384536743,0.00890408456325531,-0.06171945109963417,-0.07179433107376099,-0.03091384656727314,0.009119502268731594,-0.033458445221185687,0.0072579775005578999,-0.03218206763267517,-0.09375529736280441,0.04322127252817154,-0.06294824928045273,0.04240833967924118,0.038397762924432757,0.021163269877433778,-0.04710245504975319,0.010865767486393452,-0.0935639888048172,-0.07390749454498291,0.038887158036231998,0.009603691287338734,0.002682821825146675,0.00436284439638257,-0.06983925402164459,-0.07068931311368942,0.004036214202642441,0.010952439159154892,0.012251820415258408,0.009393826127052307,-0.020457735285162927,-0.03179680183529854,0.0532761886715889,-0.022698774933815004,-0.087766632437706,0.02664630487561226,0.007139317691326141,-0.03239775076508522,0.02061646059155464,0.06253243237733841,-0.05548054724931717,0.03310056030750275,-0.034407489001750949,-0.011508905328810215,0.005054645240306854,-0.019722212105989457,-0.035492900758981708,0.023227175697684289,-0.013053903356194497,-0.0025997054763138296,0.01908138394355774,-0.015199127607047558,-0.07501198351383209,0.042637716978788379,0.0366816371679306,-0.004993817303329706,0.007894747890532017,-0.04332825541496277,-0.033888839185237887,-0.000160645431606099,-0.09462898224592209,-0.03300715237855911,-0.020960405468940736,-0.016992943361401559,-0.03143269196152687,-0.08265082538127899,-0.028687072917819024,0.045995935797691348,-0.005360953509807587,-0.07064402848482132,-0.0623844712972641,-0.024660436436533929,-0.021945608779788019,-0.05561133474111557,-0.04297514632344246,0.05145067349076271,-0.053569477051496509,0.03404097631573677,-0.07636287063360214,0.04241331294178963,-0.08528798818588257,-0.07225480675697327,-0.05182541906833649,-0.036013077944517139,-0.041399236768484119,0.03122406266629696,-0.06041691079735756,0.06293712556362152,-0.07530058920383454,-0.032964903861284259,-0.0024927565827965738,-0.0761953592300415,0.04136853665113449,-0.05259561911225319,-0.0821542739868164,0.035573624074459079,0.048414211720228198,0.13742771744728089,-0.2443760633468628,-0.10920792818069458,0.044417545199394229,-0.019632240757346154,0.00981349777430296,-0.016154756769537927,0.05486893653869629,0.04663350060582161,-0.07604610174894333,-0.09170295298099518,-0.06646137684583664,0.026948394253849984,-0.02745378203690052,-0.03842281177639961,-0.01832103542983532,0.03329693526029587,-0.04247487336397171,-0.02543904259800911,0.07597021758556366,-0.07648314535617829,-0.04915428161621094,0.06405679136514664,0.01847204938530922,-0.03324781730771065,0.022293556481599809,-0.10551104694604874,0.016219288110733033,0.031760018318891528,0.03255762159824371,0.04260249063372612,-0.023353533819317819,-0.08705897629261017,-0.06440171599388123,0.06348240375518799,-0.048474058508872989,0.018992921337485315,0.006169892847537994,-0.10698959231376648,-0.03430565446615219,0.025014083832502366,-0.0021637461613863708,-0.011131149716675282,0.06764047592878342,0.009468481875956059,-0.09397734701633454,0.02065904065966606,-0.11333700269460678,0.001270822947844863,0.04950236156582832,0.06372183561325073,-0.06358208507299423,0.022392513230443,0.03853929042816162,-0.03738570958375931,-0.009379563853144646,-0.01731564849615097,-0.04851068556308746,0.012461111880838871,-0.03544396162033081,-0.04937361180782318,0.07392759621143341,-0.05638277530670166,0.038852449506521228,-0.013852156698703766,-0.09908045828342438,0.03977292776107788,-0.012152586132287979,0.0017733790446072817,-0.02524350956082344,0.012582383118569851,-0.0034900070168077947,0.12779994308948518,0.011321303434669972,-0.0992969200015068,-0.005465446971356869,0.021779468283057214,0.03559308126568794,0.07685694098472595,-0.03302597627043724,-0.030813394114375116,0.004392321687191725,-0.0002634551201481372,-0.05912482738494873,0.04272067919373512,0.04654436931014061,-0.06835637986660004,-0.0038216758985072376,0.013579902239143849,-0.04791232571005821,-0.10085683315992356,0.1073608249425888,0.05001170560717583,-0.07354172319173813,0.06855109333992005,0.051607221364974979,-0.011269109323620797,-0.0446147620677948,-0.013797406107187271,0.009113211184740067,-0.09621299058198929,-0.017829375341534616,0.021793032065033914,-0.03076370432972908,0.006949741858989,0.021636689081788064,-0.0031087298411875965,0.01524003129452467,-0.046678103506565097,-0.08441143482923508,0.04564415290951729,0.025105701759457589,-0.08326762169599533,-0.010523845441639424,-0.073076531291008,-0.02088269032537937,0.04839574545621872,0.019210876896977426,-0.10443562269210816,0.03556543216109276,-0.0876406654715538,-0.04945395886898041,-0.06310512125492096,0.007453314494341612,0.03478860855102539,-0.03539791330695152,0.05652511864900589,-0.003032220993191004,-0.03511490672826767,-0.03320449963212013,0.006668392103165388,0.0034410448279231788,-0.024399802088737489,-0.0003352338680997491,0.005453536286950111,0.03317234292626381,-0.020285654813051225,-0.09231141954660416,0.02587062306702137,-0.0779912993311882,0.03041534684598446,-0.10155434906482697,0.0201165359467268,-0.010823171585798264,0.07571243494749069,-0.013493799604475499,-0.06924165040254593,0.05290001258254051,-0.06853042542934418,0.006096322555094957,-0.07314920425415039,-0.019656674936413766,-0.07638003677129746,-0.07435418665409088,0.010362922213971615,0.014663610607385636,-0.042005278170108798,-0.007124633062630892,-0.0040838285349309448,0.003379091387614608,0.07046237587928772,-0.05398387834429741,0.00045362208038568497,-0.09373496472835541,-0.039811305701732638,0.024579830467700959,0.010649295523762703,0.05803607404232025,-0.043128468096256259,0.045820970088243487,-0.10457464307546616,-0.10154734551906586,0.06760349869728089,-0.043632373213768008,-0.09190693497657776,-0.006561277899891138,-0.006001720670610666,-0.0149201899766922,-0.061803385615348819,-0.022376904264092447,-0.021257424727082254,-0.023364458233118058,-0.05755068361759186,-0.026405656710267068,0.007587679196149111,0.028398368507623674,-0.0020013402681797745,0.029980285093188287,-0.12752431631088258,-0.006438932381570339,0.00983495730906725,-0.04437752440571785,0.0432978980243206,0.06377092748880387,0.05424859747290611,0.01455867849290371,-0.00016375500126741827,-0.021526191383600236,0.022241920232772828,0.04711152985692024,0.024181300774216653,0.0014397196937352419,0.013477275148034096,-0.09454751759767533,-0.014736848883330822,0.0028817993588745596,0.21506622433662415,0.0023430564906448128,-0.02131514437496662,-0.1969355195760727,-0.016641035676002504,0.06463245302438736,0.010492888279259205,-0.04391256719827652,-0.01568010076880455,-0.0064656781032681469,-0.02227945625782013,-0.005492260213941336,-0.021677525714039804,-0.04860898107290268,0.04392135888338089,-0.048118047416210178,-0.014307241886854172,0.007256597280502319,0.022585853934288026,0.03651731088757515,-0.02689085155725479,0.004247612319886684,-0.053384773433208469,-0.06622974574565888,-0.05726175010204315,-0.076423779129982,0.0022133721504360439,0.036456622183322909,0.03442583605647087,-0.06019844859838486,-0.0464477613568306,-0.09260694682598114,-0.04509344324469566,-0.07193110138177872,-0.04588213562965393,-0.028063565492630006,-0.017170250415802003,-0.041253671050071719,0.06747119128704071,-0.08982129395008087,0.006236124783754349,-0.04803815111517906,-0.06058576703071594,0.021562442183494569,-0.00020113639766350389,-0.0025097066536545755,0.04915035143494606,-0.09217898547649384,0.03136846423149109,-0.06785155832767487,-0.017620664089918138,0.015535748563706875,-0.0347411185503006,0.0027866712771356107,-0.03531169891357422,0.0376875214278698,0.014414673671126366,-0.03245022892951965,-0.0006434940733015537,-0.024274339899420739,0.014080001041293145,-0.10883679240942002,0.04777837172150612,-0.08491364121437073,-0.04699011147022247,0.01486668735742569,-0.04548259451985359,-0.02418949082493782,0.0001405395451001823,-0.08678890019655228,0.04460451751947403,0.027427764609456064,-0.0573740154504776,-0.03131968155503273,0.1171385645866394,0.06375014781951904,0.043261028826236728,0.030386261641979219,0.005735871847718954,-0.07601528614759445,0.048599064350128177,-0.11011138558387757,-0.0118645541369915,-0.013194327242672444,-0.03443818911910057,0.006023493129760027,0.04276406392455101,-0.019523518159985544,-0.02511279098689556,0.032265178859233859,-0.05127252638339996,-0.04576800763607025,-0.0543944425880909,-0.024392621591687204,-0.00262753595598042,-0.06588191539049149,0.025668073445558549,-0.0651160255074501,0.07016751915216446,0.057929735630750659,0.033095329999923709,-0.12419713288545609,-0.0749373510479927,-0.0031957172323018314,-0.012456243857741356,0.0213286355137825,0.03951340541243553,0.026979956775903703,-0.021126821637153627,-0.033455997705459598,-0.09900099784135819,0.013032320886850357,-0.06785981357097626,0.046941693872213367,0.013430953025817871,0.02478966861963272,0.05304884538054466,0.07412684708833695,0.08273813128471375,-0.07595065981149674,-0.13923560082912446,0.005960463546216488,0.04177333414554596,0.06611194461584091,-0.012696627527475357,0.00506021361798048,0.02714061737060547,-0.07670901715755463,-0.059134695678949359,0.01904319040477276,-0.07327911257743836,-0.07806262373924256,0.023006705567240716,0.0171962920576334,0.07414060831069946,0.02119065448641777,-0.040344852954149249,-0.05192500352859497,-0.05981189012527466,-0.048155419528484347,0.02213505655527115,0.006002651993185282,0.0433870330452919,-0.002994092181324959],"Biases":[-0.012233768589794636,-0.0154569111764431,0.00028940540505573153,0.0006285530980676413,-0.00516086257994175,-0.011524234898388386,0.012225990183651448,-0.007958038710057736,-0.020256925374269487,-0.018710648640990258,0.007115359418094158,-0.0012065817136317492,-0.01895716041326523,0.0015362133271992207,-0.006004837807267904,-0.0156983844935894,-0.030119512230157853,-0.021657884120941163,0.03698645159602165,-0.03605418652296066,-0.03809598833322525,-0.01149333082139492,-0.0031075046863406898,-0.037026695907115939,-0.020822808146476747,-0.017844388261437417,-0.023016005754470826,-0.004840384237468243,-0.026910623535513879,-0.011026483960449696,0.013064787723124028,-0.047045666724443439,-0.00907448772341013,-0.011455567553639412,-0.01046261377632618,-0.02641809731721878,-0.007796229794621468,-0.026453739032149316,-0.012723688967525959,-0.029636524617671968,-0.008888027630746365,-0.017761215567588807,0.014227309264242649,-0.01700977049767971,-0.0036257572937756778,-0.02584424987435341,0.008325411938130856,-0.047119226306676868,0.007333744317293167,-0.005669593345373869,-0.0018745195120573044,-0.018974801525473596,-0.0029891440644860269,-0.003960947040468454,-0.009881816804409027,-0.01765645295381546,-0.006504266522824764,-0.037424683570861819,0.016652118414640428,-0.001611331943422556,-0.021686790511012079,-0.013505930081009865,-0.023695839568972589,-0.1106250062584877,0.011019869707524777,-0.006298095919191837,-0.006713090930134058,-0.02008255198597908,-0.017693810164928438,-0.017151882871985437,-0.030917393043637277,-0.01762506738305092,-0.00914024654775858,-0.01174380537122488,-0.0006471522501669824,-0.018038878217339517,-0.004039265215396881,-0.022392665967345239,0.00954266358166933,0.007924512960016728,-0.030475592240691186,0.0006196036119945347,-0.025550581514835359,-0.013898814097046852,-0.01642009988427162,-0.011994135566055775,-0.01761619932949543,-0.00390454544685781,-0.017833441495895387,-0.05878956988453865,-0.007415181957185268,0.012452959083020687,-0.015352590940892697,-0.014284538105130196,-0.005102014634758234,-0.009965052828192711,-0.03945307433605194,-0.016962775960564615,-0.011493092402815819,0.00766731146723032,-0.03612558916211128,-0.010084371082484723,-0.02157922089099884,-0.01691664755344391,-0.016068123281002046,-0.02321872115135193,-0.01292380690574646,-0.014875532127916813,0.018903953954577447,-0.03144683316349983,-0.010582677088677884,-0.008291445672512055,0.012567002326250077,-0.025936385616660119,-0.027782324701547624,-0.020069697871804239,-0.004629027564078569,-0.01936311647295952,-0.020050374791026117,-0.03284607082605362,-0.019151216372847558,-0.02035638689994812,0.0034058194141834976,-0.006955875549465418,-0.0068634022027254108,-0.062083471566438678,-0.020538590848445894,-0.03317541256546974],"_Inputs":[3.1789791584014894,3.612447738647461,2.753110647201538,3.2177646160125734,2.360321044921875,2.360321044921875,1.190673828125,1.190673828125,-1.0088000297546387],"_Outputs":[-0.48182910680770876,-0.13567209243774415,-0.846656084060669,-0.5045179724693298,-0.5755332112312317,-0.31926286220550539,-0.32427123188972475,-0.31111329793930056,-0.4677920341491699,-0.5833851099014282,-0.17506295442581178,-0.3604494631290436,-0.5734871029853821,-0.34221675992012026,-0.44085872173309328,-0.6568940281867981,-0.46436893939971926,-0.48508989810943606,-0.04389939829707146,-0.5365439653396606,0.38216960430145266,-0.36301830410957339,-0.004755523055791855,-0.560542106628418,-0.3772246837615967,-0.3494212329387665,-0.5303899049758911,0.04136766493320465,-0.6890764832496643,-0.3211617171764374,-0.3607187271118164,-0.11469396948814392,-0.4265328049659729,-0.304921418428421,-0.6632528901100159,-0.12138722091913223,-0.5762990117073059,-0.5521664023399353,-0.252299964427948,-0.9894434809684753,-0.4851611852645874,-0.32930952310562136,-0.1970992088317871,-0.546457052230835,-0.6227360963821411,-0.3849840760231018,-0.359063059091568,-0.47010278701782229,0.614289402961731,-0.3184846341609955,-0.5502597093582153,0.5250165462493897,-0.37169378995895388,-0.18118971586227418,-0.5031346678733826,-0.48284658789634707,-0.37498241662979128,-0.5179674625396729,-0.02527019940316677,-0.4968397915363312,-0.33869606256484988,-0.5652182102203369,-0.20310889184474946,-0.9279214143753052,-0.22144246101379395,-0.2559710144996643,-0.26289287209510805,-0.8501262664794922,-0.5737727284431458,-0.6871948838233948,-0.6856908202171326,-0.6550524830818176,-0.309599369764328,-0.49713075160980227,-0.2981759309768677,-0.19878709316253663,-0.2501704692840576,-0.5541854500770569,-0.29624608159065249,-0.3499910533428192,-0.4769356846809387,-0.49527695775032046,-0.3712328374385834,-0.28123870491981509,-0.18522678315639497,-0.7876954674720764,-0.8756207823753357,-0.7192445993423462,-0.4670861065387726,-0.43703314661979678,-0.7025517821311951,-0.2563275396823883,-0.29892417788505556,-0.5330495834350586,-0.5248850584030151,-0.3647024631500244,-0.410738468170166,0.35098087787628176,-0.17350132763385774,0.02867197059094906,-0.35332170128822329,-0.4315359890460968,-0.3963576853275299,-0.13384094834327699,-0.45980104804039,-0.14097389578819276,-0.6365053057670593,-0.5163377523422241,-0.8296316266059876,-0.4721136689186096,-0.22015072405338288,0.11322914808988571,0.1016375869512558,-0.30456146597862246,-0.3281698524951935,-0.531988263130188,-0.45643624663352969,-0.23005202412605287,-0.2807319462299347,-0.7126187086105347,0.2540937662124634,-0.5309392213821411,-0.8326281905174255,-0.27802085876464846,-0.482889860868454,-0.013515271246433258,-0.6970345377922058,-0.446560800075531],"forwardCS":{"instanceID":24638}},{"InputSize":128,"NodeSize":128,"Weights":[-0.040730807930231097,-0.09036717563867569,-0.07195216417312622,-0.0763634592294693,0.004691106732934713,0.03015241026878357,0.08309582620859146,-0.0039628432132303719,-0.021918989717960359,-0.03648586943745613,-0.0710500180721283,-0.010589532554149628,-0.006584939081221819,0.08500359952449799,-0.03598100692033768,0.08569087833166123,0.07900901138782501,-0.05087802931666374,0.023791655898094178,-0.057690832763910297,-0.05056558921933174,0.07236739248037338,-0.03377135470509529,0.04156842455267906,0.047291241586208346,0.018200933933258058,-0.022290172055363656,-0.0171810295432806,-0.06432190537452698,0.02334919199347496,0.002774276304990053,0.06438659876585007,0.034559015184640887,-0.03462868183851242,-0.08419006317853928,-0.011715873144567013,0.04465021565556526,0.06011831760406494,-0.07544627785682678,-0.011687210761010647,-0.04451215639710426,0.04023952782154083,-0.06631774455308914,-0.044065166264772418,-0.08751025795936585,-0.023645076900720598,-0.06554513424634934,-0.035498831421136859,0.023958807811141015,0.05672534555196762,-0.0030268810223788025,-0.013649393804371357,-0.07783582806587219,0.045015010982751849,0.02745680883526802,-0.005724308546632528,-0.07609500735998154,-0.025989236310124399,-0.031216489151120187,0.03688418120145798,-0.07425540685653687,0.0016171219758689404,-0.005695575848221779,0.06593844294548035,0.03442693501710892,-0.012474391609430313,-0.04392732307314873,-0.0426136739552021,-0.0518517903983593,0.056594692170619968,-0.059715572744607928,0.012720059603452683,0.02045268937945366,-0.012681828811764717,-0.0484270416200161,-0.059726424515247348,0.02577444538474083,-0.02417505718767643,-0.0027564209885895254,0.04633558914065361,-0.030702706426382066,-0.01876271702349186,-0.07888472080230713,0.006648389156907797,-0.007444088812917471,0.056142475455999377,0.05914226919412613,0.04625239595770836,-0.055443599820137027,-0.02405034564435482,-0.08229303359985352,0.055902205407619479,-0.00289856712333858,-0.03340506553649902,0.0441274456679821,-0.05909186229109764,0.07518895715475083,-0.02280065231025219,-0.07602585852146149,0.009591111913323403,-0.04548035189509392,-0.07910238951444626,-0.07889830321073532,-0.05190935358405113,0.07126280665397644,0.0546647310256958,-0.06721412390470505,-0.047723330557346347,0.08223873376846314,-0.040839776396751407,-0.032001618295907977,0.0065760803408920769,-0.057061973959207538,-0.08444509655237198,-0.021430743858218194,0.033563047647476199,-0.07588427513837815,-0.04739844426512718,-0.003996425308287144,0.013567824847996235,-0.02974197082221508,-0.03306146711111069,0.03736710548400879,-0.08958475291728974,-0.08540093153715134,-0.06254174560308457,0.07783366739749909,-0.023765798658132554,0.04297105222940445,0.05732263624668121,0.0012908311327919365,0.08424302935600281,0.016905805096030237,0.03958429396152496,0.003279646160081029,0.0744742751121521,0.027015160769224168,0.09186097979545593,-0.013611359521746636,-0.008664471097290516,0.008570940233767033,-0.04082341864705086,0.030744580551981927,0.08834341168403626,0.07829383760690689,-0.014869140461087227,-0.05166468769311905,0.09128019213676453,0.08510231226682663,-0.0683361366391182,-0.011447847820818425,-0.07642291486263275,0.07269447296857834,-0.004154830239713192,0.00741769652813673,0.05469662696123123,0.07537167519330979,-0.018816068768501283,0.021143240854144098,0.03910725936293602,-0.014608606696128846,-0.05961793288588524,-0.02205134741961956,0.0365896113216877,0.014690889976918698,0.016926398500800134,-0.06783971190452576,0.0892329141497612,0.04081471264362335,0.0640040710568428,-0.07086429744958878,0.08077168464660645,-0.03150095045566559,0.07582759857177735,-0.029406344518065454,0.08592837303876877,0.09032504260540009,0.018506446853280069,-0.08334139734506607,-0.03606749698519707,-0.08115704357624054,-0.04943357780575752,0.07465094327926636,0.025567397475242616,-0.005274326540529728,0.08239279687404633,0.08033384382724762,-0.06817425042390824,-0.016334418207406999,-0.013412612490355969,0.04685920849442482,0.0014933377970010043,0.04073692485690117,-0.030770109966397287,-0.0367630198597908,0.0009446433396078646,-0.08548790216445923,0.03213183209300041,0.019210943952202798,-0.07000605016946793,-0.047881852835416797,-0.08802393078804016,0.037254273891448978,-0.014989749528467656,0.011025500483810902,-0.01445388700813055,-0.07010316103696823,0.011415619403123856,-0.04729790985584259,-0.047331880778074267,-0.07321622222661972,-0.08140037953853607,-0.02061411738395691,0.08585212379693985,0.0751313641667366,0.059020623564720157,-0.008620193228125573,0.006036768667399883,0.048339832574129108,-0.05080404505133629,0.08576717972755432,0.010153893381357193,-0.013458224013447762,0.013904317282140255,-0.0809522196650505,0.0157543383538723,-0.055213816463947299,-0.056703682988882068,-0.03841105476021767,0.05789269879460335,0.05069378763437271,-0.05533301830291748,-0.010590658523142338,-0.06022412329912186,0.08792456239461899,0.03908068686723709,0.08101335912942887,0.007620115298777819,0.013801814056932927,0.04104839265346527,-0.059781644493341449,0.0658799558877945,-0.01943306066095829,0.03454580530524254,-0.035827137529850009,0.08408935368061066,0.004040699452161789,-0.06950320303440094,0.05727682262659073,0.07220260798931122,0.03489869832992554,-0.07662587612867356,-0.0014205829938873649,0.08987375348806381,-0.020736167207360269,0.07475496828556061,-0.03709498420357704,-0.008227527141571045,-0.0023675281554460527,0.07795792818069458,-0.0009762108675204217,0.056854233145713809,0.026498140767216684,0.07153575122356415,-0.05057930573821068,-0.040888991206884387,-0.045345671474933627,-0.08155818283557892,-0.04605493322014809,0.03394069895148277,-0.08424381911754608,0.03573001176118851,0.020535966381430627,-0.054975755512714389,-0.055467765778303149,0.021630484610795976,-0.006974805146455765,0.05702028423547745,-0.05824846774339676,-0.08260229974985123,0.004754526540637016,-0.0428265817463398,0.09012576192617417,0.06268414109945297,-0.030413946136832238,0.07401019334793091,-0.015744034200906755,0.020198937505483629,0.035033658146858218,-0.06078493595123291,0.007565757725387812,0.050516944378614429,0.046335894614458087,-0.03264245018362999,0.05462517589330673,0.07643290609121323,0.015032760798931122,-0.04385373741388321,-0.014543602243065834,-0.02272379957139492,-0.016485068947076799,-0.08527767658233643,-0.0003671287267934531,-0.0784493237733841,0.08853272348642349,-0.022595347836613656,-0.036044467240571979,0.02169782854616642,0.052943792194128039,0.040903110057115558,-0.041911303997039798,-0.03298185393214226,-0.035610709339380267,-0.02534153126180172,-0.033578790724277499,0.005467727780342102,-0.028599638491868974,0.033185429871082309,0.041669733822345737,0.05277164652943611,0.0324445404112339,-0.03144135698676109,0.09188752621412277,0.06281698495149613,-0.030585892498493196,-0.0319434218108654,-0.08648649603128433,-0.0646338164806366,0.034638047218322757,0.06472834944725037,0.07966398447751999,-0.07999251037836075,0.04877479746937752,0.005957086104899645,-0.08779653161764145,-0.06707902997732163,0.05533524975180626,-0.023931916803121568,0.00605766149237752,0.023598233237862588,-0.024566931650042535,-0.007222089450806379,-0.0012715560151264072,-0.058482907712459567,0.07009396702051163,-0.02478921227157116,-0.07453096657991409,-0.009617576375603676,-0.04510171711444855,0.07572691887617111,0.012218407355248928,0.051927827298641208,0.02262386493384838,-0.006577369291335344,-0.004809885285794735,0.09527115523815155,0.005865468643605709,-0.012703778222203255,-0.09061592817306519,-0.06474658846855164,-0.03503027185797691,0.03474752604961395,-0.01469188928604126,-0.05009354650974274,0.022227168083190919,0.026714343577623369,-0.009118546731770039,0.006385598797351122,0.024291642010211946,0.05354759469628334,0.006705733016133308,0.0328037366271019,-0.018065815791487695,-0.08380334079265595,0.0258618276566267,-0.0051618595607578758,0.0010525492252781988,-0.057502858340740207,-0.016940200701355935,-0.03970323130488396,0.000005199136012379313,0.06275729835033417,0.017386790364980699,-0.05080130323767662,-0.018099991604685785,0.039034292101860049,0.0766821950674057,0.027937086299061776,-0.008322921581566334,-0.016887284815311433,-0.05844991281628609,-0.02985789254307747,-0.08052684366703034,0.027997784316539766,-0.023930871859192849,0.02530651167035103,0.03658736124634743,-0.07122987508773804,-0.07777193188667298,0.025424253195524217,-0.08117951452732086,0.052557386457920077,0.01734399050474167,0.06467078626155853,0.046887632459402087,-0.00011175477266078815,-0.05190618708729744,0.07992818206548691,-0.0685063824057579,-0.08723638206720352,0.004395921714603901,-0.08424177020788193,-0.08632400631904602,0.07736840844154358,-0.06447335332632065,0.02637883834540844,0.0013456406304612756,-0.025769073516130449,0.011024503037333489,0.046517908573150638,-0.07071749866008759,-0.06709485501050949,-0.046450961381196979,0.07790938019752503,-0.06827729195356369,0.026212405413389207,-0.021323300898075105,0.060796912759542468,0.026143750175833703,-0.06848455220460892,-0.013507497496902943,-0.06393551081418991,0.03088340163230896,-0.03503681719303131,0.06467659026384354,0.040151290595531467,0.037190258502960208,-0.0019263545982539654,0.04776851460337639,0.032712966203689578,0.02783573791384697,-0.0030385698191821577,0.008092672564089299,-0.0760488361120224,-0.001349398517049849,0.08152763545513153,-0.061009831726551059,-0.024318931624293329,-0.061417073011398318,0.01555328443646431,0.06270153820514679,0.0023057013750076296,0.022305727005004884,0.02627437748014927,-0.05754120647907257,-0.016610831022262574,0.07425294071435929,-0.034591443836688998,0.0344957560300827,-0.04790189117193222,-0.06619694828987122,0.05288369208574295,0.026410315185785295,0.05788052827119827,0.06331492215394974,-0.05373205244541168,0.018926242366433145,0.02872561849653721,0.06530366837978363,0.024562234058976175,0.03690394014120102,0.00403584586456418,-0.08216635137796402,0.033556997776031497,-0.03896165266633034,-0.07919568568468094,-0.08490161597728729,0.08117248862981796,0.04274711012840271,0.016946066170930864,0.00944838859140873,-0.024108033627271653,0.05809073522686958,-0.0628182515501976,0.006747071165591478,-0.06042689085006714,-0.03951796889305115,0.03338470682501793,0.047806672751903537,0.002290522214025259,0.018016308546066285,-0.062385521829128268,0.03444388508796692,-0.07711298763751984,-0.05144932493567467,-0.08426150679588318,-0.01602211408317089,0.07441676408052445,-0.0053133671171963219,0.06810841709375382,0.0833999291062355,-0.07446935772895813,0.06762827932834625,-0.05386864393949509,0.02253130078315735,0.02269616350531578,-0.013197437860071659,-0.08090994507074356,-0.04702096804976463,-0.0902361273765564,0.0049027916975319389,-0.05009450763463974,-0.00033219094621017575,-0.05971675366163254,0.06884050369262696,0.009225817397236824,-0.0360771007835865,-0.06363286823034287,-0.033600132912397388,-0.015342788770794869,0.0442320853471756,0.04241255298256874,0.0840374156832695,-0.04843324050307274,-0.006028336938470602,-0.07424955815076828,0.07612834125757218,-0.03192268684506416,-0.08192045986652374,0.03958586975932121,0.07474035024642945,-0.003261981764808297,-0.04349103569984436,0.0352896973490715,-0.014459406025707722,-0.01108118798583746,0.062495116144418719,-0.06700944155454636,-0.010295410640537739,-0.06640393286943436,0.07235214114189148,-0.03009738214313984,-0.04926648736000061,0.002132226014509797,-0.013591872528195382,0.002100075827911496,-0.01342327706515789,-0.07799401879310608,0.04836643114686012,-0.02708517573773861,0.03837002068758011,0.007923273369669915,0.06125057116150856,0.01772656850516796,0.031021691858768464,0.048693858087062839,-0.023283012211322786,0.043255049735307696,-0.07335419952869415,0.06394097954034805,0.015071450732648373,-0.10474419593811035,-0.0030764820985496046,0.01664312556385994,-0.016409771516919137,0.05768633633852005,0.08031118661165238,-0.011496509425342083,-0.055129557847976688,0.015036972239613533,-0.07391534000635147,0.008810258470475674,-0.011339005082845688,0.05093221738934517,-0.021494485437870027,0.010559821501374245,0.07572811841964722,-0.0553382970392704,0.04532191529870033,0.06520073860883713,0.041051071137189868,-0.015565812587738037,-0.008387182839214802,0.03167546167969704,0.017955340445041658,0.04008810222148895,-0.0035918427165597679,-0.06606574356555939,0.03689246252179146,-0.041199132800102237,-0.04235708713531494,-0.04712667316198349,0.024172788485884668,-0.08131401240825653,-0.06086064502596855,-0.08363756537437439,-0.02601480297744274,0.028060728684067727,0.027353625744581224,0.05181272700428963,-0.007439929526299238,-0.0657452866435051,-0.02602076157927513,0.038222379982471469,-0.03934032469987869,0.0401836521923542,0.00872628204524517,-0.04780706390738487,0.02542450651526451,-0.00487150251865387,-0.08258459717035294,-0.004233913030475378,0.06928247958421707,-0.03805003687739372,-0.04565928131341934,0.02269814908504486,-0.04029490426182747,-0.07156456261873245,-0.057955302298069,0.010249657556414605,0.008825900964438916,-0.05137123540043831,0.04773181304335594,-0.0029711765237152578,-0.04547926038503647,-0.01582859456539154,0.04138844832777977,-0.03197786584496498,-0.024899687618017198,-0.0220954492688179,0.043025098741054538,-0.046258024871349338,-0.005591096356511116,-0.021449167281389238,-0.07697642594575882,-0.053498320281505588,-0.02458808571100235,-0.03977735713124275,-0.062336016446352008,-0.06284238398075104,0.029508495703339578,-0.08524078130722046,-0.03341987729072571,0.07110975682735443,-0.07794829457998276,0.0650157630443573,-0.056758880615234378,0.03317262604832649,0.01893111690878868,-0.01671886071562767,0.0869465172290802,0.08578932285308838,-0.030222859233617784,0.006551267113536596,0.06592085212469101,0.06055065616965294,-0.07343661785125733,-0.0704333707690239,-0.010758919641375542,0.022176289930939676,-0.03424251079559326,0.04467717185616493,-0.06411112844944,0.015025326050817967,-0.08470309525728226,0.06384758651256561,-0.022547995671629907,0.012214269489049912,0.02982887625694275,-0.0685369074344635,-0.05640893429517746,-0.005218314006924629,-0.027104470878839494,0.0466860830783844,-0.03356993943452835,-0.024559736251831056,-0.0798429623246193,-0.009394841268658638,0.012359258718788624,0.027238698676228524,0.08460510522127152,0.06671185046434403,-0.00961397960782051,0.05448419973254204,-0.016935838386416436,0.01456327736377716,0.020231418311595918,0.014156782999634743,0.03224097937345505,0.04868707060813904,-0.05750681459903717,0.05856786295771599,-0.05831461027264595,-0.0277789868414402,-0.043994203209877017,-0.07212376594543457,-0.01261933147907257,0.04448409378528595,-0.02468334697186947,-0.06433198601007462,-0.068125419318676,0.013754195533692837,-0.024706771597266198,-0.0768391489982605,-0.06787654012441635,-0.06137736886739731,0.08597034215927124,0.014694689773023129,0.07640936970710755,-0.018860140815377237,-0.0437309704720974,-0.006341566797345877,0.07238845527172089,-0.05328463762998581,-0.00447096349671483,0.045669376850128177,0.017660388723015786,0.03799094632267952,-0.04658721759915352,0.023497914895415307,-0.047175660729408267,0.027712592855095865,0.026993708685040475,-0.03206620365381241,0.08479022234678269,0.031008904799818994,-0.06410086899995804,-0.005121071357280016,0.040330663323402408,-0.0768916979432106,-0.08406805247068405,-0.07932828366756439,-0.02027302235364914,0.0031085473019629719,-0.025459645316004754,-0.06744322925806046,-0.06353943794965744,0.03318910673260689,0.010987730696797371,0.08201326429843903,-0.011024896055459977,0.06745099276304245,0.06150289252400398,-0.04043888673186302,0.022024046629667283,-0.03330155834555626,0.014905217103660107,-0.06347906589508057,-0.0691482275724411,-0.021405495703220369,-0.046345919370651248,-0.0652913823723793,0.06135013699531555,-0.07507617026567459,-0.004613814409822226,-0.009095181711018086,0.018883170560002328,-0.060586147010326388,0.0007412898703478277,-0.021956482902169229,0.06841184198856354,0.031032904982566835,0.05765492469072342,-0.08260831981897354,-0.045092906802892688,0.026284417137503625,-0.04909903556108475,-0.0806400328874588,-0.07026822865009308,0.0440278984606266,-0.012673436664044857,0.005332747474312782,0.055501434952020648,-0.025556113570928575,0.07681435346603394,-0.015885472297668458,-0.03778676316142082,0.055562086403369907,-0.07082949578762055,-0.06221861019730568,-0.032898031175136569,-0.07358389347791672,-0.043245699256658557,-0.03977665305137634,0.006534041836857796,0.08324834704399109,-0.023681892082095147,0.06571784615516663,-0.03824770823121071,-0.011234257370233536,0.01083347387611866,0.027195323258638383,0.07227522134780884,0.020640362054109575,0.05084630474448204,0.025959966704249383,-0.06880461424589157,0.04750144109129906,-0.007161923684179783,-0.07047615200281143,0.07966773211956024,-0.02587645687162876,-0.012979433871805668,0.005022719036787748,0.06642694026231766,-0.03998292237520218,0.07643381506204605,-0.06890275329351425,0.0431944876909256,0.05769152194261551,-0.08296790719032288,-0.06281024217605591,0.03308922052383423,0.018830083310604097,-0.07581844925880432,0.009591232985258103,-0.07009521126747132,-0.03385801985859871,-0.057204633951187137,0.07568033784627915,-0.08636675029993057,-0.05086120218038559,0.0582936592400074,0.03288183733820915,-0.03235853090882301,-0.08762719482183457,-0.032447729259729388,0.005844037979841232,0.041824765503406528,-0.03162040933966637,-0.03194935619831085,-0.037548668682575229,-0.0015647432301193476,-0.007302084472030401,0.01678277552127838,-0.06972057372331619,-0.03009507618844509,0.07064086943864823,0.05372333899140358,0.0313602089881897,0.04468019679188728,0.08545739948749542,-0.010340098291635514,0.038983553647994998,-0.03507622703909874,0.017785480245947839,0.07071644067764282,-0.03446432203054428,-0.07160057127475739,0.004696745425462723,-0.037245336920022967,0.03536183387041092,0.06020465865731239,-0.042780838906764987,0.011118108406662941,-0.0012532600667327643,0.0856921523809433,-0.0522599071264267,-0.0830737054347992,-0.02056325413286686,0.042712725698947909,-0.013351663947105408,-0.029485546052455903,0.07375244051218033,-0.05256868526339531,-0.06554218381643295,-0.007007087580859661,0.018224310129880906,-0.017407795414328576,0.07662053406238556,0.07232225686311722,-0.00469217449426651,-0.07004480063915253,-0.02532218210399151,-0.0520961619913578,-0.06668616831302643,-0.024901557713747026,0.05487018823623657,0.025119367986917497,-0.04601050913333893,-0.07756438851356507,-0.073564812541008,0.014240953139960766,0.01612693816423416,0.006927021313458681,-0.010116280987858773,0.028209008276462556,-0.0370648130774498,0.005489647388458252,-0.020112810656428338,0.028908833861351014,-0.014415714889764786,-0.06437130272388458,0.06997787207365036,0.03277354687452316,-0.051490213721990588,-0.01187130156904459,0.028608638793230058,-0.05939658731222153,-0.06632530689239502,-0.06658186763525009,0.01962999626994133,-0.06575191020965576,0.06335321068763733,0.07663984596729279,-0.04142030328512192,-0.059736430644989017,0.037522755563259128,0.03024371713399887,0.021966535598039628,-0.017265278846025468,-0.0025296169333159925,-0.04958142712712288,-0.05868390202522278,0.026676632463932039,0.0457487516105175,-0.054830923676490787,-0.026668548583984376,0.047419726848602298,-0.05580868571996689,-0.057610251009464267,-0.03525529429316521,-0.004768741317093372,-0.08501967787742615,0.06487954407930374,-0.06368884444236756,0.037228528410196307,0.07928131520748139,-0.005267406348139048,0.025048190727829934,0.006478080525994301,-0.04028608649969101,0.042999617755413058,0.015801504254341127,0.0612555593252182,-0.07892309129238129,0.0779084637761116,-0.010555445216596127,0.02347591705620289,-0.004557154141366482,-0.07107529044151306,-0.03898579999804497,0.06127062812447548,-0.07249263674020767,0.0019797601271420719,-0.015595478937029839,-0.07331342995166779,-0.028394239023327829,0.08720261603593826,-0.04570002108812332,0.056593067944049838,0.07204379886388779,-0.017138171941041948,-0.030851222574710847,0.013787077739834786,-0.027907272800803186,0.07614199817180634,-0.050880394876003268,-0.032685358077287677,-0.05974186584353447,-0.07468228787183762,-0.03671105206012726,0.0706619843840599,-0.03399764001369476,-0.046429380774497989,-0.03332512453198433,-0.05768188461661339,-0.0868428498506546,-0.08150327205657959,0.029110128059983255,0.0004570281016640365,0.044906459748744968,-0.027138320729136468,-0.04990047588944435,-0.023575734347105027,0.004051363095641136,0.006646512076258659,-0.07325157523155213,-0.02173728123307228,-0.019378865137696267,0.008922310546040535,-0.010129581205546856,0.07148086279630661,0.04897794872522354,0.06966231018304825,-0.03528708964586258,-0.06833020597696305,0.08512741327285767,-0.07520048320293427,0.018069226294755937,-0.037110019475221637,-0.06398314982652664,-0.08040673285722733,-0.0853094756603241,0.05130539461970329,-0.028844378888607026,-0.008043208159506321,-0.01523805782198906,0.018346043303608896,0.04677065834403038,0.031124776229262353,-0.08153918385505676,-0.07822684198617935,0.01144651509821415,-0.06983903050422669,-0.012028596363961697,0.053893137723207477,0.03250133618712425,-0.03054925613105297,-0.06688060611486435,0.01885678432881832,-0.021856237202882768,-0.05487489700317383,-0.03500451520085335,-0.02063252031803131,0.030029049143195154,-0.014694380573928357,0.00026151660131290555,-0.03493865206837654,0.01093513797968626,-0.020054511725902559,0.0033140566665679218,-0.05860530957579613,-0.017472976818680764,0.01341137383133173,0.07188542187213898,-0.046505626291036609,0.07528519630432129,0.017971571534872056,0.03459326922893524,-0.014508893713355065,-0.028236517682671548,-0.060866475105285647,0.07567554712295532,0.08288164436817169,-0.056599728763103488,-0.06616923958063126,0.002008924027904868,0.053249094635248187,-0.01296450849622488,0.08328136801719666,-0.03423121199011803,0.0041299485601484779,-0.058255307376384738,0.04604630917310715,0.03676323965191841,-0.03881080448627472,-0.061401475220918658,0.008325093425810337,-0.08330623805522919,-0.08738305419683457,-0.004601256921887398,0.06366165727376938,0.021872440353035928,0.044618528336286548,-0.06162185221910477,0.044541314244270328,0.033596184104681018,-0.03372148424386978,0.03969958797097206,0.02904510125517845,0.06525422632694245,-0.061654508113861087,-0.03704972192645073,0.05635874718427658,-0.028493132442235948,-0.07252606749534607,0.002030236879363656,0.05533074215054512,-0.08654170483350754,-0.04360102862119675,-0.07725869119167328,-0.08764495700597763,-0.09021132439374924,-0.02728460356593132,0.039000190794467929,-0.08247611671686173,-0.03618130460381508,0.03140806406736374,0.007012531626969576,0.0625469759106636,0.0018855666276067496,-0.05669444054365158,0.0765543282032013,-0.04370956867933273,0.037810493260622028,0.07354763150215149,0.056502487510442737,0.03815118595957756,0.04845983162522316,0.012396643869578839,-0.02670665830373764,0.07043193280696869,-0.04319223389029503,0.08290737122297287,-0.03434360772371292,0.041245464235544208,-0.08613194525241852,0.04040531814098358,-0.03454617038369179,-0.048404186964035037,0.07181765884160996,0.007224061992019415,-0.06305740773677826,-0.015416511334478855,0.07308457791805268,0.07532244175672531,-0.049803901463747028,0.03480059280991554,0.019877733662724496,0.0721069797873497,-0.01484620664268732,-0.08368588984012604,0.07212421298027039,-0.07753368467092514,-0.010216893628239632,0.02732621692121029,-0.03994549810886383,-0.046550698578357699,-0.06686627119779587,-0.06387723237276077,-0.0732724517583847,0.0163568165153265,0.09312888979911804,0.04696252569556236,0.055691104382276538,-0.03084707073867321,0.08167272061109543,0.00951375812292099,-0.0371566005051136,0.06047791987657547,-0.05212181806564331,0.02654355578124523,-0.04517863318324089,-0.03935769200325012,0.02361811138689518,0.0684572234749794,0.06369757652282715,0.0716603472828865,-0.05129644274711609,-0.03431105613708496,-0.036433491855859759,0.034779179841279986,0.023300034925341607,-0.04537585750222206,-0.026282548904418947,-0.02433384396135807,-0.06341026723384857,0.02503238059580326,-0.08072453737258911,0.08654672652482987,0.045612920075654986,0.07867784053087235,0.00985649786889553,0.020505297929048539,-0.06834004074335098,-0.05043676123023033,0.009363066405057907,-0.07696878910064697,-0.03387349098920822,0.06897387653589249,-0.07268469035625458,-0.018139902502298356,0.036890968680381778,0.015142091549932957,0.03547827526926994,0.03715109825134277,0.011880344711244107,-0.024021560326218606,-0.03705400228500366,-0.08114121109247208,-0.004373097326606512,-0.04846785217523575,0.07108244299888611,0.07259959727525711,-0.008358743973076344,-0.051689550280570987,0.05623194947838783,0.07417482137680054,0.03968242183327675,-0.040487758815288547,0.06223076209425926,-0.07097097486257553,0.029489409178495408,-0.01953982748091221,0.05703432112932205,0.003868740750476718,0.08829527348279953,0.009235278703272343,0.06845097988843918,-0.029033247381448747,0.01862255670130253,0.024166371673345567,-0.04271632805466652,-0.08497800678014755,0.004367458634078503,0.007662316784262657,0.001338041271083057,0.06386548280715943,0.01736435666680336,0.09146003425121308,-0.05456329882144928,-0.013856561854481697,-0.03715388476848602,0.017558354884386064,0.06047770753502846,-0.07605597376823425,0.01757681928575039,-0.02781384438276291,0.01619720831513405,-0.014906944707036019,0.027475520968437196,-0.009799362160265446,0.07365190237760544,-0.0024801157414913179,0.03414571285247803,-0.025200216099619867,-0.013610361143946648,-0.055835142731666568,-0.05483336001634598,-0.04490957409143448,0.006269562523812056,-0.0033319559879601,-0.04703068733215332,-0.03885503113269806,-0.045885514467954639,0.014658636413514614,0.042957842350006106,0.02718532644212246,-0.07633613049983978,-0.07748164236545563,-0.021215559914708139,-0.04863213002681732,-0.07871804386377335,0.035948753356933597,0.03154623880982399,-0.04031221941113472,-0.01985771954059601,-0.05558668449521065,0.06234661489725113,0.05937816575169563,0.06896387785673142,0.035328902304172519,-0.020703496411442758,0.043072398751974109,-0.0484001487493515,0.019260229542851449,-0.0715501680970192,0.02097294293344021,0.0025864604394882919,0.04056167230010033,0.07926145195960999,0.07038986682891846,0.04403478279709816,0.004605736583471298,0.028664883226156236,-0.019015414640307428,0.0543048232793808,0.0014749603578820825,-0.03303840011358261,0.020710885524749757,-0.07728201895952225,0.05799061805009842,-0.0564725361764431,0.06324342638254166,-0.05532772094011307,0.0490083284676075,-0.061784952878952029,-0.018680809065699579,0.08351622521877289,0.0586162768304348,-0.03853077441453934,0.09389188140630722,0.014691879972815514,0.07196273654699326,0.014159576036036015,0.00025171341258101165,0.08946280181407929,-0.006903583649545908,0.02806696854531765,0.07103773951530457,-0.023707598447799684,0.0844186469912529,0.044802382588386539,-0.0774281695485115,0.004533771891146898,0.03801225498318672,-0.04992052912712097,0.07057963311672211,0.05109252408146858,-0.016375724226236345,-0.011360494419932366,0.08719021826982498,-0.016480905935168268,-0.08662734180688858,-0.018189501017332078,0.007882977835834027,0.05756572261452675,-0.04454655572772026,-0.03839864954352379,0.07345521450042725,-0.050273142755031589,-0.004639052785933018,0.059965528547763827,0.003449956886470318,-0.06034728139638901,-0.005135687999427319,0.0813615471124649,-0.01849772222340107,0.0564606711268425,0.02895539440214634,-0.020672110840678216,-0.0779876559972763,-0.07491840422153473,0.08035636693239212,0.06070372834801674,-0.07629434764385224,-0.08230511844158173,-0.042307596653699878,0.02565966732800007,-0.03541102260351181,-0.0131668820977211,0.0598527267575264,0.08625580370426178,-0.0668322741985321,-0.05649172142148018,0.0677529126405716,-0.04069242626428604,0.0818135142326355,0.052304528653621677,-0.07649418711662293,0.010225842706859112,0.057332947850227359,0.00480774836614728,0.034363679587841037,0.0497196801006794,-0.03827919065952301,0.002451780717819929,-0.02023283950984478,0.026047611609101297,0.09231795370578766,0.044317930936813357,0.10139580070972443,0.06258033215999603,-0.07698709517717362,0.025726495310664178,0.06653821468353272,-0.02942584455013275,-0.07349959760904312,0.058190327137708667,-0.03942878171801567,-0.0755494013428688,-0.07488147914409638,0.0023089528549462559,-0.08513757586479187,-0.056456249207258227,-0.022647518664598466,-0.08138293772935868,0.03639983385801315,0.014924326911568642,-0.012427021749317646,0.008083869703114033,-0.015433210879564286,-0.042613036930561069,-0.014978056773543358,0.018970852717757226,-0.047472286969423297,0.03765087202191353,0.06782712787389755,-0.06579332798719406,-0.08084358274936676,-0.04754030331969261,0.004891120828688145,0.0796491727232933,0.037459492683410647,0.01159738190472126,-0.05262015387415886,0.0198237132281065,0.05322626233100891,-0.05045466125011444,0.00824261736124754,-0.01637445017695427,-0.04755660519003868,-0.04057391732931137,0.07691144198179245,-0.07553829997777939,0.06376779079437256,-0.025086352601647378,-0.04900914058089256,0.07324535399675369,-0.06322988867759705,-0.00753096304833889,0.07363521307706833,-0.08526702225208283,-0.043940432369709018,0.08060887455940247,0.01714746281504631,-0.029827838763594629,-0.0065888455137610439,-0.03127962350845337,-0.049213990569114688,0.018771713599562646,0.03098021075129509,-0.04109266400337219,0.035925813019275668,-0.06558068096637726,0.03552527353167534,-0.015331761911511422,0.07767237722873688,-0.02090107649564743,0.07678031921386719,0.06901402026414871,-0.03992384672164917,0.06656792014837265,-0.024130918085575105,0.010754008777439595,-0.05131912603974342,-0.05104032903909683,0.06818804144859314,0.06138215959072113,0.08035995811223984,0.05399135500192642,-0.023114018142223359,-0.08309940248727799,-0.04471651464700699,0.001093896571546793,-0.0269783828407526,0.019367968663573266,-0.01704259216785431,0.0618419386446476,-0.03417907655239105,-0.02580995112657547,-0.07222616672515869,-0.06496503949165344,-0.04459289833903313,0.06633520871400833,0.04566425830125809,-0.02372869849205017,-0.02656027115881443,-0.032259661704301837,0.01928461715579033,-0.042524389922618869,-0.042095787823200229,-0.02165430225431919,0.03283865377306938,-0.0053084599785506729,0.0709819570183754,-0.0279083251953125,0.057265277951955798,-0.042847517877817157,-0.07342066615819931,0.002027210546657443,0.005592133849859238,0.03430567681789398,-0.08702874928712845,0.03870222717523575,-0.04596032202243805,0.05081417039036751,-0.08637074381113053,0.053268320858478549,-0.04538965970277786,-0.06115669384598732,0.02697627618908882,-0.07643181085586548,-0.009602180682122708,0.050705622881650928,-0.024526162073016168,-0.07652510702610016,0.03934146836400032,0.03500160202383995,-0.0795925036072731,-0.021161863580346109,0.07185625284910202,-0.03535853326320648,-0.009747686795890332,0.08069030940532685,0.05932411178946495,-0.001684324350208044,0.07762781530618668,-0.061779361218214038,0.003028961131349206,0.008964003063738346,0.06372371315956116,-0.05951261147856712,-0.07940181344747544,-0.03669606149196625,-0.011141300201416016,0.03414822369813919,0.050705403089523318,0.019426338374614717,0.018227897584438325,-0.07921529561281204,-0.052694160491228107,-0.05475451052188873,0.06373642385005951,-0.040848467499017718,0.01564052700996399,0.07221045345067978,-0.01576279103755951,-0.05786336585879326,0.07511632889509201,0.06423044204711914,0.07037197798490524,0.038571201264858249,0.0055542755872011189,-0.08058875054121018,-0.060340821743011478,-0.03519900143146515,-0.030201179906725885,0.08166595548391342,0.02077627182006836,0.07752209901809693,-0.0568113699555397,0.036761324852705,-0.08035925030708313,0.059350479394197467,0.02634914591908455,-0.07102284580469132,-0.07566090673208237,0.0732579305768013,-0.06575920432806015,0.04996168613433838,-0.0008299915352836251,0.06562419980764389,0.006901758722960949,-0.05606921389698982,-0.03860145062208176,-0.04483367130160332,0.035353220999240878,-0.07483579963445664,0.05126364901661873,0.08295425027608872,0.07945378869771958,-0.03910677507519722,-0.08584167063236237,-0.08634532243013382,-0.07354815304279328,0.01733200065791607,0.0292765311896801,0.06498625874519348,-0.0026916777715086939,-0.01784282736480236,-0.03982933983206749,0.012086641974747181,0.037533294409513476,-0.03359479457139969,-0.04903808981180191,0.000749481376260519,-0.05318320542573929,-0.053692158311605456,-0.02630375139415264,-0.06010524183511734,0.0032116868533194067,-0.07053583860397339,-0.054734405130147937,0.056709446012973788,-0.03928513824939728,-0.02863059937953949,0.057704173028469089,0.0552506223320961,-0.024503454566001893,-0.03085147775709629,-0.02796611748635769,0.057331740856170657,-0.05474592372775078,-0.010004417039453984,-0.02010772004723549,0.02053281106054783,-0.06268911808729172,0.03787359222769737,-0.05471958965063095,-0.07174954563379288,0.024571891874074937,-0.06350717693567276,-0.036583010107278827,0.05895699933171272,0.08185503631830216,-0.04493898153305054,-0.04989217594265938,-0.08279325813055039,0.055767301470041278,-0.026137851178646089,0.016106635332107545,0.03440384939312935,-0.01982818730175495,-0.08367151767015457,0.013788077980279923,0.013768563978374005,-0.07214920222759247,0.019567042589187623,0.06584545969963074,0.05939216539263725,-0.06958331912755966,0.06432999670505524,0.07527787238359451,-0.08753413707017899,-0.06775551289319992,0.07371450960636139,-0.03766525909304619,0.024513347074389459,-0.07030706852674484,-0.07594531029462815,-0.053757742047309878,0.059874746948480609,-0.006347193848341703,-0.05636099353432655,0.06698448210954666,-0.02464088797569275,0.0398237369954586,-0.04504547640681267,0.057979460805654529,0.06326273828744888,-0.011851553805172444,-0.04249824956059456,0.056311849504709247,-0.046571966260671619,-0.0749979168176651,-0.025642000138759614,-0.07800468802452088,-0.05925040692090988,0.04958488419651985,-0.009589312598109246,-0.03160756826400757,-0.0724860355257988,-0.001464750966988504,-0.017350833863019944,-0.044548798352479938,0.07669921964406967,0.033608220517635348,0.055858172476291659,0.0831250548362732,-0.05031410604715347,0.03937269747257233,-0.0557527057826519,-0.010675552301108837,0.042458273470401767,0.012289578095078469,0.06064585968852043,0.08720915764570236,0.0768926665186882,0.0508514940738678,-0.01489708200097084,-0.0406155027449131,-0.04551191255450249,-0.009372802451252938,0.048455774784088138,0.05732671916484833,-0.07634274661540985,-0.015738146379590036,-0.039950232952833179,-0.05025019869208336,0.06165306270122528,0.04043303802609444,-0.033755164593458179,0.030458884313702585,-0.04829475283622742,0.0003165045054629445,0.08052799850702286,-0.07301285862922669,0.05679401382803917,-0.03580661863088608,0.02757503092288971,-0.030071686953306199,0.04604808986186981,-0.035008497536182407,0.03204828500747681,0.0867781788110733,-0.046519216150045398,-0.008546222932636738,0.010615191422402859,0.056579675525426868,-0.09220602363348007,-0.04458034411072731,0.054289381951093677,0.03521529585123062,-0.007788626942783594,0.0595531091094017,-0.007592240814119577,0.07783602178096771,0.057198237627744678,-0.08607259392738342,-0.05244767665863037,0.08248869329690933,0.0428294874727726,0.05654595047235489,-0.009516481310129166,0.023131057620048524,-0.044108714908361438,-0.02192104049026966,-0.06118487939238548,-0.04621041566133499,0.0225235465914011,-0.0062599568627774719,0.012557966634631157,0.04228625446557999,0.026215113699436189,-0.04863561689853668,0.08533402532339096,0.009050454944372177,-0.0006142110796645284,-0.07995205372571945,-0.04592510312795639,-0.0585954412817955,-0.0543639101088047,-0.07869523763656616,0.044241320341825488,0.03636398911476135,0.00971225555986166,-0.07019905000925064,0.07988537102937699,0.06198340281844139,0.05297621712088585,0.07158195227384567,-0.04211212694644928,0.0342530831694603,0.003351425053551793,0.02052653394639492,-0.017598455771803857,0.035009484738111499,0.005012704525142908,-0.012061740271747113,0.07595440745353699,0.018270092085003854,0.0542721152305603,0.03150389716029167,-0.008360201492905617,-0.08881322294473648,-0.07114755362272263,-0.07281436771154404,-0.017687635496258737,-0.05210324376821518,0.008112657815217972,0.020453153178095819,0.024889232590794565,-0.0665895864367485,0.08270272612571717,-0.06270156800746918,-0.08695609867572785,-0.06245902180671692,0.054149042814970019,0.01900092139840126,0.000016750120266806334,-0.06702546030282974,0.06465952098369599,0.046291980892419818,-0.0424305684864521,-0.06484135240316391,-0.015785079449415208,0.032167110592126849,-0.07461199909448624,0.06841671466827393,-0.05978585407137871,0.018570654094219209,0.027971342206001283,0.05569566413760185,0.014918007887899876,-0.07896461337804795,0.003264310769736767,-0.0639457106590271,0.019451232627034189,0.02207576483488083,0.050295036286115649,0.05709981918334961,0.060144249349832538,0.05839945748448372,0.07641428709030152,-0.013559157960116864,0.07723716646432877,0.06829292327165604,-0.07540039718151093,0.08223146945238114,0.03661756217479706,0.09514983743429184,0.06431407481431961,0.05482247844338417,-0.006461017299443483,-0.010392431169748307,0.08599597215652466,0.012000112794339657,-0.05179115757346153,-0.05536767467856407,-0.050476353615522388,-0.05973412096500397,-0.007605280261486769,0.053863998502492908,-0.02194538526237011,0.07963228225708008,0.0497710183262825,0.08137007057666779,0.017107773572206498,0.006303233094513416,-0.03330936282873154,0.06958695501089096,0.08307390660047531,0.03187016397714615,-0.08060818165540695,0.026671450585126878,0.08290258049964905,-0.011127566918730736,0.013030714355409146,0.0218607597053051,-0.021743206307291986,-0.07154031097888947,-0.015578892081975937,-0.09492725133895874,-0.01679164730012417,0.035625457763671878,-0.068056620657444,-0.06949479132890701,0.02264847233891487,-0.056423161178827289,-0.03557814657688141,0.030661476776003839,0.06013389304280281,0.00487957987934351,-0.03068702109158039,-0.07916808873414993,-0.009484881535172463,0.05176829919219017,-0.01168018952012062,-0.046231262385845187,0.05826645717024803,0.005259708501398563,0.0442589670419693,-0.0044875843450427059,-0.014013411477208138,0.08735549449920654,-0.06983281672000885,0.03907271847128868,0.07288461923599243,0.06053309515118599,-0.07087553292512894,0.033163610845804217,0.038247864693403247,-0.025574717670679094,0.024203477427363397,-0.033511798828840259,-0.022440358996391298,0.011098825372755528,0.00515876105055213,-0.010788383893668652,-0.037789419293403628,-0.006232737563550472,0.0036098079290241005,-0.012844203971326352,0.08968466520309448,-0.017088640481233598,0.07664573192596436,0.020906664431095125,0.06530869007110596,-0.07360892742872238,-0.05932513624429703,0.039288751780986789,0.0078118592500686649,0.05173388868570328,0.07113203406333924,0.05529433488845825,-0.012399742379784584,0.04768538102507591,0.015304441563785077,0.029362773522734643,0.029637612402439119,-0.046870458871126178,-0.0016769232461228967,-0.00580107606947422,-0.009703114628791809,-0.002023298293352127,0.050389423966407779,0.05536460131406784,-0.05998553708195686,-0.053554803133010867,-0.042298946529626849,0.0027325430419296028,0.033042147755622867,0.006603834684938192,0.035904042422771457,0.041233137249946597,0.023675283417105676,-0.020395411178469659,0.0007516928599216044,-0.01029674056917429,-0.08574964851140976,0.019348658621311189,-0.0570991076529026,-0.0809650793671608,-0.04277331382036209,0.04603201895952225,-0.04045687988400459,-0.01677725277841091,-0.058446142822504047,-0.06931294500827789,0.01997528225183487,0.05675876885652542,-0.052871424704790118,0.06326860934495926,0.005549633875489235,0.05176755413413048,0.04575590789318085,-0.0741894543170929,0.06881769746541977,-0.007952324114739895,-0.010549173690378666,-0.014891179278492928,0.011548122391104699,0.02720392681658268,-0.07345718890428543,0.009161043912172318,0.052960000932216647,0.07556744664907456,0.029583077877759935,-0.05970722809433937,-0.022266682237386705,0.0038999568205326797,0.026262585073709489,-0.027395958080887796,0.014809542335569859,-0.013441604562103749,0.0831141397356987,0.021317599341273309,0.0103107038885355,0.07212571799755097,0.045055609196424487,-0.027691591531038286,0.03627988323569298,-0.0434190109372139,-0.03715358301997185,-0.05988544225692749,-0.011801893822848797,0.018048187717795373,0.021978165954351426,0.044403403997421268,-0.05698390305042267,0.07145046442747116,-0.025660691782832147,-0.023660417646169664,0.03607868403196335,0.06472223997116089,0.031506944447755817,0.0516740120947361,0.017204171046614648,-0.07796233147382736,-0.0325324647128582,0.049613792449235919,0.0657523050904274,0.0778067335486412,-0.06254745274782181,-0.00874029379338026,-0.020700030028820039,0.007061564363539219,-0.08481460809707642,0.03749135881662369,0.03871116414666176,0.04096180573105812,0.02800230123102665,0.07346925139427185,0.075864776968956,-0.05261503905057907,0.07170166820287705,-0.06949177384376526,-0.04073140770196915,-0.011118312366306782,-0.07873337715864182,0.012817051261663437,-0.03522045910358429,0.006781141739338636,0.029089732095599176,0.0546865276992321,0.009317729622125626,0.04493730142712593,0.0637044906616211,0.0220351405441761,-0.00695346063002944,-0.03844316676259041,-0.031678445637226108,0.05655743554234505,-0.015153680928051472,-0.030943457037210466,0.019537705928087236,0.0009688034770078957,0.041136302053928378,-0.00840978417545557,-0.05744906887412071,0.05462878197431564,0.033175017684698108,-0.056673306971788409,-0.038818858563899997,-0.08294174075126648,-0.06669563055038452,0.07820101827383042,-0.0030720774084329607,0.083934485912323,-0.06698799878358841,0.02238796278834343,0.01477817166596651,0.07553791999816895,0.03787294402718544,0.015600926242768765,0.05509133264422417,0.012385032139718533,-0.08366735279560089,-0.07048238068819046,0.0509679950773716,-0.004624576307833195,-0.015099044889211655,0.04678848758339882,0.003672755090519786,-0.057360414415597919,-0.02594388648867607,0.050360940396785739,0.01726550981402397,0.06687027961015701,0.08591815084218979,-0.06660854071378708,-0.06123704835772514,0.01071977335959673,-0.0026580267585814,0.09924986958503723,-0.012838341295719147,-0.032384730875492099,-0.04913552850484848,-0.0055768536403775219,-0.033759087324142459,-0.05726468190550804,0.049566105008125308,-0.01678406447172165,0.051740359514951709,0.030885647982358934,0.04249914363026619,0.02462981827557087,-0.06615861505270004,0.05398545414209366,-0.07149923592805863,-0.04962065443396568,-0.08358317613601685,-0.0034536910243332388,0.02250547520816326,0.04453065246343613,0.04042331501841545,-0.0037667143624275924,-0.042375609278678897,-0.07494380325078964,0.05318428948521614,-0.013128691352903843,-0.08263775706291199,0.07478968054056168,0.08041573315858841,-0.015726137906312944,0.06431510299444199,-0.022620510309934617,0.08035194873809815,-0.0019387794891372324,-0.058728259056806567,0.045673519372940066,0.01972156949341297,0.07480788975954056,-0.02055230177938938,-0.07315149158239365,-0.044466983526945117,-0.06595087051391602,0.08475698530673981,-0.005611255299299955,-0.014982752501964569,0.03295867145061493,0.016549384221434594,-0.08590655773878098,0.0535949170589447,-0.06223345175385475,0.04270922392606735,-0.08038045465946198,-0.018767589703202249,-0.07425442337989807,-0.06735802441835404,-0.07995770126581192,0.08637247234582901,-0.024897383525967599,-0.0834771916270256,-0.0007470063865184784,0.025879772379994394,-0.02115737646818161,-0.03585106506943703,0.08715303242206574,0.040110040456056598,-0.08618921786546707,-0.029206177219748498,0.03170224651694298,-0.06657884269952774,0.016608798876404764,0.02146930992603302,0.027671093121170999,-0.010514884255826474,0.05948663875460625,-0.02551856078207493,-0.0783066675066948,-0.08436006307601929,0.04093414545059204,-0.04422705993056297,-0.023016182705760003,-0.04362840950489044,0.03732539713382721,0.0012929924996569753,-0.019332699477672578,-0.006228783167898655,-0.05616908147931099,-0.05684549733996391,-0.028843358159065248,0.04555542394518852,0.02730773761868477,0.062507264316082,-0.04894805699586868,0.07265988737344742,-0.05480014905333519,0.051246996968984607,0.0666293352842331,0.0669386014342308,0.007996510714292527,-0.084080770611763,0.008441510610282421,-0.026515426114201547,0.015063938684761525,-0.013569142669439316,0.07076187431812287,0.06802847981452942,0.005449075251817703,0.007914779707789421,0.009438252076506615,-0.07673031836748123,-0.059381768107414249,0.000876601436175406,0.0660637766122818,-0.08302123844623566,0.008643296547234059,0.032078731805086139,-0.056130677461624148,0.028832051903009416,-0.08789262920618057,-0.010429100133478642,0.03430613875389099,0.052418190985918048,-0.009740079753100872,0.043546054512262347,-0.044412512332201007,0.06888749450445175,0.006401566788554192,0.07230354100465775,0.051098715513944629,-0.029532454907894136,-0.03507494926452637,-0.06209400296211243,-0.02808932401239872,-0.028002269566059114,-0.08240242302417755,-0.04595243185758591,-0.035996802151203158,-0.07745528221130371,0.015534368343651295,-0.06758204847574234,0.0312476996332407,-0.027933770790696145,-0.04275120794773102,-0.08197122067213059,-0.08446519076824188,0.07436319440603256,0.07299090176820755,0.05562785267829895,-0.02583119086921215,-0.04427680745720863,-0.031420979648828509,-0.025423692539334298,0.0778375193476677,-0.04581107944250107,-0.026663707569241525,0.027809815481305124,-0.025968758389353753,-0.03441019728779793,-0.08226372301578522,0.013920288532972336,-0.07949412614107132,-0.028109325096011163,-0.020521892234683038,-0.03200423717498779,-0.04129123315215111,-0.04478885605931282,0.006278469227254391,0.02091394178569317,-0.025937380269169809,-0.051090698689222339,-0.021365337073802949,0.0176097359508276,0.05974239110946655,-0.033438414335250857,-0.05746143311262131,0.06601033359766007,0.0681944340467453,-0.04677865281701088,0.08798810094594956,0.041595399379730228,-0.05670559033751488,0.009231767617166043,-0.04568448290228844,-0.043860748410224918,-0.08660071343183518,-0.0672503337264061,-0.03942696005105972,0.010742617771029473,-0.056218523532152179,-0.0007098328205756843,-0.08062692731618881,-0.06377651542425156,-0.05810371786355972,0.033792395144701007,-0.029656266793608667,0.000016799500372144394,-0.06873510777950287,0.01374993659555912,-0.06673528999090195,0.04481365904211998,-0.0457659475505352,0.06526154279708862,0.00832552369683981,-0.08398324996232987,-0.02922547422349453,-0.04537404328584671,-0.05663689225912094,-0.021757343783974649,-0.034869663417339328,-0.020364347845315934,0.016175057739019395,0.006548759061843157,-0.05351078137755394,0.05168890953063965,0.040270835161209109,-0.06393629312515259,-0.03672061488032341,0.006862635258585215,-0.087319515645504,0.07707038521766663,0.06672398000955582,-0.03919316455721855,-0.06316152215003967,0.032956209033727649,0.08121034502983093,0.07574794441461563,0.004350320901721716,-0.06170676648616791,0.01936127431690693,-0.07587375491857529,0.00802509393543005,0.027892880141735078,-0.08441274613142014,-0.03449590131640434,0.0248463973402977,0.08369055390357971,-0.02021891064941883,-0.07774484157562256,-0.01978907734155655,-0.004051045048981905,0.08265765011310578,-0.03972369059920311,0.016610264778137208,0.011950272135436535,-0.002702668309211731,0.051584962755441669,0.06951699405908585,-0.02010146901011467,0.06205737963318825,0.07153928279876709,0.003001227043569088,-0.08111482858657837,-0.006733566056936979,0.0066290064714848999,-0.08736573159694672,0.0630401000380516,-0.08395101130008698,0.016528762876987459,0.08226732164621353,-0.004365402273833752,0.07374123483896256,-0.0005514234071597457,-0.03355690464377403,-0.003536287695169449,-0.007136681582778692,-0.07284590601921082,0.05135231465101242,-0.023039426654577256,-0.07292469590902329,-0.056947216391563418,0.05057092756032944,0.014451252296566964,0.0651228055357933,0.08338209241628647,-0.01784616708755493,-0.012807977385818959,0.06857777386903763,0.02190086618065834,0.04395785182714462,0.06885034590959549,-0.02324945293366909,-0.05649391934275627,0.07692523300647736,0.03968408703804016,0.06641337275505066,-0.05262104794383049,-0.05105314403772354,-0.02177691087126732,-0.016065694391727449,0.04536913335323334,-0.05045092850923538,-0.08328773081302643,0.08794844895601273,0.04312891885638237,-0.02714727073907852,-0.014752358198165894,0.03434266149997711,0.0861031636595726,-0.040155161172151569,-0.05446600541472435,-0.05625525116920471,-0.09132514894008637,-0.08477157354354859,0.04451896622776985,-0.03968501463532448,0.051776133477687839,0.016949404031038286,-0.04726787656545639,0.025092335417866708,-0.07684953510761261,0.03130866587162018,-0.019933125004172326,-0.08673201501369477,0.023953188210725786,-0.0337425097823143,0.03013562224805355,0.054572753608226779,-0.016314346343278886,0.005870850756764412,0.024783624336123468,0.06476582586765289,0.04731187969446182,0.047738995403051379,0.035251956433057788,-0.009963390417397023,-0.025142189115285875,-0.030095813795924188,0.0966055691242218,-0.07463505119085312,-0.028972290456295015,-0.0382254533469677,-0.08823945373296738,-0.019557181745767595,0.06465009599924088,-0.08748418837785721,0.10871583968400955,0.009254478849470616,0.058413196355104449,-0.07590886205434799,0.035453833639621738,0.06554754823446274,-0.07905007898807526,0.023797601461410524,0.07636520266532898,-0.05604643374681473,0.022992515936493875,0.023393750190734865,-0.00816868431866169,0.11020853370428086,-0.0408690981566906,0.06927093863487244,0.06538113206624985,-0.06565570086240769,0.020839380100369455,0.09142722934484482,-0.05961401388049126,0.005965742748230696,0.08755838125944138,0.07554174214601517,0.07571824640035629,0.03988157957792282,0.013134945183992386,-0.08280117064714432,0.08783287554979325,0.048056457191705707,0.03584716096520424,-0.07514161616563797,-0.021268319338560106,0.006960960570722818,-0.03868371620774269,0.07598715275526047,0.03842722252011299,0.06839277595281601,0.005925495643168688,0.06973934173583985,0.013832708820700646,-0.07031312584877014,-0.013829078525304795,-0.012368052266538144,-0.017520379275083543,0.051264580339193347,0.0077582173980772499,-0.0681232213973999,-0.007276528514921665,-0.06488366425037384,0.04565652087330818,0.03505457565188408,0.04977453500032425,0.033340420573949817,0.07194428145885468,-0.030402835458517076,-0.05122753977775574,0.038896333426237109,0.0661763995885849,0.00947793573141098,0.03772847354412079,-0.0015159682370722294,0.02386932261288166,-0.09032677114009857,0.06963212043046951,0.05744398385286331,0.07540629059076309,0.03515927121043205,-0.05874207243323326,0.07527641206979752,0.08031626790761948,-0.005467715673148632,0.08192077279090882,-0.02929677441716194,-0.04943719506263733,0.08157598227262497,0.054340921342372897,0.021053655073046685,0.041547056287527087,0.018500948324799539,0.04689859226346016,-0.02841797284781933,-0.06117112934589386,-0.05291799083352089,-0.030610401183366777,0.07575254887342453,-0.05352947115898132,-0.08229214698076248,0.0002675523573998362,0.041478294879198077,0.0599902868270874,-0.04537196457386017,-0.08123637735843659,-0.04646692052483559,0.013019292615354061,0.022285349667072297,-0.08841820061206818,0.009074298664927483,-0.0057877288199961189,0.07863757014274597,-0.010650752112269402,0.05742054805159569,-0.08132719993591309,0.07864850759506226,0.03442841395735741,-0.01680450327694416,0.020749647170305253,-0.04293094202876091,0.06975870579481125,-0.0852336660027504,0.041844818741083148,0.03416573628783226,0.016089195385575296,-0.03685785084962845,0.04806376248598099,-0.06421932578086853,-0.0787082239985466,0.06013404205441475,-0.05222630500793457,-0.01843078061938286,-0.06192205846309662,0.0069269658997654919,0.05666148290038109,-0.03108709119260311,-0.041773535311222079,0.025195490568876268,0.047698743641376498,-0.01144243311136961,-0.03273051232099533,-0.0379011332988739,-0.04330112040042877,-0.04751456156373024,-0.05336317420005798,-0.08346463739871979,-0.006820977199822664,0.024989623576402665,0.009787446819245816,0.05584804341197014,-0.01281995140016079,-0.08388317376375199,-0.014665680006146431,-0.08082636445760727,0.07408848404884339,0.0461466908454895,-0.01925562508404255,-0.06621773540973664,-0.0019412587862461806,0.0690397247672081,-0.08701768517494202,0.048814885318279269,0.08050994575023651,0.03696810081601143,-0.0041357120499014858,-0.002048017457127571,-0.060310542583465579,0.02168881893157959,-0.03991370275616646,0.003805435262620449,0.00574171869084239,0.0711645558476448,0.01359427161514759,-0.024662861600518228,-0.004615655168890953,-0.01890156976878643,-0.06682103872299195,0.06411068886518479,0.011359811760485173,-0.000965400948189199,-0.0726429894566536,-0.07217399775981903,0.02291705273091793,0.04579784721136093,0.03963562101125717,0.06222708150744438,0.019815297797322274,-0.06588968634605408,-0.013762849383056164,-0.0034877953585237266,-0.07128891348838806,0.009270383976399899,-0.07396489381790161,-0.0756186917424202,-0.06298985332250595,0.037840742617845538,0.040079835802316669,-0.06781959533691406,0.08852819353342056,0.03329833969473839,-0.0045097689144313339,-0.0829237550497055,0.05507584661245346,-0.03686688840389252,0.06649845838546753,0.021619947627186776,-0.06676416099071503,0.0682663843035698,-0.0073738074861466888,0.06970468163490296,-0.026766657829284669,-0.07335736602544785,-0.07756903767585755,-0.007964243181049824,0.06514596939086914,-0.039798859506845477,-0.0404481403529644,-0.06509870290756226,-0.04828183352947235,0.03167543187737465,0.03679979592561722,0.08363122493028641,-0.010268996469676495,0.07689119875431061,-0.08284278959035874,-0.005363933276385069,0.08598697185516358,0.03321602940559387,0.012535885907709599,-0.059349071234464648,-0.013046922162175179,0.027394920587539674,-0.011707455851137638,-0.01585506647825241,0.017664911225438119,0.010893425904214383,-0.08568946272134781,-0.07886030524969101,0.036385808140039447,-0.05506792664527893,0.05648989975452423,-0.040290717035532,-0.00005647350917570293,-0.007764861918985844,-0.02778555080294609,0.03792482614517212,-0.08656061440706253,0.08979173004627228,-0.07306353747844696,0.06864196807146073,-0.05010216683149338,-0.004165260121226311,0.04445061460137367,0.00695089902728796,-0.01604481227695942,-0.028711646795272828,-0.08365879952907562,0.029273323714733125,0.041371189057826999,-0.060846202075481418,-0.06147392839193344,-0.04323339834809303,-0.056456733494997028,0.03677397966384888,-0.06349946558475495,-0.04292469099164009,0.08288958668708801,-0.08827280253171921,-0.044258374720811847,-0.06175835058093071,-0.08577675372362137,-0.08150437474250794,0.029313301667571069,0.0059914542362093929,0.006606440059840679,-0.05249813199043274,-0.05474607273936272,-0.0090439822524786,0.07122715562582016,0.022738751024007798,0.05438153073191643,-0.047876324504613879,-0.023126916959881784,-0.017974447458982469,-0.013485283590853215,0.02696082554757595,-0.07310762256383896,-0.03339257463812828,-0.034386079758405688,-0.08008752018213272,-0.011386416852474213,-0.053873661905527118,0.04888046905398369,-0.00719642685726285,0.014331690035760403,-0.021457429975271226,0.04277077317237854,-0.06492237001657486,0.07584745436906815,-0.03615792095661163,-0.002552847843617201,-0.07723063975572586,-0.07978584617376328,0.0073799495585262779,0.07351318001747132,-0.014719126746058464,-0.04441555589437485,-0.04946546256542206,0.03240920603275299,-0.05150224640965462,-0.06831017136573792,0.06492634862661362,-0.027038468047976495,0.07260210812091828,-0.06782408058643341,0.053920842707157138,-0.014257579110562802,-0.002295537618920207,0.028143495321273805,0.07484912872314453,0.04098924994468689,0.05431468412280083,0.009523808024823666,-0.05664971470832825,-0.043603550642728809,-0.04231773689389229,0.01158481277525425,-0.035750746726989749,0.07299131155014038,0.020677348598837854,-0.03907856345176697,-0.04872623831033707,-0.05653464049100876,-0.09541363269090653,-0.006903636269271374,0.07397172600030899,0.07129210978746414,-0.019920215010643007,-0.04941937327384949,0.04918811097741127,0.0509747751057148,0.07069718837738037,0.05049674212932587,0.053529154509305957,-0.027084365487098695,0.058691032230854037,0.018207836896181108,-0.05357832834124565,-0.07722046971321106,-0.0863664299249649,-0.03507067635655403,0.0048164548352360729,-0.018076326698064805,-0.042466796934604648,-0.05605694651603699,0.0701369121670723,-0.012233436107635498,-0.0016597629291936756,-0.0929228663444519,-0.09058985114097595,0.046796273440122607,0.06443113088607788,-0.032506220042705539,-0.04428630694746971,-0.0766122043132782,0.05191636458039284,-0.025715988129377366,-0.05647702142596245,-0.05608195811510086,-0.06795433908700943,-0.0563894584774971,-0.08759883791208267,0.021345311775803567,-0.055174052715301517,-0.07236418128013611,-0.016653409227728845,-0.02544999122619629,0.07885756343603134,0.019701765850186349,0.0511532761156559,-0.08382091671228409,-0.04456903785467148,-0.019556313753128053,-0.05707642808556557,0.05869834125041962,0.041166987270116809,-0.016461724415421487,0.02177339419722557,0.06496376544237137,0.06762757152318955,-0.02456430345773697,0.04917403310537338,-0.04075564071536064,0.06659706681966782,0.03758339583873749,-0.005026289261877537,0.05111965537071228,-0.034351106733083728,0.03729831799864769,-0.05108576640486717,-0.04392081871628761,-0.013707397505640984,-0.012171860784292221,-0.019293809309601785,0.05520883575081825,0.024485813453793527,0.018374735489487649,-0.013906027190387249,-0.0333360992372036,-0.04643112048506737,0.07049042731523514,-0.009894881397485733,0.019840586930513383,-0.034891482442617419,0.009674597531557083,0.002071663038805127,0.020780479535460473,0.03520839661359787,0.021259421482682229,-0.0865890309214592,-0.06741798669099808,-0.03283461555838585,-0.06548184156417847,0.06623363494873047,-0.008509107865393162,-0.054983362555503848,-0.055368587374687198,0.029385872185230256,0.006381434388458729,-0.037075985223054889,-0.07772933691740036,0.04785851389169693,-0.03596131503582001,0.02950538881123066,-0.022879641503095628,0.08279716223478317,-0.0017818614142015577,-0.05591964349150658,-0.03459099307656288,-0.052594151347875598,-0.05653541907668114,0.0431441105902195,-0.016260944306850435,-0.02439420484006405,-0.07337764650583267,-0.03036366030573845,-0.019832883030176164,-0.05762411653995514,-0.055366773158311847,-0.057845354080200198,-0.0003638047492131591,-0.05723912641406059,0.035732217133045199,0.035297051072120669,0.007214880082756281,-0.07433851808309555,0.0471375547349453,0.03318525105714798,-0.06333950906991959,-0.037662964314222339,0.04956258833408356,-0.04530348256230354,-0.07437274605035782,0.010265697725117207,0.02771035209298134,-0.05700061470270157,0.05747504532337189,0.04573044925928116,-0.025068113580346109,0.059617266058921817,-0.07089225947856903,-0.07282058894634247,-0.05542738363146782,-0.08104010671377182,-0.029238607734441758,-0.021719256415963174,0.07513435184955597,0.048061102628707889,0.010453825816512108,-0.049883611500263217,-0.010431130416691304,-0.04703005030751228,-0.04810529947280884,-0.0745374858379364,0.01712264120578766,0.026934586465358735,0.030752575024962426,0.06392449140548706,-0.006596528459340334,-0.0986856147646904,-0.03833668678998947,0.05197799578309059,0.013041740283370018,0.031984344124794009,-0.002439505886286497,-0.01075313426554203,-0.004662835970520973,0.022075271233916284,0.0009363360004499555,0.04732319712638855,-0.0542975477874279,0.045143723487854007,0.015797538682818414,0.0025127993430942299,-0.007954536937177182,0.06088552996516228,0.024978939443826677,-0.07389246672391892,0.045985713601112369,0.07690835744142533,-0.03600214794278145,0.017939144745469095,-0.031165270134806634,-0.02350313775241375,0.011791381984949112,0.05262582749128342,0.0667281374335289,0.0781487375497818,0.02934078685939312,0.035229142755270007,-0.03520733490586281,-0.024190273135900499,-0.06386199593544007,0.0697847455739975,0.0378330796957016,-0.05595463514328003,0.045721568167209628,0.060848791152238849,0.07642293721437454,-0.050774022936820987,-0.01602081023156643,0.02721339650452137,-0.005197557155042887,-0.12124425172805786,0.07706883549690247,-0.037154875695705417,-0.004411585163325071,0.027616305276751519,-0.010317732580006123,0.09724031388759613,0.13794250786304475,0.03843235969543457,-0.044848307967185977,0.011463982053101063,0.07466690242290497,-0.03900483623147011,-0.0706595703959465,0.06936249136924744,-0.06617631763219834,0.0003331485204398632,0.0748443529009819,0.06553059071302414,0.08910580724477768,-0.07293164730072022,-0.025519590824842454,0.04662873223423958,-0.04278680682182312,0.049974143505096439,0.0566234365105629,0.07502817362546921,0.0069785346277058128,0.024701330810785295,-0.02059108391404152,0.008745905943214894,-0.04990125820040703,0.03186127915978432,0.05646376684308052,-0.07083091139793396,0.01518114935606718,-0.03190081566572189,0.04846387356519699,-0.008920404128730297,0.029770106077194215,0.05891799554228783,-0.003504434833303094,0.003760592546314001,0.028641141951084138,-0.02682345174252987,-0.07412778586149216,0.06876591593027115,0.049389202147722247,-0.025572923943400384,-0.04512251168489456,0.05950169265270233,0.09409842640161514,0.07793931663036347,-0.01607787422835827,-0.03683457151055336,0.0038236237596720459,0.07794953882694245,-0.019306721165776254,0.029438123106956483,-0.05342056602239609,-0.0197007954120636,0.053305644541978839,0.0008761340868659318,-0.0019604202825576069,-0.07301618158817291,-0.03976493328809738,-0.006626805290579796,0.0785583034157753,0.07663172483444214,-0.054599493741989139,0.0552285872399807,-0.04716638848185539,-0.004152906592935324,0.06629928946495056,-0.05682149529457092,0.04845584183931351,-0.014520039781928063,-0.012207495048642159,0.05942825600504875,-0.017408762127161027,0.03617687523365021,-0.08026973903179169,0.03908887878060341,0.006267122458666563,-0.06693711876869202,-0.037398941814899448,-0.010821541771292687,0.026057619601488115,-0.030385013669729234,0.06709062308073044,0.03132496029138565,0.047357816249132159,0.00139522401150316,0.08539208769798279,-0.061404094099998477,-0.005963230971246958,0.036750372499227527,-0.030625080689787866,0.05988040566444397,0.009452843107283116,-0.08219857513904572,-0.059686604887247089,-0.08731930702924729,-0.07596391439437866,0.03535618633031845,0.04108743369579315,0.04613548517227173,0.08015832304954529,-0.06842237710952759,0.03104439191520214,-0.0833350121974945,-0.02147853560745716,-0.06630446016788483,-0.07334399223327637,0.022949498146772386,-0.015253116376698017,-0.06954154372215271,0.03971444070339203,0.0582394041121006,0.009021013975143433,-0.04543721675872803,-0.051198333501815799,0.01867138408124447,-0.003282909281551838,-0.0075803352519869808,0.02324334718286991,-0.06266150623559952,0.037989940494298938,0.053941939026117328,-0.0333566814661026,-0.025271737948060037,0.02122132107615471,-0.07601432502269745,-0.010145549662411213,0.007511768024414778,-0.023917341604828836,0.05614246055483818,-0.03532508760690689,0.030904045328497888,-0.034807346761226657,-0.04301399737596512,-0.029864178970456125,-0.07054954022169113,0.04337602108716965,0.06689666211605072,-0.037784382700920108,-0.04076799377799034,-0.06259371340274811,-0.05844470113515854,-0.010102237574756146,-0.06134403124451637,-0.05147940292954445,0.006639393977820873,-0.05881676822900772,-0.08164539188146591,-0.07456566393375397,0.037664834409952167,-0.06839974969625473,0.061844151467084888,-0.04648672416806221,0.009605301544070244,-0.053770024329423907,0.07960790395736695,0.033060360699892047,-0.033939361572265628,-0.007642388343811035,0.042959000915288928,-0.03336787223815918,-0.06136859953403473,0.016947194933891298,0.0386672168970108,-0.06589297950267792,0.06873809546232224,-0.008848292753100396,0.07201198488473892,0.047263212502002719,-0.024604208767414094,0.04069435968995094,-0.03982701897621155,0.05233561992645264,0.014719827100634575,0.05350082740187645,-0.06994596868753433,-0.014416933059692383,0.06273039430379868,0.045755378901958469,0.031216425821185113,0.07946958392858505,-0.05940002575516701,0.08415801078081131,-0.05841179937124252,-0.02358480542898178,-0.07582098990678787,0.03011157177388668,0.007674000691622496,-0.017387311905622484,0.07298795878887177,-0.04540211334824562,0.05444890260696411,-0.012917340733110905,-0.024900242686271669,0.0593135841190815,0.020118899643421174,0.04539716616272926,0.061415791511535647,-0.06664452701807022,-0.03356197476387024,-0.0017924843123182655,0.049833398312330249,0.03909638151526451,-0.00488258944824338,0.02398805506527424,-0.024703416973352433,0.03566136583685875,-0.024197235703468324,-0.05714409798383713,-0.029098033905029298,-0.02121022902429104,0.003986620344221592,0.08772358298301697,-0.0016555669717490674,-0.045609839260578158,-0.028751026839017869,-0.02432706579566002,0.048257119953632358,-0.044142335653305057,0.06484254449605942,0.06039749085903168,-0.03977422043681145,-0.013352137990295887,0.03636668622493744,0.034335631877183917,0.014227679930627346,-0.04469583183526993,-0.019765406847000123,0.08544939011335373,0.033065326511859897,-0.07375755161046982,0.04664234071969986,-0.07143896073102951,-0.08846534043550492,0.028934821486473085,0.029686791822314264,0.03098439611494541,-0.006013893056660891,-0.04522772878408432,0.0662519559264183,-0.048453520983457568,0.030316295102238656,-0.05356583744287491,0.04333985596895218,-0.01245585735887289,0.05625184252858162,0.08038659393787384,-0.009391714818775654,0.003873620880767703,0.02182493545114994,-0.0640767365694046,0.02623995766043663,-0.07991256564855576,0.010075666941702366,0.03872138634324074,-0.06745170801877976,0.047768644988536838,0.02255954034626484,0.05616359785199165,-0.05316366255283356,0.0602635033428669,-0.08099227398633957,-0.08774004876613617,0.05724326893687248,-0.053682830184698108,0.049290768802165988,-0.0020854154136031868,-0.0020675156265497209,0.011508623138070107,-0.0679863765835762,0.021431660279631616,-0.06163640320301056,-0.043011169880628589,0.026124361902475358,0.0019127964042127133,-0.04440939798951149,-0.038779281079769137,0.03400271013379097,-0.03994603082537651,-0.011154986917972565,0.047466155141592029,-0.05738237127661705,0.0817888081073761,-0.055246684700250629,-0.08675853908061981,-0.04501282051205635,0.04348044842481613,-0.06923562288284302,0.07199212163686753,-0.07650279253721237,0.04131431505084038,-0.011333739385008812,-0.03439372405409813,-0.021787453442811967,0.004565676208585501,-0.07001034170389176,-0.005153586156666279,-0.049784544855356219,0.05518972873687744,-0.007730430923402309,-0.04890725016593933,0.08266688138246536,0.008952830918133259,0.0590365007519722,0.01524918619543314,-0.05018315464258194,0.002511964412406087,0.005825331900268793,-0.05984433740377426,0.05002514272928238,-0.07263942807912827,0.016174018383026124,0.031175915151834489,-0.058495864272117618,-0.08245690166950226,0.005799951963126659,0.004634380806237459,-0.008572947233915329,0.06559257954359055,0.0010702412109822035,0.036720436066389087,0.0659252479672432,-0.04826781526207924,0.08331727236509323,0.04162212833762169,0.02566763013601303,0.08398839831352234,-0.030690116807818414,0.05069597065448761,0.0151553088799119,0.02151048742234707,-0.0534893237054348,-0.08513667434453964,-0.08481382578611374,-0.03255460783839226,0.0013222488341853023,0.053106941282749179,-0.056220803409814838,-0.031171195209026338,-0.057357195764780048,0.026473205536603929,0.022720633074641229,0.03726866841316223,0.06253498047590256,-0.07586423307657242,-0.04583723843097687,0.06682523339986801,0.03042740933597088,0.03606375679373741,0.04138840362429619,0.07997345924377442,0.033233944326639178,0.02191009558737278,0.06479280441999436,0.024324361234903337,-0.03952445834875107,-0.07171769440174103,0.07257109880447388,0.07871896773576737,-0.06327417492866516,0.07771627604961395,-0.04203636944293976,0.047847259789705279,0.08484771102666855,-0.04642558842897415,0.010079004801809788,-0.08787720650434494,0.007039421703666449,-0.06717027723789215,-0.05500992015004158,-0.05561821162700653,0.06252554059028626,-0.0032546615693718197,0.009449456818401814,0.030966639518737794,0.016386905685067178,0.03613147512078285,-0.052365273237228397,-0.0077739860862493519,-0.009907526895403862,-0.015366416424512864,-0.003226072760298848,-0.07161609828472138,-0.05752457305788994,0.038406215608119968,0.08691336214542389,0.06410851329565048,0.05469261854887009,0.0551382340490818,-0.04069455340504646,-0.015624016523361206,-0.04072421416640282,-0.08378010988235474,0.016776444390416147,-0.03132474422454834,-0.0408712774515152,-0.05604882165789604,0.01387110911309719,0.06606680899858475,0.04370340332388878,0.06556563079357147,0.07675691694021225,-0.032130077481269839,0.07714942842721939,-0.05252895504236221,-0.07919212430715561,0.04006188362836838,-0.008848385885357857,-0.02989935874938965,0.07677565515041352,0.07954590767621994,0.06281085312366486,-0.06649239361286164,0.08384501188993454,0.07741665095090866,0.01332717202603817,-0.07809922099113465,-0.08476871252059937,0.029602278023958207,-0.018607337027788163,0.05204673856496811,-0.007529824040830135,-0.08591528981924057,-0.060576461255550387,-0.045684538781642917,-0.02713460847735405,0.07520391792058945,0.07795660942792893,-0.05186080187559128,0.04237007722258568,0.08611273765563965,-0.015153874643146992,-0.057046376168727878,-0.03450596705079079,-0.03351777791976929,-0.011029082350432873,0.004245272371917963,0.054540880024433139,0.007139547262340784,0.07084208726882935,0.04367527738213539,0.05990731343626976,-0.024482134729623796,0.04595212638378143,-0.0491316057741642,0.0018196526216343046,0.08016656339168549,0.06366411596536637,-0.06101436913013458,-0.054297298192977908,-0.007047469262033701,0.006608289200812578,0.002350324299186468,0.06061173975467682,0.006840260233730078,-0.01761084422469139,-0.07195941358804703,-0.022760191932320596,-0.016045965254306794,0.06696859002113342,0.08805994689464569,0.07706472277641297,0.07190319895744324,0.031804632395505908,0.02617652527987957,0.07531484961509705,0.06596828252077103,0.025630829855799676,-0.07259008288383484,-0.07804444432258606,0.050333864986896518,-0.060017868876457217,0.05762900784611702,0.0754951760172844,-0.01967046596109867,-0.07517991214990616,0.018405312672257425,-0.021856503561139108,