{"LearningRate":0.009999999776482582,"hiddenAType":1,"outputAType":4,"layersSize":[9,128,128,2],"Layers":[{"InputSize":9,"NodeSize":128,"Weights":[-0.052960656583309177,-0.07029622793197632,0.01603955402970314,0.011827828362584114,0.057595591992139819,0.04010546952486038,0.05243483930826187,0.053950969129800799,0.035532232373952869,0.01163118053227663,-0.07294958829879761,0.020234601572155954,-0.06508149951696396,0.06948446482419968,-0.030598072335124017,0.0384821780025959,0.04231421649456024,-0.055360183119773868,0.051706019788980487,-0.040269751101732257,-0.01213991828262806,0.05489645153284073,0.05152766406536102,0.04299081861972809,-0.007327134720981121,0.07969985157251358,0.00399373471736908,0.015454472973942757,0.02959374338388443,-0.0879703238606453,-0.05685393884778023,-0.07869389653205872,-0.02683851681649685,0.03113069199025631,-0.05089418217539787,-0.00147104577627033,-0.04472433775663376,0.02660941705107689,0.019101040437817575,-0.06526464968919754,-0.07133679836988449,-0.012632016092538834,0.022612998262047769,0.044527869671583179,0.024316726252436639,-0.07429954409599304,-0.038892727345228198,0.008520733565092087,-0.05971653014421463,-0.001843616017140448,0.029940098524093629,0.03916561231017113,-0.03753889724612236,-0.06866167485713959,0.06944345682859421,-0.011563286185264588,-0.09183401614427567,0.02643917314708233,-0.01500994898378849,-0.023937668651342393,0.0734458863735199,0.07311588525772095,0.07341014593839646,0.013555455952882767,-0.028777850791811944,-0.0391656793653965,-0.03412460535764694,-0.07060306519269943,-0.045183081179857257,0.078287273645401,-0.005000093020498753,0.006485006771981716,-0.054321009665727618,0.05570804700255394,0.06989005208015442,-0.024125948548316957,-0.07394755631685257,-0.05339076370000839,-0.03978334739804268,0.03254514932632446,0.03928415849804878,-0.05363167077302933,0.011467753909528256,0.028899963945150377,0.07305394858121872,-0.05234525352716446,-0.02914085052907467,0.06626909971237183,0.01668456383049488,0.01795506663620472,-0.06763619929552078,0.006726199295371771,-0.019130749627947809,-0.028769800439476968,-0.03783532604575157,0.012941771186888218,-0.012739983387291432,-0.07276418805122376,-0.054755400866270068,-0.09007427841424942,-0.016472382470965387,0.07737014442682266,-0.018931657075881959,-0.0798204317688942,0.03831901028752327,-0.01960762031376362,-0.027156775817275049,-0.019177265465259553,0.019965602084994317,0.01903642527759075,-0.07205401360988617,-0.08729790896177292,0.030624764040112497,0.02297167107462883,-0.023226309567689897,0.014762058854103089,0.010791247710585595,-0.08741483837366104,0.0392540879547596,0.024382557719945909,-0.08719063550233841,0.025269798934459688,0.067711740732193,-0.005260444711893797,-0.08455801010131836,0.022940687835216523,0.04773498699069023,-0.1010180413722992,0.044272154569625857,-0.015691939741373063,0.0032434118911623956,-0.051970988512039188,0.0467664897441864,-0.03227000683546066,-0.017099084332585336,0.07243034988641739,-0.07805143296718598,-0.051162127405405048,0.04736369103193283,-0.03285686671733856,-0.04610554128885269,-0.026560747995972635,-0.05236399173736572,0.01987718604505062,-0.0011168152559548617,-0.06158439815044403,-0.028465526178479196,-0.08523432165384293,0.0064377738162875179,0.05402345210313797,0.0389024093747139,-0.0009797823149710894,-0.007660574279725552,-0.010069379583001137,0.07384305447340012,-0.03388163447380066,-0.0069191367365419868,0.0678742527961731,-0.04452911391854286,0.03686586767435074,-0.00942547433078289,-0.035444602370262149,-0.04996802285313606,0.05699886754155159,-0.023361563682556154,0.022061485797166826,-0.03154127672314644,-0.0012971082469448448,-0.027317296713590623,-0.018625440075993539,0.018481869250535966,0.03678636997938156,-0.04399017617106438,-0.01484091579914093,0.006852705497294664,-0.06111273542046547,0.06299131363630295,-0.00250975857488811,-0.017716364935040475,0.06770779192447663,-0.04233387112617493,0.005741241853684187,-0.008379430510103703,-0.07405182719230652,-0.006093418691307306,0.03370086848735809,0.07526903599500656,0.02401934191584587,0.015578370541334153,-0.05410858243703842,-0.05401379615068436,0.002923585008829832,0.045026376843452457,-0.04763384908437729,0.060448627918958667,0.01274365559220314,0.06287705153226853,0.0881725400686264,-0.07436147332191467,0.03260449692606926,0.09009996801614762,0.004486037418246269,-0.07633404433727265,0.0863679051399231,-0.0262118149548769,-0.004005935974419117,0.07369112968444824,0.02224341407418251,-0.018085548654198648,0.07658793777227402,0.04921823367476463,0.01597766764461994,0.062445491552352908,0.021254925057291986,0.03341693803668022,0.008791310712695122,0.05327238142490387,0.07620455324649811,-0.08539506047964096,0.07311107218265534,-0.0889923945069313,-0.06070984527468681,0.06663323193788529,-0.03869511932134628,0.011493576690554619,-0.08081047981977463,0.05123763903975487,-0.08055465668439865,0.0556379072368145,-0.02001575008034706,0.011888782493770123,0.06636808067560196,0.04513311758637428,0.03839113935828209,-0.06468381732702255,0.022323908284306527,-0.08501533418893814,0.04520149156451225,-0.05272751301527023,0.0300887618213892,-0.08588005602359772,-0.026102134957909585,0.02237263135612011,0.05726253241300583,0.04895690083503723,-0.03384308144450188,0.015261995606124401,0.02045661397278309,0.04261841997504234,-0.047581855207681659,-0.08000746369361878,-0.07808361202478409,-0.07521418482065201,0.049777526408433917,-0.04628511145710945,0.0029639957938343288,-0.027824535965919496,-0.019025199115276338,-0.0765630230307579,-0.05073228105902672,-0.04069649800658226,0.04334498196840286,0.018023334443569185,0.027692658826708795,-0.047967541962862018,0.06368035823106766,-0.06439745426177979,0.04757724702358246,0.0673917904496193,-0.02302349917590618,0.05151589587330818,0.07812574505805969,-0.04307360202074051,0.04808453470468521,-0.0654170885682106,0.029727771878242494,-0.03800330311059952,0.019776631146669389,-0.013123598881065846,0.06623202562332154,0.06636196374893189,0.022637251764535905,-0.05626384913921356,0.06108603999018669,0.02950376830995083,0.020629147067666055,-0.017515623942017556,0.019875114783644677,-0.046717625111341479,-0.023221682757139207,0.04205729812383652,0.024951724335551263,-0.0800795704126358,0.03679965063929558,0.02727888524532318,0.0012174529256299139,-0.007764950394630432,-0.06950130313634873,0.028656262904405595,0.004481037613004446,-0.038370467722415927,0.04195685684680939,0.0466841422021389,-0.07614492624998093,0.0016619752859696746,-0.061210162937641147,-0.0238589346408844,0.005162860732525587,0.035778410732746127,0.07827682793140412,-0.06178264692425728,0.058942943811416629,0.07606734335422516,0.05872045457363129,0.035803068429231647,-0.005168512463569641,0.0629376545548439,0.0778617188334465,-0.049518849700689319,-0.014830364845693112,-0.05576978623867035,0.00864435825496912,-0.062794990837574,0.06326242536306381,-0.030856216326355935,-0.10107259452342987,0.023409591987729074,0.009514832869172097,0.07584933936595917,0.055056095123291019,0.04968008026480675,-0.034323759377002719,-0.011228176765143872,0.06874867528676987,0.041911132633686069,0.03484484553337097,-0.012567305006086827,-0.028282910585403444,0.028269087895751,-0.08258576691150665,0.00406847707927227,-0.07048588246107102,-0.06373520940542221,0.04103536531329155,-0.008484880439937115,0.04418214410543442,0.07542375475168228,0.07333475351333618,-0.07773488759994507,-0.06076916307210922,0.02823619917035103,-0.06993640959262848,-0.02804468385875225,0.0582762286067009,-0.03898267447948456,0.05660126358270645,0.021544765681028367,0.002103782957419753,-0.029128298163414,-0.005587899591773748,-0.018245046958327295,-0.0056739142164587978,0.050222691148519519,-0.03667818382382393,0.06817672401666641,-0.046125221997499469,-0.07188545167446137,-0.041560135781764987,0.042758069932460788,0.06393315643072128,-0.003337605856359005,-0.07563692331314087,0.027028806507587434,-0.036143604665994647,0.030211804434657098,0.06367819011211395,0.0732007846236229,0.0720028281211853,0.036990564316511157,-0.08031398057937622,-0.06605377793312073,-0.04750189930200577,-0.004678131081163883,-0.08508844673633576,-0.02034793235361576,0.05347568541765213,-0.04140966385602951,-0.048882611095905307,0.05477847531437874,0.01795041188597679,0.06648971140384674,0.04781671240925789,0.0314839743077755,-0.026539208367466928,-0.050934500992298129,-0.0493185818195343,-0.02628668025135994,0.06280287355184555,-0.06669452786445618,-0.08701372146606446,0.06809107214212418,-0.038114629685878757,-0.025255033746361734,-0.07349969446659088,0.0083879129961133,-0.0163775272667408,-0.06425034254789353,-0.07490261644124985,-0.07232274115085602,0.02954251877963543,0.013046922162175179,-0.024276789277791978,0.05738573148846626,-0.03536350280046463,0.021550368517637254,-0.060020625591278079,0.016833212226629258,0.04149137809872627,-0.05298220366239548,-0.07085520029067993,0.056310903280973437,-0.00854983925819397,0.05677836388349533,0.0017932419432327152,0.0381406731903553,0.03913532570004463,-0.0760360136628151,-0.03658280149102211,-0.08628649264574051,-0.03937562555074692,-0.06573618203401566,0.058671750128269199,-0.04742835462093353,0.020966509357094766,0.007382888346910477,0.01899685338139534,-0.06700049340724945,-0.04411539435386658,-0.03325289115309715,-0.0007717345142737031,0.008013236336410046,0.028665004298090936,0.04803718999028206,-0.009041929617524147,-0.04485701024532318,-0.03430691361427307,-0.04616187512874603,-0.0011651689419522882,-0.03707629814743996,-0.057176582515239719,-0.02280888333916664,0.058005910366773608,-0.05237724259495735,0.07002437114715576,0.019075386226177217,0.0790586844086647,0.01876719482243061,-0.012998680584132672,0.06767312437295914,-0.02873985469341278,-0.032975491136312488,-0.06025804206728935,-0.08052702248096466,0.06200233846902847,-0.06593674421310425,-0.08306152373552323,-0.08327837288379669,0.04976014420390129,-0.006576677784323692,0.048829298466444018,-0.06773728132247925,0.060072530061006549,-0.002375140553340316,-0.058896664530038837,-0.05910979211330414,0.029640262946486474,0.06760178506374359,-0.059591032564640048,0.06972800195217133,0.06548771262168884,-0.0133202588185668,-0.06368473172187805,-0.025140788406133653,-0.05861658602952957,0.06167682632803917,-0.020731860771775247,0.0023653930984437467,0.046081651002168658,0.005045113619416952,-0.03924434259533882,0.0556635856628418,-0.0665866881608963,0.0837368592619896,0.0567837655544281,0.07996237277984619,0.0016119047068059445,-0.02005685493350029,-0.023971619084477426,0.025951776653528215,-0.05489206314086914,-0.009924611076712609,0.005223866552114487,0.05188914015889168,0.0623481348156929,0.06525801122188568,-0.09163343906402588,0.04771595075726509,-0.08929827064275742,-0.02572755515575409,0.08666352927684784,0.042022302746772769,-0.03353629633784294,-0.06233757734298706,0.07316233217716217,-0.07634605467319489,0.07188829779624939,-0.04319944232702255,-0.07720141857862473,0.05640452727675438,-0.02457571029663086,0.03173227235674858,0.06761884689331055,-0.01991615816950798,0.06287908554077149,-0.05031932145357132,0.027781661599874498,0.00020177361147943884,-0.04335367679595947,0.004248364362865686,-0.07098674029111862,0.032274965196847919,-0.06698135286569596,-0.03356171399354935,0.05771133676171303,-0.03342073783278465,0.018284065648913385,0.009104374796152115,0.00622932892292738,0.05042864754796028,-0.003749416908249259,-0.023333366960287095,-0.00822453759610653,0.02842099592089653,0.042026080191135409,-0.03657686710357666,-0.013506917282938958,0.03142853453755379,-0.0868004709482193,0.012046192772686482,0.0024146295618265869,-0.07238786667585373,-0.07027031481266022,0.07276783883571625,-0.012701660394668579,-0.07754632830619812,-0.007990599609911442,-0.04254763200879097,0.04444543272256851,0.005662174429744482,-0.013481399975717068,0.006659824401140213,-0.017817365005612375,0.05883883312344551,-0.010139187797904015,-0.04468502849340439,0.036512210965156558,0.07275077700614929,0.034776750952005389,0.07207925617694855,-0.01817522943019867,-0.05741356313228607,-0.06327027082443237,-0.08299058675765991,-0.03877664729952812,-0.028193527832627298,0.012645703740417958,-0.003975379280745983,-0.001564573380164802,-0.058124739676713946,0.01089591346681118,-0.07086262106895447,0.05341506749391556,-0.04289668798446655,-0.048143062740564349,0.057943109422922137,0.04807927459478378,0.040316637605428699,0.07130619883537293,-0.08022646605968476,-0.037539951503276828,-0.02876909077167511,-0.025259846821427347,-0.011147217825055123,-0.031790584325790408,-0.036284059286117557,0.05992463231086731,-0.02617170661687851,-0.028152383863925935,0.058424483984708789,-0.05871669948101044,0.001263556769117713,0.024611622095108033,-0.022464824840426446,0.059302572160959247,-0.05497288331389427,-0.00662614218890667,0.05919010192155838,-0.007308436091989279,-0.004734739661216736,0.07081625610589981,-0.04492877796292305,0.0294464360922575,0.023403340950608255,0.027330908924341203,-0.010115417651832104,-0.07074551284313202,0.053609270602464679,0.0005817212513647974,-0.06954522430896759,-0.07520882040262222,-0.008290220983326435,0.030422594398260118,0.0210999995470047,-0.0076791150495409969,-0.06171300262212753,0.054133933037519458,0.02874169871211052,0.0401388444006443,0.04746973514556885,-0.009413507767021656,-0.00227867322973907,-0.03565681725740433,0.06841972470283508,-0.06370293349027634,-0.03977511450648308,-0.08681966364383698,-0.06715022772550583,0.05932915583252907,-0.04562288150191307,-0.04400559514760971,-0.015162932686507702,-0.027790559455752374,-0.0007844956708140671,-0.04642856866121292,-0.033228617161512378,0.042101457715034488,0.035249013453722,0.05667812377214432,0.014595522545278073,-0.033947721123695376,-0.004483756143599749,-0.04472058638930321,-0.0691462904214859,-0.08719859272241593,-0.07459279894828797,0.029698269441723825,0.00037507287925109267,0.04284084960818291,0.03538648784160614,0.04434844106435776,0.03170482814311981,-0.038881417363882068,-0.008370576426386834,-0.013982605189085007,-0.08055005222558975,-0.044482503086328509,0.07798118889331818,-0.029285121709108354,-0.06333185732364655,0.02843552827835083,-0.0791269913315773,0.056851617991924289,0.05168633162975311,-0.03107854351401329,0.058089278638362887,0.08073610067367554,-0.04056691750884056,-0.01719207689166069,-0.024403559044003488,0.06654007732868195,0.04125181585550308,0.06763621419668198,-0.03579166531562805,-0.03785107284784317,0.015746964141726495,-0.026206564158201219,-0.03870781511068344,-0.05327508971095085,0.010486713610589505,0.03519558906555176,-0.023714371025562288,0.0196993388235569,-0.006043863017112017,-0.05355486646294594,-0.04839464649558067,0.0068959821946918968,0.0801306813955307,0.02651461586356163,0.07225482165813446,-0.07581358402967453,0.027834394946694375,0.036105815321207049,-0.08469982445240021,0.022833550348877908,-0.07041797041893006,0.028896521776914598,-0.0826885923743248,0.06598236411809921,0.05426030233502388,-0.08263465017080307,0.0063424985855817799,-0.0015468592755496503,-0.06455885618925095,-0.005288389977067709,0.08400864154100418,0.013094310648739338,0.044518060982227328,-0.05627095699310303,0.06830530613660813,0.06288130581378937,0.026350930333137513,0.03611716255545616,-0.020507613196969034,-0.0002696361916605383,-0.008857033215463162,0.007604914717376232,0.018203148618340493,-0.06173800677061081,0.05069156736135483,0.07039927691221237,0.05448126420378685,0.01389910839498043,-0.09151117503643036,0.02087922766804695,-0.04348711296916008,-0.013407286256551743,0.07498092949390412,-0.049280427396297458,-0.035135041922330859,0.0360906682908535,-0.0019039578037336469,0.02662874385714531,0.07993202656507492,-0.051946353167295459,-0.062397684901952746,-0.06324397772550583,0.045147836208343509,0.055352676659822467,0.04363104701042175,-0.04888956993818283,0.030929407104849817,-0.04096696525812149,-0.019814245402812959,0.044383201748132709,0.0135163189843297,-0.005731143057346344,-0.03864854946732521,-0.0205258559435606,-0.011117877438664437,0.04332355409860611,-0.03282974660396576,-0.04901938885450363,0.008994672447443009,-0.08699750155210495,0.05940913408994675,0.0066618346609175209,-0.03964301198720932,-0.08764158934354782,0.0022837426513433458,-0.06716618686914444,-0.059114161878824237,0.025727752596139909,0.0566137358546257,0.005669920705258846,-0.06720508635044098,-0.012607027776539326,-0.041125521063804629,-0.01935587264597416,0.033286165446043017,-0.030521027743816377,0.07879920303821564,-0.06185859814286232,0.07938675582408905,-0.024069763720035554,-0.021320709958672525,0.0730157196521759,-0.029864070937037469,-0.03634587675333023,-0.07896073162555695,-0.010678011924028397,0.07043334096670151,0.06234541907906532,-0.03367684781551361,-0.06578069925308228,0.0496949702501297,-0.050548385828733447,-0.0021918555721640589,-0.05102096498012543,0.08091476559638977,-0.03448989614844322,0.07134083658456803,-0.04358648136258125,0.043129924684762958,-0.0031404800247401,-0.06758933514356613,0.052778229117393497,0.07432309538125992,-0.029122596606612207,-0.03640054538846016,0.04461858794093132,0.06019512191414833,-0.043045151978731158,-0.04964645579457283,0.006104910280555487,0.050325825810432437,0.04856713116168976,0.04892180487513542,0.01543359737843275,0.07583318650722504,0.07138596475124359,0.007203090004622936,-0.04503650590777397,-0.07107802480459213,0.05017753690481186,-0.07259662449359894,0.06092856824398041,0.005595267750322819,0.04021991416811943,-0.0435696505010128,0.009605275467038155,0.05076337605714798,0.051826685667037967,0.04577324539422989,-0.02072625793516636,0.06312156468629837,-0.07621773332357407,0.07117923349142075,-0.07045794278383255,0.028609251603484155,-0.02878396026790142,-0.05567231401801109,0.03583652526140213,-0.028475120663642885,-0.08712828904390335,-0.06148514151573181,0.0653812512755394,-0.07965149730443955,-0.08644650131464005,-0.06527980417013169,-0.02039174549281597,-0.012290086597204209,0.044688187539577487,0.028159700334072114,-0.06386476755142212,0.054304927587509158,0.06966979056596756,0.03428838029503822,-0.014282729476690293,-0.08119392395019531,-0.053148820996284488,-0.0276042353361845,-0.06651265174150467,0.026176217943429948,0.03908848017454147,0.04645398631691933,-0.07966562360525131,-0.07143869996070862,-0.07522588223218918,0.07277543842792511,-0.01900964230298996,0.0441369004547596,0.07672060281038284,-0.021054178476333619,0.07905341684818268,-0.07599115371704102,-0.06582258641719818,-0.019964324310421945,0.011555955745279789,-0.008562043309211731,0.024895207956433297,0.04893665760755539,0.08185052871704102,0.04123993590474129,-0.07465478777885437,0.04700962454080582,0.015104880556464196,0.07748407870531082,0.05589723959565163,-0.020500587299466134,-0.0838117003440857,-0.041578005999326709,0.026754172518849374,0.01783406175673008,-0.08084654062986374,-0.07197687774896622,0.040883466601371768,-0.014454969204962254,-0.07365112751722336,-0.0045528719201684,0.056964658200740817,0.01190156489610672,0.03679319843649864,0.05782270058989525,0.06687507778406143,-0.026657506823539735,0.03854277729988098,0.0542256236076355,0.023837577551603318,-0.017742648720741273,0.02889968268573284,-0.05806804820895195,0.05866563320159912,0.07131364196538925,-0.060041528195142749,-0.011312874965369702,0.04951756075024605,0.061673521995544437,0.011530870571732521,0.06567194312810898,-0.016063153743743898,0.02289029397070408,0.06804384291172028,-0.0678776204586029,0.014733267948031426,0.015906790271401407,-0.09040949493646622,0.06650485843420029,0.04811948910355568,0.01356224250048399,-0.0704866349697113,-0.0171526949852705,0.0024906210601329805,-0.043772365897893909,0.03464481979608536,-0.08503195643424988,-0.045361876487731937,0.0017197167035192252,0.031910985708236697,0.03617940843105316,0.07467896491289139,-0.029451590031385423,-0.06822452694177628,-0.07841937988996506,0.006002101115882397,0.06412951648235321,-0.06627993285655976,-0.03734411299228668,0.06303849816322327,-0.014201287180185318,0.01433699019253254,0.06531617045402527,-0.0823446586728096,-0.014242393895983696,-0.005849234759807587,-0.012874754145741463,-0.005165072623640299,0.046612903475761417,-0.03956405818462372,0.06616690754890442,-0.004227708093822002,0.015980618074536325,0.04013006016612053,-0.028479568660259248,0.03619212284684181,-0.08032456040382385,-0.0006724216509610415,0.04238646477460861,0.08485760539770127,0.0015820349799469114,-0.08037284761667252,0.03324613720178604,-0.013307618908584118,-0.08368314057588577,0.04595107585191727,0.0011551969218999148,-0.01798507198691368,-0.030696669593453409,0.0852857381105423,0.03502197563648224,0.03540438041090965,-0.043878231197595599,0.056286461651325229,-0.022806627675890924,-0.08261457830667496,0.007725944742560387,-0.035856738686561587,0.05095259100198746,-0.0433775968849659,-0.020264003425836564,-0.0364396795630455,0.040266331285238269,-0.051075007766485217,0.05957237258553505,-0.031827230006456378,0.02019457146525383,0.07863979786634445,-0.018796103075146676,0.017299465835094453,0.01621147245168686,0.04929370433092117,0.07011616975069046,-0.011249994859099388,-0.07540707290172577,0.004262783098965883,0.0005973375518806279,0.001584005425684154,-0.09335765987634659,-0.044433798640966418,0.0015785094583407045,-0.07908935099840164,-0.08307990431785584,-0.0730021595954895,-0.08437325060367584,-0.06144414469599724,0.031110839918255807,0.030793635174632074,-0.03383179008960724,0.07039173692464829,-0.029009010642766954,-0.051143012940883639,-0.07685048133134842,0.0004453515575733036,-0.012339325621724129,-0.016803819686174394,0.03175598382949829,0.03956097736954689,0.017937183380126954,0.01575184054672718,0.02330745756626129,0.00769291864708066,-0.017439108341932298,-0.04808514192700386,-0.061163529753685,0.05300899222493172,-0.008261741138994694,-0.0630122646689415,0.03963543847203255,-0.07892125844955445,0.03710544481873512,0.0749405100941658,-0.06773895025253296,0.0413656085729599,0.013884287327528,-0.0407242625951767,-0.011099296621978283,-0.06063147261738777,0.01586131937801838,-0.07383250445127487,0.046164318919181827,0.0285849180072546,0.08439066261053086,0.0013031665002927185,-0.03916449844837189,-0.04981318488717079,0.08248114585876465,-0.07768860459327698,-0.014741170220077038,-0.08009255677461624,-0.04512185603380203,-0.06392889469861984,0.060958582907915118,-0.03854663670063019,0.06873326748609543,-0.00445405300706625,0.06680314987897873,0.05622788891196251,0.07245974987745285,0.014640524983406067,-0.048829760402441028,0.037368159741163257,0.053522851318120959,-0.07766816765069962,-0.058972325176000598,-0.031769562512636188,0.028667593374848367,-0.03331713005900383,0.03631989285349846,0.053980156779289249,0.07103593647480011,-0.05353693291544914,-0.049077440053224567,-0.004818653222173452,-0.08612705767154694,0.04594375193119049,-0.0830792710185051,0.0676765888929367,0.009601091966032982,0.05560800060629845,-0.04447972774505615,0.0678803026676178,-0.0924312099814415,0.004129485227167606,0.04329022020101547,0.06178583204746246,-0.013093316927552224,0.03799915686249733,-0.013106091879308224,0.017236363142728807,-0.058346811681985858,-0.05266888812184334,-0.05094403773546219,0.06041653826832771,0.06196428835391998,0.03088599443435669,-0.002281829249113798,0.07255297899246216,0.03252611681818962,-0.040275223553180698,0.03150855004787445,0.018605820834636689,0.08062782883644104,0.027651160955429078,-0.0192096047103405,-0.019222447648644449,0.03502777963876724,0.0514468178153038,-0.0056970128789544109,-0.06751767545938492,0.036383289843797687,-0.0845315009355545,0.0891096219420433,0.06724703311920166,-0.026448924094438554,-0.024003945291042329,0.015131896361708641,0.061061084270477298,0.039260461926460269,-0.03331169858574867,0.04327692463994026,0.015638453885912896,-0.04793454706668854,-0.0858735516667366,-0.06285092234611511,0.06904160976409912,-0.027871213853359224,-0.06581301987171173,-0.0800672397017479,-0.015642277896404268,-0.009756512939929963,-0.038509830832481387,-0.045801904052495959,0.05119907110929489,0.016737842932343484,-0.0446612648665905,-0.0073479656130075459,0.003840660210698843,0.03426051512360573,-0.05767103657126427,-0.05667353793978691,-0.021105121821165086,-0.023647861555218698,0.062685526907444],"Biases":[-0.007054068613797426,-0.003751997370272875,-0.004932193551212549,-0.000014030518286745064,-0.0054826438426971439,0.00007340002775890753,-0.0034878274891525509,-0.0004753155808430165,-0.000759703922085464,0.0016903565265238286,-0.0006698466022498906,-0.0021760407835245134,-0.001624185824766755,-0.00019331298244651407,-0.008161056786775589,0.00011025787534890696,-0.0013191679026931525,-0.002406470710411668,0.00023556554515380412,-0.0007980743539519608,-0.0032905149273574354,0.0014538203831762076,0.0003706765710376203,0.0005668540252372623,-0.003632768988609314,-0.002148263156414032,0.00007301649020519108,-0.011092289350926876,-0.0004897549515590072,-0.00513532804325223,-0.0021971904207021,-0.007799678947776556,-0.004440926015377045,-0.0002264776558149606,-0.0029510813765227796,-0.004625746048986912,-0.013038359582424164,-0.001642353250645101,-0.0030589920934289695,-0.001055438187904656,-0.00550343282520771,-0.008726816624403,-0.0005254966672509909,-0.006813491228967905,-0.0002083611470879987,-0.00013003103958908468,-0.0004189905303064734,-0.0033041813876479866,-0.00017300406761933118,-0.003490519942715764,-0.0007969482685439289,-0.00022758216073270887,-0.0015698329079896212,-0.0010935434838756919,-0.004974334500730038,0.0014323130017146469,-0.004295979626476765,-0.004977743607014418,-0.006410910747945309,-0.006099223624914885,0.0006983997882343829,-0.0006923325126990676,-0.002577048959210515,-0.00040366826578974724,-0.0017037977231666446,0.00010251966887153685,-0.00867863092571497,-0.004555064719170332,-0.0035694572143256666,-0.008189698681235314,-0.005334865301847458,-0.0007048978004604578,-0.00004546270429273136,-0.0013456324813887478,-0.0012119913008064032,-0.0016891870182007552,-0.003809724235907197,0.0003308244049549103,0.00047254274250008166,-0.0012960083549842239,0.000058054502005688846,-0.0028337878175079824,-0.004008701536804438,-0.005960590671747923,-0.001309514744207263,-0.000043783737055491656,-0.0004967960412614048,0.0017900816164910794,-0.0027954522520303728,0.0032341345213353636,-0.001778922276571393,-0.00385189987719059,-0.003893322544172406,0.0008124152082018554,-0.0014479183591902257,0.0008119940757751465,-0.0034515331499278547,-0.0043208058923482899,-0.0006201364449225366,-0.0011284532956779004,-0.0022716305684298279,0.002575528807938099,-0.005533608607947826,-0.0027991614770144226,-0.0026179268024861814,-0.0021194107830524446,-0.012751342728734017,-0.0017822517547756434,-0.003935760352760553,-0.0034102697391062977,-0.0026974487118422987,0.0008221205789595842,-0.00024693075101822615,-0.002166232094168663,-0.011752710677683354,0.0007740815635770559,-0.0006591523415409029,-0.0007869371329434216,-0.003403943032026291,-0.000057065703003900126,-0.004028243478387594,-0.0010407858062535525,-0.0003734804631676525,0.0004299746942706406,0.002757018432021141,-0.004008756950497627,-0.000020500827304203995,-0.0005244907224550843],"_Inputs":[0.8185833692550659,0.964455783367157,0.18374648690223695,0.52601158618927,0.6625828742980957,2.0208559036254885,1.530144214630127,0.008417129516601563,1.639899730682373],"_Outputs":[0.14912989735603333,-0.1424439251422882,0.14222879707813264,-0.0664757713675499,-0.04519093409180641,-0.121805340051651,0.21430186927318574,-0.04998588189482689,-0.14441616833209992,0.04999968782067299,-0.17701247334480287,-0.12466833740472794,0.0229148268699646,0.10716456174850464,-0.12626248598098756,-0.1237926185131073,0.04870116338133812,0.0038946482818573715,-0.013550286181271077,0.18161438405513764,0.13208986818790437,0.18450869619846345,0.19452442228794099,0.22529546916484834,0.07506764680147171,0.17123627662658692,-0.0922614112496376,-0.017041878774762155,-0.2621971368789673,-0.024747589603066446,0.06992591172456742,0.24909278750419618,0.006097867153584957,-0.14357677102088929,0.28402718901634219,0.03401685133576393,0.09236215054988861,-0.10868801176548004,0.13104738295078278,-0.020297151058912278,-0.12424135208129883,0.29394420981407168,-0.358472615480423,0.01766815409064293,-0.07659608125686646,-0.17602495849132539,-0.014838052913546563,-0.16105571389198304,-0.1787181943655014,-0.17082929611206056,0.3756752014160156,-0.24734969437122346,-0.040639594197273257,-0.1937708556652069,0.18374702334403993,0.046902045607566836,0.04242086037993431,0.10814907401800156,0.014650599099695683,-0.065952368080616,0.016577742993831636,-0.14799056947231294,0.050639811903238299,-0.18442587554454804,0.07855355739593506,-0.1246446818113327,-0.11484934389591217,0.16274671256542207,-0.08107028901576996,0.14352260529994965,-0.44139760732650759,0.002881223103031516,-0.38048991560935976,-0.04502028971910477,0.27424558997154238,0.17785175144672395,-0.019288726150989534,0.060257185250520709,0.12670588493347169,0.09462334215641022,0.1725146472454071,-0.11298926174640656,-0.058290995657444,0.08015857636928559,-0.04235469549894333,-0.16254958510398866,0.1252092868089676,-0.13792462646961213,0.02469136379659176,0.18649010360240937,0.3309078812599182,0.06164003908634186,0.2074083387851715,-0.1242612823843956,0.041026316583156589,-0.08287329971790314,-0.0514964796602726,0.12759071588516236,0.04176197201013565,-0.03618527203798294,0.20306207239627839,0.05107308551669121,0.19016927480697633,-0.08120383322238922,-0.09666614234447479,-0.08249597251415253,-0.027133816853165628,-0.11255636811256409,0.09657417237758637,-0.03753947466611862,0.14547936618328095,-0.00013250554911792278,-0.3165901005268097,-0.007554080802947283,-0.1889677196741104,-0.09817154705524445,0.04912516847252846,-0.2888154983520508,0.18138264119625092,-0.06454714387655258,-0.016573645174503328,0.08968732506036759,0.07741832733154297,0.07843055576086045,0.07427763193845749,-0.004730599466711283,-0.2357407510280609,-0.10787896066904068],"forwardCS":{"instanceID":24632}},{"InputSize":128,"NodeSize":128,"Weights":[0.0024484016466885807,0.02602551318705082,0.00851122010499239,-0.04252004250884056,0.01233363151550293,-0.02852206490933895,0.03364285081624985,0.016911515966057779,0.07931464165449143,0.013367397710680962,-0.02452944777905941,0.035358261317014697,0.017517348751425744,-0.003380784997716546,0.04100153595209122,-0.05332861840724945,0.07413685321807862,0.04161844402551651,0.022928208112716676,0.05125931277871132,0.025543006137013437,-0.013877284713089466,-0.028766291216015817,0.020171429961919786,-0.07219219952821732,0.058456603437662128,-0.05584621801972389,-0.07367858290672302,-0.041612207889556888,0.06970246136188507,0.05008084699511528,-0.08490871638059616,-0.07159516215324402,0.04570683836936951,0.039397403597831729,-0.022972069680690767,0.041593510657548907,-0.06735158711671829,0.018306385725736619,-0.014963571913540364,0.08443079888820648,0.018919160589575769,-0.010268661193549633,-0.044690921902656558,-0.06988518685102463,0.08631304651498795,0.02745465375483036,-0.056889038532972339,0.07036802917718888,0.06717074662446976,-0.02761535905301571,0.08783143758773804,0.016486069187521936,0.0495757982134819,0.020007146522402765,0.0776694118976593,-0.07815027236938477,-0.060097940266132358,-0.06689098477363587,0.07321661710739136,0.028837038204073907,-0.005295007023960352,0.04627421870827675,-0.04162859916687012,0.026948116719722749,0.05522148683667183,0.03402499854564667,0.04883361607789993,0.06419657915830612,0.05067075043916702,0.04983864352107048,-0.08023235201835633,-0.050117377191782,0.03272971138358116,0.08063512295484543,0.06632485240697861,-0.08298707008361817,0.02760513313114643,0.011531135067343712,-0.03569227084517479,0.0027742907404899599,0.07784067839384079,-0.08691924065351486,0.08363264799118042,0.016293058171868326,-0.02891395054757595,0.04661117121577263,0.011469750665128231,-0.05049983039498329,-0.05924804508686066,-0.031745877116918567,0.05412351340055466,-0.06506405770778656,0.04743257537484169,0.007394042331725359,-0.0737038254737854,-0.07218869030475617,0.03016306273639202,-0.03534683957695961,0.07122746109962464,0.01577181927859783,0.04600287228822708,-0.025800028815865518,0.06430625170469284,0.06055552139878273,0.017946483567357065,0.04214581847190857,-0.08582761883735657,-0.08630365133285523,-0.0764528140425682,0.05648977309465408,0.07613873481750488,0.05600614845752716,0.01027192547917366,0.07999955117702484,-0.0782211422920227,0.06586448848247528,-0.0076587870717048649,0.009412621147930622,0.07691975682973862,0.05008760467171669,0.06837503612041474,0.058629997074604037,0.0874529480934143,-0.030138419941067697,-0.06506869196891785,0.014144225046038628,0.005574963986873627,-0.04578151926398277,0.027119005098938943,0.07184457778930664,-0.034196097403764728,0.07941397279500961,0.045592524111270908,-0.0027524575125426056,-0.06703304499387741,0.027364734560251237,-0.06212051585316658,-0.023363245651125909,0.009055862203240395,0.08165966719388962,-0.02577800676226616,-0.07297483086585999,-0.00953664816915989,0.08525111526250839,0.00028379529248923063,-0.002615854609757662,-0.024828288704156877,0.02923281118273735,-0.0696733370423317,-0.0684313252568245,0.03831654414534569,0.019801991060376169,-0.01939658634364605,-0.08629932999610901,0.006360807456076145,0.03489279747009277,-0.07402167469263077,-0.030006155371665956,0.008248328231275082,-0.06026287376880646,-0.025352884083986284,0.03989405930042267,0.05708819627761841,-0.05775666981935501,0.02807042934000492,0.0590011328458786,-0.0706593319773674,-0.000009710766789794434,-0.012702391482889653,0.08672326803207398,-0.05648866668343544,0.011550153605639935,0.03914016857743263,-0.06507442146539688,-0.08744411170482636,0.041795872151851657,-0.07654064893722534,0.037165187299251559,-0.04994533956050873,0.03307385742664337,-0.010655983351171017,-0.06958144903182984,-0.024067498743534089,0.05930064246058464,0.07425196468830109,-0.08912039548158646,0.025554513558745385,-0.03442725911736488,-0.05393895506858826,-0.04607260972261429,0.055166978389024737,0.01807231642305851,-0.02841378003358841,-0.06323838979005814,0.05031251907348633,0.06212133914232254,0.029263993725180627,0.03390686586499214,-0.06558572500944138,-0.011002826504409314,-0.023983225226402284,-0.019199557602405549,-0.007824989967048169,0.0011701190378516913,-0.017127051949501039,-0.08421117067337036,-0.01812761276960373,-0.047704678028821948,-0.03652361407876015,0.06101936474442482,0.0646829754114151,-0.07657328993082047,-0.06594941020011902,-0.052455153316259387,-0.06037513539195061,-0.03463265672326088,0.02194882370531559,0.0797615498304367,0.042692288756370547,-0.013087720610201359,-0.07932381331920624,0.04187596216797829,0.03989329934120178,-0.02183685265481472,0.024645740166306497,0.04788907989859581,-0.008439809083938599,-0.03569595888257027,0.017648320645093919,-0.015019591897726059,0.05046302452683449,0.012719040736556054,0.025099975988268853,-0.0037530858535319568,-0.03883165493607521,0.047717198729515079,-0.058473799377679828,-0.024548565968871118,-0.08238337188959122,0.010730552487075329,0.07395447045564652,0.016432547941803933,-0.07861392945051193,0.07334724813699722,-0.031151272356510164,0.07205503433942795,-0.0793309360742569,-0.07156511396169663,-0.07204028218984604,-0.05174187570810318,-0.0623304583132267,0.0173118244856596,-0.0828477144241333,0.022869296371936799,-0.047517839819192889,0.004407285712659359,0.02936583198606968,0.042079031467437747,0.022921234369277955,0.03970097377896309,0.05562674254179001,-0.03733697161078453,0.0869542732834816,-0.00013484773808158934,0.06284214556217194,0.05477207899093628,-0.018065232783555986,-0.048218511044979098,0.078865647315979,0.07071097195148468,-0.030719824135303499,0.0510968416929245,-0.06275831907987595,-0.03566746786236763,-0.02829121984541416,-0.007263663224875927,0.048198945820331576,0.043646059930324557,-0.09847503155469895,0.06126721203327179,-0.032105784863233569,0.03944680094718933,0.00198761816136539,-0.002328965114429593,0.01404862105846405,-0.07669612765312195,0.026935050264000894,0.055599331855773929,-0.0765979066491127,0.020115971565246583,0.00391165167093277,-0.042201124131679538,0.05998265743255615,-0.038765497505664828,-0.0040640197694301609,0.07968943566083908,0.07667023688554764,0.06853383034467697,0.027278631925582887,0.037933189421892169,-0.054790325462818149,0.08017668128013611,0.08190774917602539,0.009576288983225823,0.0357351154088974,-0.061483677476644519,0.050082556903362277,-0.0404740646481514,-0.0585215725004673,0.007382914423942566,0.036744192242622378,0.043648432940244678,-0.059507597237825397,0.08269873261451721,0.018162153661251069,0.012845711782574654,-0.040752872824668887,0.056962721049785617,0.06853336095809937,0.012199519202113152,-0.018597599118947984,0.015547447837889195,-0.06739155203104019,0.0799344852566719,-0.09387563914060593,0.0026906535495072605,0.04489442706108093,0.06228083372116089,-0.03842894732952118,0.03059566766023636,0.04760371148586273,-0.06864067912101746,0.01631627418100834,0.02060961350798607,0.058361735194921496,-0.04425117000937462,-0.0072785476222634319,-0.02913271263241768,-0.09497534483671189,0.02741737850010395,-0.08369772136211395,-0.012601359747350216,0.04690873995423317,0.038684990257024768,-0.07948117703199387,-0.052518878132104877,-0.008935580030083657,-0.04546195641160011,-0.08091048896312714,0.0704398974776268,0.06732727587223053,0.008183078840374947,0.050749264657497409,0.07482768595218659,0.04134932532906532,-0.03273901715874672,-0.058152686804533008,0.053194720298051837,0.021443884819746019,-0.05157364904880524,-0.05724053457379341,-0.10000361502170563,0.021047241985797883,0.03298069164156914,0.07562907040119171,0.08272571861743927,-0.0013142524985596538,-0.03593456372618675,-0.01820397563278675,0.044939372688531879,0.0069735972210764889,-0.08820753544569016,0.06860309094190598,-0.05204984173178673,0.04483061283826828,0.03141845762729645,0.05508605018258095,0.08029249310493469,0.030207592993974687,0.07980909198522568,0.011494793929159642,0.07921109348535538,-0.02476629801094532,0.043529268354177478,-0.08619944006204605,-0.06640595197677612,-0.06685815751552582,-0.002104095881804824,0.0425826720893383,-0.04600315913558006,0.054405223578214648,0.067905493080616,0.061654433608055118,0.058175135403871539,-0.007382519543170929,-0.007590826600790024,-0.06584352999925614,-0.058408625423908237,0.06669620424509049,-0.029361644759774209,-0.05172332003712654,-0.01513396855443716,-0.03454544395208359,0.06753474473953247,0.03155554085969925,0.00876577291637659,0.013777985237538815,-0.08182857930660248,0.0615055076777935,-0.07324707508087158,-0.030952490866184236,0.01932774856686592,0.04078289493918419,-0.05441756173968315,0.0759715884923935,0.027683287858963014,0.07026072591543198,-0.005607645958662033,0.07794437557458878,-0.08549291640520096,-0.08093374967575073,-0.025617139413952829,-0.05640542134642601,-0.03920794650912285,-0.07914537936449051,0.02533690631389618,0.047398410737514499,0.006642198655754328,0.08621697872877121,-0.05893229320645332,-0.05543714016675949,0.03104146383702755,-0.06387215852737427,0.06412942707538605,0.03165460750460625,0.08237358927726746,0.08674653619527817,0.08718980848789215,-0.05505743995308876,-0.002285748952999711,-0.07550597190856934,-0.0684475228190422,-0.08569488674402237,-0.08028491586446762,0.0023312338162213566,-0.04790174961090088,0.055638473480939868,0.054887864738702777,0.0130500802770257,-0.055123016238212588,-0.054152823984622958,0.0065338583663105968,0.089786596596241,0.014120540581643582,-0.04378347471356392,0.05836166441440582,0.08123023808002472,-0.046350251883268359,-0.04370187222957611,0.008274562656879425,0.023424256592988969,0.08040884882211685,0.025485070422291757,0.06850740313529968,0.017469432204961778,-0.044396452605724338,-0.02502366155385971,0.05094993859529495,0.024981752038002015,-0.03263109177350998,-0.01782521791756153,-0.0484900027513504,0.018158720806241037,0.07768604159355164,-0.013564682565629483,0.057920679450035098,-0.06150713190436363,-0.005138958338648081,-0.01511345338076353,-0.04890059307217598,-0.04494593292474747,-0.07999181747436524,0.06391296535730362,-0.07688472419977188,0.014592379331588745,-0.062162406742572787,-0.061730075627565387,-0.015189372934401036,-0.08603769540786743,-0.009166574105620385,-0.051996227353811267,-0.012796902097761631,-0.0019749293569475414,0.07088147103786469,-0.07961905747652054,0.06355325877666474,0.018684251233935357,0.0320240743458271,0.0012979528401046992,-0.0788121223449707,-0.022994743660092355,0.01934567280113697,-0.06268429756164551,0.06376867741346359,-0.01712728664278984,0.04744398593902588,0.0604260228574276,0.0029211475048214199,0.05324624851346016,-0.07627129554748535,0.058948904275894168,0.06352552771568299,0.04710838943719864,0.06495627015829086,-0.020058030262589456,0.056879229843616489,-0.006601231172680855,0.01052649412304163,-0.001816904405131936,-0.019703678786754609,-0.05952741205692291,0.03010961040854454,0.025429565459489824,-0.07616680860519409,-0.08774600178003311,-0.05382832512259483,-0.0343465656042099,0.065736323595047,0.09080381691455841,0.06537073105573654,0.05390571057796478,0.016883431002497674,-0.08119077980518341,-0.0871734619140625,0.016003310680389406,-0.01620941050350666,0.03219475969672203,0.07218718528747559,0.07229458540678024,-0.0764857828617096,0.020805291831493379,0.03111310489475727,0.06682731956243515,-0.032122090458869937,-0.05347264185547829,-0.03548210859298706,0.04031389206647873,0.05815142020583153,-0.04080544039607048,0.08234640955924988,-0.013349953107535839,-0.04931268095970154,-0.013110674917697907,-0.05738866701722145,0.060103870928287509,-0.059171635657548907,-0.018812812864780427,-0.04755062609910965,0.05037783086299896,-0.082637719810009,-0.03499634936451912,-0.00718157971277833,-0.05281626433134079,-0.06122816354036331,-0.07675588130950928,0.0791284590959549,-0.019597413018345834,0.0146429892629385,-0.06198132783174515,-0.053813058882951739,-0.021741526201367379,-0.030489100143313409,-0.08237751573324204,-0.017070941627025605,-0.05873413011431694,-0.08302496373653412,-0.06727883219718933,0.06844736635684967,-0.06343638151884079,-0.04913395643234253,-0.06811018288135529,0.04213467240333557,0.08639923483133316,-0.023976190015673639,-0.08345543593168259,0.07259514927864075,-0.024664394557476045,0.08603210747241974,-0.08705111593008042,-0.004731515422463417,-0.08198492974042893,-0.08837933838367462,0.06080580875277519,-0.07810268551111222,0.007203040644526482,0.04482598975300789,0.06911303102970123,-0.08104187250137329,-0.044138357043266299,0.03732149302959442,0.04754326865077019,-0.018645085394382478,0.07672847807407379,-0.04664130136370659,0.08135095238685608,-0.08107732236385346,0.04410780593752861,-0.03376113623380661,0.018795954063534738,-0.0295295137912035,0.03389473259449005,0.028170369565486909,0.049996864050626758,0.04831211268901825,-0.028220780193805696,-0.04364160820841789,-0.05694309622049332,-0.07453259080648422,-0.07244978100061417,-0.07623209059238434,0.06543415784835816,-0.07804369926452637,0.004350410308688879,-0.018316859379410745,0.019199049100279809,-0.03906460106372833,-0.08710068464279175,0.06787265837192536,0.02768508903682232,0.06605652719736099,-0.06259714812040329,-0.06494595855474472,-0.023597683757543565,0.06599637866020203,0.014976918697357178,-0.020780719816684724,0.039280571043491366,0.038129039108753207,-0.0142625467851758,-0.06088098883628845,-0.05499260127544403,-0.05614490807056427,0.04112813249230385,0.0868992730975151,0.02414015680551529,0.06827189773321152,0.07367303222417832,0.06481874734163284,-0.0104396753013134,-0.03392646834254265,-0.016448339447379113,-0.046602509915828708,0.024008039385080339,-0.004574070684611797,-0.047588545829057696,-0.067904531955719,0.0011816833866760135,-0.048955038189888,-0.0444815568625927,-0.08210726082324982,0.0009713358012959361,-0.012465430423617363,-0.0831446722149849,-0.06209950149059296,-0.0005349848070181906,-0.021516749635338784,-0.01874368079006672,-0.03137211874127388,0.07509883493185044,0.06144122779369354,0.031697828322649,0.0016232749912887812,-0.05705208703875542,-0.04842635989189148,0.02528182417154312,0.0343475304543972,-0.00918793585151434,-0.05991290882229805,0.041740626096725467,0.006486712489277124,-0.06772977858781815,-0.08618298918008805,-0.06672348082065582,-0.01747012697160244,-0.05821983516216278,0.0849517434835434,0.02703261747956276,0.03431634604930878,0.03851120173931122,-0.06723389774560929,0.038956645876169208,0.07115103304386139,-0.00901979673653841,0.05396844819188118,0.011517970822751522,0.026047484949231149,-0.06128741428256035,-0.014071597717702389,-0.028411585837602617,-0.0773768201470375,0.05847247317433357,0.04061996936798096,-0.037597451359033588,0.03273385390639305,0.02765551023185253,-0.018572991713881494,0.059808727353811267,-0.0397367924451828,0.056042108684778216,0.031076226383447648,-0.0188685841858387,-0.06536216288805008,0.01293318159878254,0.04367171600461006,0.08428039401769638,-0.007287005428224802,-0.011276258155703545,0.016553211957216264,-0.08728549629449845,-0.015234152786433697,0.05331820622086525,-0.0016377883730456234,-0.0632023736834526,0.04941577836871147,-0.03376458212733269,0.008823046460747719,0.02453007735311985,0.060665179044008258,0.01089104451239109,-0.03752885386347771,-0.055134113878011706,-0.0052042570896446709,-0.03295058012008667,0.030527468770742418,-0.08018622547388077,-0.01579657569527626,-0.08498329669237137,-0.08629003912210465,0.05305750295519829,-0.09781011939048767,-0.05383044108748436,0.06092657893896103,-0.0206079613417387,0.0731251984834671,-0.04755527898669243,-0.09261061251163483,0.026867156848311425,0.07311467081308365,0.08218560367822647,-0.020459812134504319,-0.040704380720853809,0.04093331843614578,-0.019807452335953714,0.07276426255702973,0.04834908992052078,0.061776112765073779,0.08370425552129746,-0.020987972617149354,0.0040278141386806969,-0.06729377806186676,0.023232340812683107,-0.0856555625796318,-0.06212432682514191,0.053610678762197497,0.012353254482150078,-0.06684263050556183,-0.052584074437618259,-0.07121652364730835,0.06264612823724747,0.032313089817762378,0.06119818985462189,0.043900661170482638,0.0256856270134449,0.05416757985949516,0.0121452696621418,0.08578512817621231,0.07247083634138107,-0.05782786384224892,0.05308273434638977,-0.0038016894832253458,-0.060701753944158557,-0.07905834913253784,0.060730718076229098,-0.0713895782828331,-0.0634913370013237,0.07207988202571869,-0.06843603402376175,-0.042368799448013309,0.027666360139846803,-0.009123320691287518,-0.07653510570526123,0.024960868060588838,-0.04146380349993706,0.085685133934021,-0.0641157478094101,0.040558841079473498,-0.07354092597961426,0.0452563613653183,-0.001238472992554307,0.04207591712474823,-0.08060572296380997,0.06168222799897194,-0.07286305725574494,-0.0029181893914937975,-0.002964106621220708,-0.05146625638008118,-0.03804761543869972,0.014147864654660225,-0.055439021438360217,0.01407935842871666,-0.06051446869969368,-0.04171893373131752,0.07081404328346253,0.014783371239900589,-0.02681085653603077,-0.06845428794622421,-0.03255630284547806,0.07626792043447495,0.0029204157181084158,-0.0704665258526802,0.014518339186906815,-0.018414290621876718,-0.04434703290462494,-0.06481234729290009,-0.08821900188922882,-0.00009725376730784774,0.0012334303464740515,0.02012854814529419,-0.02236441895365715,0.055920183658599856,0.051553282886743548,0.008398222737014294,0.021995721384882928,-0.018216803669929506,-0.045484792441129687,0.013263479806482792,0.031762100756168368,-0.014881259761750698,-0.06484081596136093,0.055270396173000339,0.07832988351583481,-0.004786382894963026,0.05557924881577492,0.0090222442522645,0.0868099182844162,0.0438007190823555,-0.0386192724108696,0.07190816849470139,0.0025677040684968235,-0.0033966591581702234,-0.0010998784564435483,0.03289069980382919,0.026407673954963685,-0.05337009206414223,0.07165288180112839,0.04514569044113159,0.06570130586624146,0.02786504663527012,-0.040613315999507907,0.04163016006350517,0.0743684396147728,-0.08214692026376724,0.0015534107806161047,-0.04660554230213165,-0.05770290642976761,-0.052934035658836368,-0.055230509489774707,-0.011391258798539639,-0.06712717562913895,-0.02065041847527027,0.0576094426214695,0.03731687366962433,0.053970638662576678,0.004607874900102615,-0.07876165956258774,0.06394483894109726,-0.03283625468611717,0.08080417662858963,-0.08854851126670838,0.05743108689785004,0.0551682747900486,0.012632421217858792,0.03835693746805191,0.025208164006471635,0.08163366466760636,-0.04895962029695511,0.06012716144323349,-0.008891058154404164,-0.05609637871384621,0.021522831171751024,0.010963727720081807,0.081790030002594,0.07804980874061585,0.00794941931962967,0.06612320244312287,0.058336976915597919,0.06100321188569069,-0.059459008276462558,-0.011028123088181019,-0.004530357662588358,0.028658248484134675,-0.013214372098445893,0.025081122294068338,0.04815816134214401,-0.005493619944900274,-0.006285953801125288,0.02017926797270775,0.0006728366715833545,-0.0792674645781517,-0.05091940611600876,-0.05897756293416023,0.039421893656253818,0.08501002937555313,-0.05261213704943657,0.03607259690761566,-0.0640062764286995,0.08741066604852677,-0.07307691872119904,0.0003040168376173824,-0.04013404995203018,0.026856692507863046,-0.009194539859890938,-0.061102986335754397,-0.02604973129928112,-0.024632267653942109,0.07745727896690369,-0.02769947424530983,0.030376533046364785,0.06327994167804718,-0.07542894035577774,0.024719223380088807,0.08250990509986878,-0.04095744714140892,-0.021806027740240098,-0.04784443974494934,-0.050529107451438907,-0.07336264103651047,0.05939951539039612,0.049629196524620059,-0.0365833155810833,-0.05010544881224632,-0.05940565466880798,-0.03657174110412598,0.020361652597784997,0.06698479503393173,0.03137073665857315,-0.08462977409362793,-0.00027349471929483116,0.05892099812626839,-0.04136242717504501,-0.007397118955850601,-0.03575867787003517,0.006211874075233936,0.06805568933486939,0.008451176807284356,-0.06560187041759491,0.0019095473689958454,-0.04585494101047516,0.008104314096271992,0.011232235468924046,0.027090949937701227,-0.03970886766910553,0.06408395618200302,0.038756728172302249,-0.061492398381233218,0.018976440653204919,-0.05388205870985985,0.06474786251783371,0.08275853097438812,-0.06698571890592575,0.0753258541226387,0.021329304203391076,-0.08412766456604004,-0.03657304868102074,-0.0021616898011416198,-0.014352080412209034,-0.03780946508049965,0.0828121155500412,-0.05091492086648941,-0.061511557549238208,0.07255051285028458,-0.04379748925566673,0.021958250552415849,-0.08113903552293778,-0.05527832731604576,-0.007040911819785833,-0.038481153547763827,0.03833699971437454,-0.008505263365805149,0.0062029012478888039,0.0040493980050086979,-0.07882306724786759,0.04777421057224274,0.018572429195046426,0.050313740968704227,0.07721121609210968,-0.07431716471910477,0.08121386915445328,0.05278471112251282,0.050312340259552,-0.03656982630491257,-0.05555864796042442,0.019813092425465585,-0.06273118406534195,-0.049199022352695468,0.058156613260507587,0.03825138509273529,0.06427524983882904,-0.06558891385793686,-0.06280232965946198,-0.07390204817056656,0.03012786991894245,0.06348761916160584,-0.05624096840620041,-0.012485850602388382,-0.017907097935676576,0.05405672639608383,-0.003363650757819414,0.007473400793969631,-0.0408267080783844,-0.05198501795530319,-0.0653129294514656,0.014290113002061844,0.06677421182394028,-0.03563586249947548,0.057739365845918658,-0.03409770131111145,-0.03870074823498726,-0.04580860212445259,0.000915788346901536,-0.05819069966673851,-0.08734341710805893,-0.010391011834144593,-0.04795972257852554,-0.08620458096265793,-0.00014062407717574388,0.00035903495154343545,-0.017856024205684663,-0.06455584615468979,0.04401364177465439,0.013849296607077122,-0.046683747321367267,-0.07203961908817291,0.03834077715873718,0.03936639800667763,-0.02215978130698204,0.0031870172824710609,-0.032076071947813037,0.06781906634569168,-0.021637964993715287,0.0546916127204895,-0.02052278071641922,0.019526634365320207,-0.06320637464523316,-0.07427927106618881,0.01919865794479847,-0.05913145840167999,-0.08231982588768006,0.08140616118907929,-0.0445442758500576,-0.003376421518623829,-0.07252330332994461,-0.041934192180633548,0.024296926334500314,0.07124202698469162,-0.04240746423602104,0.051816754043102267,0.008378809317946434,-0.05806610360741615,-0.034193772822618487,0.04268069937825203,-0.04167191684246063,-0.08119954168796539,-0.06563472002744675,0.05129941180348396,-0.07552707940340042,0.02116767130792141,-0.046698104590177539,0.06535617262125015,0.05173274129629135,-0.0047539821825921539,0.0818294957280159,-0.023204883560538293,-0.027384620159864427,0.04838104173541069,-0.061470817774534228,-0.010517267510294915,-0.024267442524433137,-0.07357844710350037,0.07282206416130066,-0.015892095863819124,-0.013250629417598248,0.036048345267772678,-0.07136182487010956,-0.08403125405311585,0.06334677338600159,-0.07203981280326843,0.05410381406545639,-0.010308814235031605,-0.01468457467854023,-0.030322622507810594,-0.07578106969594956,0.05293100327253342,-0.024735083803534509,-0.08829514682292938,0.0021355387289077045,-0.03593069314956665,0.0501399040222168,-0.0764283537864685,0.07008711248636246,0.07391203939914704,0.01606941409409046,0.07518327236175537,0.06697063148021698,0.04882591590285301,-0.021602528169751169,-0.06314157694578171,-0.07055797427892685,-0.07047803699970246,0.04465169832110405,0.013349288143217564,0.0373886302113533,0.027920417487621309,-0.024558767676353456,0.06385163962841034,0.08573346585035324,0.04456287622451782,0.026136090978980066,0.08679581433534622,-0.028505567461252214,-0.047987911850214007,-0.048339810222387317,-0.05682814493775368,-0.011510461568832398,-0.047782234847545627,0.08455390483140946,0.004699993878602982,-0.010627918876707554,-0.07105740159749985,0.05853709578514099,0.04399016499519348,-0.061731986701488498,0.026621205732226373,0.00384613242931664,-0.08795127272605896,-0.02045736275613308,-0.03804377466440201,-0.06642122566699982,0.016154002398252488,-0.006610530894249678,-0.08508482575416565,-0.0009127959492616355,0.05364988371729851,-0.02451913245022297,0.006199747323989868,-0.08201682567596436,0.0779980942606926,-0.013402242213487625,-0.006091283168643713,-0.051585063338279727,-0.02138054370880127,-0.05906219407916069,0.06106908991932869,-0.03029504418373108,-0.05653432756662369,-0.05622876435518265,0.07493449747562409,0.008849021047353745,0.04477434605360031,0.0366804376244545,0.06656748801469803,-0.05960526317358017,0.01787765696644783,0.05712755024433136,0.08284041285514832,-0.030375627800822259,-0.07538212835788727,-0.023627152666449548,-0.015822364017367364,-0.01763484999537468,-0.06775251030921936,-0.005688236095011234,0.00484919548034668,0.08224959671497345,0.027890514582395555,0.05446243658661842,-0.06489615887403488,0.09163759648799896,0.04670074209570885,-0.07940607517957688,-0.0744188204407692,-0.043638259172439578,0.0603070892393589,-0.0003992596175521612,-0.021814804524183275,0.012408843263983727,0.08636642247438431,-0.04088914021849632,0.0470881462097168,-0.0030995903071016075,0.06755886226892472,0.07520799338817597,0.06803351640701294,0.06838145852088928,0.038603756576776507,0.005659395828843117,-0.04432960972189903,0.07887876778841019,-0.026560893282294275,-0.07037496566772461,0.0615270659327507,0.02665635012090206,0.055116597563028339,0.036771100014448169,-0.0838201493024826,-0.06931290775537491,-0.030416470021009446,-0.011622320860624314,0.058057915419340137,0.04043121635913849,0.010501425713300705,0.0202159583568573,-0.030498081818223,-0.025161713361740114,0.08432412892580033,-0.056970153003931048,-0.008063794113695622,0.035265542566776279,-0.0662546306848526,-0.03465358540415764,-0.026848087087273599,-0.07991635054349899,0.018475960940122606,-0.0841192975640297,0.04467896744608879,-0.0606287382543087,0.07642931491136551,-0.03551504388451576,-0.032016169279813769,0.006170717999339104,0.034449659287929538,-0.0034955560695379974,-0.035494375973939899,0.010442369617521763,0.06023390591144562,0.0739731714129448,-0.041669316589832309,-0.020081909373402597,0.07641097903251648,0.08017905056476593,-0.07246910035610199,0.013899721205234528,-0.03412942960858345,0.0037937669549137356,-0.05711841955780983,0.0260914359241724,-0.024608880281448365,0.03598363324999809,0.03187978267669678,-0.038689374923706058,0.061682313680648807,0.05635621398687363,0.022364884614944459,-0.02879522554576397,-0.06860783696174622,-0.056013382971286777,-0.07835091650485993,-0.07185574620962143,-0.04308613762259483,-0.028126945719122888,0.02025679126381874,-0.0658414214849472,-0.053805798292160037,-0.07885505259037018,-0.0013468492543324829,-0.020434126257896425,0.07856816053390503,0.029340988025069238,0.06313643604516983,-0.03720493242144585,0.06711244583129883,-0.02685759775340557,0.06419073790311814,0.058930255472660068,0.03647962212562561,0.08132807165384293,0.04288247227668762,-0.05653376504778862,0.009082887321710587,0.03181562200188637,0.03200315311551094,0.015437807887792588,0.067752406001091,-0.05644163116812706,-0.044973134994506839,0.07310386747121811,0.028997618705034257,0.02183385007083416,-0.02602209895849228,-0.02610659785568714,0.05127325281500816,-0.08731772750616074,0.03690634295344353,0.04873707890510559,0.060844000428915027,0.03774566575884819,0.0226120688021183,0.02838851511478424,0.02255498431622982,-0.08678571879863739,-0.06352590024471283,-0.0028576161712408067,0.05338725075125694,-0.052430227398872378,0.05032433196902275,0.025566866621375085,-0.00920834019780159,-0.06496720016002655,0.04538191854953766,0.05096615478396416,0.04783045873045921,-0.05800953134894371,-0.029095040634274484,0.07940638810396195,0.06747809797525406,-0.015753185376524926,0.06303801387548447,-0.05916683003306389,-0.05123197287321091,-0.011649581603705883,0.06790526211261749,-0.07115837931632996,-0.03302022069692612,-0.02414626069366932,-0.011596843600273133,-0.07421597838401795,0.029856018722057344,-0.02484367974102497,-0.04888331517577171,-0.0029888744466006757,0.07773652672767639,-0.021739758551120759,0.05079624056816101,-0.0009199607884511352,-0.04066130891442299,0.030012642964720727,-0.06799479573965073,0.004266437608748674,0.003163997083902359,-0.04608181491494179,0.007342792581766844,-0.027413899078965188,-0.08939990401268006,-0.06671049445867539,0.01957930065691471,0.008832445368170739,-0.0012399317929521204,-0.00025915823061950505,-0.08564180135726929,-0.05554645508527756,0.006651288829743862,-0.07274381071329117,0.0026807733811438085,0.03134546056389809,-0.07146934419870377,0.008700696751475335,0.03967145457863808,0.043266233056783679,0.08065669238567352,0.0553850419819355,-0.08731908351182938,-0.03371506929397583,-0.0032757085282355549,-0.07275909185409546,-0.00945690181106329,-0.06893290579319,0.03277349844574928,-0.04470808431506157,-0.07804521918296814,0.04628213867545128,-0.07565251737833023,-0.0055809905752539639,-0.011898119933903218,-0.07400383055210114,0.025106040760874749,0.08222547918558121,-0.08064699172973633,-0.08720547705888748,0.08167077600955963,-0.023905746638774873,-0.03131146728992462,-0.00747182872146368,0.02298652194440365,0.07039415836334229,0.009243864566087723,-0.08835502713918686,0.040980249643325809,0.01090303435921669,-0.0011799483327195049,0.003941414412111044,-0.056908659636974338,-0.03128406032919884,-0.008872396312654019,-0.005422326736152172,-0.06138485297560692,0.08785078674554825,0.005601618904620409,0.04392033442854881,-0.04544009268283844,0.07035551965236664,-0.07131192833185196,-0.031405895948410037,0.06806871294975281,0.04623774066567421,-0.017596064135432245,0.016354970633983613,0.08287857472896576,-0.049524109810590747,-0.0298389233648777,-0.003618465503677726,0.016448549926280977,0.057740576565265658,0.022865017876029016,0.08351199328899384,-0.06742089241743088,0.037369221448898318,-0.07832923531532288,0.01701206900179386,-0.07321075350046158,-0.07293695211410523,-0.07261615991592407,-0.0190705768764019,-0.01749720424413681,-0.08724549412727356,-0.08608786761760712,-0.08342420309782028,-0.006245948374271393,0.07138024270534516,-0.007579686585813761,-0.0865568071603775,-0.014625627547502518,0.08596823364496231,-0.05009719356894493,0.028648067265748979,-0.05677398666739464,-0.07945480197668076,-0.01932379975914955,0.030471621081233026,-0.04040004312992096,-0.0643034353852272,0.016637662425637246,-0.005927064456045628,0.07550901919603348,0.07934781908988953,-0.04823170229792595,-0.044355299323797229,0.08350329101085663,-0.02337820827960968,-0.05361545830965042,-0.0821109488606453,-0.034224219620227817,-0.061473969370126727,-0.022953294217586519,0.03393344208598137,0.02498803474009037,-0.036584265530109408,0.08362258970737457,-0.03516995906829834,0.032688528299331668,0.0075445398688316349,0.06509089469909668,0.00782123301178217,0.01961365155875683,-0.05727443844079971,0.08033543080091477,-0.08201464265584946,0.028350085020065309,0.0027731023728847505,0.014962981455028057,-0.050937116146087649,0.06191878765821457,-0.0026001334190368654,0.011321783065795899,-0.0820704996585846,0.0629989504814148,-0.005687781143933535,-0.07795416563749314,-0.05088270828127861,0.014578389935195446,0.049183983355760577,-0.06038035452365875,0.0486978143453598,0.0872497707605362,-0.03282153606414795,0.03464915230870247,-0.08568386733531952,0.027523666620254518,-0.08364921063184738,-0.032431460916996,-0.04933995380997658,0.058906540274620059,0.031236089766025544,-0.012173722498118878,0.038102149963378909,-0.045657869428396228,-0.006059876177459955,-0.01676865667104721,-0.05152535066008568,-0.08330457657575607,-0.03175495192408562,-0.07362401485443115,-0.037206921726465228,0.03808458521962166,-0.04669337719678879,0.03960975632071495,-0.04115898162126541,0.048562902957201007,-0.08785849064588547,0.07609409093856812,0.05459100008010864,0.03758690133690834,0.07630423456430435,-0.08231351524591446,0.02497137151658535,0.007054612506181002,-0.004869164898991585,0.012638960964977742,-0.0020650867372751238,-0.08085203170776367,0.06147744134068489,0.07333432883024216,0.03276737034320831,-0.04784093797206879,-0.06529469788074494,0.057454664260149,-0.05084296315908432,0.08828147500753403,0.06585698574781418,0.01868334226310253,0.026541294530034066,0.0747842788696289,0.07014895975589752,0.052404969930648807,0.04131228104233742,0.00840713270008564,-0.03278534859418869,-0.006799852475523949,0.07609186321496964,-0.0723353922367096,-0.0598418265581131,0.001602719770744443,-0.021839799359440805,-0.03521605581045151,0.04572121053934097,-0.07453053444623947,0.07643874734640122,0.006007753778249025,-0.07011940330266953,-0.07678237557411194,-0.050018809735774997,-0.05972132831811905,-0.05968053638935089,0.07435236871242523,0.05879179388284683,-0.07667429000139237,0.06482843309640885,-0.005376483779400587,-0.0322221964597702,-0.07011673599481583,0.0833125188946724,0.040030889213085178,-0.022262293845415117,-0.08503597974777222,-0.030600544065237047,0.022097010165452958,0.06867332756519318,-0.03388875722885132,-0.019763726741075517,-0.08419933915138245,-0.06671161949634552,-0.03690025582909584,0.07633108645677567,-0.03313261643052101,-0.05094750598073006,-0.009037137031555176,-0.0531034879386425,0.01936223916709423,0.0393439382314682,0.027817048132419587,-0.08975505083799362,-0.06758147478103638,0.04940800741314888,0.005234142765402794,0.04876892641186714,0.02911907620728016,0.06277389079332352,-0.08338680863380432,-0.04503830522298813,-0.03073594905436039,0.07754569500684738,0.07507213950157166,0.07631054520606995,-0.02254341170191765,-0.08361306041479111,0.08608519285917282,0.06223054602742195,-0.012516885064542294,-0.08149135857820511,-0.024358676746487619,-0.04403458535671234,0.02909095212817192,-0.003746666479855776,-0.060511767864227298,0.05065939947962761,-0.010387888178229332,-0.056453049182891849,-0.03809121251106262,-0.039281535893678668,-0.0474625900387764,-0.051088377833366397,-0.0025137553457170727,-0.027342380955815316,-0.03396656736731529,0.03455030545592308,-0.051971036940813068,0.08676663786172867,0.03987332805991173,-0.019668547436594964,-0.004610871896147728,0.0767832025885582,-0.03585432469844818,0.03819940984249115,-0.0008850498124957085,0.025670986622571946,-0.02057427354156971,-0.0034039518795907499,-0.02079051546752453,0.05876624584197998,0.06809252500534058,0.008484717458486557,0.00008836286724545062,0.02246498502790928,-0.024742815643548967,-0.06402381509542465,0.07619708776473999,0.07300341874361038,0.06424939632415772,0.0347897931933403,0.017360860481858255,0.07561904191970825,0.07556131482124329,0.07406487315893173,-0.02434486150741577,-0.0031114129815250637,-0.015404515899717808,0.0670834630727768,0.028058379888534547,0.06424926966428757,-0.06966462731361389,0.03466879948973656,0.07510113716125488,0.06720660626888275,-0.03781674802303314,-0.011412391439080239,0.056389350444078448,-0.07652432471513748,0.029367998242378236,0.042576905339956287,-0.02535504847764969,0.06526471674442291,-0.013801484368741513,-0.02165665477514267,-0.07233533263206482,0.051102299243211749,0.01633239910006523,-0.08048269152641297,0.019109634682536126,0.06628862768411637,0.05778343230485916,0.06708494573831558,-0.07193402200937271,-0.043314263224601749,0.055111974477767947,-0.00861754547804594,-0.03130847215652466,0.03967622295022011,-0.002288187388330698,-0.03384925797581673,0.004369434434920549,-0.056101635098457339,-0.031223652884364129,-0.07593899220228195,-0.05675950273871422,0.05190401151776314,-0.0692751482129097,0.076840341091156,-0.0854414626955986,0.037325046956539157,0.05641278252005577,0.08463684469461441,-0.08603081852197647,-0.040064770728349689,0.057328399270772937,-0.017569180577993394,-0.055357515811920169,-0.029409615322947503,0.0673520416021347,0.07923512160778046,0.014719878323376179,-0.013540263287723065,0.01621851697564125,-0.010627057403326035,-0.02638845704495907,-0.03602903336286545,-0.06443619728088379,0.00003651676161098294,0.002794606378301978,-0.024812374264001848,0.01785181276500225,-0.027219435200095178,0.024134770035743715,0.07584977895021439,0.08316706120967865,0.06437155604362488,-0.07437106221914292,0.006587461568415165,-0.02877439744770527,-0.06491376459598541,0.025138286873698236,0.0481298565864563,-0.06793150305747986,-0.057516150176525119,-0.02451767958700657,0.025462616235017778,0.07945743203163147,0.011106586083769799,0.01481869537383318,0.010576358065009117,-0.05188187211751938,-0.05816388130187988,-0.05260395258665085,-0.007393567357212305,-0.05689877271652222,0.06534889340400696,0.04641010984778404,0.02671802043914795,0.06768254935741425,0.051953673362731937,-0.05214288830757141,-0.08518890291452408,0.036381639540195468,-0.06869085133075714,-0.07801957428455353,-0.0680416002869606,-0.014123023487627507,-0.016200611367821695,-0.06720344722270966,-0.0734943151473999,-0.0018793725175783039,0.08235065639019013,0.0044530597515404228,0.07758007198572159,0.08338464051485062,0.0676998645067215,0.02546318620443344,-0.07239095866680145,-0.047685056924819949,-0.027052821591496469,0.006638644263148308,0.08310355246067047,-0.04040062054991722,-0.07975965738296509,0.006470597814768553,0.023211300373077394,0.023774849250912668,0.08395019173622132,-0.028169507160782815,-0.003334586275741458,-0.06283783167600632,-0.011506488546729088,-0.040111441165208819,0.007079428993165493,-0.02681477926671505,-0.07247572392225266,-0.011563935317099095,-0.062214430421590808,-0.023043520748615266,0.028557736426591874,-0.0650334283709526,0.06961958855390549,0.06528351455926895,0.04010577127337456,0.07694649696350098,-0.011297065764665604,-0.01621980592608452,-0.034911319613456729,0.08527260273694992,0.03207815811038017,0.0473691001534462,0.0072763594798743729,0.023557651787996293,-0.04276655241847038,-0.04047170653939247,0.04988100752234459,0.0163415540009737,-0.037890706211328509,-0.02631826139986515,-0.027868172153830529,-0.0006106884684413672,-0.03459158167243004,-0.029732070863246919,-0.07491089403629303,-0.004545325413346291,-0.026358120143413545,-0.0646534189581871,-0.010411917231976986,0.0015655156457796693,0.05475134775042534,-0.06579285115003586,-0.06390530616044998,0.01070373598486185,0.026860173791646959,-0.06715402007102967,0.07494034618139267,-0.014785567298531533,-0.06073436513543129,-0.04906439408659935,-0.07583870738744736,0.0004811868420802057,0.02659030817449093,-0.026215696707367898,0.029235489666461946,-0.07623397558927536,0.04667583107948303,0.054817214608192447,-0.02207772433757782,0.06478932499885559,-0.02175671048462391,0.03252600505948067,-0.029620150104165078,-0.06593694537878037,0.0831376388669014,-0.03216778114438057,-0.06679359078407288,-0.05653320252895355,-0.02504081465303898,0.035371072590351108,-0.07317563891410828,0.05324862524867058,0.07888463139533997,0.07736576348543167,0.07975377887487412,-0.0859161987900734,0.060668881982564929,-0.015044492669403553,0.06430608779191971,0.06021025776863098,0.03544614464044571,0.011930645443499089,-0.07772128283977509,0.02629922516644001,-0.02681346982717514,0.030321449041366578,0.022999199107289316,0.05409349128603935,0.07375284284353256,-0.05460137873888016,0.0675801932811737,-0.05869554355740547,0.02713485062122345,0.007611487992107868,-0.00811154954135418,-0.0006174466107040644,0.0142348762601614,0.028229234740138055,-0.06592237204313278,-0.007173252757638693,0.06707414984703064,0.08479271084070206,0.07025790214538574,-0.010821420699357987,-0.05421601980924606,-0.03435555845499039,0.06555534899234772,-0.07475025951862335,0.07941030710935593,0.06135706603527069,-0.042792025953531268,0.029252011328935624,-0.028899677097797395,-0.07150514423847199,0.07073649019002915,0.03035346046090126,0.023074429482221605,0.030152153223752977,-0.082256980240345,-0.08198428153991699,-0.08183082938194275,0.022824786603450776,0.07581933587789536,-0.018253544345498086,-0.08553856611251831,0.048973966389894488,0.044000446796417239,0.058086760342121127,0.032769013196229938,-0.07879748940467835,0.05246294289827347,-0.04219377785921097,-0.010433966293931008,0.07895789295434952,-0.039502087980508807,0.001101764035411179,0.0032783132046461107,-0.0001610439649084583,0.004820135422050953,-0.013809706084430218,-0.021813642233610154,0.00728966761380434,0.015527982264757157,-0.009722459129989148,0.016537629067897798,0.022272657603025438,0.0038903544191271068,-0.008434267714619637,0.00092490972019732,-0.06324156373739243,-0.007590815424919128,0.007664400618523359,-0.011116222478449345,0.05657751113176346,-0.07711321860551834,0.041486695408821109,-0.026727786287665368,-0.04763186722993851,0.023038050159811975,0.014025160111486912,-0.06225567311048508,-0.08146296441555023,-0.006857870612293482,-0.05410062521696091,0.0567702017724514,-0.04573370888829231,-0.036730214953422549,-0.05088140442967415,-0.026859892532229425,0.0319000668823719,0.013913633301854134,0.03475073352456093,-0.05793151631951332,-0.018438249826431276,0.03101126290857792,-0.018748223781585695,0.048125941306352618,0.044795241206884387,-0.05790851637721062,0.028556622564792634,0.0013267736649140716,-0.035301171243190768,0.0156865231692791,0.0679716020822525,-0.0488424114882946,0.0713944137096405,0.023949872702360154,-0.07770906388759613,-0.029957422986626626,-0.009007790125906468,0.05205206945538521,-0.04731486365199089,-0.07751225680112839,0.015649303793907167,-0.03295173496007919,-0.04852472245693207,0.08704576641321182,-0.049710363149642947,-0.0795644149184227,0.04623328894376755,-0.06369207799434662,0.055936288088560107,0.041304636746644977,0.0693378672003746,-0.03309417515993118,-0.06307187676429749,-0.06290598958730698,0.08344829082489014,0.04459751024842262,-0.011125396005809307,0.015665005892515184,0.058520473539829257,-0.0545511320233345,0.08491082489490509,-0.08246391266584397,0.0795748382806778,0.0690697655081749,0.06325080990791321,0.029676657170057298,-0.00952710211277008,-0.013703576289117337,-0.034037649631500247,-0.04397965595126152,0.05020446702837944,0.0679994598031044,-0.053709663450717929,0.03483401611447334,0.08402153104543686,0.015466832555830479,-0.056087128818035129,0.06382402032613754,-0.052844755351543429,0.06854509562253952,-0.0805942639708519,0.0683780163526535,-0.011966603808104992,0.039524659514427188,0.07449538260698319,0.0794205516576767,0.07628141343593598,-0.08542744815349579,0.038913775235414508,0.03796358406543732,0.0015767106087878347,-0.02475695312023163,0.004901142790913582,-0.0017657408025115729,-0.051864538341760638,-0.0014321614289656282,0.016498303040862085,0.006821075454354286,-0.029470203444361688,0.04759443923830986,-0.022242261096835138,-0.04027193784713745,0.03568904474377632,0.0463358573615551,0.05596623942255974,0.028293879702687265,0.0028647573199123146,0.013084659352898598,0.08621103316545487,0.062443774193525317,-0.0017522862181067467,0.046358685940504077,-0.08240003883838654,0.014509100466966629,-0.02197832241654396,0.08625993132591248,0.03749890625476837,0.03552813082933426,-0.048964399844408038,-0.07926996052265167,-0.046499259769916537,-0.012964482419192791,-0.04217999055981636,0.023279163986444474,-0.08218008279800415,0.07453450560569763,-0.01740378700196743,-0.03068959340453148,-0.08327588438987732,0.01872202940285206,0.026683427393436433,-0.06506572663784027,0.033404573798179629,-0.006457103416323662,0.01992841437458992,0.012663610279560089,-0.07059627771377564,-0.07450500130653382,0.0657346248626709,-0.06847461313009262,-0.05122418701648712,0.014076692052185536,0.011706977151334286,0.05670391395688057,-0.007449182216078043,-0.0026527412701398136,0.04552739858627319,0.06294331699609757,0.017887502908706666,0.06027526035904884,0.08609375357627869,-0.00913270190358162,-0.04046979174017906,0.0341913178563118,-0.022262323647737504,-0.009583445265889168,-0.007168900687247515,0.05057445913553238,-0.006825355347245932,-0.05983489751815796,-0.02161213383078575,0.0024468027986586096,0.08082964271306992,0.029407335445284845,0.08384795486927033,0.013595720753073693,-0.06516451388597489,-0.05813000723719597,0.013265744782984257,-0.04290936142206192,-0.07376087456941605,0.04518001154065132,-0.05303812772035599,-0.06799430400133133,-0.050785716623067859,-0.05904616415500641,-0.08096861094236374,-0.056129731237888339,0.04904409125447273,0.017498796805739404,0.04226556047797203,0.03582701459527016,0.08032773435115814,0.012325730174779892,-0.015688102692365648,0.04570038989186287,-0.05067044496536255,-0.011764190159738064,0.08196669816970825,0.008358053863048554,0.04249109700322151,0.06331028789281845,-0.03384114429354668,0.04541086405515671,-0.06107279658317566,0.01959620974957943,-0.07007808983325958,-0.07537674158811569,0.04703472554683685,0.04621133580803871,-0.03993017226457596,0.07772476971149445,-0.01687055453658104,-0.0655449852347374,0.026389406993985177,0.06374671310186386,-0.05529051274061203,0.006211153231561184,-0.0826982632279396,-0.02170111984014511,-0.008830430917441845,-0.02776479534804821,0.07600672543048859,-0.08104096353054047,0.060650311410427096,-0.043920475989580157,-0.05554177612066269,-0.052898943424224856,0.03346134349703789,-0.021352436393499376,-0.020922888070344926,0.01823287457227707,-0.064668670296669,-0.06639067083597183,0.0020634131506085397,0.015273401513695717,0.045087508857250217,0.01943833753466606,0.06716200709342957,0.003449811367318034,-0.015242082066833973,0.03273410350084305,0.029620297253131868,-0.0270010344684124,0.04616820812225342,-0.084254689514637,0.012810355983674527,0.03703760728240013,0.004032629542052746,-0.0347704142332077,0.05547749996185303,0.00882049836218357,-0.054044704884290698,-0.027604995295405389,0.014727937988936901,-0.07741373032331467,-0.0055892071686685089,-0.02802874706685543,0.007355097681283951,0.02486305870115757,0.007489138748496771,0.0381806418299675,0.06936696916818619,0.08837326616048813,-0.0443955734372139,-0.049289457499980929,0.010781081393361092,-0.0019419945310801268,0.03857358545064926,0.033794697374105456,-0.015727758407592775,0.04554272070527077,-0.08166244626045227,0.03508477285504341,-0.03261550888419151,-0.0314180962741375,-0.07938439399003983,0.008463840931653977,0.015837540850043298,-0.06655628979206085,-0.08438503742218018,0.019151361659169198,0.04190361127257347,0.05734073743224144,0.05139835923910141,0.014000292867422104,0.05294924974441528,-0.01016441360116005,0.03378158062696457,0.06732755899429321,-0.04085288569331169,0.03933807462453842,-0.08274073153734207,-0.03269962593913078,-0.07639074325561524,-0.004166625905781984,-0.05755054950714111,-0.08314508944749832,0.05278336629271507,0.05167078599333763,0.07313323765993118,0.040014028549194339,0.002859684871509671,-0.020248280838131906,-0.06264568865299225,-0.04123251512646675,-0.042217813432216647,-0.027616526931524278,0.06805309653282166,0.046495407819747928,0.05909179523587227,0.0501633882522583,0.06740667670965195,-0.08116930723190308,0.015648746863007547,0.03312826529145241,-0.032836467027664188,0.04420910403132439,-0.015643781051039697,0.07074234634637833,0.06264971941709519,-0.03096184693276882,0.03503679111599922,-0.013838302344083786,-0.045786283910274509,-0.02293567731976509,-0.08676652610301972,-0.0011641450691968203,0.08095669001340866,0.014074902981519699,-0.05737365782260895,-0.08162294328212738,0.035347502678632739,-0.0377022847533226,-0.07930576801300049,-0.01747916266322136,-0.08027829974889755,-0.005201821215450764,-0.019610384479165078,0.04133644327521324,0.020569946616888047,0.03717496246099472,-0.03988262638449669,0.050096943974494937,0.026481520384550096,0.045308906584978107,0.0063424790278077129,-0.004971140995621681,0.024216102436184884,-0.012303199619054795,0.06539148837327957,0.008090169169008732,0.011680666357278824,0.04889686405658722,-0.0831393152475357,-0.04673922434449196,-0.0118574108928442,0.06182407960295677,0.0702536478638649,-0.03644080087542534,-0.020030414685606958,0.043638527393341067,-0.022169729694724084,-0.031162016093730928,0.03567416965961456,-0.041572388261556628,0.08527201414108277,0.011045420542359352,-0.05115213245153427,0.08039338141679764,-0.008116856217384339,-0.04622204974293709,0.0053162663243710999,-0.07869436591863632,0.06936639547348023,0.08407780528068543,-0.06676001846790314,0.076036237180233,-0.00033228538814000785,0.06086389720439911,-0.08496235311031342,-0.04277212172746658,-0.04029559716582298,0.021573279052972795,-0.04165045917034149,-0.0842142328619957,0.056362032890319827,-0.05499819666147232,0.04588973522186279,-0.07319511473178864,-0.016211088746786119,0.06534837186336518,0.08698977530002594,0.038818832486867908,0.08248605579137802,-0.0578305646777153,0.06253579258918762,-0.02155868150293827,-0.009503474459052086,-0.06584639847278595,0.049498628824949267,0.07934248447418213,-0.04462601616978645,0.02621961198747158,-0.05828840658068657,0.03147491440176964,-0.0642009824514389,0.03646024689078331,0.08217483013868332,0.03726968169212341,0.037802621722221377,0.009810082614421845,-0.06930822134017945,0.03460432589054108,-0.018310915678739549,-0.028886035084724428,-0.04625290259718895,0.028740378096699716,0.03506876528263092,0.07548803091049195,0.06858367472887039,0.023187115788459779,-0.020111801102757455,0.018666282296180726,-0.0009174920269288123,0.04249953106045723,0.004990272223949432,0.03655482828617096,-0.08120431751012802,-0.03477067872881889,-0.0647156611084938,-0.00006014256723574363,0.02291770838201046,-0.04781382158398628,0.05531662702560425,-0.0154853081330657,0.05758081376552582,-0.025174064561724664,0.05657798424363136,-0.05269036069512367,0.013884855434298516,-0.008065037429332734,-0.0026748322416096927,-0.08657848834991455,0.06597219407558441,0.06777828186750412,0.05704006180167198,-0.024895895272493364,-0.03682790696620941,-0.04194439947605133,0.00726083992049098,0.004748343024402857,-0.006983971688896418,-0.08947723358869553,0.03747953847050667,0.045836154371500018,0.04332248866558075,-0.07789095491170883,-0.06814603507518769,0.040621139109134677,-0.03970268368721008,-0.08324550837278366,-0.024989238008856775,0.08754648268222809,0.021876538172364236,-0.06090155988931656,0.016991106793284417,0.03773847222328186,-0.08481112122535706,0.08352681994438172,-0.0760493203997612,0.0863063633441925,-0.046995777636766437,-0.07551541924476624,0.06600748747587204,-0.05014968290925026,0.011284416541457177,0.01933863013982773,0.020866118371486665,-0.0605279877781868,0.008045918308198452,-0.0439964197576046,-0.016478044912219049,-0.049027346074581149,-0.08613352477550507,-0.06126725301146507,-0.010672120377421379,-0.051935333758592609,-0.07753199338912964,0.055359065532684329,0.04242615029215813,0.03840816393494606,0.06115661934018135,-0.07966168969869614,0.0190652497112751,0.06485318392515183,-0.027042876929044725,0.06581701338291168,-0.06838848441839218,0.04719938337802887,0.05916668102145195,-0.07842810451984406,-0.06198725476861,-0.007262685336172581,-0.0045360419899225239,-0.07729361206293106,-0.03115464560687542,0.0037953208666294815,-0.015462900511920452,-0.0756709948182106,0.002767277881503105,0.015131006017327309,-0.025087149813771249,-0.030862847343087198,0.01518944464623928,0.062477048486471179,-0.031424958258867267,0.01458809431642294,-0.01401967741549015,0.04379986599087715,-0.054587312042713168,0.08299320936203003,0.08749184757471085,-0.04044293239712715,0.009078368544578553,0.07467424124479294,0.005529067944735289,0.04733821377158165,0.029121095314621927,-0.008794780820608139,-0.04360462352633476,-0.01078601460903883,-0.03293498978018761,-0.05870962515473366,-0.04654460772871971,-0.06863433122634888,0.035515084862709048,-0.022135814651846887,-0.058517567813396457,0.06254774332046509,0.01875634305179119,0.037167228758335116,-0.004222904331982136,0.07045871019363404,-0.08060850203037262,-0.046805258840322497,0.06325643509626389,-0.03632359206676483,-0.03269816190004349,0.047605596482753757,0.05111322179436684,0.08187820762395859,-0.026684578508138658,-0.026730818673968316,-0.08322960883378983,-0.0428287610411644,0.016903653740882875,-0.07007478922605515,0.05902376025915146,-0.03401810675859451,0.0026754969730973245,-0.033605292439460757,-0.026874585077166559,-0.02019473724067211,0.005560608115047216,-0.01235361397266388,0.025711501017212869,0.0405983030796051,0.05485677346587181,-0.028923671692609788,-0.023941777646541597,0.02521260641515255,-0.0430774912238121,0.0638737604022026,0.012669253163039685,0.07513756304979325,0.010138290002942086,0.029303036630153657,0.04928306117653847,-0.0139242522418499,-0.05274573341012001,0.042622681707143787,0.05983240529894829,-0.009099660441279412,-0.050907883793115619,0.08407057821750641,0.031859274953603747,0.0491388775408268,0.015339585952460766,0.07197859138250351,0.008858752436935902,-0.061035145074129108,0.04987408220767975,0.020521756261587144,0.012095166370272637,-0.041710905730724338,-0.06635626405477524,-0.05553402006626129,-0.026369260624051095,-0.051099520176649097,0.057515330612659457,0.0670783743262291,-0.0031039235182106497,-0.022386139258742334,0.025086691603064538,-0.052646249532699588,0.021872619166970254,0.021846158429980279,0.036369774490594867,0.01416291855275631,-0.03594902902841568,0.019321775063872339,0.022450758144259454,0.06955718994140625,0.012486657127737999,0.03137843310832977,0.022335542365908624,-0.027317220345139505,0.0741196945309639,0.026512525975704194,-0.03340137004852295,-0.010600726120173931,-0.019649602472782136,0.059376176446676257,-0.008325422182679177,0.02770543098449707,-0.0021448913030326368,-0.009913387708365918,0.053342048078775409,0.08517032861709595,0.043507013469934466,-0.0788959413766861,0.08534380048513413,0.04005607217550278,0.05489243194460869,0.07396195828914643,-0.035588499158620837,-0.06694763153791428,0.08631128817796707,0.08255269378423691,0.06309294700622559,-0.07571122795343399,-0.0025910695549100639,0.0467270165681839,-0.06703738123178482,0.07273464649915695,0.010379632003605366,-0.0030783063266426327,0.05434151738882065,-0.08703772723674774,-0.07993345707654953,0.014589873142540455,-0.07257962226867676,-0.08658894896507263,0.017742641270160676,0.08571299910545349,-0.034586045891046527,-0.04500884935259819,-0.006467652972787619,-0.018361741676926614,-0.017790554091334344,-0.08572783321142197,-0.023821525275707246,-0.0451664961874485,0.02703188918530941,0.07283555716276169,-0.003919641952961683,-0.08206639438867569,0.08717835694551468,-0.028755899518728257,-0.08256696909666062,0.03474736586213112,-0.07399432361125946,0.007599205244332552,0.016353415325284005,0.013021385297179222,0.07502125203609467,-0.05488353967666626,-0.08209949731826782,0.005880565382540226,0.07560549676418305,-0.01942056231200695,-0.08008302748203278,-0.0707726702094078,-0.046175986528396609,-0.06788169592618942,0.0606088750064373,0.044267620891332629,0.023625681176781656,0.030014783143997194,-0.06443530321121216,-0.05582708865404129,0.03904065117239952,-0.06337234377861023,0.0011359953787177802,-0.031513508409261706,0.004294267389923334,0.004908601753413677,0.03163266181945801,0.0688478872179985,0.07752398401498795,0.0311281718313694,0.047094110399484637,-0.024730786681175233,0.02857125550508499,0.02171069197356701,-0.016643153503537179,-0.0435301698744297,-0.07129891961812973,-0.029250966385006906,-0.056484632194042209,-0.02904053032398224,0.051128555089235309,-0.0019273384241387249,0.013751114718616009,0.025253234431147577,-0.0683506652712822,-0.0560864694416523,-0.08098896592855454,-0.032477475702762607,0.0507582351565361,0.017920227721333505,-0.05859001725912094,0.029705965891480447,-0.018093207851052285,0.0824868381023407,-0.08299777656793595,-0.07134593278169632,0.02311944030225277,-0.08445587754249573,0.07040321826934815,0.015130721032619477,-0.04396717995405197,0.0221861619502306,-0.0011235761921852828,0.059750113636255267,-0.04263414815068245,-0.058713167905807498,-0.033615224063396457,0.011203138157725335,-0.01089994516223669,0.025467339903116227,-0.02010204829275608,-0.016079679131507875,-0.03750994801521301,-0.07919898629188538,0.0065827881917357449,0.06484232842922211,0.06806318461894989,0.06016813591122627,0.02541176602244377,0.020377179607748987,-0.051298320293426517,0.022443559020757676,0.06664855033159256,0.08638089895248413,-0.007667263969779015,-0.06851330399513245,-0.02386375702917576,-0.03442349284887314,0.01640310138463974,-0.040058113634586337,-0.05499294400215149,0.0778317078948021,0.06441359966993332,0.0635455921292305,-0.037983376532793048,-0.06762920320034027,-0.0516129732131958,-0.0562557652592659,-0.015552273951470852,0.03723446652293205,0.04460703954100609,0.06193595752120018,0.009577484801411629,0.0818130373954773,-0.0021497930865734817,-0.05467293784022331,0.04257219284772873,0.08626303821802139,-0.04523932933807373,0.0003145257942378521,0.0340343602001667,-0.05422493815422058,-0.012411755509674549,-0.01588943786919117,0.07030846178531647,-0.04532561078667641,-0.005432631820440292,0.004319627769291401,0.008244202472269535,0.058961447328329089,0.08292943239212036,0.05783708766102791,-0.04876304790377617,0.07133915275335312,0.013227032497525216,0.028010331094264985,0.08013207465410233,-0.08449089527130127,-0.03610766679048538,-0.008812894113361836,-0.07880638539791107,-0.024586310610175134,-0.07125344127416611,-0.06712459027767182,-0.049223642796278,-0.009525387547910214,-0.054470036178827289,-0.010215994901955128,-0.0705217495560646,-0.013988633640110493,0.04699807986617088,-0.0009937169961631299,-0.042251262813806537,-0.08835364878177643,0.04746732488274574,-0.010401837527751923,-0.023352978751063348,0.06014413386583328,0.04765566438436508,-0.0019324261229485274,-0.05204976350069046,-0.06511582434177399,0.05711309611797333,-0.041411228477954867,0.05154260993003845,0.015222414396703244,-0.045551568269729617,0.036358099430799487,-0.03625761717557907,0.03113977052271366,-0.04960422217845917,-0.035083867609500888,-0.0813525915145874,0.07851031422615051,-0.0816463902592659,-0.03434066101908684,-0.0564756914973259,-0.01702999696135521,-0.08454272896051407,-0.05963495373725891,0.056759294122457507,0.027827447280287744,0.05846340209245682,-0.06449314206838608,0.014973714016377926,-0.0024057182017713787,0.026721559464931489,0.005234792362898588,0.08058913052082062,-0.052796125411987308,-0.06538455933332443,-0.07841512560844422,-0.050464924424886706,-0.025327879935503007,0.040923964232206348,-0.02154332771897316,-0.07040806114673615,-0.03908810764551163,-0.06611049175262451,0.027036530897021295,-0.0849953293800354,-0.03143095597624779,0.07084835320711136,-0.03433743491768837,-0.03889342397451401,-0.08440965414047241,0.0859437808394432,-0.06902152299880982,0.052241284400224689,-0.057180602103471759,-0.06500314176082611,0.025478674098849298,0.08748477697372437,0.07585666328668595,0.04132059961557388,0.044274911284446719,0.05685768276453018,0.06345274299383164,0.0058164275251328949,0.015834713354706765,0.012442437000572682,0.07506464421749115,0.043716222047805789,-0.03301369771361351,-0.03399660438299179,0.05383877828717232,0.008608187548816204,0.06086486950516701,0.04082581773400307,-0.0815536379814148,-0.0138391787186265,0.08832031488418579,-0.01421926636248827,0.06643009185791016,-0.019909052178263665,-0.026834165677428247,-0.03798840567469597,-0.08686769753694534,-0.0738532617688179,-0.08762622624635697,0.04500187560915947,-0.06702149659395218,-0.027606459334492685,0.05677727982401848,0.038033485412597659,0.0010091718286275864,0.02133786864578724,0.08044657856225968,-0.07478920370340347,0.07330383360385895,-0.06296028196811676,0.017247645184397699,0.026769565418362619,0.02499430999159813,0.08630049973726273,0.0042446572333574299,-0.03823936730623245,0.07651978731155396,0.009115918539464474,-0.06203498691320419,0.04786515235900879,-0.028153447434306146,0.08131072670221329,-0.024533910676836969,0.07951454818248749,-0.04406369477510452,-0.048676349222660068,0.050987936556339267,0.04395180568099022,-0.05265263095498085,-0.052082791924476626,-0.08872028440237045,-0.013016526587307454,0.03919462859630585,-0.014935142360627652,-0.0821269080042839,0.01266606617718935,-0.05095270276069641,0.07107202708721161,0.029914457350969316,0.04892807826399803,-0.05372229218482971,0.014595070853829384,-0.06173394247889519,0.05038769915699959,0.036009255796670917,0.03190401569008827,0.07230956107378006,0.04084140807390213,-0.04093164578080177,-0.0017405153485015035,-0.04855816066265106,0.04561329260468483,0.04246914014220238,0.007551208138465881,0.049371980130672458,-0.04671262949705124,0.07587400078773499,0.0045850640162825588,-0.08149758726358414,-0.0027058401610702278,0.0472603403031826,-0.08462078124284744,0.06332438439130783,0.04342876747250557,0.02256070077419281,0.04800433665513992,0.03323892503976822,0.006829083897173405,0.01691569946706295,0.05121205747127533,-0.00989498756825924,0.0241142176091671,-0.0045872884802520279,-0.005175947677344084,0.01171443797647953,-0.00913036335259676,0.0717591866850853,-0.024284925311803819,0.055599916726350787,0.005899268668144941,0.07375472038984299,-0.031124297529459,0.061941321939229968,-0.06789354234933853,0.05550454929471016,-0.03283821791410446,0.06870998442173004,-0.03969094157218933,-0.021466419100761415,0.048808299005031589,0.0379551537334919,-0.05682367831468582,-0.04560849070549011,-0.06136705353856087,-0.058957211673259738,0.08098524063825607,-0.0507921501994133,0.029659006744623185,-0.039811570197343829,0.07437741011381149,-0.048652444034814838,0.000129898646264337,0.08018401265144348,0.06533162295818329,0.02013847604393959,-0.04512522369623184,0.027716752141714097,-0.024492891505360605,0.08353599160909653,-0.028535734862089158,0.06280164420604706,-0.0648341029882431,0.04622041434049606,0.016256295144557954,-0.024885525926947595,-0.010752038098871708,0.007240496575832367,0.03216502070426941,-0.06671693921089173,-0.008784265257418156,-0.04151560366153717,-0.03243006765842438,0.07478263229131699,0.04291006922721863,0.0526450015604496,-0.03846162557601929,0.008599665015935898,-0.08530373126268387,0.07505570352077484,0.01766190677881241,0.051697615534067157,-0.05763130635023117,-0.02604774758219719,0.0033119472209364177,-0.05399760231375694,0.009574631229043007,-0.07300276309251785,0.011236130259931088,-0.06169798970222473,-0.08082788437604904,-0.030862029641866685,0.06522732973098755,-0.04439636319875717,-0.05898607149720192,-0.005430924706161022,-0.0752471536397934,-0.08228445798158646,-0.06752706319093704,-0.05227978155016899,-0.031218014657497407,0.0452624075114727,-0.08547570556402207,-0.03308152034878731,0.07601799070835114,-0.08139899373054505,-0.0617288239300251,-0.016984133049845697,0.06268701702356339,-0.06098626181483269,-0.03154940530657768,-0.07806957513093949,0.07647580653429032,-0.058593977242708209,0.014206288382411003,0.027323730289936067,0.03577745705842972,0.0493750162422657,0.03567686676979065,-0.04257931187748909,0.06347102671861649,0.029861578717827798,0.06464291363954544,-0.039017777889966968,-0.08746969699859619,0.0290133785456419,-0.05421704053878784,-0.03741143271327019,0.056869033724069598,0.010565321892499924,0.0094827301800251,0.0073247142136096958,-0.0003367132740095258,-0.018031714484095575,-0.055192701518535617,-0.08282192051410675,0.015796002000570298,-0.016693158075213434,-0.024621864780783654,-0.04709179326891899,0.019126132130622865,-0.01739450730383396,-0.08599483966827393,-0.06824731826782227,-0.05849480256438255,-0.08141303807497025,-0.0031057517044246198,-0.040506135672330859,-0.015336165204644204,0.06499278545379639,-0.04135860502719879,-0.0722360908985138,-0.034408919513225558,0.05423489212989807,-0.03438481688499451,-0.0007825397769920528,-0.008884183131158352,0.02098926156759262,-0.08831242471933365,0.03338974714279175,0.05340149626135826,-0.0760788768529892,0.00651333574205637,-0.07715851813554764,-0.07906170934438706,-0.0221241507679224,0.041882410645484927,-0.054184768348932269,-0.06966431438922882,0.062408387660980228,0.08407116681337357,0.08588182181119919,0.056199997663497928,-0.08160606771707535,-0.08677934855222702,-0.03702127933502197,0.06764025241136551,-0.04208765923976898,-0.070594921708107,-0.01576974242925644,0.05082370340824127,-0.07691036909818649,-0.07714643329381943,-0.03452591598033905,0.0645202249288559,-0.0147867351770401,0.06103967875242233,0.08469381928443909,-0.060908202081918719,0.03720107302069664,-0.04381173104047775,-0.0676330029964447,0.010278662666678429,-0.06428657472133637,0.018635280430316926,0.01019828300923109,-0.009636297821998597,-0.06748062372207642,0.020816316828131677,0.01286226324737072,0.07591444253921509,-0.06817187368869782,-0.06899674981832504,0.04993903264403343,0.00942241121083498,0.014424572698771954,-0.03126996383070946,-0.054884172976017,0.03333837911486626,0.04455730319023132,-0.051562171429395679,0.06237252429127693,0.056028418242931369,-0.033843401819467548,-0.08075181394815445,-0.04814721643924713,0.027132119983434678,-0.025015726685523988,0.04825554043054581,0.06181498244404793,-0.006360153201967478,0.0312421265989542,-0.07793321460485459,0.029232149943709375,0.027545444667339326,-0.01452257763594389,0.04685003310441971,-0.0839575007557869,0.08445882797241211,0.05278835445642471,-0.0517696887254715,-0.04739337041974068,0.05553210526704788,-0.07558982074260712,0.07005935162305832,-0.08194193243980408,-0.07142813503742218,-0.009429330937564373,-0.04154538735747337,0.04427529498934746,-0.0852133110165596,-0.08500952273607254,-0.005811705254018307,0.03432578593492508,0.06635811924934387,0.04636051505804062,0.08728944510221482,-0.08490053564310074,-0.08253567665815354,-0.07258321344852448,-0.02383045107126236,0.03107452392578125,0.02212664484977722,0.02981361374258995,-0.003074148902669549,0.023003602400422097,0.029484516009688379,0.03226720914244652,-0.04389770328998566,0.07499327510595322,0.05965100973844528,-0.024950040504336358,-0.05769498273730278,0.07183372229337692,-0.051078785210847858,-0.03254516050219536,-0.07059525698423386,0.04878149926662445,0.05827045813202858,-0.08017954230308533,0.04736195504665375,-0.06489226222038269,-0.01692941226065159,0.018789613619446756,-0.07033853977918625,0.07851821184158325,0.06838586926460266,-0.00927323754876852,-0.03821764141321182,-0.07621993124485016,0.035283446311950687,-0.08654884248971939,-0.015837393701076509,0.021050993353128434,-0.084604911506176,-0.0504358634352684,-0.06863737106323242,-0.03893309459090233,0.008981714025139809,-0.0763697549700737,-0.04546109959483147,0.0017819724744185806,-0.056987643241882327,0.03416271507740021,0.05935095623135567,0.02774655818939209,0.017388492822647096,-0.016955530270934106,0.021670108661055566,-0.014281629584729672,0.0177153293043375,0.05462167039513588,-0.06344087421894074,0.07276680320501328,-0.06813640147447586,0.039696093648672107,0.049326762557029727,0.037161022424697879,-0.03947431966662407,-0.02282223105430603,0.04236239567399025,0.05315425246953964,0.04198390617966652,-0.013993693515658379,-0.0031761780846863987,0.08711975067853928,-0.06804513931274414,0.06921888142824173,-0.04514505714178085,-0.0713672935962677,0.017941681668162347,0.018472379073500634,-0.06912603229284287,-0.051971111446619037,-0.03997308015823364,0.06471073627471924,0.013942654244601727,0.0027352324686944486,-0.012372965924441815,-0.036494337022304538,0.05602588877081871,-0.0795782133936882,0.07003434002399445,0.031117156147956849,-0.05653303489089012,0.047842975705862048,0.03380770981311798,0.07994943857192993,0.0464613176882267,0.0517754890024662,-0.036672625690698627,0.043336477130651477,-0.020487677305936815,-0.008432713337242604,-0.07410785555839539,-0.026214944198727609,-0.03578627109527588,-0.027779359370470048,0.05579958111047745,-0.06487572193145752,-0.053234219551086429,0.07333464920520783,0.020375791937112809,0.02682938426733017,0.025011632591485978,0.05754648149013519,0.023111050948500634,0.06881897896528244,-0.061635877937078479,-0.012005926109850407,0.07845044136047363,0.010193615220487118,0.021331893280148507,-0.04979947581887245,0.009403600357472897,-0.07334475964307785,-0.05434907227754593,0.080037422478199,-0.0397963747382164,0.05207272619009018,-0.07776127755641937,-0.06529717147350311,-0.08366880565881729,0.025554059073328973,-0.032785043120384219,0.0811658650636673,0.028747491538524629,0.03484673425555229,0.03517504408955574,0.07925019413232804,-0.07473887503147125,-0.0253670122474432,-0.036329105496406558,-0.06331055611371994,-0.0827832743525505,0.07571743428707123,0.03434416651725769,0.038304269313812259,0.0820801705121994,-0.004575296770781279,-0.06087850034236908,0.04737996682524681,-0.056706082075834277,-0.08043038845062256,-0.0056693716906011108,0.08584348112344742,-0.07247748225927353,-0.06163882091641426,0.06550993025302887,-0.08110372722148895,-0.0494617223739624,-0.0118341613560915,-0.05995958670973778,-0.010577752254903317,-0.028514767065644265,0.002105714287608862,-0.008890456520020962,0.0874500572681427,0.07535066455602646,0.07236779481172562,-0.006292414385825396,0.0833507776260376,-0.03931639716029167,0.019848426803946496,-0.060670945793390277,0.07119970768690109,0.06806546449661255,-0.008241764269769192,-0.08754321932792664,0.03400484472513199,0.0818127915263176,0.008628013543784619,0.06726586818695069,0.015725385397672654,0.03693872690200806,0.0380762554705143,-0.02804209291934967,-0.06283725798130036,0.02586355060338974,-0.02447792887687683,-0.07720454037189484,0.02150369994342327,0.08749006688594818,0.054338645190000537,0.06106901168823242,0.004328563343733549,0.044543392956256869,-0.06471068412065506,0.0785670354962349,0.08591458201408386,-0.054503995925188068,0.009017538279294968,0.04321790859103203,0.07596521079540253,-0.07432530075311661,0.06373799592256546,0.042094264179468158,-0.002531113103032112,-0.016431260854005815,0.07333019375801087,-0.07611645013093949,-0.03625756874680519,-0.006412670481950045,-0.03555578738451004,-0.019294798374176027,0.06395745277404785,0.03760100528597832,-0.01640992984175682,-0.05758126825094223,0.047914229333400729,-0.001207906985655427,0.015892278403043748,-0.04770108684897423,-0.08237632364034653,-0.05220279470086098,0.04432317614555359,-0.03864529728889465,-0.023733112961053849,0.07436435669660568,-0.02492113970220089,-0.011763195507228375,-0.08291883021593094,-0.06860226392745972,-0.015224436298012734,0.05332987755537033,0.028975656256079675,-0.006778921466320753,-0.08003603667020798,-0.08863499015569687,-0.05067071691155434,-0.04048662632703781,-0.08014769107103348,-0.03687339648604393,-0.06947061419487,0.0573786199092865,-0.005322715733200312,0.07045058161020279,0.023278970271348954,-0.023440733551979066,-0.044774629175662997,