{"LearningRate":0.004999999888241291,"hiddenAType":1,"outputAType":4,"layersSize":[9,32,32,2],"Layers":[{"InputSize":9,"NodeSize":32,"Weights":[0.3256448209285736,0.06784739345312119,-0.8376317024230957,-0.6598489284515381,0.1400175392627716,0.09165580570697785,0.336866170167923,0.18677903711795808,0.06972213089466095,-0.024229925125837327,0.015945469960570337,-0.0012332426849752665,-0.24966929852962495,-0.25069746375083926,-0.046012770384550098,0.13698171079158784,0.24223925173282624,-0.06124027445912361,-0.14667214453220368,0.0031167855486273767,0.007193051744252443,-0.20092065632343293,0.0976673886179924,-0.1747255027294159,0.05894613638520241,-0.13802456855773927,-0.07315996289253235,0.043721754103899,-0.12455499917268753,0.06366584450006485,-0.004575558006763458,-0.14866705238819123,-0.14616504311561585,-0.1464192122220993,-0.013960576616227627,0.15754278004169465,-0.1311536580324173,-0.05871717631816864,-0.11017084866762161,0.09748027473688126,-0.03910123184323311,-0.014862090349197388,0.026140565052628518,0.0038847799878567459,-0.0028057165909558536,-0.039949681609869,-0.027978966012597085,-0.07827208936214447,0.05309470370411873,-0.06258688867092133,0.021846847608685495,0.012514462694525719,-0.06451116502285004,0.007522758562117815,-0.1823236346244812,-0.27933305501937868,-0.24835504591464997,-0.42986422777175906,-0.20974208414554597,-0.22903306782245637,0.25849708914756777,0.23774483799934388,0.09660423547029495,-0.05533836781978607,0.01983160339295864,-0.13814225792884828,-0.11887214332818985,0.07247401028871536,-0.162668839097023,-0.06607124209403992,0.027068115770816804,0.19651490449905396,0.035239193588495257,-0.009520091116428376,-0.0899934247136116,-0.021578270941972734,0.008381557650864125,-0.1102520227432251,0.02089693956077099,0.010594045743346215,0.013928239233791829,-0.13765819370746613,-0.07075361907482147,-0.15121595561504365,-0.1304098665714264,0.10742227733135224,0.11313558369874954,-0.1894996613264084,-0.10506748408079148,0.07976467162370682,-0.23535479605197907,-0.09619893878698349,-0.07628732174634934,0.05719001218676567,-0.02673962712287903,0.018100500106811525,0.027849465608596803,-0.13830134272575379,0.04854981601238251,-0.08262743055820465,-0.28300559520721438,-0.09913714975118637,-0.1419377475976944,-0.2330470085144043,-0.01263613160699606,0.23366248607635499,-0.13329438865184785,-0.14879460632801057,0.4519582688808441,0.3794418275356293,0.2971388101577759,0.510384202003479,-0.41052210330963137,-0.4575637876987457,0.12574030458927155,0.07062198221683502,-0.0420556403696537,-0.03469567745923996,-0.1885192096233368,0.1040523424744606,0.00934548769146204,0.017364652827382089,-0.034415390342473987,-0.03305104374885559,-0.09553602337837219,0.0468505322933197,-0.1022057831287384,0.12687833607196809,-0.16435588896274568,-0.1122647076845169,-0.021924812346696855,-0.07748714089393616,-0.1635206788778305,-0.060784418135881427,0.0341411828994751,0.8779280185699463,0.8698512315750122,-2.0106804370880129,-1.5021547079086304,-0.11747892946004868,-0.037464987486600879,-0.013390742242336274,0.12991976737976075,0.4467521607875824,-0.5709932446479797,-0.4917597472667694,0.30001112818717959,0.1448405534029007,-0.41837403178215029,0.03356042504310608,0.08608604967594147,0.004866624716669321,-0.13413235545158387,0.04855814576148987,-0.1217055395245552,-0.2110229730606079,0.06708405166864395,-0.027931103482842447,0.008205482736229897,-0.2083413451910019,-0.13736118376255036,-0.14266201853752137,-0.19086496531963349,0.13401131331920625,-0.6047150492668152,-0.31929025053977969,-0.11695647984743118,-0.024831758812069894,0.1504145711660385,-0.16991637647151948,0.4319809377193451,0.2510152757167816,0.21043895184993745,-0.5692276358604431,-0.6395891308784485,0.29175060987472536,0.23635759949684144,-0.9905054569244385,-0.9896689057350159,0.4757837653160095,0.006072738207876682,-0.020677559077739717,-0.920074999332428,-0.5293722152709961,0.01943855732679367,-0.007448319811373949,-0.0855707973241806,0.024307725951075555,0.5857093930244446,-0.09156663715839386,-0.14038541913032533,-0.12316825240850449,-0.11340756714344025,0.08327899128198624,0.015579869039356709,-0.04645024985074997,0.04817347228527069,0.020637134090065957,-0.16159918904304505,-0.1252393126487732,-0.04756911098957062,-0.05650530382990837,-0.0812070220708847,-0.07855871319770813,-0.1778755486011505,0.11859852820634842,-0.0008245942881330848,-0.21317550539970399,-0.3230265974998474,-0.02925250120460987,0.12067163735628128,-0.2274215817451477,-0.4457229673862457,0.01140599325299263,0.10208955407142639,-0.23496262729167939,-0.5724163055419922,-0.34361037611961367,0.09649527817964554,0.26568689942359927,0.25171518325805666,0.2833167016506195,0.03941616415977478,-0.16957172751426698,-0.05138970911502838,0.004567173775285482,-0.16968385875225068,0.0027670247945934536,-0.01175917498767376,-0.20765087008476258,-0.17692820727825166,0.06525498628616333,-0.09665174782276154,-0.03418097645044327,-0.03609190881252289,-0.12234728038311005,0.05665558576583862,0.06460956484079361,-0.11851989477872849,-0.15392111241817475,-0.09735107421875,-0.009491462260484696,0.12676456570625306,-0.48469898104667666,-0.2948603630065918,0.42771169543266299,0.12793223559856416,-0.06658279895782471,-0.281856894493103,0.08897718042135239,-0.08869042992591858,0.02254924178123474,-0.16159172356128694,-0.3414536416530609,0.053027328103780749,-0.3704788088798523,-0.19858340919017793,0.19586528837680818,0.31442955136299136,0.09610739350318909,-0.03507992625236511,-0.21503470838069917,-0.37082362174987795,-0.10032593458890915,0.04962775483727455,-0.10985158383846283,-0.11590281128883362,0.15265174210071565,-0.13062532246112824,-0.2500970959663391,-0.06492447853088379,0.2731921076774597,-0.27766621112823489,-0.12789008021354676,0.018993154168128969,-0.05500554293394089,0.012376758269965649,-0.28766298294067385,0.08804820477962494,-0.6328192949295044,-0.7474175095558167,1.1247397661209107,0.7360650300979614,-0.03018922172486782,-0.1154799610376358,0.1257467120885849,0.07857311517000199,-0.042702872306108478],"Biases":[0.2401747703552246,-0.13969768583774568,-0.009006082080304623,0.051704101264476779,-0.060344498604536059,-0.01778068207204342,-0.10488003492355347,0.011839988641440869,-0.03635062277317047,0.009770005941390992,-0.039836231619119647,0.08355607092380524,-0.09700945764780045,-0.02985275164246559,0.0007425043149851263,-0.5673158168792725,0.041198909282684329,0.02389024943113327,-0.15023767948150636,-0.5131804943084717,-0.005232852417975664,-0.0488450862467289,-0.021250372752547265,0.09374979138374329,0.3761138319969177,-0.003153240540996194,0.010144969448447228,0.3572818338871002,0.012175085954368115,0.04627653956413269,-0.02586173079907894,0.41661328077316286],"_Inputs":[2.868067741394043,3.3619253635406496,2.7745532989501955,3.2554352283477785,2.3350830078125,2.3350830078125,1.2159423828125,1.2159423828125,0.46269986033439639],"_Outputs":[-1.8599474430084229,-1.23186194896698,-1.3632732629776,-0.8904696106910706,-0.7130293846130371,-0.4256249666213989,-4.031833648681641,-1.0175694227218629,-0.4803600013256073,-1.2732603549957276,-1.1957648992538453,-2.3624978065490724,3.153528928756714,-0.6185130476951599,-1.176410436630249,-5.607285499572754,-2.79583477973938,-1.1455352306365967,-3.1192688941955568,-3.701720714569092,-4.108943462371826,-1.2518718242645264,-1.6672269105911255,-2.834529399871826,-0.22084102034568788,-1.543145775794983,-0.8445988297462463,-1.223844051361084,-2.1815595626831056,-2.5500237941741945,-0.8584377765655518,1.4923778772354127],"forwardCS":{"instanceID":24634}},{"InputSize":32,"NodeSize":32,"Weights":[0.027431264519691469,0.04881846532225609,0.08788112550973892,-0.1786307692527771,0.021806156262755395,-0.09358926117420197,0.056227799504995349,-0.07777979969978333,-0.031035147607326509,-0.12233705818653107,-0.05628291144967079,0.0780455693602562,-0.12319272756576538,-0.13175368309020997,-0.044133760035037997,-0.01494764443486929,-0.05923868715763092,-0.09913979470729828,0.04966957867145538,-0.12450063228607178,0.13650131225585938,0.07273770868778229,-0.16916559636592866,0.039192475378513339,-0.12497883290052414,-0.10904213786125183,-0.13000483810901643,0.20260678231716157,0.10237259417772293,0.11476129293441773,-0.11986441165208817,-0.23745985329151154,0.16893935203552247,0.02778089977800846,0.16175079345703126,-0.09025989472866059,-0.05307934060692787,0.12573832273483277,0.0027670369017869236,0.014001884497702122,0.07706810534000397,0.14651964604854585,-0.03084840625524521,-0.009661481715738774,-0.08575558662414551,-0.10459312796592713,-0.05049663037061691,0.05581316724419594,0.20949770510196687,-0.0001971770980162546,0.021026991307735444,0.34214943647384646,-0.10002020001411438,-0.1683570146560669,0.023115331307053567,0.14943335950374604,-0.08143626153469086,0.0011589337373152376,-0.13656999170780183,0.09891121089458466,-0.06809742748737335,-0.02695271372795105,0.17090310156345368,-0.11071614176034928,-0.021086949855089189,-0.15785576403141023,-0.1593942791223526,-0.04543657600879669,0.1284346878528595,0.0011309657711535693,0.07496426999568939,0.13751862943172456,0.10823284089565277,-0.10248363763093949,-0.040753792971372607,-0.08716996759176254,0.1736844778060913,0.11804819852113724,-0.15883661806583405,0.10133092105388642,-0.10508867353200913,0.05780776962637901,0.17858237028121949,0.021075692027807237,0.15586481988430024,-0.05882222205400467,0.07798592746257782,-0.05012794956564903,0.05566985905170441,-0.13392823934555055,-0.06097038462758064,-0.16348543763160706,-0.04350139945745468,0.13650402426719666,0.0064781708642840389,-0.35757532715797427,0.07023876160383225,-0.024984996765851976,0.03946617990732193,-0.07298528403043747,-0.059433553367853168,-0.09771988540887833,-0.11725378781557083,-0.12063472718000412,0.12543030083179475,-0.14135047793388368,-0.0519556999206543,-0.15358319878578187,-0.0201069638133049,-0.056661687791347507,-0.11598794907331467,-0.04561389237642288,0.10796608775854111,-0.10684510320425034,-0.15411660075187684,-0.008412759751081467,-0.07779797911643982,-0.019204149022698404,-0.0015057064592838288,-0.0011274353601038457,0.08418577164411545,0.1278584748506546,-0.007073482498526573,-0.16289553046226502,-0.05617643892765045,0.007128667086362839,0.03664933890104294,-0.1674385368824005,-0.0011769102420657874,0.09373418241739273,0.12149961292743683,-0.0932842567563057,-0.0767388790845871,-0.14630073308944703,-0.051273196935653689,0.04124021902680397,0.12436561286449433,0.09667788445949555,0.15199141204357148,-0.08255284279584885,-0.11804118752479553,-0.04058026894927025,-0.09543376415967941,0.5246334671974182,0.029003892093896867,0.16994255781173707,0.32266950607299807,-0.11142721772193909,0.5269346237182617,-0.1056329682469368,0.05408816784620285,-0.11837877333164215,-0.1989176869392395,0.10932274907827378,-0.05596638098359108,-0.18356122076511384,-0.29559221863746645,0.015871910378336908,0.12078382074832916,-0.3562566637992859,0.35270822048187258,-0.11845811456441879,-0.1452355533838272,0.04312518984079361,-0.11179956048727036,-0.14867383241653443,-0.06876005232334137,0.10233340412378311,0.07819222658872605,0.09561096131801605,-0.010494551621377468,-0.030057508498430253,-0.19479447603225709,0.08036945015192032,-0.10588278621435166,0.47118815779685976,-0.139225035905838,-0.07736527919769287,0.007364698685705662,0.333933562040329,0.08367841690778732,0.15426120162010194,-0.11989457160234451,0.0858054906129837,-0.2158069908618927,0.16796894371509553,-0.143161803483963,-0.20187367498874665,-0.18393082916736604,-0.10750019550323487,0.14696164429187776,-0.39392733573913576,0.07454965263605118,-0.08572907000780106,-0.03993668407201767,-0.05257187783718109,-0.12200582772493363,-0.08848929405212403,0.023407474160194398,0.0012731205206364394,-0.1321672946214676,-0.07556944340467453,0.02061861753463745,-0.2124304324388504,-0.14989827573299409,-0.08657079935073853,0.13856562972068788,0.46087929606437685,-0.09154874086380005,0.13336552679538728,-0.08327732235193253,0.33477556705474856,0.01128439698368311,0.13253745436668397,0.00020572393259499222,0.1163795068860054,-0.25636982917785647,-0.03569120913743973,0.0012691987212747336,-0.15828873217105866,-0.016321687027812005,0.0932498425245285,0.1009199395775795,-0.44071096181869509,0.004476791247725487,-0.028283827006816865,0.17289073765277863,-0.08493184298276901,-0.15322262048721314,-0.12270352989435196,-0.049075186252593997,0.02658158726990223,0.043539728969335559,0.003653278574347496,-0.016618065536022188,-0.11926880478858948,0.07513611763715744,0.1366596221923828,0.08580808341503144,-0.03349706903100014,0.016512274742126466,0.11984628438949585,-0.040792062878608707,-0.04889478534460068,0.04309820383787155,0.1493455320596695,-0.07112101465463638,-0.05064743384718895,-0.05837642028927803,-0.14677448570728303,-0.14454825222492219,-0.002978741191327572,0.059268686920404437,0.1302049160003662,-0.034269534051418307,-0.1654958724975586,-0.06349624693393707,0.01661265827715397,0.01970306783914566,0.1565723419189453,0.08302067965269089,0.0042802984826266769,-0.06522969901561737,0.03162844106554985,-0.025467650964856149,0.13931135833263398,-0.10653399676084519,0.136260986328125,-0.1313842535018921,-0.07020648568868637,-0.1680740863084793,0.12648999691009522,0.1876431256532669,-0.033374615013599399,-0.016866212710738183,-0.07230816036462784,0.011476345360279084,0.0329027883708477,0.04467415437102318,0.07992412149906159,-0.045304231345653537,-0.13766023516654969,0.1636326164007187,0.12516382336616517,0.07143230736255646,-0.044281840324401858,-0.163713276386261,0.003371497616171837,-0.11674951016902924,-0.08729284256696701,-0.08077225089073181,-0.060663219541311267,0.08962511271238327,0.07876276969909668,0.13795727491378785,0.10218091309070587,0.13315418362617494,-0.11191508173942566,-0.013806276023387909,-0.0810803696513176,-0.2623962461948395,-0.05806826800107956,0.13805212080478669,0.2329675555229187,0.34402036666870119,0.1899900883436203,-0.045485783368349078,-0.23520974814891816,-0.1538366675376892,0.041314586997032168,0.015600377693772316,0.08240997791290283,0.1524677276611328,-0.05973236635327339,-0.16684292256832124,0.17686177790164948,-0.05142061412334442,0.1406143605709076,0.051156409084796908,0.029593434184789659,0.02278686873614788,-0.06636089831590653,0.11241181939840317,-0.13729725778102876,-0.08802571147680283,0.14124108850955964,-0.07874487340450287,0.04356607794761658,-0.0334354043006897,-0.0975017100572586,0.10271122306585312,-0.061463840305805209,0.16453644633293153,-0.0012505475897341967,0.11451757699251175,-0.025470953434705735,-0.15421323478221894,-0.02148696966469288,-0.14467206597328187,0.04800181835889816,-0.0732947289943695,-0.050795506685972217,0.01455214899033308,-0.0689498707652092,-0.10746508091688156,0.045339688658714297,-0.08329523354768753,0.02835608460009098,0.09165195375680924,0.024817707017064096,-0.031973015516996387,-0.027800967916846277,-0.11783099174499512,-0.0915054976940155,-0.09397958964109421,-0.029040614143013955,0.1137758195400238,0.16893237829208375,0.011799213476479054,0.15496790409088136,0.05958668887615204,0.09043554961681366,-0.13195975124835969,0.12342657148838043,-0.09740911424160004,0.15539786219596864,-0.14668303728103639,0.05186142399907112,0.030950039625167848,-0.017834791913628579,-0.0036579901352524759,-0.06398312002420426,-0.14321346580982209,-0.03784249350428581,0.13103826344013215,-0.14808468520641328,-0.0972602367401123,-0.059974394738674167,0.09714799374341965,-0.06582856923341751,0.06679844856262207,0.04947168380022049,0.13223566114902497,-0.008137671276926995,0.038381319493055347,-0.13224463164806367,-0.004880709107965231,0.04469853639602661,-0.17596322298049928,0.016721684485673906,-0.03698458895087242,0.07189711928367615,0.15516363084316255,0.05527100712060928,0.04766441136598587,-0.033931031823158267,-0.04570692405104637,-0.11534266918897629,-0.04028164595365524,-0.19913239777088166,0.051813554018735889,0.07638136297464371,-0.047637034207582477,-0.1149478629231453,-0.11095675081014633,-0.11683226376771927,0.15439988672733308,-0.08950230479240418,-0.07389950007200241,-0.0795772597193718,0.1350919008255005,0.07861991226673126,0.08168511837720871,0.02769598551094532,0.17983081936836244,-0.11942624300718308,-0.0011154974345117808,-0.03206483647227287,-0.006985897663980722,-0.04367196932435036,-0.10393630713224411,0.0548572801053524,0.0322774238884449,-0.04706764966249466,-0.062168657779693606,0.16750414669513703,-0.1655784398317337,0.047100793570280078,-0.14433960616588593,0.18717555701732636,0.013371125794947148,-0.06312570720911026,-0.05154980346560478,0.0913277417421341,0.13232064247131349,-0.0258711539208889,-0.1341550350189209,0.04932190850377083,0.16938452422618867,0.04984360188245773,0.14213280379772187,-0.13735292851924897,-0.1311032474040985,0.08743410557508469,0.11485268920660019,-0.09519080817699433,-0.0644206628203392,-0.18669871985912324,0.014760042540729046,-0.19943538308143617,-0.1411340981721878,0.13539206981658936,0.1152309775352478,0.04005107656121254,-0.13356253504753114,0.01807212270796299,0.0743134543299675,-0.0868983268737793,0.12711918354034425,0.0360775887966156,-0.13219723105430604,0.0876493975520134,0.11370696127414704,0.08591136336326599,-0.12890280783176423,-0.10257324576377869,-0.12583191692829133,0.007856096141040326,-0.09534890949726105,0.04316391050815582,-0.16790343821048737,-0.0003717319341376424,0.12086895108222962,-0.12124820053577423,-0.07991211861371994,-0.22171235084533692,0.0926937535405159,0.019707301631569864,0.12449824064970017,-0.18237313628196717,-0.2817602753639221,-0.015404044650495053,-0.1326887607574463,-0.15272223949432374,-0.08242429047822952,0.1464136391878128,-0.14920033514499665,0.13713321089744569,-0.05847276374697685,-0.12161286920309067,-0.04713539779186249,-0.1574728935956955,-0.04282298684120178,0.020697424188256265,0.05058533325791359,-0.051686909049749377,-0.16281187534332276,0.041238781064748767,-0.12697654962539674,-0.2256791740655899,0.057477399706840518,-0.07820659875869751,0.1339133232831955,0.0009656784241087735,-0.06233195215463638,0.14283166825771333,-0.09578503668308258,0.03149670735001564,0.03407638892531395,-0.04995255917310715,-0.06256497651338577,-0.1195724755525589,-0.16335561871528626,-0.10144729167222977,0.10938812047243118,-0.1663639098405838,-0.14562781155109406,0.021729901432991029,0.12476183474063873,-0.0269050020724535,0.04162939637899399,-0.046256836503744128,-0.08340780436992645,0.238088458776474,-0.283876895904541,-0.07686039805412293,-0.16316217184066773,-0.13960716128349305,0.09672767668962479,0.1412154883146286,-0.12124740332365036,-0.17235206067562104,-0.08115977793931961,-0.00849850196391344,0.06172562390565872,0.11287596821784973,0.24007506668567658,0.08213900029659271,0.02555810660123825,0.2735835611820221,0.03644673153758049,-0.04410306364297867,-0.10229320824146271,-0.2002895474433899,0.11838322132825852,0.051428403705358508,0.051333509385585788,-0.16090470552444459,-0.08367662131786347,-0.1193680465221405,0.07416246086359024,0.01085302047431469,-0.05159017816185951,0.07336710393428803,0.05590098351240158,-0.10124871134757996,-0.0621984526515007,-0.06973697990179062,-0.11633487045764923,0.09601152688264847,-0.04137716069817543,0.09516184031963349,0.039043352007865909,0.0903727263212204,0.0663364827632904,0.014279807917773724,-0.11456271260976792,0.12928567826747895,-0.20911288261413575,-0.17546488344669343,-0.06940045207738877,-0.1305723637342453,0.08409079164266586,-0.2115449756383896,0.12084665149450302,-0.10821161419153214,-0.05490774288773537,0.18563909828662873,0.04485480114817619,-0.15047228336334229,-0.1429075002670288,0.10701899230480194,-0.08424761891365051,0.10475367307662964,0.11164973676204682,-0.02214358188211918,0.02708575129508972,-0.01859557256102562,-0.12346761673688889,-0.017114996910095216,-0.13911360502243043,0.07903294265270233,0.22213691473007203,0.14220742881298066,0.18717314302921296,-0.024534452706575395,0.1409894824028015,-0.1443648338317871,0.011849619448184967,-0.027736766263842584,-0.10539813339710236,-0.09461643546819687,0.009592174552381039,0.09043833613395691,0.011832893826067448,0.1148872971534729,0.08723717927932739,-0.15830665826797486,0.02482542209327221,0.034974996000528339,0.0010844701901078225,0.019246215000748636,0.14576081931591035,-0.1413167268037796,-0.09192716330289841,0.053355421870946887,-0.14128190279006959,0.02270573191344738,-0.08250783383846283,-0.01801324635744095,-0.14498412609100343,-0.0874500721693039,-0.14977295696735383,-0.23235581815242768,-0.14058251678943635,-0.05979705974459648,-0.1381576806306839,-0.04996742308139801,0.061732057482004169,0.04960482940077782,0.10783756524324417,-0.1567063331604004,-0.04564090073108673,-0.10544843226671219,-0.07472705096006394,-0.09143087267875672,-0.0984940379858017,-0.02027464471757412,-0.05648594722151756,-0.17399677634239198,0.06952803581953049,-0.025061337277293206,0.09788806736469269,-0.008689871989190579,-0.1333242505788803,0.16751429438591004,0.06657832115888596,-0.14115312695503236,-0.09669806808233261,0.0687410831451416,-0.041339486837387088,0.04614850506186485,-0.14619359374046327,-0.1825956255197525,0.0266036968678236,0.01900741644203663,0.014336703345179558,0.09841758012771607,-0.1165676936507225,-0.09721077978610993,-0.1415749192237854,-0.002208719030022621,-0.09276648610830307,-0.024274908006191255,0.03874459117650986,0.09631187468767166,0.027193136513233186,-0.0826355442404747,-0.06068187952041626,-0.021929342299699785,-0.07012424618005753,-0.17433501780033112,0.11969880014657974,0.06496573239564896,-0.1584688276052475,0.05925633758306503,0.10502701997756958,-0.15626323223114015,0.16752547025680543,-0.07729019969701767,-0.034738101065158847,0.039448224008083346,0.06145180016756058,-0.08906154334545136,-0.06702325493097305,0.13111640512943269,0.033930666744709018,-0.1179051473736763,-0.16501542925834657,-0.14690226316452027,-0.16160470247268678,0.3148898184299469,-0.0005804547690786421,-0.022750265896320344,0.009210587479174137,-0.081413134932518,-0.029954936355352403,0.029835334047675134,-0.12803791463375092,-0.13899005949497224,-0.07353638112545014,-0.036184024065732959,0.012186452746391297,-0.07584303617477417,-0.09810193628072739,-0.05891624093055725,0.016998380422592164,-0.0843585729598999,-0.14200584590435029,-0.07837526500225067,0.08344278484582901,0.11708603799343109,0.019957564771175386,0.17802590131759644,-0.05720851197838783,0.14130792021751405,0.047103144228458408,0.06050748750567436,-0.04554933309555054,-0.04596700891852379,-0.002266631694510579,-0.09754280000925064,-0.1341540366411209,-0.059988949447870257,-0.14523127675056458,0.08975780010223389,-0.059034742414951327,-0.034804150462150577,0.031064331531524659,0.12819626927375794,0.12262122333049774,0.11749473959207535,-0.061133917421102527,0.11866691708564758,0.17364850640296937,-0.12170057743787766,0.43679967522621157,0.005796551238745451,-0.05690435320138931,-0.06280636042356491,-0.1020163893699646,-0.08303893357515335,0.23168571293354035,-0.009131082333624363,-0.13553562760353089,-0.10782847553491593,0.015271870419383049,-0.0010255507659167052,-0.49117138981819155,-0.1776142418384552,0.02283351495862007,0.5509653687477112,-0.07228647917509079,0.16193462908267976,0.18912048637866975,0.6587131023406982,0.21002008020877839,-0.023534081876277925,0.10346044600009918,0.022863296791911126,-0.019183484837412835,0.05063479393720627,-0.09311547875404358,-0.12034755200147629,-0.06070535257458687,0.13137255609035493,0.01187832560390234,0.1557818502187729,0.010460113175213337,-0.08456720411777497,-0.1650334894657135,0.21119360625743867,-0.037345949560403827,-0.0474720261991024,-0.011704662814736367,-0.005762532353401184,-0.1684751659631729,-0.1075621247291565,-0.11989980190992356,0.040995556861162189,-0.10413466393947602,-0.07989925891160965,0.15408779680728913,-0.26552367210388186,-0.0207756869494915,0.10501011461019516,0.0067915101535618309,-0.21357806026935578,-0.1851261556148529,-0.035161759704351428,0.10359673202037811,-0.10511128604412079,-0.05293414369225502,0.13587942719459535,-0.14784853160381318,-0.11624576896429062,0.016934100538492204,-0.17277678847312928,-0.0005731494748033583,-0.1659737527370453,-0.07894689589738846,0.05466464161872864,-0.013825451023876667,0.15100128948688508,0.040315091609954837,0.07760491967201233,-0.10890821367502213,0.04877772927284241,-0.1755630224943161,-0.029462717473506929,-0.08999485522508621,0.10948547720909119,-0.06817077845335007,-0.01887669786810875,0.01714947633445263,-0.11943472921848297,0.13563700020313264,0.03646281361579895,0.1122065931558609,-0.00586338946595788,-0.11065548658370972,-0.08675143122673035,-0.04053644835948944,0.09886761009693146,-0.07951042056083679,0.1431702971458435,0.06221626698970795,-0.15353575348854066,-0.15500111877918244,-0.06857775151729584,-0.0725729763507843,-0.05569300800561905,-0.15629138052463532,0.01501880120486021,0.12790672481060029,-0.04367329552769661,0.07892133295536041,0.11146014928817749,0.11756740510463715,-0.09886961430311203,0.09708250313997269,-0.05125119164586067,0.04214833304286003,-0.1551569551229477,-0.07711634784936905,-0.15759284794330598,0.16090156137943269,-0.14588662981987,0.1471695750951767,0.13711132109165193,0.06970683485269547,0.026810986921191217,0.0635693371295929,-0.1718221753835678,0.10449408739805222,0.09924139827489853,0.004754019435495138,-0.11856716126203537,0.13062860071659089,-0.10573337227106095,-0.08734247833490372,0.02899024821817875,0.09994953870773316,-0.17348253726959229,-0.11880926042795181,-0.043761737644672397,0.019829927012324334,-0.12338066101074219,0.09764625132083893,-0.16599591076374055,-0.15184587240219117,-0.11747080832719803,0.15205225348472596,0.04986760765314102,-0.0973944216966629,-0.040794700384140018,0.007276604883372784,0.1509821116924286,-0.03316138684749603,-0.03127914294600487,0.07002841681241989,-0.16893038153648377,0.14622732996940614,-0.015922311693429948,-0.051452960819005969,-0.06975945830345154,0.15570975840091706,0.12409111112356186,-0.042246077209711078,-0.17466603219509126,0.0729108601808548,0.00920170545578003,0.10063570737838745,-0.03448597341775894,-0.03136757016181946,-0.23804141581058503,0.18111485242843629,0.003626969177275896,0.08530150353908539,0.0646631121635437,-0.16235820949077607,0.1648239940404892,0.06314351409673691,0.009609703905880452,0.001276790862902999,-0.10619412362575531,0.09186995029449463,-0.22797951102256776,-0.03271764889359474,-0.19074074923992158,-0.019797097891569139,0.5222950577735901,0.23355236649513246,-0.1594531387090683,0.3225729465484619,-0.0767216607928276,0.19080720841884614,-0.16472850739955903,-0.05691136419773102,0.0482974573969841,-0.44436827301979067,-0.13103491067886353,-0.05891285091638565,-0.07210284471511841,-0.11171026527881623,-0.10967770218849182,-0.00975951086729765,-0.44833898544311526,-0.06259358674287796,-0.1529095321893692,-0.13371782004833222,-0.017208244651556016,0.01459442637860775,-0.12917400896549226,0.16632524132728578,0.0440465472638607,0.043810125440359119,-0.1262342631816864,-0.02090371772646904,-0.060253631323575976,-0.1822204440832138,-0.0829671174287796,0.16994881629943849,-0.007813159376382828,-0.14534728229045869,0.10326690971851349,0.13717804849147798,-0.06716907024383545,-0.10198860615491867,0.11289063841104508,-0.047183558344841,-0.13712596893310548,0.0031081601046025755,0.12244269996881485,-0.06495140492916107,0.09282045811414719,-0.08010228723287583,0.007723730988800526,0.16114559769630433,-0.12798461318016053,-0.2787356376647949,0.2169588953256607,0.0845523476600647,-0.07337972521781922,-0.0634063258767128,0.0464298240840435,-0.058828286826610568,-0.1053134873509407,0.020593497902154924,-0.13936765491962434,-0.06322723627090454,0.01828034222126007,-0.2498975247144699,0.030319904908537866,0.10128168761730194,-0.0972830206155777,0.44910675287246706,-0.07971859723329544,-0.22427313029766084,0.22315995395183564,-0.18047496676445008,0.05917627736926079,-0.15832819044589997,0.38758355379104617,0.04557463526725769,0.1914479285478592,0.12905728816986085,0.20770607888698579,0.09487064927816391,0.3227510154247284,0.11322839558124542,0.2874039113521576,0.13690796494483949,-0.0034378687851130964,-0.011837402358651162,-0.006743854843080044,0.10362402349710465,-0.13782505691051484,-0.1270708292722702,-0.12442807108163834,-0.10947823524475098,0.024746693670749666,0.17515546083450318,-0.05863630026578903,-0.17416274547576905,-0.02635735459625721,0.04896217957139015,0.12019488960504532,-0.049568623304367068,-0.06255855411291123,0.0012776408111676574,0.399915874004364,-0.12068168073892594,0.09955697506666184,0.03648211807012558,-0.1754866987466812,-0.022454550489783288,0.024351926520466806,0.040267277508974078,-0.14031949639320374,-0.07182351499795914,-0.1244828999042511,0.020458539947867395,-0.009497709572315216],"Biases":[-0.010077946819365025,-0.029742641374468805,0.0014643140602856875,-0.07437554001808167,-0.16993914544582368,0.034000955522060397,-0.043998561799526218,-0.05847490206360817,-0.03193117305636406,0.05490347370505333,-0.07547217607498169,-0.07772011309862137,0.1655472218990326,0.1111985594034195,-0.1735290139913559,0.1367989182472229,-0.027706630527973176,-0.24588115513324738,-0.030982188880443574,0.0953776016831398,-0.06702376902103424,-0.005906356032937765,0.14869637787342072,0.5786051154136658,0.24909435212612153,-0.0738762766122818,-0.06712877005338669,-0.11942782253026962,0.05254951864480972,-0.04061197116971016,0.11508497595787049,-0.028920268639922143],"_Inputs":[-0.01859947480261326,-0.012318619526922703,-0.013632732443511486,-0.008904695510864258,-0.007130293641239405,-0.004256249405443668,-0.040318336337804797,-0.010175693780183792,-0.004803599789738655,-0.012732603587210179,-0.011957649141550064,-0.023624977096915246,3.153528928756714,-0.006185130216181278,-0.0117641044780612,-0.05607285350561142,-0.027958346530795099,-0.011455352418124676,-0.031192688271403314,-0.037017207592725757,-0.041089434176683429,-0.012518717907369137,-0.016672268509864808,-0.028345292434096338,-0.0022084100637584926,-0.015431457199156285,-0.008445988409221173,-0.012238440103828907,-0.021815594285726548,-0.025500237941741945,-0.008584377355873585,1.4923778772354127],"_Outputs":[-0.7547145485877991,-0.49099022150039675,0.007414791267365217,-0.36460256576538088,-1.1228041648864747,-1.201488733291626,-1.208022117614746,-0.06418971717357636,-0.4537554681301117,-0.7440816164016724,0.4161339998245239,-0.39321771264076235,-0.13850091397762299,-0.6205703020095825,-0.8478145003318787,-0.14304471015930177,-1.214463472366333,-0.6114559173583984,-0.6766573190689087,-0.5858389735221863,-0.7772536873817444,-0.32450154423713686,0.11998622119426727,-0.8224793076515198,-0.2874618470668793,-0.36163395643234255,-0.5735633373260498,-0.4449358284473419,-0.7577027678489685,-0.799677312374115,-0.26479238271713259,-0.5950536131858826],"forwardCS":{"instanceID":24634}},{"InputSize":32,"NodeSize":2,"Weights":[0.2891608476638794,-0.2719763517379761,-0.40132707357406618,0.21791747212409974,-0.8361849784851074,-0.6653215289115906,-0.6902623772621155,0.2833715081214905,-0.0893140435218811,-0.28906920552253725,0.1660512387752533,-0.2833526134490967,0.0448300763964653,0.2697373330593109,0.5506753325462341,0.037236787378787997,-0.4567919671535492,0.42630037665367129,-0.21494318544864655,0.19419749081134797,0.10416401922702789,-0.23683589696884156,-0.029417427256703378,-0.3980495035648346,0.08109484612941742,-0.4379570484161377,0.0013639412354677916,-0.6877104640007019,-0.5439156889915466,-0.4193699061870575,-0.6036791801452637,-0.34309422969818118,-0.2825312912464142,-0.12410600483417511,-0.5861644148826599,0.2092248797416687,0.17092636227607728,-0.4738830626010895,-0.02912360616028309,0.020977912470698358,0.023446103557944299,0.19945266842842103,0.40105757117271426,0.4935826361179352,0.02834407240152359,-0.47617363929748537,0.17496533691883088,0.38815295696258547,-0.2432069480419159,0.20513242483139039,-0.08241059631109238,-0.17665286362171174,0.4475824236869812,-0.16639283299446107,-0.019476238638162614,-1.037125825881958,0.2273196578025818,0.5344123244285584,0.5278530120849609,0.5101544857025147,-0.762319028377533,0.6058270931243897,0.19968511164188386,-0.10295497626066208],"Biases":[-0.02214449644088745,-0.04780474305152893],"_Inputs":[-0.007547145243734121,-0.00490990187972784,0.007414791267365217,-0.0036460256669670345,-0.011228041723370552,-0.012014887295663357,-0.012080220505595208,-0.0006418971461243928,-0.004537554457783699,-0.007440816145390272,0.4161339998245239,-0.00393217708915472,-0.0013850091490894557,-0.006205702666193247,-0.008478145115077496,-0.0014304470969364048,-0.012144634500145913,-0.00611455924808979,-0.0067665730603039269,-0.005858389660716057,-0.0077725364826619629,-0.0032450153958052398,0.11998622119426727,-0.008224792778491974,-0.0028746183961629869,-0.0036163395270705225,-0.0057356334291398529,-0.004449358209967613,-0.0075770276598632339,-0.007996773347258568,-0.002647923771291971,-0.005950536113232374],"_Outputs":[0.08328497409820557,0.1178581565618515],"forwardCS":{"instanceID":24634}}],"forwardCS":{"instanceID":24634}}