{"LearningRate":0.002,"hiddenAType":1,"outputAType":4,"layersSize":[4,30,30,4],"Layers":[{"InputSize":4,"NodeSize":30,"Weights":[{"weigths":[-0.0946681589783932,-0.00028319113372835567,0.013568941814964429,0.04662778342051341]},{"weigths":[-0.04903152020744027,-0.030228619177838688,-0.05629378930564541,-0.06572037511677287]},{"weigths":[-0.009296208867102528,0.02068382749634762,0.6118329708132593,-0.07926009026921867]},{"weigths":[0.0099077516441715,-0.0020092556884385274,-1.136562002504733,0.15576476441380536]},{"weigths":[0.07283116335669153,0.12183460529495456,-0.46743635003955427,-0.15618027607724845]},{"weigths":[-0.08402179271264995,0.015183598085113598,0.13943843664055328,-0.007855429186837234]},{"weigths":[-0.008381494560484827,-0.14073076540784169,0.39825096053578648,-0.6014372568170542]},{"weigths":[0.021593451379563794,-0.6910746425556726,-0.35732231086655028,0.0188674955940657]},{"weigths":[-0.06155602993494167,-0.2582997707609528,-0.38066777682561056,-0.17786678842515869]},{"weigths":[-0.022651726217446077,-0.08479036378643623,0.10857808455258684,-0.05644032888853344]},{"weigths":[-0.09408224039620028,-0.06131596203277728,0.2902361736603534,-0.21267766327663024]},{"weigths":[-0.34067962789507896,-0.11108369268073308,0.006686212968624362,0.26587366308866036]},{"weigths":[0.0011797962199223888,-0.003526625012518798,-0.763085122412412,0.3438768785239295]},{"weigths":[-0.08809053087827187,-0.0012905745493689378,0.01684873178742207,-0.4085051941358065]},{"weigths":[-0.09872475842509848,-0.00451667007579351,-0.1737572095197819,-0.06717310834798816]},{"weigths":[-0.1416973562054349,-0.012772185988093576,0.0518832873120568,0.009615627752324597]},{"weigths":[-0.08043788472679665,0.04849610304614325,-0.14097270322960818,0.9432701128915648]},{"weigths":[-0.11759397447012284,-0.06083435800460894,0.22342948982971545,0.06876568916708463]},{"weigths":[-0.24812367146951048,-0.18984564062578528,0.1326424378400208,-0.06870553450280603]},{"weigths":[-0.0689345653507573,-0.1003496417439911,0.015526977062971485,-0.06694752657300342]},{"weigths":[-0.25065066331532889,-0.0713853102840074,0.3102899145218023,0.21577357520925298]},{"weigths":[-0.06099481243115501,-0.08690391823474797,0.8473824819041778,-0.7174058253738515]},{"weigths":[-0.24891592659187937,-0.082620672588189,0.02771387179133632,0.2243090297201028]},{"weigths":[-0.13123247536452588,-0.1028760871343808,-0.2837477281054091,-0.07860318683793141]},{"weigths":[-0.6307953668147112,0.06038551497141433,-0.015193429136858396,0.2727986833381232]},{"weigths":[0.014076076583093669,-0.3328912224474644,-0.1734274351753731,0.02076274883763131]},{"weigths":[-0.0857784142907081,-0.09838543575450724,-0.17786474263201908,0.31744954523676058]},{"weigths":[0.10935624217779326,-0.22461502416368132,-0.7537561792700706,0.10499051139078564]},{"weigths":[0.21804174206411018,-0.021385742162922527,0.6483485477299263,1.0758222371754476]},{"weigths":[0.1597858870916813,-0.2883925554903407,0.6053069861391892,0.5640643495141174]}],"Biases":[-0.10205616894234994,-0.06388342292919717,-0.10886290187805838,-0.07428575670257388,-0.15333923970949024,-0.004573195433079372,-0.0031013684899053449,0.01097441467696176,0.005774279149281894,0.001708829452027788,0.001527935819611461,0.004641555270441561,-0.008542137681448537,0.005860691404767912,-0.09978858626709908,-0.03746479973660508,-0.0016214737778794564,0.057338327440758899,0.28915552577792916,-0.002532962474404252,-0.015052162386152472,0.27150796278878649,-0.003395793520159816,-0.0011414253091923709,0.001768888698493613,0.007626782110802448,0.10622664058745744,0.12513202266249277,0.15052985733762853,-0.05392515294610391],"_Inputs":[0.07455470311891421,0.08360385811679638,0.0,0.0],"_Outputs":[-0.10913827059642337,-0.07006651723802499,-0.10782668442974965,-0.07371425641093031,-0.13772383572367598,-0.009567636198885428,-0.015491141451496238,-0.04519132162577421,-0.02040910954154306,-0.007068455171019495,-0.010612073586959256,-0.03004374169443492,-0.008747953642135568,-0.0008144637819593979,-0.10752687453162512,-0.04909679963886853,-0.003563751954262871,0.04345900697428215,0.2548168079238998,-0.01606174692755026,-0.039706730245064689,0.25965560627448688,-0.02886032220020609,-0.019525774198611128,-0.0402110499228445,-0.01915443463464788,0.09154396541285052,0.11446385984059188,0.16504264280825904,-0.06612222855674155]},{"InputSize":30,"NodeSize":30,"Weights":[{"weigths":[0.02203655964002428,0.09928778681691177,-0.05313487712555214,-0.07013101707640435,0.1015345856827163,-0.029560415774933684,-0.10940637897081616,-0.06127427103216845,-0.0232983410485454,-0.1480583489636553,-0.03862807672967367,-0.06671542564268654,0.06463146013310813,0.0651753082847019,-0.013967435104319694,-0.1029543476473737,0.07920281583103439,0.13806829261810445,0.2342607955892218,0.05646651787938709,0.06480560228865881,-0.20129094171919058,0.1297603161146458,0.0940125992507729,-0.031612559408443697,0.17101240307438898,0.02424649669968581,-0.15485337177639184,-0.004485551263459759,-0.07859524874549778]},{"weigths":[-0.15761485235522436,-0.16239931196095598,-0.1549418504717602,0.02089715758984768,-0.035421144576456429,0.08826468729742464,-0.090335492957801,0.21411009234891768,0.031908616155986977,-0.10236032587609813,0.02389262924334779,0.11004257383066624,-0.07511088179250827,0.10335912965869526,-0.09741538286260622,0.026753736600592744,0.02720770933365075,0.1941971375759414,0.06167767157054188,-0.016547259002394778,0.11916827776555796,-0.07960421568764843,-0.06731778518782732,-0.10042500828310464,-0.00891549772596503,0.17812570956877364,-0.07390103693918054,-0.11632897870226258,0.1276308204679156,0.029742448640147299]},{"weigths":[0.10509235616412324,-0.08673812612386738,0.4514798708725436,-0.4792355155741377,-0.3419899318105305,0.11667420398779605,-0.36165502921800699,0.0776453472885986,0.04109014083439928,0.07013017311846051,-0.07715015145516909,0.08357363534576977,-0.02312627094486184,-0.11720999469800732,-0.004534270320862856,0.1351833074967548,0.22906869282495136,-0.12101152470524308,0.03000235058777362,0.050711871742697058,-0.19528078667843666,0.14109633238479508,-0.012475275724221988,0.010044556952147208,0.06430422655805056,0.05430640021281527,-0.002926185936354604,0.13218662714003316,0.3782129767694109,0.26500393036523436]},{"weigths":[-0.11174472215584026,0.050214897603565,0.03463602326721502,-0.11392472235580344,-0.01817765485042004,-0.013647883026696697,0.049868332976085529,-0.10216238982538208,0.020748238430906,-0.13663641197963914,-0.0575244088675748,-0.017963077991561373,0.11506328475050276,-0.033629247093359,0.007875660651484039,0.018463906643778114,0.1438844586751027,-0.004934137834371963,0.1584526620355808,-0.1646758379706181,-0.1515283407771013,0.057847585797501568,0.042176925905691328,-0.13302119945170932,0.069649583568575,-0.1492863169670013,0.04878673906306599,0.013439778628018113,-0.18685544815182665,0.05976925365420564]},{"weigths":[-0.12504924075998506,0.017840334968871216,-0.003828449440720624,-0.09369039861530898,0.04438980481853701,-0.04519873595747597,-0.01693222226012126,0.08656352687331581,0.05678255505089792,0.02694304601538138,0.05524797900296819,0.1189590480194956,0.3297207553944225,0.011525666645932522,0.04825956071215484,0.1110000992965959,0.09182445552901188,-0.09456777651644782,-0.03578252051347443,0.04163845166717097,-0.023197695296708837,0.022550104775038977,0.013324180543546826,0.2162111877390777,-0.022290171268525916,-0.07661992458788833,0.08406391567545872,0.07180017222976838,-0.05682178566127628,0.0352934786674004]},{"weigths":[0.17446602139146417,0.0890182206785996,0.1272515964669538,-0.05212606129697992,0.15213809542573726,0.09505150801374413,-0.08941602739519702,0.14835482351260888,-0.046453533582227268,-0.1528731725628981,-0.016888373394310948,0.0679308299070802,0.19890816494204426,-0.13368620481170188,-0.16699314082875478,-0.09944624151340484,0.14260483761125898,0.05020041483224038,0.1627220985151802,-0.10974848808572964,-0.026091816286692106,-0.15197276058272125,0.022254247753464529,-0.15394889931380005,-0.049087596734244388,0.047788446569095057,0.03321811231405134,0.0137150460592318,0.1062243165934008,-0.032136985543484968]},{"weigths":[-0.07397780135338036,0.06032848340832416,0.12746888148599068,0.15098193489618268,0.03077156438381357,0.1579893259589085,0.22701167943289084,0.03010393217583578,0.1514211879238269,-0.14491346896656005,0.0855055079757318,0.16215607972658473,-0.022626569071195505,0.181785763555036,-0.09361501125377124,0.02725153657365163,0.1662358919611164,-0.08335950651365193,-0.03764227286632431,0.17646774440876845,-0.10581967973218068,-0.10811238140158874,0.17721099312415238,0.029528827359491189,0.16119087783963108,0.15595963599725586,-0.22997621498860652,-0.0709684310916654,0.13105926218149506,0.17121000028378126]},{"weigths":[-0.1279137354340652,-0.16513031081100186,-0.00616631680699013,0.06212984736710744,0.09431320468142172,-0.14703990023629028,-0.0721019360230478,-0.05517901748773901,0.02792684803871698,-0.02822474833504007,0.14841004406841958,0.07480068671259191,-0.16901952916774833,-0.1431324891119725,-0.014485618289123669,0.11952719870875144,-0.13641892117613636,0.10460609109815648,0.03385041250626719,0.09020288786754452,-0.030051732032949004,0.03365636022137732,0.0702487419391212,0.05518707128688318,0.14055328886821898,-0.09839781738349184,-0.027889261360265578,0.14897062749527485,-0.1262212277944278,-0.0580675130523183]},{"weigths":[-0.11552841826024808,0.07000518753609594,0.11021512465669876,0.1386334654725149,-0.1738304889724115,-0.08743430844800733,0.08651757172884184,0.008263140145903122,-0.09915360024994088,0.17021315503145557,-0.08446761306743513,0.09223746815938366,0.13972674432525909,0.17287706203872037,-0.11605421237972794,0.08095663871844174,0.0542880737107909,0.17901173202465513,0.124411270568817,0.05269059303528969,0.10622473462708676,0.14041603916031818,0.2099161272592071,0.02971939434514948,-0.09540976732372904,0.025900154839275378,-0.1144043393138611,-0.10577656067439916,-0.13003137285903205,0.2499605977883863]},{"weigths":[0.14516492319089498,-0.04799399338994293,-0.08487558620815536,0.03893311693430528,0.1378735200132628,0.01120624935455461,0.0033374825617929276,-0.0655668471380281,-0.05969292527247926,-0.04787239934141545,-0.11913493249315356,0.10262421365423633,0.09204797928834328,0.0947660879969177,0.12551722926202664,-0.06858928480672523,-0.07719863289510307,-0.0900981192392348,-0.1468825714912382,0.1150433117848558,0.13596668941398486,-0.036408881809578689,-0.10294931711465522,-0.09651043438878865,0.0450207988998374,0.12881035310582657,-0.09857606262030452,-0.14219601553347978,-0.06446814608494608,-0.061250643025389]},{"weigths":[-0.0728193407854306,0.1238965762629638,0.1033356865259052,0.21871111055654025,-0.1998341093015591,0.147845798279603,0.07168953657299845,0.13038292036525674,0.23134305834930944,0.0886554181194368,0.21051625898873137,0.2261715613057982,0.2586903399489057,-0.1266315322166226,0.03577378930355508,-0.03306877558566231,0.12948489701429898,-0.03594049622226443,0.2062832805443616,-0.1403376566978209,0.27615041066989168,-0.43999321592021747,-0.03219071855319787,0.11557599815571453,0.1344651775518892,0.1769667124404579,-0.2589107959539504,-0.09096911730987097,0.2552405277304616,0.021964606046655859]},{"weigths":[-0.11277941283118912,-0.12509007975763773,-0.12933048102263976,0.2056644821135075,0.01815016743131117,0.09827846623167468,0.028778213710758256,0.24539152899039724,0.17181486309340894,-0.07142777592982186,-0.06268677665314208,0.06719517332395901,0.07923654409615518,0.10745628450366454,0.023555940408034497,-0.007554098581112391,-0.07001189844391491,0.08855460440798029,0.10017242370698922,-0.12079210337854742,0.1999899440130213,0.04450032328596797,0.1457137473574141,0.005590430767024591,0.23402926788722518,0.05146766130042956,0.028701632140056493,-0.22512234245854996,0.06535241237683492,0.09921596303068584]},{"weigths":[-0.1080483590612143,0.05416540278440655,0.1498267575845934,-0.2585254607161115,-0.3454147361727756,0.13750777924617622,0.015687806291873268,0.11979699425304556,-0.038209584452129897,-0.034536020346459018,-0.0555621098804796,-0.15217869975967705,0.1241579539390848,-0.03605389730106579,0.10660522778232716,0.06651202933260755,0.04792129210563134,-0.15129451080389248,0.004662498497487232,0.019416962027845348,0.020602620599257289,0.09986645967102662,-0.1585231673916467,0.10920849922618366,0.12719636887976025,0.040867555939605348,0.16790446937634877,0.06544784947888362,0.2857227165424826,0.024907320642805876]},{"weigths":[-0.04664135986827436,0.061165984411994608,0.1684520495718297,0.022871793456862897,-0.05984258653614757,-0.02487571634316634,0.022716699561445447,-0.17953904144957118,0.1651121608086426,-0.14205861961355716,0.1641788302004886,0.16182408999687176,0.058048717927423536,-0.12431341503926126,-0.0292680038623421,-0.116465772722571,-0.005032800523078248,0.12811669560020357,-0.1348032839929737,-0.15411101183719345,0.11694070624663336,-0.06952591780953994,0.09051263765576656,0.040266737828050378,0.11862145368870836,-0.05983004749601314,0.12292626190318418,0.1364502843720453,0.1267676917927688,-0.006832643387347557]},{"weigths":[-0.16640657602842885,0.07807874297588698,0.17268523350325849,0.04557983721059894,-0.166576729930027,0.06006664327739387,-0.12247412598998746,-0.10020877227025274,0.16354810707029752,-0.1677482754653977,-0.00509752944861205,-0.040207577769400249,-0.019976204205443397,0.1011263822936311,-0.14728108758446666,-0.06733727096492212,0.306572851492709,-0.12040361849883522,-0.05791218825070428,0.07888638171762447,-0.05267562903201536,0.0743868145849357,0.15442374604821688,0.21263902882621858,-0.1610776734082069,-0.06250707690523715,0.0658721650714728,0.21870661757846777,0.20825389840287429,0.10534282149514453]},{"weigths":[0.1004580124252482,-0.061690931013962769,0.10747243704360282,-0.05187015444598682,-0.27494914395604505,0.09791619417234149,0.06731591770306084,0.09139503558114336,0.17711909524581713,0.09168171401674956,0.011825854328676488,0.15542410255052958,0.12324047579385714,0.10964169545665412,-0.06199926489177296,-0.11692865983450646,0.16245053146197656,-0.07712751913686349,-0.0003962698071135171,0.03905881402827129,-0.0961477979618514,0.03336304003104888,0.2031378236648921,0.07994197889073417,0.06560888931162456,0.19720112091478524,-0.17155177232424388,0.02329886747414163,0.16035225998847708,0.047942163103201058]},{"weigths":[-0.09350432738479814,-0.07521649579305104,0.08779692122388477,-0.14615318460381553,-0.17756526271667329,-0.14459782708766598,-0.039444969224852768,0.04274814231344708,-0.08798666246600001,0.00840909968735769,0.058400204435647449,0.08885782850702646,-0.09727132921431328,-0.12297327666050832,0.18839573448571277,-0.0944971279495725,0.10182147736729533,-0.08584626906693886,-0.16177364777507109,0.05929554585929544,0.16243315292475778,-0.22577998043234816,-0.06904476908626814,0.20550806577150017,0.003906983000006693,0.11023971492836352,0.17004115343969934,0.12364851769613018,-0.10007446395345889,-0.08814355274808673]},{"weigths":[0.08685182696776434,-0.06144907850740485,0.11062853809267952,0.26274364711334249,0.03578616922884671,0.051837697717111459,0.23074962801446165,-0.06455127788949254,-0.004901783027751528,0.05277438859105919,-0.08229938042831446,-0.09348380493302902,0.34149791663161208,-0.11162001477190216,0.13366238527835196,-0.04213233605285507,0.14971289871129896,-0.09947238801775652,-0.23829714152355914,0.11160698671245158,-0.00985492740030062,-0.08695062488648842,-0.10174646550113337,-0.08812529221202824,-0.10297498763822512,0.002227798318058621,0.09627407033159664,0.2657806710029514,-0.5146318712506691,-0.1829650533092943]},{"weigths":[0.0929444726623744,0.1459758199403157,-0.10710170448958258,0.15283699305795254,-0.10879098086481697,-0.017767550189960125,0.08403371284217584,0.08228069131980294,-0.014625102095915466,0.10581576252872488,0.1686298610342432,-0.12890409736891626,-0.11533647954515228,0.09183229847382034,-0.03878669963044745,-0.17950757829896317,0.2970053695769973,0.022807715962112314,-0.12540603097378798,0.1803674100231529,0.006024344757472577,-0.02491055592494116,0.023313952419167826,-0.10120063209268746,0.01367022057357374,-0.12443952160528649,0.09563653950837026,-0.008811107696704077,0.14990868761523386,0.011022299717237502]},{"weigths":[0.05258168380957133,-0.04470219259676703,0.026807691909389514,-0.024465871435713977,-0.17940967661720309,-0.05404994667180491,0.07518928019892035,-0.01624660404486425,0.0426075141998405,0.0515462251650726,-0.03845452452292402,-0.01096271824897995,-0.13944945419325553,0.10358091624211818,0.16250457733022176,-0.09019322766141098,0.05323446108876458,-0.13828723417499409,-0.1143608354082172,-0.04963708898317697,0.06356758854051147,-0.049643824142623107,0.03656357334463918,0.04880201764270623,0.04721744682574308,0.10836288420290724,0.07826169811090389,0.0952673995669268,0.01987968390518239,0.03152761774398749]},{"weigths":[-0.022292702925047236,-0.11151699855872704,-0.11333213469698282,0.2625691824154336,0.04109339591234736,-0.02738459561391919,0.2466623372888562,0.2627552609205872,0.20446590944365718,0.087280433974378,0.20036266609847773,0.2888151851744488,0.33986657946997769,0.1491503273221437,-0.15565079134886804,-0.04194203857683732,-0.0917196789349541,-0.047035177391793889,0.22355659519911148,0.1464385227628965,0.26767300561038545,-0.099703945161367,0.19400246893374449,0.2223848473857092,0.07527598806050238,-0.030432554543456244,-0.02060441711315764,-0.1851595074068385,0.021327778870012257,0.3731030985945055]},{"weigths":[0.05193859469815856,0.15963230579342189,0.1664548353665143,-0.04211097779253558,-0.074631506996002,-0.02184570826436113,-0.17787537249594213,0.03879902461356573,0.055370781117949258,-0.141860520599242,-0.1362969393194858,0.14363554748437286,0.08677090312810335,0.1130964663316772,-0.11471253593972272,0.02491401017708404,0.11836774876609758,0.15739745161166436,0.2091100996939072,-0.025160006604045924,0.02744100519577011,-0.09271196635579014,-0.12048202470506406,-0.04539726095514604,0.07641824914923569,-0.1009100411330069,0.09520355612708854,-0.1684135704334075,-0.18982520956016434,-0.1043502042728307]},{"weigths":[0.10707068070188888,0.13360116780345678,-0.005549399958172269,0.04832659653122631,-0.14391069587435174,0.09207022879136202,-0.11043126602738872,0.12146266968991056,-0.026480094065042777,-0.031833141350926508,-0.10808894197763174,0.09773786837554305,0.09266935815243882,-0.017000499547134397,-0.07153173063831384,0.06648772135298464,-0.0732341736415254,0.08317084589021609,0.19686628160375337,-0.1469180735805619,-0.1350553877275325,-0.04365403103526863,-0.16353772321802366,0.09973939814731596,0.1204866443582989,0.06515782419140255,-0.017243692361262568,0.08112574633939246,0.21898365387826905,0.2119905715087117]},{"weigths":[-0.0035045391935499519,-0.12344608333118262,0.12488488149877045,-0.15061328248515097,-0.1728872610560507,-0.14564508030981533,0.036792273429037267,0.003225228294683834,0.013893945595552149,-0.07946697298712069,-0.12259804650516368,0.0416105105004682,0.03628530711314027,-0.13564238837424193,-0.1381662253375607,-0.1001095750460426,0.05370263855737682,0.01672491552742164,0.030622656596866108,0.11731625865163872,0.019143766646205507,-0.0955387069276092,0.09533827771119384,0.10838260923760933,-0.14494986799738125,-0.018550650287264778,0.14718118848724286,-0.1671022134094849,-0.03426854215423999,0.13558387162137496]},{"weigths":[0.1417266617085359,0.03940379240046264,-0.12018664782817572,-0.14793046613982478,0.10519334668475557,0.04275892759718515,-0.07613900181495917,-0.04645449442265499,0.025283960512810078,0.14596559755594785,0.010468311700646313,0.026085032862376714,-0.1520050505003949,-0.13278916630553773,-0.013661904073823108,-0.07303558395484106,-0.04616115962429768,0.04720464099539452,0.05775243001138343,0.02109908903350328,0.12005754935583273,-0.1153518464603788,0.0794164007779578,-0.16847217116801253,-0.200323497110482,-0.0774343053409525,0.14540348678873564,-0.16404642541950077,-0.11630668071188966,-0.11640548555473998]},{"weigths":[-0.1413684212316826,-0.08438044903188087,0.07474917030785694,0.1287023302893208,0.14426534225884625,0.09762594323155236,0.06692782454415329,0.13599023789302146,-0.04005799278932994,-0.08359792500356546,-0.09842891422992634,0.1642641003885224,0.13854376216777362,-0.14873233023908126,-0.16355740207935177,0.07359701630660255,0.1069042324440509,-0.09928141531752324,0.07125597183556905,0.14933061036292478,0.14473230152731365,-0.20982406187009018,0.025585573448856107,-0.11318678962956082,-0.05939920743616925,-0.08794697515451019,-0.01940792206629418,-0.08108304812132823,-0.1005993405578449,0.053474491701511]},{"weigths":[-0.18522945773734265,-0.17952257766366609,0.07393995662795758,0.058327874694294058,-0.1637672548734349,0.14237883928483045,0.04260189322301701,0.09897632852876848,-0.15572030071034896,0.16731537174057854,0.07127329741472118,0.020245835884617898,0.036619531170129417,0.17670216418810948,0.10345960622520612,-0.1088957927548768,0.1240206509376296,0.004396898605220219,-0.03422067666451695,0.10778062086704594,-0.15975020106275765,0.037749582914271658,-0.005446255581188129,-0.06755771752495815,-0.03162594365065259,0.03922367940276906,-0.04331521043349844,-0.17946180371247906,-0.1270131997814637,-0.19447916162809437]},{"weigths":[0.10083914702677437,-0.06196588692543891,-0.01166391672888607,-0.17178271596939546,-0.10011000204267576,0.07353442284168285,-0.2759770780805971,-0.13736498787826025,0.04521369092076221,-0.06938559407052887,-0.03176657664903036,0.10128297152520297,-0.18294971714832546,0.03565115498177313,0.12851474875403594,0.06983651612883175,0.03133705300820883,-0.0634251573130459,0.1672921979276243,0.10861251664114836,-0.20552084343134328,0.042443848105322739,0.04081668617227798,0.15749018846904748,-0.19658555556925645,0.17688148772358262,0.05337200920643505,-0.006312501038848946,0.4668479625789934,0.07557541189646247]},{"weigths":[-0.04615092401819407,0.16299423365282018,0.10466705004518336,-0.19805931250515489,-0.05250661200528304,-0.18377370785010969,0.12516300794285938,0.022504307598803756,0.09799555016702325,0.17443935428928304,-0.07632218173617847,0.07031744515218415,-0.09922438443580684,0.02520709902609692,-0.024202579003139884,0.1351029498454999,0.09193178354110124,0.0831282455313608,-0.12421349358501573,-0.17590104264980908,-0.17083786302714316,0.23052901689580686,0.03761088369274136,-0.12611748387264069,0.07934965335508397,0.10477493558491924,-0.033640019660298298,0.120643765457152,-0.10462723463863398,0.07526436057956033]},{"weigths":[0.05479047006922266,-0.04184058704812385,-0.09019321943425104,0.5995075228019776,-0.024669582464561344,0.0718762070182726,0.1007570862966916,-0.1943178963354162,-0.01995146035652334,0.16371717560878958,-0.1846879134683329,0.18293739065169149,0.4720709791281607,0.060897302445445538,-0.12836082122760976,0.12511804510869874,0.6923002030325896,0.026332153594967344,-0.07919657891825031,-0.0783536094880581,0.150085474110411,-0.314904462047058,0.02970373027431865,0.12615335518597754,-0.3331850271324937,-0.11591229049524653,0.13534968670526285,0.10661106053395972,0.17358979117256738,-0.1895403667541051]}],"Biases":[0.027033944871580778,0.18549697672790708,-0.34409691859678,-0.10497819143615712,0.16464579099130809,0.09009516967677324,0.11520117641581009,-0.17810203283051846,0.13428209466069866,-0.02102930438550008,0.3421765709838337,0.3974040339668897,-0.2183068767253986,-0.1447639479308614,-0.2617126245511361,0.12226071709098988,0.07595010382119022,-0.19305982089825328,-0.23418740606455896,-0.12604200277217093,0.535785913453241,0.15531171143976278,0.11523388208752424,-0.05704445566772191,0.021807277445922009,0.07319926149976199,-0.02023210739173664,-0.1363451385050963,0.004282566427854557,-0.4964753224488708],"_Inputs":[-0.0010913827059642336,-0.0007006651723802499,-0.0010782668442974966,-0.0007371425641093031,-0.0013772383572367598,-0.00009567636198885428,-0.00015491141451496235,-0.0004519132162577421,-0.0002040910954154306,-0.00007068455171019495,-0.00010612073586959256,-0.0003004374169443492,-0.00008747953642135568,-0.00000814463781959398,-0.001075268745316251,-0.0004909679963886852,-0.000035637519542628704,0.04345900697428215,0.2548168079238998,-0.0001606174692755026,-0.00039706730245064686,0.25965560627448688,-0.00028860322200206085,-0.00019525774198611128,-0.000402110499228445,-0.00019154434634647877,0.09154396541285052,0.11446385984059188,0.16504264280825904,-0.0006612222855674155],"_Outputs":[0.024107151541265898,0.1904061714709986,-0.22773613846937938,-0.07438549801112864,0.16377095684127097,0.11610164164913324,0.06587176030057454,-0.1624849047677406,0.1661540354815355,-0.10812749804250244,0.2865703061965903,0.4257706796322762,-0.1273894578312918,-0.1439251757092518,-0.19665654454171406,0.1410557885778618,-0.014236075437038476,-0.3267382342628171,-0.23909468844900626,-0.15274684614540844,0.544704925530358,0.14937625340065376,0.20133550332186524,-0.08422492203279976,-0.01592462243953734,0.004745380212616626,-0.06392857159666977,-0.004103416764594248,0.029504448408510667,-0.5441437929120908]},{"InputSize":30,"NodeSize":4,"Weights":[{"weigths":[0.31378934660849197,-0.1740030263703142,0.7414810369462692,-0.3401049812491973,-0.43197137886174,-0.045534583669905818,-0.3070305104817307,-0.10298027931981192,-0.342199422774793,0.16448889139444029,-0.5051415384066443,-0.3972448290520707,-0.051157004603862018,-0.17264516718000576,0.4722410684055771,-0.4850299905582147,-0.3573590490661808,0.568845830603447,0.25546562836497385,0.3796142601234899,-0.5559505598512521,0.2594734366549675,0.16327595486747796,-0.1853493640696179,-0.2938788849417229,-0.22612130189270952,-0.15310326927192004,0.22262300078002085,0.07479166939678775,0.6859635728682474]},{"weigths":[-0.20446830077223017,-0.00673041280926504,0.4335758219102687,0.04408643999663199,0.09364201709780312,-0.012938114225125905,0.011110474868025942,0.3587091354113851,0.06372527302569538,0.13308806752760056,-0.3962343684796485,-0.41917245191844756,0.4519638617972867,0.14742892114659165,0.4758003734980747,-0.4063952755425298,0.01640300959169045,0.50311166084692,0.18315363100011448,0.1112609358900776,-0.6622742318429564,-0.09207038406786726,-0.2891593742648095,-0.2692743383429807,0.07968888843165183,-0.32682096725946188,-0.4558828199010008,0.2933408567966985,-0.03195667491785812,0.591981159698535]},{"weigths":[-0.2906675679518885,-0.2975580678088682,0.38074749325225668,0.2905313128856575,-0.33918042038260057,0.038258990125075619,-0.2781583748297801,-0.4020107098289591,-0.3940975634678542,-0.134720161619411,-0.4764631859447377,-0.3589760434082709,0.361586618070592,0.14357195621292857,0.3613604113926947,-0.005966803555481952,0.27063963683595146,0.5166721968439445,0.10319375996609058,-0.30132488749894245,-0.44024932966932897,-0.440740874027005,-0.2853777842713838,-0.08697199358226351,-0.3355528845239677,0.17261327804012378,0.11425052941737413,0.3364987199568435,-0.19676026046034418,0.5647889250912885]},{"weigths":[-0.43434160123699419,-0.2672335135056249,0.5289787685751478,-0.001001418256133439,0.05537107694233078,-0.2237832024948413,-0.27380868495248236,0.06593568735215648,-0.4209216642133818,0.05658823150094284,-0.48945488293275737,-0.3451864542056494,0.3278607800629986,0.3481745858400345,-0.16049247282523086,0.009922117790187313,-0.334060095315547,0.27569156661037216,0.501630571004134,-0.1121022111443522,-0.6460625431383447,-0.219156800975241,-0.2223601301034251,0.4586995182929099,0.3161688503526531,0.021325656709731658,0.2314733518249288,0.5076354196244923,-0.4120190665131457,0.7151326700400063]}],"Biases":[-0.4713075203316308,-0.5650068928825284,-0.5113323174442451,-0.445115709084816],"_Inputs":[0.024107151541265898,0.1904061714709986,-0.0022773613846937938,-0.0007438549801112864,0.16377095684127097,0.11610164164913324,0.06587176030057454,-0.001624849047677406,0.1661540354815355,-0.0010812749804250246,0.2865703061965903,0.4257706796322762,-0.001273894578312918,-0.0014392517570925182,-0.0019665654454171404,0.1410557885778618,-0.00014236075437038475,-0.003267382342628171,-0.002390946884490063,-0.0015274684614540846,0.544704925530358,0.14937625340065376,0.20133550332186524,-0.0008422492203279976,-0.0001592462243953734,0.004745380212616626,-0.0006392857159666978,-0.00004103416764594248,0.029504448408510667,-0.005441437929120908],"_Outputs":[-1.2711861950723898,-1.3390698481693478,-1.3744232414152749,-1.3470188899833926]}]}