{"LearningRate":0.002,"hiddenAType":1,"outputAType":4,"layersSize":[10,30,30,2],"Layers":[{"InputSize":10,"NodeSize":30,"Weights":[{"weigths":[0.029960100675172319,-0.032405032777350458,0.07571187867261622,-0.17722149566422502,-0.16962817067260914,-0.025022383843838818,-0.13164710593697794,-0.07121423505086581,-0.1282991369459695,-0.1751978086157983]},{"weigths":[0.04447654458910494,0.06560548371490308,-0.08625111314673355,-0.11855134569410615,0.16743198726350728,0.1812260389487731,0.016284777910628994,-0.15775943524762424,-0.07707633939675332,0.0992015261623909]},{"weigths":[-0.1794161800664865,0.01350135653465446,0.051718465752466569,-0.1560817889896426,0.14792371881047418,0.1416979487278112,0.09436166818576203,-0.0647886572111568,0.1653910425494039,-0.07805911804618165]},{"weigths":[-0.12343412261907998,0.026607942471317537,0.13060123016927867,0.10212563906113256,0.11904931838021513,0.03437728365870694,0.10778947948483012,-0.07074382589583657,0.058926371773847709,0.16481553925293133]},{"weigths":[-0.14561900265700723,0.14552177131417166,0.19379521610416973,-0.16727351448811965,0.12030056963793406,-0.1182340912585459,-0.05860798722440078,-0.15116472992849887,-0.12585948233723086,-0.08233317767435572]},{"weigths":[-0.1063595522425459,-0.18172904227620682,0.03872230988151236,0.03892104916321338,0.16512198982361762,0.1608912107509339,-0.02096775396843541,0.13211285695343093,0.043720087372288,0.10465323836085716]},{"weigths":[0.04632081002913621,-0.13419717350658848,0.017095708935796634,0.008304934127743216,0.1543050567422165,-0.12928591820436387,-0.024480948058413025,-0.10448045518679682,0.1576190530200324,0.03581343045928877]},{"weigths":[0.18018955381963534,-0.1665237172931353,0.18705321763180039,-0.01489589745596845,-0.1565886048297166,0.0746483342777135,-0.05924563902848552,0.10433731279795799,-0.13624935025169189,-0.023951276168379236]},{"weigths":[0.18149785875298389,0.020832141266452086,-0.15470317739385118,0.04955878903374377,-0.016216722746172454,-0.05818488892431535,-0.06671622742163165,0.13224643415980492,-0.005452780467329163,0.010377176092058054]},{"weigths":[-0.12384669081360388,0.04160830658310224,0.14176583885307163,0.15808105803915263,-0.14664945648412998,-0.16848258178517,-0.005293864772396463,-0.13034845593897644,-0.08862427875950368,0.1149041213603737]},{"weigths":[-0.177982267682708,0.02277357206251114,-0.08613814701578229,-0.044694785519444547,-0.15800520507583927,-0.03700749145446814,-0.019385233703618746,0.05156287044706357,0.018934950796117634,-0.08161103587642621]},{"weigths":[-0.1279897946377801,-0.09427003843880398,0.10648825713778887,0.04713761392390288,-0.09956735459077944,-0.11146593465176018,-0.14648138695391858,-0.1736987800110545,0.044115518827322928,-0.1447837043931944]},{"weigths":[-0.016878674373984348,0.05096575727568297,-0.04373017368314603,0.028463837654972764,-0.08145838433342706,0.014131314233987846,0.1631467336517491,0.01483000684719152,-0.12181101704040048,-0.07954571161013092]},{"weigths":[0.001852052376586782,0.0799455032591748,0.01090138879202914,0.06561838416533118,0.04255190919879761,-0.04119233209619447,-0.07521500896013357,-0.10531141709857985,0.07073552162052344,-0.08808917940884335]},{"weigths":[0.10433050363222178,-0.11008873710601212,-0.06887313082232759,0.17893333206470614,-0.06427160447934319,-0.1416003387067881,0.09370003753087332,0.02712021477273849,0.007397321270329278,-0.08682620185244654]},{"weigths":[-0.061296333612480127,0.11513310951468695,-0.06787958434677363,0.08536982748559194,0.007173917929674722,0.10422261355979179,-0.02782445035704434,0.18554616451730839,-0.11604245210921993,0.07799941642005605]},{"weigths":[-0.1568881877469516,-0.13686319045802965,-0.050447692810136359,-0.1058724148610521,-0.17727396811490674,0.015114499361947094,0.009945584655156565,-0.046786745589798849,0.1515463311835563,0.12079195599349262]},{"weigths":[-0.0010176320832785788,-0.042042505084051658,-0.1671866652115475,0.029297885375997827,-0.1738620345623046,-0.16140392872483567,0.003945547202386707,-0.08654707212415408,0.10822524343481749,-0.035640860892433779]},{"weigths":[0.05033387144061074,0.09035046145541068,-0.011709420134617977,-0.0033195796673702144,-0.10252964792154412,-0.05965496118895191,-0.06839696647854776,0.14614338249586887,0.07903062858274882,0.012447003665463362]},{"weigths":[0.07815495033597404,0.04629410931991459,-0.09600581532361202,-0.16121924316084824,-0.1709992786728328,0.07444604713602045,-0.1172128177841466,-0.026165879293344804,0.09944368948724251,0.1317963567280515]},{"weigths":[0.13321896443563403,-0.11669768383426306,-0.06591482042496981,-0.10813993481137706,0.007164285452168883,0.07364883005275019,-0.08479651038822672,0.16652884299149013,0.07663340969912513,0.048177735610243268]},{"weigths":[0.06446455984387019,0.14005557355738083,-0.0020990873560877748,0.07363055323617351,0.07855397862433474,0.14356453489485802,-0.16263129090695986,0.0333485728565115,0.08569651314516505,-0.042936209049825448]},{"weigths":[-0.0856385116138125,-0.1827973196299149,0.13024690522978966,-0.14718656720949303,0.13655689527106255,-0.008649736176922251,0.09387221106561362,0.07296301695358913,-0.0731435264164754,-0.08787126136799969]},{"weigths":[-0.01860457100301821,-0.1763760776986634,0.04948131530910714,0.11864065241100827,0.1839193519399931,0.15152590390330107,-0.07685234473143996,-0.17122996563349156,0.06367214421609321,0.03427635676394518]},{"weigths":[0.011484769103110589,-0.009952614632950155,0.014753209446743189,-0.0005694785116455322,-0.1630489665747815,-0.15164718243767814,-0.013438212069189944,0.002896794294699164,-0.09855475102044523,0.11530707102820576]},{"weigths":[-0.09837596389366704,-0.1616893332705945,-0.09401236746796146,-0.0016715334537345994,0.12684374695728699,-0.09558041366165794,-0.16713696814707114,-0.09210226129674569,-0.12925099814428984,0.09954225299092669]},{"weigths":[-0.08706997071284622,-0.009845439867052419,-0.10708816057940647,0.10996461271980367,0.03919689557027301,0.08450326725546478,-0.10307196622336118,0.15275657552707154,0.1384463720715448,-0.12764932226568538]},{"weigths":[-0.0017387930946122454,-0.16657280169481929,-0.09603366623514091,0.1627218359340707,0.14551724669046388,-0.06972674294767442,0.08235768452861031,0.16900795205785333,0.010401828235519608,0.17040000297591866]},{"weigths":[-0.11665857529599937,0.058801889095142837,0.16795308353571004,0.1266205574873166,-0.07007253350492616,-0.11410508612351704,-0.036937840029277187,-0.13410786994983338,-0.054333913337168849,0.057541438612630797]},{"weigths":[0.10955671572235713,0.01614406477541416,-0.14597741579860336,0.03301645644143573,-0.1544007216801826,0.047224556065938966,-0.15148203547009704,-0.1365979863931448,-0.12443847146549858,-0.15464739242558998]}],"Biases":[-0.0000392670000055089,0.003472067974263006,-0.0018121410612217742,0.002227879815242459,0.004014520839532443,-0.0008861595166110198,0.00002711910865206944,0.0006517229298831102,0.0013647055819421015,0.00005303965311358206,0.002244961540797176,0.00010483053434470861,-0.0017848218099522805,-0.004272986760176124,-0.001639971672504604,0.00130634780690518,-0.0006688592290337607,-0.00261478674106319,0.0007214724769409254,-0.0007352778829154134,-0.006161005170148316,-0.006569590690126846,-0.00045861472201293646,-0.003041055445509167,-0.0026800941942995216,-0.000042330679401679775,-0.0020124634213396768,0.0015407783120157159,0.000003496127091864584,-0.0007669026741799277],"_Inputs":[0.6621866226196289,0.704684317111969,0.8644231557846069,1.3243731260299683,-1.0,3.217813730239868,3.424325942993164,-1.0,-1.0,-3.154356002807617],"_Outputs":[0.22086988330576855,0.24043293741630757,0.5027330686252913,0.04005604126725105,-0.20859177447815745,-0.3395030856805347,-0.8583740138867871,0.4481156943718651,-0.4908664668535772,-0.2778595219365638,-0.07374440288111507,-0.1710384441054225,1.0656205722370243,0.025596088192526676,0.33520117161129078,0.012100426723698111,-0.6106360781727804,-0.3798727738060753,-0.5048632695115719,-0.6926756403147741,-0.6560549039709056,0.07531498389155254,0.16751682468606389,0.10278545770983773,-0.6291401870590738,-1.3619752155910876,-0.022360104271019297,-0.7892494617013443,-0.13956667060449927,0.5368019805257893]},{"InputSize":30,"NodeSize":30,"Weights":[{"weigths":[0.16738608423963403,-0.18133663564341713,-0.135904925082504,-0.13243276229657606,0.05178099245798512,-0.1721978179992969,-0.029545048841577698,0.06897006095584722,0.0830601489537352,0.0038786531931832856,0.0688612728762024,-0.0050718740935109239,0.07336510529517682,-0.15340716806638267,0.14409291228258504,0.11320069107582498,0.1124303339774746,0.03418943592757754,0.14425156745027879,0.07456057789713726,-0.020223110431959708,0.06895805398070533,0.13898798320071577,0.1533861895603976,-0.06535828526491559,-0.05237530670508586,-0.15228810452469977,0.1725737088374794,-0.0239353160668397,0.08056611705779267]},{"weigths":[-0.13850396616897696,0.10172715108237435,0.024348939257348085,0.140051949514638,0.1600540073839173,0.005896112131390784,0.01925383469195595,-0.09818794784821396,-0.06855236225761433,-0.13155209164194918,0.0883502997269408,0.15367550865145644,-0.12293940727011707,0.11845539237585254,-0.16132051189891573,0.04184665945876574,-0.11025965781052312,0.010654003542372459,-0.16939206790863557,-0.03994667169487488,0.023360845291062077,0.09180680970585294,-0.1722042007515074,-0.06027319857400694,-0.1409562523998016,0.1452806617425717,-0.16723424053514744,-0.182532107434283,0.00219114989524021,0.1428187836366524]},{"weigths":[-0.00918378508435828,0.12916237140307636,-0.1679791804271286,0.05540626267071667,-0.17168705311572914,0.06413840282179202,0.011379681025162849,-0.09089841673097562,0.09929778636575479,0.10494008843317997,0.09629354440642517,0.01080603685139007,-0.03082049970568962,0.05306512131798567,0.14805760850181205,0.02790973956117979,-0.014716578588845295,0.0540020457520391,0.07115912276810906,0.007166271346796452,0.08679658144801596,-0.05300897042748804,-0.08943101179259311,-0.0751282772163027,0.15539615976851435,0.08463139261019773,0.1575357161517522,0.03923305992038727,-0.18158150341189709,-0.15110190630867355]},{"weigths":[-0.17999515002593365,-0.09939235883927879,0.006650415956365199,-0.092352280418289,0.032792307732851157,0.0796982488750153,-0.08873684403373819,0.13930023976705889,-0.03886668875024884,0.16665526992647557,0.1552400450987319,-0.1294408977249569,0.09581056787920543,0.022293981090711815,0.07565844632409734,-0.11506116167586823,0.06308498731895235,0.03781137755444665,-0.16680757618017429,0.09223449896419725,-0.031929445720790237,-0.14664625637411606,-0.10041019979696417,-0.03817949258691425,0.1133065922529067,0.012945558061021684,-0.12513818871529262,-0.11763417768606871,0.09048001959645752,0.08773859039726903]},{"weigths":[-0.17476444845333437,0.05674990539524949,0.14451236636313237,-0.14095952840799787,-0.0034119241173570129,-0.05913236324673067,-0.06694931214007355,-0.1424628676280787,0.1323395825815336,-0.0680803204772378,0.11981661157529186,0.1465604431188646,-0.07353145240698426,0.02819175359240657,0.022736549155762056,-0.007970474221664683,-0.18074497389808978,-0.1778337131561805,-0.013436605072183826,0.06957277495780937,-0.17771545987961605,-0.14165634426589167,-0.15895964076099693,-0.09402180274193549,0.15632916823371435,-0.022631824472131264,-0.11639862141229957,0.04526464959110215,-0.014821694654537194,-0.010626645667366096]},{"weigths":[0.12365691687010215,0.042841635143487519,0.08247329217241914,0.00797889057614934,0.11406442338400554,-0.1564040537614672,0.11884292452028289,0.10269802484665487,-0.1334827381610508,-0.1260742347521171,0.03513378326237193,-0.12248485120482353,-0.08127820212600293,-0.1294582134959183,-0.13301038728411813,-0.10818627739752214,-0.16536410421000104,-0.0066950300545832708,-0.02313733150192561,0.10674523650719589,-0.15840715859411609,0.13950673300972217,0.020340547837018859,-0.1096494675670455,0.16266824946839673,0.07491441921437835,-0.09239828157724849,0.007210863451680853,-0.11295972722527138,-0.037603767812388579]},{"weigths":[-0.05403182237305589,-0.07815578383810881,0.16225588161022268,-0.12593943690093668,0.04171530868704529,-0.12081339818124248,0.05320216368939077,-0.008925679099199899,0.15110022434447555,0.13562803773195904,-0.1259226735810428,0.1079634420390474,0.15151083691270107,0.11489440636226942,0.0968731576346562,0.04794539311217718,0.09546054949104152,0.026988476748965884,0.11139866091534657,-0.052175599971427847,0.006750434405291988,0.013830950712983603,0.06855744593871519,-0.03726155204138569,0.16040754550340884,0.012263491805459305,0.12353664542449373,-0.1143750269259399,-0.0148742416428038,0.10199718702087407]},{"weigths":[0.1644630591148667,0.05579383386542187,0.11320887329699696,-0.1409306986435589,-0.15463743922785085,0.03875018889896953,-0.022214686679263058,0.16407865910740059,0.1670985067079169,0.16402602857779026,0.045824878041038529,-0.17907346109351619,0.16384873086949917,-0.11774941681397562,0.0777567179921204,-0.11491686833471122,-0.15963627805196058,0.11192449540655612,-0.1398135924503969,-0.14366377390605326,-0.027346874994779278,0.05508183504180948,0.05660502285501589,-0.1550551642873355,-0.04398081076347358,0.09505356518214553,-0.06939524828329676,0.07621682581625025,0.0475748691310134,0.16907481956314214]},{"weigths":[-0.16566360725590804,-0.14930400159256447,-0.021573583910607969,-0.08664106440580516,-0.02652568778188742,0.17199081822311405,-0.17757949682194769,-0.10101255685426396,-0.011400392234623627,-0.099706637043235,-0.012743657656263848,-0.1445280805980874,0.053228826000033317,0.12295468878387099,-0.09159737984177663,-0.04899470360206093,0.16539179945899888,-0.12077942605706318,-0.14309490194401823,-0.03931236098348931,0.132643137205313,-0.08885724122076388,0.1472415563674116,-0.02773966310562488,0.02081576097770953,0.02930618343115015,0.16511117322730274,-0.04426668586356585,-0.04332329166958633,-0.06133375090302836]},{"weigths":[-0.1061689379733447,0.08680610208197699,0.01254766884139867,0.0664171426299603,0.17764546926644948,0.03265262534561742,-0.17420222561557775,0.18896020479478829,-0.014127955075156282,-0.07766896183549808,-0.17917203490080606,-0.037745387418716188,-0.01765508667136394,0.13895033799225424,0.12658907791920719,-0.007289741365369465,0.11609749980270033,-0.055018526122241968,0.1095211008829665,-0.08286348579142293,-0.035544032180599937,-0.07139294719329817,-0.11056943230803125,-0.05858451008743871,-0.10664502626227385,0.05574525005658417,0.037636215477909417,0.08261538258058061,-0.15437890091014534,-0.043910483878441129]},{"weigths":[-0.07817732022625788,-0.15527306864043267,0.02465639725086961,0.09297248392471065,-0.15307499912110779,0.06614850179730633,0.009055534212974377,0.13913513612675638,-0.08411650593682738,0.038563828306876577,0.163188363355002,0.13243432438933204,-0.17640956623313074,-0.01954204881612878,-0.07959346680542313,0.14617428762575594,-0.01794935127072485,-0.0007960473167468319,0.0749132907896576,0.052637539554059888,0.1424615238779184,0.07354019646208733,-0.16614750612332528,-0.10530015476335114,0.1129144462565874,0.0525940785994878,-0.14886393937461055,-0.025419711478410303,0.0012559597520226348,-0.10550369830785955]},{"weigths":[0.05845531500532382,0.10717661432381297,-0.1342166311386067,0.10129274846351939,-0.06746930648288029,0.10870730294281482,0.08882527145824505,-0.0287936833709112,0.10534999413848005,-0.05787116701489012,-0.1428910534726727,-0.11579397241756406,-0.07785308393335765,0.13201635892021425,-0.16984859240278137,0.1344351207024707,0.11765848639550336,-0.02506203475733467,0.03153691270405122,0.031453690889181009,0.06672436268217294,0.003150026782849444,0.08309870769250927,-0.13070548977611116,-0.1254744812832522,0.16068476888929865,0.14012554283132515,-0.1290418080919427,-0.07530641073214213,0.03268253395679141]},{"weigths":[-0.1307713321628358,-0.011088313534280995,-0.0035103481395597887,-0.1161172681277516,0.06950956553838593,-0.13351472222631426,0.11524530981559157,0.029323796102195586,-0.07569588547943906,-0.17340730475798153,0.0340948186452534,0.09425548975119398,-0.15822020624573533,-0.152715027622401,0.05725348210690378,-0.12183045448356657,-0.14336215477178869,-0.12731590494755413,0.07939164994187227,-0.1023064490977524,0.16170446611202159,-0.013984749579521188,-0.04384733518303244,-0.08786153346794332,0.037801419188336477,-0.024952955351400888,0.1503024604603105,0.16828177497908734,0.09352069629494234,0.1646006352984697]},{"weigths":[-0.12590725261291248,0.11889048979418744,-0.15234023844210227,0.08402938106135487,0.033310685883708179,-0.030235424128630667,0.15008546345175434,0.08435355755585304,-0.16397480549559044,-0.16035106701039718,0.10247630304830825,0.025401506608357838,-0.17399822636726634,0.04294895020214459,-0.017598056480267373,-0.05096380097210665,-0.015504976339350557,-0.17920963523575426,-0.13830583279983109,-0.020031334314566445,0.16812430557975548,0.008909007863821636,0.12048074069430531,0.0329618524023771,-0.1275529272372332,0.015039170388882723,0.1042646490476319,0.16145800728419033,0.08653734456582797,0.08238964851224122]},{"weigths":[-0.02814814379510049,0.10384894002108169,-0.042482249622689569,-0.18062564299827187,-0.0936640028315429,-0.10298241467887795,0.15776493057188988,0.1576889640869341,0.06567270573669544,0.02213433722125838,0.17135997092473832,-0.18012819906353218,-0.13203479534664629,0.15404588970600906,-0.12464402107276859,0.07235721730192038,0.12065609192974768,-0.05444001348200772,0.13361893936804984,-0.18323215286100423,-0.1678550219380264,0.02229454194328031,-0.14238151380173545,0.013197197620707886,0.003056447163800723,0.13096819654943862,0.1246800369988722,0.13281715477955928,-0.09622474290180395,0.07052624431099008]},{"weigths":[-0.039680905824236719,0.06833934484861926,0.04065344943972398,-0.1784463143548899,0.17955808876272984,-0.07573517319088384,0.09569204215611862,-0.13357529229231125,0.12309374128089872,0.1489687377551514,-0.04266113718887268,-0.06316513498326991,0.11697286042718791,0.154882750689082,0.033698421512761738,-0.11646882768238401,-0.16621561211689968,0.01062104459847697,-0.0028441375331114749,-0.0591455412714745,-0.022045925600578485,-0.10934856200378615,-0.1676565813384425,-0.17375293759497854,0.14742368440001733,0.1153676849481295,0.13072276004187045,-0.16632489171861634,-0.1508677037079693,0.04372777013035508]},{"weigths":[0.1612546599167919,-0.15887860118767703,-0.020339622892466347,-0.057341579678228258,0.011796702240761187,0.0404473812718387,-0.11100741673626773,0.0734504563907822,-0.10351445780071912,0.09971269534666916,-0.03439357465707198,0.003864759830816828,0.05200419815739461,0.05988780340822838,-0.10669303483592174,-0.14539374708977965,0.08142202523801442,0.13865587706374495,0.13377760661689223,0.06721289126192236,-0.0916827167166295,0.12691782103656513,0.011405375632684813,0.1427701006755553,0.11651922029994852,0.13335890174298443,0.08607020036264121,-0.06483401205643913,0.10884396221700023,-0.10292819482185699]},{"weigths":[-0.16697430237845957,0.1364442273279915,-0.011984440063256027,-0.1805190413203256,0.1773907705565581,-0.179310710399022,0.09586931793266467,-0.13966302542676835,0.13943606191617925,0.16887409957265926,-0.14206590181324206,-0.05212171548162102,0.050818273219689309,0.16210942150478922,0.00796153502922005,-0.01468241588557997,0.16669468168711466,-0.1621942583522252,-0.11442697078790602,-0.10074566388171502,-0.033022766284126089,0.15718016737678459,0.01130624371895369,0.0463788413654227,-0.061185940458061329,0.06347855464284327,-0.08153630085184802,0.01448237815201274,-0.11402200800917303,-0.12815476089069689]},{"weigths":[-0.14502369963005555,0.13647901531962623,-0.02549540505653812,-0.030397841537526686,0.13002804196609403,0.10869574991279442,-0.09833084826114383,0.03917017258244197,0.08123651895923404,-0.1652104229450531,-0.053342228454885818,-0.09116692214852555,0.11286528305064976,0.009244106211872234,-0.11529395774506332,-0.13426322819594173,0.012392788450813947,0.13185500822342784,0.17429052094627113,0.16044193596894566,0.14558746963826578,0.04702603925830131,0.00664615019001909,-0.037292814119893557,-0.13755923080984348,-0.10701453419515708,-0.16963740089818619,-0.06893254735934657,-0.005766174040572196,0.06947012533296228]},{"weigths":[-0.0461806484693891,0.019626427524394937,-0.0021016470770769798,-0.08899274004919573,-0.16704725964428278,0.03838838851312007,0.044913007728697208,-0.15366468375783397,0.14651213473389908,-0.1711495815467713,-0.16791299972511099,-0.04348276977580951,-0.03141174896224448,-0.06212167619098067,-0.0032159576477285365,0.18101856546047799,0.05427817612329466,-0.04830081016427677,-0.04985417368588021,0.14172329444268245,-0.10206684419714225,-0.05684500160079721,0.05728658769449146,0.1342584508317758,-0.03511510693811243,-0.127691661335267,-0.1364443170627689,-0.07072986744702259,0.1674399442942032,-0.08945969194792174]},{"weigths":[-0.16865532608811868,0.09332008980022319,0.05494788871183062,-0.060211027703579899,-0.10874931007345254,0.051957175276214118,0.007423452651355544,0.10857712675755133,-0.1722022597907239,-0.0900602619915644,-0.015639952254988048,-0.0636422178723931,-0.0972084147787724,0.05876552372664362,-0.07223403032734584,-0.04654434334479732,0.17194660586574868,0.07957454881748345,0.06892319948830221,0.10005456010011701,0.05793356480401698,-0.16458256709131137,-0.004592185003562016,-0.18170159354916624,-0.030258192521164647,-0.1290703705823974,0.16261757369194264,0.18154927473124,-0.024871332007549243,-0.0018563105592177205]},{"weigths":[-0.12489558047562664,0.08636278092351846,-0.12698000046173175,-0.0031186453679023058,0.051901219536759048,-0.1796902241854231,0.05370088709317548,-0.16957887557345767,0.0996126704306578,0.05272477285557262,-0.128116398472177,-0.0014365279736304265,-0.009059099236893897,0.07976109011104429,-0.1356720538536159,-0.09074616668473455,-0.03104569659534846,0.03539028564784327,0.11171543891485293,0.17532097154135316,0.16932730201070804,0.055566747629001957,0.07475881228172199,0.09498892812082248,0.05895483885017018,0.08785239481303711,-0.03380143713317657,-0.15015755418133518,-0.17290756007208486,0.1745769617240345]},{"weigths":[0.12292440068949025,-0.14011323765880463,0.05453632717311366,0.09194951008003546,-0.032782546338915027,0.03661771986618906,-0.06303856176374881,-0.1280268371803986,0.03599712134899753,-0.07452037891150774,-0.10370095227303192,-0.019531800035308565,-0.008168272392959605,-0.005954279682252353,-0.0579440846399555,0.12423120007314995,-0.14318600987031034,-0.05693235504822122,0.1800192860848855,0.0014176191966259139,-0.02360713576862436,0.07085416615005293,-0.11274697519838944,-0.1113002437629124,-0.09052650607984661,-0.05651886847695686,0.005276171473388324,0.007339957590049447,-0.011252435524983756,-0.04184422288846241]},{"weigths":[-0.16310766116575474,-0.0019096025827901394,-0.10782683397718396,0.09001526702281428,0.14047832213160484,-0.1009547689731464,0.18135396136590635,-0.14889558284043659,0.14070542060394515,-0.05007386297888918,-0.07629851288393244,0.11234430174798294,-0.10266209280334429,-0.14470411849586568,-0.0037420100913671935,-0.08696574739091417,0.07443569013617715,-0.06751877023695434,0.1648186424742213,-0.1383154183472503,-0.13154979189904543,-0.0753782246448399,0.08052979728704966,-0.15955673487497186,0.05812320090481861,0.06622612756325307,-0.12556053585527178,-0.12355799605621742,0.023086703390293015,0.05771123689540978]},{"weigths":[0.022816547839732836,-0.07730999623886022,-0.007773270081113012,-0.1502559548176084,-0.16916402575896664,-0.18253923261099548,-0.017212036604596624,-0.1270491493504037,-0.023294971117028174,0.05378735291771306,-0.12999652792620979,0.11601538225373069,-0.18192828673622586,0.060499713775130869,-0.07261442303271346,0.015313970390773145,0.157787745018483,-0.029909509480551299,-0.0748927255990014,0.16039621783678419,0.08103906227070654,-0.06653089806601768,0.18250214496610615,0.012248319866187633,-0.01915373596778254,0.03244532229680797,0.07428812352131298,0.047566487204834067,-0.11143084112616297,-0.15557749855224188]},{"weigths":[-0.16718497429299088,0.0667075341265297,0.06547354472959513,-0.17451020959258468,0.13949111485882227,0.006137003023242785,0.01275877276326681,0.06761588382187268,0.006782785149977576,0.10984532862069353,-0.06346366782576807,-0.12683730922877266,-0.03482740821217723,-0.06882654744403426,0.1655535198692169,-0.10184506752883839,0.10147318247979349,0.07653526815840248,0.0642983842997602,0.16972808651946665,-0.0022667615466694138,0.15498099160257315,-0.15084380899717038,0.10983397948283193,-0.13543329858905424,0.041612460478420567,-0.08542475351897949,-0.14100350164515247,0.10535352056898183,-0.1576123986085517]},{"weigths":[-0.11780854502629638,-0.11833426214129302,0.1605348556019381,0.045341467269546849,-0.05539182511037903,-0.041915180102916328,-0.03235397929276826,0.025259174043375845,-0.05838663115092546,0.08218922616868997,0.016038710261692198,0.07212188288337603,0.11039665378825946,-0.00434274337676113,0.014406374878871979,0.162035679312938,0.023194590102717285,-0.10642998146432094,-0.1094416465727414,0.06351384903631539,0.0911608720533365,0.1499377485281707,0.04183697354319147,0.02488301597000865,-0.06018770466776421,0.014720836859454532,0.1224683498017667,-0.03622448936311732,-0.05438816729912037,-0.0793161996169919]},{"weigths":[0.07430424992031404,-0.07627957053923799,-0.02269261440089969,-0.09056461956948102,-0.15956131223844068,0.1540752208675922,-0.04209867973469818,0.11613203710002743,0.08632692144078737,0.13826020806012496,0.1785059111205852,0.17766893651782374,0.0767410491832512,0.037278192091468428,0.14234573573812574,0.10253003696117698,-0.038198795232175768,0.16928553279979995,-0.02230123221041374,-0.051615144100548477,0.05624858680018835,-0.0671623903201036,-0.1568268397036132,-0.022743351920626915,0.17063432819879,-0.14384814533189828,0.05105391604016352,-0.001602232455646682,-0.04683890574901968,0.02901022867940676]},{"weigths":[-0.10734824690906848,0.11078822004131547,-0.16232660742193284,0.08163003043125848,-0.025606938556828424,-0.11811880673412503,0.11965333791848333,-0.03412939454171644,0.04766097092681894,0.010589137861038196,0.026777052172904705,-0.12500565200076753,-0.008674389285763348,0.10807734199790027,0.10890523083306833,0.15399598112259015,0.10754080371245303,-0.08237398870355867,0.015112809233304157,-0.15078944136268336,-0.03798971758436419,-0.08894150822875333,0.13714813330050278,-0.12476170154359172,0.1669190771311576,-0.13875977741074772,-0.0729234468923064,0.06549345203714696,-0.06036428581066359,0.14365932959181813]},{"weigths":[0.1635727829087703,0.1276325591897002,-0.0551996490987381,-0.051230995210343067,0.035985764241022417,0.1614692389264789,-0.045417351223273259,-0.1541406392593203,0.15864087374393436,-0.13433099317466855,0.09411610600849956,-0.057452982592435867,-0.02168286716129043,0.16067882162768006,-0.03481338163317354,-0.14736647253783848,0.11313595704428624,0.1621496380368173,-0.11355980850910254,0.1298771872993247,0.15749284738692488,0.09690967672017095,-0.1280117369043224,0.05184254332622364,-0.015213303331291738,-0.1402079070978139,-0.13592626734693787,-0.04815052539224107,-0.12758532407626639,0.048418412556904367]}],"Biases":[0.012121068829652322,-0.00018537237620456,-0.0017270344834599556,-0.011623591504790674,-0.000003948642175063845,0.01517541333547986,-0.011121655505278643,0.00020724047839018093,-0.008778094385152183,0.006053637133270573,-0.004436489966918158,-0.008011480604175867,-0.004591310001748103,0.0003174511740642219,-0.009902683665007295,0.003788799250998655,-0.012069804560641244,-0.001986075552492689,0.0031321200335961117,0.012346957971303445,0.0010913224708048789,0.0009582036403145611,-0.0025200276760236515,0.00005700728118790585,-0.00018863444853434313,-0.0106887618576625,-0.007501477041804609,-0.00227104564162842,0.0024695845084712045,-0.014275007472736398],"_Inputs":[0.22086988330576855,0.24043293741630757,0.5027330686252913,0.04005604126725105,-0.0020859177447815748,-0.0033950308568053476,-0.008583740138867872,0.4481156943718651,-0.004908664668535772,-0.002778595219365638,-0.0007374440288111507,-0.001710384441054225,1.0656205722370243,0.025596088192526676,0.33520117161129078,0.012100426723698111,-0.006106360781727805,-0.003798727738060753,-0.005048632695115719,-0.006926756403147742,-0.006560549039709056,0.07531498389155254,0.16751682468606389,0.10278545770983773,-0.006291401870590739,-0.013619752155910877,-0.00022360104271019297,-0.007892494617013442,-0.0013956667060449928,0.5368019805257893],"_Outputs":[0.17293139003595407,-0.1636279261766766,-0.18912484084068807,0.12875544000680223,-0.14304563263401508,-0.01278070258438976,0.288648680190125,0.4598886226624138,-0.12908094383572853,0.07158588269982795,-0.2865003036588958,-0.16506920877004517,-0.11408522924233107,-0.1571215885036193,-0.11228476662682853,0.07086402942109202,-0.006679650508671135,-0.07227700609902221,0.12589809859440782,-0.12757540516850217,-0.10060724011168416,-0.083287643332058,-0.10730786732232994,-0.24847121586407093,-0.35545628631021106,-0.04850188982942062,0.1349401373094252,0.14563036724268287,0.024298637825382217,-0.06228900903258778]},{"InputSize":30,"NodeSize":2,"Weights":[{"weigths":[-0.12938680887752497,-0.012553725532963925,0.687186520292663,-0.4467326401670636,-0.5266733967011835,-0.5272822429220643,-0.1553930100898421,0.4053337384376011,-0.5644090111371299,-0.4276102429051547,0.26516637203403289,-0.11262041287589275,0.13955856080982746,-0.6045716694630352,0.5715300026860185,-0.510324778586878,-0.02572965940250695,-0.12214072174397987,0.17369335785736979,-0.44105617789975828,-0.5404569022906599,-0.3104501254914399,0.20645837435481055,-0.4736215491816633,0.24004833802055909,0.3618172584057289,-0.13635603787365076,-0.47850559379725896,0.3748911952484494,0.43367045352976549]},{"weigths":[-0.6876150338725635,0.5803034112662162,-0.5481728538323144,0.07503656528899011,0.4127409834828593,0.13048705821541935,0.4422766090879923,-0.3521406440092545,0.6480786836728828,-0.18336877569168634,0.028146375945872185,0.7012159743963049,0.603827857862218,-0.4977922061431212,-0.5305311104612688,0.6409551191102433,0.6864002167013764,0.5570291331184879,-0.31649827769466778,-0.4044914832119505,-0.17315524846706269,0.481166757669538,-0.13674072792358256,0.18842755645086277,0.3865692534481909,0.2869303784813913,0.3305499792140222,0.4022682477748425,0.6938638866188723,-0.010170932351091815]}],"Biases":[-0.025215798986232986,-0.033144046531543517],"_Inputs":[0.17293139003595407,-0.001636279261766766,-0.0018912484084068807,0.12875544000680223,-0.0014304563263401508,-0.0001278070258438976,0.288648680190125,0.4598886226624138,-0.0012908094383572852,0.07158588269982795,-0.002865003036588958,-0.0016506920877004516,-0.0011408522924233108,-0.001571215885036193,-0.0011228476662682853,0.07086402942109202,-0.00006679650508671135,-0.0007227700609902222,0.12589809859440782,-0.0012757540516850216,-0.0010060724011168416,-0.00083287643332058,-0.0010730786732232995,-0.002484712158640709,-0.0035545628631021106,-0.00048501889829420626,0.1349401373094252,0.14563036724268287,0.024298637825382217,-0.0006228900903258778],"_Outputs":[-0.08648133574736308,-0.06845008795033195]}]}