{"LearningRate":0.004,"hiddenAType":1,"outputAType":4,"layersSize":[13,64,64,4],"Layers":[{"InputSize":13,"NodeSize":64,"Weights":[{"weigths":[-0.19588677980327527,-0.015553024399353478,0.3108281304050514,-0.127075859437083,0.00208254480404272,-0.11320373336576577,0.07457040846707246,0.02266507236354477,-0.035147424599293968,0.1366731025729745,0.1383225579639777,0.1198702550092148,0.4552110164661879]},{"weigths":[0.19208054916154555,-0.01137967403797659,0.31622922344835999,-0.20768438780236074,0.05798800913289776,-0.15518419670561985,0.08516493554410946,0.1461515720377808,0.07359907741035753,-0.049676220993008699,0.4035100970348825,0.29919078917407157,-0.22908307649831254]},{"weigths":[-0.02794104123553671,0.12124618584969178,0.005997166353908484,-0.0692344563235419,-0.011447509083297354,-0.06535331196435418,0.13091186440802705,0.22603859350680326,0.057165634176394437,0.005349061945846521,0.02434395085887271,-0.07016815305876093,0.01949992716537909]},{"weigths":[0.07618895227866632,-0.003460169205376194,0.051280859365285907,0.05283147804004055,0.0071421389663064598,-0.0504864515110197,0.044215522974038589,-0.22702435341871222,-0.08891821209183298,0.26000807681883006,-0.028023923325971459,-0.04170967737790214,-0.0791937082148961]},{"weigths":[0.06588487233480679,-0.019093208739573036,-0.12619558615985339,-0.21581478379557562,0.016022299953621985,-0.05368983572969587,-0.09291482911872105,-0.030854573100895026,0.14463160967850284,0.01478285061177904,-0.4522893313256741,0.19899878867643143,0.020430334313878384]},{"weigths":[0.05003592485745949,-0.12454272518147985,-0.12442301932944541,0.041326217808057879,-0.02805344816147007,-0.05548122781227161,0.015550499119892918,0.018124679795141278,0.023392821305449769,-0.010339080795266926,0.019057834829829445,0.11221455646020086,-0.04430328564048601]},{"weigths":[0.1616444158990318,0.05132595941525222,0.03361604583684263,0.1267183443610482,-0.009709477170850682,-0.043022345180903528,0.021890065251606095,-0.08145689676551546,0.2837024424834889,0.20565546910031969,-0.13460554938042089,-0.06543533297505945,-0.011140957959385186]},{"weigths":[-0.09109589520550991,0.09131500785624683,-0.06355790642879211,0.007626086231345784,-0.00035835051092121144,0.057445866951974549,0.027200222594782145,-0.23213040873653924,0.0008937248950837917,0.07146638369368795,-0.18219455560580359,-0.02249920358408135,-0.08498006228249883]},{"weigths":[-0.1241273912256035,-0.018744862941828347,0.16187464837544209,-0.043093743063618888,0.045687285967996187,-0.015622217645968783,-0.10828898087978425,-0.22517282553246738,0.021092568330136259,-0.027250481872630455,0.2429888818950152,-0.05596908251918879,0.02528111598928909]},{"weigths":[-0.0977147603189888,-0.1126296758762117,-0.11414302393064356,-0.023481123814037179,-0.017446223270508468,-0.08603633209721434,0.05403350166461239,-0.34596642219954895,-0.013232695088529806,0.26441193065484155,-0.42198378288481888,0.07629230931795714,0.31742062250260819]},{"weigths":[0.34822950433366886,0.09244483416421186,-0.04809524722079548,-0.1692630733161536,0.06982809408116374,0.007972292725045245,0.004775575498197737,-0.007504519016310661,0.04890076406153077,-0.05563366817477192,-0.05022047810927758,0.1435705764310321,-0.3319277940726106]},{"weigths":[-0.008898213362220712,0.0809848970083223,0.13185730770279775,-0.016312825894289338,-0.05578798201799796,0.09374009425499889,0.03956495795659704,-0.010142086001994195,0.09589562675066389,-0.032708367895367778,0.15397456422279244,-0.0737904174104085,0.17703744905589834]},{"weigths":[0.09653955917140317,-0.09339767131640052,-0.12230509709469985,0.14910145657795535,0.028191978515500317,-0.03670887592337971,-0.01786727310411442,0.014998483265156909,0.14834336506435714,-0.021146662178580953,-0.12321388973776677,-0.0885074845545095,-0.02441827094000487]},{"weigths":[0.08381431696984078,0.06089458278682243,0.03876793253432483,0.02028968825939582,-0.03614058785412998,0.0187395926241994,0.03374802498274117,0.09649475625358886,0.008838244136557297,-0.022948393994772805,0.1662998320174576,-0.049630138110016677,-0.019947462665248777]},{"weigths":[-0.08778812096507062,-0.0825284110618838,0.003944951764598017,0.1817868389810275,-0.023849113514420398,-0.14822953076397347,0.06879687638672004,0.10197994792192625,0.048375894908276689,-0.08725716443329429,0.1556683448488247,0.016753611794020168,0.13725140825605346]},{"weigths":[0.05474755205386128,-0.036269180962387088,-0.01669355265902799,-0.03468705990769345,-0.005187056903060081,-0.040716411324604077,-0.06120068415167496,0.25739755734989397,-0.0117106438258681,0.08282037635872476,0.14447581268231267,-0.009915502746730273,0.20737680446616409]},{"weigths":[0.11514316246653982,-0.04728445565722878,-0.09904384576463142,0.06248311430450819,0.029797198381604305,-0.017608234124923885,-0.033643570648080937,-0.05696019537107799,-0.23469073961237334,0.00792523290561097,-0.12326950412661275,0.06235603440958654,-0.16043210430325456]},{"weigths":[-0.022553068092409615,-0.10320904688442483,-0.07641893150447067,-0.04117943357999122,0.03400010743906245,-0.011889232158713867,0.033198368514388867,-0.0716377272196384,0.12691551992729703,0.0033541933133769236,-0.12949511975430665,0.28002227399556137,0.025441279270103143]},{"weigths":[0.09358356295954014,0.002755420893648909,0.06553259665031995,0.15653824233525202,0.05951038852690123,0.052345767307646309,0.11674705939891779,0.06812233735444992,0.04899334826543211,0.09438212680665842,-0.046236390659882848,0.05281691619437624,-0.10425590487437708]},{"weigths":[-0.04076773072227937,-0.04537896794003572,-0.2478556057413555,-0.11324645393445043,-0.008122499454456612,-0.035097579347211946,-0.11079169447402419,-0.04115239929087738,0.17741536373182843,0.038888886797504,-0.27712930691952206,0.27599011661501746,0.10351364830961792]},{"weigths":[-0.06531494921296799,-0.005350713686544855,0.24951920602070799,-0.008332060894708272,-0.02064721364503276,0.010327027575260438,0.11402454188490927,-0.06785311231317577,-0.058452186228883467,0.0354951931028359,0.018003887222963697,0.04288094596027509,0.10887188751450211]},{"weigths":[-0.1203511166599326,0.03246589700307015,0.053608459245132748,0.04257132367653395,-0.02796944557738537,-0.03241023199337004,-0.0012193570866752353,0.23472924001362076,-0.01601130376429285,0.1917638498862314,0.26767364808269386,-0.03088251673445209,0.30616933429348516]},{"weigths":[0.021929545752973888,0.026010462332026565,-0.02412815617501679,-0.04368953427273041,0.02824207302939936,0.030459322977658949,0.011860178819016293,0.09063210420502604,0.09511570545342357,0.01203714350616831,0.19127314853909645,0.12411155067501439,0.07156107864851126]},{"weigths":[0.06638663537410505,-0.0004942685294853415,0.0030115597477034488,0.189221246239808,0.09543215488697857,-0.07096853729895292,-0.024629268178627336,-0.059635082031586909,0.12204294951536342,0.020774345350844604,0.06656513503445821,-0.041073117588098239,-0.077613033965357]},{"weigths":[-0.03837977173766823,0.0005240234892828861,0.059718205821333827,-0.0658298750476244,-0.018025002987414573,-0.13033257350473355,-0.001971661868153103,0.08460799584610598,-0.017685122457256554,-0.31939551964469367,0.32369096643788666,0.14651661804994879,-0.26236835406272676]},{"weigths":[-0.040808134723706247,0.07497305010279486,0.009509368878017899,0.13181106201825394,0.011419642301325325,0.0588782099020677,-0.015792541954479799,-0.18275435529433635,0.1975417049350043,-0.15120970300012147,-0.028651337846450705,-0.12442960898810446,0.016825855465168798]},{"weigths":[0.0845933135292441,0.04901047065844368,-0.09577551747349059,-0.026112651816468346,-0.03810167059839248,-0.1420473468540109,0.08084267667729003,0.22517487324722045,-0.04949977175378616,0.14234598492129633,0.0038031098280479297,-0.12634641794773106,0.08072079875879593]},{"weigths":[-0.022357947377680148,0.04594354089068836,0.22797105130287055,0.014136147306289666,0.015414618073429074,-0.02224995604165149,0.0953315527466983,0.031556019081101917,0.03774686232245852,-0.11793155530951329,0.2369368645576002,0.007078909355112207,-0.1996090233461035]},{"weigths":[0.044779115442598858,0.05377933865866569,0.3662580728927304,-0.1582240067800971,0.002561992681467092,0.044504736448331878,0.06685027103770401,0.09924983779707784,0.06450245765920504,0.0007928535572588948,0.37522172265744316,0.14228205485731949,0.03782941652576344]},{"weigths":[0.21139181978770625,0.05036349742341929,-0.005376188673925235,-0.1236328661178447,0.062336925491792819,-0.09294186918033487,-0.08210848491201366,0.06738106546313932,-0.023308781935587568,-0.15172191621773027,-0.05124812680923454,0.07511011384908252,-0.2660653135230099]},{"weigths":[-0.09724515088682213,0.029389411158492679,-0.12225521544750116,0.04232693076509139,-0.10200193385714496,-0.007071875039881248,-0.0476147606536593,-0.0767728703739705,0.013034211466343163,-0.1979136601366389,-0.17804415477556288,0.004730665164071879,-0.08482770450344228]},{"weigths":[0.018055445524819186,-0.1058885660626622,0.11167553992855549,0.012455354499134824,-0.05563648478441927,-0.06969615965147269,-0.07958826671158269,-0.0806316232905165,0.05783260883336121,0.2113915426439756,0.13818593999572088,-0.1069954443340203,-0.2060583180116711]},{"weigths":[0.30461700963411778,-0.05051049581011069,-0.1535113552775645,-0.09125657244258992,0.11086293985812733,0.00680103322762732,0.017799356084705874,-0.15071530670647846,-0.054958810083182128,-0.008462415708081955,-0.2425462278878105,0.08234287073344394,-0.33683254463607917]},{"weigths":[-0.06029369207372103,0.013679834284422352,-0.27314346830033306,-0.12186430313885022,0.01092291807955844,0.06164894363187591,-0.06963487971497903,-0.0805210133153004,-0.04910704169351959,0.005413394888414778,-0.36234025086992246,0.0065275467362498969,-0.10214390970588948]},{"weigths":[-0.07113890176360054,-0.00029309546354480193,-0.11643350858067113,-0.04499979567873766,0.00199584051275341,-0.08290678392327429,-0.009267773501617326,-0.06874850940452782,-0.015325667278491474,-0.2583295845904381,0.08869590906287085,-0.021103163224717008,-0.1749636872500036]},{"weigths":[0.08250559231446232,0.04293882789166986,-0.3090423812610701,-0.1784003894516747,-0.03098448263192093,-0.06443046438219005,-0.11355544666111,-0.11754747342578727,-0.0024637657390854429,0.017212276347135785,-0.3084628473654656,0.14901220682723069,0.14683786347006834]},{"weigths":[0.23432955504548154,0.1278262619099407,0.006574716922299394,0.026949981813766928,0.13032213202342103,0.11093847532984988,0.00513412350651777,-0.09528299981410039,0.04868751259004124,0.011297347833584418,-0.010335612627756529,0.022651075111286307,-0.2633414406982586]},{"weigths":[-0.12152335846313943,0.049732359169481588,0.15465366014281885,0.03470398377128452,-0.11667470888364824,0.08304240239313586,0.017394522138431013,0.08963131879341041,-0.02720406773499187,-0.007075948304570632,0.13953023302284399,-0.08383481447599733,0.1260375465618827]},{"weigths":[0.06919513880606154,0.09017356301796771,0.029529498609602739,0.013639335945518456,0.10304268477846715,0.11834333028936137,-0.02358895202998338,0.14784005113318819,-0.09414409392640819,0.027569038756657658,-0.05300539483167744,0.029316882433952777,0.0651677732743224]},{"weigths":[0.1348280900853624,0.11864257675071086,-0.187151109085501,0.042156732297105609,0.028678773366235628,0.0039042798320909957,-0.07093401718815676,-0.05674869753374695,-0.10932941968673392,-0.009941415713713922,-0.14941428853297465,-0.09767069508322328,0.020406214869491347]},{"weigths":[0.03630895104280653,-0.015528180206959437,-0.10265158184720443,0.10941559884161108,0.04355751678209962,-0.02900414346735712,0.049800097940612759,-0.11329734961100528,0.017213938215260243,0.13691394411703126,-0.04026463020738276,-0.10509881838849152,0.022925484623600398]},{"weigths":[-0.009262312237574682,-0.03372995177366837,-0.10733366325520381,-0.04004661424023942,0.06288039105965136,-0.1003806426586887,-0.00023896611231463677,-0.10333470059537377,-0.008879070709966956,0.17278081144219138,-0.1264245419523621,0.04333025375400309,-0.09757393270430837]},{"weigths":[-0.22000884642684719,-0.04531353959319506,0.031082009121604055,-0.1247695638843624,-0.0603485994173729,0.043049160439925519,0.033606589638257158,0.11816447357334908,-0.03121534796490563,0.1224706981681305,0.3003137062413589,0.11118680390400127,0.26857068533453545]},{"weigths":[0.21630771801098346,0.025723602244639138,-0.009411127252070084,-0.04907175597082076,-0.056738791857414778,0.056712800793548397,-0.007022120092147096,-0.04515934482891515,0.12400747516539043,0.2815926493782881,-0.138837375214393,0.06438683881334544,-0.16689319736178319]},{"weigths":[-0.010996066498995497,-0.06211874792750138,-0.05419365905664265,-0.09127117878342153,-0.08166168495252328,0.08229121209037464,0.08036231913524217,-0.029215571506748286,0.02014042079829344,-0.04028994190170667,-0.02430879463965356,-0.11083154432183609,0.011647730886983735]},{"weigths":[0.07395020204415227,-0.06798437078181347,0.049401713769327827,0.04375382501547203,0.0158012069154621,-0.14416438216209108,0.018489531541792699,0.056612811007016,-0.2025476374805883,0.15961721647547043,-0.13596716717356334,-0.049153248781445408,-0.008125034124100948]},{"weigths":[-0.023136517359733937,0.08829884197797707,-0.09057062676267165,0.03604512901518536,-0.04626505376176344,-0.0031111788837873729,-0.014345550642857497,-0.016533055907481939,0.09237184336450279,-0.09676999336364786,0.05726928952820782,0.03184096538653672,-0.01902573137771306]},{"weigths":[-0.20249379220164943,-0.06367027145547273,0.06517787611959414,0.09750049082550656,0.054389123081170397,-0.0038102945666186628,-0.03976623493935718,-0.007244138856442691,0.09172912661327439,-0.28438463167154517,0.06472294419052646,-0.13469785334388627,0.19561814358290637]},{"weigths":[-0.028155602741204857,-0.10722948601693978,0.12465228160086708,-0.05806988255076091,-0.02403760318295969,-0.04828480872411424,0.07813213170428131,-0.023403359058375724,0.14581396124850469,0.043720993904446409,0.04365566209999561,0.17345319516548567,0.10343976910273543]},{"weigths":[-0.03156208495541455,-0.013686014951745167,0.07623797512611301,0.2263338428616308,-0.0010813870896235292,-0.04586725890372296,-0.010558536018268625,-0.004544598039368562,-0.13009416001439814,-0.02040721162580526,0.1536866921257935,-0.0668832717793786,0.1455455258849405]},{"weigths":[0.07091956961429046,0.06757389925348965,-0.13207807596026678,-0.07129344383085144,0.025504062151087454,-0.06909318299756119,-0.02346751490109231,0.17342126835118233,-0.007431796856277746,0.3117314892595867,0.1774163860419308,0.012642481515796117,0.2764325397716671]},{"weigths":[0.027348869193597366,0.06091413502641874,-0.09982509101789541,0.024406930772643819,0.06394452685784595,-0.046269523579444398,-0.03005238034035546,0.01775834695897797,-0.05396712254976594,0.0031132063707271487,0.1239791975602045,0.15319337129233377,-0.05947867844955823]},{"weigths":[0.01164773609423448,0.09659370007364174,-0.15113671549402539,0.09810183272067255,0.003989604551468956,0.06389820110513388,0.030837585613984029,0.3495909572899924,0.12359753578040708,-0.1544962639865638,-0.02269799253502199,-0.061350234895110638,0.07899930980659945]},{"weigths":[0.17737505905150498,-0.0943392966117973,0.22825587155547726,-0.0475629174262329,0.10671321550800878,-0.022217258557923355,0.010190566694367734,0.12079293316217615,0.03660990036088654,0.0530414556402934,0.2868537575390827,0.04872396348188235,-0.30148859349894738]},{"weigths":[0.005931421332335055,0.04998470664593824,0.06154652785215937,0.0726659281890015,0.05975166184944143,-0.03461350711301531,-0.003511732373964043,-0.25372635919700328,0.09052085941225698,-0.010902026694873404,0.09335711661372454,-0.07837255974453822,0.061178106001219669]},{"weigths":[0.059746122167085937,-0.05779651031439156,-0.10308369166123752,-0.04172059670957108,-0.027976891244463139,0.0427416378612359,0.027768424228681096,0.05406219390978293,0.06419523307665759,0.1644188330060622,-0.08162204033609834,0.024022846564226598,-0.1399358746807164]},{"weigths":[-0.0631172413716677,-0.09129271343286538,-0.07440126533867632,-0.008472522466579889,-0.003966202320199243,-0.058307759407591478,0.009773067416686748,-0.07759371591974866,-0.10772351343913113,0.012764098148189667,-0.09380558363979906,0.06853843542691833,0.04749298941402618]},{"weigths":[0.07101658037145542,-0.11426216072335471,-0.16978647682086316,0.03535322559569178,-0.006745830740251187,0.04414657082346663,-0.020718340539203216,-0.05029834099138505,0.03186484265083691,-0.20249153796324743,0.06330710810754435,-0.02766266650142114,-0.18038709048444249]},{"weigths":[-0.04890119233415972,-0.08739948871185585,-0.03611226992349091,-0.13853351712363508,0.0467550078799219,0.02863586024757013,-0.08237389489997887,-0.19762237913845849,-0.0009084619706774395,-0.018101576018464829,0.09194032505735153,0.07638327713563263,0.069994509115278]},{"weigths":[0.07447943725487075,-0.10238269616713007,0.14187761342001485,0.11569359216537305,0.05415654056495447,-0.04211283856264593,0.030999572708253148,-0.030042561860942599,0.061660626546731437,0.056393258091471009,0.11414946245517606,0.04026213354349084,-0.17650498959136488]},{"weigths":[0.048085619934474767,0.010890068616471525,0.004455450012743775,0.17000630172412516,0.0467374835392495,-0.035752416361133177,-0.008233760743627403,0.015672993025214057,0.1460416514831349,-0.020076247092921597,-0.08952878849350678,-0.0658600675130283,-0.05634517605684576]},{"weigths":[0.053454153878554688,-0.06719076094883028,0.005701061881962166,-0.03286869760057677,-0.04275556430361859,0.005533130370492269,0.0922265219630279,0.06020224766841708,-0.022186974071047584,0.024603379739925797,-0.07648021023861222,-0.1394054999769429,-0.009417561650542543]},{"weigths":[0.1491453892630786,0.11542522101984153,-0.11232758807681538,-0.035070945753275437,-0.05107028899653787,-0.0759226828778327,-0.022298313226922628,0.12703554952555583,0.14220607478547493,0.26599120026843017,0.10305342142712182,-0.0011355599286319608,-0.12205983819526475]},{"weigths":[-0.2693929291306253,0.10000368295697529,-0.03598907173573525,-0.16555354824438593,-0.09801542340994726,-0.049841512404231378,-0.002105708163702797,-0.026189959447952047,0.07380552038304093,0.1035151172297551,0.05247675565041115,0.11098168377219105,0.26873647433211547]}],"Biases":[-0.03659656024405117,-0.15293579667907043,0.013804783069810412,-0.0662736507958525,-0.13812208128319923,0.0036012468829730158,-0.008418646102623329,0.009246070645616604,0.008808828594256038,-0.04322614121169049,-0.09063371170047315,-0.06869370510655904,0.08246464384893108,0.01374388858961645,0.02882437858615692,0.03986421565956276,-0.009921502696257608,0.04533040082640295,0.0302100125610848,-0.05131610259707844,-0.06760413854530752,-0.05205187408847228,-0.01412900165235061,0.06617142481749613,-0.05021917410476455,0.049970924407622688,-0.03611086475148364,0.03349685808325244,-0.10292194001290461,-0.037746104176002218,-0.01528965935772306,0.0038983846917733735,-0.05070516671968023,-0.013091018401420065,0.048679359565688289,-0.0685543375781734,0.061375071256761299,0.021434944120395758,-0.012259909689416324,-0.03530050375443499,0.023638950625668035,0.004793302685048894,-0.009808453895129414,0.04311537214048719,-0.04589205964895524,-0.05919891531117413,0.03760295390238443,-0.029031055853617824,0.026145832005242586,0.06692759541098878,0.049544828404861736,0.052139188944962628,-0.009431083791319512,0.07305558936140527,0.018997613916319116,-0.009132770399257558,-0.00112513315537442,0.006052183601300382,-0.020226733001389595,0.025557488124162667,0.042939981083807577,-0.06331351975055871,0.021734240225295549,-0.05248990872812247],"_Inputs":[0.07719926536083222,-0.0006764674326404929,0.00873612705618143,0.9969772100448608,-1.2240448305353518e-17,6.066867446452013e-22,-3.893989488200674e-21,0.0,-0.7769833207130432,0.0,0.0,0.7180730104446411,0.0],"_Outputs":[-0.06230002591657733,-0.18473793274139325,-0.15220966855767005,0.031867278275990219,-0.31876839373911838,0.11006518673904095,-0.13676502300749178,-0.007650889329019054,-0.0988888699802308,-0.010035657674145084,-0.16788563512220296,-0.21204319882622825,0.05874652662836892,-0.0017650621232742168,0.17781526985449304,0.011370565946618845,0.28755625188924296,0.10440472373258873,0.19392620226415309,-0.10916975934536907,-0.002561755720455902,-0.02818920521814672,-0.041004082604353318,0.13565095497642949,0.0006657585219411732,-0.06457061074685475,-0.10874939986243995,0.023583384409734836,-0.20199581730050854,-0.07272188942738495,0.011587155470659203,-0.10300834502398558,-0.017646268298601304,-0.09879438173863778,-0.005939052675544537,-0.13385897252334889,0.08474379685267161,0.008910201195574893,0.1010765820490113,0.03023579583215287,0.045797767398574749,0.0012527749420360602,-0.04678911536328587,-0.039326189765873969,-0.23340155400336017,0.11268647088798933,0.021995026915080278,-0.11484013562615839,-0.021503554859211635,0.34386652938592807,-0.002405071686342103,0.2296029125306872,-0.05219947305309276,0.047936333070803988,-0.03420476997255147,-0.07960484801694988,0.11788334682139845,0.0007554797500177483,-0.10681836753073496,0.12895790235394267,0.05541135399859402,-0.1747253903183668,-0.1140833492973403,-0.21637467029874414]},{"InputSize":64,"NodeSize":64,"Weights":[{"weigths":[-0.051357504686009799,-0.09127632884945242,-0.07093914605655441,-0.09872886602710993,0.07650543233959266,0.08880247243544472,-0.10699023826736839,-0.016751330905913628,0.06291737175563597,0.0165594202537942,0.035631612989688598,-0.049235210685019747,0.07894954065532564,-0.03065940024033217,-0.05151104010915467,0.03321299210637917,0.025163005037746226,0.11411774822012118,0.08521154120109299,0.16043577537097634,-0.0633860887862886,0.02530466784133113,-0.0053464473106395299,-0.08898711513583786,-0.039422439630953747,-0.04358840483595219,-0.09477558892403855,0.11087251575926509,-0.11470634669348731,-0.07777351100009339,0.0604185203507844,0.03880429279049515,-0.02945943963741361,-0.03608644527439005,0.07619233637894672,0.020155296051984314,-0.04952678743965235,-0.06679456514431316,0.1196101284361496,0.012972041511202676,-0.02983413526244602,0.058137231506662698,-0.11863280254062508,0.055958144462487518,0.008683114583195236,-0.06233062532779614,-0.11012305015930757,-0.05675739962328526,-0.061723223319977187,-0.05919427818420072,-0.0694725125699377,0.0502617928084265,-0.11713189190357724,-0.11918349429705905,-0.10951645989728307,-0.005027632158412262,0.10729547825535173,0.041361280899089348,-0.05189573193919094,-0.13351186186270817,0.11656391864297726,-0.11412026547946119,-0.01067765508911132,0.04569385497351943]},{"weigths":[-0.04679311985056594,0.15882015678030876,-0.039639182423834618,0.08234877466722469,0.00849258902580942,0.0036604262418288905,0.10577873013883348,-0.03996660773483787,-0.03594969703690482,-0.03265490639948491,0.02894637614552919,0.007246828494333749,0.03953831431425235,-0.01468856380610419,-0.1197595001063371,0.0888438541026719,0.000738534012187649,-0.00206102601209335,0.0802905394704612,-0.08496401043640287,0.09951832599701645,0.04883822861506292,-0.07074900047486049,0.030865925597511915,0.11447457199814813,-0.08479867924034021,0.058449257115129969,0.026314303864267687,-0.08246751053482014,0.12926712679376529,0.041025504240994468,-0.09127007087733043,0.05693778456886612,0.07157465821961497,-0.06500811250420412,-0.10660413226160687,-0.0758476212857895,0.031956734062861039,0.11375733444208403,0.011804851803577738,0.009301425834561945,-0.018651891026739307,-0.041683283321803387,0.07317721981869972,-0.05565935110604972,-0.08910439581155454,-0.03952151891885509,-0.10614497961588487,-0.0976607887673223,-0.0011301370192820567,0.05326053361314602,0.05725847716313412,-0.13256424303810297,0.0838985013543882,0.02238523720974634,-0.09422690846181733,0.10220689262459157,0.12720529125087616,-0.11387903797993664,0.0528010503110401,0.0750185198813911,-0.010201777291400656,-0.09550260923978966,0.04072157961440336]},{"weigths":[-0.06066007225078411,-0.13049386560756516,0.06340223809675765,-0.036784440538849699,-0.04092782178714848,0.014997680728443045,0.010968391118202073,-0.047726084684650418,0.06513060643436718,-0.03488864034337843,0.05959558890532455,0.07107765697622536,0.011389870301924461,-0.08755234113817138,-0.02817841855058556,-0.01418935286661995,-0.10829966979797641,0.037466935227782698,0.05444335104467312,-0.019017719346182215,-0.12457667224053346,0.04680490248744141,0.040483828592995239,0.06852914595306178,-0.026311986896839627,-0.05120139699149523,-0.06061107114584325,0.060069499080467329,0.036455012581853577,0.03678814071980187,-0.1431908508480877,-0.059984564814814508,-0.08529111693464883,-0.019306990868976728,0.09233472800956952,0.0020209440365340175,-0.0424950350256577,0.025094200296652087,0.039144989647791689,-0.09439396560043549,0.08567837680626728,0.08220394095441694,-0.053446192018120588,0.04987442570193759,-0.09313265166937336,0.0653710011252473,0.06138802830285002,0.02905108278995847,-0.10961170459849921,0.1262824441557658,-0.0015481853960301242,0.021212196454539854,-0.005997192017679304,0.001989409644373929,-0.06285555687405799,-0.09985143388076887,0.06597001913942902,-0.11931035367798129,0.008554611088345309,0.14430490012167902,-0.10145539114801243,0.06339174271607728,0.10737499748594931,-0.021300396711556828]},{"weigths":[-0.04400864050771252,-0.1365870650577552,-0.07850730175348106,-0.02694768638970815,-0.046129988751540857,0.08586643780292797,0.14077454691005543,-0.19206667391150074,0.014444497684057466,-0.22552735078969195,-0.03941134950844404,-0.016583450187967278,0.10438514727989662,0.016793322806784844,0.09356229039594014,-0.12603601224927403,-0.14280818258202014,0.009052685535617828,0.03984259908457284,0.0642771829473284,-0.08345626663251943,-0.007900598367869879,-0.08142587257528879,0.014610313715975137,-0.23699802101612858,0.006794297129046286,0.04271963232102506,-0.059230301299493127,-0.10617213961735429,-0.14931321365941778,-0.1894797739713914,-0.026385899028557398,-0.14251955920260135,-0.0868727054803621,-0.024415991527164724,-0.02602263322100184,-0.04122962696305636,-0.1430383050177397,0.004105874101380986,0.06587394480427054,-0.07712226414422545,-0.1331797535276004,-0.14850864023863737,-0.08486555635364382,-0.0415082923435649,0.191314586350169,0.0463410092501113,0.1598112932049862,-0.0480652718365082,0.07172133098717994,-0.19739992747050687,0.10980006358283122,0.07408081763614581,-0.12374399908047004,-0.10898459862753388,0.13463382841927105,-0.07738568521243822,-0.10104608642005518,-0.028097367439817737,0.1009647499746119,-0.04018447701021835,-0.04182044694531456,0.008582045920158212,-0.11692745000078322]},{"weigths":[0.06391786874973257,0.11824196062435784,0.09293553264070825,-0.06966332641607093,0.05374196661782439,-0.01990211127320014,0.06506519593406579,-0.03090414379375539,-0.11975173551153125,-0.06490956378764096,-0.0452735488014685,-0.0195886626719173,-0.0585990997645674,-0.03508842749750014,0.04739879439150262,-0.10369409227813273,0.09939212161589443,-0.06050841034243982,-0.04286751289694596,-0.040073233684699827,0.08001033162382004,0.007444813870348293,0.08377895554749708,0.07565845843980747,-0.08825769335157227,-0.07502309934239562,-0.03246309469154007,-0.07884440533016633,0.06933262347640068,-0.12140581831653544,0.05601564446525285,0.047627199442085,0.008012625724874125,0.053431311190963576,0.08019457834093934,0.009545569145867463,-0.07984675022371715,0.09552326785154962,0.07121189412541895,-0.12855487288244828,-0.03230951933396727,-0.047416880284401639,0.06737827840663786,0.009179849800753443,0.0972205500715548,-0.09476133047534581,0.0729012705161273,-0.031885860610820788,0.11759381230824634,-0.005125416928471321,-0.03951890801649247,0.015261869703988705,0.021968962506082918,0.13259738152463294,0.10092620564883127,0.071584215481933,0.08358397308634694,-0.11794871243197749,0.0193371186292766,-0.04645935626424361,-0.04803363578120744,-0.05123046285366882,-0.021657004511459064,-0.07594211215877155]},{"weigths":[0.06190542934311346,-0.05080879123311395,-0.05982546849309175,0.09726540835500779,0.06337753795031018,-0.08543801493692815,-0.04887904733331439,-0.02258707217520177,-0.0037669781219565017,-0.014610885490360468,0.09538563599720176,-0.11293810428988839,0.10151517796854888,0.09391169112339837,-0.06200391561178884,0.08466076204598856,-0.12635001661977084,-0.07985557643594854,-0.017967154146926908,-0.06809808033402992,-0.05837890474730207,-0.09784110813275056,-0.023284058588727585,0.1401246435883217,0.12805304043435906,0.11623740293290302,0.010781237413998226,-0.00863145532025254,0.0386831255188083,0.05264184875392001,-0.0914673084765422,0.030973318086482943,0.020310256800382979,-0.057387924090664999,0.10568165057589202,-0.09476313056361208,-0.12731803383752558,-0.09586195556473716,-0.02114037887260649,0.03279059576464532,-0.09485728020311823,-0.04713899407835211,-0.048154716844306579,-0.010860216894496147,0.03251985402775751,-0.09034369550591037,0.11569862392221259,0.08179843154588146,0.1066039269994912,0.08532806175020803,0.01143783632139898,-0.09575174081813304,-0.0626102641294624,-0.018460810649980908,-0.09905957258184754,0.033912320029786429,-0.013861416106581599,-0.03899790128500613,0.0650085244208728,0.07518146883947508,0.07694169940886646,0.008929533447486173,0.018869453085756446,0.023914303107059756]},{"weigths":[0.07052916135448237,-0.06766157987208675,0.10024987230988242,-0.05098642985375949,-0.014240712280968,0.049817902283386238,0.035133347457303999,0.03271366825954951,-0.050363671908283499,-0.03675980692972677,0.08429441599907688,-0.050324031091135968,-0.06361575186770266,0.012482816277437499,0.025367121838382125,-0.10731991854345474,0.026777842979483318,0.07032327319817425,0.02608095942897592,0.06063734065060645,-0.06740508347586458,-0.03712470883804971,-0.022136721871729077,0.016714990708133337,-0.02952958277120361,-0.02684276972020931,-0.04483370283103986,0.08049027157061369,0.092878298683849,-0.06590966198448158,0.04362185362307139,-0.03759822084704226,0.022591675397544518,0.06825888421887784,-0.11422037348362956,-0.10060599157599949,-0.021501207450401774,-0.09724660120518448,-0.06886132673838122,-0.03907712863354713,0.08766292636138519,0.05479666466362862,0.030364013660775046,-0.007894394230563059,-0.04249229832445085,0.14126650958156385,0.06280961634096918,-0.04079365848035277,0.033942423769229037,0.08808675800766905,0.0276560361049697,0.11565187443693366,-0.09207509816755538,-0.020356999235737105,-0.024087184795655974,-0.0017952874040685393,0.04338902297038884,0.03425225187947678,0.12982350882735317,0.07203317296067047,0.09274180289484904,0.08050721574650877,-0.037686160734978237,0.06117504878133507]},{"weigths":[0.109118042047862,0.07804215779481422,0.04777274952345944,-0.1144955395236886,0.020577104293119393,0.1021223875666733,-0.015199088755507608,-0.05172713570310891,-0.021022616559962738,0.07473010639481689,-0.05275940257434969,-0.09492624400350396,-0.10131783678915352,0.009096964999725142,-0.08729629463817128,0.0011401866427158906,-0.06681639037739841,0.054540885969741489,-0.1039860263767368,0.13118356926636264,-0.06974464930040773,-0.0834416619007563,-0.004690757080426154,0.0035395497330522128,-0.030993047850902117,0.03488734784970491,0.025487970774745188,0.11969752056032497,0.15453562733364874,-0.09689558328084748,0.006242821748791044,0.07346622513325166,0.0897818358020354,0.08957062463365048,-0.09061170334033314,0.08472531664088183,0.05721035834965804,0.07039696125063008,-0.08584149183992428,0.06323685177432584,-0.08830728276079104,-0.10250424348554156,0.10757496166628118,-0.14476960438104936,0.08213775563595327,0.02792106255837494,-0.010561958327052633,-0.04812684621557802,0.06663296771640388,0.06439664692829299,0.06192334214643573,-0.008846849923247908,0.010651501445644599,0.12142568218378445,-0.10835156653679236,-0.02113195690498825,0.09811410474589073,-0.04754720277013579,-0.017831872843970983,-0.043339940657563257,0.006218166157653122,0.0009585061063647988,0.0636988263219057,-0.06015809792783978]},{"weigths":[0.09091712860875234,0.006110404712307457,-0.026490457703770417,0.03655491454601541,-0.12683897029560638,-0.05171340419388355,0.02098924028149335,0.0714761882267041,-0.08335179482503726,-0.04013365979638854,0.07505166837532494,-0.010749490434945532,0.043009379134916089,-0.05405081433645848,0.01853356690651437,0.028216461149683983,0.00767359320346185,-0.06936267088367418,0.07222964811301359,-0.10805246083424997,-0.06329366550112982,-0.05210619949532222,0.0005201432487114074,0.07873693607889026,0.039978919927063077,0.0404852234943474,0.036044682215973389,0.017362702762873208,-0.11723664408763417,0.05924754779543213,-0.055006035029050766,0.0347706654569864,0.017320713546359367,-0.03573227605712271,-0.08632106669365249,-0.1193296948406711,0.04784740915285703,-0.05398038290558403,-0.04050792111074102,0.09768295164793892,-0.08659481675980088,-0.017504334749733818,0.07164306953329415,-0.005046173249424626,-0.009602245353397527,0.07150067690326371,-0.02457671654894383,-0.021925024052139646,-0.0238769694035815,0.14353233168070635,0.053812177173927697,0.07603283712875268,0.14573896222740893,-0.001658850321996071,0.026866185596696708,0.015278649760776616,-0.10103124971415874,0.02358812850295809,0.05737943791999624,0.11011119050664585,-0.07857755157205716,0.09394064926382467,0.15297523177068127,-0.09379145500651358]},{"weigths":[0.1543635254356171,0.07642358224072128,-0.059924989908621769,-0.15207104781417117,0.11561580487976751,0.00626133547356034,-0.13380762372993247,-0.045131412410281939,0.045875997975914118,0.038293692111500157,-0.06472440090467623,0.04087714714346198,-0.11291732538955368,-0.08625940971347229,0.060962577794679718,-0.11188414176063244,-0.08728629145615918,-0.03508603017059452,0.043405557036987677,0.05688710992018031,-0.07423669444836502,0.04283363316493878,0.02088741682045551,-0.12051960047218895,0.09965076484597846,-0.1297838323237082,-0.10613080464166076,-0.08471802998971354,0.04136571614423048,-0.07911248150580308,-0.028395195771524049,0.05072044442396674,0.04341452014659488,0.07383450797456462,-0.11780063442647634,-0.0617606501443001,-0.06340696793445096,0.060091959335858608,-0.09506193502605316,-0.09438004284709933,-0.013831360522527706,-0.005785116048434309,0.12844706929940526,0.015057504739131452,-0.10344059048596879,-0.007737933708751871,-0.043555559470109288,-0.08674088130153568,0.11072587832402081,0.10527930768798974,-0.09361131897289824,-0.11158829430516802,-0.05769552373626594,0.0168846852192834,0.04086360014716107,0.00012993291574490048,0.12966168170597926,-0.03071663826568913,0.036859469738865318,0.07160415287172054,0.030707267968280995,-0.059264979587641517,-0.08099674487272109,0.07523117711739247]},{"weigths":[-0.08122560560933055,-0.013508469600640368,-0.1104358026342044,-0.0894977414624358,-0.007841851034816364,-0.08848964660423495,0.06399406364148694,-0.009531008750871234,0.10561910387800065,0.09335796517778805,0.09003870195299138,0.13810187484099038,-0.09832495213668634,-0.009953489533072466,-0.038562655967473647,-0.06039980406032671,-0.08639763836779926,0.09017173372026181,-0.061012883384115788,0.03087636060001825,-0.027373351466495518,0.08259134523838995,0.07961765781949748,0.009749631394249382,0.11647501413300118,0.13363564407415477,-0.06739147051224336,-0.06495269260265212,0.07177074930749629,0.040693960076466157,-0.0935539314451483,0.09612428828801208,0.09471218526241479,-0.07251693278098465,0.022913512265490725,-0.06947998989151155,-0.01799608622686148,0.05494149369056155,-0.04624509938640067,-0.051863979522027,-0.07076957996219215,-0.057794828994844438,0.0914727750569388,0.12125481748621371,-0.09508013286706146,-0.11868968560716796,0.009573220743890398,-0.04308737071254895,0.06380145683174388,-0.05998864887610808,0.06775706754632045,-0.05651119933563886,0.1040713901929395,-0.07100643878807192,-0.08363443947745585,-0.001893664906269404,-0.006762963992691954,0.0045474986414439908,-0.020501938275424015,0.03906694019852884,-0.07065565706184601,-0.009079286763374835,-0.10803903241502948,-0.09858803228522034]},{"weigths":[0.12775511288590428,0.019845272923679478,0.015532095514894816,-0.020679386373634823,0.1805666412866702,0.043201699571970088,-0.058746408854023979,0.11443455070298173,-0.17012300952268609,0.0021483374347663235,0.1639906408723787,0.08408750910071558,0.032008178410068959,0.008866959022049636,0.01592906795839145,-0.07958936873264123,0.08170535100024448,0.023613694460864304,-0.09755294442016246,0.10368117047061888,0.023104662912116226,0.10172037783157199,0.08109381157814474,0.06865475778543961,0.005467048264389891,-0.16166699785452003,-0.10004727593730364,0.1849002331066217,0.17130856326717415,-0.030346030534916286,0.08265801269516542,-0.11329430659285909,0.18948757049499699,0.10653718806574501,-0.02393257468140941,0.08578446744377467,0.002229187463050161,-0.03615479395466292,-0.04272487796735003,0.12061956550995677,-0.006101738649966304,0.10390145377463636,0.10868311780349087,-0.026432924597080494,-0.09229636367110285,-0.0900484932165339,0.04789995832135975,-0.07211868997955767,0.08072594975934804,-0.06678801801035229,0.10863557760745928,-0.04504243679637657,-0.10241169403985554,0.07631225862865114,-0.06719549768634822,-0.03456552963205081,0.14247974078864462,0.0873971580975432,0.11172561748157993,-0.023852335365180754,-0.1153125887232879,0.04933663636824243,-0.14335695222505769,0.017019414665111145]},{"weigths":[0.17587303866543678,0.1533057835202961,-0.15239493963058868,-0.08538249150728153,-0.03369265631378385,0.10951348053694804,0.01387169969546844,-0.018085174158294964,-0.12817031966269364,0.1943672910210357,0.034446964788833838,-0.08851556378440494,-0.03764488459544853,0.006752519691709357,0.015137670111032618,-0.0796755744337518,-0.04501915052381178,0.010216819902250357,-0.06395230751754597,0.09819964237957528,0.035922668689978867,0.08474348828411058,0.014632568714287869,-0.04718263546914289,0.05125523789843793,-0.1528499457502714,-0.06583636719356707,0.06007792814081976,0.058226703002694338,0.0715420856479615,0.1050900418383556,-0.14751639680202836,0.03457619802031929,0.15928242003591445,0.04294193232294628,0.19902333273755136,0.05235807437842163,0.04479983695307406,0.06326149486854181,0.11997835295735691,-0.1079851912017756,0.08479148218131441,0.14083509829580399,-0.07953307097956754,-0.06334361467734684,0.037951228116523339,0.024892193309442174,-0.022491573983779053,-0.09980762290851654,-0.007403723057355569,0.07844095589976384,0.0842379300633392,-0.037384663740492509,0.11537296511500553,0.03499643023699176,-0.06660212495029334,-0.05928475973148206,0.06732386322045553,-0.12037372599889458,-0.07372899403796622,0.00150033967521474,0.023481557712732947,-0.09142233705418947,-0.023375661974721779]},{"weigths":[0.0762326968683274,-0.020559401170848335,-0.13746905323644674,-0.09475579526378887,0.05721790445359018,-0.003132221769215584,-0.054419784335178748,0.029418412829300548,0.07630182948301538,0.05427813265223716,0.07319231167433257,-0.08614195015730408,0.06669663985699304,0.09230355268965546,0.10027369511139098,-0.04474699341943577,0.09578841015698153,0.10124143557150078,-0.04222660896945843,-0.09195928330969253,0.08005660671946763,0.1195746322366977,-0.12039252857314241,0.04795642583344501,-0.0943794633385624,0.07842552979435555,0.007334315640092081,0.10524971891771166,0.1598949652195818,0.06532171525225104,0.10717599562840488,0.03484724877585016,-0.054350185424184089,0.04517397527297197,-0.1266763411051058,-0.016269089666143083,0.03203674527563601,-0.07435855334600436,-0.11890273587410239,0.1254143717103819,-0.020592313144497375,0.02910621536867512,-0.0675970028569924,-0.12437468957230297,0.010989115555245379,0.06078610018324722,0.08551507680780272,-0.09643703947111883,-0.09143607873552237,-0.05730395323112212,0.12488963910967961,-0.1245686261420076,-0.01686504041247993,0.08350838566139399,-0.08454568309681497,-0.025266557338832986,-0.040552057280834049,0.11471586032408694,-0.04462347037423969,-0.11524584399554712,-0.022945405463604755,0.1153797959387834,-0.08156747912518682,0.12156039663938909]},{"weigths":[0.02865594398054329,-0.00077931861796674,-0.10592175161594607,-0.03451561527058652,0.004106902243650804,0.11412801664281454,0.05055058115864117,0.1140015337352977,-0.012651440760099147,-0.039367195745908498,0.0159770118920249,-0.06959339390732208,-0.013158167950395286,-0.010686595362980748,0.14937056774973987,-0.09589924755617556,-0.05763719709168549,0.04368424408785547,-0.04049005611864322,-0.0897265432579583,0.03337247947658281,-0.1052188101906656,-0.07779467782757517,0.024244733300656318,-0.11182171534265909,-0.03106001375509614,0.11458684167847147,-0.025922441758181017,0.08949959897762334,-0.10529117809848938,-0.013063268309963046,-0.024867533947066906,-0.09611432662819179,-0.008804985873923999,0.015639787836210913,0.0024291753823845777,-0.11743203815878646,-0.022967185845716555,0.009597884861493357,-0.11556041899231623,-0.03556631121896205,0.070703187330796,-0.007866074287249852,0.12012574532246286,0.03324479117482821,-0.10281878282183336,0.050372878889615609,-0.03038051901414741,-0.10450676228248013,0.08321952115919126,-0.07067701067776822,0.02739737926804953,0.08258787097211276,-0.09307948676286977,0.05133706481000557,-0.04735160229553591,0.08812184057560749,0.0015653509616476477,-0.07695451797516044,0.0774148488713589,-0.05890635154917634,-0.1206794323567397,0.09080027825300828,0.032218102727571588]},{"weigths":[0.06786529069008161,-0.09467240889345595,-0.11791411346001674,0.0987412677020746,-0.09184764434753039,0.04362649793841002,0.006946403911880732,-0.0531723412773164,-0.00262308543689475,-0.11997272756690448,0.038226964647047719,-0.06371407805909824,-0.026496921694246217,0.0733030568059987,-0.11258309913770068,-0.0936262246828163,0.105745389779749,0.016256812730501038,-0.1158408450928438,0.0029080743161414518,0.026773977112088275,-0.0971781954622541,0.04918851841564122,0.009621697915489104,-0.06771064873131189,0.037494989493900929,-0.03842224851233144,0.09995476512041232,-0.07636044737666671,-0.11812157254929928,-0.1166854387930789,0.006530522912357535,-0.09179764404906148,0.09273873964808688,-0.010015927257119233,-0.08478507658059953,0.03766053081431284,0.05340750658724958,0.03599399173632501,0.006301687804058468,-0.011948283555552372,0.09881227686041505,-0.031454433831167808,-0.04375806594149542,-0.07989884378136354,-0.05081143528987487,-0.054453413329110109,-0.024016460831759548,-0.11963566579663378,-0.11392738226185195,-0.11853906396060375,0.11487458802436602,0.0340384508480248,0.07585036040956267,0.08371205584950659,-0.11624440877360587,-0.04618962754731743,-0.00906482825055323,0.024349005468383476,-0.11161056580979907,0.07328149666570294,-0.11556544623052466,-0.09316065724744566,-0.09461383620330603]},{"weigths":[-0.09390887384797833,0.10069134653317374,0.02938984138001004,-0.19852181110764137,0.12974635160630419,0.04806430884756867,-0.06388387730534187,-0.06968116200315214,0.03385611640426584,0.038759280481119529,0.0129072609606507,0.11564003516983634,-0.0648922366509497,-0.004339453734234034,0.05736566330488304,0.032474036433561889,-0.011997290511056447,0.1131235986055663,0.03065177340762217,-0.04275255358420707,0.11443527282799837,0.09490180025267521,-0.08812089834141662,0.11017787766987808,0.13206867483949714,0.013616040706323118,-0.10987295370631196,0.0042963421983435328,0.13785666472571388,0.13570470009661837,-0.05668345900950395,0.08229448405000693,-0.04317155270169487,0.07320818500661353,0.11043945394062464,0.006448659080967891,0.07142366597983227,0.13899690544231914,-0.032749673677086029,0.05063620983068241,-0.0990041900622427,-0.004411316743540481,0.1427366707041869,0.03156925555389704,-0.012020578026396983,-0.11106291195983913,0.02454443121376142,-0.09128672897476234,0.024208091385274384,-0.08165513072733979,0.0022743284815547194,-0.0030773430325709515,0.036140123238411207,0.14897233417098008,-0.11558503404208838,-0.10272130255652055,0.07559828973562889,0.08655061790735325,-0.09316020520101866,-0.07438073071314512,0.07057245290117892,-0.020322887590224566,0.07384598343840583,0.026175902080219708]},{"weigths":[-0.1291412269400661,-0.0841404885657195,0.030552441300085204,-0.07415703686669521,-0.05859236635845918,0.002811223656624894,0.13121502666926239,-0.17184859944222673,0.1414849806016127,-0.2905725534700081,-0.22528093393391769,-0.053225899198880547,0.13445098102901777,-0.0057052014169412849,0.1554143497159183,-0.03432209925474514,0.045543381343915067,-0.1607534480344479,0.1385017361672581,-0.11208714721910501,-0.03365603572760793,-0.12148939442456683,-0.009764809984764419,0.10470844245439441,-0.260157187520538,0.0561504930247971,0.14106659891595045,-0.2040959080265395,-0.15556578262632904,-0.04871337710931713,-0.05487018680133253,0.06195464391594112,-0.18023863279031408,-0.149838924601867,-0.07275194266722349,-0.1589502837486672,-0.2029848291864152,0.019835074454896744,-0.01194179059664047,-0.10426342675572316,-0.07745914476432549,-0.14327616016637305,-0.21978591075820215,0.014174069193188213,-0.08031824335120581,-0.014910503689235681,0.027597372773640728,0.05946175497556675,-0.07010085110034181,-0.03956760311648455,-0.17343469699443729,0.042027457999030588,0.007384857466567301,-0.058283417143353419,0.017486740771151336,0.08081616886233571,-0.09732526440041953,-0.07387817068688142,0.04991137562076366,-0.08012980812356455,0.06534843918131274,0.014911321493052969,-0.07014890803007469,-0.16154947937000695]},{"weigths":[-0.10694835606976214,0.09830051345216122,0.04635025302065822,0.08056666705631475,0.024694859444015294,0.015182618794124668,-0.1056158886087135,-0.06112827341038124,-0.022130116296354715,-0.0977923007405571,0.026742372365011058,-0.01732103895279194,-0.039548483909996077,0.09379129843441889,0.07964555161666363,0.11993158299002652,0.09812428141101075,-0.09682230583158945,-0.005838992931260342,0.008637137177585582,0.08367136745191395,0.046148258726695309,0.10208326065272598,0.07392035877803435,-0.10611903471863868,-0.028560457027133267,0.07835722812612664,-0.08725670719481414,-0.09792393910116297,-0.07594887634510762,0.00414318496486491,-0.002016365394242732,-0.09101944055248727,0.08782110057496075,-0.03319659245224865,0.0015117506859758203,-0.03481290131086029,0.08463837558983951,0.03439907527306208,0.08868009601416371,-0.026067832773566489,-0.09625230239124744,-0.03435220005179187,0.027008143324084696,-0.07837308920428467,0.03629360327700112,-0.03729132651806034,0.05503309030621313,0.05532582775399605,-0.015802904633738805,-0.09767564773885364,0.06582123714854084,0.0027124055216074737,-0.09448733032735229,-0.0761178380844061,0.09951987046219386,0.09392275421925932,0.11435512760199958,-0.046362506010999778,0.05695636025590537,0.04874751196382291,0.08681302219262531,0.005363664405136977,-0.10771486963001796]},{"weigths":[0.047995156946760039,-0.003938954808459599,0.07624120967738067,-0.08313947336868119,-0.037974922022128387,-0.10771358254746541,-0.08811173368333314,-0.10581102040792924,0.060476034573959887,0.09164017474894379,-0.09251196728309075,-0.03077332830819871,0.05627889569412597,-0.10165452481354159,0.08186092428272686,-0.021188896157742114,-0.09636838278216634,-0.0369323171834834,0.10286504579184519,0.013431159439032517,-0.08902712939202985,0.01393760657076844,-0.01549052634963218,0.06851370755463598,0.03907141468638566,-0.04883826830950264,0.057379133952334997,-0.021852194314644015,-0.009767729460099068,-0.05446531028032332,-0.10710582017257528,-0.10317927230263754,-0.017163963394779916,0.08200492877923882,0.005737659365270523,0.1359218498276535,-0.0898839593285323,0.056993427665078599,0.012811256480480552,0.12492882658901507,0.026091253334805155,0.10228747406655853,-0.04964777751312008,-0.04429694750319375,-0.018618758468848818,0.09900560294957418,0.014885653478948104,0.018326549889821569,-0.05390079609148515,-0.08856539527475775,-0.047752820321417459,0.10643232546515057,0.05090660125193821,-0.03393966767714013,0.0007867872391281902,0.10069630090874908,0.03759001861041235,-0.12100044917196855,0.08230920253931322,0.05915287145235646,0.05989568720293524,0.01320002759072653,-0.0821485981353119,-0.024287959591178567]},{"weigths":[-0.10396939027282527,0.09601217071208848,-0.04054389025523072,-0.0585362844768244,0.09282448116603745,0.05044366542240303,0.11038352138010836,0.10453354450404413,-0.10601759482688236,0.05864512785818259,-0.07827831730021234,-0.0012186488126017742,-0.0869369679193661,-0.10773135406481603,0.008227236877414435,-0.06376664568558194,-0.06446733518789853,-0.0466364790346132,0.05340521784933072,0.11067547299110152,-0.013019285812010878,0.048318866630637228,-0.1325423342835792,0.10101054718111165,0.045126812390590489,0.01986066438094646,-0.06452503823949978,-0.11425071263310902,-0.09008224219012778,0.12754115233984679,-0.039549792418356478,-0.02909472830258998,0.08799819787247579,-0.011669898940849244,0.02355708761705644,0.018798243713221888,0.08075027171694352,0.12251163849915915,0.022481314878340966,0.057462558590482468,0.09996855791175141,-0.09212135536632577,-0.0711358715566468,0.0365665817912262,0.0003199553508299512,0.015358103237050969,0.07475857511513391,0.0698899033345412,-0.09909135388301785,-0.03934562698197186,0.0441018222984993,-0.09407960799362043,0.12047889624509686,0.09198098126447683,0.04073703235779153,0.10564413254662193,-0.09245167064681834,-0.010484058506688913,0.003333332009467479,-0.042218187105697729,0.10323821726620373,0.06756930320021687,0.039286032451149709,0.019207676170628405]},{"weigths":[0.14198846684090594,0.16519172446010634,-0.0941427072571351,0.008055064441473215,0.07023231377363251,0.042454856753091418,-0.054777610283203079,-0.06592319954065876,-0.08696915893305499,-0.014984778391295412,0.14504034606683476,-0.09609207389202075,0.03357573143987209,0.03171326995710817,0.09631648653744415,-0.06232909914600779,-0.04478909999900239,0.10187979870111505,-0.11050113138195776,0.15607568617440219,0.021385309050936189,0.14994125387138414,-0.08121077220752743,-0.06074419380731948,0.03345741115710462,-0.06054699577032486,0.037417732093198787,0.01312823138416371,0.07648786824150383,0.05175434724510655,0.05453298079274134,0.016677045445212918,0.08077145088556924,0.04117664124926988,0.08098788335731526,0.10291947214591967,-0.022750415075979983,-0.005892080790932964,0.09875653114868954,-0.10890383089680476,-0.08682822677032649,0.08263265705921098,-0.04760713344392179,-0.0012997847707174433,0.09856303765092556,-0.04449874083335491,0.0594755815123958,-0.061239062396520656,-0.056561361094426738,0.058559547161867248,-0.06929201057141217,0.008583518745837443,-0.044628774763135137,0.14209849080411547,-0.07687712937927305,-0.04769541299632747,0.02856265690450461,0.04324401300912091,0.08047244709007391,-0.05923924134350713,-0.056630929192586439,0.11911922256096787,-0.041671941174777359,0.0641342234229678]},{"weigths":[-0.16936134994013619,-0.12973128687237157,0.08390457511898221,0.01600514095691151,-0.1572870250145234,0.11096186487929681,0.07468534800953745,-0.0993142028512593,0.07964271993354998,-0.18141172357578976,-0.11844016938751341,0.021971008141765764,-0.06798795330769474,-0.059645036660798979,0.12283011652714736,0.0016834259579277108,0.039052118535993888,0.06775427188687301,0.1030811460843788,0.010427111734007554,-0.08419090193654787,-0.15086063039858897,0.12791440261297197,0.04535258277857575,0.06354146922714516,-0.042307858755865058,0.12354601830956379,-0.04669619787489336,0.03930919619968559,0.08376379512029637,-0.03900510666866115,0.1151221658939694,-0.10453890607146815,-0.13532554224552724,-0.07712824669907952,-0.20214312749660547,0.039937994253914598,-0.0267749034751854,-0.09866743025355232,-0.10037189040628493,0.11730947052948272,0.011307995943016417,0.006238864995635801,0.06450954829411584,0.043572911871170749,0.12278789709576286,0.05239680136617176,0.17925341523741734,0.08755234752003077,-0.09795124003036647,0.016477936951676387,-0.06788410418684847,0.08120549580131673,-0.060207222762262087,0.12482423302300294,0.13416090671656637,0.026863063177876738,0.09352931492048684,-0.048213767398759547,0.10697315743227168,0.05757629944911463,-0.026647829230764674,0.11505941745505848,-0.16981753665315195]},{"weigths":[0.10550833998822958,-0.07124652360419996,-0.06698677900388969,0.1015985508753511,-0.07600800689142499,0.011309015560700152,-0.040392988159217099,-0.10825396840905848,-0.11905731313001171,0.05479985147062449,0.12002795831075361,-0.12460527550074481,-0.11859104641158899,0.08190174587887643,0.030790793246889385,-0.024831066264985159,-0.12155483335069604,-0.11382770394461846,0.07663659838189274,-0.09477668756542851,0.012861337399367148,-0.008668685750596282,0.11010234662584984,-0.0806401793562694,-0.04345358412629284,0.05970349333297319,-0.06305889210594523,0.11159382084311749,-0.038921492826657678,-0.12235565809377366,-0.0142162971673715,0.008370812468330779,0.041735963086696328,-0.08110060342490445,-0.08650488671122422,0.08520252627474852,-0.026736274010477853,0.008154704583032456,-0.08028990649799953,-0.07692074952268438,-0.032965642365402936,0.06823534018627964,-0.028947365046798416,0.06097628119925833,-0.026508323639356954,-0.08237573752162418,0.0963809205987126,0.016206831591421494,0.10399307397580786,-0.10977727030376448,0.016119384447508806,0.05545275241763602,-0.08140043033808459,0.07705479640064199,0.03265701450076596,-0.09762739403223726,-0.09853538069552258,-0.05115904280857954,0.117205100911861,0.033270411981146438,-0.11347799432491211,-0.12536841205026659,-0.08649380310561135,0.06294484646929327]},{"weigths":[-0.09772883440706297,0.026276332670028575,0.1146099044841511,0.04773854774122051,-0.11820371103408704,0.03582119123126331,-0.12486501084711538,0.0460317511691477,-0.09598348702184648,-0.014075943086236583,0.028361231443642139,-0.10572452043282645,-0.08309911325136274,-0.09855439272164327,-0.015867181999997594,-0.08373517203999187,-0.06461894731671154,0.08533986567587528,-0.03426201036896855,-0.048457764361964427,-0.03657625261232186,-0.022707344559604809,-0.050310951540350607,-0.0232687983952192,-0.02157926998302947,0.10057173676196124,0.07414311558596348,0.054521586184720017,0.10648518870272957,0.008072427254417767,-0.0943237256913867,-0.038401005149547858,0.1090817093286693,-0.03328448502384254,0.059987086582593888,0.01876389462671801,0.057674113627897937,-0.09371572726212708,0.02333305348077382,0.09513628244056756,0.02295656610613686,-0.04923860730939918,-0.004049026830118972,-0.10615198059060721,0.0510083098462315,0.04155754114269373,-0.052399967927362737,0.012822399479930266,-0.07758467637612843,-0.06103174429164841,0.055301792725694128,0.06050719335846047,0.051040594365674259,-0.06684148235145791,0.00747753089836191,-0.08960375193278013,-0.050103877832264376,-0.08820237208879929,-0.045105747606165518,-0.020365539204391746,0.10746780913804585,-0.08893680742819273,-0.07257001072355451,-0.019848917310671178]},{"weigths":[-0.08962215293366961,-0.11853116158036188,0.05944498429182522,0.13845538551965007,-0.15739190850659766,0.04705738251723565,-0.03847998234264944,-0.028908529392476548,-0.01443743710235316,0.01616960718294312,0.05695524177783697,-0.12064943405755245,0.08771952411968627,0.0291151429956217,-0.022919708504341067,-0.04377036386408275,0.08215133214956563,0.09653038130126292,0.03984459971002159,-0.06117993467645761,-0.09763609891919473,-0.12913393328447493,-0.06032734234476233,-0.023034199932125997,-0.1887632299599185,0.1428245722396822,-0.08289175895155797,0.07102947015935998,0.04973969774060821,-0.07630424130350122,-0.02278733760194389,0.09285466256169198,-0.08927612789968602,-0.1250958974286338,-0.003777111766367178,0.026058131747028088,-0.049308876812703777,0.09558664256982737,-0.07310117230067072,0.04806945633095026,0.04927812545884933,-0.0933007517934093,-0.07858583664464294,-0.03544264335919043,0.05328324545437191,-0.0630671426620691,0.017682028657082534,-0.043814167630849779,0.11313006839200321,-0.03885821718521145,-0.1506521580628028,0.09210975507335373,0.040738741451776538,-0.08600561231946229,-0.09924935699794933,-0.017588588728191004,-0.0631514917925951,-0.12189394776223749,-0.05979682246554453,0.042835444264359399,0.08395631126159774,-0.0844930260429601,0.0943720693680688,0.08403076790744532]},{"weigths":[0.08606066953655724,-0.03206482015264245,-0.10926610640088916,0.07051653948366422,0.059048935721236917,-0.12785818492069793,-0.027040503460616897,-0.01571300791798232,-0.01047329778628228,0.038466458661213818,0.09717023757137144,-0.07678205724208896,0.0004787955299681839,-0.07323530315372559,-0.02301903248354163,0.04777328902594764,-0.0534608907790128,0.07609868869831327,0.0067602857483298598,-0.010022238609199723,0.062208643730470847,0.06864989495799523,-0.1142484099887072,0.02717450277819499,-0.00473176118950471,0.03854414338920279,-0.029823731265842827,-0.047392119066596818,-0.10844376826776085,0.009517239738832383,-0.07100300197716118,0.11621236007583728,0.1146410370557024,-0.06612809688928975,0.02646379838215376,-0.007047823691505396,-0.05550053422787244,0.04166898603010556,0.08033817493436282,-0.09336402777268563,-0.02160571061009613,0.10352874408999627,-0.06263102981106676,-0.1202250784865904,-0.03001696485652517,-0.0811123203498361,0.10297719443018054,0.027540267151933415,0.003224109490078973,-0.11399035532908294,0.024606038792662396,0.031084286252630934,0.06617453056509828,0.07667561307579943,-0.0844029209351318,0.08456018786488649,0.09006245003646402,0.07539013590354014,0.10168597627240117,-0.13088190827489352,0.06740744585495849,0.09840502244671531,0.058359021054846,-0.065488272547452]},{"weigths":[0.10409948969103156,-0.02883347618008812,0.02766831985751189,0.07362246916926275,0.0579336232037404,0.007974110035064165,-0.13838190943674093,0.13804403703409594,0.06517670212471705,0.0428084699845524,-0.029001867383321678,0.09505002121062192,-0.025057068867079564,-0.119804404792403,0.036083404211750189,0.14063628328828543,0.06676111444966486,0.0917375192204396,0.07244848520732726,0.08639847851465071,0.10064530083781055,-0.028142203721447699,-0.05835009533511765,-0.04167988009026365,0.11241428259726481,0.029413220005237277,0.0852432874665575,0.15868758023820396,0.027532572062627125,0.052196657118486807,0.06532747092818708,0.07045596144053298,-0.05039590312291068,0.04759754675482986,0.12739628220888669,0.03010764363861496,-0.07571977226354848,0.08197007367463349,-0.06500266928689633,0.12884519375642637,0.036466589169929859,-0.01959475766585892,0.09066997897857168,-0.09532856258163768,-0.07223545638289229,-0.035386841702856938,0.03658359901496643,-0.06137523028991343,-0.0846800180913608,-0.013568533615884508,-0.09686987313317722,-0.08165717018328198,-0.14020155521642753,0.11561100511337687,0.0034319912843649685,0.08173767263992003,0.023055234257695613,0.07346972110864597,0.0051328081796460449,0.04256798922388912,0.08498121642164805,0.068957473430175,0.023504605674352566,0.11128288609189763]},{"weigths":[0.08342789106097712,-0.06372377203079599,-0.02223361781425392,0.11052580975825899,-0.08496028015581248,0.07153672483868265,0.10702670268289896,0.14144961289756007,0.03765557998647885,-0.05634768022661373,0.07390357180867524,0.048919979656413637,-0.00017484325422052944,0.10203275800060427,-0.040462307111499336,0.07044103075335212,0.02120769811817836,0.06793372547219349,-0.050758106078390197,0.03263592527640423,-0.028106928547528225,0.1483368238880857,0.040700698900090547,-0.03812138649573145,-0.03107770717977387,0.11584919277242102,-0.07323525186714536,0.014767067050929199,0.10117043724633727,-0.02338667091605383,-0.015564927838138142,-0.07887498138729893,0.0214121110041918,-0.012245370432751859,-0.11744714295726896,-0.09764653570702554,-0.010866740273293839,-0.058226334466388338,-0.0949258526555693,0.017403951281004687,0.058454870369656467,0.07700629315534199,-0.08428647963821387,0.001391841074783893,-0.042202847515514497,-0.05134730237340575,-0.0944264870489021,-0.10857323988184624,0.13410242240872828,0.12912353661099039,0.13157124174027733,-0.13833028995811184,-0.12443380296477268,-0.01427612765983229,0.11683580421782008,-0.11189932454895853,0.08696194060060886,0.036215764952214988,-0.038596456308600497,0.00602577017925312,-0.05733351113281371,0.033225524322089628,-0.07186352567675264,-0.01563040350348755]},{"weigths":[0.017321853911054429,-0.06825324907873222,-0.07789657762325093,-0.03163846535644578,-0.046862874307253579,-0.02748520648476884,-0.02602835010505896,-0.08233323205322915,0.021860717547419859,-0.0742228500675128,-0.012476475747248231,-0.0723923689586561,-0.031857371707945,-0.09726947664382245,-0.13187973296351636,-0.007873063761290565,0.09818015740729058,-0.11406134664495747,0.030003597657813506,-0.1040046417201202,0.0771579694787355,-0.024307845371002197,-0.06256393883663314,-0.08459040747339768,-0.078429106964127,0.024732898286161623,0.09335692330534799,0.03131958639344144,-0.023715849285074719,0.06786032286845748,-0.018369586760974049,-0.05748490715755007,-0.016902124505660936,-0.08028369098101149,0.07038202177781601,-0.03214562503881131,-0.11496391783818141,-0.018702655185099876,-0.07545556030848218,0.10630033340454308,0.12093443930883312,-0.10784681800036533,0.05771915606660906,-0.07507275435657512,-0.04732325908290325,0.028458315520843184,0.037712225474072848,0.09205929292062241,-0.017027614725098687,0.03800273866596182,-0.09734377426008804,-0.06307859186942225,-0.012623302175983375,0.09590392203883382,-0.07263935084942479,0.06634530230090341,-0.09767384560075787,0.10469214994463173,0.09751234586049083,0.02457443490766956,0.05132121587772972,0.0810595078478073,0.020984263020621946,-0.04820488816450349]},{"weigths":[0.020490151665401067,-0.037284263374881217,-0.07048920722397921,0.020065625812984226,0.009342354731488159,-0.04645831161652263,-0.11217130661326226,0.005464730416285234,-0.06745208694766908,-0.0005899887652096016,0.15425235710688119,0.008428373327347121,-0.0864548921306249,0.03361703515098414,-0.006821482589812483,-0.10586281062554132,0.06151382180895104,0.0612344318522719,0.0347854054633327,-0.07541653983838558,-0.04461640204142045,-0.02399683815463913,0.06982782735752337,0.051955020406619149,-0.028562489212783927,-0.06549735940965032,0.0886053863208972,-0.11947557421430957,-0.1046876450120896,0.007198536554691333,0.10567427383799889,0.10386881786624747,0.12284685225486628,-0.020581597947890105,0.1193336729339252,0.11623766907987161,-0.06830883705648573,0.06386337371802196,0.02238571228913829,0.002255079562260826,-0.04385732806396875,0.07389357290823333,0.05862622697824858,0.09081193044196202,0.050695140262796357,-0.016253863476351075,-0.10443575108828485,-0.09932798654710526,0.07761260159433849,-0.09875215218454128,-0.043689131080204206,-0.04400261911928176,-0.1000656712101264,-0.057654365879061097,-0.025420128871798416,-0.027573854734450854,0.05381850418655944,-0.042308145921099497,0.0659732299762302,-0.058803286816355947,0.11687579440198186,-0.026863081002138045,0.017153932576306435,-0.12048558100159447]},{"weigths":[0.1397463460085208,0.07399798902918914,-0.06593189714635688,-0.06291239116832104,-0.08247072540053516,-0.08840893509410272,0.04784233820085359,0.039183881214642047,0.0018721136769806297,0.06444705694625881,-0.0416564315939507,0.10500733356241197,0.03928160626522089,0.06263543615194158,0.04359434592563127,-0.10726080130413927,-0.11137040120055539,0.008986045010599504,-0.13215904469695714,-0.011865683327660751,-0.037204642453365539,-0.06992512673075072,0.03305000139401138,-0.0006774036630982352,-0.03672574745366126,-0.0000684851267125394,-0.006967257224784927,0.04165047437953282,0.114406872024701,-0.050463984632949519,-0.09640633462205478,-0.10441977914692895,-0.0030928110533266878,-0.022885437052710228,-0.08170223247399078,0.1708377330624105,-0.06507767972555376,-0.05810714415828403,0.03927659644340086,0.12055133443416423,0.09247420973511074,0.08684138163023816,-0.05359140392640239,-0.04923075789050434,0.116193848901479,0.004005699097799892,0.023813208814023508,-0.13366342187927697,-0.07718031305276274,0.07100448663063927,-0.030555604093545364,-0.10017606547129772,0.06020493487451101,0.08245974433921402,-0.10564496035000994,-0.035138364156557858,0.07025021985544441,0.023287678142330734,-0.10888486077128128,0.06822507757104964,0.01602785022019833,-0.10882128081820114,0.029431192800129424,0.1693633360031046]},{"weigths":[-0.15715571200603019,-0.30443800667890499,0.027871719182898256,0.12861752350878645,-0.1249245316849246,0.011505717851384337,0.1374157150028773,-0.05042007871490907,0.053957173765028478,-0.09197877912263657,-0.18962284849226167,-0.06630027559838288,0.04674550066594275,0.05181632868681296,0.09971942659313483,-0.11047501863334139,-0.1200987022971079,0.006484856228011601,-0.04714211283093737,-0.033803453139155888,0.0005309339750236442,-0.08102326831416154,-0.06837994247857059,0.043581730431889977,-0.10544123814279094,0.04005838944636436,0.1703254688108658,-0.0704634585553985,-0.2337913670423504,-0.2069618040326801,-0.011607425886012619,0.1865926568836433,-0.08840253054546199,-0.25725408026830939,-0.10921955295420949,-0.3099379135456504,-0.12888159237037426,-0.20848419099456967,0.11077740877194277,-0.08552619239746716,-0.12470442294426952,0.012720800795357635,-0.12948570622862277,-0.016243368664333656,0.03744345910520218,-0.04185545895423504,0.039584525138649937,0.09971769958825289,0.008677200747750223,-0.004893570721788743,-0.07470066998421753,0.05182207826641019,0.027462858159627444,-0.09446936829907857,0.0810973848480159,0.11837242715383588,-0.01640758550054171,-0.05307621811900334,0.09105488338677169,0.07796457324284753,0.06613203246740866,-0.004858019891830844,0.07256031356092602,-0.08742671690530268]},{"weigths":[-0.09452787216173057,0.05526610658788082,-0.056368174609039038,-0.061065955204369779,-0.029989598042233235,-0.03973247745906967,0.0906598700874036,0.037465779887834418,-0.060194449267673189,0.1386055352630249,-0.08405356966472968,0.08748921309621523,0.03990429678211217,-0.1087117958967083,0.06106156557986791,0.01914421592904267,0.005207019782491283,-0.05466079043789108,0.06046408052860979,0.06395084478520304,-0.06859715372741564,-0.082340062901035,-0.01898901083728815,0.07578148280431549,0.005886443097230511,0.019027021263102303,-0.08413002925266572,-0.10833823803389962,-0.08021971781145553,0.01778011691066223,-0.04487213608747402,-0.11673622616088958,-0.028004294255116827,-0.03839037292297522,-0.10679221840516994,-0.09764741527807096,-0.046585109316293147,-0.08897665186316103,0.05944969760721071,-0.03966109595432476,0.1068189434110731,0.0010351722107909199,-0.12460201663760767,0.11320579310244834,0.058897899368751119,-0.11187114704546833,0.08956507151953563,-0.014783216782099174,-0.04366684001729506,0.13732164365658937,0.08514444117754255,0.042208883519559498,-0.09779910567468843,-0.08089625410814884,-0.05051863959463074,-0.06053437952912704,0.0015142160519480979,-0.136874901007916,0.034077659156213479,-0.05941389970977945,0.04595067197094595,0.08674887300106643,0.03376360603772167,0.06230701715427146]},{"weigths":[0.060054029092209536,0.08339436402644547,-0.096193400677432,-0.007146114438178938,0.18812475487282125,0.10424741088486955,0.03542360452423656,-0.017242097971200005,-0.11281517007418096,0.10459029321117533,0.09368673453391729,-0.07058376076567794,-0.13722292987456936,0.1406784939810723,-0.042805213807318508,0.044898495697588098,0.1274024560149854,-0.01924392466529362,0.038119471819457798,0.20221527280228764,0.15025899524499085,-0.013666978335210726,-0.075052793249793,-0.012502632376657412,0.09869921021101341,-0.09948934544807188,0.039527611851025459,0.04394789396657788,0.15663374086703267,0.1555489105150904,0.08492564940004388,-0.048967366487933688,0.07790698703247447,0.06212515683007728,-0.110174796632708,0.11329220454203175,0.10674830078537877,-0.004365739220787634,-0.029145588389250949,0.03743450719878306,-0.056811868036442229,-0.030979415164299478,0.1780105794944948,-0.11599220754502607,-0.09255791957125462,-0.12425424731092799,-0.028980651984117056,0.03448628036248743,0.03080183326227284,0.03005496771015667,0.0841014294242992,-0.07638054942677376,-0.11782230982001185,0.1791444841617375,-0.099095658428228,-0.08327503856251498,0.014737727869246239,-0.10274475948128148,0.10176692779265563,-0.05423904482955902,0.047784957011972429,-0.08779627330090689,-0.1573880470051296,-0.03575062556578461]},{"weigths":[0.04252553380742808,0.034598614664133459,-0.0891557482931539,0.05952747220170486,-0.083061401335115,-0.004918940494176021,0.027947815176074116,-0.05150158541410554,0.08565601226986125,-0.029084209255054027,-0.04917384710871158,-0.07246602451485605,0.015265071636613162,-0.11798062870011962,0.05693543406980948,-0.12621763561365435,-0.08558823695389713,0.005821254506824773,0.11344064900721138,-0.06679468982040854,0.02882672224187107,0.0906078885720473,-0.02373184111137998,-0.08697385091498095,-0.10550875166954249,-0.025306461402219428,0.11956809406028336,-0.052778270096928907,0.023893613506706488,-0.09984796400750154,-0.048504620897051448,0.14730815817599209,-0.04582025230625586,-0.09918129511011405,-0.04544209828010126,-0.025485485021314658,0.02907962413388763,-0.09177549610619439,-0.022750826920004478,-0.08102317999818214,-0.04749292229561656,0.015673142970204405,0.028412451615784284,0.12444287978922793,-0.027083933958554859,0.061263342089904668,0.00511869822130269,0.10238397546113017,0.11738327034634076,0.07701632612324642,-0.09370203828988168,0.03336815404791885,0.06279375504274518,-0.16144411284650274,0.09261129688382648,0.13001757594563655,0.09125952034544302,-0.020912770088690085,0.03777303199209939,-0.012408948215910494,0.07934411938561575,0.04986785288562395,-0.04867088999097425,0.11571807487409934]},{"weigths":[0.1863017787182054,0.2539391870972815,0.009302744387404865,-0.11959116076377079,0.05774672839910594,0.00007717499443542224,0.024744980850137454,0.04949139402295798,-0.024757705354931268,0.15279376935229078,0.060024804265080219,0.0706699390231886,-0.012599534943996436,0.025594200254574138,-0.03784504701525129,0.049610227439899488,0.17595080998378577,0.09511725203067499,-0.09678598340621295,0.21433339442625874,-0.05495988787253693,0.11098793393554189,0.0669333009979069,-0.09279634243760211,0.04399345592374833,-0.14609977317391563,-0.043805965814837127,0.05036145574279476,0.08084624069978348,0.03384457845303334,0.07156073151244638,-0.09217155397109542,0.11088299725843376,0.012320537517494176,0.08118428108577609,0.12902537695388287,0.11521540948373016,0.14684018780138864,0.14516051007784787,0.0762438246090167,0.02324756279343549,-0.08093495532398312,0.02371100206341721,-0.1469997415277132,0.0954856094138682,0.026248798512254036,0.11333050714275352,-0.18795273227746493,0.13821226388942288,-0.0979637584249229,0.05119387622577641,0.03011729311894313,-0.09520620843107157,0.1319026188527001,-0.04758713583931761,-0.13515832114369293,0.02169532532945783,0.03842956247626743,0.034951186237955667,0.06149735980406068,-0.1280361109906535,0.08311931233897323,-0.13052415959688047,0.16921156038386163]},{"weigths":[0.11272549226478317,0.08594591709119844,0.02152169869456235,0.03287361639468669,-0.06401713340345078,0.026546260683805384,-0.09574929858144618,0.018523500405402544,-0.06576061544933343,-0.09592212625032307,0.06581077602614502,0.006752857414810432,-0.12106136747474218,-0.0008579608247170805,-0.0228205113270449,-0.0824049258822338,-0.039018865533059537,-0.09244313443942301,-0.11976820009197184,0.09040989377195584,-0.059170238131285437,0.08795673020806443,0.03548640237468222,0.10456030724206858,0.056981828313881977,-0.11052091680547169,0.10319846717906266,-0.108279752469962,-0.12286617269346033,0.08597521148739294,-0.12652486552381746,-0.030008702094186294,-0.10593008371626064,0.022840180143293973,-0.09973548245463057,0.06645886847764487,-0.06214148396874667,0.048851580682603337,-0.09483476971217807,0.11627539387321347,0.03580756707938981,0.11376919868956967,-0.06762797464968666,0.0799202387380467,-0.04584759303756194,0.03700060449290171,-0.03548115381372633,-0.06060691094589784,0.03675145940491343,-0.07623230723557233,0.03322337295648295,-0.0006781914674211079,0.04351832558470717,0.09444708281940394,-0.03264854688952353,0.10706890779739549,-0.082729070045044,-0.023967491982841737,0.10220872535719274,0.0001746318418896377,-0.0070847688478694599,-0.01048413294152573,-0.06646396508861917,0.052537934480889818]},{"weigths":[-0.09166009939961671,-0.102021643381435,0.05291820738458112,0.12292590705773794,-0.02430834518694069,0.02497816245013989,-0.00747488093160145,0.031047914915032176,0.09104343256754294,0.04123846266996583,0.11070203859500634,-0.08681170203598469,-0.028500343864006736,0.004535992979869375,0.017377126002918368,0.031117545982608947,-0.13022326249418438,-0.08744848591680979,-0.07297725201794836,-0.11881459062721489,0.0021821979602384877,0.09664310462792719,0.12174234203578562,0.09108692588305975,-0.08013144997377192,0.03790306663023871,0.02622638267893854,0.05084990061104915,-0.08596010151324739,-0.12078976222009456,-0.08527079430187852,0.008361122280284829,0.06452150022643583,0.029559361812352738,-0.03550276840890542,-0.011759133324630874,-0.06507188026094525,0.06620849281493994,-0.024272090602510015,0.1355829390219898,0.01892524821795527,-0.06748723648521438,-0.027866449477336749,0.05778526099832167,-0.05376919891472886,-0.09646579100750483,0.05409196827999413,0.07427917507343519,0.05794886844930815,-0.0800736114166816,-0.03901219902656581,0.0004932542521244063,-0.10033830957677043,0.13778731374930312,0.08839703822615337,-0.0856899432493382,0.010393740963661694,-0.05667744175799851,0.08673624649974902,-0.04141383478181997,-0.05371351934187064,0.02641671056972211,-0.07211006471290009,-0.04052382054447125]},{"weigths":[-0.05612332403599284,-0.082077484192829,-0.05176629928392574,-0.08079557580108401,0.09838919322654773,0.06710099371915755,0.01327048742792506,-0.025066785387038369,-0.18665854039773828,0.14083338843677507,0.15242294349644679,-0.12443234469547339,0.12494879411274319,-0.030302399389623336,-0.032969795961807119,0.11523176105165388,0.051003386597420648,0.04983941296641363,-0.06081452463734687,0.13315284253869096,-0.11384619076938597,0.0010152622289622067,-0.0702580624159171,0.12700549376505858,0.0571116207989472,0.025004579710337775,0.10497388282965789,0.06672630294233027,-0.09042750827773494,0.13905273003516314,-0.052039855709121837,0.013645667987564257,0.11425426706921253,0.12503883871934155,0.06069392792823959,-0.01020105639578994,-0.024519848943807836,0.013039344903115634,-0.05589135773013717,-0.033013897038049019,0.1465685531849272,0.06721839522004235,-0.028471100411722698,-0.1384394345329199,-0.036446285645709588,-0.003752628365690296,0.03553097732207304,-0.07412829808147269,-0.08066319456675907,-0.05771679207423182,0.0638405019170037,-0.04485917636162462,-0.09377101932574852,-0.06678221538863459,-0.09188064578789757,-0.08247042866636396,0.09030901514247523,-0.0011042613999304346,0.030748549723832346,-0.1106151007254727,0.10081233687563801,0.08853802843475951,-0.010107009125084379,0.03668621660026095]},{"weigths":[0.1718416016409999,0.18901729266273516,-0.07995273178726055,-0.15856811158148513,-0.014324816840759355,0.1214407469511578,-0.08199270122277484,-0.10262224298020954,-0.13615529242858688,0.14167283157067507,0.1899683236809504,0.08878386056427397,-0.10588549025142656,0.014841630979703272,-0.04129779627366767,0.022457866110007695,0.12325419903140991,0.1465732294112224,-0.10346526314299244,0.13269494923253087,-0.07197318921387963,-0.06255675112461633,0.002025879056398345,0.024631459969743923,0.08845660106288791,-0.030538315065666976,0.04069893543640213,0.03196898874233283,0.11378679464118813,0.07879248530470158,0.03632579602321928,0.01859238218621849,0.13847328729465523,0.038075109212265988,-0.07108378723835007,0.15481873602883892,0.11506593020902675,0.12130007776921481,-0.13672252039880937,-0.017389015239717748,-0.05411159285989417,0.053430518513881839,0.18118702447009683,-0.12454651929282294,0.0745903774848726,-0.09972721176693357,0.01779744050971594,-0.16452051369984017,0.16411214596814584,-0.0273008827559032,-0.07602558752603933,0.16634882687536774,-0.023337058379673614,0.0538621101494045,-0.0643714682770411,0.05180235383778628,-0.05568994324990314,0.013610497437961203,-0.05602150113089896,-0.07200916972088779,-0.001840333404492368,0.06079358702542307,0.008794958137445412,0.01086494849500558]},{"weigths":[-0.011271706059468038,-0.06294024065927323,0.03067826797252696,-0.1681056580264771,0.054526073230197289,-0.05843871482792363,0.05489473596379384,0.03879188320011112,-0.03237439817372015,0.12693449480931796,0.00841715074967387,0.01870711184666258,0.10524549019795268,-0.022763096148128264,-0.12305961038662976,0.11505637943912692,-0.039174208900059948,-0.0847482905423719,-0.06267898960022854,0.1072488168832696,0.08630315645805872,0.12221030858630187,0.05751961048552197,-0.050907166536296368,-0.1298375193031161,-0.011670641886686533,0.03695932293196041,0.07546917678536534,-0.04357557437360961,0.06679720345353671,-0.0899322735106275,-0.09749554886482884,0.1072227247395469,-0.009554775735415817,0.004923167347063161,0.08739803456494512,-0.03646530802416323,-0.06556162923867792,-0.006005074240443046,-0.012511378769474256,-0.06267289501739645,-0.06977903536737852,0.10264686209399834,0.053201821843207198,0.06675748097834906,-0.11862114312241012,-0.06877166106181977,-0.06852950348903021,0.10010699916718005,0.08514596828178607,-0.04793379810036289,0.11164497031432504,-0.07278869866760357,0.10652775430381671,0.014008426632250819,0.04591513287168173,0.1082267464723104,0.07979478009892684,-0.07791824112917065,-0.06981318510740825,-0.1518255041153852,-0.027889534962159517,-0.07104883500656925,0.08981734234716699]},{"weigths":[-0.11189792107199709,0.13925033552560288,-0.09258830063830126,-0.016337040426702994,0.12448555638516593,0.13884915070904572,-0.11085520762530757,-0.07759505853450663,-0.09922005819425892,0.0895994750627003,0.04147385678346906,0.11748348602921002,-0.007003218646623499,0.06323460323820739,0.12160752958393788,-0.09315272302523195,0.11351677086598537,-0.045223911274713157,-0.04662770272189318,0.009222170995412884,-0.03635109512846122,0.0178917598354739,0.02972476340082444,-0.0520598762662915,0.00532924255647475,-0.05530062482393803,0.046075114178639599,-0.05794766128688772,0.11861643282016957,-0.09150886272428409,-0.09938074876591689,-0.10441057189141105,-0.07792161525933555,-0.025246116183356688,-0.0003447971806924926,0.12500928409087085,-0.03955346159025905,-0.07613847280117114,-0.13048017507422986,-0.053864778133014348,0.033113665851361408,-0.026327267776821388,-0.10041648001557514,0.0967874258304871,-0.09225025644597691,-0.022460029715843347,0.02667562559630151,-0.02294579764619413,0.11735863878960107,-0.08356534750936425,0.07331771656050459,0.0996655295986686,0.03653046724796891,0.07153598411851116,-0.09924579020825042,-0.009396801473337477,-0.09905445167215119,0.030617137640978413,0.10664448821349382,-0.09375166404565497,0.03782685649013935,-0.0744464763383081,-0.11746059291994438,0.030244841956336277]},{"weigths":[0.003995357976012255,-0.08352969160468935,-0.08540916381863119,-0.007952633830472319,-0.021942079173286154,-0.08771712224436233,-0.10002437213277546,0.013794965795433587,0.10382784022001908,0.08712596505663056,-0.08118192925761933,-0.06685701971012387,-0.036527213676299418,-0.006256436877796017,0.03505632084222886,-0.025357058414914758,0.0038814532269494277,-0.07533999219872725,-0.04502732878927206,0.05683028739183378,0.12588627223620856,0.002229548802956741,0.024624243260066647,-0.021450812122516619,-0.009472906210631646,-0.07163231234903161,-0.11024513695951269,-0.06405165747485459,0.07857472770957488,-0.09738761130135891,-0.03929182972532979,0.004493464148959691,0.028498480104586254,-0.009959426340220927,-0.030926258239757474,-0.09650845383047033,-0.07200398852351968,-0.036895593331550149,0.043553791508739548,0.01570673141429143,0.10502970348035337,0.007314111707382701,0.10627788003528083,-0.12385919219273627,0.09412655648294756,-0.06395652389545607,-0.10707056562682255,-0.017655569824519148,0.05527824995205421,0.14592903125885813,0.008811608634162938,-0.11184035356885448,-0.01891440317672797,0.08277523072807198,-0.06232195070280843,0.08133950477034222,-0.08342099642077196,0.11416763889006763,-0.09445264061563548,-0.015207207348195947,-0.037980605035802739,0.10634530713404666,0.05753959968491763,-0.0853587602465063]},{"weigths":[-0.0017458626800484334,0.10201573517818172,0.014372928881255642,0.08149128529609112,0.015574642180281448,-0.07061349098511574,0.028526788742279906,-0.03362110522552011,0.041314229478225,-0.03274818835441099,-0.08380022771452596,0.01774626383190246,-0.005739672683860064,0.03434517030653536,0.004369791724733286,0.12161142653608033,0.10870164499914972,-0.06349072328938572,-0.08040890149460783,0.03772497886242255,0.08258736814253494,-0.030918704533186016,-0.08333711417784151,0.05119494944418374,-0.003039125258605309,0.011774998713084302,-0.09495574529019863,0.05783148069942761,-0.04214115098410341,-0.01666572827798832,0.048335138788788509,0.00019994865170255773,0.09813285466327809,0.010709689784123952,0.06054041491530579,-0.08135246293489124,0.0945438693406425,0.11286433118028158,0.08397366935151328,0.06149033007314169,-0.0023923964671538125,-0.09174823577690253,0.033499606075311678,-0.011454058856457683,-0.09100352117731962,-0.014633961848727386,-0.1007916728097601,0.01326285875906542,0.037583315664850517,-0.1239097436372302,0.03273222850632434,0.018992472662457677,-0.00786766301490082,-0.08402034580641628,0.09070883053488388,-0.008552513307067038,0.0136128735024299,0.015682865571133399,0.1169055021283395,-0.0061234333039127748,0.04480144300383638,0.1119028198465811,-0.11512714668402649,0.010477698588975102]},{"weigths":[0.06315956619942853,0.06752074373466755,0.025622563179345166,0.11535200852198803,-0.09805592655309817,-0.019359997178026588,-0.07139847652486058,0.06357542364494631,-0.03865579358463425,0.036778777512376657,0.05519034845453854,0.011986164342171252,0.11348483211625579,-0.0684105140584062,0.11645605005236877,0.04987695498392741,-0.06434145291583195,-0.09150500213806548,0.013239247437260783,-0.054606132524869548,0.055799742074569409,0.00030321733675808636,-0.06687234080379716,-0.020435753732620966,0.0784567231453425,0.056892545775662228,0.07316593058204256,0.03608365715874925,-0.08876769561207576,-0.003553550813687091,-0.14263046172182113,0.07986906649177467,-0.021310193006415774,0.00675274689037224,-0.060896177767164969,0.10456678757387433,-0.010536972294975996,0.011560088037685105,-0.029192606229005249,0.08748918378244372,0.08100666820249136,-0.08863795888889055,-0.026719504156230955,-0.03006496427806053,-0.003794742736387286,-0.05598294887776793,-0.10004036868148704,-0.003689391624981765,-0.10472754724136584,0.001104622864782675,-0.04720860525024484,0.07331869567678388,0.02398216005716932,-0.1116374944387937,0.04285779511383795,0.03974573796342193,0.027158212484543467,-0.10690110955830429,0.12374612363364623,0.07735722506255359,0.07828312302517446,-0.05900261833908054,-0.045526267193675019,0.029801940422684183]},{"weigths":[-0.014846032872331544,-0.05337634222429221,0.008820578035006728,-0.08187229403750893,-0.07171119212251677,-0.09423852234902032,0.05448048853008147,-0.00687458490052013,-0.03960806214124288,-0.00367029365683155,0.05377101079825226,0.04460534802436159,-0.08033580928596747,-0.09689555008410859,0.0836273767180523,-0.06546320791846051,-0.03060664323872961,0.02807829142401057,0.007084383130203411,0.10587693354907385,-0.041909274632052299,-0.10668840671451543,0.1069625183478385,-0.09941436122252775,-0.11476949623771715,-0.06127696349161601,0.013425160465030503,-0.08148820703904816,0.058396942934636018,0.088127554970346,-0.009644992650570355,-0.02618188580822974,-0.12652893034554089,0.11105260893268973,-0.03198936675152999,0.10375935116039858,-0.10217880625708847,-0.0651328000389765,0.11768587173513232,-0.013927444745006184,0.11505198613747368,-0.08196546798026923,0.04035328001168186,-0.009930411516965752,-0.10049723255179112,0.09691678778456406,-0.06705155315629326,-0.03994250252224223,-0.07357078168137292,-0.10049572566653913,0.02373730198009892,-0.02630064370577187,-0.053609535600268747,0.07076741572266876,-0.09643685374962032,-0.07888631237911248,0.021832473035048755,0.09136013209622547,0.03476093675530424,0.050084794265498767,0.06744577714670447,0.010900112245796687,0.08806341114181124,-0.08000029152126857]},{"weigths":[0.012712072257815025,-0.21122371204038238,-0.011674270987898625,0.0389212292349441,-0.13251796217565543,0.09541885143194387,-0.00864905655439054,0.04599096898505897,0.11865220137363608,0.06025867037392819,-0.06180138552989196,0.05143745887327953,0.08934313318442198,-0.012285500404231207,-0.00852800082048149,0.03696608059182552,-0.08001826781906511,0.08371775313535221,-0.012691018601868118,-0.1353222406489539,-0.03292620767367025,0.019840643651769745,0.12395754665321682,-0.0708918377054242,0.01076870801773902,0.1365516620854651,-0.06708669423624852,-0.06250705865288031,-0.015866859514762054,-0.10588260689037706,-0.11257546302514106,0.11284428258645232,-0.13015240071732329,0.0035512912120372319,-0.14681050989344414,-0.00400589837000638,-0.136351659869613,-0.02241215159897935,0.013600573499720092,0.06857339643137081,0.05988777306585464,0.08983041200359383,-0.027682104520098544,-0.02658889518336827,0.09078778120665582,0.06706476005240862,-0.030252292512645708,0.019122289206909988,-0.03978169291473393,0.10481501662063593,-0.05884913834321166,-0.041153073830881,0.059481403542741808,-0.08888988703738889,0.052393458915577017,-0.020011182933723505,0.08635840800840085,-0.08140992649773585,0.12724445977947974,0.09423425775598003,0.05861012832633423,0.11996079749309727,0.08443779476448482,-0.018237041866337155]},{"weigths":[-0.0025727565566373716,0.014376656245399553,0.01981907389582836,-0.02512190161870928,-0.1012086146256569,-0.10229985860343338,0.09190476830815467,0.038307744549923219,0.11046651629727424,-0.11202423551580232,0.04418190191658748,0.05915831153298402,-0.09086388372408363,-0.025467000863492928,-0.11688816439477308,-0.039797100694809229,-0.009039920938988705,-0.11080290418610202,-0.07369815702773045,0.06506802545019043,0.07656451156493358,0.003411860307177161,0.012633712298508,-0.07805980319524413,0.0629961433658974,0.08002917961721296,-0.0708336891053426,0.09222961508868252,-0.005533581633225182,0.014759071762765254,-0.10049164205910667,0.11756621169720393,0.07047145841182023,-0.009407135230196632,-0.11274835786691766,-0.11891902867807827,-0.03855570266894487,-0.07281991439336395,0.05391967419436152,0.1151164153296139,0.07287450257567484,-0.12212780775093026,0.07130737274263681,-0.10706371905537418,0.11808356280002103,-0.021163004717383927,-0.07807077088058176,-0.09632905507722628,-0.07625529362299025,-0.08340889233571083,-0.08173743209527816,0.030432320990412839,0.10644910936525237,0.0182957638176594,-0.09517761601576737,0.07695474482167049,-0.035570723480136619,-0.0684393234389022,0.03882770855626733,-0.06670501466894975,-0.09575576887872547,0.03606653324733703,-0.04317823470620727,-0.10234751163924362]},{"weigths":[-0.2640954764267708,-0.23431758116624525,0.10198707987943175,0.01018189956601234,-0.2011918718811709,0.12761943014165348,0.21853136724832446,-0.0872198531984102,0.22639536795274699,-0.24937948754164303,-0.1947140123200855,-0.11174717660253202,0.05821172871670132,-0.13180528161743328,0.13193591985672344,-0.22500509326474672,-0.06943814090584079,-0.17934017054852625,-0.012738041778211527,-0.14408774444519777,-0.10841814976098506,-0.18623662337546249,0.0633013116611648,0.13755348871910259,-0.06034582348614734,0.05950117320789508,0.14295460995620896,-0.11707964112654908,-0.23314851367097914,-0.0025677118356261898,0.08143563202308282,0.15015973007654657,-0.2859796425415368,-0.1144611100378314,-0.16951847625794665,-0.07935517045634227,-0.10050080509777307,-0.07797887815878066,0.01842824875612169,-0.023715869010153134,-0.023804848649141114,-0.008684660039192327,-0.04065680732986913,0.2937765019412017,0.04101487708481757,0.06981669114694363,0.016606652766338285,0.19092879008352468,-0.06790684432191607,0.1111419639448233,-0.17790123463077688,0.08645839337711556,0.16691316740266247,-0.22271642391444677,0.028279441049733967,0.011426824840910979,-0.0730205859731541,-0.04186169490587023,0.12477496091887594,0.11780311119860197,0.13732346338668748,-0.1373019325538402,0.09230625805951001,-0.19291104937616214]},{"weigths":[-0.03191945189897283,0.08126330909149916,-0.029142537317559598,-0.0488202873269114,0.056319944151581927,0.055130448466141287,0.022165548842197636,0.09255088018921247,0.049790909757854908,0.09112435959575813,0.06820791767846886,0.06576825605352577,0.06397569941834522,-0.08964477421745543,-0.02511258549796299,-0.00828329765159604,0.10336739428056485,0.03187951219942426,0.03343026485731448,-0.02231723394270839,0.133180751585698,-0.10918763561264049,0.027972049910610854,0.044980055759500769,-0.0006538753364728298,-0.06624257448991737,-0.018136095357442425,-0.06406920913266019,0.10793892448513569,0.13706050837572016,-0.04971808201279441,-0.038423217489511708,0.014124041406065859,-0.041721646564036578,-0.009622360150326855,-0.048751087899558499,0.1093344570421046,-0.09628196866597586,-0.04266044012138358,0.1118154097057757,0.05760412983803822,-0.11982851499157298,0.046865913730076359,0.035597259879025438,0.05306700866861304,-0.011796227711158071,-0.0020962908578576386,0.022943356840585205,0.07009444095417863,0.029612543879514388,-0.0750586742569241,-0.005942480516276995,-0.01022827860197924,-0.03723530431806286,-0.1016244760579708,0.09400765781784802,-0.03454146438045276,0.011524445026523519,0.07535201355998807,0.08918981452593582,-0.05361397895867363,0.019141126976216596,0.030052968685619666,0.015715395835658547]},{"weigths":[-0.09425821946512066,-0.1316703808848539,-0.12457515707312268,0.04252303860137808,-0.13487719408541447,0.03484843327040227,-0.17533161640945728,-0.08465501032809242,0.06157454561391409,-0.23145148216158605,0.013547045048010057,-0.05397488785726916,-0.15536358994344719,-0.072912193066782,0.05467996934852656,-0.026725347475277166,0.14968554361234968,-0.13997313334032694,0.0712656282424238,0.0037775928617983318,-0.13728320885285509,-0.24160493644634593,-0.13796319688401294,-0.12645919478585525,-0.1337356874866792,-0.16667504946117024,0.011211639098581679,-0.1855561835420699,-0.11394737784185225,-0.030060069095617118,-0.09347952305607492,-0.06855063273014896,-0.030891935457924899,-0.17384113928360118,-0.0055519310234659669,0.06502777238721891,-0.10664988639625994,-0.060194224448610087,0.0922144152596242,-0.017841216567277716,-0.0674712378677321,-0.06721394884572214,-0.16173836739849779,-0.06856352536535836,-0.041646722717600549,0.08251560044178877,-0.11172347087141324,-0.1415154870304934,-0.07421149773043984,0.18865926205389195,-0.06519178013767249,0.062147781916768837,-0.13632236035875984,-0.0317866327411955,-0.05303628210725116,0.09044457090344178,0.0421021617811351,-0.015416463454365351,-0.06273138828529049,0.055607544974450539,-0.09903169554704433,-0.11889446227566876,-0.12534507112587058,0.032959594048582899]},{"weigths":[0.03957233527452481,0.05001820937419787,-0.06871389131088775,-0.10327647690488082,0.08256596829277918,-0.12059640808933842,-0.01684801373561713,-0.03348359414861284,0.08318273577291859,0.09588733139365842,-0.006803407548788126,0.09152246660619018,0.10973678818866754,0.047270969208037357,0.05206012336866091,-0.07271540799185664,-0.015486705517365619,-0.032801966910193717,0.05170069909702922,0.02465700397830309,0.12014201266933455,0.053257485985284579,0.07800570501636003,-0.06620297324764424,0.1064345773839882,-0.001835157599166668,0.08926319244160604,0.025398357143214698,0.05593331894513729,0.05038765414991972,0.07413820619929776,0.11381496773602955,-0.09190925346126849,0.10238218055271356,0.03738611975247012,0.05821087865095343,0.13214327302335589,-0.0279311261167158,-0.1195448950064837,-0.01974166515342832,0.0383240221191524,0.03994747574583779,0.09013293450095147,-0.04848828328769444,-0.06187485622524551,-0.10844273189728519,-0.07342828468296878,-0.12079708203677063,-0.07261231573565875,-0.03212312117900346,-0.04591013703480456,-0.02429727859169633,-0.0776326806734872,-0.02470008958188173,-0.03529371483017792,0.05599519165688798,-0.047082368592959677,-0.008828747120418118,-0.06938335513412206,-0.05610225576305127,-0.08628730695498867,-0.09707921230474273,-0.11461299263631586,0.017330156583364715]},{"weigths":[0.06838176716090888,0.22055907709857257,-0.05113622431182868,-0.09935423219915139,0.11218966925336729,0.12550084416831573,-0.013087637563136683,-0.07211843903768769,-0.09958040744870857,-0.009929227717459123,-0.019978443233126827,0.033727370764273397,-0.018403194997238346,0.10036286443602437,0.09637616776272738,0.08343152662532903,-0.0018031222086715164,0.0012190148697373302,-0.1584700282457904,0.013561871414797766,0.09198753713137378,0.03796623378635593,0.05556008970325296,-0.11632533586253152,0.10171562193134774,0.05667716467940735,-0.14891380360918217,0.1609571434794419,0.12239019826765384,0.020905820111590396,-0.011624899674379826,-0.10937304276526436,0.06994757077809637,-0.021219766280193575,-0.0347866252418408,0.05159130080381859,-0.10131368418304089,-0.07429041911894699,-0.1623517626399003,-0.13217632846391476,-0.16077150328753449,0.003293579171321458,0.005251170115665974,-0.05063449571498971,-0.08349293823211353,-0.16281330806612688,-0.04144745957531567,0.06406247164208323,-0.012797616361292844,0.12638878787223779,0.0773506574225461,-0.001534522721031618,-0.011968218853551162,0.07633585274057982,-0.01185277371521523,-0.13578477946167057,0.14789746060301035,0.0773880445801595,-0.009701549789014899,-0.08966365896454586,0.025026448791933745,0.1216618033188433,-0.04150956339932027,0.16447853097065619]},{"weigths":[-0.11807498195432409,0.039828626573817697,0.049372036088672497,-0.020312656410417536,-0.03868454292594443,0.0847326521717916,-0.07647717269249907,-0.09628654627746859,0.10070879317060519,-0.0884819885295852,0.15113441490681324,-0.10879511766611437,0.07146881274607192,0.12170906818481665,-0.11097637394471086,-0.01918034970281629,0.07035890174109959,0.0909748828892975,0.0005780759798324246,0.05267487206153284,-0.05833212697197,-0.060005508622816536,-0.04332074027579907,-0.05154609809080093,0.03412240603975656,-0.09914741002155761,-0.02837130494697988,0.008891071514280425,-0.12407482604721382,-0.05352873590921006,0.06342280533161546,-0.029855514246528188,0.03857649665159316,0.052663385058155928,0.07534143042903648,0.09657184799738895,0.010775763488570257,0.027553178594440176,0.06596954511097364,0.006572141000425944,-0.000843557263774405,0.08051075476235559,-0.1065822874827659,-0.04329786931826912,-0.07936805502924015,-0.024824367896760337,-0.044656637481075598,0.014795332773718993,-0.08717204982826253,-0.012046341765171663,-0.049968446253299058,-0.08854743570709432,-0.08211083189703812,-0.06316866695181833,-0.10635162928442132,0.02862495076308244,-0.11019346890608423,-0.021840691950739,0.03292429574526748,0.11898876534736967,0.03802813381315359,0.04974881431972497,0.10615243892180884,-0.12014973112006967]},{"weigths":[0.13573119889614855,0.1713674491951112,0.07971146571682646,-0.15471834108455388,0.14312741837043475,0.04899108737624882,-0.013563277808313158,0.11606105200504265,-0.14192562301180268,0.12662420921061807,-0.03733469335717354,0.07270169658852661,0.08261642522589181,-0.02514468347093438,-0.009434901824444574,-0.02554916463142197,0.15714393576239853,0.134061353570361,0.02212261275799927,0.1714309872509173,0.0350505807899809,0.16702787264568276,0.10789400152887378,-0.11843203880597127,-0.04116372640486094,-0.04044768912318363,-0.08182675937149564,0.07286679696598403,0.0758747388171593,0.16482974566821335,-0.07570073533177016,0.06982704405226745,-0.005091197433355573,-0.07786576457876204,-0.05343074267409909,0.16544309734118255,0.16051880659759977,0.10240887266650388,0.018072100879777135,-0.006265653320553778,0.006186743534969407,-0.02565852040360828,0.07759589453548012,-0.1102542268793119,0.06998626326730355,0.01738172802125695,0.04348121939863768,-0.08188011706932048,-0.04130778374435609,-0.01899173014705833,0.05467452680831774,0.04490517100354637,-0.1571292505997127,-0.0008647763618369548,-0.06872539680706903,-0.0037664178530704276,-0.02457735934984876,0.023168506167744953,0.11869081413445146,0.05848827918277488,-0.09461164569501404,-0.09377463055317788,-0.09568685396731318,0.07782198299492173]},{"weigths":[0.03372585175954653,-0.0904579519298193,-0.06567753194454028,-0.009334002492592773,0.045257763092967449,-0.008851268713797619,0.09866561895455678,0.09301827424516891,-0.042161797389083929,-0.07501979584281544,0.029818966203358285,-0.05964243903862456,-0.02784203750004855,-0.031607456317936457,-0.04004877391161588,0.04267801027377215,0.05999501745029838,0.1188261033567568,0.08150925345291596,-0.0810836582165054,0.09522751116517404,-0.0922250503247381,0.09503380844930687,0.007846468956625413,-0.11143421056736618,-0.1041515516924912,0.07267318093180413,-0.05657843893644789,-0.03461763167427804,0.09008192536024921,-0.14226148295618375,0.06971648149927695,0.06053237895428738,0.08726227539260598,0.022816423543497313,0.10759391636268248,-0.013052762974622885,-0.08484286817629384,-0.0765819206568806,-0.10876644645581452,0.0934444366126536,0.03179194742391597,-0.04918687290153965,-0.10612394834732134,-0.10497938217527185,-0.02311563600622807,0.09580674470645971,-0.043063898567741027,-0.08408443368137507,0.03222455311906107,0.09235653527695398,0.03302121796103956,-0.009234157839415513,0.005215008494169638,-0.06169527316088212,-0.09111903307379836,0.005279621301819835,0.09595046865362254,0.10525892642743633,0.02722163757515092,-0.023247111565503736,0.06026898521705994,-0.10659744080774941,-0.11924752011307365]},{"weigths":[-0.07473617566882805,-0.093599845537363,0.005689371156398797,0.0078124058191892538,-0.10426297076206973,-0.003486169745713583,-0.11968147510877622,0.0618435109291468,0.050545518607843818,-0.10163397720813362,0.05378028383315445,0.0781856442244279,-0.054149461149629238,-0.0792575136293516,-0.06050459282318066,-0.023318047992056554,-0.11188566692749848,0.03253240341191097,0.019242644022321923,0.08761524087701202,0.0287496864223835,-0.08868379189618307,-0.06570807059406546,0.1037273695916999,-0.007570022454419752,-0.028784781093638458,0.10380727865097214,-0.06370035517389923,0.016861791183676167,0.12305155178872727,-0.12350728984240454,-0.08760653655938926,-0.11719237553687381,0.056310231134818988,-0.11826387745114794,0.04968213681426644,-0.06297379857849438,-0.06214610467033123,-0.04298363480860752,-0.0701300609068768,0.10666670924644144,0.09563291439035124,-0.0017559528084690789,0.12088050160461092,-0.004274733293223341,0.015271128385180345,0.10253037091152081,-0.007933769709211839,-0.045337736286786448,0.10990689379869379,-0.07476327069318645,-0.08724512403668394,-0.10730534164469112,-0.06314564847783626,-0.1004069588986496,-0.03026495754536539,0.09171984839211252,0.04179191248676918,-0.11332111060638342,0.06880227137648722,-0.12245293648384045,0.013053742677749612,-0.10353619822557493,-0.031008960279872486]},{"weigths":[0.03350131934372258,-0.08368089240779031,-0.0860696831513172,-0.10947393548065893,-0.0383151904078789,0.1075935557411927,-0.020870741718068437,-0.08534940554666039,0.03858476684972674,-0.055905332606741488,-0.08015729042687375,-0.12219421011713219,-0.07591202451504381,-0.059136910023895827,-0.0499605291644322,-0.10135251214223939,-0.07458839427478707,-0.10299605705204067,0.036791721446211778,-0.029835453469001444,0.0388173933325567,-0.06076964176092045,0.01631915852932945,0.08985481300332021,-0.10313205070087286,0.03122875203504147,-0.11223721029854882,-0.0512305200333284,0.061240704983341869,0.053207116729485557,0.11266672734493788,-0.01074727733173649,-0.019893487465844605,-0.10134131155013919,0.11114845859523599,-0.05054471831943685,-0.00020590942132365616,-0.08660494265726955,-0.01425450734324732,0.061166556477198399,0.049136222041463058,0.02467182053964729,-0.11877153286062152,0.039635934623094688,0.029010554832734186,-0.10358672052772052,-0.021939670224749295,-0.06198246762730592,-0.002623598598287774,-0.008022019886806278,0.02316401650651314,-0.0061892842396682359,-0.11261759102077705,0.08484937839370242,-0.07416088194383223,0.07669694253028559,-0.08582949141369492,0.034146491797046558,0.02405312529611421,0.023808580210399556,0.11400316586472488,