{"LearningRate":0.0025,"hiddenAType":1,"outputAType":4,"layersSize":[9,64,32,2],"Layers":[{"InputSize":9,"NodeSize":64,"Weights":[{"weigths":[0.123541601836018,-0.102574858415024,-0.10080579421857569,-0.05878945138667969,-0.04019966757854309,0.13461931154488139,-0.012627342728476599,-0.11909342299879498,-0.08401190404889469]},{"weigths":[0.08844048881074716,-0.03304003222828084,-0.014192792332604395,0.16227194495869805,0.15260129384319436,-0.0822838729997069,-0.08680105247457001,-0.1369752863117113,-0.05663582998180339]},{"weigths":[-0.017286209123947968,0.015330293188367652,0.045570533733068369,-0.04399814273312244,-0.06835065601009542,-0.07554446417237731,-0.016572844718285918,-0.05741176999982138,0.036542071156928087]},{"weigths":[0.18268705694304827,0.1014862989929698,-0.020222875626307685,-0.002322673822715128,0.03817719189407424,0.05318301767498806,0.04776777425753768,-0.0843265454494763,0.049596558904335407]},{"weigths":[-0.04125675487997901,-0.05791085651776886,-0.13169903895552569,0.025138646085160856,0.09034040523839433,0.13797710932745969,-0.1062633213138108,-0.08101346882665907,-0.01431990147317946]},{"weigths":[0.12819956294689872,0.13808691969277263,0.0770780009754968,0.04196647762404904,0.0824855657797178,0.048069197408293028,0.007400795971895725,-0.1148600277995012,-0.04962576167933281]},{"weigths":[-0.11052904578187495,0.042056000482031518,0.11646107828769187,0.014251775330225826,0.10348317370559551,0.023610186389721425,-0.15036734240180986,-0.08421500770263947,0.04426070154751016]},{"weigths":[-0.041433732040593387,-0.1286498940982747,-0.06886387978180653,0.07600882197599776,-0.15968826945578006,0.010720445057152204,-0.026973108972994997,0.02877014724384946,-0.15712130899860703]},{"weigths":[0.25580565673155999,0.08388991532735628,-0.15506491750531474,-0.2543512100393931,0.05766911743131323,0.0925448602230806,-0.10913720352141528,0.045173088984911607,0.0037940106974391244]},{"weigths":[-0.18239295775523527,-0.0016779976416089417,-0.006985753928255734,0.11280052541491091,0.15311892054836866,0.029876217381444468,0.016294687902392775,0.03653079353528937,0.03194540224603767]},{"weigths":[0.00044050110936190375,-0.03794043592144676,0.07500875777187305,0.03773816189974789,0.14647119769107368,0.09755525831843799,-0.16267959927285076,-0.10345473510105315,-0.005178107502286693]},{"weigths":[-0.027880800009503594,0.02995534139692382,-0.17125588259518477,-0.17019437768460128,0.024906456321030679,0.10602644625593154,0.15001991680635408,-0.07262012442067315,0.021530009027731509]},{"weigths":[0.16043245807488733,-0.12236108733057337,-0.08042328645614674,0.01831197366010131,0.026264474557628087,0.03496300341293551,-0.016319803791060768,0.021879268802585069,-0.17724749555622394]},{"weigths":[-0.09245368643066494,0.0261173998573162,0.13634263874168715,0.036288488648789998,0.11670683601422864,-0.11437955692748277,0.016349335351283135,-0.055178923277451007,-0.10693357088442465]},{"weigths":[0.07254452938242631,0.12962292275740773,-0.08838595569549339,-0.047920608006767,0.10470580434029349,-0.0773282406830165,0.05332671702416015,0.040431860727365678,-0.04821781735433851]},{"weigths":[-0.03754337135963188,-0.12726224825535127,0.13456717402269956,-0.026426778776744064,0.10740781036987478,-0.16777159591720593,0.025516549082373765,-0.026673251736503417,-0.013560388467746637]},{"weigths":[0.13390093557146219,0.07938672337352869,-0.14416470410314248,0.02027993317511045,-0.051333500149691787,0.05398848015452307,-0.003816148271317045,0.09227130826912973,-0.0003714440904625416]},{"weigths":[-0.19329201224581808,-0.12573118265766923,0.1080870815789855,0.052675472894708589,-0.061692290777358407,0.1494824323845851,0.06035408921263404,0.001228225752379883,-0.05256949754667173]},{"weigths":[-0.09964012847482858,-0.11844998067732329,-0.06595622406324872,0.06513087619982791,-0.08867123169838204,0.043117396757661078,-0.0691333266315777,-0.06842110313323204,0.08262035651097526]},{"weigths":[0.1019175691668842,0.08422426938192167,-0.0059197316562428089,-0.06891220711890728,0.08878497542108736,0.13180385390995914,-0.04601081061332946,-0.09100364150292248,0.036738191675917738]},{"weigths":[0.1566085830297855,0.202569853084673,-0.06553508965938926,-0.07671170582318239,0.11219309878219806,0.14018104950893907,0.022846170501697378,0.02171270551752425,-0.010035434707358095]},{"weigths":[0.017519884154399993,0.06419202155182322,0.10894630219986425,0.024274306517686325,-0.10401379174522883,0.05742479132707864,-0.04899489560243388,0.04469560064974465,-0.04989877773498326]},{"weigths":[-0.0020969292171507936,0.0433669971251745,-0.014864035212147742,0.07390993604101276,-0.0301854112560056,-0.07872151486888286,-0.034622338715015899,0.0005003074403042907,0.07609639409846847]},{"weigths":[0.02978567071163945,-0.18828052432628268,0.10971243011186588,-0.08800250963005292,-0.1277991489541726,0.1046049024077853,0.09851998095097055,-0.008536806328156812,-0.01700813592427538]},{"weigths":[-0.060415689368174,0.10714232764102993,0.029135863337725284,-0.1123471269574009,0.016336791585917614,0.09638561122326125,-0.18062056339899328,-0.04423685276315399,0.1686104011339748]},{"weigths":[0.17961800426851003,-0.07626970374199488,0.017093336081855996,-0.009149113995515936,0.07894558139402236,0.07095189995563128,0.009205623963440551,0.006742132318654271,0.05184282938585616]},{"weigths":[-0.07480118698037351,-0.05588959292316308,0.02326644852963762,0.0728035106011223,-0.022220430427577904,0.02073812065217832,0.04696342802316321,-0.013427378788367035,-0.03339986285542044]},{"weigths":[0.0593282365339442,-0.05232002444546437,0.010349822160379888,-0.12377242980183095,0.13460694046484826,0.10325477850582872,-0.04834631834281593,0.06036888228083443,0.06169677247425228]},{"weigths":[0.07252330196370333,0.013397444201670649,-0.07370739858932288,-0.12297610497167869,-0.05229541147951483,-0.052264369055019677,-0.003367802445148182,0.022681442646744648,-0.025012577242871354]},{"weigths":[-0.25629162502809307,-0.28750857131874199,0.2954248815558701,0.2146123614050759,-0.12159815577927853,0.009804811873520432,0.019973131718364624,0.026848812123860347,0.033087438127947958]},{"weigths":[-0.1071907856068085,0.029159037046027813,-0.0800264946790642,-0.09586809888329197,-0.040456035673858577,0.06176859491038465,-0.1110544072907345,0.10843631916792386,-0.017636546250217216]},{"weigths":[-0.14775411647383897,-0.3281701972178322,0.05780521543894598,-0.030475410034876646,-0.10388994069031145,-0.0005713871331460712,-0.07395717345157976,0.11654837520552405,-0.29215907327784998]},{"weigths":[0.025362306053034419,0.061962569607840339,-0.009220427511657024,-0.05773203821766359,0.026386165903633703,0.0023419784475079287,-0.15054905656387253,-0.1482010177425694,0.19655272514125478]},{"weigths":[0.043824875845917449,-0.14777368776079756,0.08196499197624753,0.07459156817486712,-0.12219615422360143,0.2058094132926539,-0.07593588605898046,-0.09397923675092059,0.041517128307571028]},{"weigths":[0.01594447485908114,0.057844219131868098,0.11010873078394379,0.014188340471363324,0.02160922961719218,0.053968373380656648,-0.09456453308210293,0.1085947454203859,-0.11740719237686884]},{"weigths":[0.06371722590927617,0.010905452613669853,-0.03027540951509833,-0.08060920975479774,-0.017172026316696396,-0.045953073430744287,-0.0800753170279169,0.09013469516579631,-0.032863757148113809]},{"weigths":[-0.07827579568342343,-0.1245913032077649,0.11684987440463232,-0.012764998054287807,0.10507953737945017,-0.04073124997881512,0.08138063170241382,0.08245221713726482,-0.06453661306263864]},{"weigths":[0.17316536066029848,0.20326412857326718,-0.06742450943361769,0.08624396033710134,0.16758951374226206,-0.07242020890328367,0.05141474327084342,-0.1297170927121207,-0.1155346380593763]},{"weigths":[-0.10145057390655563,-0.12188575507341741,-0.04801605628104387,0.09981729276048912,0.12409970518453824,-0.11260100513118768,0.0012658570723358078,-0.03499969415244564,-0.028643166254009819]},{"weigths":[0.0972589987662712,0.09013255523713582,0.04941164091698962,0.01480869462318157,-0.12787839689497083,-0.10546382779543893,-0.08265038516190919,-0.027821221860376,0.028583720425889165]},{"weigths":[0.18190569812874189,0.18302714716202204,-0.3427510103608577,-0.4270192349751478,0.021248272739977534,0.13459319698610493,0.01106746399744786,-0.18181465264388725,0.13220986244553707]},{"weigths":[0.08764823892358961,-0.009958224028434663,-0.1285063785742036,-0.1804371559972843,0.05026807992029445,0.04714109611947767,0.14889692522286702,-0.1364125336394523,-0.061087568023431567]},{"weigths":[-0.24407105814283645,-0.25985449250395439,0.059480023520240909,-0.05168850539956489,0.029243819056870274,0.07652147483272896,0.08631040888638159,0.04027006183327119,-0.08330758460283962]},{"weigths":[-0.04958307470338462,-0.0833295728095055,-0.09854941834982367,-0.06075283082253179,0.11562653979685554,-0.07690846394971149,0.06505655354322637,-0.10597743668910269,0.08612290997027385]},{"weigths":[-0.06959400724744915,-0.03809809127541776,-0.06196546826296776,-0.02945647740638704,0.0029193064796020969,-0.009542248177938437,0.007780014062910107,-0.003888801999214887,-0.010727983961900499]},{"weigths":[-0.04968153514223337,-0.05469858828189709,-0.1666542774705569,0.03299039390628186,0.10375171814344653,-0.0213744325467128,0.03583660804510697,-0.08114140438962973,0.10909762671335911]},{"weigths":[-0.07802725506405609,0.02395292646095864,0.08520673278336427,0.07526776454598168,-0.06781103934054865,0.03942933035353092,-0.030162786111533586,0.05705942729036297,-0.0649488262346646]},{"weigths":[-0.12015250926841156,-0.04710657187604668,0.01004716078745997,-0.029436451393637789,-0.08472514821977624,-0.12100029942955995,0.025343076255987197,-0.01004196745259872,0.015026575436227688]},{"weigths":[-0.11870405408958224,-0.025700638814158753,0.05486336557392934,0.04000023640617957,-0.08868069833756112,0.10534098924222504,-0.0014963512302591312,-0.03803978472655775,-0.08820676854847629]},{"weigths":[0.09003917140656229,-0.1647102785271669,-0.01658464639155774,-0.07420055736468334,0.025529615724009286,0.057487930662014009,0.0703186193485281,0.05164258866278021,0.07325983887229686]},{"weigths":[-0.10680031966472749,-0.20223650542953318,0.055581121389782456,0.005438825041316966,-0.04044820010453462,0.11085325399413054,0.04258212485130851,0.12426580367980203,0.10592663887322446]},{"weigths":[-0.02594597507199035,-0.05205459246580757,0.07293373841128695,0.026267304336585044,0.0008832316413610714,-0.09509278391743702,0.08342075482411803,-0.11864940451802836,0.10984681161675335]},{"weigths":[-0.051374618744054457,-0.09755911370875514,-0.07752677453637078,0.05193296892093251,-0.070373718398815,-0.06121087890994563,-0.07809906513168964,0.06130922455240821,-0.054235042868225179]},{"weigths":[-0.12412659111212761,-0.12011989447196626,-0.09389984785500144,-0.09548410942825156,-0.0516255182523341,-0.06987905109849224,-0.044181633348519839,0.09413043687975625,0.06091355967909877]},{"weigths":[-0.0895766569220076,0.06208445647992767,-0.13361449480198757,-0.07848656129543465,0.15103042317499874,0.08261719408996705,0.09360318593812973,0.026337083630235609,0.0035220615756945885]},{"weigths":[0.1267050158015129,-0.06938904454117173,-0.03100968237926532,-0.003001568481826696,0.0019162488017614556,-0.05028046771337912,-0.1885531734199552,0.00124870489820626,0.2060911892513253]},{"weigths":[0.16885738644104038,-0.046587730663579889,0.07095442632105321,0.09086209896509652,0.11942812854235754,-0.01501163194576237,0.0015226719673553649,-0.12104886355600667,0.05878787520223485]},{"weigths":[-0.11182421350480633,0.06142127553743262,0.05713940722603762,-0.03329948607681904,-0.004725658753718689,0.1183352754851226,0.060420072650281677,-0.01844362588701887,0.014533676878069727]},{"weigths":[0.04848726765331831,0.1892567351980095,-0.18350953115920588,0.12180328398634712,0.06876044014790772,-0.055799095140520078,0.011977499271387651,-0.10927569180673222,-0.02284330862961005]},{"weigths":[0.10622612725204278,0.20887892809726123,-0.1576806962082,0.13559258487200144,0.030148105265722697,0.04594333708603597,-0.05896398340383487,0.03706149093827317,0.000357590596775307]},{"weigths":[0.22918829660812987,0.044221349582314748,-0.12646304675700713,-0.07936881799200142,0.04143533083629448,0.02801121877678087,-0.28300096249609665,-0.08725651722539267,-0.06548781237351126]},{"weigths":[-0.0126243067944117,-0.13437884500574627,0.07593628925315695,0.06712261158482934,0.015565870762677625,-0.12988240330633878,-0.12378630571605987,-0.12018181978409325,0.07293704533023525]},{"weigths":[-0.02469607739806723,0.09171439421782311,-0.049774946289797759,0.13291204562278337,-0.08153468963077748,-0.093683874458955,-0.17148267574894389,0.032535690284929908,-0.06437333465089793]},{"weigths":[0.017028757766963763,-0.040635279491517548,-0.014538695344886379,-0.019392938786443639,-0.0727360438152297,0.07499620559980358,-0.11285287606562744,0.030112220664375735,-0.012630139427064509]}],"Biases":[0.022742301627829726,0.0846495111633296,-0.010837853410761364,-0.0641821179635884,-0.006029026715603788,-0.08666780566249445,0.05110091930767792,0.03337910184962416,0.05135151527306743,0.008291797069671732,-0.022857983806654503,0.030826123462957143,0.0651140732401175,-0.03712889857999548,-0.004650550669317067,0.05130319357184784,0.001728882979010901,0.0773303337094975,0.00004880389099601213,0.010135271901263473,-0.14051177682919875,0.009196317842084943,-0.00371561236177917,0.08218645040929185,0.03530327948453518,-0.032452925714845277,0.07942666047369809,-0.035340473169171989,-0.00035967161828484053,-0.03877873594181934,-0.006514164405395727,0.2639934749054243,-0.006704194041599578,0.057823059883719617,-0.007474034499096942,-0.016307054583983076,0.005977991466062703,-0.0902179945979028,0.012919260943184843,-0.005025351336785061,-0.0667926193791336,0.05060016942669455,-0.001551838122425056,0.012406896604997041,0.00012928192813345214,-0.0020497199827732928,-0.021691506079592965,-0.0002344583097656964,0.03774938881366041,0.024281699011583007,0.08294816279153956,0.004662443847568766,-0.009878538622954196,-0.0004660300549316714,-0.012264812493221048,0.00239066910582568,-0.05218363553067667,-0.023673967828659417,-0.008272502395487025,-0.06505380489541486,0.0446996228945304,-0.027724706420892504,0.03767257627593695,-0.01285929533057541],"_Inputs":[1.3578699827194214,1.8649075031280518,1.5760159492492676,2.005679130554199,1.8992919921875,1.8992919921875,1.6517333984375,1.6517333984375,1.1227998733520508],"_Outputs":[-0.4101472763779498,0.14651597713311116,-0.37661947104885809,0.505460233596859,-0.2189566268060873,0.5653179183378798,0.0951575410163828,-0.675264134016196,-0.015473599163073018,0.44339859938982875,0.11895884400705421,-0.16172794449365916,-0.10879378541508123,-0.006081986066485821,0.2528921834241494,-0.2097163032356575,0.29579532208583217,0.06584089646806035,-0.5504215207736894,0.3919403215456951,0.7344689257918282,0.22147567470626929,0.021349917535633899,-0.14661142905852227,0.005680281877872832,0.44706445407633429,0.07140169212891116,0.2566587630430268,-0.43448512582813006,-0.12476793840378313,-0.3997379662436472,-0.9747545891347953,-0.2052369722552613,0.04527458345095041,0.3589344831866025,-0.2590177702192896,0.1462641852657205,0.5123858232317767,-0.29365618801053969,-0.1908572318228226,-0.7126977891353344,-0.27634269346352727,-0.5110827708600325,-0.38484332773122728,-0.3403552789843841,-0.16387820861001024,0.11991526334927179,-0.643028404239746,-0.13737045245836999,0.1057863190006336,0.1875097028167772,-0.07380122158818661,-0.6181452931623567,-0.8124007566957096,0.25974538782108816,-0.17969119912194859,0.4511915532406032,0.2637133258841148,0.20383567781788967,0.6009208708872456,-0.4733165284346636,-0.5793655979212968,-0.27126244773811028,-0.27388061461344095]},{"InputSize":64,"NodeSize":32,"Weights":[{"weigths":[0.04621532163356187,-0.14473477834272015,0.16464378610082984,-0.07978751908312426,0.028197951276657523,-0.006255917084317225,0.07359892104206775,-0.09335400994837742,0.1530732193789521,-0.011307347901388029,-0.151450321680014,0.08560935697265272,-0.10899259126334775,-0.1090794423248773,-0.13179852303537205,-0.032797251303813539,0.09825814389306317,-0.12114759557857854,0.026145603058876467,0.03886622528042658,0.03680926285142546,0.04274255909701324,0.07257536304888594,0.027385264605305355,-0.1910313464978156,0.018417148076274056,0.03662091368632987,0.031771745254857399,-0.04064907454931842,-0.08385689087519599,-0.024491017326787619,0.16045915258253416,0.01862546290682304,0.1524163080992753,-0.08952241511323996,-0.008906237778376099,-0.15239105460223766,0.10530614171399212,-0.04963766347349859,0.10086610499916575,0.11702895192305712,-0.09952381931497836,-0.06950045836738006,-0.003412074073494037,-0.000006077524942383841,0.037815323531872838,-0.12550398354832924,0.11202243477332195,-0.14370085938063188,-0.18114069087513597,-0.0968931930769458,0.09066451008474287,-0.04292341970306064,-0.1155069830909583,-0.16254121718032908,0.11438070279795454,0.11572758693981351,0.16177966994415025,-0.061381844403045369,-0.10577637927010415,-0.07551833268642362,0.13576074991057128,-0.03199750682665104,0.1088633201034825]},{"weigths":[-0.08268646106746244,0.09715424642572553,-0.12450160553639368,-0.022153365376329449,0.10291929145901854,-0.017394336733056495,-0.02570930706972878,0.015752211321212667,0.12122532471453014,-0.14926693773886788,0.023291966242467787,0.08500398002095144,-0.13670513752398287,0.11234206685680536,0.10237426354726449,0.07000350345862319,0.09175266518841963,-0.06550239413513899,-0.13265069929874968,0.1004760203218945,0.16138959462695297,-0.1839423179445588,0.03818734466504506,0.07435804527328373,-0.015143745945523219,-0.01165333678378448,0.08502084887405784,-0.16674508276263956,0.03586810452095577,0.1346458977371837,-0.04274192302771602,-0.06137004138014614,-0.004871343782403523,0.1536612627632966,-0.20758284241816445,0.16536461084189434,-0.12085145517510548,-0.08963067091197384,-0.14861065212501238,-0.09813197924387764,0.16660331707367743,0.06283048830867158,-0.021104003956281364,0.02903245053435423,0.046392664934212627,0.11796389907473871,-0.15698115637256378,0.0008705954890819223,0.055336488724638189,-0.14390875268317017,0.07829811571005629,-0.10829551976055965,0.15609470161828915,0.1462018622899371,0.008352311041062662,-0.020165179758336619,-0.07490715473882766,-0.009337687407931624,0.1422531470747386,-0.05389316922197136,0.09507816731498416,0.15175448069221224,-0.07565539765589598,-0.10551554444052716]},{"weigths":[-0.17599966841938684,0.008806513206712568,-0.12665113477792534,-0.17821545406172532,0.10639915127442402,0.024054052247091053,-0.08385336303254064,-0.14021838160673037,-0.060764647321754978,-0.056939308582831377,-0.11565057366484831,-0.12363266926387495,-0.16740378884107066,0.07947769460311899,0.10526378898279937,0.1708609863069294,-0.020403479738288954,0.07277359886043936,-0.0026779716607996447,0.012289278259266205,0.10866808063331755,-0.03303500707971292,0.14963706375086636,-0.12923002967744805,-0.006769686133059816,0.13342470178409125,0.08088482101304381,-0.0012913730572941829,0.13190063909961179,0.014212032865188818,-0.06663614729007664,-0.018236483647617195,0.06215617942043891,-0.041094198188014959,-0.12855752402755259,-0.011334191668495267,-0.08380904320764594,0.09211670886064139,-0.06538564101281019,0.15338114969540837,0.12766334329779087,-0.1590607952488038,0.07770489612870058,0.01238717857328094,-0.10333631929063968,0.1392331602940709,0.0673147578351749,0.1434423925028802,-0.12356258955966253,-0.03072101182828939,0.02140570045434226,-0.1170018106866731,-0.11847529915199662,-0.044062880853324107,-0.14355516324638718,0.04218090025576081,0.022878370536647795,-0.17226391622651364,-0.17172225692950714,-0.10404030191948031,-0.025771378943661779,-0.15592969581617756,0.09238875912937833,0.04321188371097854]},{"weigths":[-0.20196009093264567,0.013394698360509387,0.0417456657980404,-0.030501541971564445,-0.0040593264819863438,0.13287033767398324,-0.04492748125878895,0.0047934836434492139,-0.17733657571952173,0.17341851140506676,-0.0032412158362073297,-0.0641577882831173,-0.05627914823420454,0.11555415771616834,-0.11259994777606126,-0.11368226720102617,-0.04154079818954293,0.00951572894109656,0.0899435613682842,0.0667002397187873,0.04027780798467928,0.05751533398285393,0.1377460209110887,-0.15337510369363628,0.11273178231407508,-0.0553844825810391,0.11436818399913751,-0.01623144858013881,-0.10651438048989717,-0.03737143595962975,-0.14886134162510734,0.055327412013147687,-0.16379909650447278,0.15233571087948645,0.101859814908962,0.04541124786821234,0.08457340276509672,0.11838755949861778,-0.0748655297159322,0.04190199729350455,-0.05235412944947231,0.003960757900378612,0.16761207884932484,-0.13982268763688786,-0.1497633279691666,-0.007880982706705019,0.02756198145367485,0.08268718378613438,-0.1599562164560285,0.1065359840940929,0.029190687129211504,-0.1708459913783063,0.09357418135306237,0.08617229168077274,0.034820652482398569,0.12671728942739275,-0.054638879314391829,-0.04692782262159907,-0.05943871975606021,0.05167505476327747,-0.13733389334399188,-0.047779675160289438,0.00805021426632724,0.09741122988434138]},{"weigths":[-0.10054918538780952,-0.17391801688039419,0.140725334696105,0.11992719850638908,-0.055713582729431967,-0.03230134552010675,-0.11895793293090995,-0.037315218069521257,0.07239306967775222,-0.04030163489062619,-0.12543954245558118,0.06800586216479376,0.08769542484064279,-0.11586296213934888,0.16563368916985736,0.15082472436194134,-0.04083352429230235,0.07268470800991424,-0.17055633830877388,0.10414616684822152,-0.10159655299419394,-0.13533491419333333,0.026228114570645806,-0.033214152110389989,-0.13052429835998928,0.08843426680116859,0.06245078552567168,-0.03688971283617311,-0.04401145772628277,0.14817337531233083,-0.08060747147782925,0.0858066214067151,-0.17884502523883398,-0.14377439714127605,0.024064173863585164,-0.017657783039382356,-0.14715168243228728,-0.054429124142923519,0.0231262604151331,-0.051186679135009387,-0.13489590480336317,0.05282808059936538,0.11015577016956324,0.15039161173450475,-0.11668167971816428,-0.1459530251293457,0.06487517093775172,-0.13545226363516703,0.11647010975806474,-0.03111190804963493,-0.040859771245235817,-0.0734652574075947,-0.07529551211411287,0.07576409524652753,0.08537173576039549,0.04792801896648147,-0.028860882503365469,-0.14057522779895433,-0.15612486056741083,0.01920860731250447,0.03183620720530247,0.05880219286842756,-0.10546095953487837,0.1229551680802798]},{"weigths":[-0.07566252807269049,-0.1229018846941622,-0.16700001126966955,-0.014397463693251657,0.1655439678789092,-0.1558692968104096,0.021507576522870509,0.04522034489508891,0.14043045539791716,0.0727465329011634,0.12866299064725146,0.17262365175962295,-0.00857904612071272,0.13296954921577507,-0.1704108621654615,-0.14302666689569458,-0.019456176759915544,0.14695161292469678,-0.1105087875373652,0.02955181886355567,-0.12837012752161776,-0.12767678977411693,0.09620615957475855,0.03570623988348568,0.13107379944991444,-0.03856046961157759,-0.059591353669624858,0.17068937524370354,0.03949443136715952,-0.18028253382600746,-0.08181380289886559,-0.18878320671886884,-0.10380465435859864,0.16270981853113707,0.08355369172591377,0.11806789488703971,-0.1435892248832643,-0.1820158890221264,0.08793859167135673,-0.16635864621584824,-0.07743709150643091,0.07918359156875232,-0.1280790166011496,-0.1486822429316021,0.05611628284458171,-0.08599840205348879,-0.03742508110952871,-0.09281333790961854,0.021087360508016605,-0.1029544934893683,-0.12205416997120068,-0.056027793166791208,0.13126653398837827,0.03118223643098258,-0.02523709730131384,0.11604122140875838,0.007429632335241687,0.15675396931490682,0.0099425915429582,-0.15491229340047964,0.08660415268243547,0.1724231875122841,0.07357089902321733,0.05150480656400303]},{"weigths":[0.06270183680228873,0.024866143558398853,-0.059197681670376738,0.07248558317403589,-0.1318687677319901,0.163502058584332,0.015899442665148809,-0.10308262625929618,-0.07802366226532402,0.17674340839988804,-0.14001603350340323,-0.12193065587814542,0.1170157908951153,-0.1445093846329401,0.17379382044553444,-0.13055258090134826,-0.11489000225582047,-0.03456385942586935,-0.04147042480709897,0.11625634389683232,0.12988541727077949,0.08758603086169327,0.012356924610141998,0.09664596842151026,-0.03167273223497666,0.04619919819059141,-0.11559940069619605,-0.11516327721933566,-0.09564766793198496,0.15768366863143536,0.04459910689823829,0.16430271760719238,0.15627935455050102,-0.14537482479203893,-0.12185440871793263,0.006195188329630675,-0.05222847685491603,0.03593255330412355,0.148553633357022,-0.07747990106506393,0.16229903733020704,0.01320852052973704,0.1685498798276188,-0.16660116984305663,-0.16330563747189207,-0.06499709260837214,-0.07101152822699485,0.006414761641787156,-0.1681747307643412,-0.15705374958899305,-0.1728423649477506,-0.15676348061279597,0.04631754684741659,0.045175539830516867,-0.12910594085635797,0.12975941591300658,0.14661560470563463,-0.14551948776082805,-0.15891007454109519,0.181150210070904,-0.010123677860606305,-0.025590594361092984,0.09761776697370231,-0.11751808311394078]},{"weigths":[0.0720336469686903,-0.1983483941201366,-0.05556426629045475,-0.01001003667248726,-0.11777867535864947,-0.05923275758379171,-0.15284533078428715,-0.11430607055283709,0.11283626641794027,-0.058700572509570069,0.08481151391155009,-0.158743815913689,-0.035826126487802267,-0.18781924225362996,0.1556243948236652,0.059900653587424999,-0.02686450341984985,0.16974884349065579,0.04915348797507207,-0.08661970404074675,-0.1945866016498576,0.06810483769505056,-0.07907073264969908,0.18234596733374826,-0.015249061204216817,-0.15345977318190585,-0.040744569637256689,-0.12295757636306,-0.046841786886499089,0.18479411774442049,0.05709962593463484,0.10194299433883958,-0.0032430707825095415,0.171317920822439,0.04915189594570843,-0.008538942702669589,0.059633821314776899,-0.10613440992473575,0.14585826061183602,0.14376265707663794,-0.13213351978994018,-0.12258783917459525,0.022723818748919539,0.05226765356459255,-0.05825939817104717,-0.17011135604408965,0.13167614509679069,0.07198060311076068,0.09911718333086545,-0.06591735182519429,0.03661140123478376,-0.1139141834875957,-0.04455617129907178,0.01242064953457491,-0.06891774432462065,0.019088397114597628,-0.175592630162079,-0.08341701297811788,0.10543081849153258,-0.08309141915883753,-0.061076870709966087,-0.16139391032886067,0.031244285620338577,-0.16472981642302859]},{"weigths":[-0.06499981815904733,0.06633961698150519,0.13738560271524603,-0.11002008841537976,0.07975092740281711,-0.15819383435120805,-0.06106161536194934,-0.11799261268731605,0.16333820202837993,0.02325068549282686,-0.12892975215515255,0.1597251621351148,-0.059935723050979879,-0.05989976240575369,0.11315967359745846,-0.16046235725340173,-0.12357312657222743,0.11421611910771937,-0.16396708424792492,-0.16907303044154796,-0.1255557409458338,-0.0741310612729186,0.03856395691169206,-0.17294603701823647,-0.16166254774682393,0.08882315819348537,-0.14783799308559537,-0.027858321231243437,0.11083885229707157,0.11309683636254066,-0.13637702272538228,-0.11671998606059941,-0.15503728841744136,-0.004605752249664181,-0.004182384528650591,0.16260305055536967,-0.020769633576982795,-0.14555548488506846,-0.15136641300509527,0.1451864871655459,-0.07700885821073192,0.09973106187949917,0.14226891384574909,0.01458239375909515,-0.17654628469718557,-0.016508471050147887,0.04412603355036286,0.13344526704821195,-0.09961575167991613,-0.13417701706432848,0.14281608421620863,0.015829487975924988,-0.023589386121395708,0.10867690398235554,-0.12683870953453336,0.09133808206234186,-0.12471891496633128,-0.11374986037718209,-0.006889891536587295,0.08929769548205437,-0.008705360765976332,0.1650668211037384,0.10805195272991641,-0.030595103729124306]},{"weigths":[0.0493071049254396,0.10222488423565089,-0.1522914387095721,0.06379988504995217,-0.0024739216212792335,-0.11609232885576978,-0.062394744959306667,-0.1332510234315193,0.04120183547778215,0.11288019539495689,0.12253890373646234,-0.12461281051500903,-0.12624640632313242,-0.17750995809284099,-0.16745632533490535,0.045878579493166257,-0.042039048404883479,-0.14966382570824628,-0.11652211725212006,-0.03451222874488812,-0.05795490185338438,0.06869253936592304,0.155979876198533,-0.11774994088312109,0.0261750755987868,-0.13319691666413528,-0.12789534838370995,-0.11288378721993618,0.12887636185394867,0.16033966763396316,-0.159084531470866,-0.12059626521566633,0.14636250191680914,-0.02941066250780077,-0.05018252581102861,-0.05043833783113041,-0.056504295025671957,0.009270024655092196,0.12122249308417532,-0.027577371975529786,0.15531048360949946,-0.06374198149923659,-0.03802896843618538,0.11536629847808168,-0.013614265374827309,-0.07151955253486317,0.07331307312062771,-0.12924470603740374,-0.06054026828016308,-0.01313426735943237,0.04392457888141598,0.15731486291554873,0.15479843743420985,0.023419328524551656,0.1407267302152214,-0.01046206171305909,-0.05249278178048888,0.03074353408777553,0.07474462685177828,0.01873366676506795,0.13171041538861573,0.05157800045623691,-0.08746446513921959,0.16736234826933]},{"weigths":[-0.06827503411201622,0.008864700853570338,0.01996321255259296,0.18653410885092376,-0.05826806362787738,0.04233088462851051,-0.10256185375317031,0.21152962299224099,0.18041723929817927,-0.044198198789971967,-0.08756825149352445,0.19601423090481488,0.1630133587093957,0.15094581856486007,-0.14666847534683057,0.016717033055499984,0.14520819995348822,0.05764397012392733,-0.15650317162141948,0.16853120421603177,0.10431450875234895,-0.07628825371154194,-0.10865074395960733,0.1464096156756836,0.1646118496391698,0.1425747745096895,0.08535274309065376,0.1563818251915652,0.08359675682904966,0.23145169867662586,-0.02201352155653392,0.2752290596453251,0.15626069841216853,-0.0731207940125542,0.06275669729965226,-0.09068487582989791,0.05224333128056968,0.16206492187710309,-0.16964882766336254,-0.12154542100419895,0.35202130408076245,0.22985030605078084,0.09815319634742519,-0.044178941782152768,0.05794623063301896,-0.02247393735645857,0.02263743647240008,0.0838944847864964,-0.03230178781638644,-0.03869790431748832,-0.0440783718173652,-0.13474787343575554,-0.1641394301797185,0.011129761174610606,0.08574627592792468,0.2077478295799933,0.14962398051320403,0.05079319362081302,0.030872977923996966,0.06962654529214202,0.13296387498594609,-0.1568216018183168,-0.09996744352984473,-0.1608560655109696]},{"weigths":[0.17869139857027933,-0.17500389459475458,-0.15598002146522026,0.15471322096389945,-0.028743521886014077,-0.11313019655693621,-0.09350621626335486,-0.16638090108360543,0.15419900592442038,0.11595336489523142,-0.19264615225165164,0.08882586220003623,0.06034054119356489,0.029869080247124439,0.043242690271423609,0.11874485298003604,0.07504796612387202,-0.0662885819036125,-0.043159887515194578,0.07894465538305105,-0.07587163912867344,-0.12239317153775252,0.07735016830658978,0.005293268571534192,0.14560363387509696,-0.06496999229514758,-0.161824298571542,-0.006851216446538953,-0.1153848024788892,0.10270505565783717,-0.08598696313160813,-0.16525094475431274,-0.005707428459532848,-0.1714055858667499,-0.018991330145545019,-0.06787730194127476,-0.004768714708161597,-0.06910004552531606,0.014653382296145636,-0.014621250624266233,0.2199924997407946,-0.024288500806818847,0.11727835894960048,0.08109821879303154,-0.030315349096430166,0.02202554188308362,0.1498105898168264,0.16003319750840917,-0.06831713564529138,-0.06031164299407612,-0.09293160515608838,-0.05474978437855108,-0.11583573470669928,0.07047010710356246,0.11786783490151233,0.0018783510925385766,-0.03579192156361757,-0.0818508471198062,0.13261420900393526,0.12549910646575924,0.14334235039613905,-0.08631524789545474,0.07765550964531848,-0.06670853534433521]},{"weigths":[-0.027665577943087707,0.17269932131324834,-0.05731699020680639,-0.08564380214645229,0.1713706212456668,-0.16868394137062543,-0.02107439114954933,0.004797961809842362,-0.0005908619449896024,0.021312899797439896,-0.15969247372294813,0.13042589138865175,0.043006801625704627,0.11664678270177149,-0.08748806081560151,0.17038646506454464,-0.016072920300069215,0.017738987245883084,0.06482834626646482,-0.14326732011702915,-0.1558199112764657,-0.14399126704788876,0.0581923961494829,0.2337616078053351,0.15077052303610725,0.0037225657974921477,0.10705108423885111,0.10522063303674696,0.10816231264890132,-0.09776807356047308,-0.17501593607041167,0.1303845753358904,0.07264508950783562,0.13846444670522357,-0.11817879118274959,-0.019406333623250606,0.15564255256652077,-0.25914124865342888,-0.04969129186118981,-0.044224813231296188,-0.05938598484889557,0.016672408190236817,-0.06688582738596444,-0.0012889117904576926,0.0824338592784018,0.16566974708777117,-0.17502934060256326,0.09539456135517968,-0.015039351317189743,0.07298622315812087,0.14720666800321065,0.04845325912234691,-0.16486003449489676,0.09508726687952605,0.047625421603881109,0.04701125776964735,0.09679019729926697,-0.024790372521708179,-0.1303208934544436,-0.1866092218916135,-0.10330329605374228,0.1746861252268261,0.008485691536024298,-0.08858726119411696]},{"weigths":[-0.12074030112708034,0.1109649084674999,0.15950890442554867,0.026989047890142255,0.08160731837301244,-0.07568258933918372,-0.15300230588059084,-0.10599448354690243,-0.13337271501892054,0.007756317857608574,-0.18062704729960608,0.04154383102133033,-0.15782986628799848,-0.1498579424055057,0.05508502810597207,-0.1686068217731199,0.015581129212809925,0.1343917056597259,0.036394105389810919,-0.11656448012010479,-0.15505808477478079,0.06355962115628908,0.13250855276232444,0.028326198361428125,-0.15995813671075483,-0.1003096091777102,0.08776555867766302,-0.08865225077003904,-0.020964190023761297,0.164447434284107,0.005487197764115003,0.07593490547395306,-0.05379339457926399,0.11125253870400902,-0.027336752469839834,0.12013458627066562,-0.0679978864856316,-0.1026621721479289,-0.06577597247103853,-0.020444320777532437,-0.16498503893778505,0.09004429203886229,0.16508830908061077,-0.06010797610859339,-0.060385435475611589,-0.035626687556709817,0.14899520084508137,-0.005193719662314048,0.019081630122213115,-0.1570448902171254,0.12600183881509395,0.03558555461250738,-0.04108646610014862,-0.16209575590730458,0.011303212547266807,0.0031434574075049784,-0.1939490631055659,0.12328982227555431,-0.14933526762463848,-0.02323509349295227,0.029203910331425777,0.16068006216075204,0.1543765897366269,-0.053204073106622489]},{"weigths":[-0.1433652617670636,0.17049187383775223,0.12830354294384853,-0.04299916164355682,-0.01799123557927377,-0.11055630652322132,-0.007896599249591137,0.014826399406923997,-0.20023110747339438,-0.1783253022362994,-0.05021654612222239,-0.04781881877015821,0.049259602514049368,0.04853715896320885,0.10503267802671849,0.013568038020550948,-0.17149296657659847,-0.06335281573878844,-0.03219673797730344,-0.07911318984046233,-0.14240685064048023,0.08247052760658585,0.12924407450125292,0.06165297195029812,0.018442789484393916,-0.17262086688938328,0.09366153877341176,0.01863726565721628,-0.12953354583282848,-0.18373113899826053,0.04520930813092433,0.0705342827148668,-0.11659314879894912,0.09436538477379088,0.03722105733194072,-0.14946122553812273,0.16785148302269316,0.09575500691471616,0.1671479790701443,0.13215283564447059,-0.12763573197357706,-0.06751954142130015,0.0022677823090464668,-0.015067509344133713,-0.11992305933129409,0.0877652050182202,0.0813942276388741,-0.1443495740905854,-0.10383931463369135,-0.15106085525611194,-0.07891107404601981,0.037494274184871768,-0.014587278502090151,-0.15950220887828546,0.11918046903968141,0.06910596498602489,-0.11461542486947665,-0.12836091393528679,-0.12419891764174987,0.020884922630081745,0.03232417872541734,-0.035283956864599948,-0.09003795585303773,-0.15378487632483077]},{"weigths":[-0.15233103136443619,-0.05381734246549436,0.014093665598087798,0.1488916904620363,0.011517256701829968,0.15032544051172742,-0.16173097103880006,0.02406648170494515,-0.012062267880035557,-0.037401366099064418,0.05293115739799423,-0.05624366235632884,0.07637304729305886,-0.10905963731740533,0.11458083839155195,-0.17145743295418776,-0.1405049752861557,-0.04611904939650031,-0.10552408533678456,0.06232619550419669,-0.038201515433703658,-0.10873635642714653,-0.020652904890385645,0.104773951192165,0.04693895485456443,-0.004678837941150854,0.10638156021133764,0.17340419052673793,-0.09130905065625066,-0.01381482479913449,0.15498900027981853,0.22131677827290317,0.06881616231944121,0.14547014963370492,0.014346433202029155,0.11986663048068565,0.11432227041908476,0.13831481880711228,-0.010743379854572593,-0.14993522263136883,0.01918594188463893,-0.03564840406016998,0.16934903968503216,-0.07865174817997613,0.1434002016521833,0.15780649258633756,0.11222700821850754,-0.16890776901470148,0.13529522522464186,-0.04951472965006106,-0.11251393358445888,0.09408375400475806,-0.03844471112571228,0.14591101664937676,0.08133535332267912,0.037534157701952248,-0.0005347955387299899,-0.13263504411463793,-0.022972815638335109,0.15165688332524,-0.01231410675644608,-0.16434903642190835,-0.02410925684374818,0.04469887945350141]},{"weigths":[0.13225888542860038,-0.15917735614494248,0.14727150491412242,0.044483351944748127,-0.13837489623292224,-0.014440425863200988,0.004449824968523118,-0.16563589025758924,-0.09885709490202675,-0.049798938047424839,0.09457144210412529,-0.0024101546828973654,-0.11764064499447906,-0.01952423821336104,0.08917132031133436,0.11762888043772962,-0.15089512590863053,-0.19555331269728108,0.12478967462584584,0.12747261970654853,-0.16344549497197995,-0.01408623851268046,0.1501890591630478,0.07128655838970831,-0.014473186342627367,0.1313612820990087,0.052342156179531879,0.07101136345573213,-0.16799167352626782,0.09920073637351229,0.03936516646593154,-0.06572627510638203,0.10729202381001055,0.027084291250636207,-0.14851446487064696,-0.11028516278090424,0.009880387216261562,-0.11909398481783989,0.14428377687395914,0.09989739477936158,0.00647425681368876,-0.0983556753052453,-0.023074269087521416,0.14470867770349139,-0.06342945897320293,-0.16493387365288973,-0.12370023319642112,0.12417472511923972,0.0864992436906105,0.09781307486320305,0.02495589464550736,0.15235326019877713,-0.14070465633091498,0.1380491288985325,0.10330632441348008,-0.07089185188659054,-0.008848535509014356,-0.05104181940999025,-0.058720946638852,-0.042432213609795457,-0.1516715998720298,0.1612020397118552,0.06405585937281967,0.1484056303145969]},{"weigths":[0.1597329549920214,0.006502722882249292,0.08793287391812331,-0.20898473874510518,0.13132421708563794,-0.07543534696081297,0.019078541993796703,0.18207068487333345,-0.19677364333753834,0.15515540700471046,0.18831497771800155,-0.09259235608673018,0.06999763226814077,-0.02234750929989984,-0.1883906110929207,0.09471011505258681,-0.021817041656048244,0.23215721444793192,-0.13099146033749027,0.034775421751020978,-0.1460303334704489,-0.10033859746693806,0.011394990194703643,-0.11689627722996089,-0.02037093382725108,-0.059392412942853679,0.03576019955206914,-0.0960531621980281,-0.1667700210434238,0.2039761078610703,0.13813533644924223,0.03911736842877084,-0.11202629187017407,0.08876050392878839,0.06710681377892662,-0.17310182437048389,-0.02145267605268984,-0.16067391934609424,-0.16744198789806195,0.06617859061001626,-0.13459096185083659,0.0026004609837607256,0.013411455457943726,0.013386877528885262,-0.1591894550203024,-0.1464533943509302,-0.08067859049121473,-0.02845982857010762,0.010375209792451382,0.11124755426182909,0.1398869389088412,0.06786397290052528,-0.1584265114401672,0.14011402487508174,0.0372081685270226,0.1679064703219312,-0.19475198006110704,0.034452590613919437,0.08023637917457487,0.00959690640936446,-0.10919241802466893,0.13908630419714786,0.031995062337815047,-0.050754495499068238]},{"weigths":[-0.06542784289914676,0.0021291533311514857,0.009751283793362069,0.0032121184173923369,0.03097147904682461,0.007471098547863905,-0.034835003994410248,0.03330712201072536,-0.008896897194607576,-0.09964110252930976,-0.17178080215736145,0.16204202156036286,-0.16740584140201268,-0.0782569670896672,0.10440618873911807,0.08278615249319085,-0.011103995492282634,-0.0351431348755861,-0.10732113382031786,0.05664076714316617,-0.1522545086319732,0.15765256079675186,-0.008511031096755899,0.10888910947185503,0.014375126648485306,-0.08689452025356986,-0.1418884349845447,-0.1674005719300515,-0.11565466932837361,-0.05349748809700551,0.04045462325689785,-0.15816991755467722,0.09350289495328643,-0.10592134700008578,-0.12172261919128544,0.0017035773504913874,0.0778841586302108,0.1057246773505797,-0.011167332264680984,-0.16312425889535449,0.06671287045613707,0.04961909044096405,-0.015576536728730831,0.08084118364102186,-0.0752509675652801,0.056348506761612678,-0.13153417266560933,0.14486855610627973,0.10674275325816915,-0.057642046883542279,0.03707594320808718,0.11010201566611364,-0.09865736302617873,-0.0036324131425177306,0.07830832486882758,0.04983308418920522,-0.042466931656436449,0.1629786937395832,-0.04289113812283524,-0.07366926294651469,-0.1402412695216724,-0.08589020036154439,0.04361768595150587,-0.15254079293991888]},{"weigths":[-0.007452789709497161,0.13660563790242706,0.12980601474690657,0.01332978465133203,-0.16604034541705055,-0.15865579428114263,0.15615865411165254,0.05512307905086251,-0.14136168994269844,-0.08459017750694605,0.08939883415684255,-0.1654814107868712,-0.17803444506089087,-0.02463533202277387,0.11250180197943036,0.02871197974980393,0.0988161530153684,0.1342575931538381,0.15896506422906285,-0.029305022880269438,-0.15662235275302689,-0.07162941505268314,-0.020985286085652114,0.12557678958858066,-0.14479608138641179,0.01089247534046515,-0.1152092889187778,0.007747141611048354,0.020885056114030577,0.16990764105592755,0.15414501398806985,0.060205755846846228,-0.1510092510993524,-0.12388601593564937,-0.09832404140044088,-0.10336635991572486,-0.11738683072863301,-0.08893198703982319,-0.0111630036701662,0.1370784392669478,0.043141400520345239,0.031077098417268368,-0.06265445873036861,-0.08991385377720673,0.1214448676138945,-0.03471845514424656,0.142220116517516,0.16655989216120904,-0.15351840056123693,-0.08899675021078062,0.12354930945716758,-0.04238321217635348,0.09299164422334204,0.05704313165542289,0.04487086215968683,-0.08290474020758834,0.14654710012970308,-0.083523524578029,0.08709850522499829,0.09410822088286584,0.019211874836726984,-0.11560991208727482,0.08470414194912848,0.006193513274428047]},{"weigths":[0.169226989607655,0.19831463766937078,0.05067759424295786,-0.073491046081518,-0.1169933899147103,0.05712770467786666,0.07063064558531249,-0.10716390538115449,-0.10791035603791144,0.005498958828850003,0.05565509154568668,0.07625436490775599,-0.0038603737932023168,-0.021852494812313756,0.0455674410916596,0.0016326687773859249,0.03606629015654551,-0.18515806441746747,-0.12649130275945356,-0.040536721814427748,-0.16731314120221006,-0.024283708985101444,0.15548723809393254,0.0856843745237251,0.15636025794553649,-0.1155246437164115,0.12709399621712456,-0.08017049703498336,-0.10629398406102453,-0.0318570017639401,-0.0804098760771089,0.17537736526955848,0.00849319623269071,-0.09317353479153309,-0.14732533587388034,-0.1409281971176741,-0.0955895241196377,0.11699144934460154,0.006706207464833508,0.15741230810650015,0.045347521159461407,-0.11217388401669464,0.14963007843359844,0.015004341716669459,0.15946659907997907,0.17968455684017896,-0.13127536349992056,0.013573609521787033,0.12625557203461228,0.13960211089682263,-0.13163202311799364,0.04735951587924376,0.03630476297498588,-0.027158039175969444,-0.10330572280775811,-0.04960226316776553,-0.018183941267063017,-0.11833267878496944,0.1604902684381572,0.021079390235397515,0.13992304872834938,-0.1419751287548519,0.1275410322416023,-0.10230313036875719]},{"weigths":[0.08267401733830658,-0.02868104872717806,-0.15496985744876569,-0.1216560757642578,0.08074748165548987,0.10771214080278811,0.15703073570177127,-0.11219088160647824,0.23598507224107233,-0.06672445193372172,0.09295486759538548,-0.001424718520015347,0.06357111735643473,-0.13646220303321303,0.02615195256911958,-0.18637889773989683,0.050777373950150649,-0.05387407813182861,-0.09458715915598669,0.10415800161272322,0.06747045987784217,-0.08057949050006726,0.08057089915055642,0.14198879007431054,0.16787143770240718,0.11115643920173751,-0.11296182762055317,0.03016215704304624,-0.09344239939646143,0.11768780036912408,-0.07427370470946028,-0.11118314333393908,0.02988191071397956,0.10485808157751722,-0.04183838933021545,0.10675973011023163,0.0983711676254354,0.08903276162668532,-0.09667037803393489,-0.010785393482895391,-0.19501184455554802,0.14144732125653493,-0.19992907173076764,-0.018260015499102584,-0.03292951238134008,0.07685512186880063,-0.10930099386402639,-0.102035511505335,-0.11888803829357044,0.07890972724530396,0.127257901597345,-0.09619721833904484,0.16174750084949586,-0.16968233018599999,-0.0016712330829443622,-0.05878912876935423,-0.0103344166459497,-0.16982626168334095,-0.044579333283218319,-0.053510184561074227,0.08202436239869254,0.10783088208064039,0.048646018099458777,-0.08686540569027991]},{"weigths":[0.017521402154831144,-0.0037677097168896426,0.15460222790599099,0.14175336188752472,-0.11093310176474522,0.05963999743033563,-0.06988865995682597,0.10924786327504178,-0.0447273851613817,0.1622675100024013,-0.02880410123620919,-0.10031013051374774,0.08015472938433614,-0.08145493918431976,0.04931150975528663,0.13787648514214119,-0.06922033785297978,-0.11748947653003505,-0.1722654997437211,-0.1753089023743444,0.08978029245544095,-0.06664986857776369,0.11406210704336703,0.11253810680506016,-0.044049262205569549,0.1488889416204971,0.02750419534653206,-0.045106227995145128,0.038853369168785487,-0.06263781691886253,0.1588360866442704,-0.038956284243267209,-0.1285243356233337,0.08857011330317596,-0.13818846972232066,-0.024516999093581364,0.059279015210733577,0.004941501091214033,0.043601220302663699,-0.046256830132378249,-0.04352974324446926,0.05335372276057426,0.15640413735591264,0.1145369115439986,-0.07247269439615406,0.10025398819718223,-0.04704656225751552,0.030590850265659016,-0.1715038900715657,-0.0014720627384208234,0.02301023930658882,-0.04677357737568533,-0.12003406204303295,0.09764189148889333,-0.11796811147932297,0.03604278763278769,-0.16311115212411515,-0.0019400508257976038,-0.1301351473867581,-0.06497118710057998,-0.08750294396574164,0.147791741129122,-0.056347434348399758,0.032625027677662839]},{"weigths":[0.0335645674603484,-0.07065016756215593,0.08288365172110166,0.057590612392591927,0.055356194279716688,0.10106822116476484,0.09123830233656545,-0.13915350623016382,-0.13123111374129785,0.08416744543088219,-0.1597758327598726,-0.16964441265446038,0.045663746570430357,-0.1442791691422905,0.08934467110181624,-0.1022945113898522,-0.029202365491099164,0.16305500420061692,-0.07730264229179644,0.14754268511198832,-0.06217951226405956,0.137999077442972,0.04265701535991467,0.0262321826891278,0.08209167727010708,-0.018118534316457613,-0.06917355933507759,0.12812961089480316,0.1463253792030512,-0.21554860700668966,-0.10264244606602756,-0.1766672599474817,-0.12033168155556126,0.06489517570272292,0.06562682643192916,0.09024578379163137,-0.09176903783264291,0.035987089974365397,-0.1257423905103138,-0.0699394476392146,-0.2007755895490807,-0.02797278716123472,0.0611543656739586,-0.16807377075603223,-0.0005393338765040502,0.16431895171433817,0.10241173634845355,-0.0604015675432335,-0.03005804251018939,0.04810220542132688,0.1285462679279728,0.1280261437967689,0.16166169774739162,-0.1714752106742149,-0.07797388815954108,0.06055996147711779,0.10654829636666083,-0.1257627212609554,-0.13176436920929708,0.023698059764973319,0.09538282716730104,-0.1013958181139069,-0.12626173964361463,0.03568734461892981]},{"weigths":[-0.1288101473363159,0.16251846994751094,-0.11138639184553483,-0.17894003487334857,0.021816407914656469,0.009856546958881232,-0.033848262523672959,-0.08449049408071366,-0.14256542482559954,0.008797320615897364,-0.1368626688217588,-0.13549807600854947,0.05249097220243026,0.07804719299180138,0.006659680584304186,-0.10125460530262645,-0.08928678694819885,0.12203432786919481,0.08149453609266358,0.0957173835636265,-0.031105138227420338,0.12297447789344311,0.16712771045674697,0.16111927105402389,0.14176312373918976,0.09206217359528514,-0.177894587883498,0.09856839660243903,0.1272894411647538,-0.10391192140660942,0.13954958493314827,-0.17294245494175748,0.1573030953336141,0.016945647071252378,-0.186535091115451,-0.07317932663511288,0.050416163076809458,-0.14312682086444498,0.14284722739690468,0.04846210503150802,-0.04299969953230727,0.058325719053197767,0.06809972705098326,-0.08660078268291888,-0.09668670781256418,0.16198797321810924,0.07708463188717312,-0.14218604949780545,-0.04451144597901617,0.011519027953359964,-0.03653747284057551,0.13418522832731823,-0.08253397644940215,0.015377711159150558,-0.12573304669191619,0.16818485826523409,-0.1588687463050819,-0.1682527937519781,-0.014518166133058687,0.15439702481883406,0.12675238827540945,-0.07154176103537088,-0.12476165250026562,-0.12722271452165558]},{"weigths":[0.0779464467167185,0.058267713440600599,0.039252225379532757,-0.08698294122105002,0.16888119954198273,-0.1458364620991775,-0.07818588085293037,0.003047090138552264,0.09907006954452444,-0.1336201595373224,-0.17057798343702613,-0.00963741156928407,0.02827426201084907,-0.04626681157636851,0.06761348928106235,0.10836446185380314,-0.18186329825177373,0.18526051073449724,-0.08401397995550319,-0.15344573071110607,0.005896988371214789,0.0062114137836648849,0.12639997352481706,0.044649177563001,-0.0562299140447575,-0.12642706966650825,-0.14379305540841637,-0.06661557658066254,-0.05012008078517152,0.13618079177887047,0.02969493550799459,0.14475373370981627,-0.032535630796201909,-0.14934095199814582,-0.035582199268163357,0.16693432792931355,0.11974036169337371,-0.14166244271676549,0.059648632186343458,0.11041975384049947,0.13490507436674513,0.0630905743664532,-0.15489942236320049,0.008027384723643358,0.035988853124544559,0.07627869471423127,0.06711542435385537,-0.010400318680232866,0.060581952234735707,-0.12932972757963946,0.11912340612467301,-0.17575512657376328,0.17608835038657726,-0.08493025886672678,-0.08866387690565994,0.015082171130585604,-0.14127489067139829,0.06645610070691131,-0.06268418574327822,-0.16022631349237119,-0.11925848503517654,-0.035095579071897548,-0.01578304627938189,0.035285083093326317]},{"weigths":[0.10745161117431947,0.14375741886040706,-0.06545716909297453,-0.16680143062861176,-0.031026048062004018,-0.09323975045536334,-0.018853036193580889,0.1733959277303924,-0.16107047099517664,0.12522275315344995,0.04155014730543799,-0.16275175774122445,0.168226725916847,0.18531176876504763,-0.13409190174017203,-0.0191451805667007,-0.07548931165462487,0.025900722208440645,0.03538762904770842,-0.13156226314958018,-0.14534447365075024,-0.017446235972794444,-0.06833800319901184,0.10703900840011373,0.10938408237516446,-0.061970473954787778,0.1343994378222248,0.006894209886202975,-0.0304033218380795,-0.16432475116327026,0.17045158836862069,0.2440177017198452,-0.05422277918846588,-0.07795994671054064,0.07254570769800088,-0.07027081949593116,-0.1440677791906085,-0.11257839710788499,0.1458898902747705,0.053616392186390377,0.080622279934803,0.11409305575131965,-0.09623843111507803,0.13415803479334002,0.050876991562513979,-0.1693634099838857,-0.15653626045117714,-0.08178621559326689,0.1857265821460671,-0.054502020014976778,-0.11281506131530361,0.1780078152972689,-0.034586100406809577,-0.10622289988773487,-0.01209601027119818,-0.005252302239917008,-0.030960331329683147,-0.016678547689463479,0.06145913627614263,-0.08161040400330964,0.06335215024966907,-0.09118730776821996,-0.033507576121623857,0.15107400354460358]},{"weigths":[0.0023924630759648765,0.1733100191541523,0.08206740926302865,0.1041294764410717,-0.07481567439144996,0.15029179869238358,0.053264067366344338,-0.014113370376889255,-0.13646339486625704,0.17815305051966433,0.1244079942259158,-0.16723182096031653,-0.07227633154535293,0.0823731105612384,0.10028065895260773,0.20271429654601987,-0.031072329979946725,-0.11717651627177357,-0.07155799642835946,0.05104152841677689,0.09618933931559622,-0.17625239920690193,-0.1774797374842475,0.011444659973148128,0.02266125334870388,-0.007194274902016642,0.0005653547530515445,-0.0076580640286482508,0.14484516706001908,-0.3034873188313178,0.09200378588811457,-0.16076940279953387,-0.11066970754802942,0.05479032662225123,0.04253377650160045,0.11801422497912216,0.1012552333433266,0.2561705065221749,-0.054239647995353027,-0.10375057517050715,-0.27222524100048287,-0.14217619002217553,-0.15494459299040903,0.006563904839057365,-0.16036185760789407,-0.16694705581469958,-0.09961098312324922,0.04000995876082227,-0.04794913537415671,-0.19098865815469863,-0.25786124740479246,-0.07139430241670909,-0.059785939982627999,-0.08368698027598325,0.053478225352596848,-0.155528897118371,0.09898992586560944,0.14959058284478017,0.18858178270116217,0.24215543236197768,-0.16874382861579613,0.0966137298398674,-0.12041917126392834,0.010031489444555902]},{"weigths":[-0.0172704881905495,-0.16419456399493075,-0.04866099922365135,-0.07285767527121677,0.07830033425035366,0.08294732753949873,0.012303124602419318,0.12725255790382609,0.02913368402235135,-0.06388872030123856,-0.06731976011123962,-0.12326135120494451,-0.055107651771828258,-0.0811815420128826,0.11135210726150199,0.13594844137218785,-0.04990488816145397,0.13090152494654257,0.08865165033991345,-0.0883421577361474,0.13940854753254948,0.12917949673711186,-0.057018456007357627,0.021977719199399474,0.15697577179562145,-0.08678660367089197,-0.1389697321838262,0.09575579827786414,0.09475635529739438,0.03850286238784316,-0.05346235681415973,0.12080018307681993,-0.050798419719611517,0.042030357977447477,-0.02190454725696657,-0.06248972496298931,-0.10929230074193502,-0.032178838989566738,-0.14265351850574418,-0.07190768283836399,0.11928790296612071,0.04236914870153451,-0.05215390990075721,-0.025766343584050986,0.09777789002410152,-0.1474196883577657,0.1119262626207795,-0.1561400747559249,-0.06572243253516078,-0.11089493513700542,0.03691632882281696,0.13681717794054977,0.13211712501981216,-0.0786633915340407,0.0533215916545431,0.18645720357642676,0.16593663778606683,0.17332324530109009,0.06298922409876486,0.116256256370331,0.11885679535102062,-0.04811393754668414,0.08507584638636422,0.11854286064734995]},{"weigths":[0.0913474406778467,-0.05850903180852149,0.12563824678837985,0.12788900727427414,0.03630443344142427,0.09567360799541529,-0.16778137367196722,0.10302822586688036,-0.12788983211210509,-0.09555558172287601,-0.15766026002748263,0.06931894993000597,0.13153866379051663,-0.16449307412729617,0.02782444783490994,-0.045377569210098177,-0.15094700604158757,-0.11806686381406245,-0.15824528673143574,-0.17418999073298675,-0.09557079351310209,0.06446484223622952,0.14246203373880374,0.0952796484978055,0.04543588421555402,0.045690329105790437,0.08824115387434906,-0.07157190207205075,0.14330533014900949,-0.15340458295442564,-0.015899124299791846,-0.16081643813891986,0.09937499106575362,-0.08860299338741813,-0.107027163799511,-0.0211731392598186,0.12042966815104432,-0.14010026262178194,0.05847498775920045,0.10800875416304709,-0.035542230958437909,-0.11166352993573267,-0.14752381484901698,-0.03567983890969249,0.04208949567496763,-0.1489622801308131,-0.06886879413714434,0.12407196200173401,-0.13353734521347353,0.06946370906489047,0.046659593287569387,-0.16580262200063709,0.17045025932687569,-0.004793923991053876,-0.12826331136367417,0.0018425312664005346,0.05371600835397793,0.17060676431945424,0.07890135552327979,-0.03956094991079838,0.12859149234506093,-0.02566216345340836,-0.10563551551859042,0.08626654955949703]},{"weigths":[-0.10882303907565223,-0.014327543404036273,0.013732791975759249,-0.1584159764147191,-0.1459036905666731,-0.16634491874579802,-0.11832632756833649,0.1555996584742613,-0.1151985944829742,-0.0013957832267370236,0.019062020506791515,0.09715583898062434,-0.14775358745995136,0.018691173962102037,0.13982203720557713,0.01386326109839251,-0.06199727168826391,0.03744798281501446,0.06821182330954466,-0.009412539120760315,-0.17584377782758948,-0.06699142726708939,-0.05220606772648674,0.06108541914145374,0.11707419621204178,-0.1403236925763675,0.0692667824318397,-0.003427667141581299,-0.026123860066042775,-0.03205804117236555,0.022537578370519737,-0.05567853814642094,-0.11663117442735564,-0.043009991144833507,-0.011975096118296294,0.05131119389563513,0.13240351593708675,0.013315761311850003,0.03974098978195058,0.019294593865797895,0.13279863371958237,-0.08372034289416706,0.05950272185327764,0.06583731868170503,-0.11881889772618211,-0.1437495756028777,-0.04695830663597671,0.12151277462408705,0.16133627268236787,-0.08531243325607273,0.1632228757654235,-0.09165389807415062,-0.14733718637753324,0.15832219965406414,-0.13013447935702239,0.049823373246988277,0.14525950834751706,0.1392051784116263,0.011744304145149815,0.08250187664143533,0.0289970023831318,0.03720599177679732,-0.0018619556223223387,0.02217218870967819]},{"weigths":[0.02548898646032205,0.1512850577688274,0.15129326932157945,0.030473893653904937,0.009893727900094875,0.06944319394589331,-0.1660871495925415,-0.1105634711169472,-0.10303555053544565,-0.09511590904036874,-0.19707967950100323,0.10407761623764768,0.14614950124835875,-0.00017579227817429542,-0.11024883848256167,-0.17439266761082393,0.039232789246342169,0.013514574728634942,0.14055506839663127,0.13237848132028694,-0.11609148080663465,0.14137080704458999,0.05862643070282607,-0.08445796032233204,0.09258691896365137,-0.10410829595172384,0.10509656261944302,-0.16230989339700414,0.15564992930286174,0.07623651194635109,-0.03659117216091638,-0.03219007706617099,-0.044842433359500808,0.05472459388444328,0.012949938832138597,-0.057798441039045567,-0.14561780292863098,0.06804120906279956,-0.08018781219178994,-0.1566469040941679,-0.2145686603878024,0.1441041895160084,-0.16094928013817964,-0.040823541215102957,0.07157734340046143,-0.1786605274122705,-0.041913055396368439,-0.05762719794441817,0.11102830081806074,-0.009826806255796942,0.08343413115030635,0.062068581484272269,0.12094658334693843,-0.018697918157178356,-0.0994603832719928,-0.08654770492888597,0.13351758515799243,0.1606932708237867,0.07528471260515178,0.10339660283156853,-0.09137631028590769,0.14218918269210688,-0.1502183986871243,-0.09296186644164582]}],"Biases":[-0.08229923200473166,-0.04087396165326806,-0.023152472634549356,-0.026286858630824029,-0.049474824603542067,0.04304697560290615,0.04858412868170878,0.11344448040956222,0.0007576052156632546,-0.02205541382898506,0.14499757950610743,-0.07131979386262125,0.18141699643062535,0.11148518426153224,0.08983765919352815,-0.042499941778536869,0.06898187131909584,0.12114066936639095,-0.011501085315239237,-0.014281818115400327,0.011791084199025937,0.15454217082337047,-0.04613003852256037,0.014900296209895546,-0.02762451951362326,0.06324341404845255,0.14439987454877438,-0.10337282425367395,-0.02670635641421743,0.0010842013956683089,-0.03211359549280834,0.0967616350402577],"_Inputs":[-0.004101472763779498,0.14651597713311116,-0.0037661947104885809,0.505460233596859,-0.002189566268060873,0.5653179183378798,0.0951575410163828,-0.00675264134016196,-0.0001547359916307302,0.44339859938982875,0.11895884400705421,-0.0016172794449365916,-0.0010879378541508124,-0.00006081986066485822,0.2528921834241494,-0.002097163032356575,0.29579532208583217,0.06584089646806035,-0.005504215207736894,0.3919403215456951,0.7344689257918282,0.22147567470626929,0.021349917535633899,-0.0014661142905852227,0.005680281877872832,0.44706445407633429,0.07140169212891116,0.2566587630430268,-0.0043448512582813,-0.0012476793840378313,-0.0039973796624364729,-0.009747545891347954,-0.002052369722552613,0.04527458345095041,0.3589344831866025,-0.002590177702192896,0.1462641852657205,0.5123858232317767,-0.002936561880105397,-0.001908572318228226,-0.007126977891353345,-0.0027634269346352728,-0.005110827708600325,-0.0038484332773122728,-0.003403552789843841,-0.0016387820861001025,0.11991526334927179,-0.006430284042397461,-0.0013737045245837,0.1057863190006336,0.1875097028167772,-0.0007380122158818661,-0.006181452931623567,-0.008124007566957095,0.25974538782108816,-0.0017969119912194859,0.4511915532406032,0.2637133258841148,0.20383567781788967,0.6009208708872456,-0.004733165284346636,-0.0057936559792129689,-0.002712624477381103,-0.0027388061461344097],"_Outputs":[-0.17592364859778704,-0.17992445192954027,-0.14652018668300227,0.24748658205643707,-0.16925072139000459,-0.3117758840380086,0.36726332663106728,-0.35953308932187436,-0.4270866543736792,-0.14078285533009858,0.7142319735535867,-0.08732862729312231,-0.3570815271864857,-0.24981435124195967,-0.2564731547098691,0.24761219056421653,-0.11602872427320611,-0.21247626908749529,-0.20352435083375795,-0.1142405969029879,-0.20105743550621633,0.27210315975831436,-0.06181003555480079,0.2675192209635531,-0.20548176329743587,-0.541426177969706,-0.3108909486840232,0.5821320431535533,0.20240506823271899,-0.18501942399024513,-0.2516230730379464,0.18238537963028923]},{"InputSize":32,"NodeSize":2,"Weights":[{"weigths":[0.687016570126239,-0.37415541381677239,0.5566233487653528,-0.19871931623354348,0.4725030787801208,0.6785846571743672,-0.20890596280085309,-0.3460932302279386,0.08781779076463563,-0.48670948885816286,-0.7545379686632324,-0.5753705763465669,0.6294792285834007,-0.3770121299722148,-0.4532151660520015,-0.3490480227855131,0.6320469925804696,-0.5501660942120645,0.15468191434421398,0.41928795791603826,-0.6765509236272138,0.4276515732309058,0.6453944016349665,0.33238815911497668,0.03603848627625718,0.11027706165424244,-0.5859367827857284,0.6574359988202336,-0.45608819163042887,0.18936363518719169,0.2755524530363462,0.5779829178003126]},{"weigths":[0.1893325149288474,0.1521281914641721,0.5586152660656976,0.5594687612966657,0.6183466520696401,-0.595891450874434,-0.15321347607262929,0.4303656044567475,-0.2521702278846138,0.3144748133690603,-0.4796452333894429,0.44920438272694299,0.7633028884689869,0.4243788191750591,0.292158064666251,0.15131306380754046,-0.6120759781025944,0.5169780373463341,0.36678224998179417,-0.09527184773946404,-0.4734052489605035,-0.6874036018413252,-0.04971118707501817,0.13988503005753637,0.14768914329926853,0.5036648964433524,-0.12847859313802977,0.6996151681129277,0.08381537161184971,-0.37795640444093467,0.3341906093884553,-0.3241652657898894]}],"Biases":[-0.09065837394762912,-0.33165494663210479],"_Inputs":[-0.0017592364859778704,-0.0017992445192954027,-0.0014652018668300227,0.24748658205643707,-0.001692507213900046,-0.0031177588403800864,0.36726332663106728,-0.003595330893218743,-0.0042708665437367929,-0.0014078285533009859,0.7142319735535867,-0.0008732862729312231,-0.003570815271864857,-0.0024981435124195969,-0.002564731547098691,0.24761219056421653,-0.001160287242732061,-0.002124762690874953,-0.0020352435083375796,-0.001142405969029879,-0.0020105743550621636,0.27210315975831436,-0.0006181003555480079,0.2675192209635531,-0.0020548176329743589,-0.0054142617796970608,-0.003108909486840232,0.5821320431535533,0.20240506823271899,-0.0018501942399024514,-0.002516230730379464,0.18238537963028923],"_Outputs":[-0.2424654311724685,-0.3483577391652448]}]}