{"LearningRate":0.0025,"hiddenAType":1,"outputAType":4,"layersSize":[9,64,32,2],"Layers":[{"InputSize":9,"NodeSize":64,"Weights":[{"weigths":[0.2510009807673953,-0.10776072443829273,-0.024875679523651104,-0.43684664082882626,0.052878345162869138,-0.05252397002480395,-0.052195905294645909,0.09443207813891906,0.21705547838554377]},{"weigths":[0.06447269221897124,-0.10345790499758467,-0.04900585266457637,-0.46455554627968145,0.21990335133055709,-0.07395604083722089,-0.06741365608749903,0.2002272981094552,0.02395744819097948]},{"weigths":[-0.09153049774349913,-0.20637333452227839,0.09946066675721349,-0.020509895067995177,-0.05799386849233232,0.03775360049617882,0.0420490974314485,-0.08129651352222719,0.10503947315240756]},{"weigths":[-0.15501131596922752,0.11044238350294235,-0.3849312332439193,0.19178769314547454,0.19033747208584737,-0.1607717622194686,-0.12731755862042233,0.14380620593480229,0.2365269761073712]},{"weigths":[-0.5174522957416408,-0.38040122677171697,0.4897410677839551,0.22281453820780262,-0.1314039951804134,0.19953075855728703,0.16174678348245345,-0.1036732394781248,0.09472166356833282]},{"weigths":[0.12057160866036816,-0.1282406908852258,-0.6099725257980739,-0.790327592221022,0.08598763356986848,0.10422063062967985,0.09614216163941335,-0.0367337697268827,0.3914097221903597]},{"weigths":[-0.058712615443042927,0.024660012718657127,0.05168243217640297,0.08291791335706195,-0.20261904549279184,-0.1837577012854156,0.019219870848021959,-0.14751719874167386,0.11845297470834297]},{"weigths":[-0.4791244047958187,-0.8041665551478514,0.6191174276511009,0.36898966375549388,-0.15265018990253113,-0.05361585477075189,-0.019282735384419899,-0.11630173822142931,-0.05750632799671144]},{"weigths":[-0.5119833924727333,-0.9548166250527668,0.8844770887008855,0.33876241132468179,0.11548183460190846,-0.25302878368781619,-0.07691686399893987,0.03092738660747896,-0.06733835608392645]},{"weigths":[-0.011746026800331516,-0.10321100115183472,-0.396582133723145,-0.4133663928456378,0.26453118839195247,0.03071687491780465,0.022469750032018198,0.24838473894076869,0.24866581377053499]},{"weigths":[-0.13813181385798449,0.24941525952937489,-0.3020144346903625,-0.07708788415785517,0.01680750358225958,-0.04597609199433845,-0.024901765217313834,0.030258283461962019,0.45420882535311099]},{"weigths":[-0.14151762536602259,-0.01049014495802967,-0.21768480937567415,-0.325687820677294,-0.027037030631315994,0.17425858628061145,0.24609732446745556,0.0122260576718323,-0.3649102350503428]},{"weigths":[-1.6392007119048727,-1.5485779061674237,0.5699278066172335,0.08308626837984327,0.06566205418354916,0.042664599272336057,0.06610705771312645,0.09163370947773467,-0.4727489239070357]},{"weigths":[0.2180205175922039,0.8264373924103222,-1.5463478691359519,-0.5292341684916833,0.006258514883124936,-0.03570623351331373,0.016948642452842754,-0.022576794286053107,-0.042682668786925389]},{"weigths":[0.24623921885896747,-0.12369438567164534,-0.7606369068587626,-0.8737003684594823,-0.011305912906420916,0.39877392566806499,0.39220006162227469,0.050011568149011257,0.3052003874941787]},{"weigths":[-0.6009894054546972,0.23524691507796817,-0.4760583153803926,0.5113193812095059,-0.3304996999282136,0.00710977195868414,0.028674291946741118,-0.1243367201197402,-0.08680907294949265]},{"weigths":[-0.1729984802043353,0.1105473942950383,-0.6375330167033141,0.046941034201953998,-0.07497304029342204,0.01633901901052815,0.04638749306429566,-0.05242466389812534,0.267611465844765]},{"weigths":[-0.2414379825650762,-0.45750517814799926,0.3561534461868016,0.20181750921934836,0.1941211044083899,-0.29230245170007415,-0.08021841869731159,0.10011426434243456,0.05126143085125709]},{"weigths":[-0.056519594637959098,-0.0008609284001103861,0.057531297879156829,-0.10763696421579336,-0.10306337098277529,-0.1254435557101907,-0.0306773820635886,-0.11565345520482182,-0.06543745351830134]},{"weigths":[0.10182762846314784,-0.030469860348413138,0.08882973143390306,-0.4060842088892483,-0.08115235255599623,-0.010017027304375268,-0.43813775105060656,-0.16249587308623998,-0.2511858023478416]},{"weigths":[-0.7985696882319435,-0.6674599236514044,0.6652710310927168,0.3660456898490081,0.04237920065975945,0.12263183014856165,0.0949852854179541,0.02780654597196815,0.03333887359948967]},{"weigths":[0.49571014194685528,0.20296750558841629,0.012572010983659449,-0.524507937927434,-0.038235002272018519,0.03527101151211589,-1.6233781773534706,0.1319773644905495,0.4396773740864375]},{"weigths":[-0.3412686018355471,-0.49584856695079168,0.40899898870145759,0.07876156352756743,-0.042846074352931747,0.13795921415515467,0.1440321659855529,0.010784669912034799,-0.2654311909214358]},{"weigths":[0.033256701663652788,-0.07790742274359804,-0.29195077555541545,-0.02885185023923087,-0.23203327448724049,-0.045363063633501527,-0.1051119466335187,-0.22327347958523875,-0.1319564823625963]},{"weigths":[0.3751287230438596,0.10139015487821449,0.03471017838110001,-0.5708443973424473,0.0688381422704367,-0.06763262182044519,0.027660813570284008,0.037492863271442949,0.48139515568419519]},{"weigths":[-0.12290982668620296,0.0867379132668033,0.1954847793669693,0.29124939395947949,-0.03427177430761196,0.010316634856068843,0.004444724055064558,0.02367667363513777,-0.026469836885527344]},{"weigths":[0.2783295953824629,-0.07417747305039435,0.29288221295660768,-0.3505179291695132,-0.04226178497979249,-0.18864679097715404,-0.033733383276226078,-0.014363022850155033,-0.20495355508371386]},{"weigths":[-0.4890869617422646,-0.4988178146066932,0.08519080254555775,-0.019415102828742128,-0.0145072591673204,0.24932833071288874,0.2897749664523305,0.021392823542132259,0.09453070146464622]},{"weigths":[-0.062459680747607677,-0.08760400277200327,-0.0958420730705271,-0.00015421224301836802,-0.06051615043627563,-0.11618028464352634,-0.024423384674824138,-0.0017696153734533616,0.05760135627117814]},{"weigths":[0.11474186852220618,-0.19038540875913405,0.02163156695837888,-0.270343215493708,-0.6232918860394997,-0.18713365804604349,0.039726406145311417,-0.4539223899189828,-0.3835713434744199]},{"weigths":[-0.4554561896019521,-0.451819098929775,0.3622663311564859,0.0343144492788323,-0.42032937864303529,0.12903085019102643,0.11225934378923447,-0.22134329269385626,0.24889047457086237]},{"weigths":[-0.22124347983738275,0.15023128640315865,-0.47065966506328335,0.06751822059522987,0.2697237491112237,-0.053986626663092878,0.015889169935106027,0.1009737532452153,-0.013583939364250389]},{"weigths":[0.09209039418939649,-0.05850862469770387,0.12083193416438098,-0.2974863754490031,-0.2436034841701703,-0.09678346807286223,-0.037298707797189138,0.07497909886373405,0.006977145505433924]},{"weigths":[0.01818366792010181,-0.016162125353985179,0.10768750776878287,-0.13157476955657405,-0.21144386493374565,0.20195544448155479,-0.8874172174456326,-0.31393946473506159,0.2597292041315926]},{"weigths":[-0.036546685398823209,0.061918688932841439,-1.049845397466029,-0.886613160999776,0.2944693557735397,0.4707484824425913,0.4671764254774527,0.3247007140173918,-0.02042771946103473]},{"weigths":[-0.0367478526488846,-0.0888469953125381,-0.2963941673233186,-0.10709481836020873,-0.14535952610545128,0.15136038650152573,0.1422792580087708,-0.08797019428945108,0.33623307837367158]},{"weigths":[-0.44765376253819835,0.34884810134458268,-0.6843351737926322,0.36057474812867387,0.10207369988102805,0.011948605144798858,0.16816537050744594,0.23245830620257394,0.004083075048811997]},{"weigths":[0.185154273644329,-0.34887949390850855,0.2761838081783953,0.029795685991644017,-0.04780875189599547,-0.9243787947762007,-0.026550106015337917,-0.07977416670059931,-0.29591779868288628]},{"weigths":[0.18893693573557497,0.12764784865977184,-0.23992340277433348,-0.4498965148841502,0.009376359329228718,0.04145755091992231,-0.378347006407303,-0.016329293331134678,0.13241265711033546]},{"weigths":[-0.31520619241027167,-0.43358287249080276,-0.013391321563460275,-0.1085670255520393,0.10910963426840842,-0.25351132971956499,-0.09868838354774236,0.15521681878345965,-0.1745956024036829]},{"weigths":[-1.0325763266759703,-1.078797817010031,0.41967176671957,-0.014533190103407843,0.11007149485645869,0.18729990399503944,0.21927812838479464,0.10004514003836056,0.03286277773018766]},{"weigths":[0.01153869414026743,0.9513852427582223,-1.1508988609814362,-0.40764177180155805,0.07431179159592784,0.3383159945147914,0.3558579524888791,0.118116882582996,-0.017037937420157073]},{"weigths":[0.8224549876719728,0.44253623584083676,-0.7063291174933891,-1.0563272893949472,0.020385254255294997,-0.052879396709368507,0.007069864263009342,-0.24111659634927466,0.5048716841898633]},{"weigths":[-0.0798823853903276,-0.3288920173374915,0.18494958831387424,-0.036038028827942578,-0.002394088413909888,-0.10185496610918822,-0.10238619374510888,0.040393046337898617,-0.1703218634402959]},{"weigths":[-0.11194928590682496,0.019091866199740925,0.0058719323414557649,-0.02731272701732405,-0.06901975488912612,-0.10353325896968896,-0.012405145454948723,0.04561691654301792,-0.017092093239798348]},{"weigths":[-0.2767626379234559,-1.2203948692676384,1.1553714080370319,0.29176382002518227,0.2027852144334844,-0.2145792854795937,-0.14541276490806194,0.08459398199972333,0.01201467363181959]},{"weigths":[-0.15600388847480604,0.13780011903339388,-0.3511443282181123,-0.13403744334037757,0.1885970263675382,-0.14156076269220495,0.03129552195870766,0.10189221516450317,-0.06149520983198876]},{"weigths":[-0.013464804886313927,0.6990490316089039,-0.7517843957851489,0.16699753891192474,-0.02936516085566567,-0.031779469272999117,-0.006440388541997839,-0.054385734516347396,0.2003911983072498]},{"weigths":[-0.1130142894325032,0.050076001673179788,0.016456497853274446,-0.09324068417109655,-0.03435053897052655,-0.1256272150074141,0.0003794340138601176,-0.10901129029424614,0.10613538615937622]},{"weigths":[-0.12377769416296467,0.059297676892214098,-0.03387584777239941,-0.10858675627775388,-0.0021461028898793184,-0.13870195892235197,-0.04757576124294867,0.04218507196182283,-0.02769066417367442]},{"weigths":[-0.5468127798118869,0.19445110075959569,-0.1746160325912216,0.20761927919577495,0.20373382776598174,0.0634800989226219,0.02826754527886822,0.11330558770503295,-0.007027948008101222]},{"weigths":[-0.05473621906063835,-0.3955388517353691,0.3290772781744403,-0.02289296961366884,0.02510634045144154,-0.07796941779360785,-0.020474858606360368,0.0837486565847892,-0.00008349328466863977]},{"weigths":[-0.07685572342863526,-0.01155769411435249,0.22004334675235716,0.11034074273461972,-0.10003053710756209,0.12241343823131329,-0.8684171184922871,-0.25726406845981256,0.24414372834398136]},{"weigths":[-0.08226190169971319,0.19205969370400795,-0.7607480213056496,0.02310628849816651,-0.3331708384069453,-0.49351984114009175,-0.13162672514615787,-0.040666397264267167,-0.20095469429714475]},{"weigths":[-0.25754859325738146,-0.37091074300937196,-0.05567225429480633,-0.39401072449342786,0.13009985887615004,0.012092382106996926,0.08856926346570696,0.1037080076610248,0.2099640628377573]},{"weigths":[0.006642534527306773,0.060546525263673277,-0.07996562279887618,-0.12011464923363456,-0.08221088912215431,-0.08108674205282619,-0.02693603590721835,0.032235677588608947,-0.057649789979691588]},{"weigths":[-0.2995897433504044,-0.07937834534099755,0.04471109751109275,0.26743978298136247,-0.41525106887480325,0.031192708805783555,0.11633639637434025,-0.20378387360721857,-0.19695813941884739]},{"weigths":[-0.22309360186155226,0.03659872325938112,-0.1962152718078296,-0.002951461656364983,0.09093489059223733,-0.20754472868435987,-0.02631551685535811,0.04282417312470207,-0.1619544766228959]},{"weigths":[-0.31950760020348109,-0.22682300087656083,0.190135607129043,-0.04240475346734796,-0.09958572038535307,0.017231344673034386,-0.016855075912193566,0.07648326986385323,-0.17484067023499023]},{"weigths":[0.07463216612983383,-0.08462240112384023,-0.07481846138490266,-0.08710121900033734,-0.06049433086476597,-0.026406496138122676,0.04123020798732993,-0.07921659779246852,0.07386011711987505]},{"weigths":[0.3412427801754779,-0.021849320213651107,0.0053667180165786229,-0.4732743663586848,0.1363527309043282,-0.2655710026633777,-0.13727618823544447,0.1486982988537179,0.17570480808185949]},{"weigths":[-0.15140613224285139,-0.5388459233557753,-0.21154204799652846,-0.8431513505476769,0.07004667959062379,0.39062749076023997,0.4122186540184763,0.03575100635814595,0.03329586505130969]},{"weigths":[-0.21893099326911404,-0.590557763083383,0.2885544880162044,0.05762285302728636,0.08406147988026532,-0.143887666048708,-0.2415819504084934,0.12062629987673522,0.19389154879522078]},{"weigths":[-0.18441990189513039,-0.1714130480503085,0.10245254805632974,0.17136185165707297,-0.28620171258122759,-0.11151190620390286,0.11045881193605367,-0.19404701339144937,-0.06678224840434853]}],"Biases":[0.27042575088373546,0.003568820484643621,-0.04687126623391552,0.18268401809775607,-0.0008740003639016067,0.03200900026134978,0.001156110671362498,0.4353981557926496,0.02934060313712599,0.017082965968556048,-0.3655734595413788,0.1105056260767241,1.0453745430333992,0.7303375028038359,-0.08629403156739822,0.1655298671823989,0.0003998191798501958,0.39272315300587137,-0.012282334978227313,0.07427680891955366,-0.18725483213522377,-0.6261317863608409,0.020571386243209059,0.033085552173005138,-0.07126875554208685,-0.3837801471964212,0.08928332747451053,0.12475023544917347,-0.0005179410207997958,0.25617229472026617,0.4075089872205954,-0.07798214500294597,0.13844354844436974,-0.1395432517858859,-0.1989670761741224,-0.040077331125026257,0.00465721008197602,-0.0711974953698254,-0.11431236828916337,0.1378971962040849,-0.09805543970042215,-0.32599012771338167,-0.46506083679634066,0.1763439898928252,-0.015134846627680794,0.02971154587299407,0.10933131511983031,-0.24036087453792694,-0.0031065851033717408,0.00020406701364264417,-0.3134079233156728,0.013386917952731883,0.11541311556638002,0.6514160097870378,0.04409277712662002,-0.0013816992301433019,-0.04157980759725653,-0.13988745003320128,-0.034454458757483197,-0.007014321394930573,0.19648342467794445,0.1271090476218999,0.6218250032293646,0.05443075675700525],"_Inputs":[0.2601810097694397,0.4368495047092438,0.7892465591430664,0.8582860827445984,0.0933837890625,1.973388671875,1.57763671875,0.57757568359375,-1.3493202924728394],"_Outputs":[-0.5253102557148435,-0.610694471327718,-0.15320567435111466,-0.685040602044528,0.7250911693272015,-1.3363664354827032,-0.48764778709288839,0.624709242854893,-0.03331628093155986,-0.770149141559915,-1.3209249291384203,0.8468215666223959,1.3489534192905382,-0.5251801845989346,-0.4047764812828405,0.24874862664821363,-0.7521487991162807,-0.11224416977694368,-0.3584144725183479,-0.6644597507528525,0.5195217211813589,-3.8608537532433457,0.96541936487727,-0.4754010013170413,-1.1032275138889323,0.09995567764769764,-0.10158015486078483,0.6628091499284403,-0.48300980726997447,-0.12153628843570602,0.3358206581462553,-0.36306626670477656,-0.26181009373863786,-1.722822161195708,0.13768226592223227,-0.40920916290615957,0.23710362135571498,-1.4491787356594864,-1.2871955552962167,-0.5578215193891616,0.22002870080153848,0.1616049534158311,-2.433641901685284,0.017321092224770214,-0.23564705795711089,-0.014407873685121437,-0.33378463861777299,-0.7659170122068959,-0.5343673542995689,-0.41327324150933578,-0.06653309572069796,-0.06890843072496307,-1.2570967404667815,-0.8316863648241452,-0.6147290097318924,-0.2531906013654711,0.46500480076208536,-0.5386678480094992,0.17520753417444547,-0.2964993969303402,-1.0053567624307399,0.3651826520919329,-0.2651004073252562,0.06504235260651245]},{"InputSize":64,"NodeSize":32,"Weights":[{"weigths":[0.08035667481372129,0.008006900658320327,0.04196113842795015,0.20502470886691324,-0.14954300445078137,-0.08961317673682792,0.06190758733719481,-0.28356483389217737,-0.15233824296758925,0.06308685423067921,-0.01958398678791463,0.10154009919780928,-0.26648268685574019,0.0936183030361662,-0.005485469511024156,0.09456482000184344,-0.28256172058705039,0.17138297442556597,0.028804938888785923,0.19122108971945643,-0.1501640092724874,-0.13359125358958386,0.1616566595402957,-0.1358726136500804,-0.10613002126028343,0.11063634225091879,0.10912061783478341,-0.26986414300844366,0.15681717589284625,0.035189284641153308,-0.017296829159748073,-0.03937967805960909,-0.0450434209692981,0.07081401877637192,-0.05181094108068835,-0.18306064647515103,0.1185305794279424,-0.006910034815778692,-0.01547188031049116,-0.12738797068114056,0.1622929688637164,0.21449568380551319,-0.10092140074475295,0.04943669903082225,-0.06542593922122758,0.011834949847303224,-0.04159085480334307,-0.11781670024076119,-0.05719556807681283,0.10320387985670107,0.12165890350512745,0.06607581492505066,0.06191789475772267,0.0891465131142166,-0.14542218335226293,0.12241874322771201,-0.0877950332165139,-0.047307689528644159,-0.04551442255513676,0.02579364450655941,-0.1253773112126109,-0.17981330722268963,-0.04546998283951348,0.05139211758972019]},{"weigths":[0.10421719353051319,0.10291837614806405,0.03363082070576867,0.065536820245092,0.07828318085939871,-0.11302417944604519,-0.09859068248796876,0.27909299914206067,0.3329385189223006,-0.013281123375693906,-0.05878264021621402,-0.15101574676538183,0.10109909501730975,-0.4491831314174164,-0.1714761639542711,-0.018663112066130674,0.14874002565330303,0.1507608787337584,-0.0487786093753222,-0.07249261924769157,0.006236233753924551,0.02840544241526121,0.045138545100539276,-0.049609207758946078,0.042866609670791099,-0.25846158245015185,-0.008444138026993335,-0.06659382698528738,-0.05899729863185321,-0.17377193579168943,0.01572136019712349,-0.21042622343371884,-0.1334458642498918,-0.1751060999448051,-0.3078866679218189,-0.0710039742282181,-0.36317848533180038,0.08732437148435146,-0.04506821144851368,0.2087172436440811,0.14165016667450143,-0.5314008496667813,0.024528123663274828,0.03630096629054837,-0.049873035116146508,0.304673555530931,-0.0732153736077724,0.03057061762917272,-0.15040134212909413,-0.030914585663644215,-0.20742433190921925,0.15567997065428694,0.13066893198030145,-0.19663231319061973,0.09551963421279243,-0.13532595633641837,-0.010468179104655957,-0.14865026510371849,0.006009153542077131,-0.015514476659865186,-0.07413874712807554,0.04910196079529611,0.25327677375527649,-0.017475013094537356]},{"weigths":[-0.053079933796558047,-0.07409788863052591,0.12697464144575186,0.14347122563641113,0.1017438272093766,-0.11238435333533595,-0.12783231548725958,0.3288534034660196,0.07877104700976466,0.09909926254522797,0.25360362094719177,0.06789525621053463,0.39665942527393097,0.10317668671727413,-0.4853742371649523,0.19094117285041888,-0.09279591052397825,0.07447526493323803,0.022674186805024363,-0.20451251458727824,-0.2110211943350867,0.2986830369544993,0.258099672780636,0.1814255656973348,-0.22691665330867998,0.05064699866116182,-0.07667650845147808,0.0766259437738793,-0.01816655346589955,0.11170891392251421,-0.28758930167012716,-0.01781130576112341,-0.11799469245199468,0.3280436089362635,-0.19113266121446538,-0.18065905075966127,-0.025305966937620544,0.2328945713160246,0.11763499659576785,0.06227610017459138,-0.12087317522670023,0.12147148009906496,0.3486602342008388,0.0765053805005366,0.06785686385535754,0.010455991360799683,-0.09741119934260827,0.057648070342164649,0.028690668395697957,0.024598635448241758,0.31371424671749706,-0.08795523601093233,0.10568884370416362,0.07286621886959302,-0.048203831090446628,0.03238908847558653,0.01508071884623302,0.17094254985588143,0.009374430015310853,-0.029505249779234994,-0.016105135572597495,-0.3171245306907262,-0.28286553353198065,-0.027155669522612004]},{"weigths":[0.1035900429809977,0.1728857592260038,-0.12648295329450819,-0.08510960633491417,-0.0828077905577989,-0.06256396387686518,-0.11250747430814096,0.12950115910472846,0.014600542939699495,0.15287318562887768,-0.1555512661197668,-0.12521024113813956,-0.2511258791914815,0.04837604459729446,-0.17826766460464509,0.10528293237961387,-0.15073336981344913,-0.10034872594144073,-0.045103955681678058,0.10566162185603159,0.10194654334344859,0.07012624282245796,0.016702953874044896,0.05440251755306206,-0.12196285856931963,-0.08162144964199274,0.01862594308594301,0.01438997064650082,0.10669793405471079,-0.16572535012996629,-0.030144850590059795,0.11135799691001054,-0.07853931983994066,0.08121074361473083,0.03831486016441265,0.028516485739950509,-0.08266734345822648,0.13806239288616513,-0.04922567331867498,0.031036623316292167,-0.16054944794397106,-0.18576733650864045,-0.0904090804267531,-0.046673624209733869,-0.11864986281806923,0.18935631242607568,0.06869983464939539,-0.09880127499655363,0.1324049807329229,0.0407381925671099,-0.24535846446343305,-0.027235566533356856,-0.19915477532955049,-0.1948827693383235,0.13958311249308759,-0.06600914316671637,0.09091501636755065,0.12442225058867483,0.05085503932707624,0.1244380332667718,-0.19311323528026659,0.017138388951464684,0.0954084868871898,0.05105771103988461]},{"weigths":[0.12311423617419369,0.09642927734270118,-0.2308780925635742,-0.006372097034856179,-0.2583655804959615,-0.12159737214029543,-0.11991162868561227,-0.09225954769651787,0.13763152840058627,-0.17915376845407239,0.06140300559150906,-0.1796900989952822,0.0033047251567113707,-0.10637798751291751,-0.1189384982697943,0.01735740241510894,0.07346260946412107,0.037986898817530669,-0.016345440039236833,0.1370561789992419,0.15873091374104388,-0.07912132107232917,-0.1419924716905358,-0.10309294221209882,-0.02137491754688675,-0.17054383399303844,-0.04774336006098648,0.09590721808482807,-0.16554609327764423,-0.052190591015607867,-0.012429920332725903,-0.030980919350526806,0.06400769253546024,-0.03141676748329746,-0.18751982230497153,-0.1772148452728439,-0.1080348984970013,0.12384031236206414,-0.15767833660085749,-0.25900374190638467,-0.029382976678062578,-0.05069105299487249,-0.025989577074474337,0.12177359764894955,0.11550322944727153,-0.09788604145271186,-0.0027190344169793804,-0.22173756567398404,0.11612182573467389,0.1326687173430195,-0.2033016610401475,0.030806192858077169,-0.05826199277062879,-0.20181368757637037,0.016855361790008507,0.012206143117641585,0.06707245378195838,0.03168880703878581,0.011415444393977017,0.16313117526017563,0.21868959103188002,-0.0247477127225761,0.1775215594785332,0.172920078086525]},{"weigths":[-0.133712324528499,-0.05604850391609325,0.008831238225721346,0.05113586536074182,0.20482977258234603,0.5359035237983247,-0.0016210517417532395,-0.14420384068727974,-0.22257576358593113,0.19187295835084015,-0.11917093326321335,0.16623278606060275,-0.20567740004207936,-0.3380581819059711,0.03524330190109917,-0.15344761172069,-0.006496302274831339,-0.06914470161446093,-0.044590661510604128,0.1530302018148635,0.01895242404818839,-0.40777593980955909,0.08094788519729401,-0.12441740296961518,0.17424572306885098,-0.25136184949890069,-0.006429505793891881,0.25430281469280099,0.012600124605957187,-0.3572891378696379,0.26693221455721435,-0.01772094890250471,0.18265891849209174,0.048293457842804917,0.16656623078694894,0.10728368717345015,-0.045830263034730537,0.03430488328472588,-0.14056544220709894,0.12787195700778865,0.41067676082130569,-0.07775151738355764,-0.3835653533115832,-0.06801755153692185,0.02348053330691011,0.1767961279528743,-0.2176031538379478,-0.28762232293882697,-0.1582109638505921,0.05087792336498929,-0.2905294929442549,0.09089098959093406,-0.002277840779865622,-0.05945128149009571,0.23802865557604589,-0.017129068406405318,-0.12114120618825342,-0.10192067018912185,0.05565910902315017,0.03312322109404005,-0.3664000446777822,0.3818720495918297,-0.08431925257924916,-0.0729960756774596]},{"weigths":[0.06489991215791694,-0.05399473318450878,-0.05804241028533388,0.023253909483873564,-0.3377495684637474,0.059542051922762847,0.018688275533409124,-0.13646552954209086,-0.19140901224459859,-0.04269258953844197,-0.06475187274437105,0.057091406463769509,-0.0073043691518214028,0.27690291574876449,-0.03587804437607834,0.03220730925973874,0.24667008497405344,-0.0571153707949412,-0.1292711278390578,-0.0802363685829485,-0.21461135712159785,-0.026554240989085374,-0.23586527248732407,0.14867108590289056,-0.0129651966905186,-0.18399743377856649,-0.11670166902326151,0.005131341761530431,-0.012225582071380801,-0.022529475175906388,-0.25627887859358108,0.01555636404022877,-0.054156031949452707,0.16361157059118429,1.0112769200205066,-0.007668374924776847,-0.0471568540486577,-0.3084010518647191,0.1697545469021147,-0.022139864523427166,-0.008498234083504235,-0.042982221911588538,-0.08394585589922853,0.005355628460972107,0.003605245085192169,-0.4417898232602363,0.23912506987541388,-0.12616844413993817,-0.07496940581533113,0.1558933545169268,-0.08790792042597486,-0.012776043055845288,0.13986469981509729,0.3474289596279049,0.20926451063148139,0.10384850737449687,-0.07084668428705615,-0.00084478120528577,-0.10458112222524303,-0.015083135420881456,0.10252012597195491,-0.06615346938422616,0.0237962904678658,-0.09256809069293824]},{"weigths":[-0.06846994912631477,-0.13582030830296039,0.09117123327026136,0.10867993891579232,-0.1302111896858608,-0.28610973674005865,-0.013377334105011805,-0.08781517249408952,-0.12368410422048076,0.022307881808619688,0.144198326377128,-0.0017984698398537248,0.045941959170156147,-0.025667407293400808,0.11513465047370272,-0.16481752479135143,0.011550892885663167,-0.1134212185462398,0.09417452245554664,0.1802385901693256,-0.34366149984101809,0.17188336262606689,-0.05647514515826092,0.12049471859593877,0.13137058390493343,-0.010316965470082509,-0.10502041376305345,0.03650937657015358,-0.00827095640946567,-0.10749863743464913,0.0664032642547244,0.046346343614525848,-0.16069621347269839,0.13633782699777709,-0.0977327605367159,-0.08266900473535494,0.1192781922729756,-0.06343765978795837,-0.010049176545361973,0.1580836479957221,-0.055103928066254758,-0.016309310983775105,0.006700594601789235,-0.12993373973265788,0.13767255918964048,-0.09483027414622679,0.15938734727279395,-0.022187006963806236,0.1164519741150913,0.031725742704121127,-0.18728344327656436,0.09417828681257058,-0.055819138064162079,0.1011813672453282,-0.09701126636784999,-0.06218330492689565,-0.06358677658018144,0.25122917516859918,0.09752290920630223,-0.0139884455439134,-0.1644382642283293,-0.057449963364914,0.0488512994328528,-0.09985464118889916]},{"weigths":[-0.05674135327208521,0.07079526258294697,0.04864934567905803,-0.19235922929001074,0.22912964779773319,-0.008189825772037396,-0.14119004201530747,0.32266102117059566,-0.057812637110469407,0.04090956123911543,0.07591970279314012,0.04443681318784983,0.055708597051070559,-0.4274309298460831,-0.17803450356363496,-0.05660780589872079,-0.043790420577728809,-0.005192993276543803,0.031149356126629784,0.021352329599691756,-0.20964155437520586,0.06228411837766491,0.07153810817108604,0.21322569584208737,0.006721497853712822,-0.06998064664206755,0.12619307939911429,0.0738768106075451,0.02708916411079185,-0.022606880467303339,0.09187711788214417,0.021161805674926309,-0.04498566360521013,0.01971610511146322,-0.16570874913952333,0.09258804111821417,-0.0529152206108497,-0.14304902418905633,0.09377262357214267,0.06530885844581247,0.10075717910603824,-0.02850308138415279,0.06240043051108764,-0.06488278657881805,-0.062149052807458287,0.06687003774285841,-0.2437613073995712,-0.19843674502025278,0.12969912239077414,0.157871966462928,-0.14124810383376353,0.0070783588627809459,-0.04341910237968977,0.03705506263010095,-0.07111168987250552,0.14701713628558386,0.11187456826531943,-0.09679377540190144,-0.09259643489332584,0.05756562593843129,0.08264430618847789,-0.0684382462851415,-0.20723415072834074,0.12738272410580749]},{"weigths":[-0.16115168584534715,-0.037505664777207087,-0.04281464616350384,-0.1133491579517566,-0.06623330435222218,0.06620539433354816,0.20630485572189079,0.10989565989493697,0.24261035124561779,-0.04963335041431758,0.039402319093628197,-0.3674685519756215,0.2523687328369456,-0.3720703336807862,-0.044399544441444147,0.17111282721198088,0.07762831414927299,0.24418869488016885,-0.11398353252489324,0.08577348107490159,-0.045354869694925557,0.06710157533231968,0.2007560372141353,0.04583320923428919,-0.14080585699000826,-0.017964387683608635,0.022833585514727279,-0.025141421203645588,0.010811367209680385,0.2406317049281489,-0.0739414544083848,-0.13499271289536278,0.07855185773216741,-0.1336473988171082,-0.07009189846249184,-0.16402635531658708,-0.2990956594454041,0.0684767950112126,0.09565322085144855,0.16738351378841913,0.007794529905531005,-0.4499816733793981,-0.12896459450652204,0.15629261205544446,-0.1314877641974123,0.20732255740592082,-0.010201883253059022,0.01994751269960202,0.1562287621243281,-0.05330857795944582,-0.21249335531766543,0.15194479233475265,-0.20066009529395374,0.09268952224503398,0.14151801001434795,-0.05700799187044458,-0.1856940700045209,-0.0513560056043941,-0.184319780267548,0.04648961184262708,0.09618880805007746,-0.15773813388843475,0.24233032832874308,0.1396428875052368]},{"weigths":[0.10318048203538274,-0.1195001611082405,0.10665933472926272,-0.029664354781344668,0.08874391709182975,0.31980225195508807,-0.11536044017733527,-0.0903909468062009,0.37135418373324238,-0.06461053842342494,0.026214469646810336,0.06951251999197325,-0.03541552855521126,-0.5485489491157578,-0.020433037232622843,-0.029718593781007685,-0.27189921843568778,-0.023698503389956609,0.1324086135452299,-0.10728992851340076,0.30411531192891508,0.020080505831831104,0.30294982647250159,-0.001964269627649532,0.014270415161684865,-0.21455859763830285,-0.10720096595832228,0.27881795713956455,0.053313147773908799,-0.11941360616763441,0.325600006538207,-0.02070154692381855,0.13437992512141523,-0.10570025405525091,0.1720494987534371,-0.10476198967641315,-0.07596807411617369,-0.0934226990893648,0.025129884539027097,-0.1684461152162659,-0.02647036062175614,-0.2979940061780873,-0.17539489738009216,-0.05198509943801854,-0.12795817621912626,0.3671367891158661,-0.04378720250898501,-0.3945510997911872,-0.06247406972192123,0.13335683727605425,0.02511310623208315,0.060053690275658867,0.03650978495964999,0.14230141930826946,0.09151427989960774,-0.16636857543797119,-0.028109544935544588,-0.005598090280600348,-0.030259091885580588,-0.0453177124192169,0.1066225358769924,0.2966061245911647,-0.18979527903280347,0.14770572453461079]},{"weigths":[0.17285653653675144,-0.13696552767862889,-0.003947609783529731,0.06314773381949997,-0.2693343188723562,0.0941080057685519,-0.11916149977854442,-0.2262170941680576,0.12450375005813001,-0.22382129402974799,-0.29497453832727268,0.21157388381766324,-0.04813206520262759,-0.10146877830019968,0.15171357157936025,-0.2886986492490923,-0.11154471962177225,-0.05693277412833897,0.01400957561428511,0.16060395295244438,-0.24261752620749064,-0.0344534896804781,0.10058515450088537,0.0024746528655404948,0.09003985811306287,-0.2663376092274531,-0.1324799767767661,-0.03643698612981445,0.10417641324518369,-0.06112463091526753,-0.10441449499184509,-0.29340682351758176,0.10092047887560479,0.15162103916552664,0.1498269121603789,0.08509104437000095,0.049680634248141338,0.07973296688718242,-0.16475898243729759,-0.1572342842916214,0.16480529474683446,-0.1223874938280619,-0.2709034411906448,-0.1861457411925953,0.1595988306307741,-0.17525530379500066,-0.11780081719400566,-0.4923304273301053,-0.14181864740949388,-0.04613150909603911,-0.08314385260849897,-0.014418778291268399,0.1491124283433647,-0.07926637522955082,0.09438781700946397,0.0009185539353775678,-0.1831674517771451,0.04708135132046129,0.02750526175133653,-0.12083219838779015,-0.0990837992376301,0.11809958920323156,-0.17047596762762316,-0.19713167136348448]},{"weigths":[-0.18634546030431144,-0.18721737764339239,0.03994720689199747,0.03025991634086936,0.3147982470269331,-0.1846135855328548,0.04458428938573509,-0.048504457148989908,0.3862895954001608,-0.0799172894650195,-0.2106223111699202,0.15415761508460244,0.49209506636369218,-0.4099781157895635,-0.47655425309290797,-0.04022412358149327,0.00447141546311147,0.17362087841442873,-0.14038674902215615,0.1351441435300843,-0.01140466321739154,-0.3228173553193636,-0.17144377477757709,0.14198373644557789,0.10094211937466997,0.05908358168739349,0.14148378797204903,0.21926178923286336,0.09925068084996954,0.36486499749993386,0.15274505360188884,0.13444421583226125,-0.17983406632553884,0.23978739543693237,0.07546786316303683,0.2098876872769689,-0.041189412324335299,0.2897809037330898,0.08617325979216599,0.1055483859604242,-0.02777307519659532,0.03368640933519616,-0.18842574757619102,-0.030881318397388566,-0.005788264863914584,0.31655459823403428,0.11677693973920909,-0.18384410005856895,-0.059083693481826408,0.03526059884993477,0.05537844600448513,0.061990153634549568,-0.12081163306277912,-0.13961327016637785,0.16857456269420263,0.019539983279816529,0.21204934629933887,0.16917148862034535,-0.0003693045946274591,-0.17535706616492292,-0.19923605287928565,0.0987517928046212,0.05805492450689112,0.16026326925260912]},{"weigths":[-0.023804951831448819,0.08435031056778769,0.11083361042589592,-0.03855654839941857,-0.06554779113522144,0.01782154894363645,-0.132955309281984,0.07434135155636347,-0.0011339947670082076,-0.15283494771480425,-0.09652596365256876,-0.013779372375710735,0.15238207418029282,0.0672658208960702,0.144533634715017,-0.11518882368537145,0.02987900568612176,0.117402809628021,0.05197089753486177,0.12085028597019375,-0.06709900918394848,0.10991111621942983,-0.17885476827943359,-0.031999232686858527,-0.174103931026458,0.07506717896167756,-0.026064466718001324,0.0007412242185507711,-0.03895293949389982,-0.06706794169801468,0.004912635600466948,0.1536519890569963,-0.03660181628260644,-0.13180913684704599,-0.038358946721866387,-0.0581563760614133,-0.13285544250407,-0.053905926058603437,-0.1639606136361418,-0.052908225548395537,0.06967979699900587,-0.07085125952466957,-0.11770977721276471,-0.020627925535016815,-0.1268335807990647,0.04256147463015954,0.21734919059394798,-0.11913597032012959,0.08965125240527912,0.13352403902625227,-0.18107024847403434,-0.013014351369525378,0.0551808229926374,-0.06733538531571155,0.18773637809038999,-0.1064288437090498,0.03890106888540113,0.10052112547268814,0.04630924846090566,-0.013419430067733853,-0.14356932299049325,0.03833086937927117,0.18192811469507484,0.16320570434146293]},{"weigths":[-0.16330209520616349,0.17316881234383706,-0.07784128285135836,-0.01604409929221276,-0.004961974344402927,-0.2893872008786882,-0.007049289154510748,0.11942348599709647,0.18456437885034716,0.09795686982554579,-0.16621653697518638,-0.06817516520774858,0.0008406412950919656,-0.14448891480202404,-0.2444024263569189,0.24911949194203349,-0.13706929758504445,0.12643832484208077,-0.0015518866803974582,0.08822613542946423,0.11842232918634779,0.03166002700132267,0.03614452896323529,0.1638888313731774,-0.14767527482614893,-0.1361564993587512,0.07605634359240236,-0.10302846511260945,-0.13257673050248723,0.18589427293665213,0.22811222239571433,0.1331824560865314,-0.06082026326149948,0.18727751791552409,-0.4811037381326802,0.032601769164262318,0.27724509982748116,-0.056363507511140237,0.06017435608663574,0.22294691817594529,0.1521413070420587,-0.22227575358359287,-0.14713303523187605,0.04637830286017693,-0.06322575219668297,0.0027650065093450389,0.09624240006386467,0.022584372429551838,-0.04990876569959028,0.1815913726115869,0.07697030322396784,-0.03139177006565914,0.32388056490487029,0.3890657295915718,-0.02848679854366671,0.12411837419625029,-0.12824121021614083,0.01185448796779465,-0.10481835782083998,-0.00008783918430846657,-0.2441260362892181,-0.14857960125544013,0.24819232085453475,-0.02946785090043011]},{"weigths":[0.2137601832401287,-0.06098135400255412,-0.18672366162123697,-0.2508761335504609,-0.1390038971246354,0.26470787388095409,0.05365957221100429,0.09322370026401569,0.07215730406428002,0.059201031873881409,0.20616325178880066,0.07821116712929564,-0.020699311730134209,0.5160517225659087,0.2044190364163255,-0.46094596424224146,0.2035194013334745,-0.26300784661255485,-0.14343948665970777,0.3233155880124144,-0.2132339411791778,-0.13106243133477828,-0.34204486435093559,0.031299438922531997,0.3872585760509672,-0.001891453995296888,0.07203074145786821,-0.03563621609573077,0.1709319826237012,-0.10856001015299144,-0.1641299548495861,-0.19292463585384288,0.23589919902640656,-0.018745043862314124,-0.07951409657282813,0.31749088025627977,-0.35519395339670109,-0.08077983883581627,-0.13290614006040339,0.10606151790657582,0.06654639688471492,-0.042836162814567788,-0.11398195505967469,-0.06677312577581368,-0.11428994704309834,-0.024729028464322828,0.05531169331138829,0.07994335231073806,0.13043718870182573,0.06034102349493976,-0.4288444344904421,-0.09380466343400697,0.0022122438966545026,0.17222584823286536,0.14069811393525587,-0.02918131971600553,0.0987388587952893,-0.04857335635419324,-0.007880470456835874,-0.09270803430202301,-0.21854779855060908,-0.15356263051246689,-0.1761317402072646,-0.12952455748644449]},{"weigths":[-0.07795087945412005,0.10714084900441123,0.025242893386086014,0.06389966291571896,-0.3363885811678271,0.16182935556770568,0.08449333764679944,-0.3222790157178561,-0.2589700449312553,0.1762710185739935,-0.04287272380811392,0.013263253295304095,0.01748740807559345,0.25089808464186638,0.1135318942944009,-0.1477034362128216,-0.06846375992422524,-0.0736225039759294,0.030346593810041079,0.03368836975165942,-0.24236381356545673,-0.005308684230551198,-0.1535350051398693,0.14983789031522519,-0.05480269800854409,-0.17661136457039906,-0.027713940772609727,-0.2304256548245277,-0.06909199735308383,-0.03779539203378543,0.032429186724454727,0.14969312239072905,-0.07890429487160669,-0.0446427153793297,0.6207752001959529,-0.07558573712910363,0.12060675480001218,-0.062343124399099728,-0.13757796607794249,0.021030542591932334,0.08635395647929405,0.15702942869084503,-0.034840835545047,-0.03717967531458804,-0.08918200934627903,-0.3683702072995829,0.22837186472778468,-0.17645532192750144,-0.05168693975555632,0.009571270842444524,-0.11773167965448231,-0.0792411767573953,-0.13704995793788359,-0.05518394601897131,0.005228497655797281,0.14865638600645934,-0.05506447675289394,0.05671306066314709,-0.04198648532422943,-0.019516907004540817,-0.1072379291394894,0.2196287825074258,-0.12794355554900675,-0.010505654713386966]},{"weigths":[0.09302909824719276,-0.004756108342255617,0.14504289006577487,0.14604855390324765,0.20232638819982297,-0.08825307280189962,0.014667867595479953,-0.194801227923326,-0.058612642639594519,-0.2639868428337496,-0.1542028303576186,-0.05438907954883378,-0.2981243195420527,-0.4084486977513053,-0.15754743380706785,-0.0011445725826802604,-0.03248653664996723,-0.05654255013419987,-0.14898647525422874,0.10665649133274685,0.09927875336333585,-0.11179963344741056,-0.04991646011766598,0.08536380811648994,-0.14837691355134684,0.11994323203951835,-0.0006774980291091407,0.0583011553520409,0.15492107068076514,-0.25285328370703416,0.03988826753334747,-0.053781529292087588,-0.038683258646558419,-0.27401046545343529,-0.08795281569016744,-0.20442865616870369,0.11450236200272379,-0.06879823566376305,-0.08141366718542902,0.018283008813639515,-0.025363285645838147,-0.005018077466258042,-0.1756334895593681,0.012339462096635223,-0.13465958913470628,0.016732434784971677,-0.031238839624278235,-0.14759122866950787,-0.028035097072038677,-0.08196806733530847,0.23304694417893008,-0.004569195864200931,-0.12187619149882305,-0.37214111518063566,-0.21440380994513254,-0.06425407688873751,-0.0032790173797346627,-0.1600385315365856,0.17555571277982258,-0.04383845008558687,-0.07883594087698912,0.18489950757539565,0.17539149330012614,0.0217067161686588]},{"weigths":[0.19161354660604475,0.1444201317826244,-0.1733245215902272,-0.04421053505407244,-0.08978825684669187,0.1457614461669774,0.06495557048517276,-0.14152662334766404,-0.2932975874914476,-0.044775857498104188,0.09611421639622857,-0.20622503433269047,-0.12590415561740446,0.42389858547026257,0.08175507930227212,-0.22741154008006576,0.045512072513774957,-0.3941494218343871,-0.03114557496357263,-0.1493647245485636,-0.03087519027771809,0.6014995807520808,-0.23760305302281715,-0.10693085968606252,0.3864626941399321,0.007544832929957552,0.3317969595911817,-0.17988989229714495,0.1271815475557052,0.051134686105964197,-0.36254107822806516,0.024986986463512184,0.01793703804007724,0.23162984412061775,0.04830783186235775,-0.0668939264699067,-0.20554500218392597,0.148940966104008,0.1296434734622616,0.052391542237375497,-0.028318824422807553,0.29958409637430608,0.5083228307290287,-0.19467347664961882,-0.09051488674145401,-0.41610856893258937,0.05739948103150789,0.04092989570127121,0.1247334922495145,0.1763118475755883,-0.2988012519883398,0.10659052413180077,-0.06541883273858541,0.03701238399538988,-0.11964147632257338,0.10395865159376958,0.13839814629235648,0.07349103219371643,-0.1277532701733065,-0.13490258154602714,0.2382356197073628,-0.07305973369916175,-0.12921021746200082,-0.1136819816128255]},{"weigths":[-0.1272899646917379,0.16296126302439085,-0.07521610642823369,0.019103560011350254,0.21681881594779973,-0.21497271601134955,0.10441158971895735,0.04970505663110418,-0.19222285549889557,-0.006181447872895012,-0.04109649276261548,0.17916737081940968,-0.3413881652669256,-0.28388685832818869,0.10450199921371356,0.16329173219554708,-0.025152605734903207,0.25058426600388,0.06585699264313678,0.05791004005217709,-0.04138630298108568,-0.23221220498230878,0.07390537726727793,-0.07780475448561507,-0.16878704906625015,-0.029698842873137646,0.0016971499833536583,0.40643227869491269,0.030978994337404365,-0.22810730855909498,-0.014186444486727084,0.24462773636943478,0.13436378411409584,-0.3604879834741595,-0.2290119326935131,-0.22456764200835625,-0.16420028272293447,-0.3670195443721357,-0.1149552657039103,-0.01614593216787853,0.2674407018583362,-0.12117669583871924,-0.03358412936870195,-0.11835629582206484,0.00045627504208869697,0.1512312448753353,-0.10673145552491445,-0.06106595406609194,0.07678751166210425,0.15746820415753738,0.1165707849970996,-0.04569234404671903,0.352762604675987,-0.2388943402622609,-0.11124498178196955,-0.10198849141296418,0.20650275852479703,-0.09817240586272329,0.02617082073924821,0.17106611754715513,0.18952725080970554,0.15042410074979296,0.46006774325149837,0.03334451865041981]},{"weigths":[0.15490880774014208,0.07093800173822233,0.10585345712764217,0.14348793342117195,0.008017784002776784,0.02460847304926387,0.14159775579284229,0.1377399532478923,0.0492555254473416,-0.03616684002204776,0.1815220558660719,0.024957407214957575,0.1768706172914505,0.2949737279502716,0.040456603121863689,0.03445228878554796,0.34721538021743816,0.03757868211232045,-0.0996486475606646,0.0978040770859605,-0.19578211867707824,0.4332125527025169,0.3548872080470026,0.18623273032918459,-0.14493193630800106,0.11549321950248617,-0.043058856909550278,-0.09569828599527344,0.020667775039051034,0.10987805249778297,0.07202219621874205,-0.021872731652179426,-0.06987838931939294,-0.002330152138570828,-0.30309994359347267,0.07122415371614643,0.10717274762263755,0.01422217022384209,0.05747477631249542,0.17839051222116704,0.011866463434670348,0.0379293893977677,0.3528580058757822,0.10800669749694966,-0.056783774257522619,-0.022049106056002189,0.011417080276174535,-0.027264336233591415,0.0890909955034918,0.18968277383190294,0.16839975750932963,0.039143220030774698,0.0849290470343983,0.24217993921504397,-0.11711047429987442,-0.07474620363788827,0.2872853521474106,-0.1227073779731758,-0.08336922652148958,-0.04616821135061641,-0.21492457244120853,-0.3153535927640446,0.029144479314556078,-0.0367172627200481]},{"weigths":[-0.03629241639433092,0.0773543354654383,0.0013157618278525805,0.021811504158708866,0.07508679303181419,-0.10847687081190709,-0.1660799484985605,0.007753548771413837,-0.12990557259170833,-0.16967855920373677,-0.17763631242197079,-0.1536261132062685,-0.12514950595537684,0.06455569371166768,-0.14920804611989472,-0.005092045357677317,-0.09592003934688692,-0.046315337817058318,0.06306669788418515,0.1417311780121335,-0.11843837166573133,-0.05099710467565659,-0.07256214375013547,-0.04365081693887414,-0.12675487963709773,-0.06712218858843672,0.1145211595096057,-0.126824634325909,-0.12478288322538689,-0.12905798005411413,-0.09556935475623024,0.14125371810992663,0.17234425842316049,0.16112338526189208,-0.06820943730520249,-0.06879844182643441,-0.119087512888653,0.043177799685617208,0.12469739583774464,-0.14934941924016466,-0.007290105234268602,-0.13318204212390304,0.1038024547047598,-0.06742371717001151,-0.020945855362935724,0.13168718435692079,-0.09351146576510955,-0.10171609330186171,0.039839388619616337,0.09868557990042291,0.03406628624168229,-0.03347311408147706,-0.08026604217388471,-0.03971058948957053,0.0961484650544283,-0.05938456419337882,0.00391057982982438,0.10234136026731067,-0.05059995217548195,0.16464044457072384,-0.16014839800880949,0.059662129623317728,0.036092199561783267,-0.16036164281559193]},{"weigths":[-0.0867026535456708,-0.028797096082422328,-0.1531460529745812,0.0707790377306151,-0.04165543245114597,0.04062366197763915,0.13624706113591687,0.12556728005157154,-0.018870293999268735,-0.02346462722484536,-0.0912370299163205,-0.08064503731114141,0.11714933210683479,-0.05947489110281951,-0.05880076787438943,0.20458482253044039,0.021326637461164246,-0.080145451510067,0.07301698525848154,-0.1592387918599382,0.09322679768849043,-0.03820027515913362,-0.12686239281157919,0.16599097670983646,-0.07352474228633937,0.030008916108156357,0.03359361667072935,-0.09175700888756348,0.05844009928542013,-0.05984772467368205,-0.007602007815049108,0.16930009565715244,-0.0944016470949935,0.003417188064663978,0.016135417721178777,0.15919003946571448,0.042042908338607517,-0.1495908522240626,0.1408310817401179,-0.15299549340903666,-0.212539310664081,0.27070663336072256,-0.08882486985434016,-0.1013110902581434,0.08265658405035341,-0.12193496572368898,-0.04412371219498351,-0.07950382051582838,0.009051439802716883,-0.10032720779670212,0.023101592463887805,-0.10566763861072244,-0.1750060175563528,0.08108027092707469,-0.062218182463246989,0.17478881720163434,0.11009092743947816,0.0024462637216431306,-0.15392793053221788,0.17385312787492214,0.044473763887164226,-0.08798373502349558,0.06145442990905724,0.04564976785962829]},{"weigths":[0.10916019339402052,-0.002756726310039696,-0.00025040451967280877,-0.21763995493238243,-0.11514612142521454,-0.13289520117450513,-0.10208196250062979,0.06586218530069653,-0.053881068137976679,-0.1719257425841374,0.007783625565225924,-0.15321166250325275,0.2636978883015718,-0.06034244309032416,0.05817092221280175,-0.008022030285541703,-0.037982145053658319,-0.23982200503386515,-0.13844034214419399,-0.12041618927895356,0.09864167112656258,-0.07493990073100528,0.028718426950159138,0.038204765264555958,-0.0025899949938417426,-0.004119949413789679,-0.01513739638560616,0.03279269249790139,0.05251319506781081,-0.044712953375018998,-0.026559305240720769,-0.1472534545914233,-0.05403429668724189,-0.036843365726031477,0.03541622436737009,-0.10545558566286254,0.05559244101817842,-0.024952794058551533,-0.06281721233648391,0.16911695945122405,0.1002682786152332,0.044300246550168249,-0.025886506864928946,-0.22067915589564172,0.14887505534420415,0.00024341878227151007,-0.15724659155426538,-0.0394176842720481,0.15179021798746979,-0.07855544118517421,-0.16028362295473518,0.09866307252216715,-0.028292506785477908,-0.09433397511111363,-0.11825172189380665,-0.025899637714862857,-0.19081064531710538,0.1696657849612385,0.20035811387503026,-0.15632555958770723,0.1727616109145751,-0.08915029784236096,-0.022763684266466457,0.14805045636479334]},{"weigths":[-0.14011240435795639,0.15792178443219266,-0.19502602517064958,0.007425143339651158,-0.09576695219770881,0.05875964577881854,-0.04897871605550056,-0.12931528395520865,-0.16672421438300243,0.049901932473145439,0.12860371130908336,-0.1758880583384389,0.14772721016341154,-0.14128105681648957,0.11118874747191636,-0.1610241275641734,0.15689443430426426,-0.06551734729425174,-0.0702177721474431,0.13552162103594693,0.04548721221554055,-0.040299112535740828,-0.11850440329202056,0.12149539092428403,-0.1015244487060016,-0.1333082470974514,0.19212501529097854,-0.05587346963284838,0.08330638431499918,-0.13956474801044869,-0.0483142799252083,-0.0037620161804802047,0.15795251723182897,0.07539967011371129,0.044703854458702788,-0.14099814613228424,-0.1403268196256005,0.10868587735428166,-0.029359440100550989,-0.048838984808654447,-0.15393311247768363,0.06753406520122926,0.12661854982037838,-0.007842280660623825,-0.015652833073757558,0.05181385831633042,0.09130517246894099,-0.112770087274057,-0.15875809666687483,0.0985691022811556,-0.11011471336986395,-0.16222920814094778,0.03511877892144181,-0.018949240020832298,0.0024075223306367309,-0.011893531430256257,-0.02818396035276971,-0.17369540379982613,0.026997092093005397,0.15054904257015096,-0.005093026514669136,-0.22400136576988978,-0.017141012789749924,0.11266714787597933]},{"weigths":[0.06321116581705416,0.1398231454993059,-0.0718389611613685,0.07098868975905522,-0.08888029395133343,0.0383522760810267,0.11757535815730722,-0.11218321505162883,0.04155101226658633,0.13345862208522903,0.02983706212242134,-0.135569302075264,0.14334096784951953,-0.353303048660279,-0.1367911588583535,-0.09715392767478913,-0.13910131163068677,-0.08974970933921257,-0.10242004912774401,0.06886450260649639,0.21118218618347946,0.07385382472143505,-0.1317159916301731,-0.08267274342727701,0.13615472187322498,-0.16729072053637404,0.06634197667038003,0.05282136063193239,-0.06334597563509613,-0.04118293860560405,-0.05877884895300879,0.07613343936076272,-0.13511933818477518,0.10340792451714222,0.34728318581795117,-0.0720365993206187,0.06626777184604262,-0.12943683603531706,-0.12077887742805348,-0.18854392193110604,-0.21701318871055468,-0.14408980304963688,0.16538028087714874,-0.030060736651592303,0.07615900826268009,-0.1721697368021397,0.08671182263229108,-0.10605957333850424,0.11721252731998881,-0.026883257896374189,0.016277600847299166,-0.07833142084041066,0.08163125886016272,-0.11573091195410564,-0.05286271328569193,-0.08478347177153535,-0.18063876412848374,0.04808239954230884,0.0047443789741209488,-0.11097845882097325,0.15505106700222449,0.07650482648589349,-0.03780056858380798,0.06070256622095399]},{"weigths":[-0.3138999853158502,0.2708741330837312,0.04954490691540741,0.011372356865218588,-0.1366884908601998,0.1597107293197411,0.12892955035074245,-0.09899303179640054,-0.3286904620731826,0.058749628348964497,0.26778296741314785,0.1280730996946497,0.14521857212763707,0.17395948307576587,0.5020462367328992,0.17174919950317414,0.03818090835526623,-0.31769428705541866,0.15828860164388426,-0.17008623842944724,-0.5151468580881782,0.6496460617542169,-0.3773924779393662,0.139959240173495,-0.13550342258464879,-0.25366833202975205,-0.31972410846198248,0.2588606666955799,0.16896905440855518,0.20947924359754437,-0.3480180517842888,-0.12872384812496974,-0.09443894003670049,0.18829647547962165,0.12259427526695205,0.17623068861189224,-0.10618266849150673,-0.01240644922037647,0.3219531857540042,0.38158012347702538,-0.5198523084705272,0.039014469826605769,0.7174398403105453,-0.22056802337419466,-0.16341655041595425,-0.22971536774505939,-0.1314634096146153,0.15625887661302657,0.15056164978419019,-0.04416956673731335,-0.2792568136358985,-0.09810838675211728,-0.27470223180773098,0.4224967945389907,-0.2462575881953916,0.14437778733940599,0.23266683048663162,-0.03137094706199498,-0.17178277134761009,0.12953658440754127,-0.04733221886341789,0.13963212819828908,-0.09437160294932647,-0.13943778940541486]},{"weigths":[0.15979934451073866,0.1502117821785522,-0.05842719838539265,-0.1726484219927838,0.10028780650371322,-0.07393097197794887,0.009647733754539289,0.3122074788515289,0.4296213219527118,-0.019316128182802169,-0.14931888914120937,-0.3160625338168201,0.22155477307003774,-0.21144457016604438,-0.024698982042897063,-0.43923599906657959,-0.09672136722014303,0.03887666920629144,0.10250110743248557,-0.011669478589904494,0.4378537092442884,-0.07171448342787591,0.02952102624809626,-0.08507102821586582,-0.120149530298758,0.041127987801564149,0.025238517382540353,-0.06522756975270162,-0.10502395363447115,-0.013410607804307549,0.12097669835884645,-0.23900500285942209,0.002067023102086393,-0.09918836716889033,-0.11191428186478303,-0.06733374200550227,-0.4862806774466726,0.0546750760109263,0.07687821412643889,-0.05744131909589055,0.5995254321382499,-0.9429084416126298,-0.17211650479732258,0.19204611986391618,0.10809619229415211,0.6475287511717084,-0.169311837326669,-0.21794739117367005,0.17538509854726959,-0.014369080511613139,-0.1184313627368237,0.2571331635934696,-0.09256214551488878,0.020343655190518556,0.0764866649894479,-0.10888129229212912,-0.16002392868137595,-0.04034406923447845,0.01630844104200874,0.032693395632565739,0.09781161355605454,0.007270150888680882,0.34483704100834869,-0.02629754200302842]},{"weigths":[0.020635376513946828,-0.13436923698659446,-0.06390981026354505,-0.044167526116513599,-0.09536860823282886,-0.42813012335761949,0.17757726135940578,0.10959229569269893,-0.05097164142499682,-0.4692531076417233,-0.1160942854590103,-0.10223887779084676,-0.18200941440578856,-0.17435778154272614,-0.18753367829934848,0.07812736336106727,-0.05029387231848641,0.0637084826273932,-0.14693806407447786,-0.17348245392120563,0.07628477575339358,-0.12544223772240208,0.29384276236922338,-0.17898342410151348,-0.09561641803357386,0.19208650195567213,-0.16749662405779368,-0.24933288986156275,0.020520604849884318,-0.0404730201684329,-0.1211377847527863,0.08286035344721743,0.12364718058700117,-0.1721991649624034,-0.13734094577581264,-0.15569198804107946,0.1692778257097978,0.09041324634401375,0.0731635010798357,0.2098413837432717,-0.2289375552478223,0.05042466564334298,-0.03466038893810838,-0.11527293695731866,-0.09199603789501705,0.11757066368129934,0.13169466657580793,0.15810183826625033,0.16687529623184606,-0.028549306620023305,0.3082622559236628,-0.07212480268845217,-0.2597208632849824,-0.06712506603058836,-0.23571200623944767,-0.07337975873960416,0.03837679907295831,0.13190232648263174,-0.04098401774350054,-0.1596682137553094,-0.12944350085570073,-0.28721182822834886,0.22269950612054138,0.016004442497370917]},{"weigths":[0.10550139654467332,0.03469287851309856,-0.11739734868089928,-0.08148823115140444,0.01558597378165471,-0.055120774560854537,0.10979628815207129,-0.18568062329715616,-0.04260279775118731,0.029806372360303269,-0.06880999584510539,-0.14659148341403145,-0.06308042795181963,0.12408791429157497,-0.15587813986403488,-0.167614773568245,0.04237079719415371,-0.15058458816425025,-0.019423102884642105,-0.00566813574595638,-0.08106632142511872,0.15240332846016556,-0.10967261092180027,0.06919298482518693,-0.09792017051594558,0.014981525704014232,0.11169812231693463,-0.13044700626038617,-0.07743666750425692,-0.10491068055859891,0.12978538402686677,-0.030104114032136619,0.05744874823482072,0.16190871124625454,-0.049840272513498078,-0.08062601726973326,-0.1904997924074291,0.01835177028745568,0.17321281181421684,0.11053080666232264,0.14247877742747079,0.10886910606630891,0.00258111387050344,-0.14836823995481514,-0.14588424026838754,0.12116838358840211,0.005995575043338255,-0.1716379203783292,0.05997642256351826,-0.025865792201331056,0.05823831011959004,0.039590091726050897,-0.08360853777383118,-0.1389387791969885,-0.027027812149591686,-0.14354753843163368,0.04984947585638049,-0.11461433352073328,-0.017504081084891669,0.11973121994611547,-0.11102807330830519,0.1035433325456397,-0.02208908750889313,0.0826678016809201]},{"weigths":[-0.14524498068856205,-0.1696935604917966,0.07761180419949059,-0.040532372433640478,0.06230937045171082,-0.07996964704127384,0.17033050528761929,0.11466542552483353,0.10227479241612669,0.08782541998057847,0.02611680501827774,0.06314655041589622,0.1802146551035719,-0.2300467972080833,-0.10634634774364536,0.0160905836099657,-0.09728679438563352,0.0006490652040693919,-0.11834898590688307,-0.028471494055429579,0.180980395266042,-0.15445947734768265,-0.08039986164321049,0.12201913606147419,-0.030507808470768607,0.03529607659990965,-0.10574099627289872,-0.12130695191276694,-0.11731061233113495,-0.08559525930095104,0.025344945527954665,-0.16489381117578418,-0.027577157096674876,-0.08165001069072606,0.1854108489991309,-0.00307782665984428,0.11706076061530226,-0.12983935818237639,-0.12848508277844995,0.1324520100280655,-0.12673093972659633,-0.07292953589322812,0.11682704132554651,0.16782780355935088,0.04731337985582935,0.18317519963638249,-0.12121955238873097,-0.264569744943335,0.14383914674040003,0.10224657729335361,0.08505623700035879,-0.14481424322286488,-0.13318355031102958,-0.15370855761150108,-0.16024553363268047,-0.009099339216329702,0.0745957842286397,-0.02902799324193658,-0.11467922457730449,0.15052510295251024,0.04146543408997698,-0.2448865994327093,-0.05183519563685189,0.06257685772877574]},{"weigths":[-0.14090884068520355,0.12878736974492759,0.13882147183994035,-0.18533120492078096,0.024457222766492,-0.044630448354666837,0.03417347881124039,-0.07499797890825995,-0.2031949911413459,-0.19721032997604269,-0.06630100433197917,0.003374798847856024,-0.09007211029040023,-0.11080132367865162,-0.07595459759364805,0.0449527608178907,-0.17293309008134154,0.021386540836096446,0.11419226118304418,0.0730047970416388,0.023924514745692576,-0.02146271329751498,0.02192785777575844,0.006178159574827026,0.02131277187471929,-0.1820871306069946,-0.05507204093136505,0.15317516572426216,0.09916284986447902,-0.06870978749231652,-0.0016596923599739526,0.04386693802929672,0.03295678011461676,0.03877494107331427,-0.4906265831058692,-0.04826955494736033,-0.0015810283648025848,0.22421455021977827,0.04120657004064424,0.10038098955145501,-0.23115382318751086,0.1938506727657934,-0.17199181761432998,-0.14135253016123906,-0.03904448209392707,-0.14240756951899578,-0.09050358790755758,0.07262007028389846,0.13280648861009987,-0.048838299187816579,0.1715874567440125,-0.1465469293321821,-0.06437993026724075,-0.14560860962321496,0.15002340424774725,0.08891022497470448,-0.008355239435428878,-0.09893681597096606,0.2545091705202744,-0.06415794920801318,0.09115610071848564,-0.32517921294897259,-0.13396363670619,0.1860302300743744]}],"Biases":[-0.11107303024450381,-0.24016309412440493,0.02055784254090644,0.03830644966770932,0.158294400954371,0.13122104776824285,0.16437708199334029,-0.12933585753202263,-0.11032043643165926,-0.35560635425990336,-0.10380982839369193,-0.18510320196856573,0.48043579090157609,-0.09499007179265366,0.16628599184014604,-0.21865726678171788,-0.13932244623074398,0.3266158173419819,-0.8254701001834637,0.17425660243152245,-0.12407078219129853,0.027115176129516005,-0.1529547885067067,-0.31091022704381429,-0.18240652506957667,-0.02064612315349246,0.0027273616874092857,-0.6087751318885902,0.009549271301133889,-0.13621466908818298,-0.019563462113404659,0.051645057852147218],"_Inputs":[-0.005253102557148435,-0.006106944713277181,-0.0015320567435111465,-0.00685040602044528,0.7250911693272015,-0.013363664354827032,-0.004876477870928883,0.624709242854893,-0.0003331628093155986,-0.00770149141559915,-0.013209249291384203,0.8468215666223959,1.3489534192905382,-0.005251801845989346,-0.004047764812828405,0.24874862664821363,-0.0075214879911628079,-0.001122441697769437,-0.0035841447251834795,-0.006644597507528525,0.5195217211813589,-0.03860853753243346,0.96541936487727,-0.004754010013170413,-0.011032275138889323,0.09995567764769764,-0.0010158015486078482,0.6628091499284403,-0.004830098072699744,-0.0012153628843570603,0.3358206581462553,-0.0036306626670477655,-0.0026181009373863787,-0.01722822161195708,0.13768226592223227,-0.004092091629061595,0.23710362135571498,-0.014491787356594864,-0.012871955552962167,-0.0055782151938916159,0.22002870080153848,0.1616049534158311,-0.02433641901685284,0.017321092224770214,-0.002356470579571109,-0.00014407873685121436,-0.0033378463861777299,-0.007659170122068959,-0.005343673542995689,-0.004132732415093357,-0.0006653309572069796,-0.0006890843072496307,-0.012570967404667816,-0.00831686364824145,-0.0061472900973189238,-0.002531906013654711,0.46500480076208536,-0.005386678480094992,0.17520753417444547,-0.0029649939693034024,-0.010053567624307399,0.3651826520919329,-0.0026510040732525619,0.06504235260651245],"_Outputs":[-0.7513431253139198,-0.18631084581973823,0.8621838704851496,-0.31503702963045157,-0.2618725872354257,0.5374147671217837,-0.5282482515931917,-0.4992375544816664,0.3891033084123007,-0.4505501370084807,0.6913567766425991,-0.5834515631805551,1.656541019592445,-0.10564203502929605,0.19687505129400457,-0.9743405147579727,-0.8124518846356958,0.11053586238977398,-1.917724239427223,0.5533170109977956,0.40768934853543067,-0.5217332069359165,-0.08930347420410265,-0.0596282256529449,-0.618713727355276,-0.18524815164273504,-0.4739871884107522,-0.3654966046164133,-0.25778954843332499,-0.6276653096937946,0.3088584234373408,-0.11951954792059468]},{"InputSize":32,"NodeSize":2,"Weights":[{"weigths":[0.31836441356581665,0.323333513759278,-0.5911010115323475,0.25488056056200239,0.42673447973642977,0.7246977886134421,-0.09347893007393368,0.38623894425639457,0.4946143959113717,-0.06291388579068098,-0.9564930881176397,0.7629752536269686,-0.6005093170615464,0.21695642247191439,-0.31530263375382797,1.028059851675234,0.25552216123507739,0.4590422761996691,-1.4101790618590476,0.6898082582825166,-0.47799461252372529,0.08240991240071284,-0.08791941103429366,0.5452439559822431,-0.32356967252910248,-0.3921928860366136,-0.8581142809245904,-0.42801632845115086,0.6098370850055037,0.604341146818702,-0.21761532165334769,0.10943877485512406]},{"weigths":[0.22342137012194789,0.9795798682479366,-0.034516394149373,-0.39422256862953078,0.2808266954429913,0.14886793604254276,-1.1949427116081473,-0.374796774251546,0.4483748578135905,0.9866734903026648,0.19611007424305985,-0.4415457485905813,0.09899552768306609,0.14715338155853606,-0.4409766009749418,0.7016163628430219,1.0882982780749533,0.37426294225085607,0.038490665503756019,-0.23688798307186924,-0.12467029906123317,0.4894631081881767,-0.17237982300521685,-0.6165101210186923,-0.27481252750165599,0.5476966823222617,-0.4689027208597527,-1.316545706991789,0.3459613991660524,-0.6069792809598335,0.30769614049432378,-0.708367076371155]}],"Biases":[-0.19956050149586208,-0.3787173409725741],"_Inputs":[-0.007513431253139198,-0.0018631084581973823,0.8621838704851496,-0.0031503702963045158,-0.002618725872354257,0.5374147671217837,-0.005282482515931917,-0.004992375544816664,0.3891033084123007,-0.004505501370084807,0.6913567766425991,-0.005834515631805552,1.656541019592445,-0.0010564203502929605,0.19687505129400457,-0.009743405147579727,-0.00812451884635696,0.11053586238977398,-0.01917724239427223,0.5533170109977956,0.40768934853543067,-0.005217332069359165,-0.0008930347420410265,-0.000596282256529449,-0.00618713727355276,-0.0018524815164273504,-0.004739871884107522,-0.0036549660461641334,-0.00257789548433325,-0.0062766530969379469,0.3088584234373408,-0.0011951954792059469],"_Outputs":[-1.6686713234162929,0.00954402645307334]}]}