{"LearningRate":0.0025,"hiddenAType":1,"outputAType":4,"layersSize":[9,64,32,2],"Layers":[{"InputSize":9,"NodeSize":64,"Weights":[{"weigths":[0.13613264382257204,-0.05709444493116675,-0.08088013543090775,-0.25766393386266575,0.11899390883795842,-0.054057006080268418,-0.016448930993624854,0.11877368391977725,0.22891710447633388]},{"weigths":[0.08581610606342272,-0.024829878630901658,-0.036833148294823449,-0.28469443668891317,0.21808803345570278,-0.133808956788584,-0.002436030670013659,0.09873674122077758,0.1021132202116148]},{"weigths":[-0.051883664327818639,-0.16049785870228154,0.10491741308816793,0.013232979267194434,0.04071885123575154,0.13663016219292527,0.0868761587674853,-0.03575109078557507,0.007955128385198973]},{"weigths":[-0.17020712507938985,-0.024644856333518485,-0.3308104017940131,0.06786108623239563,0.2218449814407495,-0.09301286804019859,-0.032344058424394517,0.1566426943775256,-0.018165906522667937]},{"weigths":[-0.3865432165734751,-0.19751520598896259,0.30448545443809707,0.1897096103143066,-0.1596979867927192,0.13011234740517386,0.01256535622870814,0.06069772043121512,0.10256981811112547]},{"weigths":[0.16972515352601534,-0.008195858823251915,-0.45654732733403777,-0.5399997232662005,0.06765235000614012,0.19711311890649697,0.25377641673832937,0.047725574085056596,0.20841986957276674]},{"weigths":[-0.06537739088470161,0.019102101994855824,0.06059589571185178,0.09095123661630887,-0.15763009863855127,-0.10302224089580743,-0.025015971251940457,-0.08943423157847753,0.052277078260150908]},{"weigths":[-0.4044801622623806,-0.5567272243289094,0.4043563488708958,0.4041722078646635,-0.2219204148058842,-0.004267640800617778,0.01580536593398889,-0.08726122967924868,-0.11850130800943205]},{"weigths":[-0.41216555952101227,-0.5525732371938072,0.4753681064787716,0.21971874323858915,0.22380373986288264,-0.3456929028335895,-0.06469223528079256,-0.015821583356144927,0.041088598828138419]},{"weigths":[0.07975700968868777,-0.03260412903794388,-0.2485999775285577,-0.269693932959624,0.12303986073445615,0.08586126508655528,0.011248287904081207,0.1899368434209331,-0.03313620645112681]},{"weigths":[-0.06231977778243435,0.24823884631903918,-0.24405144655749778,-0.05143084986267745,-0.0071792613033016768,0.011949627652219882,0.034370677328917787,-0.03885603003734866,0.40954594419254328]},{"weigths":[-0.03603199177507108,0.005636626896742083,-0.12649855909649836,-0.2910432764883824,-0.08914927482044957,0.18641998919533984,0.15993464915299475,-0.0718283871828477,-0.17219905314528537]},{"weigths":[-1.3039823640541786,-1.2851544761902103,0.7366114149635054,0.20105907948790217,0.04288028008636672,0.020550640085065715,0.030934673599246188,0.04513570519929259,-0.40151881376838668]},{"weigths":[0.2215578046919745,0.7163943871092938,-1.0634867858943358,-0.3720925547841985,0.00012033429586326548,0.023439340252767225,-0.009968257905018005,-0.11177514099549267,-0.12233255776705716]},{"weigths":[0.31694086973172799,0.024124663608609929,-0.5906529515967768,-0.6082906284439561,0.020889843529282055,0.29723274476941416,0.24018091338302495,0.01635620681136791,0.047009202468297799]},{"weigths":[-0.4280683317093308,0.1826502258172808,-0.3263824391990446,0.40272413530416686,-0.13330925036439607,-0.0032999101263330454,0.047767518418057087,-0.058086722399926977,-0.005790081380788529]},{"weigths":[-0.10498501656256908,0.13623756701311239,-0.5449385183985228,0.08518063070917784,-0.1320385037965983,0.07865272798163596,0.0660991944602946,0.052039170804030029,0.25626712299303197]},{"weigths":[-0.1781481371682246,-0.2932465261888423,0.31970928812855539,0.18287976888517597,0.19730150860241073,-0.1102520570991347,-0.16735665854354274,-0.03633900923453356,0.045498077476815067]},{"weigths":[-0.05363785652802517,0.003045156796865202,0.05930491788120461,-0.10523312849773327,-0.10129087364113944,-0.1259494653800807,-0.027916170618524327,-0.11475562891352297,-0.07692964086631371]},{"weigths":[0.04534725524771078,0.010966830464494765,0.0475020800967026,-0.243438270333745,0.07953669735075254,-0.09396705783911416,-0.40146737859279166,-0.12729340594589923,-0.1602057042801794]},{"weigths":[-0.5973254773209715,-0.4039561255514342,0.36994279039715735,0.23755907619691567,0.052329186093243027,0.031054734728502538,0.037167969744874639,0.07922351030659537,0.008925623676074128]},{"weigths":[0.4480093804322566,0.25419447030257616,-0.19116337176279175,-0.3458873320690564,-0.008952402567676679,0.015848240493046629,-1.0074977171319318,0.06496972332372952,0.40839756343738028]},{"weigths":[-0.30444256427778956,-0.3217945688741924,0.5309542993805715,0.28524349595679907,-0.07055186546284095,0.04657177448833691,0.08242150645146866,-0.009998155493974807,-0.02506515146061014]},{"weigths":[0.041649759299235328,-0.06617311462510499,-0.281755052071934,-0.016782967574028534,-0.22748139756721939,-0.02949930558630539,-0.0949744306493758,-0.22168611043866763,-0.15096574301131969]},{"weigths":[0.26800666692163579,0.09820719196931434,0.05152211091042233,-0.38440059346586016,0.08136978145710919,-0.04981659417245347,0.026145881886980944,0.01705507318133366,0.2747747537111376]},{"weigths":[-0.18074811186257792,0.016131005755132389,0.07116952224801791,0.19370561527775177,0.15548632273630359,-0.029693230594502463,0.012754646436797891,0.05254778196184505,0.07008364208706192]},{"weigths":[0.13294771687394753,-0.0659737037489244,0.15436266740289523,-0.22961376697634743,-0.01176028114385651,-0.025904418044667048,-0.031080391490131803,-0.021116994238093956,0.14567533542367448]},{"weigths":[-0.1572901516187046,-0.2171526396693768,-0.017577741242232587,0.00909567318789347,-0.12904644051344298,0.09703363182069587,0.1924304692196923,0.033953781019641009,0.018527960762392667]},{"weigths":[-0.0641696788414582,-0.09127490413632836,-0.09651848244541717,-0.002027528149574835,-0.06084799864643082,-0.11877802483476899,-0.02698078368161402,-0.0019213463779474104,0.0558591819840523]},{"weigths":[0.07883253502749461,-0.06571271413143905,0.03590026338642873,-0.0999979434341223,-0.3425045476422892,-0.22229212888445613,0.10510690949915622,-0.21113866359737519,-0.25437159103455889]},{"weigths":[-0.2352744854046639,-0.26007905855627008,0.2845463526194113,0.05679384565222181,-0.33202983807012328,0.07267142826963169,0.03440610113819548,0.06479422352612953,0.2798959334143312]},{"weigths":[-0.1978789440317951,0.13913913950833274,-0.354334882527154,0.1636041504812807,0.28702057306864378,-0.07364524771580239,-0.02099608236037122,0.02340783851725586,0.02869358662677744]},{"weigths":[0.0476457115147755,-0.004105880590219799,0.08233507636492767,-0.1404786364282595,-0.1460962838954924,-0.04299119655316326,-0.05658572796532642,0.14567642563540546,-0.0010834940572083333]},{"weigths":[0.0262602376748373,0.019619916798572384,0.03821284307084128,-0.0890054084401314,-0.19561236411183964,0.21430020784198765,-0.5023621489586092,-0.2356620956894587,0.21240272351135965]},{"weigths":[0.16010027088990623,0.1385824207187976,-0.9202302592190411,-0.6967113907009568,0.23979881723949726,0.3435699905647981,0.3112017445574884,0.24643570533633245,0.01782707509495392]},{"weigths":[-0.038122677349430148,-0.08569496679280522,-0.24173351981973713,-0.06556933928728739,-0.09423278703090875,0.11806926246700735,0.05687188915050467,-0.09116350658238196,0.2672424699860436]},{"weigths":[-0.21011462277769422,0.19203663376897577,-0.4249824871113823,0.09075564955121647,0.12339469893931529,0.10354265796169543,0.22104724417091624,0.07364466139874566,-0.045802006248246446]},{"weigths":[-0.046195026663485589,-0.3364671330210255,0.2636908322914111,0.16501213181358266,0.05625354163517427,-0.5637551631904472,-0.08166160388096298,0.012291213870601899,-0.20010699203196684]},{"weigths":[0.0961348142442836,0.0839743108284829,-0.18566593906991278,-0.2730516048327497,0.0018164760046490605,0.06920248200456106,-0.26151118335753589,0.006216976562512031,0.12160239791755735]},{"weigths":[-0.248059213974251,-0.3721039569901935,-0.008655988336564847,-0.12802354134833159,0.08945495696559836,-0.1922532082604207,-0.11726304663689247,0.05168072915242191,-0.17364058818556014]},{"weigths":[-0.5498268561996705,-0.7923296759077553,0.24494672277921113,-0.09632070374164492,0.02251968081743314,0.1509744351812401,0.18042147004123369,0.06098583343529139,0.048824641600151808]},{"weigths":[0.3321731742494022,0.6914373389714718,-0.6951043008833344,-0.43615592359404,0.011242881439280747,0.24730709939595606,0.2698662655514446,0.10751729128580878,-0.0047218260604948059]},{"weigths":[0.518418964810614,0.2558124170454978,-0.5348235089313558,-0.6097688237537247,0.06665726149686073,-0.0686553435782901,-0.03512021284795583,-0.2374471087575415,0.4460651744977535]},{"weigths":[-0.08249222096215656,-0.2376024414210194,0.16207561152752504,0.023618990838857037,-0.11092750222654477,-0.1171306062981794,-0.034860947961398217,0.04559532875388813,-0.14590379820102623]},{"weigths":[-0.11055215217022363,0.022168603358119298,0.006243723266618459,-0.02549410363635161,-0.07133325333646143,-0.10333491512956243,-0.010746651417560522,0.04494637345887561,-0.01616794637760491]},{"weigths":[-0.3220633374228838,-0.8285117270191206,0.7157788008856305,0.22582801781636348,0.07898785050804085,-0.02354417528255661,0.00589420047826146,0.0015772955289253292,0.02724594493311301]},{"weigths":[-0.14421245769810216,0.0983184456774028,-0.1873922701064406,-0.07706030533731163,0.10815423692107719,-0.16375702304655105,0.08647969869689243,0.12404884439951576,-0.12682446374214446]},{"weigths":[0.055994843266991448,0.5917902127116764,-0.3438994841459004,0.22325962302424477,-0.044932753756928598,-0.02933106023034557,-0.016478351501867946,-0.19881076883441466,0.12378088620183181]},{"weigths":[-0.1131527317018441,0.04989652028056315,0.016522925191768038,-0.09333965489524024,-0.031885349096720697,-0.12071579291052018,0.0006528436884944389,-0.11022577952090314,0.1013022134537262]},{"weigths":[-0.11795369713625142,0.06755214091212866,-0.02854663310627612,-0.10098771537834767,0.004624165068227186,-0.13254811583101235,-0.045091347143224057,0.0428920603122142,-0.024747588643228688]},{"weigths":[-0.32314206932933067,0.09275505555615862,0.0988796606112653,0.1966125141722155,-0.10816667158037238,0.2049562931580248,0.10781116766181397,0.10424639516268163,-0.21334524181716073]},{"weigths":[0.04271670505073891,-0.18363803768334653,0.20144846325202457,-0.012484082403400069,0.001101032574031167,-0.06852218040796847,0.017612899679018466,0.09062644730348701,-0.0366745705196674]},{"weigths":[-0.05617456388461625,0.034736828749550797,0.14942481747894788,0.06341397059072414,-0.1160312130358115,0.010641534860433642,-0.4765120637468001,-0.20668485109148,0.2817101631658748]},{"weigths":[-0.0071155253702480749,0.12129302690806997,-0.6119509420348763,-0.1794918170024799,-0.2511731899014411,-0.28876943734885759,-0.0014639307293087823,-0.028281848001271968,-0.16755262693318896]},{"weigths":[-0.2283124865093417,-0.34000977254122696,-0.0872747216959894,-0.41599198346151658,0.0911487083524351,0.05331788680996086,0.09910463476781807,0.06897045299321679,0.1981537876649745]},{"weigths":[0.009141031542316032,0.06191110246172054,-0.07588509475579755,-0.11767189743778917,-0.08402993162071118,-0.08243747153758091,-0.024607765593596628,0.03230745364820862,-0.0551822915916696]},{"weigths":[-0.20348299549467403,-0.10712503326528422,0.004115807817357186,0.1630052515555877,-0.25121309590642046,0.020841041479979486,0.0706741126318313,-0.17728441147739563,-0.14606984319531894]},{"weigths":[-0.18005256101060769,0.06432813110134685,-0.1373241272241004,0.048861548407482937,0.10925673998432427,-0.17354326931359699,0.016259185448389815,0.008518421122582325,-0.21836632736658929]},{"weigths":[-0.2616894172887914,-0.17000929999965026,0.14570801856577657,-0.06382118681333268,-0.1313086611712598,-0.011041374624741503,-0.03911216787513245,0.05796945071078115,-0.17675907691120958]},{"weigths":[0.07698909155108363,-0.08129774318164736,-0.07387603392589044,-0.08515386614835619,-0.056463972277726977,-0.022678718730853383,0.043483957912512558,-0.07784225391749349,0.06709489262541423]},{"weigths":[0.18771050880582983,-0.10388462509977825,0.005076679830195504,-0.3584583640210486,0.16130889035390567,-0.22932500593069889,-0.11719275634110847,0.06611452518580559,0.2857468311437901]},{"weigths":[-0.07122452728310236,-0.3552209170055166,-0.13636954875952876,-0.6005416179003813,0.05082411936471957,0.30738743711963276,0.2580390732306335,0.060532303811519718,0.03717329075208121]},{"weigths":[-0.10661662232628048,-0.3217142449708212,0.16193011184819149,0.10357582358997079,0.11584165284285038,-0.2309249687900704,-0.18623269356714904,0.1216403462866074,0.012064010049407928]},{"weigths":[-0.09123865223977003,-0.16091048235328044,0.13137498390977268,0.169305197269396,-0.2771986474980081,-0.0905098244628684,0.06913514113461401,-0.20313072259825303,-0.040482824640587219]}],"Biases":[0.1860860987453738,-0.03900475560927273,0.00672668354605431,0.07728638982834758,-0.03238199066115666,0.08333003018348057,0.012801656250107227,0.12551339664647005,0.16288789603591043,-0.0641537355827209,-0.23100945824555867,0.18225787491856586,0.7548700389152279,0.4231140342049226,-0.09002818556868707,0.12921927208060145,0.08130922437347328,0.2292219573956431,-0.009705543001608535,-0.0038005200430779549,-0.07940201632622021,-0.5366334018823217,0.022405675548219294,0.042585680737195787,-0.04947463169219196,-0.11663397925899201,0.11927643920644325,0.08188827000454106,-0.0009832680203470486,0.21273642520694364,0.2791189179077291,-0.06484592925911467,0.09487306991031001,-0.12331587933930356,-0.07612200048547575,-0.047474522045222369,0.08855544111348711,-0.04956854202149784,-0.05967359873858994,0.19659261156766895,0.08231149510806081,-0.14480045987549676,-0.29635686265912605,0.12210649669245297,-0.014982308634654539,0.0981008855886597,0.039007379954022567,-0.22050228352310306,-0.002625792304592728,0.0014568957080855485,-0.22575830108515286,0.030143225362930988,0.09618197106055664,0.5117092369563404,0.0379849617900739,-0.001699045403522176,0.026251665774789446,-0.14491603497962272,0.010949856848921212,-0.006846623469813672,0.12733373932726964,0.062479930542070977,0.29480641460455289,0.031562399333114058],"_Inputs":[0.35929831862449648,0.8029235005378723,0.7874881625175476,1.0507416725158692,2.4605712890625,2.4605712890625,1.0904541015625,1.0904541015625,1.1227998733520508],"_Outputs":[0.3829798233127063,0.07043303693800407,0.4564652857712801,0.23915805416134587,0.23195841582425257,0.4258165198359973,-0.5595313002036702,-0.491236331424463,-0.16522792871067444,0.1551628080298456,0.1665204335220215,-0.08952705297272781,-0.1659639386665147,-0.3626729817079765,0.05346149438007858,-0.0656858812157155,0.09860777584321789,0.4172760640808979,-0.891497930684907,-0.9890689684667768,0.2655031525305788,-1.2377981108974994,0.36466100405534909,-1.3822132700311372,0.19568410403225326,0.5506192254899304,0.007958094210500269,0.036163331347490227,-0.5862444401093393,-1.6794435929390169,0.05360192680266557,0.42830258090675657,-0.34341016880295,-0.6818619172774575,0.6998121431986512,-0.0679119724883469,0.7557344795126209,-1.50435273242972,-0.3579192503979152,-0.8520686635352641,0.08436518642503865,0.5656521459711683,-0.7678602105610615,-0.6591244226807635,-0.469418337648694,0.29254385996743839,-0.21204317124735504,-0.03996431700929862,-0.4695131220428255,-0.46022686459504366,0.24751143472297675,-0.045482130964889459,-0.39981684440317069,-1.6130856470109776,-0.06163334092514005,-0.5952722325736187,-0.8054650924862782,-0.5910981558239401,-0.7000660296410228,-0.34898382337194136,-0.16349777424735605,0.28346916777132016,-0.10552394002985965,-0.9454024637878156]},{"InputSize":64,"NodeSize":32,"Weights":[{"weigths":[0.12505029696097109,0.0030501061164837624,0.04229324968599023,0.18742749423897007,-0.0884237194658644,-0.06281077781298135,0.0682824440297521,-0.23333197660001868,-0.10840058658855272,0.12657179328171742,0.010556058459251275,0.11645734194907967,-0.1902763203459872,0.11236874090351061,-0.00012523720886956915,0.09257578447566214,-0.25613497538388838,0.12143743740175528,0.029352357306037689,0.17682810174781106,-0.07895652800405462,-0.07209906240663644,0.11448674556768916,-0.13513220784753728,-0.15687811219063309,0.16984270659948398,0.12319633810287081,-0.13806895611819693,0.15624221703328335,0.0012802653109725074,-0.049293224191642049,-0.07745600670074912,-0.04873917800829137,0.0928123042717565,-0.031238234924237313,-0.15924750058397744,-0.08389157996678323,0.018802451355634035,-0.014093885211838123,-0.14357565770946505,0.1366995014064547,0.1380213564805675,-0.09645664374195837,0.04457357585952396,-0.06544831010815119,0.03254606206151943,-0.04273276190492498,-0.011607882714467059,-0.0577244699650379,0.10304404528843037,0.0462896564631121,0.09385590495829191,0.087678054408738,0.1100473461200235,-0.14484928130887649,0.12297709680113249,-0.06724400115655427,-0.06240097756873353,-0.04871876704147455,0.025642450358899259,-0.0857214682137708,-0.08415273507324234,-0.04933170076760631,0.05656122740579103]},{"weigths":[0.14903341974276319,0.1638597820245811,0.03879455484241334,0.04248390629464363,0.047900341567796999,-0.11351587187715262,-0.10091293617384209,0.23909187926580195,0.20188429222125266,0.05159766990941007,-0.047336584896027929,-0.12294690805340934,0.21658768490973605,-0.430629364374317,-0.17351665827151328,-0.04795816113632777,0.15510468023958916,-0.08060187624886652,-0.0508830604427512,-0.08171379406428311,-0.03663327102554905,0.015229285642400455,-0.07612768390335204,-0.05356498288031959,0.06939020137299634,-0.18801122910735475,-0.046789680040356228,-0.021575149130938614,-0.06034174991617236,-0.07094249647383042,-0.02934244367523282,-0.16744125678436318,-0.08362059903044043,-0.1805131427851593,-0.20413153224086834,-0.07267205197720224,-0.2686678823466531,0.2297901977071339,-0.04860861060948214,0.13230000815132135,0.11991985434659816,-0.326965131410733,0.01747004289585159,-0.0038236509100746088,-0.05036369998570155,0.24133852185130545,-0.11586985003342741,0.056538419238815019,-0.151939033279765,-0.03170658786710302,-0.237475357023836,0.12063391854079209,0.12881628276795996,-0.24389694512875069,0.1014994727284431,-0.1362856881348371,0.10501419778929572,-0.19378062423773027,0.07284930099109317,-0.016873076214407449,-0.025988196001667429,0.03879557048439772,0.26708269397030306,-0.018517280388721376]},{"weigths":[0.038537633304417357,0.0472772926817835,0.0910681061911728,0.19336650025492628,0.004009531233070054,-0.12297318108910983,-0.14312095475940085,0.20782445328767452,-0.025345081828910329,0.04167452961141677,0.1913838411476387,-0.027898278446460455,0.4282481687819089,0.22336095639239118,-0.21632397290550149,0.15983019023684223,-0.07923082434535515,0.1394111724874009,0.022568400596074964,-0.1545607190237813,-0.19550086563161418,0.3259118207336129,0.15323353066899035,0.17944627408667736,-0.22178256715300158,0.08489511738039252,-0.07755271868431385,0.01225822515575078,-0.018136819743097274,0.05548809677248325,-0.20590370776407328,0.06603160370123944,-0.0836685135560875,0.2251189098483317,-0.16099569376187107,-0.14374317802326753,-0.07428637252988232,0.19193133578930267,0.09695803069178756,0.03378047264916696,-0.07553075061442856,0.040672091806278457,0.30423885007650866,0.05388857486445828,0.06771160492506753,-0.010603725601325113,0.05506208895233592,0.06888683511657078,0.03013459561426138,0.024359909673870803,0.2536178253754315,-0.1439523752576739,0.10779676976622711,-0.002484176615004378,-0.04561454745824729,0.03183497000976125,-0.09487173709872446,0.1837408819447207,0.013651128224949473,-0.029451666782368627,0.11309307337657462,-0.2396310948114582,-0.06291819671967276,-0.04837716427741764]},{"weigths":[0.11288801620368105,0.17622873876882054,-0.13189149308269319,-0.07373119459486821,-0.09429110421334446,-0.06300402144741714,-0.11119087151667695,0.1416737502903068,-0.00012661994127367995,0.13849260869015737,-0.14719705417699648,-0.11643401306606599,-0.1980700124156785,0.11658637238803436,-0.16678294339556413,0.11915331590918034,-0.14340886318981689,-0.11528628423873247,-0.04576000477059293,0.10124423539712026,0.12276762330075182,0.08112419163020551,0.043263748390779937,0.05380193365257848,-0.08684598488295634,-0.08981934665559899,0.0023652424270451507,0.022725115855234097,0.10594644239246438,-0.15565531911174958,-0.03591112260326486,0.1332834857093834,-0.09749300165374408,0.08309647514328632,0.010413587532830735,0.029543618914805497,-0.01486895997694531,0.15496393182635197,-0.04544818290381703,0.01575659205533264,-0.15663723202886715,-0.13931540269952556,-0.08699870970378253,-0.020201094144766064,-0.11928791804805859,0.12964678460239957,0.033899127491295557,0.053147028324025829,0.1321310626830164,0.040109823462282628,-0.2254800224076809,-0.033947043082425309,-0.1959932017766569,-0.18443172810259149,0.14110097947670903,-0.06660199842244206,0.07999841142356543,0.12416283489387611,0.05968852108015821,0.12403580517599727,-0.17498399231255258,0.013761832833171286,0.06919971230399054,0.06079072028759209]},{"weigths":[0.13158771033804907,0.06789908860291795,-0.23671327768435347,0.09811256887462885,-0.22314358672350977,-0.08002588969921457,-0.10330949382027564,-0.05019926547771482,0.10959970760139291,-0.1666803431191972,0.08598413922627832,-0.1290833010522271,0.03990414788309703,-0.19565973702062579,-0.07191394149664708,0.005721081105814229,0.07094137554324892,0.08072757449570749,-0.01794281389495937,0.12977805617659489,0.10636486888866308,-0.06166128347633241,-0.1357600453301029,-0.1056851725730628,-0.004622384082689898,-0.11840700577141057,-0.029072361818774325,0.11907363062758277,-0.1682328039896594,0.03156844969659158,0.007090193453006443,-0.040289683232402149,0.06553066687982755,0.016474204802039803,-0.21539694540747379,-0.17315261172741246,0.01881231606795788,0.0712624286822633,-0.1257542543161182,-0.23745504468438959,-0.043118982706818489,-0.1841964822555861,0.03644958966247766,0.148033469491615,0.11412414917659929,-0.10080258544593206,0.029540776329090608,-0.07599497400690698,0.11421287394923842,0.13035327130658062,-0.2190465862705794,0.03139192438936226,-0.007307281148136954,-0.1516500409185234,0.02146775121736551,0.01064436878108515,0.06975656065258518,0.03797533547509797,-0.002705912860677923,0.16160382083289027,0.1818521360563796,-0.0331872200701768,0.17021883411451273,0.1826996848245892]},{"weigths":[-0.15405203170710936,-0.03392076804063137,0.01407353432379966,-0.03521695572134346,-0.07944212304095733,0.29001799889859178,0.00035840312141465137,-0.30867588332709797,-0.1721326676932015,0.05201917598307961,-0.0701248403606648,0.1464959837666441,-0.27363860641316109,0.05544252211706166,0.1849026422591816,-0.021966472309613486,-0.005889805122672875,-0.214898475208006,-0.04474091073366725,0.1568289143900854,-0.12542862506662467,-0.36089371132005995,-0.3398789449582046,-0.12380837093014312,0.11284034438918135,-0.2392651162460541,0.05016462218046327,0.08122857063535954,0.012673513426792745,-0.15975637419642844,0.2172900700054487,-0.013508566420809422,0.16046741574928342,0.05697989270877491,0.23546160054741067,0.15608235598398396,-0.0579997199982437,0.06421251429378965,-0.1157833917369625,0.08327323729610456,0.37630586829824116,0.14026811794462494,-0.3457975618084163,-0.03109864938346538,0.02372390575099934,0.21957152371303799,-0.1307687432876428,-0.1833618227408128,-0.15837941391101527,0.05130063133547297,-0.3923723780493941,0.1040950858914339,0.03087760373116387,-0.021813261211951739,0.2543161651623005,-0.016498335933156039,-0.024915119705561877,-0.1031912231859712,0.04913997801152389,0.032850944158898397,-0.24820572389725077,0.3166440488236927,-0.13648268372451356,-0.08013562176360199]},{"weigths":[0.060761751672750937,-0.07115356986862692,-0.12102254272990099,0.1735808766371589,-0.16890966547170198,0.18071685164919747,0.04366825190792613,-0.22180589547192565,-0.2883412105450533,0.04049414299671962,-0.08947599401842559,-0.007365434654587121,-0.044659993175545979,0.23916123810473539,0.00012357297153593857,0.09506063150468681,0.29744743312073038,-0.025892663189131156,-0.13364120508849024,-0.04174026691153498,0.06349600744645752,0.0014701894149232423,-0.24789834324605773,0.143843536736979,-0.02164074198879309,-0.08284432869431868,-0.16490804802403478,-0.010297426575934563,-0.017102564766366257,-0.03955749476069587,-0.2508305244984628,0.05113912675595926,-0.039761532526129888,0.13974105783309777,0.7567544016562585,0.0017969900271334135,-0.03437558850466621,-0.3373264253638714,0.1662608820686157,-0.06263512707727215,0.030744179483451658,0.03545531143767773,-0.07395095679960517,-0.01533737598281213,0.00044940996369805507,-0.4752450800798818,0.20486469737987224,-0.08311557947421403,-0.07831914221509549,0.1517486206926134,-0.07606889395081554,0.010736202882753487,0.1370707933094925,0.2427407969830604,0.18375039795255047,0.10010681723436517,-0.007382682204805294,-0.044886353002468879,-0.07651908871330987,-0.0177266371261971,0.08821309706791186,-0.09332779351669134,0.04025642477499412,-0.06467985879520293]},{"weigths":[-0.006160396228860786,-0.10684888007740393,0.10592858648870506,0.1036095579853449,0.005166974703103065,-0.21181061861769374,-0.009308668122492772,-0.07185049927024119,-0.18317744226451644,0.06611775914702009,0.09922961821670386,0.05306530499614765,-0.06684289754879232,-0.08398763823051071,0.0512118360843706,-0.10013232055769467,-0.019619068233688545,-0.10153956536067627,0.09308882802482438,0.19125961400402206,-0.23679842872368105,0.09720243031392097,0.0653399272089893,0.11827643217329659,0.10950480002774944,0.04889352360525834,-0.09457502451579458,0.04740624461673636,-0.009869345585303828,-0.07850224625942294,-0.032374502910290949,0.1063790584393127,-0.162880069957386,0.12971218786898223,-0.011023650788262006,-0.11597429702236679,0.29478219632944249,-0.09296386586858901,-0.010162411104549239,0.05798233803460596,-0.08696615107855009,0.044500610414535828,0.004514166952340836,-0.15607682246987293,0.13726503196267693,0.004701248516015662,0.18564207797515368,-0.11073656056315896,0.1150041939193921,0.030929820418563449,-0.09212556129557963,0.07445522333481918,-0.08411714513529983,0.09653591719548198,-0.09807584717325323,-0.06283990979663075,-0.04000584432803125,0.22533138408275384,0.09497055049000669,-0.01534233563148233,-0.10988816288454502,0.06892281916340702,0.0128794232680064,-0.10265140125099631]},{"weigths":[-0.03488403124788139,0.07187384427272158,0.056622300246155037,-0.2009407044727211,0.19528190667244534,-0.043530804650017507,-0.14105680892588935,0.28877541169447526,-0.022278632053310968,0.05337296583766204,0.09786842118192878,0.09738327987157378,0.22968754526191396,-0.3804205660616879,-0.1363933074575926,-0.1405785410544946,-0.03804074891360312,-0.09524478412888259,0.029527207381175755,-0.022221487749738534,-0.2436998565584668,0.05684311773969869,0.08899343723083728,0.2084825295314917,0.021057251732517668,0.08059142599277625,0.08391304250694129,-0.015864724082579004,0.02631544384249767,0.031196267988629,0.03272930044200213,0.05767561096294319,-0.03324949812177587,0.014595127935905483,-0.13917358249766405,0.09766069374651999,-0.06757728405531778,-0.04260298961350313,0.09063979627685129,0.08042739679756458,0.10998343491027196,-0.0015423455319494102,0.05788118375424723,-0.02521988400522027,-0.06226557888414132,0.12013095518508321,-0.22312461728986009,-0.13433267268075878,0.12860112216640838,0.15728737753259393,-0.13008844084082336,0.01623866540661105,-0.045524702118852188,0.040332061925942189,-0.07247779411177853,0.1462267413675615,0.14888285746571135,-0.07029449785216423,0.018934560152632935,0.056551810847759637,0.08338077479732317,-0.06688967349172037,-0.1596472567892968,0.14266926196753713]},{"weigths":[-0.1295868878474365,-0.008627385995395774,-0.04517951343739807,0.03869007071154824,0.10260848561953229,0.062031795099721138,0.18286069471154915,-0.012054235610296333,0.18054628831895387,-0.005906871306346002,0.04279239930873966,-0.29327164585425216,0.2784982429729862,-0.3490257370060084,-0.04525347718119875,0.17569863045690607,0.07794219680259114,0.051865738028286149,-0.11782229993517378,0.011843859836253848,-0.15924673361910897,0.061664949642497909,0.12048928121982217,0.03915648460422251,-0.13188066579349923,0.1269242028333532,-0.08828682885934172,0.02289736676310267,0.009300960132192444,0.1546618937842388,-0.10380036526122076,-0.13938143424857678,0.07094346349597339,-0.1392110423405918,-0.0501753585363253,-0.16435690249189745,-0.1429193770053194,0.06102475907614262,0.09218610455989963,0.12021309798929073,-0.10564443293339623,-0.35397411779603729,-0.13604081174811914,0.10448130952531905,-0.13250900571461569,0.11081888218852053,0.02710876907975891,-0.06873309177447193,0.15455524493159945,-0.054635034057705717,-0.18923934578931132,0.10203011242370468,-0.17001122251459473,0.00976663655878982,0.14411108416181513,-0.05920320362906513,-0.0815727546901867,-0.06567142391580101,-0.08687291523245894,0.04476312832301852,0.10386870505744384,-0.14866490607575673,0.28008053323093248,0.15103597336291253]},{"weigths":[0.05830435819912087,0.028630344131564953,-0.024440269530405395,-0.007984247917643285,0.06906006626234258,0.20262860104707837,-0.11637851086005557,-0.12387673883081724,0.2343507987453277,0.03630812792025943,0.0439735104203766,-0.08362926506197821,-0.04978442549074805,-0.2091672783021634,0.0012112063581256432,-0.10753589494714107,-0.21781229470308847,0.058843059848590489,0.13141182767018967,-0.10709247386240614,0.09256217588426123,0.030920777191372065,0.21024061779183074,-0.004957635952109485,-0.05476994605729994,-0.12810452359751965,-0.08993049395636671,0.22000470515018906,0.05299668208722591,-0.1346312858883993,0.12779412326401053,-0.0008240041648928005,0.14154186086391638,-0.13261026309595984,-0.04761623103546611,-0.15362247787960957,-0.2752266031616628,-0.09587853241602759,0.02690652564260196,-0.1692988037830221,0.039498878717011919,-0.13805780799506332,-0.1667864849189158,-0.06416420574093465,-0.1283158182528441,0.2985598849241436,-0.03375098699014444,-0.21709479670352004,-0.06236248628369384,0.13330644190287475,0.09330135520078989,0.017105314266706394,0.025076714748697217,0.15117667190505008,0.08958258194112739,-0.1669273274198056,-0.05013478821970739,-0.005780874534239636,-0.041709343037173888,-0.04574622667222465,0.19603034833569644,0.21642590850386884,0.02121910447532111,0.15105816162454817]},{"weigths":[0.1564570007241311,-0.14296924632476078,-0.0003906860474657216,0.032839202611806016,-0.0932418290559858,-0.009096920610315758,-0.11924397988322347,-0.24226924526657912,0.13285176740941805,-0.21727443011378917,-0.22706162209704126,0.12440030565699754,-0.1294152394989387,-0.0712938989431318,0.2308566220640205,-0.1253989414498046,0.03123244380305143,-0.02084775073331635,0.012525885014074402,0.1600335942610669,-0.13732519740642794,-0.04073127534865136,0.07334928421608056,-0.00017181043408603583,0.05349496805940282,-0.22251986846220093,-0.14446137979033683,-0.03990111819973643,0.10334635096375546,-0.024533013456983108,0.02040835511341844,-0.3036848872808783,0.10470000419703117,0.1491208173688924,0.04438306354632394,0.12362582700535008,0.17768236558321463,0.11552940982552308,-0.16585733180714835,-0.16050282367100864,0.22593303809692207,-0.059969864594674928,-0.23764581140962016,-0.18254216789610215,0.15931903681853236,-0.005578062662710094,-0.12412978562312886,-0.45992056955513135,-0.14241930965653006,-0.04688580248243139,-0.029636997529795936,-0.009104590017257279,0.17118335605482219,-0.07915143277304553,0.09743200156281322,0.000127964327854688,-0.11644667870261265,0.03831014203885536,0.028581357788093829,-0.12167581566331516,-0.09985542934635924,0.0869211236217605,-0.15114090878980736,-0.19999499605146177]},{"weigths":[-0.20784221704559584,-0.12405035048759647,0.03319587115668187,-0.012273815596998255,0.21850396138876358,-0.07568854594321802,0.032333488312726216,0.06593375771750827,0.26130485813358236,-0.10338496531592084,-0.11408537409874203,0.0101383968823956,0.7170368442983596,-0.34746940012061,-0.2756983443746884,0.0488803811009511,0.03439063927114597,0.18096404612535045,-0.13752450808223025,0.08335721927012954,0.031190015754476765,-0.24481189283253844,0.06003630748365212,0.14466323569222637,0.07422023668824242,0.10957210617988451,0.04810935188313578,0.22895262312944759,0.10330197552411101,0.2629532117168441,0.14285451390059004,0.14480292886412469,-0.17679605585747652,0.18940404494749289,0.057359813123037606,0.2112217721407534,0.07818971913564332,0.17644107366449675,0.08935414161638493,0.11109826676521577,0.12179310009288384,-0.22192638279642877,-0.17418364031264939,-0.043051869658870468,-0.0037441048255703439,0.2838837379911297,0.07526554067590147,-0.10574867427417785,-0.054617517795457429,0.036691506795263967,0.058129745378523629,0.007092755646609031,-0.08405806319835663,-0.041276470367412398,0.16534831797170805,0.020368753170193864,0.14770530253336607,0.1921736371713802,0.032567908175427488,-0.17307431135258553,-0.3053421566362424,0.11565110459821594,0.10339483498093398,0.1895575192095582]},{"weigths":[-0.021070762735825069,0.07579495806835726,0.11086398482216006,-0.02118110031457505,-0.0713061195197076,0.020074349989070929,-0.13301932180799742,0.04859375875907871,-0.022358626562711108,-0.14781748235904317,-0.09646285140491003,-0.012846407723547374,0.13054858406525303,0.061736127374477738,0.14345080239890285,-0.11876065100294724,0.02984852920535354,0.1303192349293684,0.05156774567147911,0.11872882635014423,-0.10120996419088306,0.11134454814035853,-0.19301841219581024,-0.032733745495063689,-0.1598979392361731,0.10937379755409522,-0.04397396584579977,0.0009056449392023895,-0.03931971997068347,-0.06323631564699089,0.0028416635825506888,0.1692635195913628,-0.03536316601167632,-0.13175930400968778,-0.04782073235889011,-0.05850956709943863,-0.10337952365384766,-0.06962302036249783,-0.1641981849994077,-0.049058183160048767,0.06690923354571447,-0.07365943119007333,-0.11808598352235469,-0.02801005450304485,-0.12705953839551474,0.023107765137608459,0.22020693474143866,-0.09543311045116772,0.08941109314194044,0.13327808725972593,-0.16637701451717008,-0.020653081942754955,0.07349602869840381,-0.06731254219448474,0.18705369295198977,-0.10670995790895725,0.03666500838231419,0.10513846524761476,0.03829951916304258,-0.013705676714698153,-0.15054649698877138,0.03723213013231106,0.1854176697263431,0.1607713708636714]},{"weigths":[-0.17602469482468148,0.16802954150482045,-0.07876184514226496,-0.10975173402724221,0.10849638549822687,-0.2649795166993627,-0.041665278261344678,0.132190005988837,0.15403211551046154,0.07269472011796904,-0.14416637408911546,-0.027359042004871774,-0.02746933804191333,-0.12387260354351401,-0.12902389374664967,0.23901471258153876,-0.08329452705653696,0.07442476352460785,-0.0034702224032383567,0.1405903789153761,0.020353047878289015,0.041814558208338719,0.07144929972239309,0.1612986718158226,-0.07864241682511249,-0.07849531317745517,0.036305510407052269,-0.12380653267620993,-0.13522351298874295,0.21062425360163959,0.15593072084332197,0.02930481255751388,-0.06744243529935844,0.14346468743186914,-0.5732405175400045,0.0622796205077979,0.0404868008508597,-0.010703152655803069,0.060156200278531479,0.17262536847186023,0.05617448729124914,-0.25537072984105349,-0.12776823900386759,0.04221622751788306,-0.06484048027171208,-0.004436932879099446,0.06710864249959958,-0.06677788552772406,-0.050804506817137318,0.1796213637444945,-0.11406794670995452,-0.10440329003536295,0.2163403090989462,0.35664333381419557,-0.05086004510712691,0.12280972523668503,-0.12024017667858776,0.00372444349488695,-0.11384058486751515,-0.000977359442179909,-0.20711489389366806,-0.07756231263527412,0.2794056648682991,-0.07766677951551916]},{"weigths":[0.15899993107014297,-0.034139835015124669,-0.14701020470942298,-0.17512253646987559,-0.15009448356308209,0.28753468875392448,0.05082394977434153,0.10438509693746133,0.07265880151429438,0.10930010675880006,0.3649681197166774,0.05875016923304211,-0.031101361738829763,0.35752276256987378,0.19603692060063888,-0.2848894657488434,0.013561823231030768,-0.2380118996602015,-0.14505595015985207,0.25186351282262289,-0.21698507485713876,-0.0937782919285879,-0.3834804452197501,0.02840486160576255,0.2942604244054932,0.025472107500478105,0.07911111524445513,-0.0588798666699272,0.1700141909078676,-0.150121467468145,-0.16016879804123544,-0.14632672532750783,0.15880381710613848,0.030417876339134395,0.027255435038929074,0.24946306795080984,-0.2996757036606917,-0.07990446747353408,-0.09729651152259814,0.10442850332412954,0.06583423320191204,0.018824318302885353,-0.05310890355547922,-0.07011201277237563,-0.11468243769987567,-0.018588703859624149,0.10851303043434432,0.021288012364027357,0.1294102580259067,0.05973930903453935,-0.36853080757263687,-0.09228133442483207,0.06511988526123262,0.12153174842176605,0.1415861460314805,-0.0297410715278681,0.10627410821610572,-0.04940385191094747,-0.008845937404663494,-0.09345779972530721,-0.2213382604187781,0.013228959622540724,-0.15380559688895235,-0.1305366275132871]},{"weigths":[-0.05474632582258058,0.11316046298331736,0.027616543835029315,-0.06272892233047554,-0.22208515593442419,0.06234196801713494,0.08597011239925807,-0.3037354766608173,-0.2099343201055649,0.1814678412172677,-0.028932346919425538,-0.049930775677084249,-0.10955717336444107,0.26675903743263848,-0.03482841366706913,-0.0861072735521881,-0.07607427891661471,-0.22509603194409626,0.030508414125312294,0.020438810844310527,-0.22977058414232352,-0.043201296012824689,-0.23777958243602063,0.14826490343363309,-0.027646470830975997,-0.11636668229724676,-0.04908722590968053,-0.15842449561542613,-0.06830860170100163,-0.06043081671198664,0.01661970343150693,0.16241607718356028,-0.08157987681731327,-0.05013518690097691,0.46721804252176876,-0.09401497920462831,0.22201519733937767,-0.053861897241895207,-0.14286440849418109,-0.008566864324421954,0.07099309104842443,0.2302466580005727,-0.040190135789034128,-0.03855945929195349,-0.08851902690100196,-0.1661975313799688,0.18715589793412028,-0.04218427718629619,-0.051122811675236249,0.010084420484317519,-0.02695044212965016,-0.10233609279993342,-0.11835415787189828,-0.031990433272107227,0.022711578245461746,0.1489638007672308,-0.01082669049430364,0.06830643722609094,0.03626043065712819,-0.01942142781315697,-0.07938776350134881,0.030311337901475157,-0.16165454299317726,0.0024820769516452334]},{"weigths":[0.11200558956248447,0.06331381190589707,0.1371411245478742,0.15870120981818057,0.097466862898719,-0.15663999549587105,0.028833650065029929,-0.18481102881632106,0.0713900882462969,-0.09730295268772592,-0.12314243935917534,0.04475281965367752,-0.22735847136920143,-0.2544428811669969,-0.13891664701095467,-0.04497681336240894,0.06093386831626473,0.11152647782745069,-0.1464026258426051,0.11831506593726088,0.08812030566143235,-0.1236706683484931,-0.07634200352702767,0.0908418443236728,-0.090992405155102,0.10177325381766454,0.07682336906659487,0.06828057906884877,0.15634412233165485,-0.22631291434363888,0.06237713046346967,-0.056590018564518767,-0.0378603567759345,-0.23905737612573672,-0.10315916518696941,-0.15486734095958794,0.082039276212971,-0.08157842386472088,-0.06483830812685454,0.0613828630253645,0.08509484960394365,-0.10801111994974735,-0.17885656215013805,0.010024977220928919,-0.13349129551617312,0.16428490718657774,-0.03442960940447602,-0.03747167786186085,-0.028133183799471205,-0.08011951624050183,0.18574645916970887,0.07960420307809019,-0.12466826791320522,-0.27274388644004646,-0.18841895579761495,-0.06225998897380942,0.03918573465291826,-0.16655069288361558,0.16201344898210244,-0.04338628539841463,-0.07621770943517023,0.15005645068588895,0.14289578580372579,0.03502037633885787]},{"weigths":[0.10137868662424213,0.1481446392396519,-0.14410602713423915,-0.0657136195603663,-0.01507592284668935,0.08188103119016009,0.06361081206100032,-0.13680935030072575,-0.28831216021993519,-0.07308702850366035,0.012103018971468387,-0.09751217727224866,-0.11975107286922919,0.26315681959164685,0.08217100351812591,-0.21893575734279087,-0.0038075494972146597,-0.3302315328291412,-0.03326712211852784,-0.1540143436100196,-0.026621989232164076,0.4149725462297208,-0.22292378646609296,-0.10995535586899985,0.26757868218729338,0.04643869451882826,0.20398023815099509,0.03016108159974489,0.12539210201869217,0.04697336637371836,-0.2924106774793734,-0.034965312441581377,0.010043310800539538,0.16936833783543585,0.04646086037529273,-0.09253107117890837,-0.17179613074823886,0.14162935706197017,0.029333106281468257,0.04967135356068059,-0.025156475085387484,0.21647633598062678,0.30127427896292249,-0.19587998689023992,-0.09180393630751442,-0.31819768919745247,-0.06116159208938399,0.12424470906368478,0.12312377242161879,0.17442551381205943,-0.2420775360318447,0.10775949353803834,-0.08407216190316105,-0.00595192366812567,-0.12791229675708006,0.10194412163338451,0.13749683821485779,0.07106645389483257,-0.12868308251695205,-0.1361192816926711,0.1696826334379359,0.06715157970952396,0.004986870674081431,-0.11409712156055813]},{"weigths":[-0.09554273046672018,0.10779435467546501,-0.056298805961463107,0.1294406244380973,0.22670369895813972,-0.13785815171233269,0.08618811917381673,0.08798320862859384,0.001126488229606071,0.02399343044262501,-0.08077843558356163,0.21056142449668498,-0.14971605460402627,-0.1520436119923718,0.026564343264795226,0.19125798131428096,0.0798163658536819,0.21058047307363859,0.06445740996212982,0.10287840741916268,0.0788336542078899,-0.23576162821371783,0.08375546876739855,-0.0772704889533979,-0.15092276709666287,0.009040346384685108,0.07990536232154702,0.165246349958889,0.028035725925162629,-0.13042687276991928,-0.005112372615862955,0.2699769179373387,0.10014777943248576,-0.268854982705357,-0.2261530203082207,-0.14215280805763706,-0.08008972794345536,-0.24759193332787586,-0.08342688171058525,-0.017151796753625629,0.1455084448353607,-0.14332025834048754,-0.013381226737378108,-0.08262109487027526,-0.0008110153181840158,0.2755652252033732,-0.11152292104165719,-0.12073316215644305,0.0731433806393635,0.15665911315721313,0.06797538966744148,0.012757914224924805,0.23897993975331578,-0.14301462972461397,-0.10757511286715124,-0.10225898115473806,0.2733343343309694,-0.10430910415793748,0.045065375724247676,0.16885409866907087,0.20420132199896716,-0.068789288372308,0.32289413561030036,0.015948314217768438]},{"weigths":[0.13360426404021853,0.04930180615073963,0.10513481452935186,0.14179044587932286,0.05651282300342152,0.017325395219908093,0.14447073908403375,0.06654073512726577,-0.020569060483153,-0.08431659322809256,0.1408128257481627,-0.03342140013135065,0.20974015052178403,0.25340193587853196,0.08394116431424083,0.032504688161350329,0.3290116190308271,0.07734288024364485,-0.10243853618489266,0.11944758420459288,-0.24295522948998458,0.41256939309805626,0.14505428283909115,0.18233713011548306,-0.03732359478447196,0.11618697055576582,-0.0846248288933425,-0.0383648897652058,0.019106806657213417,0.08449555813792666,0.024657039900406076,-0.05755145111966228,-0.06987407317950903,-0.07561320020926371,-0.3362606892903617,0.05649217619500828,0.08791422854814107,-0.025868671614848704,0.03995188717792023,0.11925272550326309,-0.06761389006243636,-0.07387597821771257,0.33205829665034589,0.08733236028778148,-0.05883792440215843,-0.08590029584462844,-0.10671302915013392,-0.1428563558039813,0.08936404151608089,0.18823796086730583,0.10028748916536022,-0.02497647908708359,-0.005079583880657141,0.21679573604220934,-0.12412718247602663,-0.07731763877741828,0.2160890620025845,-0.11734250318676513,-0.09409769240932924,-0.046936638362934258,-0.1150031237099428,-0.34466452184280446,0.06221635382145411,-0.07692302247364658]},{"weigths":[-0.037887075853818358,0.07828210529796824,0.0016725631364905155,0.018243023311693777,0.07443053029995076,-0.10816369404778718,-0.16552480907342255,0.007684833406456122,-0.1285798772517158,-0.16823201904443317,-0.17689928679168955,-0.15245893018096119,-0.12453673917399466,0.05908342049456444,-0.14795159271125958,-0.005046963429073202,-0.09506608116878257,-0.057320738680523678,0.06325809415497089,0.1423386988395153,-0.12014970099125536,-0.05052265064109307,-0.07253371482001878,-0.04322081800255824,-0.1270134683167941,-0.09496522807565848,0.10409458705214272,-0.12495692232101813,-0.12451988585718427,-0.12832527396490335,-0.0938610803139162,0.14051868763371298,0.17339355048879513,0.161745222969684,-0.06793820634397946,-0.06787738040811671,-0.12082373584693147,0.02669194521149496,0.12512010803406457,-0.14858350307530925,-0.00443145687118974,-0.1327376572517427,0.10465744754153701,-0.06694570709590026,-0.020835666870920586,0.12909085636940033,-0.09336628825688445,-0.10013896040281048,0.04007141864772325,0.09881770740291465,0.03281003425121981,-0.033170403825996858,-0.07934269814122792,-0.036307108610793347,0.09717874444821567,-0.05926700906067815,0.004647562401747646,0.10246482203790684,-0.05024849580974281,0.164895807421108,-0.16252072364268078,0.06177386745913521,0.03420904631078036,-0.15984183418193505]},{"weigths":[-0.09495175739108576,-0.042652470677249598,-0.17068396128599973,0.057183499803730778,0.02775792769050368,0.06444171659164434,0.11399873600483508,0.14335774132977123,-0.015545018058749015,-0.05058532222264295,-0.1283879414090271,-0.07468862752554972,0.08074859495334111,-0.10319146793084253,-0.031534855699761239,0.14036759694441262,0.0011701729084719266,-0.009217302677369,0.071965292241979,-0.14536692042709768,0.02946865226903182,0.021395663824655226,-0.11191800407091363,0.1629958000401616,-0.00694617463428417,0.13503047279233994,0.06336938411503565,-0.14120048287465374,0.05783070605694076,-0.044836585075231357,0.014601925663546635,0.128763102672165,-0.07759890235634595,-0.0020209007884729355,-0.039204362872430089,0.1477334872112008,0.020952576282907345,-0.14224257353974144,0.13779132002622022,-0.15623525114401103,-0.20993611380484879,0.19476075211882133,-0.09337117844477733,-0.10161973214269693,0.08257896287044496,-0.11576936381423407,-0.1447561086750954,-0.07680385741517489,0.008622049337990145,-0.10092653217643227,-0.03716120210903176,-0.10223178918759374,-0.15731032895454873,0.07861922634045417,-0.06979427128235084,0.1741453968449689,0.11526876098770769,0.001093886749176001,-0.16350213486885538,0.1733179565698906,0.03454276561119557,-0.029923354114047335,0.12781936042699797,0.035625101682353919]},{"weigths":[0.11012163466431418,-0.0014590757410466048,-0.017000973161813535,-0.17553002800650256,-0.12801853566462377,-0.1313216406944828,-0.10296318009499345,0.07092894782458725,-0.10735749006495021,-0.1704242916147079,0.008083885020098035,-0.13653651011626467,0.2708608135512757,-0.048777913622884788,0.058490805394733186,-0.023908666493138113,-0.0377545853045063,-0.18783041000321325,-0.13864646296024134,-0.11587486593078642,0.10354635102021183,-0.07439512676407764,0.05999151090907796,0.038305476607860409,-0.0021686579642065516,-0.022612827513795464,-0.006266099543458747,0.03586539006106461,0.05206192297882692,-0.0275288824759759,-0.005718299414605655,-0.1379564683598033,-0.057468572282529498,-0.03544805030856183,0.08507213461461799,-0.1056950907877832,0.08830795257723687,-0.00747042054385717,-0.062032910487896008,0.18433255545572897,0.0781365722882371,0.05441541187382988,-0.02435041997028016,-0.22844562544443385,0.1485081732412421,-0.045903960293649768,-0.12594905572866026,-0.04592883654865818,0.15146547274080136,-0.07880528869270816,-0.1398715662824989,0.10713941269752828,-0.02943852669141595,-0.09817876333186289,-0.1189838355758313,-0.026092903183746457,-0.2199427398184343,0.16441287250993207,0.1630950199245389,-0.1564978238472447,0.1729303861813332,-0.08066394699245323,-0.002249984512787002,0.1342594250139125]},{"weigths":[-0.12814574899707027,0.17341738439389837,-0.19517707654401499,0.023920212772657585,-0.09589487849215842,0.06503676090996058,-0.04937224917624684,-0.12971828726856658,-0.16644044042834503,0.061940400467573087,0.13206292806594095,-0.1728544699116192,0.15370876107780696,-0.12997481357524305,0.11541585791868077,-0.16147356670488073,0.15699910193018219,-0.05567689115183718,-0.07040326236754116,0.13579800054639114,0.04724267176175,-0.034259745358237798,-0.11564088962253562,0.12116012768910294,-0.08694592714756235,-0.13120573254816,0.19878850853474853,-0.05652805272591804,0.0831781016487289,-0.140330248206511,-0.048949167913201498,0.007847926046565018,0.1578246494535478,0.07462170594171955,0.06401099249466234,-0.14141204699062663,-0.1376596032745801,0.1089693911739393,-0.027342570364203648,-0.04820992892764285,-0.1549032341194876,0.07998623271433958,0.1345943848661929,-0.007979643243697507,-0.01575010555686233,0.05426768758993388,0.10415426257236711,-0.11331003373015658,-0.1588618288094071,0.09851459993313182,-0.10911025197234517,-0.16236951652465674,0.034443888597518238,-0.0193761039766196,0.00210700380910639,-0.01199147063909962,-0.029450885559338333,-0.17367377474379995,0.026696777394946918,0.15045193174333078,0.011147353453506226,-0.22467603068807838,-0.005914040549767172,0.11208774255601264]},{"weigths":[0.025348803909347636,0.17025007407631757,-0.08074664873832956,-0.034496417203060628,-0.04656113178912845,0.019117261481191668,0.1101555978061985,-0.09875619830263224,0.10912344261730056,0.027543632947955596,0.0205760205630973,-0.08005896142566754,-0.009632014276055699,-0.16792140090908012,-0.14704797158265518,-0.08581770747776646,-0.149607607571275,-0.1844628700262061,-0.10150866849497758,0.06844185410574762,0.177945029248379,0.02069867884177259,-0.13956417880771275,-0.0816083677100312,0.10229063657804954,-0.05981072782591565,0.07564093255407402,0.13505706062943266,-0.06292354618057247,-0.035788736887866868,-0.020112810124294609,-0.063911508416373,-0.13363065215376247,0.08343838840128871,0.14918242665593976,-0.09415379302294336,0.006423758847212958,-0.10633955707178825,-0.1382317481228071,-0.1571450126311902,-0.10240470293904214,-0.10983756878817767,0.12212641468036341,-0.013970009379152235,0.07672340063299955,-0.023478294154986865,0.06721292010280637,-0.0911189186328536,0.11733572537368262,-0.026686892721200084,-0.04949529576584009,-0.07373217702516465,0.0392744047923655,-0.1157496392191279,-0.051943192357307477,-0.08417117962383355,-0.10212562375531803,0.06415610868452884,0.017136626749766336,-0.11069153392582373,0.1137573526195013,0.14903797863512545,0.04990389221775337,0.06696636581585078]},{"weigths":[-0.18016275735669297,0.2546875895464629,0.02064527657467183,-0.08465505620526597,-0.2519695635762364,0.2971135570922696,0.14256505173799478,0.10721077257901644,-0.3321529902273387,0.21783207564299199,0.15346495019230917,0.15992336947399952,0.14558315660003186,0.165161634227356,0.5756204659083645,-0.12039897773789724,0.04228889085871631,-0.3429974917037084,0.16035320729599027,-0.003010797753858363,-0.35048600442709268,0.5173984425624837,-0.1766971755494458,0.14546981972266508,-0.05105044930245505,-0.2909582611365222,-0.2835490334965818,0.1499725238371928,0.16898573621071473,0.14936559447536094,-0.26038862269185805,-0.0806515551264181,-0.03953367573541317,0.12220206112060482,0.27373758082194618,0.1748781787306901,0.009995370512006429,-0.018920308472987397,0.23937993495087019,0.39360364459626925,-0.5391261139366836,0.20200861261723847,0.560171055791672,-0.23948007675315634,-0.1634407344519077,-0.22695088810404563,-0.2161114922081421,0.10415797783650066,0.15066193433817832,-0.04360521028799065,-0.2834196213608179,-0.08347795623775153,-0.2596660140480867,0.36847659337859786,-0.24867484617086228,0.14492983761531987,0.13527056767188773,-0.025618624667248195,-0.16236112160514785,0.12990377675275,-0.13799608463677982,0.12419568124031309,-0.08593288123234276,-0.11410444623254459]},{"weigths":[0.1300638200236617,0.11220695873833601,-0.06818201673007973,-0.008944086525927568,0.08094670653968875,-0.06537891619978012,0.005315752453250148,0.1477860926543036,0.3667522741317106,-0.13010570164525274,-0.13507371501560309,-0.22555043649471838,0.3006907092503464,-0.17388988929896485,-0.02069075611764811,-0.32551745607759166,-0.11030323533606193,0.19792667259739187,0.10167275219367805,-0.0029082737525212315,0.2902479925620002,-0.07355782314814553,0.21994358335513465,-0.08294838137339435,-0.13739231957579774,0.13023552006654227,0.04038440625663576,-0.0003130064496687429,-0.10701305110405446,-0.023126032490901329,0.13825074134529964,-0.21206576520848284,-0.06197069928796501,-0.0984748143689083,-0.09563246281662577,-0.0676181561035609,-0.3353645208725952,0.0633407007687274,0.07836282533061019,-0.010551166609859064,0.39047171533341065,-0.8005378090559763,-0.16769084457875253,0.13447095822902864,0.10669606082180705,0.44670270188588659,-0.03555376388798091,-0.23978215936876258,0.17419781704634136,-0.015301146593847142,-0.1362870427163519,0.2130176448657077,-0.09921023737764892,0.049988363510602439,0.05710371556817135,-0.10890133164087844,-0.1091793729388329,0.016827317740710825,-0.06476481470392714,0.03205629481967159,0.07802586110463204,-0.02636324824653054,0.05443952616271199,-0.0019822077240686847]},{"weigths":[0.13132825808596938,-0.05786126586433519,-0.01273212527492245,-0.13425098092456179,-0.06784155426539687,-0.32673357284602419,0.19262013293702358,0.2647751940343263,0.030133591865608816,-0.19369038282073187,-0.059825988373786078,-0.0011345276256552,-0.13399320985959616,-0.08872720231517943,-0.10898450106793716,0.0756808824371981,0.0052044004387716579,0.1654543653630158,-0.14353076764365273,-0.1826414715567189,0.04725656175010302,-0.17725953438256207,0.4173223563392883,-0.17316958469414318,0.011718480572788855,0.08542232956175269,-0.07386538452610514,-0.10024025175792893,0.023446164424478057,-0.05621110269902556,-0.05230641376722897,-0.015005629233829827,0.15123104137512004,-0.11529821132363441,-0.040109887700027217,-0.1473422300781029,-0.02071543924245313,0.05765281844655017,0.07856440746612185,0.225808686040675,-0.12654520106341156,-0.05390864516308895,-0.031225155685464486,-0.11883414417844339,-0.09056114181604036,0.1990242362198925,0.016919346656921649,0.194407006816637,0.168578482023796,-0.02677798498443765,0.23868052772349736,-0.004911730520663941,-0.27446303959912307,-0.018628263541706007,-0.2187478620127969,-0.07127224514708909,0.11945918801054742,0.10558517198480794,0.0033465521202218604,-0.15715535406404797,-0.09482795358012669,-0.04468740669004701,0.13122200051015357,0.07127649930691453]},{"weigths":[0.09141527535403796,0.03259560191234444,-0.12245414394229645,-0.05073965568845354,0.015893732199842547,-0.057485321186899158,0.10937007816501675,-0.186196631584573,-0.04165051622298149,0.03616508462636033,-0.06942538596580748,-0.14912202338549225,-0.06168435041235635,0.1670591998672217,-0.1596865647377658,-0.1654960838111873,0.0413803211796348,-0.15109507863371997,-0.019578346376796866,-0.03014100941936285,-0.07894492240325527,0.1493091554976069,-0.08190909243123598,0.06919490655623614,-0.13853884916778917,0.027398957285632423,0.08555712854356519,-0.13240577709386826,-0.07759512010569436,-0.10438587996001909,0.1279960544089097,-0.037188508355900758,0.044396124647454678,0.1606830976416763,-0.059518153222700719,-0.08082616948498008,-0.13752233136908149,0.020205241502325199,0.1720433025789245,0.11019026566943953,0.13939583888564734,0.13233739860479558,-0.0005892346196891938,-0.1477930876731365,-0.1458831567095635,0.12099533465567856,0.026364369254229294,-0.15369229770324345,0.059694206118994477,-0.02592076851682463,0.09428792828842926,0.03970414954300259,-0.08971211953496335,-0.11279924045074764,-0.0279225999685804,-0.14357533285403416,0.049958244101103579,-0.11389229021760433,-0.017638710400418375,0.11946952825876689,-0.11255152238781459,0.1024418995117698,-0.02328265844384088,0.08216398999486877]},{"weigths":[-0.1280610444111289,-0.15007921366842967,0.07585962768358778,-0.04546822884326597,-0.09229354506968642,-0.06222199593628078,0.16320624921531794,0.08420829819726651,0.0501168667762557,0.043971749487071439,0.01910665468670082,0.1167594794510139,0.14429398475251524,-0.04734052839341993,-0.07659183980352223,-0.023128844375994149,-0.12046858560396748,-0.09593275415445177,-0.11778753565793772,-0.04374377114493438,0.010989212431782723,-0.14682113463264485,-0.08840890114583226,0.12247412154351342,-0.03194577447173452,0.07347513015719541,-0.12327395881788045,-0.10377291071546589,-0.11688307212822626,-0.09483218961903775,0.053286877640626378,-0.17546003937468034,-0.024572672032644413,-0.08405993837071697,0.14448507759340155,0.0004793462188200936,0.13869380032049717,-0.12570420850890855,-0.12874901627253702,0.13315989687655609,-0.045658281740388679,0.10481552503367016,0.11205969398335261,0.1456771644118788,0.04769014819626314,0.14775708790995518,-0.1087675597858595,-0.19030344304548955,0.1438341002766619,0.10259968120823658,0.09230005082874497,-0.1627033856568331,-0.12880079486424393,-0.1499838648180306,-0.15530643863381367,-0.00862782245565844,0.12300907881849961,-0.026691351629723527,-0.09937408649716902,0.15065718515983918,0.04530483102538644,-0.18830831734620907,-0.0144822453870379,0.07081441131285962]},{"weigths":[-0.15220270869680159,0.129202016888064,0.09892330115925745,-0.040250619502189787,0.07499097465740334,-0.03500060978710457,0.041099656249424649,0.041811299060315668,-0.07177833669974787,-0.14975121830532035,-0.0880403567354743,0.008982176940461596,0.09978841957807415,-0.12929071116915687,-0.09647115717312697,-0.014997526733536908,-0.1806161825151278,-0.17639283314839319,0.1140104664722488,0.09232519955076608,0.15527564238325318,-0.028952757310393427,0.05996468541424086,0.005937406587913183,0.06185519539778905,-0.04188731436436479,-0.046166506755804217,0.06661644846179707,0.09788274150655448,-0.028745276455599119,-0.1225812134416384,0.014477938978257154,0.018126211595247089,0.03579903142216644,-0.4045499849868057,-0.06628458780382593,-0.0907374608789179,0.20044854545967448,0.039619780356580629,0.10231878948720977,-0.06566816001205415,-0.0038317039533903925,-0.17120798060628746,-0.11746800703592939,-0.039282983013691267,0.1467460461378898,0.006652539541977392,-0.1382755343202286,0.131826043887042,-0.04909297815756878,0.09312218390867366,-0.13973021383844773,-0.062330450738936098,-0.1562601787722759,0.14413197982076748,0.08904196513628898,0.046941327837775239,-0.06787013332446719,0.27057007290695619,-0.0650406212256056,0.08953298899276897,-0.18245891789730216,0.0034066230676613607,0.18458724516833484]}],"Biases":[-0.15068186979910254,-0.06212203141564868,0.019104322238772774,0.03623072794842995,0.1679422249312499,0.11533759666824123,0.21895809764887667,-0.06055946538168839,-0.05422744399810965,-0.2047501684839973,-0.018715619388090598,-0.04250980503889809,0.2886964460978141,-0.0496010284171835,0.1952351836343114,-0.23801172655640896,-0.10711939458033168,0.2208511670732508,-0.4482351714344255,0.2129189097135855,0.010802023575176704,-0.008413185095364727,0.03218876598625009,-0.25494224666934797,-0.15155570346818887,-0.03068580273852864,-0.12932497831087179,-0.4310896643489915,-0.07839615361199562,-0.08555935249517706,0.044178247818716907,-0.0835000276310052],"_Inputs":[0.3829798233127063,0.07043303693800407,0.4564652857712801,0.23915805416134587,0.23195841582425257,0.4258165198359973,-0.005595313002036702,-0.00491236331424463,-0.0016522792871067445,0.1551628080298456,0.1665204335220215,-0.0008952705297272781,-0.001659639386665147,-0.0036267298170797655,0.05346149438007858,-0.0006568588121571551,0.09860777584321789,0.4172760640808979,-0.00891497930684907,-0.009890689684667768,0.2655031525305788,-0.012377981108974994,0.36466100405534909,-0.013822132700311373,0.19568410403225326,0.5506192254899304,0.007958094210500269,0.036163331347490227,-0.005862444401093393,-0.01679443592939017,0.05360192680266557,0.42830258090675657,-0.0034341016880295,-0.006818619172774575,0.6998121431986512,-0.0006791197248834691,0.7557344795126209,-0.0150435273242972,-0.0035791925039791526,-0.008520686635352642,0.08436518642503865,0.5656521459711683,-0.0076786021056106149,-0.006591244226807636,-0.00469418337648694,0.29254385996743839,-0.0021204317124735507,-0.00039964317009298617,-0.0046951312204282558,-0.004602268645950437,0.24751143472297675,-0.0004548213096488946,-0.003998168444031707,-0.016130856470109778,-0.0006163334092514005,-0.005952722325736188,-0.008054650924862782,-0.005910981558239401,-0.0070006602964102289,-0.0034898382337194137,-0.0016349777424735605,0.28346916777132016,-0.0010552394002985965,-0.009454024637878157],"_Outputs":[0.005979202532588435,-0.724108425075878,-0.0016670923178992437,-0.18196275077285993,-0.359619439197539,0.11638514434314698,0.4978461869050343,0.17943730519318275,-0.20629875563361955,-0.6152177417196273,0.007096508768477415,-0.15571597588336523,0.5479284200833466,-0.1552883159268486,-0.59312849388993,-0.6947765872533078,0.2066663532085234,0.43763189852139119,-0.749754570164155,0.21770140435956923,-0.06530179103627995,-0.36923772695659998,0.04852342649807035,-0.3772777072499416,-0.4583157215558289,-0.1202831892402486,-0.4046323363692181,-0.9180155636800046,0.023527716586920684,-0.2568686352215901,0.11945465280533202,-0.5259172197014963]},{"InputSize":32,"NodeSize":2,"Weights":[{"weigths":[0.2771209934593825,0.3329343032511808,-0.5881297229530332,0.27227813865180736,0.42392208502683,0.9181755432300856,-0.37146008433672636,0.42781473979624948,0.41429256613807849,-0.05154529632211859,-0.6310427629673702,0.8110530049966257,-0.7471440097016846,0.23421532714233396,-0.5305564980470041,1.0557885873617752,0.35542880256422756,0.36396747997616266,-0.9825337005409004,0.6333414456628665,-0.3365614419613943,0.0762867788239731,-0.11499431708970445,0.544773156463217,-0.3227705843563615,-0.08593860966560628,-1.1981344293415169,-0.13493930064927779,0.5727396667782173,0.59307909885516,-0.10193625433820253,0.08386762564763559]},{"weigths":[0.0885427024219034,0.9735151815166369,-0.17683528109016864,-0.31457103787838766,0.3093948592547157,0.3963998584936647,-1.005555105435571,-0.39170860949525279,0.5750420008803705,0.8439881675719484,-0.07017998866240319,-0.32573765126338879,0.3046022526777222,0.10982856107525015,-0.5324909189374765,0.6710053057754144,0.8944987000320874,0.3430610903645738,-0.05284005701735092,-0.33747468331018889,-0.4605376178653805,0.488582996423503,-0.11360712141353371,-0.6409737344673169,-0.27642988388541747,0.5028767402125399,-0.7295219076098073,-1.2890861335839985,0.4839246082647234,-0.6055039542336851,0.12406723313482786,-0.6570851514094255]}],"Biases":[-0.1597600060480282,-0.39231976404284177],"_Inputs":[0.005979202532588435,-0.00724108425075878,-0.000016670923178992437,-0.0018196275077285993,-0.00359619439197539,0.11638514434314698,0.4978461869050343,0.17943730519318275,-0.0020629875563361957,-0.006152177417196273,0.007096508768477415,-0.0015571597588336522,0.5479284200833466,-0.0015528831592684862,-0.0059312849388993009,-0.006947765872533079,0.2066663532085234,0.43763189852139119,-0.007497545701641551,0.21770140435956923,-0.0006530179103627995,-0.0036923772695659996,0.04852342649807035,-0.003772777072499416,-0.004583157215558289,-0.001202831892402486,-0.004046323363692181,-0.009180155636800046,0.023527716586920684,-0.002568686352215901,0.11945465280533202,-0.005259172197014963],"_Outputs":[-0.20699909108204443,-0.46129210434570569]}]}