{"LearningRate":0.0025,"hiddenAType":1,"outputAType":4,"layersSize":[9,64,32,2],"Layers":[{"InputSize":9,"NodeSize":64,"Weights":[{"weigths":[0.2403213076229413,0.0468089637422515,-0.13806108707352517,-0.33977561294089389,0.12844611478392335,0.05531771647701001,-0.059203040921631,-0.22454255868214316,0.1329636229486273]},{"weigths":[0.2251712535680691,0.31225711866948938,-0.3954753663584807,-0.2626011137678658,-0.014395350592940015,0.03972875676072023,0.01730875323667285,0.030911804330969469,0.2622459092836326]},{"weigths":[0.08255000656673756,-0.056568740641562507,-0.023516786631007235,0.04805732790587298,-0.026124724255880445,-0.07780209700955647,0.09078747255915562,-0.01340982449176116,-0.0653146252823754]},{"weigths":[0.18861870379375107,0.006708740209267531,-0.046012324972012217,0.038813473726621829,-0.17598453714907257,-0.5258872240143672,0.19409029011368385,-0.265820296026727,0.01171589346209917]},{"weigths":[-0.12997883906159986,-0.9051424095888178,0.8129004568501703,0.1605949201847039,-0.012877513843370653,0.01722226771539339,-0.0032709655275495765,-0.04948359886375883,0.1526282627218353]},{"weigths":[-0.04043665671899234,-0.1798225418708952,-0.01558559159748679,0.21918521721762558,0.014352323747722735,-0.5320203591178992,-0.07003971851797751,-0.006058407138086235,0.04966541552467372]},{"weigths":[-0.10207013951763865,-1.0585356990440383,0.9480590710939,0.10340090067292085,0.0683212769444205,-0.19134170383052194,-0.15371926019744029,0.051145932461882339,0.01495629662147803]},{"weigths":[0.11616368901375675,-0.08605199686135314,-0.007191206415267088,-0.00183840562941194,-0.07794439289890062,-0.11400493462704478,-0.11203085031606355,0.028118491117987009,-0.003259890560959145]},{"weigths":[0.08193558377219956,-0.09721383567042022,-0.07421820624960582,-0.07584188854613347,-0.030093705108154249,-0.11877431642607674,-0.052908624087136448,0.0244345461944131,0.03194711232272973]},{"weigths":[0.6234432931909393,0.32479197577510596,-0.6541701452146158,-1.2423606826768117,-0.008290243850240267,0.21454080467525422,-1.01028899513709,-0.014100072508665676,0.4260730610161217]},{"weigths":[-0.23856906187155289,0.31553399559846659,-0.15844412863234814,0.28178146640222437,-0.004324714318372803,0.108583840073585,0.03032518799777529,-0.06071552423462369,-0.039268522791836377]},{"weigths":[0.21899617502862027,-0.2571644488129962,-0.2757911384681854,-1.1545345821653137,0.10301038398448281,0.3975249515817685,0.4994831477255553,0.059232154186045219,-0.10872906684330125]},{"weigths":[-0.25351406100762749,-0.08288073712324976,0.0052726925537075939,-0.11369567629171114,0.08159002624746213,-0.3254868684849964,0.12570403249760535,0.07491254242450767,0.0028000024721380764]},{"weigths":[-0.2943603348480719,-0.16453082444665732,-0.07298108196178312,0.009418079876583661,-0.3006109830524778,0.023878945571962599,0.06182629017894855,-0.08497440072748959,-0.2761947896197389]},{"weigths":[0.17773322753315066,-0.174991879392718,0.10940669490051301,-0.084826319083354,-0.051880903409271709,-1.050193395175636,0.02010185444587081,-0.030700366056178105,-0.3525641086525611]},{"weigths":[-0.017715120259656843,-0.2847896388224541,0.21154000341089666,-0.13303643325673909,-0.5145699526140681,0.019547580979245216,0.0279094671291791,-0.19760524246336393,-0.32836407499798939]},{"weigths":[0.07770099926387586,-0.3390333267128433,0.2734148590998569,0.0855126635028904,-0.15961780726803174,-0.05467974437397764,-0.04075137824270644,0.1234456314444285,0.12560621107251278]},{"weigths":[-0.23257653654377218,0.5144413728343936,-0.37044898566132619,0.10497292822311176,0.04074063285049176,-0.0597141780660852,-0.01993138011497512,0.012125374011041428,-0.1596612289082129]},{"weigths":[-0.07773680113736115,0.03083444625157609,-0.05223993126874303,-0.0927132916739035,-0.03492907121119315,-0.027753098522281799,-0.007534048670667394,-0.0304263923587103,0.0013761800511782642]},{"weigths":[0.19981517470042199,0.09430941121599459,-0.68579943089169,-0.4870573656436614,0.020747086213620575,0.2498289062735567,0.21403179894654124,0.05091071444766658,0.2955033867362689]},{"weigths":[0.12078085002709914,0.6929356604285558,-0.8776794637582052,-0.0530557877462408,0.15931653173357997,-0.050356782170526307,-0.05182608817726832,0.1715821716798813,0.4022112061310611]},{"weigths":[-0.23356155032057289,-0.4108375252792051,0.2777915306942852,0.12105433955656772,0.0808995678908891,-0.12325093423680825,-0.029314884780156797,0.06844227789596014,0.03766188047845079]},{"weigths":[-0.04226398480800537,0.01267590406696312,0.10382434387133058,-0.101902990039698,0.08551275159416877,-0.07021288049261788,-0.06385496773869437,-0.0436403676556042,0.11284974253778965]},{"weigths":[-0.06085325020137705,1.0301989395556995,-0.8485743229181515,-0.0882368239306913,0.07785686759860282,-0.02191164104813867,0.05372752122530384,0.16302858980736466,-0.01846882146797464]},{"weigths":[-0.3043349163549185,-0.9104902342041775,0.7370049841090153,0.26131943293501538,0.11897214107713555,-0.14231958017534716,-0.02572058342050053,0.0291810380351734,-0.08082806982538869]},{"weigths":[0.10085373399563544,-0.10251406833997962,-0.026987094614214437,-0.0011498089929348737,-0.04524981891895003,-0.01784579662869694,-0.063528800613777,-0.04406356339890929,-0.04681312726311197]},{"weigths":[-0.06294680708172983,-1.5252310773573943,1.0130781620689918,-0.14517138121870216,0.002537187336193036,-0.02826510421124355,0.004437721345793547,0.04581314397256305,0.08661744322692425]},{"weigths":[0.12938384890526109,-0.11842411341947869,0.12021630468400226,-0.15947030084601319,-0.1772402840984789,0.2520891175485627,-1.393352926651921,-0.08545728094641726,0.35572437958984157]},{"weigths":[-0.11303959349862601,-0.09303072801662867,-0.07442620310333724,-0.0861750777004262,-0.05422404487343001,-0.0607930176392958,-0.06419560578557139,-0.008744102885068718,-0.0023337348595195994]},{"weigths":[-0.375569710642854,-0.5360840423231552,0.3488789417019554,-0.04731324329847369,0.08031251143252805,0.007898822247297665,-0.031038653541981505,0.19223143314138003,0.23768396936770326]},{"weigths":[0.13029585667660938,0.06268391133892473,-0.06798279927265474,-0.1286826458725906,-0.21522135913814928,0.030373198848563339,-0.20642536132695306,-0.1073507969236746,-0.13237077403814827]},{"weigths":[0.14208903614719854,0.5021179848750581,-0.5467536436871325,-0.38563211915327635,0.19526515456468752,0.1811503665309644,0.21454269143565886,0.26804119113028027,0.18415095865618329]},{"weigths":[-0.09311815628083858,0.1367362318715033,-0.047754579084557578,0.2067038546131449,-0.1176509089331625,0.06273543101896037,0.06626252844803715,-0.07897241789698535,0.10397137118632542]},{"weigths":[0.2798016470143304,-0.2592139035845795,0.19538636704650323,-0.0906866377931772,0.005908124068145578,-0.7295579988626525,0.0899073705772659,-0.014714157764056378,-0.16625367163573794]},{"weigths":[-1.0097911032097942,-1.4744864810790335,0.7264281348488864,0.23958007904837806,0.09794445348132797,0.04598680671925508,-0.003174641255844489,0.19115419375527463,-0.28631861286646806]},{"weigths":[-0.2943086807872567,0.18968083114713264,-0.4522397472256232,0.3231903775670141,-0.042941555560233438,0.019836955631550528,0.04673532169445662,-0.024266184625976698,-0.16725510626251684]},{"weigths":[-0.10804922103093305,0.09935351870383258,-0.08225972703096266,-0.09017050757213906,-0.11244113773049637,0.04601361627336792,-0.04160159039192208,0.03228987873128785,-0.03410686564810981]},{"weigths":[0.14303018800269724,-0.6561366831837849,0.6659863691974478,-0.19249721682262564,-0.11754351595538798,-0.005450464780849897,-0.009723658725833366,-0.11963509907622863,0.004870251034900582]},{"weigths":[0.1238986617167023,-0.07856812799930237,-0.02423934762231358,0.04247644858164875,0.036145339848246967,-0.3067494648609295,-0.00443626951638828,0.05593070779572544,-0.005693382751828611]},{"weigths":[-0.0036881355023776058,0.20546434052064314,-0.004897353980772269,0.030268042520966797,0.0027983007728994799,0.05348715089628006,0.028883440963832789,-0.029540598992656626,0.12885690515900156]},{"weigths":[-0.1485724357464166,-0.1061916249278784,0.07861392887993329,0.1046754545095276,-0.25001217098046188,0.19577240524823726,-0.017906738413017498,-0.05014507210454451,0.020932044111471948]},{"weigths":[-0.036231046312840717,-0.028084880711684448,0.005448442819847087,-0.11673464500675011,-0.021447075143130813,-0.09562006673087446,0.026547285176204497,-0.0668109380819492,-0.05139766558601189]},{"weigths":[0.09674565477215508,-0.10832326163931332,0.17341716503985114,-0.22494365910711235,-0.023441073737355997,-0.05223953559942357,-0.13562883758257453,-0.011421491465968261,0.20056154759254528]},{"weigths":[-0.13857709969255303,0.21118229571826739,-0.2813300899341345,0.06188414661108742,0.02589572161894421,-0.041987087103874509,-0.1771042335496259,0.058519343716269708,-0.03136211423110033]},{"weigths":[0.16538363827463765,0.1791919016016069,-0.06656504824089936,-0.4668337728192949,-0.050268290954719439,0.07137372627392298,-0.28623824073771178,-0.08858583213829001,-0.1029596670052078]},{"weigths":[0.14283529248323438,-0.37093230836074655,0.5188575273343753,0.01466992332132776,-0.28416964481659848,0.08949603692714264,0.06058684014758287,-0.22483412180372792,0.05147193736785366]},{"weigths":[0.6063587121308136,0.40595332782422385,-1.1088230723363744,-1.1633925416806368,0.005464460999537867,0.43976009605355656,0.42986917337940147,-0.007676261326564279,0.20483081820377498]},{"weigths":[-0.1769878378811939,0.6223024888222427,-0.5094992488648249,0.49951690959215919,-0.031902848232707548,0.0370007067930456,0.08082576861208459,0.0010405132946140269,-0.06286593802293117]},{"weigths":[-0.5638668690254386,-0.5235847346461291,0.7021909365824628,0.7291736323501901,0.01305022821758488,-0.03782683834199927,-0.011778253859356859,0.0204197359990426,-0.38286803584100428]},{"weigths":[0.18165720177369855,-0.05847482035841452,0.2607347678831846,0.06473690356010564,0.051560040193256027,-0.07372840556157538,-0.018957781032634369,-0.004484090311846124,0.012013396932110687]},{"weigths":[-0.23401894092129825,-0.6957489144488926,0.8249489969544174,0.28349442403316596,0.04480363693800058,-0.28967313541417769,-0.240482369343521,0.0629684968465652,0.20294714110936436]},{"weigths":[0.06939355087036908,-0.050414488317764797,0.1329375041978104,-0.26521607236308478,0.07816059223618854,-0.008242426668814996,0.06927219209246316,0.04717398918762585,-0.21570724921439445]},{"weigths":[-0.048559134540193737,-0.11768535298089936,0.07738046601798394,-0.01930879584408892,-0.09692220319392338,-0.09652288545760289,-0.01752204973832331,-0.07940714187789175,0.11752322085952793]},{"weigths":[-0.004561201080477199,0.019667740506898999,0.009970531696312322,-0.06510545119542069,-0.06315557859469177,0.01806497945857475,-0.20262186212691725,-0.037825219411444049,0.10458054808908569]},{"weigths":[-0.4353299594729668,-0.025523698532586994,0.08109863329527283,0.25590542087915316,-0.2786751301259317,0.0466046250362314,0.13788463969060883,-0.26282502980632557,0.020676099172250763]},{"weigths":[-0.018781306772767786,0.5221014204266856,-0.8136166135605324,0.09963806485036038,-0.09284036318327983,-0.0129423477978565,-0.011866552543143425,-0.5027920835649199,-0.2149758665697126]},{"weigths":[-0.29408451411711358,0.2582445691809929,-0.2250356930154387,0.10391857488771735,0.144782754781711,-0.049689621219464397,0.04057106814489776,0.1745367650743195,0.15506915119642793]},{"weigths":[-0.016145802559659175,-0.3037122969589874,-0.05392944682222031,-0.4008710748575305,0.06607390040953792,0.15212444409385884,0.12461204756533934,-0.17167729498720583,0.2070282883556484]},{"weigths":[-0.32373661880645568,-0.8477967694336543,0.23130716321872289,-0.41065200785231228,-0.022535524607669698,0.22756524426909356,0.2055394524377316,0.04804271268170516,0.27286805229250196]},{"weigths":[-0.05297723840427892,0.0408386088618584,0.05991579621735155,-0.11662049587846479,-0.11198600826440292,-0.03948499783470011,0.02069505908926843,-0.11360426401491507,0.06480017390934088]},{"weigths":[-0.5544722932965348,-0.24624975520717316,0.02680318617887138,0.33345092992378047,0.11175894790526991,0.08314110513792576,0.09967758369516282,0.10183921786670289,-0.10592196087361285]},{"weigths":[-0.15467809268691544,-0.22380828813322363,-0.3431355713198494,-0.3444578456141003,0.039990406359875999,0.32304444890151176,0.20705909973407378,0.1466140269922039,-0.008804238189171516]},{"weigths":[-0.1862052851074805,0.08845676096674428,-0.7734962743786215,-0.15596592084394568,0.024481710759999228,0.0005892697963053516,0.035197059745925917,0.04369071224547656,-0.30550265536108475]},{"weigths":[0.20126675744049056,0.20429564582378655,-0.38322484202093717,-0.1571638083321362,0.18458886981428852,-0.06877248199619773,-0.11022136145499706,0.048389096490532159,-0.07067997901996129]}],"Biases":[-0.05616436990089955,0.15956407935853948,-0.028973632405965179,0.03450639428647895,0.30565671046120898,0.3695156696345505,0.014961181236889275,0.000028663999093428052,0.0005903035383526252,-0.48408560647818568,-0.15622845075519455,0.28773524749810688,0.015192075676643508,-0.011977530298046924,0.1851095615837885,0.19032462433044473,0.0182228079386,-0.3281345156922086,0.0007680642629989035,-0.08503131380834998,-0.15594833497383604,0.18310646432356024,-0.008360648020533886,-0.015792987323012803,-0.1522666517451957,-0.02746918940773825,0.6894842385081175,-0.13512494725171127,-0.0015977386878038153,-0.20079931866105275,0.23127421614708375,-0.3234676195717178,-0.10554573274921933,-0.06635313405972863,0.3071262330177829,0.12528259631039063,-0.020091059319051697,0.42985579348130489,0.014845037229280637,-0.14554341584501169,0.07091610336586958,-0.00007035985990438727,0.3558780279380836,0.20716500956940268,-0.006124102381600777,0.2083003201219378,-0.4404957209957966,-0.3387809989144799,-0.4601313877751174,-0.20146122833625555,0.19531950812692193,0.003341104413959381,0.0016276217723485206,0.012261055841685418,0.13946134979675843,0.13239003143413773,-0.055144987151780237,0.011733711496218075,0.31321015934222887,0.0006042407859926502,-0.15051334262321429,0.030848481434318826,0.3682578910348996,0.014073912391218793],"_Inputs":[0.3032839596271515,0.6712623238563538,0.7221375703811646,0.9259227514266968,0.1329784393310547,1.5129776000976563,2.0380210876464845,0.5380210876464844,-0.05440020561218262],"_Outputs":[-0.5140856643543138,0.004446386291439397,0.04583465603312502,-0.46822818610295049,0.37720726975369459,-0.5234924300949375,-0.5131681578876954,-0.42526700182004625,-0.44376121379716057,-3.4659759088238868,0.3247018274954733,0.5841897063021134,-0.40406146405528139,-0.16421509686122663,-1.4301766340197504,-0.0470622109962415,-0.03659469667418269,-0.33400417149952696,-0.20411460799730783,-0.07908027842199175,-0.4272983706566142,-0.05150620181340124,-0.28666430738034689,0.1383146882160756,-0.31339329676781565,-0.26989831684981299,0.23020943946512835,-2.783397978503787,-0.46646659105875595,-0.41655765144834785,-0.30929500977857729,0.17622235216032607,0.2811458972186631,-1.0170270480274049,-0.047927841698710397,0.25165355622529458,-0.13995353300805386,0.22719127932432529,-0.4164305448956594,0.1329553652985355,0.30655332963339845,-0.260633203404991,-0.14616775588803333,-0.2267958155729808,-0.8401195122786582,0.48832383029167877,-0.3351449121272713,0.34038337050035896,0.15196391730026216,-0.08378779174589557,-0.38404420851319179,0.017141882320231416,-0.29784762008863899,-0.4490574666656502,0.45754037638128539,-0.33305175533420697,0.07502602397393399,-0.2178738249777424,0.20387694884298825,-0.14986551013745764,0.24834583732587238,0.26226896956079107,-0.21581317286293734,-0.4842703051261503]},{"InputSize":64,"NodeSize":32,"Weights":[{"weigths":[0.017042162063113158,-0.04931536910756861,-0.013565135200536679,-0.08743066354884499,0.06661508594337702,-0.1544981149860819,-0.10246236773502267,0.031699227194798059,-0.12889608841230466,-0.38214487341870398,0.1395466432343767,0.13487163565309238,-0.034974265410251757,-0.20596925060402325,-0.39187429312669105,-0.3289680564266554,-0.1346103462018863,-0.052817071029613058,0.009753060509812988,0.08014848532149385,-0.10280822281472722,0.013154336257099223,0.05537436507993165,-0.11541382741843225,-0.13443126148312196,-0.1098058000156846,0.17650717380553516,-0.05409391083470444,-0.16588603744171069,0.17915591244935193,0.1822577962911917,0.07923070081161426,0.024519936872584168,-0.3865104595876749,-0.1333782273245502,-0.09782892543368355,-0.025463604117986789,0.05437295479730963,-0.19851614166134838,0.15557624577068547,0.03862669726266456,-0.06146086781241572,0.19859808792755799,-0.01207229016175548,-0.01093841365040682,-0.06380249003858767,-0.1295423096662401,0.03985209456444131,-0.017843882304946776,0.0949166872627718,0.07578536854207643,0.02187887495063866,-0.16415606901893296,0.13571692660119928,0.041443195146360089,-0.017191175838997178,-0.054885956369360538,0.1945770014783988,0.037590102173440147,0.1698785186314299,-0.11290563241109865,-0.057641345485938109,0.14077493076282919,-0.0025326227120963139]},{"weigths":[0.04318815596937043,0.19763575226501824,0.047732655644771877,0.2270105820168929,-0.1033013012823404,0.08610860639270851,-0.4088497281253408,-0.09617029245984595,-0.0679637768924199,-0.23137231219186198,0.34309195783313098,0.09497563722122449,0.15427993254644366,0.1717726124986038,0.04625630233847311,-0.0637973861209587,-0.13875401333974134,0.13180201094674399,0.1125252839531449,-0.2142461379819599,0.1970006751493081,-0.03181324006824297,0.14693429512356166,0.2277312141711288,-0.15956261410074799,-0.1308209671256935,-0.3124504725899273,-0.2032107034478854,0.13210444142932513,-0.1650363484111421,-0.036014969863681949,0.25544464290364568,0.1999454115155916,0.14259962879344546,-0.15359835852502935,0.10084332527485351,0.09790024495603259,-0.25196195973542875,0.006646468525875655,0.12231023535915516,-0.025512885780569283,-0.005748409111624181,-0.06769033457907657,-0.16306122205694777,0.16343517474010553,-0.0034549249471898786,0.017975810380957036,0.26199086503737359,-0.17768767570567954,-0.07208388368424429,-0.25046440957821267,-0.048200526051091669,0.1618212117726664,0.10254059570189701,0.2087456364796755,-0.10562920153185053,0.1348633406823081,0.08678663654914677,-0.23813870342459562,-0.03252174090294591,0.17605412088128104,0.17220926547019864,-0.1480612569428642,-0.15390152128859056]},{"weigths":[0.23031728635089544,0.16825667781183668,0.156092361443395,-0.01839205495916843,-0.31060792555649666,-0.23390246598405207,-0.1280222397549226,-0.025104033042153596,-0.16884670888519827,0.3848165130672494,-0.18528034965219998,-0.20753636426639716,-0.18502846734142767,-0.1061079569512416,0.05323493597851754,-0.10480900583983055,-0.17899556528141184,-0.11194183180301727,-0.001406237327941179,0.12219600824402922,0.09715840369634463,-0.14059740476900663,-0.05791729243754935,0.03162511716792394,-0.08127638813351838,0.09847895732404759,-0.31960569752104797,0.38953422774160587,0.09871079060310222,-0.04557530205293606,0.14771970670848856,0.19862358342669529,-0.21678076229039346,0.0385443849913018,-0.1600992533373853,-0.03518784845065968,-0.08773895034701258,0.028640302347622994,0.06912688080803735,-0.060855852784461417,-0.20999308684725177,-0.15060074037856875,-0.04555192603266949,0.1399053220369262,0.09684188593780903,-0.05366013368578127,0.13151431668117417,0.05895186312411693,0.1444307136012671,-0.12185608173847867,-0.20019353928479659,-0.058513856227083358,-0.10607765003922538,0.024794623034631846,0.03575273097048512,0.027518345448657085,0.11684016993142806,0.10547874580860564,-0.19232476146472445,0.0029801058612687625,-0.04369063278275193,0.12645931987306595,-0.09900958701034468,-0.046343931750219089]},{"weigths":[-0.15627686731396099,0.1748238940670157,-0.09017606868307102,0.20031337352439405,0.0795552160169138,-0.1674029784218907,-0.004662038381225906,-0.1422697165089027,0.16170088219150034,0.23109434676007943,0.0021981278406103894,-0.1482683988468278,0.11437884690754671,0.1430581910727439,0.20012393781310945,0.21279156418173543,0.00519334306359729,-0.001458320256281649,0.033986347715052007,-0.13956014962589914,-0.07264463208706559,0.01984124989305151,0.0044276608665914109,-0.0695878661873543,0.027253168186888726,0.04309521165356763,0.03329639371999595,0.06860070292415324,-0.04001130869097629,-0.14861911717748453,0.17044270394342854,0.1747409627924826,-0.015978235216580633,0.09566514267143557,0.26595195080458008,0.10186492807874706,0.15679961455740533,-0.041313570153982858,0.025031226967483484,-0.0889095559987478,0.10914045556985888,0.04567371136612311,0.16221703458080814,0.008802501318342428,-0.11263381210681019,-0.024935812261506444,0.18257876407425242,0.008317122899214975,-0.031319034219596229,-0.028899202677085006,0.005673918772550749,-0.03558594302347538,0.1323575048308115,-0.0006818668699296066,0.160181188655234,-0.03620942046027162,0.13515244336263039,-0.1571901426286467,-0.2129744377978388,-0.13791381733111375,0.10396371550227353,-0.1072018728559686,-0.07104177768051633,0.03125848792022903]},{"weigths":[0.18893638427004384,-0.10487287321711594,0.04606682850325615,-0.08110188783296842,-0.37592062357635577,0.11486296651593538,0.009635871230421579,-0.14140080880377399,0.14256533362928668,-0.42256536317716739,-0.2616311974150723,0.5347527091273644,0.11251755454976048,-0.17804682790591004,-0.17529015221994782,0.04864704599789881,0.03315902251156308,-0.08544423424703193,0.12968392984179898,-0.07440839560180171,-0.2206267121945421,0.024911752643367314,0.07702891440094342,0.05808718642069673,-0.15263230823888009,-0.06222475151235824,-0.2413517490749617,0.07355425755517982,0.03826340506617533,-0.1882068503767636,0.06072583136614951,0.06097853212392936,-0.15181924985359328,-0.015606301937751354,-0.2750352455706034,-0.08937772961611983,-0.10890952707966163,0.281626432694531,0.056501298329488459,-0.06252945962861169,-0.03045484416040665,-0.09195268644846327,0.07948339964488048,-0.04716226583965587,0.23548635709289884,0.1255203908240773,-0.0806230700318181,-0.4716526910319419,-0.47952464169356509,-0.1927128676967327,0.1867143984283632,0.16703569005001665,-0.08528607375022338,0.11389285547385399,-0.24790068173812339,-0.25930230928845829,-0.04026198437645636,0.13289819539036797,-0.1627334896882037,-0.04610497711489702,-0.3407477708028244,0.1813211010470436,-0.026398880207094686,-0.04529749821019988]},{"weigths":[0.030874383978012459,-0.0604324817119729,0.07593670985217169,0.11898792882501298,0.09802782964552116,-0.025678703743079853,-0.12080975535111065,0.09074618812443444,-0.11235357677870817,0.01252954525275343,-0.0028355445730756576,-0.23699578739313433,-0.06923206169479394,-0.1731250123833824,-0.11372362494392004,0.002118443089345423,0.09241261071211959,0.18569495450035787,0.0959006869227735,0.024284401254515064,0.13047741139994249,-0.16784910196043296,-0.045832726559021579,0.13927133863344758,-0.12762644607998206,-0.05761092204290793,-0.056743092926076408,-0.08974464731722752,-0.16420742128385613,-0.06798292503139483,-0.020538048096747819,0.07168509554953495,0.22124465903601238,-0.012628445420055939,-0.20848716034505289,0.14997396811166159,0.16502533148688909,-0.19064434070387907,0.049648729153080977,0.10483806465177979,-0.06071182515568541,-0.01704521091979507,-0.10199504107107414,0.05604799785753959,-0.05380869723004502,-0.2084428958220178,-0.204046103837877,0.016507700099478083,0.2141459193483049,-0.11763829914525252,0.11821047777475576,0.04583417200054057,-0.1161205434462471,-0.14394332460906648,-0.10472369991351995,-0.17438911030122529,0.07381560311193318,0.10218170267322155,0.0480124182443192,-0.15371663205960177,-0.19197374281039576,-0.15553089473586147,-0.01627262417221854,-0.1377505657909401]},{"weigths":[0.11944901520819348,0.10797813054134223,0.041717999246815348,-0.016394970817393944,-0.11866490002756103,0.04809248425644387,0.09025746078979753,0.10908443145147716,-0.009391510776981058,-0.4176123085680649,-0.17698972557504459,0.3309307592044926,0.16457644829883243,0.12873915455621608,0.067725537264086,-0.013153491924915988,0.06024035111311404,-0.362020886354897,0.12725656323663163,0.10309294440056222,-0.02365809778535576,0.020944391602631779,-0.07677781677382374,-0.20920242860867137,0.1498530198002669,-0.1445947822781946,0.23131413292732215,0.060220544623322,0.06666828742006835,-0.1416439791043063,0.053896743502549148,-0.03395385814594907,-0.10255599412567426,0.18201597554686803,0.05760608709965293,-0.1858652317264937,0.16249386767366187,0.2549085703497516,0.041607389959207968,0.07755061629496954,0.10313204232076795,-0.014045664169611313,0.058330909267096869,0.050593297784986047,0.06955052182090453,0.13823121343652487,-0.4625003362129905,-0.2896790985955804,-0.4491364393115816,-0.33100898075976767,0.03909794766932596,-0.09705128639809473,-0.031111060395005647,-0.09781148489768489,0.09695657526419417,-0.2708035521961971,0.05090281107194947,0.07441312191467625,0.20652395312796346,0.06840228823626131,0.04902488710784654,0.13605325934147856,-0.059968910598054248,-0.29949223695537527]},{"weigths":[0.16338670045516269,0.07004149051444828,0.03959549188163573,0.04692272287849646,-0.3035573984256407,-0.208805868219842,-0.2888926849751374,0.11606734138917453,0.03270178620286147,0.24808832681393604,-0.06263509211838844,0.08461326742643928,-0.10850919551014098,-0.027219942423745776,0.05139598196425371,-0.03846591925898553,0.04759337893445778,-0.1511675427708994,0.05698392333348494,0.12838795897343906,-0.0530805919492675,0.06430654858345757,-0.11260046143753444,0.06728506386660384,-0.17040065254228407,-0.14405090938927524,-0.31842553860019776,0.16060480057456054,-0.039476486577784648,0.1834466590335626,-0.03640963121762291,0.05251539523766977,-0.12350976662617024,-0.17581125216416514,-0.20592478661367184,0.2204741336926284,-0.15518896694133103,0.052186181259179887,-0.09638577685273803,0.022256491635868494,-0.15334014836588859,0.16653096398952597,0.13871717097871495,0.21402168293448307,0.08830321204227755,-0.23849857589422633,0.031152210961470106,-0.22065248335991784,-0.10915046451328148,-0.32269033423580809,-0.26375683530938029,0.003530295195685476,-0.07370880841984555,0.029788402460713464,-0.12572848839423876,0.20355066219316929,0.008085138036381969,-0.008478868091547328,-0.1696941357241597,-0.035031794930869959,-0.07972979437823655,0.09875616535168687,0.2913827784424462,0.007306567156740732]},{"weigths":[0.12918522468646632,-0.03128241707855037,-0.1711840323693975,-0.018446505523732033,-0.1317900869036448,-0.02114452285753358,0.06266007001539331,-0.14969944239664724,0.04412996935807205,-0.08990450624904711,-0.23237943316940849,0.42370923616895436,-0.0831034559240136,0.12224720599845253,-0.020684729422380627,0.26780258226178285,-0.025444011242406137,-0.3305994798340011,-0.09157921182500961,-0.033732579840042967,-0.03638507767146298,-0.10838396079343593,0.036121344403780179,-0.13942809553044178,0.19757184128723377,-0.1340668713618323,0.004245240756715726,0.1546571066270882,0.06665481658980696,-0.36876826447521318,0.19323982212284303,0.08162465929203818,-0.1770294098598748,-0.03883016793456712,0.24919807365777137,-0.09613155763210157,0.07643841464813343,0.24312174903740497,-0.015805783717269648,-0.00886462611252465,0.15422995584108924,0.10653434962427619,0.16833719051545235,-0.19387366487301767,-0.004585674148426559,0.04212202355859799,-0.3962855619515876,-0.41345467232629437,0.08955005444047465,-0.17781551470862268,-0.10646647780387822,0.2410144854215334,-0.0068303637380570689,0.05133317287713973,0.23834694407920699,-0.2412871535880099,-0.0057299335509801599,0.26192937164084809,0.24900588797537735,0.12407073166618461,0.17540993087726423,0.10747650238429632,-0.17920424362327515,0.023811158200644956]},{"weigths":[-0.029139710337137436,0.002713182824869351,0.026473546257364784,-0.12978878507561948,0.06276602832944428,0.09452277595937797,0.04523799486869014,0.10370512728588394,-0.06246325502246195,-0.1742514887968022,-0.18570083102275718,-0.2332104603430416,0.20663591172055988,-0.13909965655047036,0.11383730412227532,-0.029260380195038944,-0.18951247141441628,-0.049916973168864769,0.020738969530295739,-0.12136653725370746,0.05493688968207085,0.06847165904790115,0.1272868919944617,0.048110202340310218,0.14328930693386916,0.13137218517226027,0.0118069976604819,0.07529277516205289,0.17586585404408407,-0.0768656336317234,-0.18421200833882668,-0.15536390877293194,-0.10170853103321313,0.056827772158049159,0.16818602340052084,-0.05893425576842582,-0.10901938028555078,0.11169606152772839,-0.1696133469592621,-0.13443454694248975,-0.02005367559616939,-0.1396949127969562,0.009053129963444635,0.15824357941919538,-0.13360893527746096,-0.06398617241819706,-0.21878090013054894,-0.2843132569078757,-0.041813933474124858,0.0032416401316445787,0.0908346651967523,-0.10331999824909752,0.09245778232907995,-0.12799655964613705,0.20743824782357168,-0.25028169268019309,0.17118924864012786,-0.0275217940192481,-0.05549187703878797,0.10258081399439893,-0.14438415748760229,-0.15950711383091968,-0.15871815242595409,0.05931475312025268]},{"weigths":[0.07949239945757826,0.19389397946457766,-0.14874812105047639,-0.1675535443551442,-0.3376778674598331,-0.11210375405963649,0.027590312009602368,-0.13277708310934217,-0.15312892854655034,0.06590888792836404,-0.03043329454324415,0.23978741098621174,0.07345175424818336,-0.14625989422507539,-0.17873416353009717,0.020645724359684045,-0.16474974856996572,-0.07838461505042314,0.09107083624200548,-0.03474625653074011,-0.17115811073028387,-0.2576663202666808,-0.16209259730547125,0.09587541103335159,-0.30943191088860119,0.06302054408430766,-0.08982072833872341,0.09328849720322982,-0.05712238103454996,-0.03416879246240098,0.1256966825109505,-0.13332366624573276,-0.1515766371163619,-0.11708736897671605,-0.14677986469127733,-0.11986144103889605,0.16216886215148219,-0.13623317061964547,-0.016138752306281508,-0.03515683848531762,0.03732765461205755,0.1182852146135489,0.050967484421581898,-0.05055458760440865,0.017844767881604385,0.06761694997086589,-0.1497113025009154,-0.23400744142789965,-0.271271448380351,0.1272404278145065,-0.21366222682091705,0.21159556915499126,-0.17459402748368597,0.12190155321509543,-0.0516511887644816,0.16821008784529777,-0.1077151765450526,-0.02526726175560616,-0.17688681823709297,-0.075974419859393,-0.12893411627624738,-0.02987373038709141,0.19286080613832105,0.15980843847024493]},{"weigths":[0.12407524122143188,-0.042167817286901058,0.2667578603726478,0.015165076089779581,0.09475721417406608,-0.13336997978151078,0.11407075893473012,-0.12541163813675777,0.06696297315113892,0.6203894098666688,-0.026726309806132384,-0.12219309599772103,-0.18449241883428273,0.10305224107953923,0.31138915350762388,0.2219207054730059,-0.07479330004131366,0.08064342117056256,0.08767177158263158,0.16791727300208024,0.0008200095954798894,0.0070395395028075668,0.18291951383697073,0.10279827205162429,0.14046142047509906,-0.08887340933699797,0.1479959626872923,0.44693488530760436,-0.07445016415972943,-0.06296081165789981,0.0044647503262401099,-0.028175213088336549,-0.007112450074180188,0.21564300484365862,0.3997434567009783,0.07360977383600884,-0.11753135220339221,0.17616562016551394,0.0737009224017576,-0.060166942761960866,0.10704765061579648,-0.11603638607625393,0.10747115141900639,-0.09616414510972082,-0.07449587140020928,0.17806821020578435,0.4144757993640604,-0.05837498439781778,0.08836641411538968,0.19571429564241614,0.03269944985085542,-0.053050786431782317,0.08259414616319168,-0.02343244697661069,-0.11682099405030075,0.2200925758435975,-0.05301364733635991,-0.13196820891195105,-0.0003467708309444998,-0.09553443692881458,-0.030156642956785545,-0.14464790483972138,-0.02477186376259057,0.1312880382913325]},{"weigths":[0.020534654441085134,0.11430584939815784,0.09483898809253748,0.09311826727077528,0.05626148490291649,0.029056066339652573,-0.07048794957940118,0.06938361445932397,-0.0644762706492495,-0.23935083377026723,0.09963158032235582,-0.17059530863465703,0.10906415085211074,-0.016301192319752784,-0.025515704059803764,-0.13683416060901894,-0.18553203746461226,0.25425182847795349,0.042198057840243139,-0.28706518106687098,0.15421796157205074,-0.02699030203402305,-0.02273583460821415,0.2530834044978246,-0.37153933566007188,0.11648363923345534,-0.28792370688129706,-0.09692881628381238,0.1365099748932521,-0.01482029605499614,-0.18787592934031178,0.19068120642209597,-0.08590576275895164,-0.18114847168230065,0.05911437945878959,-0.029343768712133856,0.03945693022411215,-0.18344223217777179,-0.0172755439598285,0.059004842889961047,-0.134251554721763,-0.07708138837172127,-0.02618205728550744,0.08864167231059762,0.10496593555104519,-0.117031480110133,-0.22234555715572036,0.16091557106467206,0.05659413795912257,0.1110338529451027,-0.12112029674827765,-0.047917898995862708,-0.03645829687038324,-0.17508086356596987,-0.06419626225667152,0.36563843715067126,0.2672461214750349,-0.05101127848798437,-0.1488305687884092,-0.09281729857355656,-0.23471218258218705,-0.021518352054172613,0.13590141103752532,0.28149247040293526]},{"weigths":[0.06915004091614735,0.15999383802452306,0.008002110058219955,-0.29547521639057786,-0.062071837781826708,0.01862971557533204,-0.06331613615285806,-0.13863623612467847,-0.13693721486783026,0.46778402141298427,0.1860114384369868,0.1809598061053217,0.06218190508413793,-0.050695758294959297,-0.18216512662415636,-0.16855106168076154,0.0353824937587501,0.14082324432052985,0.16938746655967133,0.3969567162200017,0.029850045143823106,-0.2682467372946466,-0.12842687028022654,0.13037581284021017,-0.17481978407275035,-0.16782352655680828,-0.15756010291195989,0.4246211532235876,0.07369246019304415,0.09432890322767604,-0.1280416419707737,0.21741242460781405,0.1820434799295885,-0.007596597488515629,0.10789366810180616,-0.17259836764568629,0.0488212914843379,0.043109740568011697,-0.17363064490259687,0.22439146990118939,-0.06593592856819433,0.147953761327632,-0.07386223903240673,-0.19026543669826247,-0.06041918412056688,-0.058772323696603668,0.2258109228336423,0.22752018334789327,-0.0012192595797785415,-0.021932497905774285,0.020935031584192886,0.12102665174146143,-0.10459437628406833,0.24387167200012309,0.017542381296272177,-0.1409227685724361,0.029481418719275865,0.06134979599541382,-0.002903915685068552,0.08216730127106228,-0.031944719295484928,0.13725646129344966,-0.0762117706963586,-0.1712861218626061]},{"weigths":[0.1369681592223357,0.056657213534331837,-0.09766396332748315,-0.17088162548336228,0.006023806758845581,-0.06116960773164702,0.03733629587197361,0.12035361645657127,-0.011133402305780716,-0.2020485664451567,-0.27997158508130479,0.4662143554901578,-0.05779254969474285,-0.09092290313674616,-0.08182824628245149,-0.135784688758239,-0.12375850987393609,-0.38781168258526746,0.13009992929056986,0.10082742459519387,0.1448505945133956,-0.08184080799200112,-0.10175052480440512,-0.23291614955777796,-0.08270158927995106,-0.10515001947588712,0.14367044427818458,-0.04189760055160372,-0.06675812472128043,0.0484111515545916,0.02004889357477657,0.08840450734263843,-0.04687645817419088,0.09796494521318415,0.1537762907693592,-0.30635616457753198,0.05822556030557102,0.12319289911927795,0.12461720872552135,-0.089830153884413,0.09059950363248544,-0.1340676612061297,0.13550816354987495,-0.05565858785436757,0.3199344081615865,0.1250227108235261,-0.2909145694443111,-0.42509484419321777,-0.5065293634638283,-0.1015833093677304,0.18327790741249506,0.10727714719539262,0.033304535455387408,0.12736305272657073,-0.020040858902716554,-0.06192583370657522,0.04080238377684801,-0.08681537095675593,0.27612834875122196,0.08418838901156239,-0.08313860344960524,0.2395807939904158,-0.0520566121961832,-0.02127679420504355]},{"weigths":[0.12033256628609855,-0.23275547318068785,0.009331495746076677,-0.11815333335387841,0.2116172983865714,-0.05892970126942228,0.3809122299985092,-0.15099488375653398,0.1333315851136082,-0.14494426462725255,-0.043783699472298539,0.04664371228959575,-0.01992239885737985,-0.06939829715529926,0.24325725364757659,0.011626760960925829,-0.08787660230831382,-0.17883471760176423,-0.10363791600547603,0.0453280950892294,-0.19830043608375476,-0.07362138575612194,0.08692440385159989,-0.2629228208956659,0.10033683744056638,0.06186475049538182,0.20943117988162844,0.04216767629072311,0.08986280242090215,-0.17744463907284434,-0.07505585178301223,-0.1623933621588117,-0.027644637872614246,0.1782494272800801,0.35180981900874849,-0.11778242359897409,-0.033341136924037489,0.3202350849956906,0.17324758296485064,-0.030357232625422817,0.15336310983695435,0.08575298015189627,0.11952991750075859,-0.11134345008945448,-0.007799446046608216,0.051336978112575318,-0.06876687571556538,-0.4404035484830823,-0.04058955967988501,-0.009676901768967468,0.2864421374011284,0.09876342240494966,-0.13213745247830506,0.1472677656045507,0.07698673338775854,-0.1169560432450414,-0.1350801908278158,-0.05851073255864859,0.03271628380391607,-0.09507316449777689,-0.11868080727174434,-0.1116674765206067,-0.015107208483411123,-0.0006169507613325825]},{"weigths":[-0.03378614368521488,-0.11294708112604914,-0.024924244350305069,0.11918522462134627,-0.15645142075438304,0.2179453955529113,0.07651136485292944,0.1692319795227446,-0.10178034235762727,-0.10961390445409027,0.04436199632563365,0.16798056236630436,-0.15109088346534106,-0.043227127679456318,0.07550493721106734,0.033940505102793127,-0.07566959825539184,0.05183002068313879,-0.06200509309217457,-0.108526901261638,-0.1718017942627328,-0.11699941995216726,-0.12160901422597147,0.08333614991029825,-0.1361491210608496,-0.09691841887870402,0.03198553093996906,-0.1306478342284222,0.004021288743747288,0.06767818667336838,-0.0075891262758375518,0.1933470291092427,-0.1563234184811877,0.18024098862023367,-0.062348109570200298,-0.07996405146927088,-0.06455633772147981,0.13321051447444152,-0.0037358361321137227,-0.09351972830724832,-0.08755407481750834,0.03983669216744369,0.022668927823645676,0.14170085235908548,-0.12516338387304325,-0.16667298417993493,0.040469960759202488,-0.26915509044562038,-0.017608789610063088,-0.08688787141437343,0.03511272712191128,0.1032106818405722,0.16466838236644783,-0.12042676924947805,-0.06454284269804198,-0.2222973356186915,-0.09906794388356993,-0.1416650825822831,0.13261801690747983,-0.15170040864763147,-0.01900263007249088,0.12247596871951096,0.033208584556000498,-0.03431628527040276]},{"weigths":[0.13962090309363368,-0.10205394884016828,0.128622601571533,-0.03254827417551335,-0.13069375195400893,-0.08244927211722673,-0.1446505364160567,-0.1718834767709873,-0.028367457983162097,-0.06216502293059468,-0.16930491404700616,0.01255273874768006,-0.04378965858237298,0.03032906863075359,-0.05771422847231769,-0.11136298459561558,-0.017015678508345228,-0.1142821474201416,0.03787963882985724,0.054072744095048457,-0.010981259523878582,-0.11823713954095178,0.004046545076136818,-0.17596401895132653,-0.10914341298899713,-0.12002545309153434,-0.08224745479684197,-0.13596136824415423,0.0123694512850211,-0.02193262285509799,0.07050736845713433,0.07547947845244366,0.10916024653823138,0.09136194002875185,0.08679440366490884,-0.0029364701619107147,-0.06155409304651622,-0.06543543356405976,-0.09028523507948014,-0.08596812243878502,-0.1640714524698919,-0.1171637032269988,0.03464201493016209,0.00929072707768083,0.0751626386669573,-0.16090493666963513,0.0027917369831020469,0.05469449545601679,-0.0264182500272778,0.12000286156445568,0.12068705909487654,-0.006377213337141732,0.06940440143082694,-0.013137129870210806,-0.12428839515524933,0.1187686626006815,-0.06928412856775802,0.1633955454197684,-0.08643700810492089,0.1659270971461337,-0.11145037299995343,0.024876566365628969,-0.07492471629189461,-0.1490079435418685]},{"weigths":[-0.04296101389594777,0.0262669615774062,0.11206205342381028,-0.2225047157648792,0.42533856798184196,0.047316264046660099,0.2704387278472417,0.03715379976508099,-0.05157101748352887,0.10279727249833019,0.17068863315962796,-0.2575254139221204,-0.06407228314560663,-0.18895371237830056,-0.18785462788397448,-0.029758170559540777,0.12882756720929573,-0.09181348613637668,-0.1750345355178372,-0.09963281731424947,0.03442632595371621,0.09406354364088061,-0.021889319332466525,-0.23965326408087182,0.24735932316459939,0.07416781402009959,0.32038391655075029,0.12008566125446386,0.11299072383644883,0.057672635907494437,-0.009478547085830567,-0.3080723990029164,0.03891457508876912,0.11827717837571832,0.031841310529486178,-0.04342635789536071,-0.006282077050975091,0.05539912122187262,0.1711447771752556,0.009054482353214369,-0.0706856234304671,0.0860347793356767,0.03970868743364756,-0.09728149201690434,0.005275269181504353,0.23714434918387398,0.02185844055926987,0.2273409166066992,0.19770774915356899,0.014680884941390495,0.14997448936675435,-0.004704096061871707,-0.15655978200360969,0.11876739401908888,-0.012403027704355544,0.014443659411175373,-0.08291846324305956,-0.05507772318404206,0.19893625568188598,-0.14259362185495615,0.09310337357514692,-0.2884632592974178,-0.17125767591405553,-0.2131506982828966]},{"weigths":[0.01715446555022886,-0.0633286530730055,-0.17693102650515889,-0.0719035829773197,-0.3210299204391748,0.04314207892107267,0.09464529047629368,0.14561449264013627,-0.056261001551839589,-0.08049886601283318,-0.018717638205982175,0.014349380011505472,0.15351590211202324,-0.1637143895203415,0.1317072074962384,-0.07077355983253317,0.09017058064888692,-0.12673544732367335,0.037293171329923029,0.2817422814939497,0.014481077223660523,-0.04044976165166533,0.09027623372648858,0.14822848418922697,-0.15859566253202393,-0.12995889137809167,-0.1309147811765868,0.034534474800885919,0.15971018480295946,0.04338570335018088,-0.15931246567630409,-0.13448575421762966,-0.145784221939034,-0.06064483626446376,0.09189905755719875,-0.27064774865675225,0.018662276323518718,-0.02006550572114365,0.011179012586441204,0.03447725497132661,-0.14067461597723378,-0.1468734158242945,-0.08097089294875049,-0.021758055316906747,0.15277477133172777,-0.19723485757237028,0.4891744873517141,0.0034579485750516269,0.08319643684256202,-0.21156884025713655,0.07107237222829718,-0.16282536349787769,0.12974995116334943,0.12983722587291725,-0.2630330455327352,0.09863022651448325,0.10079167721808835,0.30082410400788459,0.1331142716066351,-0.03771323396307952,-0.14013254703170756,-0.04853138664543531,0.04535971094447294,-0.2370479146150701]},{"weigths":[0.08829042347692481,0.11100458622611503,-0.012009071372713698,0.09314285726781764,-0.346431438853457,0.07142822883320975,-0.1248511977578705,-0.020366937896145327,0.04375139662910109,-0.017928728182490404,0.1753769430802846,-0.23185549728422429,0.12449998252619714,0.1394987320499266,0.01971950180188901,-0.0698344771155067,-0.18550883949187733,0.22619496244495128,-0.09559300908116005,0.16434525734621972,0.15819702050650959,-0.17579546110537967,-0.0535058485393157,0.5128827136697119,-0.4344717556833739,0.14181465442187084,-0.35007960248887046,0.03278560665416622,-0.12471587920374189,-0.21747442629754269,0.15250859760577399,0.18910312636336527,0.14853442407442225,-0.0951252271779348,-0.1629561454928855,0.18538872163558318,0.13957059701178746,-0.11640221384133488,0.03387854128524303,0.08547149604010818,-0.01630620382952812,-0.10420818337080426,-0.02139616987912623,0.013557470715135483,-0.12600486877822834,-0.20677666890357786,-0.1436145670538104,0.2724660286189161,-0.22846104767205004,-0.15432120158492547,-0.2758239485609394,-0.024227692607900334,0.09862254525425492,-0.06260243762726728,0.05014360528789381,-0.07027826460066501,0.17027150955752685,0.025287737967838166,-0.25761887780686945,0.17015451532266816,-0.04462717555802035,-0.12368885766236967,0.017173043599856508,0.12095491897202442]},{"weigths":[-0.06499387541997286,-0.25282239469590436,0.053400801822387478,-0.012687243771503666,-0.05430230917874932,0.08440633294274964,-0.23263438894350733,-0.01949467340681688,-0.04241578002522134,-0.22575247193274879,0.06253710307531815,0.045154688981587708,-0.021495778054278115,-0.1813193324342813,-0.20103129088398495,-0.0313725605705391,0.11965238830576743,-0.0037745859282839026,0.1094070804095703,-0.2717862308057278,-0.18979682397244869,0.144561640676864,0.00768995953139902,-0.1525185033034549,-0.13137864584032939,-0.10776453720017786,0.08822824739833443,0.10645489342781695,0.05128410349539291,0.1719183264688112,0.12157379754502323,-0.04216355350398369,-0.015309486517136659,-0.15781047070575095,-0.1953679380356568,0.18299098150123167,0.08026121829015608,0.16277333922872007,0.06734978857013169,-0.06616321121350091,0.05978710407767951,0.16466900001205596,0.060775471422881508,-0.01732584308238147,-0.07156070961041469,-0.09311978339207393,0.11748544172199323,-0.0959687087410783,-0.2748103746777812,-0.18726371056898784,0.1559509758866511,0.15136859117480726,0.08944533381108132,0.10928687788057089,-0.08903752806636517,0.023446703270218765,0.17393238282884264,0.000013461856046539153,0.02659164130072634,0.14071084320933117,0.1920525338161123,-0.027023941836424579,-0.18387079178595126,-0.30345087010699159]},{"weigths":[0.15154531740998279,-0.2857667033851236,-0.011614364087625588,-0.1491733522449716,0.05661786241556962,0.14200475418401455,0.35631842091178758,-0.0936639818353366,-0.08449788195992493,-0.03939436783557323,-0.0754547557635983,0.5261036560556258,-0.1617135027706443,-0.05269472269242676,0.1837989058104051,0.06368279883076134,0.06640962850956012,-0.31141043189695297,0.07978139080636462,-0.12599729947674827,-0.5407983931659939,-0.04023345806959399,-0.0026877869399352194,-0.24270824230737265,0.011256862195213217,-0.0094309152228953,0.15348004409576397,-0.07911258134380446,0.06227157409324839,0.14634530021827886,0.2872166078764556,-0.11253358634559177,0.02951531925479653,-0.09788621610176229,0.33153409611852277,-0.10147685063143657,0.12460308694488349,0.176410491583419,0.0059440778654467969,-0.09873310387870205,-0.1358617000767742,-0.029634219399599428,-0.14339812778100134,-0.00883705881234972,0.06034635496376107,0.32837679308124737,0.19766908854192234,-0.22028114807081035,0.07543709021120535,-0.23140047646554513,0.34703126120051488,0.11732617173605616,0.14907366685543853,-0.15786526578906436,-0.2677233097202614,0.4591053623234529,-0.04229938116658423,-0.0934236318108931,-0.019851130592851989,-0.10822911037763436,-0.02873556656299348,0.35239335346441849,0.1018193208160652,0.09540251689914411]},{"weigths":[0.1351571671513833,-0.07374505076234513,-0.06682385814847562,-0.21571136734784419,-0.04820203493163656,-0.03234823127345694,-0.3638586733011038,-0.1475365980360263,-0.08372302697465653,-0.0026294143214724864,-0.14849600023759688,0.19178729448521024,-0.033148053995610219,-0.09175750150337489,-0.10832023594068362,0.012841123772490415,-0.018917348271575413,-0.13753172117334384,0.012468483654667429,0.2399045527975505,0.2670552956664187,-0.08889236133252891,0.028272907826807134,0.14078835983665026,-0.21979644638501392,-0.027060740115274513,-0.5860459087112468,0.13529796838835132,-0.14812216614517455,-0.19579824661459409,0.03996224483752889,0.25318033922957536,-0.07935515220494874,-0.060727477035766978,0.03390458986985819,0.06731573227499017,0.07018808394430447,-0.09145269068162719,-0.047796968103818528,-0.1024772225574717,0.16161196727788133,0.0928145769410174,-0.020398171737162186,0.13140218825874526,0.2155715610478097,0.11551785124393363,0.1692258562230281,-0.025610680300049428,-0.05141964257357989,-0.22311834321948627,-0.07383778937038464,-0.11168204790495447,0.15712427957146647,-0.12432324486479073,0.07273449517820077,0.01761565835383999,0.14305590137813482,0.12310374893414206,-0.17417500606313877,-0.13151230838569004,-0.005742651460804165,-0.12599892139620007,0.17337893770829605,-0.16608175421182409]},{"weigths":[0.10963392013092649,-0.07893043477196664,-0.10124080875430713,0.15731633420276698,-0.1249304494843644,-0.11725130795092893,-0.05150968430749104,-0.07837025591703818,0.14220160477865416,0.11947227080237337,-0.033480660513658,-0.10557602825172234,-0.166629784948754,-0.016607025185301766,-0.03778299378468063,-0.11369446618690428,-0.012303268222197316,0.05849749657654222,0.12142756566645326,-0.07183838570098403,0.11700598552625892,-0.14532528578176766,0.10801960956538098,-0.0335540275296942,0.01556999695316415,-0.1147564946818162,-0.11511103425472813,-0.17251438045145468,-0.017048976935047715,0.09040292555658088,-0.09074223586325539,-0.19447650121135114,-0.0682270815758937,0.07816487684721985,-0.048555273820149149,-0.11445770012252875,-0.06591974062842283,-0.05358157834616763,0.16446648266746037,-0.14267262146871799,0.005279894067770117,-0.03578267716109573,-0.181864503496968,-0.1280715737198852,0.16876061580511873,0.1133168089857744,-0.11858842550968897,0.019771289062993977,-0.17732797952901659,-0.053365493574328567,-0.01703817466565247,0.04526501830597686,0.09512154228725749,-0.12548746459731159,-0.047896581437169339,-0.1630549332128776,0.12104348006523597,-0.06228902765612229,0.08173707223737115,-0.14836268378794255,-0.0026001920004283358,-0.04189061573904605,-0.029379975212481536,0.11491029832243613]},{"weigths":[0.10525764784023556,0.12016557727192674,0.10795994123186217,0.10382865567350576,0.20205728134944557,-0.17221330672869804,0.228233041868822,0.12140572901636042,0.17478384986100224,0.24300862328857385,0.0048113398491387488,-0.019868438067730464,-0.034180209378727507,0.11925137717223743,0.06151787032300688,0.12391376077683152,-0.012280621004722596,0.09693983198964858,0.05118564950912247,-0.020482512730919175,-0.058367502170656688,0.1805073799840477,0.14321754832859188,0.10772269898857487,0.0827217876055981,0.046014733083931547,0.26835776642038458,0.0701900396895354,-0.05938840087245534,0.08707173381235119,0.051646266521704727,-0.11912032989745536,0.021894933051970646,0.03999683769312047,0.02468618995752042,0.07610663632810909,-0.02544428871826875,0.13688636747522774,-0.1609027906195571,-0.03114161068421662,-0.06292329857155794,0.0025043305073679268,0.21435859147129028,0.13028961836947088,0.008376216881611396,-0.06963701781129483,0.1714914912940353,-0.12616024476663299,0.13948235259905054,0.09583879446536628,0.15355267995449177,-0.09746044734667177,0.07402358373932969,0.07013696919613935,-0.056722731008284257,0.16284335426916625,0.14822543055294877,-0.11835194221254258,0.21611571080200488,-0.12810761681331976,0.06553794534549187,0.00029242615391434344,0.16165398252643629,-0.004348395923612135]},{"weigths":[-0.0923996706602871,0.0054140482704228879,0.10678372219380933,0.14168494570669078,0.06792472446264229,0.18645707713509616,0.19673171147141667,-0.07387086133992238,-0.15726249898495776,-0.08340599543950388,-0.12582548489701479,0.297295569599653,-0.15302914057945389,0.20951138768687389,0.25705545110564528,0.29095632073211799,0.08989260256601114,-0.18211952373363148,0.1311928421224922,-0.44580282738343077,-0.05492564932642182,0.2079006971360183,0.10476117085537304,-0.33013059075731468,0.2677947974305088,0.1322520028835731,0.25684688741250979,-0.17251933744635973,-0.07086904492435768,0.029286407030947725,-0.0811795640580767,0.07455938107012271,-0.00734281945050513,0.07972247282062234,0.3147514778139887,-0.152964273455362,-0.09742616819668491,0.17373152615593857,-0.020250888364864804,0.068011965233327,0.12905349434097447,-0.15610145532695625,0.30058004781935307,-0.062028291353449369,-0.12037996629965275,0.07051771896706612,-0.53742587399861,-0.3224203429124175,-0.2518585705003706,-0.14387403434854147,-0.24853297527274596,0.012210644946496557,0.15254068349931314,0.04340775958713733,0.1183286219897243,0.0727280548192674,0.3240571592294781,0.04113145762457235,0.1647425355790149,0.019878167492598569,0.07137161602772893,0.260460579503248,0.19156367469728739,-0.2907044999005855]},{"weigths":[0.2649785908134068,0.08256250864337739,0.044194440435844268,-0.09573861568493197,-0.21456506613099503,0.053299461126783149,-0.013503520560779888,-0.03391421915720013,-0.07830783413840362,0.43971200107968896,-0.20971834314582186,0.006473298408233236,0.10269896668568973,-0.0509273005048495,0.10023643419590213,-0.1400737284170209,-0.03861591869251789,0.1295006473741482,-0.04112258755341963,-0.055761996424952168,0.10196485792209417,-0.21148783273609959,0.13044494808532212,-0.05724497256232962,0.00919046568834863,-0.156240699393117,-0.1496890155330011,-0.004080418410794052,-0.10144488023335394,0.1748421681236203,-0.05597583465378909,0.2830444493650069,-0.0840577061872151,0.04702283980113812,0.07587985206893304,-0.10743316921733384,0.022822836063540177,0.05192487558058811,0.03491818913668829,0.07905333341950109,-0.17394780086167858,-0.09275870374038842,0.1713146862030943,-0.03147811227822034,0.012634759878554317,-0.21511094171249577,0.21303300712230867,-0.2518300058788522,-0.02766793270100238,-0.10918093375175633,-0.026948779146920407,0.18684455942052573,-0.05402354272415121,-0.011809792158591685,-0.1196813531321084,-0.017655239078080078,0.1900306332879629,0.016585999031128588,-0.12903574501380297,0.0010183715892527639,0.10212663019515732,-0.13867395716255707,-0.03691793620799845,0.054770286848115187]},{"weigths":[-0.12105633903093807,-0.1714722216355471,-0.15982386312013789,-0.13346631253295297,-0.060208436466150389,0.023693273669524556,-0.11110975557700446,0.06904063260291574,-0.0626186148253349,0.07956480144793007,-0.03548662401278437,-0.03126464819776358,-0.11596723127618169,-0.09349038902799252,0.12689377943964545,0.1069768293695613,0.021235887499872154,-0.1070076373337144,0.004150665325863478,-0.07537009340742841,-0.10775984675910214,-0.053475480418402918,-0.009031127988868427,0.07499522374993205,0.03138747742480676,0.14692283895947304,-0.0029648482953860317,-0.16067848336610439,-0.08961354217914164,-0.040977515403279509,0.04011913907982416,-0.05241107979858746,-0.016716741311815207,0.16157779890970987,-0.17517458660378919,-0.03456264252215757,0.1596628483030532,0.14519341039363008,0.01666607332514519,-0.12958193740270727,-0.10948273311977533,-0.054381609483055867,-0.15236244356609275,0.046989618800754816,-0.11956121612575005,-0.002340656646630228,-0.02708276151697249,-0.10512564850482292,-0.15815746860235092,-0.13667218447935859,0.10436579044090815,-0.10165009950484574,-0.03122617625132701,0.10657256247005315,0.027509739677292857,-0.08039073413961155,0.02087833088649919,-0.01589984250298305,0.1057629624280188,-0.015943979564075944,0.014991309049718505,0.13711990033115538,-0.05982582108821789,0.14444585696675189]},{"weigths":[0.011936728784464508,-0.009699205367115218,0.09493717942499562,-0.11782229032203477,0.05307597420737377,0.1870360362744155,-0.026374413083514838,-0.15575747419239986,0.07076323197362233,0.0197618355589418,-0.10586993480286504,0.06643697213981956,0.049445697432271559,0.04455476385117838,-0.06566664745096378,-0.02575230332749795,0.11830727641719922,-0.17010149911031018,-0.0988044071867521,0.14455410259279356,-0.06659936514904018,0.021743782351353666,-0.13944296089502426,-0.20736574857943669,0.15128546754546619,0.05084006548699928,-0.14526387783615128,0.13627180911938323,-0.11192071419697933,0.058776231931220789,0.14795865483352733,-0.13993917066206253,0.06971828409332044,0.027483097347977757,0.1548850836138594,0.03198225142350088,-0.001545819477362788,-0.06156541219666668,-0.0006243187955349645,-0.03626313241081237,0.05378505550967469,-0.056028539152472339,0.026098549666552907,0.12658489540720889,0.043713181615845458,-0.0337535532935807,-0.18273723559246819,-0.09975180836688569,0.2305879623486074,-0.09423533810812247,0.19035547143216725,-0.18690865330022,-0.030857806519388965,0.014766951804300427,-0.07290590944119443,0.14861085248132947,-0.092359133049952,-0.15233283420175446,-0.11953648203006942,-0.05028719948739959,0.14739228629817359,-0.045704978890172987,0.02120450182235528,-0.07275831995149579]},{"weigths":[0.15907640641874813,0.10667859110858502,0.1511828731398108,0.10214381023138253,-0.0653933665072059,-0.057533767891011129,-0.22800946790117183,-0.14101991798174247,-0.17231379122204835,0.06081071584101547,0.04404531998376634,0.03967224495861632,0.07725702062220936,0.13332422354362068,-0.12047664894806015,-0.11440489852525351,0.13004411194362357,-0.0061087226133272839,0.0922900602112151,-0.013451975677774822,0.04292873419980975,-0.1917369217470187,-0.09905358330522578,0.14257425110859893,-0.17089228153320838,0.13097081666832964,-0.2735774732189038,-0.3215661858989142,0.054806808933532267,0.026073359691744417,0.11970273867267259,0.11513926706248609,-0.08986648356552105,-0.1087448573038507,-0.11753813802159492,-0.13999591264045126,-0.04939992061108001,-0.031127139056772766,-0.06976804341583348,-0.09323495975692672,0.05228085885122372,-0.16900906554304868,-0.1538171203852472,-0.005458414652918507,0.16359058776259043,0.1692303192639278,-0.1161910002289775,-0.06434350709058535,0.08118518054009642,0.11668319652844854,0.13360593267992694,0.07007545634732856,0.054457842208224877,0.025441300796765835,0.11072254155837495,-0.0436306495055497,-0.06517621414796232,-0.07206235238279567,0.033838376011426887,0.028916136312713799,0.25390177712781289,0.09566370710732168,0.11059876823334646,-0.0861750029304505]},{"weigths":[0.15667663654277703,0.10597532825275417,-0.03840710708187017,0.00003241440608873485,0.10597300030859892,0.07395315244951754,-0.06086136604571373,-0.14411925436463816,-0.13302438330967068,-0.2856152079457374,0.08111438982087209,0.0386570565391079,-0.12052100683159783,0.03862250877823587,-0.06717879293984185,-0.2587904564748754,0.09499261762727787,0.10622415293861642,0.045214578525735838,0.08553638789794754,-0.08682522111049303,-0.1112427673603195,-0.046767854466476539,-0.04185884628439862,0.07193733127443404,-0.03290034991085818,0.09160835950489935,-0.08522102880626526,0.07286523224154547,0.1052588373457627,-0.17287936216309317,-0.006271807125537481,0.14853881292904953,-0.0757190897971578,-0.0715031641152572,-0.04537846692201476,0.052081505325486377,0.11816646810347596,-0.0018672074956859729,0.07964176522804442,-0.13931704272608279,-0.09245665337246713,-0.08719349474924591,-0.047493745254531757,0.16971816865107262,0.15903146500875557,-0.17627154111799499,-0.11507782502200997,0.0948744442440883,0.11694240645913594,0.08824455397697637,0.07480786945531265,0.040805158993129458,-0.02601050674858626,-0.1869363957556945,-0.15181266014958895,-0.008719805250237977,-0.013016507908265758,0.2005876208552989,0.035389067421054128,0.05386201535278305,0.04614003295231009,-0.049131401169068358,-0.014152864009033768]}],"Biases":[0.017484991005178524,0.22650536058023833,-0.3213620451072836,0.010941938723436018,0.10155649271599468,0.017113561413902448,0.20138083611061498,0.2917059670639801,-0.025887071591127087,0.059031239102314048,0.14560057254065299,0.07039262673819057,0.08363256653291615,-0.3762860607690244,0.100614319949647,-0.15962698077692534,0.003190644777544394,-0.0038547363220288648,-0.014184738318296982,-0.36556539223290565,0.4305851010001238,0.17843123999168324,-0.06555802231528653,0.3618468469736114,-0.07549494723211701,0.05205813233289881,0.08296172568872747,-0.3193668114879336,-0.00910326471749097,-0.061100169431156797,0.04816415608290766,0.08099805077810328],"_Inputs":[-0.005140856643543138,0.004446386291439397,0.04583465603312502,-0.004682281861029505,0.37720726975369459,-0.005234924300949375,-0.005131681578876954,-0.004252670018200462,-0.004437612137971606,-0.034659759088238869,0.3247018274954733,0.5841897063021134,-0.004040614640552814,-0.0016421509686122664,-0.014301766340197505,-0.000470622109962415,-0.0003659469667418269,-0.0033400417149952695,-0.0020411460799730784,-0.0007908027842199175,-0.004272983706566142,-0.0005150620181340124,-0.002866643073803469,0.1383146882160756,-0.0031339329676781564,-0.00269898316849813,0.23020943946512835,-0.02783397978503787,-0.0046646659105875599,-0.004165576514483478,-0.0030929500977857728,0.17622235216032607,0.2811458972186631,-0.010170270480274049,-0.00047927841698710395,0.25165355622529458,-0.0013995353300805386,0.22719127932432529,-0.004164305448956594,0.1329553652985355,0.30655332963339845,-0.0026063320340499105,-0.0014616775588803333,-0.002267958155729808,-0.008401195122786584,0.48832383029167877,-0.0033514491212727137,0.34038337050035896,0.15196391730026216,-0.0008378779174589557,-0.003840442085131918,0.017141882320231416,-0.00297847620088639,-0.004490574666656502,0.45754037638128539,-0.0033305175533420697,0.07502602397393399,-0.002178738249777424,0.20387694884298825,-0.0014986551013745765,0.24834583732587238,0.26226896956079107,-0.002158131728629373,-0.004842703051261503],"_Outputs":[0.2186676841711725,0.6118196532158611,-0.7822527637866634,0.023195134282006745,-0.20839897947066356,-0.1873897661466699,0.38638822007900777,-0.16181711011773587,0.2433331458804771,-0.2867763665699746,-0.1749866580064855,0.09628788933847878,-0.14931550769315439,-0.11915034569596095,0.19065255813156666,-0.16490269870716474,-0.11491249967359552,-0.32937662786591018,0.22813060857791657,-0.9005526190440771,0.21171914689619679,0.19804113537346269,0.2396552037649216,0.35653584792244527,-0.3155612204880912,0.1827173935852577,0.4111538101267659,-0.8253309132659545,-0.08611925486652449,-0.15643140727371186,0.20638961999384046,0.2565918467555109]},{"InputSize":32,"NodeSize":2,"Weights":[{"weigths":[0.3544361920863711,0.2361589220402835,-0.8513087622785295,-0.23347585339917785,0.9615264752588031,0.24180404421017094,0.9293696683482658,-0.24078878066126919,-0.7441153074968422,0.7475920717739882,-0.1120166998480189,-0.4935683189908618,0.32433646444879829,-0.6092123584856518,0.9008295868821906,-0.2869534034356165,-0.3405884885376647,0.566054927587938,0.002996531090486778,1.0260277955946198,-0.13140000474864786,0.66312145161849,-0.8471675818362215,-0.15783745606079553,0.6315546943392112,-0.2614288113917075,-1.0340786194774759,-0.7632922132556419,-0.1234693483529421,-0.4246314710954593,0.35272659211450865,0.15072638823024524]},{"weigths":[-0.25307159848928897,0.788486128142647,-0.07540217717031647,0.17668416415221295,-0.6969360724391692,0.26813735884957376,0.40555533791580369,-0.9976435781516332,0.6906344823909348,0.40239208860797479,-0.9353123928748036,-0.2083552443200554,0.5782092652966646,0.04209291729468465,-0.2163304779546373,0.9983497026658378,-0.3334904910612996,-0.39755874705159185,-0.6081041509553786,-0.5311070560682385,-1.0863430996346229,0.04507418157408638,-0.7274686909726355,-0.8955172996969285,0.5049888386909509,-0.2810560190754833,-0.24560016089847698,-0.29107602557354508,-0.44359080220377947,0.11567201242120615,0.06685791441346804,-0.20325723399177759]}],"Biases":[-0.30704319128812226,0.33094365406950668],"_Inputs":[0.2186676841711725,0.6118196532158611,-0.007822527637866634,0.023195134282006745,-0.0020839897947066358,-0.0018738976614666992,0.38638822007900777,-0.0016181711011773587,0.2433331458804771,-0.002867763665699746,-0.001749866580064855,0.09628788933847878,-0.001493155076931544,-0.0011915034569596095,0.19065255813156666,-0.0016490269870716474,-0.0011491249967359552,-0.0032937662786591017,0.22813060857791657,-0.009005526190440773,0.21171914689619679,0.19804113537346269,0.2396552037649216,0.35653584792244527,-0.003155612204880912,0.1827173935852577,0.4111538101267659,-0.008253309132659546,-0.0008611925486652449,-0.0015643140727371187,0.20638961999384046,0.2565918467555109],"_Outputs":[-0.3070670650558032,-0.010080677911556036]}]}