{"LearningRate":0.0025,"hiddenAType":1,"outputAType":4,"layersSize":[9,64,32,2],"Layers":[{"InputSize":9,"NodeSize":64,"Weights":[{"weigths":[0.2566725460296854,-0.13966994394842772,0.024626777708225024,-0.468968604454413,-0.0026663267409522647,-0.017822184645098463,-0.014171337419132646,0.05157012541144127,0.1775972781311679]},{"weigths":[0.08542232027126257,-0.08279153344592959,-0.0691050815082181,-0.4938705238250229,0.22678490739595767,-0.07342525810844727,-0.08785931008561528,0.18227613121139639,0.043667910833406858]},{"weigths":[-0.09564221532594201,-0.20851323437332854,0.09976442373084232,-0.019497897741379098,-0.059849482518391939,0.034843992811194709,0.036565686756926066,-0.08059546116809779,0.10090564296939979]},{"weigths":[-0.15762691893812484,0.14817586614369397,-0.4257284346910189,0.20650511842867659,0.185094503186444,-0.10652553543510568,-0.09485423605256978,0.15311571266324998,0.1441583878992101]},{"weigths":[-0.6318868898157852,-0.4102492120661425,0.4446000098796809,0.2090669790280016,-0.06413429625700243,0.20694958306459552,0.18252696574560516,-0.07789056714898526,0.07020248506593266]},{"weigths":[0.17264132990783674,-0.09260607626601085,-0.6284749561351701,-0.8387543561431728,0.0612011387924653,0.1471581427346466,0.12480693959598484,-0.03387288480651584,0.3455070054149281]},{"weigths":[-0.05289663946437588,0.035348207931985457,0.07375938794169329,0.10722388871856398,-0.20466638048379436,-0.17158846063390163,0.004659103176845392,-0.15381425954453344,0.09138035578250738]},{"weigths":[-0.568758220480105,-0.9222212009283829,0.633946262562975,0.3324472500522795,-0.0896478729468344,-0.019224920328098077,-0.01583914798901788,-0.08901360623972665,-0.10241202791923698]},{"weigths":[-0.5392918981002287,-1.0723258996263428,0.9778868933407349,0.34819587027891066,0.11858848658389808,-0.24365435933614819,-0.1574502509691492,0.07694341640453105,-0.12675582380105847]},{"weigths":[0.08038580943063245,-0.03899344604652094,-0.465469969650886,-0.4715549927368262,0.2355661559999681,0.06856061478795179,0.038576515540734757,0.27204987447722336,0.10264946393940047]},{"weigths":[-0.10406164408073071,0.29842834989221558,-0.3403973392814884,-0.10394524375252699,0.056876141714604009,-0.029422116054868748,-0.012715244907341418,0.05465248344655098,0.5315045569411836]},{"weigths":[-0.19836740847579824,-0.015769195188527396,-0.21078232371587128,-0.2886655922202783,-0.007591897286454611,0.18709426818006767,0.2283570920403868,0.048921015923068977,-0.38386504288007819]},{"weigths":[-1.7057979072271757,-1.5933070385306727,0.5402898309377795,0.07941568911422453,0.10198805368541807,0.02206859816759733,0.014986047740831992,0.12309694096358162,-0.45301724408103646]},{"weigths":[0.22960157633357204,0.7536493813861229,-1.6412141384552144,-0.6745356707343448,0.039171465596618239,0.07897783364445309,0.08075787064682487,0.02786384691290337,-0.01575492308001483]},{"weigths":[0.23694784392562358,-0.13269934607006607,-0.7665541660225413,-0.8914686792514719,0.06697649136091812,0.41909953897479365,0.4070179916217146,0.03866508199747734,0.34402415084440438]},{"weigths":[-0.5930652798754762,0.2668185580629415,-0.5077465344938861,0.5336476051603171,-0.31404556389941298,0.05572074714461191,0.050460005400923397,-0.16194130751571662,-0.08656659652519694]},{"weigths":[-0.16316566300562883,0.11804711162101675,-0.6457536904079292,0.04573374939214272,-0.06632970788540911,0.03520446419141923,0.03584344636680877,-0.060209114049018967,0.27525880320863668]},{"weigths":[-0.2658500495811776,-0.5376248097138885,0.3888996474761388,0.21784253755991099,0.19879229627616913,-0.26763244230419977,-0.10856910543880732,0.0848821335344113,0.09368426893806849]},{"weigths":[-0.05752239118749386,-0.001635332387997054,0.0572088933664999,-0.10784623533069707,-0.10450230689849498,-0.12634396663077256,-0.030689882870190999,-0.11479892259055762,-0.06564758530721815]},{"weigths":[0.15250224835697205,-0.023430372405490769,0.1300271023565536,-0.4432134412813434,-0.05109135322092972,0.014071612606094349,-0.4451468451352737,-0.16958377540767323,-0.2739935893460351]},{"weigths":[-0.8422721795681033,-0.7153819795307609,0.6691622135483415,0.35836269275553886,0.13233389820190095,0.06521281811054768,0.09677572644446794,0.11425089413985995,-0.021736826993847187]},{"weigths":[0.5674246065537506,0.23649932055746385,-0.01930961392245576,-0.662068644196208,-0.062243781781453708,0.12731629632073458,-1.690679857921217,0.10981197644916019,0.49081426105178968]},{"weigths":[-0.4427147493492057,-0.6049549301007923,0.4342316712369037,0.05628928146551158,-0.0048741633427781109,0.14939824151543197,0.14033830712487548,0.038612024768636069,-0.3304987177245401]},{"weigths":[0.034691446578934689,-0.0762177258350524,-0.29138191021951817,-0.027573691741926415,-0.22996587572746039,-0.04245740791568296,-0.10408861367990337,-0.22488005581873789,-0.1289388400851141]},{"weigths":[0.40586883918856028,0.08219607258387801,0.028918703343287393,-0.6523406090915284,0.0351106749097979,0.0039747846991669629,0.007824120687575457,-0.02248309119565791,0.44164471967275018]},{"weigths":[-0.15785487100987503,0.0646014468077501,0.24374419470100584,0.3242368101981987,0.002019462634585108,-0.009495913202989495,0.006271796872688181,0.017112315253544787,-0.0575510921275032]},{"weigths":[0.2959017557362208,-0.08795597714608222,0.30126720363732359,-0.40362938942099799,-0.03355727879862669,-0.21841038660145965,-0.02387438550973063,-0.03031175204837956,-0.16814107665217935]},{"weigths":[-0.5219167910126629,-0.4825321301717584,0.03597224520291258,-0.03083410121401639,0.009190589035559445,0.28032380242727708,0.2741235937162132,0.030038792539738049,-0.009682363389073015]},{"weigths":[-0.06376582053185812,-0.088473668361798,-0.09709253042938013,-0.0011402373022656914,-0.06148824788130577,-0.11665404336028122,-0.02512571684156456,-0.0019404286473626094,0.056390674445238517]},{"weigths":[0.16005651850248155,-0.17591201924786377,0.04179030089581709,-0.264728083249241,-0.5990800864264767,-0.08688492320753583,0.05527852223165704,-0.47041592485936498,-0.4509073388797867]},{"weigths":[-0.4824261027207533,-0.4397494859422734,0.3862660474037874,0.07676269354512075,-0.4025508641628168,0.16695326253169416,0.11087906227443123,-0.24522044066665966,0.33762902330505559]},{"weigths":[-0.20248451830493775,0.1804183160555176,-0.5042754550535612,0.052690585977860037,0.2597767395195202,-0.05944355350522988,0.01753746503399018,0.12849772256556983,-0.03879691894413404]},{"weigths":[0.08942353500141723,-0.06105182250842867,0.11972332042251359,-0.29888940636930247,-0.24485479908443495,-0.099038710673332,-0.038141235604134567,0.07628973147995036,0.002477303977841937]},{"weigths":[0.02784312282047932,-0.013673953247040068,0.10557259107019186,-0.15475589135253804,-0.20161317094900375,0.2378025271271264,-0.9544138632820441,-0.33765009228843009,0.2812886682943956]},{"weigths":[0.1735571562520082,0.16094873389686133,-1.0512860495579058,-0.9098994682449022,0.2897120553196946,0.4533214303515795,0.4503155905297625,0.29942478989677126,-0.0043891676370493419]},{"weigths":[-0.006995230945734609,-0.05525241549113182,-0.30878121872243,-0.09980263600871189,-0.13058806693858256,0.16608233268532419,0.1553724488425053,-0.13068402058447108,0.31940068737834179]},{"weigths":[-0.4354734680011696,0.44915174296144408,-0.7341211551518896,0.42230192069584657,0.11741973442016085,0.0991731504628832,0.04621430653353217,0.13256009029603137,-0.11037364221224984]},{"weigths":[0.23982909554075605,-0.3502178685126567,0.2698506872339081,-0.013209823082329339,-0.041303833777701939,-0.9507620462424739,0.037359867344305647,-0.06629184643306474,-0.33274818037556505]},{"weigths":[0.21763341813843993,0.1480715233024602,-0.2638823739570221,-0.5003698192653626,0.002736697313793845,0.04899866656928679,-0.4001878490511881,-0.019550641951413394,0.15692286169295659]},{"weigths":[-0.30919140130712488,-0.44171084469226248,0.004495964076025342,-0.09555710894446547,0.13935299984272207,-0.26035276445617158,-0.08992843619706406,0.19476096999061966,-0.164801538992826]},{"weigths":[-1.1106945092488692,-1.1327366168719327,0.5172605537318225,0.05163893117257215,0.028648861818728976,0.22452438801063,0.2409281316292648,0.046103985078295297,0.03223931737643127]},{"weigths":[0.07835956725243658,1.113701108240176,-1.1343570195704256,-0.308117363940934,0.03215008188340022,0.353841956454752,0.3917112993301993,0.1439910621265759,-0.009163444490659888]},{"weigths":[0.8832505518838546,0.4578208794221719,-0.8070304403607918,-1.257013506333624,0.06405447536418807,-0.05193023148331611,-0.0527495814926193,-0.2099268422628522,0.5457608335512801]},{"weigths":[-0.08397763139606436,-0.3478654212378641,0.22531543594087584,-0.011833767246305669,-0.022877123371741874,-0.13033408954905555,-0.07494667668468423,0.07412783631665324,-0.1333422234607115]},{"weigths":[-0.11102134575362388,0.01993116870492233,0.006966169236302063,-0.026279564440824345,-0.06813990129474691,-0.10275591077870977,-0.011403479450798992,0.04570976048795728,-0.014982515066632115]},{"weigths":[-0.2518377053173685,-1.3909709799340043,1.210113418888102,0.1651172239843341,0.25955818429560609,-0.3243110241158964,-0.1892726061461064,0.15569170244159054,0.004888548191874501]},{"weigths":[-0.15011924928689916,0.13286091782522983,-0.36449272180259348,-0.14956825311366468,0.1975993362781053,-0.17563713523399658,-0.011922134978607592,0.09710789813956676,-0.06953522175072038]},{"weigths":[0.05012945503164181,0.7431675602372703,-0.8557824095156339,0.0831375584844201,-0.0761328425134561,-0.007260592785677842,-0.016405039799848189,-0.09244179800264758,0.23236720743462545]},{"weigths":[-0.11328758995607426,0.04986529242527335,0.016241967675904295,-0.09345152270054026,-0.03555180670311402,-0.12704606685145995,0.0009873540940525232,-0.10811876621769569,0.10524874617206817]},{"weigths":[-0.12330087842514671,0.05960055279007723,-0.033652381589843887,-0.10852545706544141,-0.0015859109028674209,-0.13768991525729916,-0.04781471546055385,0.04230240861792428,-0.028323210336901048]},{"weigths":[-0.4969649573927531,0.2655195143238756,-0.1734150863548431,0.2458699667911155,0.1861039144850978,0.015765244447813587,0.03695090908769068,0.12505450313270298,-0.004314063720900287]},{"weigths":[-0.05296671253871571,-0.44010207596471348,0.3886876567139205,-0.00594034299348818,0.004915642719906946,-0.10753892248050516,-0.023295572664429707,0.09092648714889926,-0.009921986482485202]},{"weigths":[-0.06410066268946936,-0.007265815688214025,0.22004052223623639,0.10202791651013055,-0.12443370835297957,0.09088936547313321,-0.9265539942124823,-0.2724072059645125,0.244751565791201]},{"weigths":[-0.1063780100790629,0.2695326588089849,-0.8054617206245202,0.125346660464544,-0.3125877142197973,-0.470044471630377,-0.1386791130961182,-0.048234590723774128,-0.2440646423750195]},{"weigths":[-0.2985849991770421,-0.4045964720038984,-0.036982211537167398,-0.3770669831934237,0.10253505740445171,0.07027429020978722,0.08865152706083618,0.12070794785704231,0.20031383879806015]},{"weigths":[0.007101343427916405,0.061078809607557887,-0.08004485830670226,-0.12000027241654468,-0.08192320093817825,-0.0806839894055997,-0.02760160380622271,0.031084035988457119,-0.056587422290417428]},{"weigths":[-0.3608732095086597,-0.12421256056061156,0.02020720744508294,0.24284563435433483,-0.47379507083126279,0.08554699947201912,0.07489960451062794,-0.24613847532972564,-0.2699799196437043]},{"weigths":[-0.22334024700011036,0.034172199703972,-0.19676943481890103,-0.004705569364680989,0.09225834132913685,-0.21983210276859453,-0.033197141141742259,0.065057322582139,-0.15924694822719283]},{"weigths":[-0.35769300789680549,-0.2364893870614245,0.17626403897556185,-0.04392811001561224,-0.029515170906772506,0.03652618034714319,-0.020935055072310576,0.07084823135769708,-0.1848130986291442]},{"weigths":[0.07477995330130327,-0.08443710017286699,-0.07426996603692369,-0.08655265175433079,-0.059462779260444218,-0.026618869745699868,0.041444282959422509,-0.07813012387985631,0.07181208827919329]},{"weigths":[0.3785020694984002,0.005125640521697566,-0.0027842984185415659,-0.5082542301357844,0.07814074130703627,-0.24268306423902515,-0.12443162261809551,0.10300104110147968,0.16698350761164125]},{"weigths":[-0.176486761404971,-0.5599361886299979,-0.2236731657329224,-0.8589390729391988,0.10922754843062545,0.397094141852832,0.4182901677006054,0.08042825895217049,0.11071875260977245]},{"weigths":[-0.2776682582663883,-0.6740899620805649,0.3571366600269494,0.07752605566679999,0.004124497661072273,-0.11477046383515179,-0.13442363375546538,0.048949335183180609,0.07251524507952421]},{"weigths":[-0.19237833718851897,-0.18158681557339732,0.08698187872111561,0.15770292475878629,-0.29489700873567478,-0.1036332565132001,0.11999935653181022,-0.19765618458888369,-0.09668479782611535]}],"Biases":[0.3157696008399288,-0.0000963941119856504,-0.049877961313938058,0.18297769657874933,0.008354824843817765,0.05638252253277466,0.009149634728455626,0.48559411967942869,0.039729930986848658,0.04724710749628526,-0.3931330144385126,0.06506800924665367,1.1514091656476056,0.6910906022862038,-0.08503412018786022,0.1384990097192214,0.0031287651416578557,0.4126271989141182,-0.012921510428191946,0.10306140784202296,-0.17972972874109709,-0.6577577382087281,0.031745124906401498,0.033179612546139779,-0.033607627542582719,-0.39777377730117099,0.06085586875797094,0.12536029258938315,-0.0009013857774287037,0.33612723003731756,0.4744438237653599,-0.0728517447250216,0.1366728196064255,-0.15720598432776115,-0.15801679479855816,-0.038471473979617299,-0.018661764809818218,-0.0842451278144785,-0.13369061302830247,0.149832517040021,-0.08845766280316624,-0.3761610497671785,-0.5925418267133293,0.1781293397135954,-0.014924933216076578,0.128478986208252,0.10956919257267799,-0.111848507916383,-0.0033009159897970658,0.00037106931912458935,-0.3233468034348075,0.038379570441769397,0.15286060693748156,0.7149568675095799,0.0411832944472165,-0.0019289130038390116,-0.057311842811194568,-0.13309439187780892,-0.022400318560116294,-0.006590258575207681,0.27564529038893906,0.1282911785963041,0.6860802813803349,0.012333178331443509],"_Inputs":[2.110836982727051,2.61820125579834,2.4639010429382326,2.886446952819824,1.5087890625,1.5087890625,2.042236328125,2.042236328125,-3.2328414916992189],"_Outputs":[-1.3297779283874572,-1.3493135270543242,-1.0620180877636476,-0.4431919474850329,-0.4984404248856371,-4.408065091607804,-0.6864456204600806,-0.6552544629907647,-0.43504258465364556,-1.6317560689520383,-2.561376574958171,0.3304882015176174,-3.12666369958252,-2.390821230849097,-3.862810787644953,-0.4630417343802177,-2.4778653369153247,-0.42425517218550659,-0.7421522925554108,-1.020819985156988,-0.34820578822540895,-5.5164576278535029,0.39773042225385027,-1.5566807075552432,-2.172109054563297,1.1972627095474058,0.0851974474370299,-1.150765099969206,-1.1160199504414213,-0.8728074093861511,-2.2432635214813119,-0.3923629146874771,-0.8511290188325186,-3.8142494555638839,-1.9204932488213367,-2.1753700544271457,0.6968657532272545,-0.3483607667104872,-2.667540001021632,-1.359739643968069,-3.1112093528537425,0.7270069316234882,-5.428722901408078,-0.19067302041633236,-0.3951243976366263,-0.7688298251117616,-0.7573441449923782,-1.0281821784341139,-1.1459668516484554,-0.6298479000748821,0.2545871777669662,-0.2698001930060375,-2.455228571870458,-1.2001854088892479,-2.787181926132943,-0.42590643472538849,-0.45620499806828349,-0.6260539017328536,-0.3791278711697404,-0.9395977523681049,-1.217750852736786,-3.316169067231587,-1.1371520591639497,-0.6469861710142301]},{"InputSize":64,"NodeSize":32,"Weights":[{"weigths":[0.06811854241170436,0.027973431021786088,0.0420387689926238,0.1745229432546338,-0.10235608316167146,-0.09014011880846033,0.08017416833665404,-0.29356560003654316,-0.15663736468947216,0.03890223382621541,-0.036038321803519419,0.12857349930732477,-0.26990659617522907,0.05232198967635301,-0.021735477253213343,0.10530676166354559,-0.28291268143199135,0.18711139008996248,0.029489913611833134,0.19167515782953627,-0.159854568615064,-0.12346073966941806,0.15234000537761015,-0.13453941787449798,-0.09220084240214971,0.07887432316685708,0.11336748085616608,-0.2658189151902075,0.157111483683432,0.0431654806483018,-0.01347084254425203,-0.06798063502292917,-0.04448503210024967,0.0710455318579348,-0.08107739531526004,-0.18722686484044055,0.12550581946840889,-0.03294871705321756,-0.015524369790532164,-0.11077317834308925,0.1628299800879581,0.19575617709463639,-0.1006247824358168,0.04947611744213279,-0.06506312536481522,0.042583284689622167,-0.025285028613335218,-0.12173809448855407,-0.05717322821331348,0.10365058546626505,0.10724246667160965,0.06099796497588222,0.06790462444064843,0.07279922761349854,-0.14511031156699945,0.12289353002026923,-0.10344824619535512,-0.04451532186893407,-0.059440097053968948,0.02579146586549438,-0.13418693046666556,-0.20487711841537796,-0.058005218525351818,0.053153387460325839]},{"weigths":[0.08813939333583558,0.10514287378816426,0.0337472367703628,0.042174412130301899,0.054887829708039178,-0.11282323788450423,-0.09837845017677755,0.30627460988616847,0.371785975360275,-0.0275987660300167,-0.061849326639980859,-0.14732408369537218,0.1590811347921796,-0.452004045677061,-0.17182239744894,-0.04146303092242085,0.1484779725321944,0.16576894362640724,-0.048393812776785827,-0.07910288860689144,0.00925351724724751,0.029533729884579635,0.049168162705016959,-0.048920074769582069,0.024605694756180308,-0.2913640421405689,0.013509338340066025,-0.07035636911551906,-0.05883441307528572,-0.17869217591372886,0.01856045376107202,-0.19938395887858216,-0.13302893591773896,-0.17453085680207057,-0.31218304862163706,-0.07078319168668773,-0.39975362731785715,0.09160628603433777,-0.04464581135986544,0.22550180622966516,0.15260821108279838,-0.5351272843935655,0.024938488315732197,0.058624897172900817,-0.0497857826301249,0.35113527670243468,-0.06082443403331984,0.029238911374431244,-0.15029377048922469,-0.030730908802431287,-0.22099798595436763,0.17435609148262019,0.12911340501873989,-0.2052543412962613,0.09198084846235419,-0.13512752390178624,-0.025424720554306808,-0.14665158545770497,0.005828040112886505,-0.01537565800733185,-0.08215513540353599,0.05110346425876877,0.2861627413897266,-0.016518611323856539]},{"weigths":[-0.07785610092784426,-0.08434539761519891,0.12712248839062424,0.15318622211000744,0.11046173694720818,-0.09678936606204831,-0.11336830110234805,0.4166241648598793,0.10270776520914565,0.14155303566209427,0.29002673610692916,0.05608099436265892,0.4511972344980801,0.02392452403366367,-0.5344362603652179,0.2297780187529403,-0.09213188633634743,0.03797480740286911,0.021679610756645309,-0.24466434938871088,-0.1442404155291712,0.2534571529063912,0.3262415936237047,0.17984562606003105,-0.2979916220583057,0.10049730607695214,-0.08644808934476532,0.1223415275182222,-0.01877605406930457,0.12951831047092486,-0.26569454128537786,0.02254551051736025,-0.1194197829780834,0.34601247194333209,-0.19486641309957854,-0.1901515026129754,-0.0194485949288431,0.2388718369890096,0.126861459749188,0.06992796274067602,-0.11935458893087728,0.061874091007919618,0.3692004233379144,0.08542216634431815,0.0670766321504183,0.0363652379900609,-0.10090582931659091,0.08445741965838395,0.028669494350759735,0.023608634428949238,0.3143883322981031,-0.06987313258021193,0.08848392145813457,0.10380618134797296,-0.05246697666865552,0.03140994130312467,0.06646169827516657,0.17091355503397363,-0.0020659195626082868,-0.029479751360892593,-0.056012200520154317,-0.30567416223134316,-0.29867543457642578,-0.028880342817978596]},{"weigths":[0.1017786621693361,0.19339587796083328,-0.12680664331477504,-0.08027483912067944,-0.06603220375330014,-0.06075040648210363,-0.12770097069876075,0.10774183551465375,-0.01113121889984178,0.17618675305642948,-0.15661022048795474,-0.09117854994593845,-0.25964587193064789,0.0747913265948563,-0.18347532833084052,0.10280860875167504,-0.15085780052430773,-0.04730139149047156,-0.04531737974140231,0.12145250790585058,0.09323449294484984,0.06805974265951191,-0.016628383964691356,0.054070165878652178,-0.12453974187431363,-0.11683231547470914,0.03194667938572454,0.02304761091176024,0.10666164976890839,-0.18145681993651983,-0.032731871339928299,0.12651976181423556,-0.07867414434281078,0.08101236347100548,0.05856537189560452,0.027252925309537818,-0.052760375116452668,0.12330287965366331,-0.051292719811376317,0.04312122505393727,-0.16306727224699336,-0.1902527648734724,-0.08663379876621308,-0.052301120432227118,-0.11870125195793802,0.20411254054884268,0.08496913908855328,-0.14293577755744378,0.1322161046741223,0.04089874584981115,-0.2132150394583493,-0.03799990100763756,-0.20743430031761679,-0.18033087813767094,0.13966280657574654,-0.0660361176581418,0.08445857113989429,0.12419170388320297,0.05594319153607255,0.12427699317127568,-0.1865687175111224,0.019349179236658494,0.0994464058296881,0.04773785647683103]},{"weigths":[0.1078790889674706,0.10819876719167512,-0.23092115304494255,-0.006479479510480153,-0.2596641465742739,-0.1356411599035404,-0.10811710561847392,-0.10605978030579554,0.14161979216758037,-0.17019609563614075,0.08458806107150661,-0.1924201550452402,-0.00590021962411835,-0.10631963243879177,-0.1479659032249706,0.0057595211503527758,0.07362019114144453,0.016765085164587424,-0.016259805677398967,0.1428454298324588,0.16549147243087859,-0.08429833056724906,-0.15520795154310944,-0.10288279928485182,-0.01756481281578619,-0.18487592820667266,-0.019150262503736784,0.09518864222211529,-0.16562028083199085,-0.06649650612173472,-0.021050346743850903,-0.021909724487278467,0.06396651625752223,-0.0359020982168152,-0.17470324218091655,-0.17129605690822689,-0.11837773641894313,0.12291937094742313,-0.16771720524041315,-0.24960995179200766,-0.02885701363512425,-0.08444309427052523,-0.03854611300200635,0.11394329056654995,0.11544397877915663,-0.08421005361855484,0.007887064035549289,-0.24730416363772596,0.11606082388113298,0.13266082717449083,-0.20100160545450394,0.03102024448046393,-0.05609835156483139,-0.22112683372829679,0.014824023715444366,0.012210026295994924,0.06285601660564624,0.03252694543683879,0.011798995859365995,0.1630935267483058,0.19818188057893525,-0.025045209513571637,0.17591006455922404,0.17361965454613005]},{"weigths":[-0.13840009194423559,-0.05465628688014889,0.01110406590788329,0.05476398662717265,0.21938433774731834,0.5220095246907602,-0.0031333456240671307,-0.1722346873533673,-0.23060370733896724,0.16121952917998948,-0.17647150365108173,0.07379396758801142,-0.1839425615687362,-0.3438433445866383,0.02749087875381266,-0.17241727573813468,-0.015428816783061855,-0.11855511115892587,-0.044843477059451488,0.15352993808943753,0.014544957379931795,-0.40512751882225808,0.16757105658650155,-0.12470871815581122,0.15658338590376323,-0.26945372972752676,-0.0020244333773518508,0.3332028106881496,0.012480568073387098,-0.35476189199207638,0.30666847852402409,0.015622015759435025,0.1820822963352778,0.050165823338298779,0.15209535769661068,0.11614605238542679,-0.06691387341369752,0.032453211884288,-0.1399628904700194,0.12750209303382194,0.394948933664132,-0.0836137300561149,-0.38446827719382167,-0.06405263316550165,0.02321559926161044,0.11109855130069363,-0.2200272323845195,-0.3436548074411803,-0.1582046805763437,0.050733423581388829,-0.2323052537025051,0.08445373938799432,-0.0111929808286302,-0.06324354828349477,0.219509577347249,-0.017450632394550706,-0.16039314908361888,-0.10193852498728219,0.06598357123577098,0.03311801984254966,-0.3773344284036782,0.35727854966964575,-0.124745822884929,-0.06927897645349243]},{"weigths":[0.034069039355262339,-0.02406909018789226,-0.058698628148429767,0.04594251134621836,-0.4387598196505835,0.046810818529193037,0.02394949014448407,-0.14989913891001484,-0.18184609002317718,-0.0926563120401963,-0.04667685429680511,0.12520025817389408,-0.022056493002766386,0.32428942030992799,0.04023654691881761,-0.034270663551158177,0.24463899842666909,-0.031187472926597908,-0.12925214587329515,-0.06618967364097783,-0.40525110395474736,-0.06141774937550292,-0.2560362699012668,0.14887078549512323,-0.037922828742101618,-0.2078964648814641,-0.08385048495373306,-0.12893441053898406,-0.012647207081344092,0.020742894418672134,-0.24691347031562806,-0.008353164222992912,-0.054178610289593098,0.15869607620692997,0.9678030420284248,0.001946613106548599,-0.061906826681127239,-0.3112324229785043,0.1598836688067826,0.015138616980421535,-0.08428012908829767,-0.03827714000911156,-0.11420231815501328,0.050568489424738429,0.003390099593865997,-0.4126050437575485,0.26987427070007738,-0.13561035477320167,-0.07542392036581232,0.15577998130515303,-0.11702685981241015,-0.02220717202538854,0.1312603357294684,0.4274713242690073,0.2148971523206792,0.10393511126777787,-0.08385266191872043,0.007044800793515927,-0.1188766247475731,-0.015368931680871815,0.07708537311038152,-0.021962937616593078,0.017984088934801268,-0.10332654386508974]},{"weigths":[-0.06873224361260178,-0.13566444986114727,0.09118194839774652,0.10828572395781155,-0.13000456826379223,-0.2863502183008053,-0.01358928363519309,-0.08807426878694338,-0.12409795899845873,0.021833413780390756,0.14406952782615174,-0.0008863480700261348,0.04592985236561023,-0.02530123055194601,0.1149483700573648,-0.16551409156802106,0.011521026631147857,-0.11362085675330135,0.09418628040728754,0.18045980177944749,-0.3438292785645579,0.17149314457921192,-0.05596300246739208,0.12051767087765755,0.13118609160867537,-0.011366468524911293,-0.10512312260104136,0.0365843069100572,-0.008257121845567747,-0.10789358225410041,0.06656893761278397,0.04636759509635555,-0.1606719090099829,0.13622205825686013,-0.0965037643600992,-0.08280803767901234,0.11955487423961152,-0.06325749856129955,-0.01018417662486396,0.15824412795000079,-0.05545516274271963,-0.015262711081769073,0.006410253448475423,-0.12963575349232774,0.1376851390628499,-0.09486224511137906,0.15949023402634156,-0.02345014638461213,0.11645400628563012,0.03173756654704404,-0.18687143526221909,0.09396261517313767,-0.05600645696218286,0.10156789455487624,-0.09696043863196054,-0.06217149156881621,-0.06383357314081671,0.251113727709783,0.09767777498516331,-0.013982794916408343,-0.16478941890851507,-0.05699919349588398,0.04842741986182821,-0.09993362851736151]},{"weigths":[-0.07523670969568068,0.07036928715993229,0.051102160901783998,-0.19596398644861974,0.24686132672869705,-0.008378724332126489,-0.14056488641542545,0.3481071810591128,-0.08882335375998343,0.040431878501712977,0.07479978428090187,0.05246832178754214,0.00930903671529671,-0.4398837134850239,-0.24289563159945355,0.009898792359148536,-0.04692977896105566,-0.022645850994863608,0.03145106443745371,0.020276724394659209,-0.18515679005363604,0.061282560037869918,0.07120692572460673,0.21359957356347268,-0.018641579502416646,-0.06081350511699862,0.12637562455612773,0.08298759614931647,0.027315301628785869,0.010548136503906179,0.11539907618683397,0.01491359600513155,-0.04471234698287345,0.019078861007307696,-0.2250704641287624,0.11591389717010219,-0.04440911197660965,-0.15140576821617156,0.0933015993926447,0.06350231449060176,0.07923815580716019,-0.02715207254261967,0.06222949481025538,-0.0750479749609473,-0.06194841792859565,0.05104054478648847,-0.2441056873089794,-0.22626048330994107,0.13000092923697849,0.15801621573106054,-0.1606542077499942,0.0048601998307971649,-0.044088413562795917,0.012812964420627333,-0.07132980375059088,0.14716210469421849,0.14650476532598054,-0.09580381394030002,-0.09172285258544194,0.05774087517874816,0.08233523227172729,-0.1460789480617793,-0.19942631496291222,0.13932889378421962]},{"weigths":[-0.160698014167322,-0.02906815706738562,-0.042678173023787308,-0.10747008318085621,-0.05603485362676728,0.06671125327352323,0.20652107058982464,0.11773707616999242,0.278439199558758,-0.048011815225635297,0.03922619712246025,-0.38530197635638466,0.23132562941603067,-0.3740000705496071,-0.04404533888990349,0.12420122053405337,0.07735443960971103,0.2840210332266722,-0.1141020900724225,0.09086081500301564,0.0028721852499408479,0.0674018010860659,0.18536544210266843,0.045473499143511047,-0.14038902748100158,-0.026336985643680655,0.04507945921707226,-0.020349447839441309,0.010791915459920972,0.2222842136701557,-0.06899218355156059,-0.1265151836248907,0.07876886885229377,-0.1337062110784474,-0.07360900709013725,-0.16328696812773567,-0.34582304958029105,0.058391610307920258,0.09583042657762263,0.17859823929890546,0.012942102711433245,-0.4525145763971691,-0.1282986163164479,0.16546170302072134,-0.13157980378354204,0.291751181099565,0.0001235165344026782,0.0196440781179942,0.15620749898137893,-0.053391125516968649,-0.21028690279038768,0.18202507385689363,-0.20127690220232156,0.046226862425017469,0.14159535307044528,-0.05711494526123018,-0.22406348539447763,-0.05116096440047382,-0.19315797102584779,0.046559873525130499,0.10477817961871754,-0.15820853762662077,0.28679452652459949,0.13856655306795005]},{"weigths":[0.0988992250004954,-0.11605078870188075,0.10459593762945575,-0.07776363331294245,0.15841639861381053,0.34167043072659167,-0.11527736358772214,-0.05421179629535267,0.41781508364917888,0.03798426145622517,-0.004161788296545426,0.13775463152598753,-0.04391107434814229,-0.7227264200811282,-0.002578817052225315,0.08911125407702453,-0.2854688853850651,-0.07181867930827955,0.13276501513007867,-0.10435953122714079,0.22804888068025293,0.017608187553746124,0.2712684992475857,-0.0007991360586922984,-0.001432536950375726,-0.2957171240544151,-0.09426870558461548,0.3461227373862051,0.053438066679184,-0.1011849367953689,0.33141062180123195,-0.015275723086259463,0.13478238011118155,-0.10598270032403555,0.1798188473942957,-0.13400662426672123,-0.00786289335307959,-0.08804375335688543,0.025227253122714557,-0.1450107492140479,0.011946322725466299,-0.24111018106353136,-0.17667628374165446,-0.048387452744943739,-0.12767960300839094,0.377019719235533,-0.02459584804848336,-0.3898385072591822,-0.06268575157609095,0.13363805047128586,-0.05459281070945535,0.06334157334014683,0.03598307325390681,0.13831444069205546,0.10513553063174829,-0.16592198622814234,0.04528432395660406,0.0015189425672399596,-0.04907098585953645,-0.04537452541063811,0.0962032301534324,0.3430709862407295,-0.18328272251221437,0.15008734676452699]},{"weigths":[0.17123705364862069,-0.13678968676052598,-0.003947208193144309,0.06328611312306087,-0.2674254461530995,0.09330005739330731,-0.1195003150395396,-0.2268285522527321,0.12384837475880112,-0.2254729700228011,-0.29531353291083248,0.21660790932395328,-0.04916456829681924,-0.09890896938231841,0.1517734750571918,-0.28878215466726855,-0.11164958569617599,-0.05696378255598832,0.014001964950470288,0.16089978206292569,-0.24295100370652437,-0.03421641800564497,0.10356748094144409,0.002463004211970968,0.09033947950845156,-0.2667569306319585,-0.1325679231944372,-0.03326799726607543,0.10416597829427692,-0.06227928335182002,-0.10336547357239266,-0.29364360097327399,0.10093050859953423,0.1512907249215875,0.1550624280119872,0.08348752267207368,0.051853756724817529,0.07984128550445775,-0.1650742538226891,-0.15710593404479274,0.16422215103006883,-0.11616552125798203,-0.2714805190774929,-0.1858491999171027,0.1595995873242925,-0.17548463548696389,-0.11772411775119605,-0.49522290561250117,-0.14183962341817578,-0.046137776839249657,-0.08266392356815168,-0.014800366311658584,0.14933900191658815,-0.07885792528085273,0.09432098665511499,0.0009188300884512764,-0.18444661165596516,0.04690661911181782,0.027711947694131959,-0.12084041699118169,-0.09944044228332834,0.1200531221774522,-0.17127236093422533,-0.1972278779664149]},{"weigths":[-0.1481968478908052,-0.1999153586672911,0.03897207184103862,0.023684746883133695,0.27035250265914426,-0.16709927234239586,0.06241625511925034,-0.020060066648884608,0.41062820799130619,-0.06309514370372224,-0.19892329096420575,0.07024323307133748,0.4912610312004783,-0.3834433899656655,-0.39684865067282745,0.002339008432399784,0.01387628756539539,0.17361200158971816,-0.14115389021658193,0.11811290684087174,-0.00999284086018281,-0.38405441289306377,-0.26918547778995469,0.141290948891307,0.0544575328993671,0.05430445954636065,0.13188016554080057,0.19481246971372788,0.09871270094032669,0.38966641777036656,0.14103851015857928,0.15379223039537974,-0.18132866288495304,0.24708555177461334,0.05734815837061846,0.22500797444663327,-0.05933959611077435,0.28235074065434687,0.086010102918593,0.09993545360170134,-0.006539147789409822,0.031231049475403794,-0.2003008279751044,-0.03878961368315913,-0.006790589486291975,0.3396546516339083,0.10898293026042842,-0.11177125588045987,-0.05872145869259911,0.03427615427925369,0.01922244311350371,0.08349449832451352,-0.13982778826570708,-0.14782343394612633,0.17637148393523509,0.01863011782301826,0.24602896650466275,0.17284853235768969,-0.016044465319294759,-0.17501362965013363,-0.1917058543281943,0.1253865301372011,0.12319693629246753,0.16040254964201709]},{"weigths":[-0.02416637193266187,0.07776278855446307,0.11094774934083211,-0.045013627819265707,-0.06403087442951826,0.017843614745321688,-0.1328126727539058,0.0788798125354901,-0.0009831191368669173,-0.15868527730713076,-0.09645948642589288,-0.024645712929480754,0.14228287351956929,0.06453491312178243,0.14446519018706173,-0.11695580098894458,0.029999705300357648,0.10976768278583996,0.052042792619237738,0.11889004761515347,-0.05996050858390918,0.11018799243012977,-0.1863592541811273,-0.03187137997206536,-0.17475481809694216,0.07614628386321008,-0.02989824135976751,0.001236893782337215,-0.03887375077402893,-0.07031444026192764,0.006498689640045916,0.14537929603539083,-0.03650083629177863,-0.13158740761887698,-0.043238063861535839,-0.057812017366430098,-0.14083812735617458,-0.055077034364916187,-0.16393388237944843,-0.05873082309598447,0.06999253881631564,-0.07120834836006862,-0.11755231597052954,-0.024903006309866288,-0.12679343404866109,0.04268632351350793,0.20962301382360985,-0.11948370017227177,0.08974151196889527,0.13353960751623643,-0.18428762768955879,-0.012035510353050904,0.05473428644690006,-0.0690346744435939,0.18770491480544364,-0.10640462987204182,0.037277455453405997,0.09927404897359189,0.04668460026807208,-0.01334516508494208,-0.14774506092549739,0.0382129482335464,0.17832790781046543,0.1635204259834859]},{"weigths":[-0.14934935867637154,0.189878325509975,-0.07949778924473293,-0.026605006727630527,-0.04935179995616547,-0.2909062522495722,-0.013140013980386504,0.12253024010175967,0.1687264986095137,0.08978722930466426,-0.17269430100437473,-0.052671862686362858,0.030781252912797143,-0.1234515887111488,-0.21537607233877494,0.21902370193758245,-0.13738472354769763,0.12361043425069127,-0.002153705694803396,0.09025419837552593,0.12489900102637726,0.012448232198182787,0.043627424461275928,0.16299092775229363,-0.1530495294722368,-0.0911274585834875,0.05184646915650374,-0.13055223592004235,-0.13300107440759874,0.15794908864686248,0.22591325439592126,0.1740109893401068,-0.06127045820448095,0.19211347533213728,-0.41395199523291678,0.01469864868791277,0.24446499809205886,-0.031634499031589439,0.060624856886811299,0.2352077875947726,0.1455540913239177,-0.14876238471770487,-0.14638508854782796,0.0783235902241364,-0.06369771301106207,0.021492510721692599,0.11331510784265345,0.06956905770295484,-0.050176684752794329,0.18098840764314765,0.08330538883627914,-0.031169453233099627,0.3426842915920828,0.4279558937882876,-0.020732675657164479,0.12361421894200654,-0.12280392784348332,-0.0008353441278871309,-0.09652996204820882,-0.0001869028349076589,-0.23353099443791376,-0.10822479203946844,0.25844260715958008,-0.038917458963759098]},{"weigths":[0.18592279337139495,-0.06114002384310646,-0.18615333700246695,-0.27566679141003727,-0.14252909143512655,0.19768977785779527,0.05390716591393426,0.09356209348197536,0.07386148479447861,0.026405655154402836,0.14578946235913593,0.12577956727445956,-0.018965035354161689,0.4158466179786798,0.18033669512281734,-0.4699519766730677,0.1658180025970472,-0.24130579656079124,-0.14332815130344893,0.3470238309252829,-0.21211402430451624,-0.1445200246018888,-0.3471023322855824,0.031201169792399884,0.3463811931710774,-0.0022955932699496377,0.11659878350124838,-0.005852569555816092,0.17103569440597353,-0.10547340943485482,-0.177604816805544,-0.19470384495551955,0.23618030321815385,-0.02807918239093569,-0.0469814055241299,0.3052299605938847,-0.40150081919428956,-0.08065734096291388,-0.148949737955988,0.10645224978461976,0.06860231969069992,-0.10614552926490763,-0.15726082798254718,-0.06752638430651091,-0.11413144899699389,-0.02359695540377085,0.05469827081450239,0.027436915664825164,0.13042579545110936,0.060400640891652198,-0.42965426271333809,-0.09334702938204959,-0.0026822625299827579,0.14699203227294597,0.1407134058441343,-0.029168204034494,0.09868226180462299,-0.04828255227024181,-0.007239534714948155,-0.09271188449186264,-0.22929681654758472,-0.1440005415436069,-0.14031813775342548,-0.12878007957515817]},{"weigths":[-0.05816722641878927,0.1312222142923256,0.025963903114560945,0.03149114744608904,-0.3302886627597808,0.1604632737013041,0.08535273976260712,-0.31729059414960089,-0.25787275279955387,0.21440869661516946,-0.05844093905924273,0.00862481730545526,0.06392574123669127,0.2550410182538361,0.13181617501462757,-0.14333646969883979,-0.07026160127825026,-0.06904856434443797,0.030943665302427219,0.03597269582836951,-0.24392324645811035,0.01109437465899691,-0.12820163437314845,0.15073857018081583,-0.02752579115489944,-0.21596768356262265,-0.022983435574408054,-0.17663625207254647,-0.06850427872932043,-0.03487408918368224,0.0706066317505197,0.14195087489316272,-0.07800050774835329,-0.04360975410683524,0.651575208601138,-0.05291766237623866,0.03438431201745642,-0.06139073301514398,-0.13408175805334247,0.026792338538573426,0.11088179370242424,0.07492884579178301,-0.028099403453175313,-0.03542941965968969,-0.08880379239903885,-0.356948729073745,0.2461557482958867,-0.18686500537321358,-0.05119304500280168,0.009993542758412504,-0.16628216184050635,-0.07781178534337217,-0.13823216084606963,-0.06090770830424428,-0.0011187951325923195,0.14906367284690784,-0.06443790986646286,0.05710435286399301,-0.041698065564712529,-0.01908726135253973,-0.08022255317146149,0.2696635183796883,-0.12194003670004804,-0.00947685095377069]},{"weigths":[0.07106606306327512,-0.013798233109349743,0.14680027185983264,0.14197447884560475,0.22742462296841108,-0.10131243919103153,0.016395720141578666,-0.22459878727246894,-0.07159636725090039,-0.2374649526704183,-0.1445716407244331,-0.07188981010950157,-0.3101580846230529,-0.367568412134677,-0.12486605311867906,0.04612217662623852,-0.03055228851900327,-0.0705268142721689,-0.14831208643482009,0.11239102057294863,0.04202507963789225,-0.07432280307913301,-0.0550579946689471,0.08664579284722433,-0.12587814259498526,0.053192846551485397,0.014609037570562927,0.1043280129048753,0.15517941805263683,-0.21419770419055773,0.06339492691237687,-0.09184378157524742,-0.038396718691455247,-0.279600192984158,-0.09043593314079666,-0.1735171318292639,0.11726892386021781,-0.11540449668622947,-0.08146247177253537,-0.00018376913268861375,-0.02030269577441978,-0.025038634197819103,-0.18024837134860273,-0.023998768625528575,-0.1343065729607511,-0.03202163923635028,-0.04023472333502714,-0.16792824662699916,-0.027882473896512589,-0.08141382353219154,0.19969848661621249,-0.021522042524619,-0.14164200926922686,-0.36616782086615237,-0.23176795074044716,-0.06371866267887347,-0.03848888155972395,-0.15312056186744456,0.16274675667140166,-0.04383396090411204,-0.10466102649762807,0.1698636675425427,0.13943093862743587,0.03339281594245767]},{"weigths":[0.21192792512151238,0.13340848567833833,-0.17341545939854878,-0.058924744576159707,-0.1271740415629807,0.2247398481286221,0.06564529807075219,-0.14197309503501963,-0.29356842208414027,0.010324242261193825,0.12439601588982807,-0.2138265103066417,-0.127776175586755,0.43203766021494757,0.096244081177913,-0.2267741641813065,0.05788918122865014,-0.413753754765023,-0.03061984208763473,-0.14846921815795365,-0.031811340381282009,0.6557624186022985,-0.2400985983594,-0.10610541174201824,0.43782673292707799,0.008084230438637432,0.33233192330615088,-0.22449738084348615,0.12754208102608922,0.052421690717967549,-0.3939854795557051,0.0361129320947038,0.01844599664321042,0.2655154253370689,0.013657335191519139,-0.05657971265027809,-0.21462941503847117,0.15079632922175688,0.17434799031104013,0.05278306929126998,-0.02919509661736832,0.28911189822520208,0.6254429397398501,-0.1945573431985509,-0.09027172714270103,-0.44569739344975897,0.06307731342374166,0.08225946039781397,0.1251430722813302,0.17677750897736686,-0.2889618005607955,0.1067222103567711,-0.02882280789870924,0.037219376799097248,-0.11187701324172426,0.10443359601253441,0.13920656368787519,0.07421203617254232,-0.1281384908082336,-0.13461890628592375,0.2821500566724005,-0.12725727207134697,-0.15804155082368957,-0.1138044419227301]},{"weigths":[-0.1331296925892665,0.17419785091014049,-0.07443753253462447,0.06101470770334305,0.2432012405798468,-0.25215516413201297,0.08316352149601572,-0.008056642654934436,-0.2233962842558501,-0.040942449797406989,-0.03193457997061002,0.2317614525331959,-0.37540814316725376,-0.20709045608291558,0.04460631648542151,0.10176387209005535,-0.017599782786034199,0.2279267139273077,0.06633507914700734,0.0807743940376522,-0.07061216671800763,-0.1899301621828697,0.15613629358715984,-0.0773378754466808,-0.08314867488333662,-0.049240803069736448,0.02231101158980574,0.40779046528490156,0.03142976946677094,-0.2730764649831903,0.01706339628867494,0.22532516116152469,0.13583227532485077,-0.3791767355873729,-0.18208931762672579,-0.21877308593871457,-0.14324525898244956,-0.3342430082538255,-0.1337385764357418,-0.010830333134382297,0.22950336155368127,-0.06617521827556182,-0.06579910703389422,-0.10658609847616468,0.0012854230692993245,0.12569696835012085,-0.1031451533230989,-0.08631798494887057,0.07634589250616071,0.15826501217476758,0.14868774692376486,-0.07108306904408687,0.37766572602293715,-0.225116488594858,-0.12146814915354155,-0.10120762659982706,0.17090509719342415,-0.10081900413861572,0.04867940913101622,0.17073528261113575,0.18581667584736917,0.14732177545711046,0.3869935433167905,0.02912525557783004]},{"weigths":[0.1485223681300968,0.07579234190731867,0.10485862558235264,0.08701350382811278,0.024156227888976438,0.05291180871511033,0.1368136277055974,0.18784439071931495,0.06035382724018645,-0.014012564089547342,0.19600643857870926,0.01832569604349209,0.23342011409062689,0.3256334334699842,0.07131864223023904,0.04108216116935234,0.37002291965571446,0.029692748590630447,-0.10045907110378295,0.08423139077583412,-0.13890095549140464,0.4064907385073689,0.472469087163412,0.1852713135876927,-0.15416134410255503,0.12141535501735026,-0.08972397562260168,-0.0557174002163403,0.0203473294950252,0.12318031391825367,0.04801820132905681,0.03546400450903572,-0.07046857181978804,0.00841207998692362,-0.260375653967088,0.06684372397602379,0.10078176824350165,0.020997854354722329,0.07134615165427959,0.1886302188816561,0.01585234468304055,0.07246381513892683,0.3842945515605744,0.12310688060488799,-0.057248214455026657,-0.003668496197265464,0.021332560076842204,0.04452028727031657,0.08885753928024333,0.18903379720082545,0.14637048899966818,0.049202151747809858,0.05663371714935484,0.2711151477483962,-0.11210460235745334,-0.07530915198684218,0.3210844744566596,-0.12482059412183079,-0.08986662138196887,-0.046050719720380158,-0.25965626387011017,-0.27952758268259855,0.006988957442434871,-0.04079167672204161]},{"weigths":[-0.04051784986545728,0.07771137427948978,0.0004047685460527102,0.04535649609677488,0.04974222370295594,-0.11005254035088837,-0.15306841667107966,0.0023817801935081016,-0.14682353582348807,-0.16948119436946516,-0.17887411458950185,-0.1591425624367758,-0.1303113905195589,0.0500165901614917,-0.15135699060206454,-0.005081575414827903,-0.09692094734134352,-0.02246307416273183,0.0630803235690329,0.1417151334141869,-0.13324488472268448,-0.05278767550752367,-0.0849606431443406,-0.04397451330408627,-0.1292975781016,-0.08078539927269037,0.1354845819773105,-0.12894529927001995,-0.1250502978052919,-0.12318104242864399,-0.09833016082434136,0.14247202938054877,0.17198767098487784,0.15895477493978628,-0.06990867250577813,-0.07019429608103209,-0.07538220939690126,0.062456863065264548,0.12420472424293475,-0.14905542813149126,-0.010263090602848142,-0.15425821892528852,0.10342223067663062,-0.0719510134550047,-0.020977903105291928,0.10501247602444609,-0.09201204646830273,-0.09631155534808564,0.03964046990665552,0.09888618536171355,0.03698114899876334,-0.026133384257719884,-0.11487076375075252,-0.04163621807027921,0.09455608849063003,-0.05925456842246855,0.0023978312672724188,0.10317361663223096,-0.05131519305892363,0.16427811234924598,-0.16664605943032949,0.05699664083088595,0.03914847166592596,-0.1602920833831131]},{"weigths":[-0.10301220660873367,-0.029156567709524976,-0.1534518156352923,0.058205471519628858,-0.06364075974540691,0.027910036907825777,0.13618948592579872,0.12266485516388721,-0.014614795896624114,-0.04619875532369344,-0.09027281128929983,-0.06197643601370672,0.08569437627160778,-0.047314455887028917,-0.06904971923533873,0.1968935510610098,0.020005681467803177,-0.0821085864791312,0.07286372868416993,-0.15970788325213734,0.09778703071051671,-0.039940971826013058,-0.12940661203699609,0.1656840604492508,-0.0926003336125567,0.05077944375368495,0.031169952322296844,-0.12710594622444988,0.05832006672657283,-0.06931372216180609,0.0005673035688328896,0.17102473501671226,-0.09447351073178709,0.0021091256480643054,-0.020564044917097545,0.16196832349416688,0.07853383552704953,-0.14893319616486365,0.1403564567474315,-0.15322600677601667,-0.2212170524085811,0.30059335713967308,-0.08950971095637844,-0.10080242245792645,0.08263495078653932,-0.11298183422430966,-0.045358135987322609,-0.07359565067834849,0.008906459815735705,-0.10040310650859369,0.029670487696393984,-0.1031964014788458,-0.17979573689836449,0.08125519923294104,-0.06673933877373271,0.17475151063273407,0.09212830813364667,0.002440220067979637,-0.15682243477328626,0.1737382723469708,0.04430803540027735,-0.12247654921138178,0.0564406179567207,0.04295859888630312]},{"weigths":[0.10872773950183368,-0.002690438410034387,-0.0003014285117606378,-0.2166520265993037,-0.11757306639569325,-0.13338303697565846,-0.10248301264260904,0.057567965902550029,-0.04259459150032257,-0.1725718889794631,0.00760995917974017,-0.14755194311798149,0.27353851177940649,-0.059868525181619,0.057792051059923649,-0.01843795444874734,-0.03811109216185018,-0.22950051455820642,-0.1384758187182262,-0.12022318245385432,0.10897473329033596,-0.07496030207446188,0.034211538190372699,0.03806673982674601,-0.002272288047873887,0.001653939462940842,-0.016212853732717203,0.03197391355040039,0.052516179811688799,-0.05231639173160928,-0.03726542335873896,-0.14091180796318546,-0.05406095006087547,-0.03737869368979704,0.04663688381158617,-0.10585218695106617,0.07014730434564788,-0.025689676023348135,-0.06312931134463967,0.1712081507488385,0.10083584015338562,0.05061326847541638,-0.026526331429667005,-0.216925955956187,0.14890738646431907,0.008849824875652038,-0.15622337057001646,-0.04013913571651901,0.15175668256202674,-0.07850807564466277,-0.14684728102494677,0.10111852557691109,-0.02818636549648252,-0.09379141469329765,-0.11814423003550857,-0.025891563686270888,-0.20416252338638306,0.1694284477884337,0.20418999675411687,-0.15637700057638424,0.17251384177762217,-0.09299872706841955,-0.024943179463106179,0.14515687570703915]},{"weigths":[-0.1400563613022519,0.15797844096460343,-0.1950399351638785,0.007524385086716674,-0.096113989467395,0.05894362708543127,-0.04899169453051212,-0.1291302867466811,-0.16679941581123934,0.05000699993686975,0.12879646754062647,-0.17569975149312523,0.14782464468496998,-0.14130852227013775,0.11146756088070574,-0.16123267571792486,0.15693656632324158,-0.06527785520122219,-0.0702234243799528,0.13551649670547728,0.04556642531321745,-0.04056727369652954,-0.11877843613434018,0.12148744062564837,-0.10179204167152362,-0.1331493350262546,0.19195195482417197,-0.05627124736215222,0.08330380708962913,-0.13970993852503428,-0.0486103736286722,-0.0032454863261615824,0.1579468566665788,0.07547719779847834,0.04543281315312764,-0.14125092174557309,-0.1400269431305832,0.1088900301108611,-0.029291055684356489,-0.048734001282179608,-0.15404623621193118,0.06821190748485076,0.12671510538873544,-0.007574833428814584,-0.015657154523890213,0.05203877369955884,0.09142374734207498,-0.11256432640818139,-0.15875864940535665,0.09856441082164275,-0.10980789629919627,-0.16218190888695095,0.035222880859538657,-0.01866305661835335,0.002580925137253799,-0.01189824550730823,-0.02799316247187985,-0.17378146435187814,0.026997185539343488,0.1505496748857961,-0.005028271756580216,-0.22371546493580508,-0.016910977076378326,0.11257178823521556]},{"weigths":[0.12048795193692749,0.10294118250545156,-0.0715946842436813,0.060433280261680117,-0.16431176954337563,0.0713247110418049,0.11955890217691757,-0.12890549073859718,0.02293690857281008,0.11209083454796887,0.02033319763726914,-0.10919905751196026,0.14909325000874155,-0.327885139232655,-0.11668497224395774,-0.09721438517911042,-0.1327773456832322,-0.13753808199055593,-0.10215328074632008,0.06444250965524434,0.09513732262707216,0.08511842460128796,-0.20678192141139854,-0.08207500890820926,0.2029233975019842,-0.1869427073167007,0.04482382506963926,0.0013104090384293665,-0.06292217225435151,-0.03910778722417402,-0.05790280247906501,0.04382247903440025,-0.1339873501288809,0.10929545877645944,0.36274509694977538,-0.05675054481192311,0.021849558230925826,-0.13007584989541255,-0.10681838047479761,-0.22001349848295236,-0.2658181197410288,-0.03222926029564088,0.20423389820775735,-0.049516179180636669,0.07640505228205599,-0.2682149270873831,0.06041881557897645,-0.11748983713101517,0.11767466481645839,-0.02681515774843324,-0.025484081483247643,-0.08388970591978759,0.09574828103760952,-0.11482454064812803,-0.05877885016885706,-0.08441539726925515,-0.17973146997872217,0.046437985701985259,0.007365820086569604,-0.11039939246858237,0.18605853728473746,0.06803333656755978,-0.048065419879424319,0.06153782167781564]},{"weigths":[-0.38926140298239705,0.2865116989755252,0.04917566441014649,0.031436071274317297,-0.1303627104495006,0.22494542092082479,0.13093480054746768,-0.020822614943572967,-0.3285511191142666,0.08538463583759792,0.3637874710253073,0.1928445952207565,0.20243639589456426,0.21617473562884513,0.4564456268120065,0.20507728557684846,0.05990397759948319,-0.31001095364150629,0.15889616372618113,-0.22741096848450205,-0.5030412998930083,0.6660274933405237,-0.35865164329412699,0.14144890223371166,-0.21892539818510374,-0.2613965795634037,-0.36976885094010306,0.1710041483701076,0.16925023443603094,0.25375442618064056,-0.3670544740358366,-0.13797620953814755,-0.09435132197937038,0.20009548869326089,0.021643055815270857,0.16070245277756793,0.010145603126949931,-0.007219701322740807,0.3456254442073725,0.38210719778184396,-0.5217717718750762,0.09819666307866663,0.7466117341702465,-0.2042374593908716,-0.16308550086603428,-0.2475983839312326,-0.11662073651633069,0.28604687496328115,0.15065858894615276,-0.04379485024348883,-0.29398215900935467,-0.09853235275001186,-0.31115450148481418,0.480510235039215,-0.24806830413880724,0.144877354832436,0.2582284301894024,-0.03041090161183605,-0.1703443104344457,0.12958305101559018,-0.08378657127670207,0.07098868645683902,-0.11168911467546249,-0.1418703848755382]},{"weigths":[0.15726011431766863,0.12770525255266325,-0.057967695104427788,-0.17890337730458118,0.1691937542436388,-0.07490992386909704,0.010515878035380634,0.3299445295254487,0.5088044787779196,-0.01909338940735496,-0.14499715981889314,-0.2652406486913806,0.27596766608567427,-0.21914296891498614,-0.024336632945662428,-0.45013848380119228,-0.09709523001840645,0.10928137518767654,0.10293649695145249,0.004772898433353774,0.47606938967633308,-0.07320851439783341,0.07003473592070782,-0.08521569901494929,-0.11947813772800221,0.10751864139174543,0.02431617919429117,-0.013999058786837124,-0.1044959823774037,-0.0152562359239186,0.1837000475829739,-0.26663523709438877,0.0027184566209942355,-0.09977638501716711,-0.12506325097059774,-0.06791311726297426,-0.4597194813023444,0.04730873461118436,0.07589220112117931,-0.07612150880747636,0.5985119502582732,-0.9162076888694569,-0.1735916190006818,0.19923624028017396,0.10858515246212945,0.7374575977874465,-0.18971277253800235,-0.21913519581197678,0.1758389437309506,-0.01414297467594369,-0.11982416369681406,0.27152689867267257,-0.09227389155519304,0.046503474927817849,0.10715132971950225,-0.10877033306597571,-0.1842242065682181,-0.05150089114396973,0.06263953171513112,0.03289857736762363,0.08034870142312438,0.07258893351480693,0.3317421478043927,-0.03854739734066854]},{"weigths":[0.006087949288252819,-0.14616346413860482,-0.06446674316541086,-0.02992604755432624,-0.0404877933889989,-0.43024229129432869,0.17212463260563275,0.08040378676508239,-0.040375736657229138,-0.5205566735122151,-0.13631772497741724,-0.04835429100262815,-0.1562879172527342,-0.13047905630115012,-0.1946962498750209,0.0698676179423953,-0.05138517876293004,0.07026401114003203,-0.1458723782076407,-0.17715068990597036,0.06339708860673422,-0.06948090421209455,0.30214647149348336,-0.17719026015925228,-0.06570520163873008,0.15879804852888058,-0.1755442740500451,-0.2359658458927443,0.020966595974276859,-0.026048993279584287,-0.14178416446904994,-0.005224680917510309,0.12481258363734586,-0.1806639265424926,-0.27649438417765379,-0.15986712452407174,0.20823278972257534,0.06302357955611689,0.07262342621263335,0.20260867172199718,-0.19159640128496173,0.031032052073341526,-0.03809563772885219,-0.12709346024576965,-0.09116965878675001,0.12293718933629899,0.11755437193192778,0.18336644853525164,0.1666924319033109,-0.027572531727457794,0.2763531385163739,-0.07191820017913987,-0.267067613694407,-0.062392289298756998,-0.23620334615581166,-0.07233282283648661,0.024965575892627255,0.14363735105937895,-0.04295655226224861,-0.1599321055190884,-0.1334336260400456,-0.30335202494043025,0.2047839776260955,0.020040579583578807]},{"weigths":[0.10508029668332553,0.034930545572732018,-0.11739520020773495,-0.08128168457973993,0.01588507173272466,-0.05554424762550147,0.10945567832094831,-0.1861132524149501,-0.043286178761065708,0.029032373873463088,-0.06901090760023755,-0.14516393480546284,-0.0632157763190645,0.12464999561676925,-0.1562162613470875,-0.16875651157603983,0.042301945574850539,-0.1504706117122255,-0.019417712866844264,-0.0053290631005198179,-0.08135961537739386,0.15271540987351082,-0.10889412297690997,0.06920015376764884,-0.09749165390181268,0.014640384007259778,0.1115229905318439,-0.13038549721057417,-0.07742872131089125,-0.10559475917018024,0.1300030305770981,-0.030056449206220864,0.0574698290211489,0.16171629861529797,-0.04791280165296181,-0.08087574220331845,-0.19016859702837003,0.018629879581679319,0.1729886549524694,0.11075310579800968,0.1418325493411447,0.11048652032687215,0.0021040798792693294,-0.14790114093584715,-0.14587405650874117,0.12110970653297333,0.006150541245680773,-0.17236329996305758,0.05997208561995318,-0.02585750307506069,0.05890512288466968,0.03923745868297178,-0.08322197530358558,-0.138346625400643,-0.02698005919863722,-0.14353934392058993,0.04943233527038333,-0.11481923149884411,-0.017284927155454975,0.1197303998795715,-0.1113315812215927,0.10420456944078559,-0.022768971268103165,0.08251742608925104]},{"weigths":[-0.14995618090944236,-0.18091380515954415,0.0759471992813457,-0.031055999765356773,0.03572247983153681,-0.0818026025820198,0.17736816826358363,0.12271612008777783,0.13579107172483788,0.12890314090547842,0.01926187759218301,0.0637946551241732,0.19558808318038257,-0.2654822389414569,-0.119578467209784,0.06097819642059207,-0.09861437933933552,-0.02506998092473855,-0.11910774169796895,-0.03525909365045069,0.17691009380229956,-0.15588757715170077,-0.05381302688565305,0.12103520314583968,-0.03660464824691164,0.06168775539383111,-0.07222117330297248,-0.0984248664088494,-0.11856211614600285,-0.05360681071339619,-0.03560237910613259,-0.1649896302020879,-0.029244021555438143,-0.08229184952779893,0.1589900160707079,-0.031570111400728729,0.11281677213105984,-0.14998711519138878,-0.12888888239151814,0.12395950933364039,-0.10824119103810776,-0.06922815961397748,0.11673813372565852,0.14600834419455048,0.04637345928942713,0.18204294540883249,-0.12917385941977065,-0.2347583146954259,0.14311063144067227,0.10140044634379866,0.05566218374717258,-0.13413241735640384,-0.17146932711015035,-0.17739594336208626,-0.16530066262725327,-0.00976433434640928,0.09873572340516487,-0.01882443989548436,-0.1258730988482541,0.1499510425765876,0.03608142732462848,-0.253834204763971,-0.03180372104997543,0.06971591697133989]},{"weigths":[-0.13696254222358054,0.12980342695142814,0.13960963054337759,-0.19147360390975169,-0.006666401352199912,-0.04170955134610947,0.03291062777207241,-0.041592923130929448,-0.21147367952259986,-0.19753785948461823,-0.06374766222407256,-0.033019431583222468,-0.057060543446992049,-0.1040901970996711,-0.059306096511357767,0.05600000294582388,-0.16938762809989572,-0.036784150801891696,0.1144803696520523,0.07381914451794941,0.009367574313582438,-0.019259182798133716,0.009477876796537288,0.007071465810571012,0.042040481622177109,-0.25279959350364236,-0.09949884064587797,0.171897080250779,0.09975190188376179,-0.07356394976510045,0.038304365916915977,0.06775956888067171,0.033443370542103199,0.039982104576840937,-0.47439122783502377,-0.014109153386739496,0.01117309241399918,0.1710727269899012,0.04252139125821656,0.10134080020085987,-0.23315798907244537,0.22364672893265714,-0.16914926286214,-0.1473286558706453,-0.03882445295784896,-0.19359249426456955,-0.08649324813557237,0.09295747950891552,0.13334102379359415,-0.04851552458273331,0.16469881801681947,-0.15200624513170508,-0.05779842576677897,-0.14311359647216055,0.15205277850793967,0.08918987678589424,-0.04323223444066593,-0.09773329065922673,0.24936786560993585,-0.06362852426935874,0.09241165867993861,-0.3522185650994854,-0.14228835579076549,0.18098779242312178]}],"Biases":[-0.14886083477028445,-0.23825929898799423,0.005619224456313056,0.10322074244479168,0.19023304279400794,0.1042791720376538,0.2818189601458608,-0.13006443309073979,-0.137870644288897,-0.33608722867206405,-0.07551008209526274,-0.180075844168539,0.4977014429690762,-0.11114584623662596,0.15495399674914585,-0.21519504138294905,-0.19728701321914128,0.3744072353876633,-0.9530088720150545,0.2506297254033566,-0.1595659490947754,0.11238082675048854,-0.13580087596885696,-0.3140923705696261,-0.18257473633947475,0.0066074372297468529,-0.1135571945188348,-0.7017603560664277,0.053818199154310717,-0.1359081551361554,0.07254188596461059,0.0018855829097001696],"_Inputs":[-0.013297779283874573,-0.013493135270543243,-0.010620180877636476,-0.004431919474850329,-0.004984404248856371,-0.04408065091607804,-0.0068644562046008068,-0.006552544629907647,-0.004350425846536455,-0.016317560689520385,-0.02561376574958171,0.3304882015176174,-0.0312666369958252,-0.02390821230849097,-0.03862810787644953,-0.004630417343802177,-0.024778653369153249,-0.004242551721855066,-0.007421522925554108,-0.01020819985156988,-0.0034820578822540896,-0.05516457627853503,0.39773042225385027,-0.01556680707555243,-0.021721090545632969,1.1972627095474058,0.0851974474370299,-0.011507650999692062,-0.011160199504414213,-0.008728074093861512,-0.022432635214813119,-0.003923629146874771,-0.008511290188325187,-0.03814249455563884,-0.019204932488213368,-0.021753700544271456,0.6968657532272545,-0.0034836076671048725,-0.02667540001021632,-0.013597396439680689,-0.031112093528537424,0.7270069316234882,-0.05428722901408078,-0.0019067302041633236,-0.003951243976366263,-0.007688298251117616,-0.0075734414499237828,-0.010281821784341139,-0.011459668516484554,-0.006298479000748821,0.2545871777669662,-0.0026980019300603755,-0.024552285718704583,-0.01200185408889248,-0.027871819261329434,-0.004259064347253884,-0.004562049980682835,-0.006260539017328536,-0.003791278711697404,-0.00939597752368105,-0.01217750852736786,-0.03316169067231587,-0.011371520591639498,-0.0064698617101423],"_Outputs":[0.3615005364196632,-1.32626834555106,0.35760538053066595,-0.2783787447303112,-0.3163651704157925,-0.2878754815296899,-0.1631790710538955,-0.15689056975779057,-0.23741215059552546,-1.0365448568726126,-0.48441092071075389,-0.443010149979334,0.49193602356381108,-0.30712010965866529,0.14402848929415336,-0.7917116236652996,-0.49401927514647006,0.5875412391489687,-1.1903266716292836,0.26199711133548156,0.2539367548970553,-0.19143768425493985,0.15985542520493624,-0.28520563821964919,-0.5095698374520792,-0.35300082984913708,-0.6530867239565896,-1.6578829973027066,0.6733449813989179,-0.2458615427438563,0.22158791358493766,-0.05974784407678179]},{"InputSize":32,"NodeSize":2,"Weights":[{"weigths":[0.3614261379819282,0.3210282597234306,-0.7258325020551678,0.3125433138597477,0.437534839892127,0.6749264553378188,0.020303240984868008,0.3866792665735535,0.6079041692277561,-0.0646184443936571,-1.0308656336844114,0.764960757478688,-0.5810872779316032,0.21141223891355052,-0.2331698624511212,0.9019120936873853,0.16884082837147836,0.3717458950564488,-1.5615516219179513,0.5540251307674632,-0.5879077429878332,0.12349048491885466,-0.16176790855148058,0.5451868687627245,-0.3238656027072419,-0.44017434716488898,-1.0040582119046973,-0.4748019490505346,0.6541863776253662,0.6046031175217634,-0.2201053587555511,0.09507765601938163]},{"weigths":[0.08853599228249193,1.0584113386496286,-0.012725573253078196,-0.3775919867720496,0.30395385957259288,0.13002222680700604,-1.3028406524744234,-0.3748717072922897,0.43894529534166717,1.0342940628455935,0.09039788600286702,-0.44241040706677728,0.10955637205641042,0.15934281208708865,-0.3364958727016195,0.7140775107439997,1.135429772178694,0.35040926858746115,0.0877752784284487,-0.13684599417654387,-0.03678365414948328,0.4979609935036112,-0.19778894059830338,-0.6185962912022209,-0.27525819215277699,0.5761217596152285,-0.4586136637159457,-1.3731933220602626,0.21899015644232956,-0.6068086543013103,0.314232725669947,-0.7400481963119372]}],"Biases":[-0.14769057256369703,-0.3769977022090657],"_Inputs":[0.3615005364196632,-0.0132626834555106,0.35760538053066595,-0.0027837874473031125,-0.003163651704157925,-0.002878754815296899,-0.001631790710538955,-0.0015689056975779056,-0.0023741215059552547,-0.010365448568726127,-0.004844109207107539,-0.00443010149979334,0.49193602356381108,-0.0030712010965866529,0.14402848929415336,-0.007917116236652996,-0.004940192751464701,0.5875412391489687,-0.011903266716292835,0.26199711133548156,0.2539367548970553,-0.0019143768425493985,0.15985542520493624,-0.002852056382196492,-0.005095698374520792,-0.003530008298491371,-0.006530867239565897,-0.016578829973027066,0.6733449813989179,-0.002458615427438563,0.22158791358493766,-0.0005974784407678179],"_Outputs":[-0.000015686321370306233,-0.004729364277832049]}]}