{"LearningRate":0.0025,"hiddenAType":1,"outputAType":4,"layersSize":[9,128,64,32,2],"Layers":[{"InputSize":9,"NodeSize":128,"Weights":[{"weigths":[0.07690980187941875,-0.04772867527608966,-0.012101922208010957,-0.025197673970738026,0.07527747426432459,0.0018725679317891705,-0.023507881684713778,-0.04507112529593527,0.023850548998007417]},{"weigths":[0.03487477174339548,0.06583561807562334,0.08929770883715965,-0.0637233761609635,-0.000563543246396108,0.05006146609895315,-0.05712122189486503,0.08633108586823835,-0.07070125528592261]},{"weigths":[-0.06475650216758383,0.01047773678469365,-0.03342363658393537,-0.0463219900010886,0.01720917319346498,0.017259568913212853,0.006979045936274519,-0.0225587935203558,0.03328923164254227]},{"weigths":[-0.0459077701419888,0.06646123654860178,-0.046751471338323368,0.010801133283099566,0.07935969550354955,0.11828748349738057,0.07387777680034667,0.007374188672725455,0.01687490554308893]},{"weigths":[0.018078852866839684,-0.014416013816532297,0.012383300640033176,-0.033328835921413457,-0.006441288065276495,-0.04419644763490862,0.005170758430425387,0.08497461283035018,-0.049759317370564017]},{"weigths":[0.04380375286980975,0.08996260286754129,0.034061361604107189,0.07638502944051727,0.020958115364468258,0.049767522445617298,0.048155236099205907,0.021585433939488184,0.06519924665232226]},{"weigths":[0.07728088760190125,0.04370461901508172,0.012078409864012758,-0.023262580558502618,0.06911127198341083,0.024868330328864729,-0.05585101127377856,0.05084266411908227,-0.011992310536316184]},{"weigths":[0.06027310584955427,-0.004289803391057453,0.0675274654639122,-0.05916051905343236,-0.04986971456937787,-0.06274979368886453,-0.03689153112979355,-0.08046925853848078,0.032996457980426368]},{"weigths":[0.08190164334805938,0.03175313399452673,-0.08196542047294764,0.05257292119694732,-0.015181943247393502,0.07197732266244625,0.07032006573361373,0.0921837487908046,-0.05685632643311049]},{"weigths":[0.018215081237351568,-0.0016040257672025698,0.02887299959263017,0.08542796688292363,-0.030272472045100978,-0.03271264557211293,0.005432915869070808,0.08212265294715332,0.0017066093632734149]},{"weigths":[-0.07043060523643798,0.056409775859674427,0.04363607340159335,-0.010789529406058157,-0.02769694033867405,0.052559936376966178,0.08042911696517499,0.0641394650503626,-0.08644691406714328]},{"weigths":[-0.002702214186758478,0.06298944352318867,-0.05299813949169566,-0.0693714517478816,-0.01380982718878236,-0.03263684132139316,-0.006863086245270182,0.08383284676550246,0.07791958216847159]},{"weigths":[-0.014638249429488068,-0.01459309323259224,-0.02606918120432832,0.0691717843070577,0.09255848560716076,0.07369259474895107,0.0673268509729409,-0.05298168150983621,0.062064431174536738]},{"weigths":[-0.06236831422785736,0.017108377880566428,0.07505568880527264,0.01790924974248778,0.04599123866120408,0.00819527743467792,-0.0494824132766377,0.04492458237196918,-0.08693947042847532]},{"weigths":[-0.0645847976485773,0.0332578516872513,-0.08272065491550269,-0.07869605658499857,0.02362518788591205,0.035214281349133329,0.05942356092137425,0.02740496227169045,0.013173627267807565]},{"weigths":[-0.06240934063172483,0.03813020769912057,-0.04166018786606113,-0.030712121058480408,-0.0020392872108685288,0.033407546068608569,-0.06045125171300232,-0.022943438424547437,0.059129722644072468]},{"weigths":[0.03879473469830437,0.04207901981492844,0.018264898331957777,0.009906628122333197,-0.0822988742482488,0.005017473293152656,0.0028378194288931717,0.027356129057672514,-0.09675405354751246]},{"weigths":[-0.00208469401410914,-0.00858273945630737,-0.014708201263241945,0.02149627073891623,-0.06084905226320259,0.002500149825471821,-0.03952039870629997,0.05470474187966796,-0.0739971701776644]},{"weigths":[-0.05084075360557208,-0.07738027365756592,-0.030037326038875549,-0.07345171582789764,0.0025206291693836218,-0.05085327997950063,0.03531115668266599,0.03875321159382591,-0.07240774181139431]},{"weigths":[-0.03226219625020181,0.017079157412927604,-0.03644289735801103,0.04970252185521743,-0.009484877558056113,0.01208294375229846,0.07279164104770705,-0.08048336272673658,0.05171242361201932]},{"weigths":[-0.06533506229203781,-0.07237915307575939,-0.04651772014005656,0.05731313625917618,-0.00525116137870362,0.05561637479738797,-0.0011437155979782828,0.0465980603514243,0.05176537361879111]},{"weigths":[-0.02843367961477294,0.06235513626596712,-0.04913190064219253,-0.08609517265577527,-0.03035561463871088,-0.07251880579572417,0.006220921914737515,0.04606729218101393,0.07336332136160298]},{"weigths":[-0.07306907926673338,-0.008236600570107422,0.04775239733259981,-0.0470913135531004,-0.05755994300380473,-0.03221334369443977,0.07023584004726367,-0.085976355718987,0.04608432777610308]},{"weigths":[0.021896612328649376,0.009084132289711746,0.05518361448214695,-0.0461869561645579,0.01792657495287022,0.05203367836773901,0.04126137045449892,0.03762310823527507,0.04446026216578267]},{"weigths":[0.04101022324650379,-0.08509626428183953,0.04566879978446116,0.04128594306492124,0.021737222769155578,-0.07326934820427693,-0.03882718937033247,-0.05825358907340504,-0.02998735797161394]},{"weigths":[0.01906266521803637,0.0729966134710859,-0.03161723385538032,-0.042921079429571008,-0.021545759571393338,-0.02391494818560218,-0.06725352087365894,-0.019224405834367909,-0.016770278482502539]},{"weigths":[0.0626133570184925,-0.0708682079427425,-0.04104354049920232,0.06293183949868875,0.03588038848450665,-0.04493180899177594,-0.03259693645292874,-0.017969187242369689,-0.02579736502112481]},{"weigths":[-0.05527522430548223,-0.02212478942258098,0.012589670787091724,0.0626626644070269,-0.06276673334791325,-0.084003391407041,0.019641377792626318,-0.050699428778494249,0.01341868142248816]},{"weigths":[0.03648752287633704,-0.0772989907703515,-0.047228395501170337,0.0032464113824045186,0.04584032580722289,-0.03248514196679691,0.0063126678078826129,-0.04020755182783894,0.0053153126475490928]},{"weigths":[0.040579309421886738,-0.039426490747192507,0.06365934219988424,-0.042818027104125907,-0.077228647251527,-0.024193852436475678,-0.03998378411305179,0.025461149288249969,0.08484535506842075]},{"weigths":[0.05835852774074605,-0.009657608325221874,-0.03248778796240769,-0.06080373168928052,-0.07107959587138374,-0.06975506160518579,-0.06529203310777791,0.0483309753954827,0.05709891459986467]},{"weigths":[-0.01779323134945271,-0.07438278679002002,-0.04662599644962151,-0.030995881619300809,-0.011566553654012777,-0.013020944103105897,0.012387311109500669,-0.03470978091637225,0.06759743484230621]},{"weigths":[-0.0151319819332069,0.04478591622327732,-0.04312325611433799,-0.028731312303048888,-0.08575277708836297,0.05396887954908643,-0.03881632269095028,-0.05196089008853291,-0.07477773294668029]},{"weigths":[0.02927567579923349,-0.040018339882278649,0.005891915947556412,0.07331726091101242,-0.0485249674314099,-0.07455687183446734,0.03019266351156243,-0.0038552457989601818,-0.015471927103086297]},{"weigths":[-0.015018193825407932,-0.09110123476471814,0.07671183894678307,0.07689265347521203,-0.05200219475868239,-0.06947102460149295,0.04845476142368622,0.0817460654518715,-0.012664817956337277]},{"weigths":[-0.03832325316468057,0.0477567189282438,-0.10155227993479786,0.016699568670505598,0.05228321008317227,0.06945599849038431,0.07272888461609079,-0.05311547921658793,0.09569243348478698]},{"weigths":[-0.04225266575047633,-0.06705365948735658,-0.03553890999584417,-0.02185028004378463,-0.02700312935081062,0.04518382818549519,0.011429222259571852,0.08353455083827644,0.03293035842681345]},{"weigths":[-0.004787213139024043,-0.04444188081556774,0.0026383183787550828,0.07215895353239263,0.09336327703814446,0.10259840030096064,0.03788168737729156,0.07376229557537492,0.0025291079858665418]},{"weigths":[0.005912706894132648,-0.015436210719295974,-0.08684899160862089,0.06107501055921176,-0.04242594356949735,0.01948918916061454,-0.0012925351576711193,-0.013288654035693066,-0.013579918117591118]},{"weigths":[0.06237063054943447,-0.0384181293361246,0.06809535631067745,-0.07694753513179004,-0.021750430642817586,-0.013763819383470662,-0.000947381603885992,0.0030214771342196619,-0.10300023792873484]},{"weigths":[0.04008341686954551,0.07146580585263895,-0.03096430738037102,-0.03991808159603147,0.01805803011887459,0.046426757322229218,-0.007171440683051157,-0.07791881256386629,-0.006174301890611477]},{"weigths":[0.06194510893277057,-0.027979642920906417,0.015647034334393647,0.07102183941610119,-0.06802093066047402,0.03555285680965719,0.06216191626472242,0.051345785726342168,0.05447996981476486]},{"weigths":[0.06137868847938766,-0.05349708937368933,-0.0728963544918668,-0.04078608902455386,-0.05441405283542849,0.05038512756626077,-0.006628266400870679,-0.028670591210237938,-0.02706764942971051]},{"weigths":[-0.08067216036846267,0.03154321554734773,0.05250833840618309,0.05221005964439467,0.03946495642762329,0.04410392768530763,-0.06483135242360828,0.007554068641951229,-0.0228629167860998]},{"weigths":[-0.01763086512230022,-0.05893656414837813,-0.03859324659158645,-0.006062914159105308,0.09004275130055485,0.02999393038202836,-0.07490640461736345,0.021667742293409069,-0.050082354667396019]},{"weigths":[0.07952886030893196,0.03342329844389455,0.08358790694274541,0.035072880825152297,-0.07808643072421145,-0.0013116412857450857,-0.0395982566084582,0.049725518191676938,0.003060840525590417]},{"weigths":[-0.0817342120395754,-0.0577559144281085,0.05209008385592877,-0.08646770340779894,0.0727119135931784,0.0720265984980766,0.04479079566920183,-0.011520753511669884,-0.039738205849325938]},{"weigths":[-0.01624032102756793,0.07236745478874689,-0.04343644251350795,0.02688623385450162,-0.09073124408453176,0.03243765024227193,-0.03402770785467009,0.05852885870186725,-0.026299764885591098]},{"weigths":[-0.01397761019609916,0.03805358406270838,0.06681163594812123,0.015721711523438824,-0.013866595875064805,-0.04761999662917865,-0.0633649539279989,-0.06779968345019792,0.015777696088417213]},{"weigths":[0.02523757159793516,-0.08345963275375101,-0.06355584758735111,0.02281774416724072,-0.008486116707534332,0.04350030288961426,0.07102751121130446,-0.014843625840313416,0.05146956965440018]},{"weigths":[-0.026641557155435304,-0.0267792368369323,-0.05050626586849982,0.023882853358640045,0.06719384472797979,-0.06151225277136436,-0.05973037722440137,-0.06085974529788512,-0.0711374124720504]},{"weigths":[-0.07435174680999943,-0.01797728296645593,-0.042088917187058778,-0.00046023229320963944,0.071703976793999,0.01949035486388817,0.019734552612030829,0.06196919929402133,-0.07621082246707146]},{"weigths":[-0.07314410466703707,0.02711108591674274,-0.058377228649815208,0.05733286670907113,-0.019658817041019177,-0.0876910087169716,-0.06552636382253056,-0.06704395647243455,-0.0079007610833935]},{"weigths":[0.04188987474756329,-0.07184850684105798,0.07188438514463042,0.0011202733236011964,0.06016090599937091,0.0298033297903042,-0.04878874144042928,0.03252460118921283,-0.016636372735274648]},{"weigths":[0.023821783848068813,-0.028528553449822807,0.09326253058677706,0.08921532161967968,0.06766400888019006,0.04349578191742138,-0.03229015837323448,0.048485782371221339,-0.0680642124779921]},{"weigths":[-0.0760713974206578,0.04112019003452828,-0.04523008347395324,0.014623514648237338,0.009612284836360336,-0.011603456897927698,-0.0511246178715025,-0.02091924757269607,0.0623657386953749]},{"weigths":[0.08067783422245127,0.024318988304757637,-0.06225152114590288,0.015396526535694237,-5.954801935103118e-7,-0.07034324424232094,-0.027951925636467504,-0.04728798229457524,-0.0013790530488216485]},{"weigths":[-0.07489173918252888,0.07055445777961371,-0.06590557918945775,-0.07436712867285102,0.05200810639431002,-0.018369980349609569,-0.048847247538896857,0.04014736625856646,-0.034224737852960557]},{"weigths":[0.049232644421643028,0.03942773810403227,-0.006235956283568748,0.07474831731319159,-0.005088643562837901,0.009062597031308689,0.06261662387227314,-0.05621704324113731,-0.0854565543087305]},{"weigths":[0.00171578998410285,0.08191551660164022,0.07152871902123642,-0.07903615251033554,-0.004220508595413887,0.0923316098118161,-0.042526370431145609,-0.002597566878523039,0.08848767140764519]},{"weigths":[0.03734885806200773,-0.08155691325836924,0.04169409890745505,0.045719951547720408,0.0720624551320254,0.01185215772929641,-0.02722362103492136,-0.012993645397442609,-0.035853972111651418]},{"weigths":[0.08921071585071318,0.007415569166223655,0.06178781260303555,0.0857037396437283,0.03884780215917714,0.028238381357045516,-0.07260920058873582,-0.012359209893314356,0.07977226046073177]},{"weigths":[0.03049119009958325,-0.01084105048224354,-0.06667068573830194,-0.021380620712252036,0.03072750903581642,-0.06336892431109773,0.05034591077459512,0.04524150902162501,0.015660836197617765]},{"weigths":[0.008031357260965973,0.002456889931644098,-0.041139021111289048,-0.018457605432765056,0.029447474777855057,0.002468766992141829,0.01302875072346541,-0.06717041474143086,0.08896373587442975]},{"weigths":[-0.05526919264361202,0.07293313421614589,-0.04893552345363375,0.016983085907571788,-0.01592962210275282,0.06220215206253552,-0.08297205316866903,0.01184900873949472,0.02492583067018545]},{"weigths":[0.04938585369443805,-0.026381824064211986,-0.07218057551699923,0.04364743738064293,0.024746057887873805,0.003369157240049008,0.02617774169574963,-0.05781074117354506,-0.059484226632568]},{"weigths":[0.0702356524569463,0.10248322009093212,-0.07366440737784198,0.10119466635126968,0.07090488153071552,-0.06260053362011714,-0.03660958266452947,-0.02412843309971534,0.07697636560223131]},{"weigths":[0.0534512168489889,-0.06580585815503598,-0.016743937309793064,0.07129722484868793,0.09011713742232014,0.06374840045952803,0.03575059032659397,0.02432915484371655,0.006709507942384047]},{"weigths":[-0.02013416403561643,0.03244728809092007,0.059394070318286747,0.007035863808129344,0.03432721196407266,0.0012022611797062168,0.02737934122541442,-0.009369633727076246,-0.0014363782078262338]},{"weigths":[-0.08512319423034044,0.017869975240519518,-0.027970866488707805,0.08520231141880552,-0.03238339352754769,-0.06548089460159788,-0.06915786695888482,0.06607683622671905,0.032836348054415338]},{"weigths":[0.0646270490165558,-0.05689703388696075,0.06201466350734637,-0.08909604369362327,-0.08453391327170708,-0.007163565975724482,-0.0648999888086292,0.03819587464153939,-0.055736146035179467]},{"weigths":[0.025645175168108337,0.0020289448619605608,-0.004603165270236031,-0.05442540465951164,0.03198054885400629,-0.07525929835388584,0.0381505491430804,-0.07430344202886565,-0.0838645573553341]},{"weigths":[0.03218847262471931,-0.02635834649212764,0.000361188614812631,0.08318476819741576,0.1011281824438576,0.05288485783242391,-0.05824712196722819,-0.07577137904756938,-0.02761888356393069]},{"weigths":[0.05283271849710097,0.08085987448233188,-0.06637466188079658,0.07589278205302896,0.07353725278177136,-0.01927975272610131,0.02104992907507902,-0.06652878743839783,0.025053910974943116]},{"weigths":[-0.007244784935801624,-0.012678276345531056,0.08951085899188446,-0.02503688244704917,0.09782938182275264,-0.05637771171966456,0.06150289501872056,-0.000272530346644984,-0.021964249825167056]},{"weigths":[-0.04688974307895651,-0.05591358790100851,-0.03945577214255216,0.07620038631909208,-0.0539312976074864,-0.04574322358307739,0.03394181638218847,0.02582319920075716,-0.0229444199454112]},{"weigths":[-0.05453547807880809,-0.03052237005072757,-0.06720380841325623,-0.009238719756766712,-0.018623841024878873,0.010435059212179216,-0.030112515761973645,0.07383182077443702,-0.05250768487344298]},{"weigths":[-0.037629688074724377,0.06456710019701335,-0.0004980784786640433,0.07998837152041487,-0.0244327953467659,-0.03807095697705557,-0.02025988924955796,0.03265255424724582,0.033974499541929697]},{"weigths":[0.0498802976379295,-0.012487204093089196,-0.07648335160888421,-0.03773637059889837,0.04105438043838985,-0.08263007506635008,-0.057155936302384548,-0.0010197181175624288,-0.028596253821179]},{"weigths":[-0.0006268848904723994,-0.04828227998773421,-0.014729423548224062,-0.007717225375994362,-0.0765036372444513,0.07770807416534464,0.05280470785829428,0.01991305986243777,0.04990529057186057]},{"weigths":[-0.04124206771449875,0.007743674523803457,0.033492639671415549,-0.032284327428700788,0.06497355856268072,-0.07535108613568879,0.03723721968138021,-0.06183945540779888,-0.07530445639834439]},{"weigths":[0.03439739442852476,0.03004087601537579,-0.08356017752067187,-0.08821213068079097,0.07716063994802214,-0.014471194908207065,-0.08393092239145449,0.06307021363475858,-0.04980594027858483]},{"weigths":[0.0450372093970504,0.05847711668110516,-0.07716755669056273,0.07536612379788167,-0.08431015652602936,-0.012846942178485817,0.03907161878985809,0.07344220173128692,-0.001889538129945773]},{"weigths":[-0.00431033105784261,-0.03383507594439894,0.04650336885184831,0.027830080796472629,0.058426073598148737,-0.0720093809601897,-0.06118151628153344,0.0005412416857677086,-0.01068567695510224]},{"weigths":[-0.06731129788233852,-0.07467610754635086,-0.026608340258592986,0.03738194102399835,0.0937958199521593,-0.014395772135710488,-0.014344818217331,-0.07888791420566327,0.0897922610884099]},{"weigths":[-0.04548829968104468,0.00775483438055159,0.032956355213537,0.09921142820717724,0.08026846083909282,0.12884464617549416,0.06977915680944683,-0.010723051991885708,-0.10745809508867464]},{"weigths":[-0.06554683575265415,-0.06402263579483525,-0.05340579261885946,-0.08650904307818588,-0.03212431206339254,0.00017530016818485534,-0.052526549616293129,-0.05314725023378136,-0.061829553772823179]},{"weigths":[0.10394802845924378,-0.03058981685112203,0.10327187068588806,0.03789738785990964,0.02667793781137678,-0.07673296158766771,0.04054323874177062,-0.04617778951164297,-0.012377133440115209]},{"weigths":[0.06673586274917883,-0.0029722596399770577,0.029906738131808116,0.06347773620653036,-0.0663769291522939,-0.037263082278529428,0.03219882678329195,0.014755963757749756,-0.052853570991880097]},{"weigths":[-0.024511466015370074,0.01568099639872104,-0.027253133935848028,-0.007905778920775696,0.008748472539957454,-0.015621910534881814,0.014368397050148276,-0.00643481316175491,-0.058570248181233668]},{"weigths":[0.06741284661252958,0.018251785577437234,0.01658208595712266,-0.021283024015157145,-0.03161592078434283,-0.04554941027995078,-0.001382683808615804,-0.04239090582814748,0.08558041549335764]},{"weigths":[0.03281614466412358,-0.020139024196932657,0.00828227480914789,0.05622152511354068,0.05890008672047458,-0.04212780683662793,0.01107050757142608,0.01633630651177752,0.006863804562326411]},{"weigths":[0.030782518480664199,-0.062434099059225849,0.0322473041521181,0.04041453902197304,-0.05320525040459177,0.08697046927552293,-0.07884888211093474,0.06061043132515658,-0.03196618459509892]},{"weigths":[0.056196856201974929,-0.08841636987555418,0.06026502196855726,0.026107868107920617,0.01618839760384996,-0.02107064223003896,-0.07238489834246331,-0.03023061393581014,-0.04712274311437491]},{"weigths":[0.0174364089443901,0.08337194780981001,-0.0113028659450248,-0.02959160102810876,-0.04171263690713424,-0.0694498030433051,0.07676981994778623,-0.02670651678978411,0.07938160469841839]},{"weigths":[-0.06287277987657482,-0.06354753922039273,-0.025364048334538509,0.07165351969006466,-0.04220833893445827,0.02271371680222405,-0.0823815760595068,0.00826932212181505,-0.07017231178857239]},{"weigths":[-0.024202441034348218,0.04811748291154501,-0.07873947074356519,-0.07033198097900531,0.06991081086888185,0.11601476006898078,-0.04295923413567234,-0.016332759473057645,-0.032251987558552418]},{"weigths":[-0.04496532957502388,-0.03315890823955627,-0.02075651185090605,-0.06570225618585361,-0.07698087300105211,-0.03121957822690563,-0.04218003883360834,0.0001759732297003788,0.06727109030803731]},{"weigths":[-0.04441741434195567,0.03395320151852586,-0.0020706764656117789,-0.07619510993404796,0.05093645374150663,-0.002517875855669146,0.028916797692952968,-0.04390730867956327,-0.0837256628918965]},{"weigths":[-0.0905382855211892,0.01584845072976137,-0.05715683670261903,-0.02567230483088619,0.0430389029805666,0.01965055010434145,-0.04711782597472752,0.015728462505009336,-0.02183149886301941]},{"weigths":[-0.043351427265190107,-0.06733336116789825,0.06945457869188114,-0.05312918124953782,0.05441647030676435,-0.031338035253757588,0.06950652063453024,0.06085269912024033,-0.05631171727332354]},{"weigths":[0.08550507718261483,0.01767551747673031,-0.08508115307103306,0.005633566685929676,-0.08746546222262294,-0.024352115958895808,-0.056507293189174048,-0.03464057056361127,-0.01768961386633353]},{"weigths":[0.04760962897225246,0.012466469654653714,-0.0726739881755924,-0.042251606098034379,0.04804561061813762,-0.04900317269631937,0.07699294697035192,-0.019852749428997897,0.03353746890867494]},{"weigths":[-0.016050590373166034,0.0699001391910337,0.03198879791119188,-0.10342773441993454,-0.012181509965538164,-0.05736484815208334,0.007627258622166304,0.029264423895586666,-0.023532505697087488]},{"weigths":[0.07225697979188434,-0.02783030753367069,0.06568341832982103,-0.06098097185336233,-0.02220045451828867,0.007063951850024497,0.06778719637694267,0.0375766555300824,0.02714465232691296]},{"weigths":[-0.008743031325552807,0.07517613578353727,-0.06709308881850144,-0.01146028596177168,0.04920936962917527,0.033174141668211729,0.08959959737415448,-0.02307811401012025,0.08112641428200139]},{"weigths":[0.01795691474851084,0.03650498088306024,0.008646564097374231,-0.003468130883840073,-0.05281205615590272,0.05952774741421435,0.08729613494069123,-0.004272520798810545,0.08180969637331598]},{"weigths":[0.022401633350354088,-0.03582451290075405,0.035995782206410569,-0.04221486885926716,0.008145728294564062,-0.03833271041050248,0.03967613717261213,0.002871920260819821,0.013728295909018545]},{"weigths":[0.07349761882084509,-0.010514573090004812,0.07488238630055273,-0.06088407580214843,0.04346276554569583,0.018496211202452579,-0.09064470923727848,-0.024697935154340438,-0.007080102708278638]},{"weigths":[0.03078001824447424,0.0380961679525462,-0.05883564875257195,0.008130440425692382,-0.006929229301250513,-0.03213418381358419,0.04530505772641255,-0.02027326823359511,0.026425019036353398]},{"weigths":[-0.06274055533507797,0.02624514613291006,-0.019887490049984085,-0.05859833472523155,-0.046080848837908857,0.0538804523904492,-0.003540607131072532,0.08569745823648499,0.03131749451886067]},{"weigths":[0.04055734817335702,0.014525385029804304,-0.006771612371993162,-0.0755551147685482,0.0487345478536351,0.07891677585434889,0.05751259772652513,0.056159863009969,-0.023644260895358178]},{"weigths":[-0.07773789342307659,0.04642354401149669,-0.04015216034024159,0.05547173602054349,0.06546601779276248,0.05087720754954858,0.00235781266018749,-0.00029412605834814296,0.05163865244873995]},{"weigths":[-0.009795426699533768,0.004530303742829648,-0.05608820094473372,0.009670341618654636,-0.024638623640345176,-0.04096882291896216,0.08306476878172417,0.07834716077720998,-0.08304992084966204]},{"weigths":[0.08517639723585716,-0.01316676748772917,-0.08852530508293009,0.01669084907303037,0.0623373449748862,0.011022186621697138,-0.008855054597460268,-0.03750094518882562,0.02870226886256352]},{"weigths":[-0.07979490609538378,0.04328861445035327,-0.047159221221494528,-0.02843112186176168,0.07839009158072016,0.0782678216569331,-0.0035058809705780329,0.008810869203795719,0.057695174242267648]},{"weigths":[-0.06434690339075205,-0.0846139798881876,-0.07899286260658353,0.0296208893072491,-0.06091696868888075,-0.08589775568364204,-0.02584540101806034,-0.05863868897824713,0.02580996587768939]},{"weigths":[-0.07170441717246742,-0.026461725655591605,0.06844649635765667,-0.08035710605177451,0.01585922966619577,-0.07120110545586164,0.013744417662141524,-0.02629400513709167,0.004603760045610109]},{"weigths":[0.06559324005408619,-0.05156194328307248,-0.07598973481978957,-0.031070384103009858,-0.08644234388002162,-0.07850951924590517,0.053811148498922867,-0.014686877897973548,-0.04302237361986499]},{"weigths":[0.06847688702485952,-0.017984598335275206,0.08576058831021963,0.04228494409445356,0.0730095779403758,0.07105456981667668,0.06430445661175978,-0.010272372747860626,-0.10620272011832206]},{"weigths":[0.009566644069258146,-0.028172838533979458,0.07623227539467252,-0.04919269777696423,-0.09109793764446374,-0.08359915030982927,0.010726482905353228,0.02100838696678873,-0.06803937935150992]},{"weigths":[-0.02523426088250714,-0.02973160274952776,-0.06427835039996589,-0.08725658686447402,-0.05447510924881931,-0.03370548858399668,-0.03499607784981859,0.0503433425911667,0.004752852536271769]},{"weigths":[-0.005579394521822712,0.03416414280503943,-0.05138787884777776,0.023381336890234616,0.07837715996039477,0.04556503460905026,0.011470055635644846,0.05203166305541957,0.02936970234876675]},{"weigths":[0.007694566638951224,-0.007022026686225429,-0.022275143605040225,0.04306499045472732,0.015171155036337073,-0.03181278746911388,0.0189662079560048,-0.02390131164346024,-0.06840044036719299]},{"weigths":[0.036152669343916098,-0.06618145609547434,0.08370010338371772,-0.02116154752943288,0.04932678790153139,0.07415724970756126,0.06965122977931511,-0.05565757113202564,0.04965829491689835]},{"weigths":[0.017349425252594844,0.06728390203424809,-0.04011018996410118,-0.07999513070700318,-0.04385394235629854,-0.023850984782195489,0.031219562684152558,-0.05582414323685903,0.0004270906485971584]},{"weigths":[0.0219375670462911,0.08944649832733898,0.053364869231459648,0.016674244124213767,0.020576195358030938,0.0742917241719364,-0.0005871904767300849,0.022841533521662,-0.07214540352081775]},{"weigths":[-0.0372938411419711,0.01241766923043486,0.07637309193025621,0.09265291368052704,-0.07582897907912523,0.05818100921761829,0.06922307640256134,0.019582957278664608,0.08457453184916444]}],"Biases":[-0.0014618868811729356,0.0008492896423683659,-0.0011187628686151752,0.014303668647864802,0.004884968176663421,0.005243312438063607,0.004563461417156461,-0.00002540797380939751,0.0010089308439380084,0.0017992646923306185,0.0013845806684831706,-0.003306155938769736,0.007839080271689992,0.003105865712743828,-0.003483735947652447,-0.00690311513018492,0.0024144888155592308,-0.00404353463410765,0.0003799375055360105,-0.0012250614454241817,0.0017763258367854173,-0.00004753432772180677,-0.00038545579639772,0.002149090246352077,-0.0002683599830616559,-0.000044505306681350754,-0.004709909087196629,0.00007202250566312293,0.00003832682663500406,-0.0002828651549027442,-0.000011746221740087469,-0.00004821731595783664,-0.002747654430896069,0.001565999838743979,-0.0005670091943550452,0.0005782564950270329,-0.0005892389339868804,0.008921580277565919,-0.009749123373176145,0.00356980891068215,0.0028040019432266714,-0.0011058349200344278,-0.01012062214278075,-0.004444200986958922,0.00761271508731833,0.001632770391706006,-0.00840788220344944,0.0018265336833036305,-0.004841758542040923,-0.002301560472635739,0.0000060959813815843208,0.004010666811019866,0.000030457581491456545,-0.0013480972760524636,0.007559852529810584,-0.00003675458126176379,-0.0000402246490181755,-0.005489651484582862,0.0013187032780763492,0.005311812970567359,-0.002545456475631951,0.0016554853325529316,-0.001965753097200161,0.0039184498567257,0.0038758922192130347,0.000004289192790760709,0.005783769096878378,0.00908147470023261,-0.002986118923366379,0.00010014761589509804,-0.0007939402397459484,-0.0003965168631317143,0.009810444906701889,0.0000930426334620748,0.005910104352156992,-0.002889676981859545,-0.002025785029073665,0.004721921856649996,-0.00001852960506816391,-0.0019574691498979465,-0.0027248499802009645,-0.002701392935618619,0.00013587877618735086,-0.003924557494863528,0.002591858525059265,0.01802783934317383,-0.000007193030401047833,0.007228401306272303,-0.00021523779547299147,-0.001139372736740883,-0.0019537604528484205,0.0013983149133180537,-0.0008552563962709251,-0.004092328529583591,0.0009485633399934652,-0.0004470340558040358,0.011175763941109137,0.0000975276395259638,0.00018608576556415683,-0.008630219526052754,0.008370316196973005,-0.000057303664561129525,0.004243851655806899,-0.005936400656862831,0.004252292478928323,0.0030512481869366169,0.007111751732799039,-0.004539938085043599,0.0005694180002706049,0.0007033618850702928,0.0008482725427135127,0.00477560587257325,0.008239866257584806,-0.0015791917092852718,0.005761707496732151,-0.00357836065287722,-0.00004893234908713447,0.000048763440343049134,0.00004732865946188226,0.005233742438382734,-0.003997106581076096,0.000016717831544793603,0.00275380493837212,-0.004356172269466227,0.003026720808342647,-0.000031205323442641916,0.0029309811528289836,0.0014734429717742065],"_Inputs":[0.3143123984336853,0.6906710267066956,0.7205280065536499,0.9346226453781128,0.04541015625,1.9254150390625,1.625579833984375,0.625579833984375,0.2987598180770874],"_Outputs":[-0.09478186990977088,0.098154565525943,-0.040417452026594049,0.38433861182651088,-0.06030232480580186,0.3856189466940267,0.03472205739996142,-0.2142108502682397,0.3314837128387159,0.10325935295832006,0.2847273669700839,-0.06257123374737597,0.28090486004448,0.006790735819134628,0.05297559003379552,-0.08964041921314769,0.06533377345971256,-0.05122379263901017,-0.1971279023345614,0.12610641488576614,0.10169659923493042,-0.1619294419130847,-0.02913650456492064,0.21714490299526716,-0.22326020131121658,-0.1799177925544589,-0.16154766338244545,-0.1253192789792673,-0.14664628949344273,-0.08273051041784849,-0.264961311218179,-0.12656404601375124,-0.052421886006078468,-0.04781888015314007,0.0495485295647358,0.2143559848780802,0.0596054834166895,0.3565726107471592,-0.0029312857562517468,-0.08412577248094049,0.03425695631071985,0.291084311653324,-0.06068782819022325,0.05664926568372619,-0.13343066678784186,0.10416226700617204,0.07871290412276164,0.07248366666168843,-0.1531337106789576,0.12701885264667,-0.31274100917595296,0.026484891093779149,-0.3132653891950851,0.010710263001759953,0.19138079110480128,-0.1139219334562838,-0.19922240569399936,-0.19482319476679153,0.1678580476801344,0.1736410106903568,-0.011369799588304357,0.11360059634288997,-0.07367239900749773,-0.026929360957576179,0.016953094718403458,-0.017678871609515778,-0.028783390705472118,0.23704379488119194,0.10446359004081274,-0.1436573336894581,-0.17427118086809297,-0.19809800996977029,0.0365047228674681,0.06266015545619166,0.025220473639690299,-0.03951518437469526,-0.09651631720122098,0.03504123962702818,-0.3426836902364196,0.20557697395796033,-0.15918491858043017,-0.25002692695162506,0.15030446796140838,-0.20742253345575285,-0.1236779902697658,0.4532491941385489,-0.3223799134049898,0.014325531286840837,0.07044590669668612,-0.05288526211305255,-0.06845008150866686,0.00676581797502576,0.09213632763171169,-0.17016981780914038,0.02426559046565181,-0.12329110443018077,0.05222989536091816,-0.22526159698834789,-0.07104245469119758,-0.12481269766758968,0.02549419351106844,-0.1866901670607019,-0.03344372084729381,-0.12365338748348888,0.15257611402324984,0.2158692796423624,0.3172187495203039,-0.03880947903959434,-0.11385799718380468,0.008502520681934127,0.0892312809632608,0.22841799446174428,0.15996843540046808,0.046543723894452,-0.02996332189685757,0.1117473998640378,-0.34708802480703146,-0.19565235977466306,-0.18838753542980878,0.32092337684289165,-0.16633625633339806,-0.2476656766667213,0.16048263527750446,-0.04770760518882594,0.24838711062078509,-0.08373607517237694,0.2621580818708306,0.39827450731742916]},{"InputSize":128,"NodeSize":64,"Weights":[{"weigths":[0.012856875363221688,-0.11757697207800042,0.04421873696485621,-0.022709069185923505,-0.060046616845556368,0.09012317937788893,0.04798726269708073,0.0649860588072272,0.012932353501409928,0.08087572219539423,0.02331278607532413,0.03626853914135075,-0.008473971214248146,-0.0910644252112074,-0.033808741349945218,-0.04296982256168122,0.08099144734484791,0.03586915586868534,-0.0751283666185674,-0.051659696338699458,0.04143188211963314,0.004275785454920003,0.06977213339013656,-0.01828192413705757,-0.03723314408778114,0.02684451528488599,0.05518736284408317,-0.09181471135241144,-0.0853953604564928,-0.10507368815819908,-0.021009706906769244,-0.07143227128236163,-0.0954898645577662,-0.04009396276917531,0.034755914899855629,-0.007167315071794457,-0.0022445308957886988,-0.10393340122704016,0.06475998587876845,0.004075679912671712,-0.117837177962706,0.03986471464115672,-0.06871511316165685,0.051352675884340049,-0.028850516581428469,0.1063823586161846,-0.10446877879948996,0.0767646483346112,0.05175129916971691,-0.00965349023629633,0.01986709225676806,0.009913999598621377,-0.029700130074837618,-0.0553624356908391,-0.11973833342245813,-0.018178168538889384,-0.1220821086899484,-0.004924908838245636,0.037122845087592729,-0.1206900066450684,0.003250287285155534,-0.03795147554604367,0.10025079828378736,-0.00797799002172241,0.1010953466846585,0.009386191034308298,-0.07816325228012663,0.05136866005288431,-0.0719307891701079,-0.06696736675123931,-0.01995577059946388,-0.07465952867906915,-0.033486170418764549,-0.06303351573120089,0.07807852244080593,0.05962850312258238,-0.019111341949732489,0.07927355495442067,0.007559742518893272,0.05781530819989402,-0.10768255334712564,0.0025894957991638024,-0.09902294070838834,0.0014009523921895782,0.10163046198616406,0.033201711344416757,0.06363479226921835,0.013861523044968526,0.037799018666393329,-0.032736385068396409,0.11056267469377912,0.1095809694222228,0.08108078130127505,0.10774382421101073,-0.10095467136756105,-0.04056130800544704,0.10988924858690433,0.03990659027181952,0.10967232266423424,0.06979880889857154,-0.08218534069302379,0.008640441406292226,-0.04327639063647528,-0.037412780666944329,0.0459614292396731,-0.058192005332189346,-0.1030832119898584,0.10915192020273586,-0.03503368646328911,-0.122648517143148,0.04668895426670877,-0.09566185419732236,0.1057736642674226,0.09602407617685366,-0.012126277499324866,-0.027700316828116194,-0.06418386364602544,-0.08837359641222706,0.035751651845938977,-0.030860660524844077,-0.1135493596448939,0.03853785693884163,-0.025025495025164498,-0.09667636530345882,0.014195657482230194,-0.0357072604701443,0.05015933224456767,-0.09287324333528742]},{"weigths":[0.0856846647463984,-0.1085998501873894,-0.01175417836426626,0.09264074124018593,-0.009388022798704649,-0.08713635883707757,-0.04631581084785488,-0.0019751963745682145,-0.09652740927997508,0.11827739006462013,0.1158591121408723,0.04855469474644783,-0.052908272026676448,-0.04047168310498748,0.07232468239651689,-0.024036071427266459,-0.05577748791909951,0.08727238008200927,0.06738971929446265,-0.04651120422771431,0.02237126215982527,-0.03114609320805635,-0.12120761272830298,0.08596928922104172,0.014067112141786638,-0.1194101226403754,-0.05128825369858918,-0.028048503665712336,-0.05154282466451426,0.0871685083254022,-0.024128361816744105,-0.10403357519615246,-0.05896187081352707,0.0938241925349754,0.06419264792535816,-0.10745536850233818,-0.09210452014736792,0.07756427519202494,0.09194900677852905,-0.0127087419376064,0.018957102415687177,-0.005509657122979015,0.039793194841631299,0.03079663136347655,0.02722459970573598,-0.12020583256256008,-0.01666112386824861,0.07091620549702718,0.110020166920607,0.09320231880425972,0.05916872497649743,-0.03704512714118628,-0.05748086837107047,0.07155051178543835,-0.027699153255664068,0.017817151856534237,0.039055062382195578,-0.10354045033484892,0.07318543191039152,-0.01101592011238926,-0.08958875479246063,0.04700327865519476,0.05054383765077299,-0.06894171116263764,-0.04896609017184178,-0.06905970910930495,0.0336860713253312,-0.05299554148257596,0.04058432630847189,-0.05707260063748029,0.022080325010638906,-0.041881973511869587,0.08342774900578172,-0.07036005827471768,-0.015353540425331797,0.05535897892903765,0.11906959786661062,0.03386385147417309,0.06768525244915615,0.06651643640387028,0.08995589458129495,0.08247038336100864,-0.002890362035570202,-0.11592189466181158,-0.06656349420110335,-0.04374515996301723,0.0688633378396991,0.09314880088252828,-0.03114922107447489,0.019227721521689467,0.018219721028642417,0.07849107356156,0.010701637837692317,0.10993814304616348,-0.1120588852732954,-0.09254407014018185,-0.07695253727691298,-0.09609355038414416,0.009632440242092916,0.0419185075511986,-0.0643321176979109,0.04384268924600928,0.04262614611865823,-0.12076075909695158,0.07205653284249004,-0.06442852721788464,0.11125868121675696,-0.08693441288184714,-0.06025682161950011,-0.08299309465200691,-0.034229189176805268,-0.025935113322381056,-0.12232563692623624,-0.05184197504374878,0.018233618842042149,0.0585003782318097,-0.02209098127111692,0.0963861669691672,-0.0451076808762144,-0.08941430567706979,0.06995996422582163,-0.09329309027493132,0.1002767919857116,-0.11777295330193057,0.1097828827491258,-0.02328908506365211,0.09188828667148774,0.08915281742384786]},{"weigths":[0.07204887497500605,-0.023514510575216829,0.04195096842048142,0.09378700136962176,0.10496466022477784,-0.027963977988276369,0.08250564910749628,0.09081583926819524,-0.03524949125830387,0.08298759070995243,0.002318367973449261,-0.008750408779764959,-0.11465130522286224,-0.001934385938482701,0.039166137517382969,-0.10750872557851968,0.0949621853053037,-0.04105395349732722,-0.08931749491198905,-0.10386260504528966,-0.06135742180252332,0.021671734473559118,0.0738213500678775,-0.07547269948559213,0.06907844914174032,0.07403906466307228,-0.1085374301288072,-0.10246577950945156,0.0011507531018508716,-0.0698974433352265,-0.03690947497592857,0.08969789225200184,-0.09573363737373618,-0.054986141169069076,-0.04342533893491019,0.037192327334574618,0.029845624220537365,0.0817103502265306,0.0117736348199322,0.02781697705475997,0.022532869662505538,0.094672655196012,0.09306293475725544,-0.03942168244626853,-0.00017978551178376732,0.015134466197744548,-0.08643414063476486,0.046153959625999729,0.038847885864035969,-0.04020607508500649,0.05052941500107864,-0.11413465218357916,0.06764593286176059,0.12487797299565948,0.009234973245867777,-0.10406058543192493,0.055332335733412337,0.05107075775784008,-0.10899296687377196,-0.08669540595339724,-0.023506497148632817,0.003308247730083341,-0.11840199015584,-0.05347574565947779,-0.11293331244636096,-0.03044155630947697,-0.010978517400916316,0.08091291259256929,0.018462163237543896,0.12324938748949736,0.0010157249688399269,0.06355670211331782,-0.004977555722300861,0.011814940040098862,0.06006487740876741,0.05559607529757343,0.05888973979282842,-0.04814321541524808,0.05956541849009724,0.0953535714433043,0.07319173476831444,-0.1015494246384654,0.07727065849717586,-0.09416117472524922,0.04374953680800283,-0.10286149665930282,-0.07140757049292605,0.04693353672413833,-0.052328694795359089,0.04256042854810781,-0.09355186866043336,-0.1178506812969828,0.04569511733632983,0.06456659165317413,-0.03546021691269825,-0.027123259872290547,0.037863638104766259,-0.11573942277539044,-0.0708558184743062,0.011456666499941556,0.028016262982594459,0.06844415963884687,-0.10246856372862876,0.08151176067670046,-0.06468555203466639,-0.027943242896827107,0.04460318609606644,-0.07782545133586992,-0.051794610872589168,0.06488110414057694,0.0323337273786824,0.004949553768199579,0.05682015276389378,0.011526335902283136,0.0015242219687639256,0.09927661731104644,0.12402600823124976,-0.057173634699779419,0.12275868178302228,-0.06973382265671452,-0.03538040093461726,0.1058460752341306,-0.02285210296551157,0.0620436161209217,-0.07295138568898724,0.019765196283326057,-0.12021090919836322,0.1130434525458909]},{"weigths":[0.03763504297320326,0.04450732394746847,0.1166302050434662,-0.04135780294570978,-0.0667666011326853,-0.046644344944841428,-0.01839233845473446,0.0726368942691463,0.04517833606084452,-0.06698221094313657,-0.04975961217971628,0.03194754006207085,0.08276954098498975,0.09141409422048669,0.023958410088937,0.0911939258610532,0.007785131260897276,-0.04508977273985393,-0.02237419700694738,0.022546699102970564,0.05099332714377923,-0.08425052616687667,0.07717038346449029,-0.04467463085858892,-0.07900940649525416,0.08701285117315162,-0.12032626495282084,-0.11271252097836492,0.08755197413059879,-0.02676426807871986,-0.0013540665480158568,-0.03316330863966442,-0.003476242242301487,-0.10622566197347064,0.014427492096019368,0.0010887964729967429,0.0883260097057354,-0.03298365457620285,0.10411590194991836,-0.0698985021988939,-0.07860902096295859,-0.06249451444100866,0.07487909159365328,0.04379796237986505,0.107275450738298,0.09023917886359034,0.07337437564901517,0.026150395528453105,-0.10482215842549918,0.08935553483004773,-0.03551935474870337,-0.005463958071318801,0.07699999774106979,-0.09000122133488749,0.1197150559579274,-0.008992120044866213,0.07034819624828007,0.034518984368095178,-0.07833514900209164,0.08910183108697037,0.09378040115680438,0.1221441353661312,-0.10259913562154405,-0.09143487309732518,0.06778253153978728,0.06114226217515713,0.1016221544417808,0.03799878566062715,-0.08707657843171171,0.119889284986969,0.1235110358253099,0.0602586388360556,-0.018928874261666029,0.1035802316786327,0.12406570912966485,0.05994026592866852,-0.05006992528463308,0.08626500640584682,0.005857726873233883,0.08399134723236092,0.11841728146814344,0.019214432920733924,-0.02320787598996736,0.007261564557311227,0.0450014204632458,0.019186183268529779,-0.1197766181454519,0.10587675838393729,-0.014728764281338614,0.11653941705811202,-0.03929610712191824,0.08336419428534732,-0.08208741018637063,0.05346164994596056,-0.08034483759178744,-0.09643563526126516,0.01306095533490707,-0.03565188096359918,0.06148487643662526,0.002712789563187553,-0.10616093111694176,-0.01002346490410533,0.09195607861707872,-0.05362041669126095,0.0305217308250735,0.113927334116685,-0.05908676685830276,-0.023837901910817018,-0.07262742905456808,-0.01898278115140281,0.08867529266315867,-0.10419354811398594,-0.007719662543103869,-0.04092646109565932,-0.02547018144527352,0.07050608456407605,-0.0714579767604058,-0.0993531800711233,0.023406758697123218,-0.007518297021137746,-0.11561243992055502,-0.006419678787888311,0.05462382011376384,-0.03970594104162422,0.09336033913966356,0.09987432093464438,0.05341043382559467,-0.06169286079103629]},{"weigths":[0.03904476775298947,-0.07832552924948723,-0.10892938526417193,-0.03809120421605727,0.05944314261229316,-0.0656695447840676,0.05921268690983296,-0.05107604676035183,-0.02641924297095785,-0.0839985886596166,0.019648606688083785,0.11966196203076757,0.017083589270897073,0.08617178821731163,0.03896202666420573,-0.07651779269199749,0.08481829234630378,0.007224452741612834,0.007810908689643042,-0.10377575640553293,0.06649845076228789,0.08322170854749492,0.0016478269180352024,-0.05000610608590729,-0.011089932770377958,0.04568919621630323,-0.02623190071486207,-0.08678566983982428,0.08472251740563204,0.002869351710239684,0.06169364654323891,-0.024699402392291994,-0.022671026488419,0.041513355055400057,0.006395483659222319,0.0033045209141376009,0.04787415784915661,0.060464949421341,-0.04037857945340031,0.02798274709031355,-0.06312664254188932,-0.04304473222669467,0.09034868388164548,0.05444194341354717,-0.10980495580338938,0.04773362066074856,-0.07446390604535078,0.03079872959336586,-0.05118957979583258,0.09605388079923064,-0.09956096514386014,-0.039258123963222809,-0.000524561946207365,-0.10949989853193962,-0.00643611503586682,0.04865580586945412,-0.11290027141601525,-0.08809117481645858,0.09255255661652492,-0.08632092765722899,-0.04829756344526023,0.10282527456797372,0.1035150821367054,-0.07331998231762992,0.01488762703127894,0.05911378420484452,-0.06140372386700633,-0.05636042100863224,0.06896170614637129,-0.047009903817726048,-0.06835236559814764,0.050514469337275307,-0.02611051431510789,-0.09927348203288772,0.016128022277812676,0.09991361127564312,0.03424565436013499,0.04513626934563488,0.0435709536590142,0.03343742280014624,-0.06600081411107882,0.05125480389046869,-0.062047833448165747,-0.11159666562670794,0.04364239543714478,0.0500279528381907,-0.07982700886341901,-0.08286791497795594,-0.02827479152330089,-0.09387811453204548,0.031618183991331618,-0.049121535108886147,0.027137672266574886,0.10351039461027988,0.10055054708405192,-0.027286574105514998,-0.024079264336293438,-0.08056307858818915,-0.04149500748125068,-0.08977591507868939,0.02729257174687516,0.10021693403282517,0.035508010230783138,0.019836270889053578,0.11622634354378324,-0.09349455806216046,-0.07494342673283712,0.11512355492503616,-0.06609538663713197,-0.10055409677013928,0.002614293118719485,0.07717610271819849,-0.08330567084509112,0.055678922426857648,-0.1045769331772722,-0.08390461253368036,0.09237449691948736,-0.08300763881693089,0.0974890222507791,-0.07289597581009816,0.008563028956479209,-0.1086126307294202,-0.009587997692507792,-0.10086355888447438,0.050221672064793779,0.04113612733047976,-0.06156337576297325,0.017433696319766716]},{"weigths":[-0.11010214554827284,0.004890339711735899,0.07479542100453222,0.042264275784756,-0.09155738378532216,0.03290330907754276,-0.06615192189329972,-0.07868823696282389,0.1032850315252911,-0.05428512354702524,0.07355892292612464,-0.05048384017628221,-0.07060453001546477,-0.07745270203063481,-0.12519413103035616,-0.010321271610227372,-0.024894039046737937,-0.0834795509880871,0.09377487342773182,0.0974830562235824,0.021252499434579437,-0.10835554395885484,-0.031183054838841308,-0.11532557364683864,-0.06671992532054368,-0.035358342437695,0.0951335372697576,0.030316122591027954,0.06018104994641668,0.07490482869362417,0.10846112472177512,0.008907755550232927,0.03513551198357799,0.03382264871589337,0.040507131413110099,-0.06465553159736295,0.07372005492433112,-0.12350802829450648,0.06628504797096557,-0.029804238471171884,0.003818780413617611,0.08071783663520263,-0.11750523107691964,0.06663022661332481,-0.11827874222215502,0.04839412528339524,-0.041730029422366008,-0.006962667815925475,-0.11640861332760384,0.0992550403145238,-0.06785494359394789,0.07701455511118592,-0.028930641690004756,0.11617857217209288,-0.0985934004944876,-0.024976304397002045,-0.006444148436488577,0.005590171233537443,0.06657128443752362,0.1002355044585756,0.06759480583469224,0.12289592591873964,-0.09839204687366178,0.03804338179455724,0.07201161667865573,-0.011525333752367969,-0.005005405516033751,-0.043369110623558259,0.0153409692884086,-0.07385972462819642,0.07266607688186404,-0.10137243109260584,-0.11111275737617636,0.07249972576620519,-0.016995093638420987,0.06705323050915539,-0.10665819605942,-0.054533704883384177,0.10600906915535824,-0.07071881557257097,-0.10244226999656944,-0.012881448607529944,0.031763045037580577,-0.10908928128968294,-0.05440653197891101,0.06276863274588632,-0.07698821806753117,0.0663842563044023,0.07648549016727339,-0.11348227155599168,0.009098965609697889,-0.003053638030476076,-0.09022269933255978,-0.04205139973088323,0.03696890121070352,-0.038791000089292707,0.09128727518938108,0.03423897573907844,-0.016030512341539288,0.11543824353316906,0.005454532252546958,-0.0964295865862162,0.08236594493050867,0.1204319535429908,-0.007956031585090312,-0.0800425510044246,-0.02456961288601051,-0.09712968830951065,-0.03903596114194593,0.1103551268569904,0.04917021321314148,0.03497099845695501,0.05352325215316993,-0.08618127279164878,0.09324618546591984,0.040045659101574888,0.07215454667419281,0.11510147972114222,-0.0023641712580653128,0.09355432658112592,-0.04640628631072728,0.039801659821,0.03880647518708835,0.00007869638387263029,-0.020353197042940704,0.10892265382551893,-0.08599661754725696,-0.009874854802973737]},{"weigths":[-0.06575584685570137,-0.11704907448536989,0.11307687055776508,-0.013510519965933438,-0.11004096362047185,-0.007124463581430775,0.1208151467845271,-0.07123123333246846,0.12238157836641556,0.10152538569770364,-0.08658127682421062,-0.10125963099162017,0.08437179451949852,-0.07188599724463846,0.08280790336566968,0.056486768306611419,-0.02732765753165396,0.05177274812745115,0.08058592841850085,-0.045043645702660946,0.10077859876871248,-0.0898561040673675,-0.05952236596920465,-0.0007522221556758551,0.04010743110737451,0.05126785504333664,-0.015686538326719965,0.04659886167038331,-0.08947796933415338,-0.11409584378910502,-0.12345109362068904,0.08368187867010568,0.08606153303904524,0.002705781591182877,0.01536948181235328,-0.04527507817036083,0.05356323604613557,0.07342272462625282,0.1056646241151553,0.05006679281986167,0.0671411624631942,0.0870010283459816,-0.042885790189341268,0.05033018276742335,-0.015596700702164889,-0.09004938669045917,-0.10641085746262562,-0.10368330226785624,-0.06522249490351417,-0.12342785446513828,-0.05858803195460749,-0.03946533221789711,0.09810405676773952,-0.036392180014247748,0.10056615657622677,-0.03297383586830109,-0.023087317709180264,-0.11181512929684837,-0.10698496544172104,-0.1086154190758819,0.08020021104457924,0.027457600210552898,-0.10687390989966328,0.02097380380882638,0.10940351496159076,0.08227970187380071,0.042272456745947,0.08424477340594582,-0.0793202649233236,0.04064492270967635,0.04191358342733053,-0.12264668922807258,0.09092256298185517,-0.0002989404703096024,0.03349960266060509,-0.06157125564487391,-0.10016257008937789,-0.11390279141828017,0.10449916530563436,0.02253606920221848,-0.08778297873755095,0.009027229977448766,-0.10694196176300049,0.0544971392189001,-0.04028855823315335,0.06563708359927376,0.014312671474409525,-0.05156411582385423,0.06322176814180469,-0.1023487048851171,0.03116634835371348,0.044676156565882457,0.06032830593240017,0.04428815740170126,0.02866450771250571,0.11348530790681648,-0.006263157446996692,-0.1246827805676941,-0.11351081311955769,-0.0452757658253284,-0.003914922594711366,-0.05223180409521108,0.11453967214393828,0.00014428158284603135,-0.05515453756391905,-0.0946555547491771,-0.04260105682480472,0.0650001809948786,-0.06662138301180809,0.09591526691898993,-0.11602136862912008,-0.09784477822176216,0.10080274332428302,0.03537321865488884,-0.08996226774600323,-0.020233219277820136,0.08312854513569719,-0.0568195089679611,-0.07667010993319298,-0.09210100776510004,0.05177033199909162,0.04211778294267068,0.06727505917085969,0.06743479802577417,0.0532910553515852,-0.08465241825281739,0.121578879313717,0.10310197596219356]},{"weigths":[0.10700438877414942,0.11511254340551952,0.04679893705975918,-0.06248949157415238,0.01913256539812503,0.021301358338769465,-0.11526940790990362,0.0032089293383455385,0.017774020096151204,-0.06509330258213551,-0.07245645646085153,-0.06444506044583481,-0.07996416003229931,0.07235643094541546,-0.10379726286488349,0.11804480392068492,-0.030258338378478,-0.0439554915675504,0.013664930134168937,0.07433572757121204,-0.017398452762826329,-0.01648727630139785,0.06814476007443182,0.1023759301443542,0.0450682911753138,0.004174063888084252,0.08722948825871162,0.09074634284526324,-0.005342245978989448,0.10088630707994305,0.09010843997444357,-0.0948624157430794,-0.03067507249499581,0.009518187065686154,-0.022963758111596744,-0.002930017524210859,0.10705952998958798,0.08763850610865055,-0.01777407233166993,-0.0037987896273863057,0.06853408077256694,-0.040543912475709497,-0.04407002482885936,0.04396752186295763,-0.000421989992777797,0.04263165672016989,-0.09399764373938056,-0.09885700093562536,-0.017686686481331008,0.006970983398363764,0.07218161582975327,0.0832667464841265,0.04828751587237398,-0.11953367396898696,0.024165372862822389,-0.08000817140182667,0.07139729970164573,0.04530214301136197,0.07435202826138106,-0.04753570247898977,0.07540724996999335,-0.003881640443944505,0.004785935298179894,-0.03639710975244082,0.07505735124969988,0.09824394155057824,-0.07866368627491126,-0.09171930233319256,0.11018805281584685,-0.10626080978406472,-0.04283603691752775,-0.043028283187611569,-0.05220799464311559,-0.10843199465540214,-0.08628796769013494,-0.00892191125482973,0.030653415891617017,-0.03958083240636713,0.1163229914693536,0.1018231190151865,-0.0011831661316457792,0.05688705878187455,-0.08339200009354914,-0.07665741127333306,-0.11813143262997682,0.10079844043913884,0.04377457779075284,-0.09244444817911016,0.1273692358954518,0.057428618129204547,-0.05506085780981282,-0.10259391367412824,-0.006638195419322581,0.028830745535129818,0.04731823400484608,0.04418535272092086,0.023849293834308069,-0.019033465680176797,-0.10644290848162833,0.10355862214917792,-0.009976324511581364,-0.11398915641176465,-0.023726621166448929,-0.012068523110405618,0.11039500637884413,-0.1089193860424101,-0.1188907776489923,-0.037675546454217268,0.01406675040358161,-0.03204050703207678,-0.018792019285951496,-0.05317026309740577,0.04584449473929844,0.1247962358150664,0.05085688821917637,0.06251050976814866,-0.08901180643106112,-0.07044524929198791,-0.030596612651379398,-0.006495869768533342,0.07450730299371376,-0.11983693755279974,-0.067908419841018,-0.07202656809734672,0.07149068010406358,0.04850524124420001,-0.06491903295052871,-0.07920827594055235]},{"weigths":[0.09129726840858596,0.05103091957107862,0.10379198393992184,-0.04983534516782774,-0.04833385884228482,-0.10790649228840824,-0.08765204147161913,0.02484108829317491,-0.1073987006121062,-0.0628400740859881,0.019329847368966977,0.05764756393221285,0.12086883633299224,0.035718988219647657,-0.06038381159838732,0.021493156631655645,-0.03451717482693704,-0.03630892985668219,-0.0925369663951942,0.07096159861656747,0.028900946491479588,0.0908004297239591,0.006466580964426001,0.03684420267738834,-0.005426925721904963,-0.11625513022396596,-0.03950987356236272,0.07471771859044367,0.09575937771536618,-0.002966158085405143,-0.009180525710402284,-0.08962092755008046,0.017916748160457634,0.037556970893441208,-0.05976625875150334,0.0986569058280995,-0.013713638338508793,-0.018174318108828945,-0.1100609156171832,0.09244640659818128,0.09668171150682316,0.07818229776715764,-0.08591089780811455,0.07524940471431296,-0.05335160107817634,-0.12499104383891176,0.05302322137185413,0.0774195034606003,-0.039800031779725537,-0.017049581241888949,-0.0062250141046356539,0.06018127406765578,0.09331061600457226,-0.06646274142171951,-0.009234198025622366,-0.12176692738013326,-0.037052722527161418,-0.049266236636511,0.03906445472243189,0.07128761041286491,0.08097945255180093,-0.02178302977094814,0.09930855716522476,-0.05653033655347113,-0.013077633037868842,0.10505907339956597,-0.030044199200762027,-0.08104967975195274,-0.06818736129714526,-0.09790992613513004,0.1189575776907305,0.05695331907025471,0.12093543337266497,-0.0932707914996489,-0.06913504626343896,0.06685979108841545,0.01438745923850244,-0.12005427117921756,-0.05200457363750701,0.10304568062816888,0.09322710414022248,0.11478139625044616,0.026741573068839738,0.03888642104138831,-0.05807380375578633,-0.04150557978587887,0.07650419754868855,0.11050927171075122,0.06443885226970812,0.08727537329637403,-0.02594804966954668,-0.062420946445587547,-0.08086538101205018,0.05191366479194474,0.05364626626130949,0.014249976401744049,-0.010884065400788037,0.06171741955636021,-0.02233722707820651,0.06063613893512241,-0.044510594985491608,0.004809011893204567,0.07243074037766091,0.0742363108492421,-0.1211708469203306,-0.10649246662276892,-0.03660176191929692,0.08115079619690381,-0.09979382397593566,-0.07958467186901935,0.015598326853748302,-0.1024529657465363,0.11665800371774614,-0.09122989728793184,-0.08249318623461813,-0.07691477115014281,0.03799051693175378,-0.06325219520043442,0.03937484603139359,-0.0897007753759021,-0.026575541882779328,-0.0579576251936957,0.06271820141443202,-0.10386296268354424,0.07812983780653167,0.024448068917704618,0.10157001041129492,0.002141451909287815]},{"weigths":[0.012447742497599248,0.07698160705445709,0.07426738439156265,0.004638086211360864,0.01582545112836945,-0.043075598355746248,0.03359842249471012,0.027755950042662099,0.066148013682361,-0.009079926006746212,-0.05592998602325711,0.03730503759197342,-0.021650711332928609,-0.11954667564293296,0.0051646625757925499,0.015784091930176368,-0.12399804255465524,-0.05142251676053659,0.0951758453176188,0.05483739127488783,0.09125821653712098,-0.11220410328815218,-0.0590565570385329,-0.09156399498243552,-0.005994352814998273,0.08392632925723713,-0.030473372604365616,0.07235756243504577,0.057813790158718836,-0.11348289024415809,0.013347558655020589,-0.12043351364329384,0.05930469777954359,-0.0984321178732035,0.004491185152423259,-0.10532193989729698,0.03614248035095668,-0.08626542673343604,0.010235413431548437,0.10056866019791185,0.09288313269379513,-0.06252021665365645,-0.11649051081529222,0.0540384585761661,0.056935308149887387,-0.040396472812742018,-0.012022863596432286,0.09559412404642796,-0.04557126510324307,-0.08065367989816443,0.06744765535150466,-0.02640242307858217,0.012309271630059588,-0.04485825175930901,-0.02008311575143427,0.06755962620690198,-0.10704484873445588,0.037098485455197848,0.12153501749148184,0.03862350681033852,-0.03043587447398913,-0.01934429868330772,0.07972070589777433,-0.0016648949942242474,-0.004603403756749837,0.12153720450518205,0.11795551310761808,-0.06135120657261838,-0.034441869768004128,0.11475104411112568,-0.08836799398375067,0.0768137571323398,-0.021740416415251847,0.12475116699745852,0.027169076005501018,0.0769373877288156,-0.017409831004379596,-0.015771289525683565,-0.07275977613750466,-0.04058389750991019,0.05342536322144582,0.07593702666010253,-0.036626697381320617,0.02702118972630564,0.015851131149171917,0.040568464850457969,-0.038211347511936308,0.12088230336891098,-0.03248897232731199,0.040972245337858547,-0.04192161659359954,-0.008574327114749694,0.013258230181626424,-0.1191700224829042,0.05462297831236537,-0.032754430102332369,-0.1051441224880052,-0.10329447962478178,0.08654034522858352,0.1201157717454575,0.03855615959319472,0.030520211685578989,-0.05398637178442618,0.10137558294441254,0.06852120764424724,-0.0753391262428427,0.0063963515631196448,-0.06827803226351077,-0.0482531267039235,-0.1198820883871736,-0.06476024217120706,-0.06905780441601739,-0.11826811647063956,-0.041493483033562528,-0.022664222984839084,-0.05999789787906451,0.00952360907742211,-0.09207860271944428,-0.06307611252685987,-0.0449588798037382,-0.05360834035945795,0.09594292758671784,-0.09020991489468629,0.054059643850640739,-0.09462564374695116,-0.12423084180422094,0.011745430414437545,-0.02307290988375484]},{"weigths":[-0.0694411307839681,-0.028050502409018579,-0.08900712014027686,0.06838729866850522,-0.05923189895798365,-0.045073224616469616,0.07694892447001142,-0.05899242578602507,0.019129269068480029,-0.026446092315307498,-0.0957569840894438,-0.029271061821090517,0.02816558427362679,-0.1228676570782539,0.0011870373604148609,-0.005627905364010224,0.11878563421142544,0.0018013258982362308,-0.05187978682914238,-0.01712652360373521,0.018244099560359093,-0.025671752527077857,-0.026259201773614069,0.04254138720713044,-0.032898940341662036,-0.06917435011162966,0.05910238825965702,-0.06761770476400478,0.06604718671951825,0.11995800301005877,-0.09192233315593797,-0.06328891132742369,0.07852888975390221,-0.0906627295883896,0.09943013422140772,0.00830004408151155,0.024175261810069544,-0.08359227637708262,-0.008098229994794353,-0.008086593628822494,0.09075776829536732,-0.0916842998949666,0.04062088696171945,-0.09579678524110202,0.023074010590994198,0.011687398490182345,-0.02987036861572869,-0.000046191086765339385,-0.005510810696472304,-0.010570605792421065,-0.12112509163405086,0.10181050607641916,-0.09070140876552409,-0.03241680393869777,0.08401136585761686,0.01955495494934253,-0.06856908589856147,0.0676734807567267,0.0189637184758146,0.09076998244857872,-0.03245254986678243,-0.0865587935514516,-0.05350383833100688,0.04741888071794722,-0.04964392207445927,-0.1132006684195494,0.06563933610572508,0.0474961660567674,-0.09003954726316037,0.07627731088643665,0.0010203984701402717,0.08648275373331886,0.06145540697783698,0.093130149170985,-0.07286732886353668,-0.009400947093706496,-0.09337991868813449,0.10119952447129976,0.011372019151681174,-0.02653515954404763,-0.11036045024910409,-0.04803817166163052,0.03009578127607933,-0.08204151197340032,0.04504933624433336,-0.03346225312060457,0.03218062196903843,0.03548077594045957,0.005505548185406407,0.03748986922380504,0.04646600474679121,-0.10487608295084756,-0.10752116966181458,-0.11888866075620718,0.12485557262557444,0.08511445869111949,-0.05435493757818569,0.07828690579885493,-0.0477861515663272,0.03310369758662035,0.11840201724110804,-0.052702021194379968,-0.10767672459358524,0.0321375611270931,-0.0879109789308848,-0.07060435098539698,-0.008512033631719242,0.1136838267920559,0.04102670728029168,0.07842580168801339,-0.00045314566884226566,-0.11130151860014838,-0.05545070288494574,0.11251729629917236,-0.07360988184488128,-0.10991096584131609,0.05203564187651264,0.12471487532097309,-0.1075561680962138,-0.05002392936204916,-0.10753207226225048,-0.02390566223634191,0.08334860750427191,0.11893682711672868,0.07763687089868593,0.0969816418193005,-0.08150349602074592,0.018154395116410258]},{"weigths":[0.03587411789885118,-0.08475526054469768,0.09786872530130178,0.08886280647402796,0.12529924806432636,-0.023789817155098433,0.11810619701887176,-0.11616916686016948,-0.08449027859486666,0.02503926278927863,0.11737695385646666,-0.08106743874600323,0.06712960614527464,0.1168244128294308,-0.030313545541601658,-0.03172306249386279,-0.08521138400324081,-0.09384952310351248,-0.11034145079284946,-0.08207494732624908,0.1205669181476031,-0.032589748608397837,-0.04418406212316374,-0.06071096749194934,0.08671876280997068,0.004977072876128909,0.025993853964795044,-0.016548011399603617,-0.07790544692132334,0.013102129040536657,-0.009796978663762576,-0.0352379704594078,0.11153494647816534,-0.12454409082375452,0.013364543173083117,0.06164847637967381,-0.11754497816643996,-0.09650821055735558,0.025394786598375436,-0.08398695567603165,0.11344503359353284,0.08781006027422374,-0.11205435279730206,-0.09371301147786936,0.008099845377298994,0.009618173082567936,-0.042201196948431777,-0.1053331129930042,0.1108011546429944,-0.08240134538044512,0.04593783621770674,0.06369041750115087,0.0004571659763225059,-0.06030896039080656,0.05039495512668214,0.07972543721983569,0.000879357031788996,-0.013108172067394125,0.11673944685866276,0.1272667327833097,0.11758061364207088,0.05871577601542593,0.04035332365993633,-0.05406001066535775,0.08221830267029949,0.05234016541916278,0.0825191099084081,0.03342175034989733,-0.05407601958287486,0.006904132320901675,0.03495346234516667,0.0029855944413899025,-0.01893281279898762,0.12116052706451644,0.12394884755798025,-0.04461070275834098,-0.1137205689888671,0.02808842939164463,-0.09177401773239977,-0.11053108934117673,-0.06273272050219175,0.04466500061705267,-0.10511564846410576,0.06130346065588219,-0.048062102061854208,0.0922303625585879,0.06511240225213072,0.04697009123590902,0.10979291471439584,0.09695516743884436,-0.07486996501175183,-0.0209959787267637,0.11182610916484442,-0.08258106727576566,-0.06639028335168199,0.043460054028398979,0.1195891178422759,-0.11245213762284705,0.0084572539191428,-0.0801473506074879,-0.031672572885772309,-0.09229895592492768,0.12015390034217152,0.11796723567322898,0.04346050536908384,0.0559592130402827,0.10363098930578006,-0.11707206731718813,0.04111372588220799,-0.04075190261828504,0.045851063988709129,0.05139451359930615,0.12664680025444909,0.010470409818736097,-0.03628450372655552,0.00462388256064746,0.10599514463865116,0.10352028627088932,0.11258836178180425,-0.03424154024670229,0.07433280787965951,0.05843874934322321,0.06482187985220783,-0.07704756039406867,0.08474529331672995,-0.007279174664362712,-0.05358061415508844,0.026772491018721583]},{"weigths":[0.0689119528860597,-0.04770216147444002,0.10618753604538188,0.10978667415141852,-0.1161104563937155,0.08673623213561886,0.08392825481666759,0.11474703213573318,-0.07714194486438282,-0.08291819590757324,-0.07265880706092351,0.11923758867435706,0.09482592329959192,-0.09925853715040734,-0.027390501317645919,-0.04350129591465748,-0.034243478775916168,-0.06880083136997355,-0.008139293147063319,0.12414785769651576,-0.04630892424685536,-0.117224242522728,0.06089178847899129,-0.058020724554750897,-0.040758712078862707,0.011229611396908058,0.05755509330209576,0.024967702683219706,0.09828239775775093,0.011310764515360549,-0.11906554935381184,-0.09145668675461782,-0.11184899325889965,-0.08317497909443536,0.10036197167901188,-0.12111604633205284,0.09976813136552114,-0.1199039114958371,-0.11045376771871936,-0.04034349651475817,0.08048169041578828,0.05233925838362599,0.12288639699769444,-0.007058090356875508,-0.0376795448756468,-0.015854480773770484,0.01058188808672303,0.09657074089381924,-0.08537697391268705,0.0825375857904996,-0.006620816095890691,-0.10520042930934902,0.03842545204682459,-0.04231903913966099,0.12122276300455338,0.06663383317357809,0.00766910452304365,-0.0821789473726894,-0.02314278781296204,0.04884429814262156,-0.06674109880771122,-0.08007751402753086,-0.02748384899640138,-0.1015918301861414,0.05483926051057996,0.003617145151243479,0.10653032585043865,0.008507213179289373,0.1220166432055869,0.1213545705601508,-0.023100276678776744,0.0663131735773794,0.11268695172874645,0.08815733942102908,-0.10457728853319225,0.10394351621446514,-0.09321468794506444,0.08073563345778406,-0.02108682328119692,-0.09024902019820996,-0.10295802800134374,-0.00664991015578275,-0.11063702649248454,0.05983727952674658,0.10346366067987344,0.04713489053772724,0.09387394658034716,0.07789120727988294,-0.09234243927215956,0.03406882803174972,-0.04416372185656469,-0.018000593038478158,-0.032867111182322137,-0.05008629343056234,-0.01904890985440471,0.07528259550839126,0.05355866386056221,0.12385910905012182,-0.07640085432655068,-0.048991059673248387,0.04703496086877949,-0.03854577046442523,-0.08344377613664364,0.024516841359173908,-0.10027216206541212,0.06835922480544909,0.10698487366253194,0.06539714618696659,0.06328301587358279,-0.1107791432629178,0.11600858381764648,-0.0025315139175147809,0.07435909545429173,0.0930064690123112,0.09897593365730494,0.046210746928941819,-0.11099923970021324,-0.04166930198143122,0.04800047101001157,0.06650374754695995,-0.10286126280324036,-0.11743050327826908,0.011350328851361776,-0.08556332524736968,-0.02579550437039894,0.05097022244545606,0.08654448448617265,-0.08459682226431642]},{"weigths":[-0.05659560742461149,-0.12388821563315206,0.040752485635239889,0.04914569693622413,-0.0024075397857257578,0.10715833169780224,0.09138076331300324,0.06769776513505861,0.09513805037776029,0.04138133998881467,0.1057028194259315,-0.06350318877068205,-0.11497624574132114,0.06718368342763076,-0.007287023000211401,0.006522349532337652,-0.09254605781463712,0.007865390904877262,-0.09856203138769372,0.061195824489507579,-0.10162507155017592,-0.11031391204768629,0.11624633862510812,0.08709168221830197,-0.1046820616168026,0.09677713975932204,-0.04226512067074188,0.11626652584683889,-0.09662492101009156,0.023566700705654116,0.04152348558192562,0.11933069371544972,0.01919806884201837,0.004521174545343739,-0.052648689837588,-0.09036203917778182,-0.10386127705502789,-0.056227234162143379,-0.08648017203703971,0.004943715812124947,-0.01634455348658012,-0.07359642817087678,0.11906109224548356,-0.08647037014264507,-0.033175897590214189,-0.11908525607798117,-0.11299966743122458,-0.03210256620160508,-0.08167869884781433,-0.017966323898200365,-0.05503982851540658,0.06107352825351222,-0.018028345073471349,-0.04838916130350751,-0.05291953491338377,-0.10045598599825102,0.11146671520383254,0.05978122471941941,0.04911304831025656,-0.04595911985299088,0.005175601870545027,-0.05140541916065476,-0.07694495040968444,0.11875682780814372,-0.07802842114201039,-0.08687082718910702,0.08571939145254971,0.01738811855191343,0.06579673183429083,-0.022575815368284199,-0.04461529024850754,-0.12025404881282402,0.06110848231009005,-0.12599948662295425,-0.04502437825147613,0.07333156317994234,-0.06478210244780773,0.12484822529720592,-0.1178490268610221,0.07478641754078462,0.11115463124684524,0.03429626926081312,0.08229458408948712,-0.04340644945955494,-0.03400215805335138,-0.10699581681536225,-0.062203340481410167,-0.0719377078647962,0.06903426069248722,0.10857486335722416,-0.03672851664878302,-0.08551268109662348,0.11115888615804866,0.09522933369749072,0.08928713346078336,0.01822511369843416,0.02242538974038951,0.014693731381187962,0.040284050638023979,0.11652186046605852,0.03424592225658592,-0.08663958836238536,-0.10820700137915904,-0.10532276031208218,-0.11110410319863044,-0.07879553686980279,0.006776835238348943,0.006848568685063574,0.05438476826542565,-0.020248479621465738,0.09511344334671844,-0.09661067091183025,0.05885350726814979,-0.02983445784584236,-0.03655694504377693,-0.0905754045816148,-0.013401841617421428,-0.08626192486551647,-0.0546041987825888,0.0186486829333204,0.06984675930087305,-0.0838089177203898,-0.11879837426653778,-0.044770301734909419,0.044450210146183857,0.03454562314960647,0.11605459534806556,0.0012751977472950784]},{"weigths":[0.030902041273588224,-0.08546570247692029,-0.04906656501268605,0.12067875240384345,0.025496800811741,-0.008737829904123087,0.07036058553465848,0.11625264251502936,-0.11215507135702664,0.12441362528000816,0.09224196260873796,0.01618202103136093,0.07247641120717162,0.02867032960894059,0.11934872549772122,-0.10221374938187548,0.059741392235313609,-0.08054989816624639,0.04463509894739053,-0.09395414816112614,-0.12214315594297976,-0.07817275626392287,-0.00294908011207255,-0.05446340892225456,0.02663383977872889,-0.09424135487633748,-0.02558882514288219,0.1124683828707703,-0.11989077217461357,0.03969579311138472,-0.11154159397831118,-0.0354638139001103,0.04070972716560138,-0.0094847745628141,0.005117841232811523,-0.11779166869160128,0.05085480353161598,0.1253162010910037,-0.07586376146275727,-0.06184935402907897,-0.0523547325601893,-0.09350966333473912,0.02346734284329569,0.11102130061511408,0.06198704341730074,0.0665179585414539,0.10605496713410784,-0.11799191765811625,-0.10755029584624344,-0.07277373458134863,-0.03659331027579059,0.01935481590549672,0.0312234116405842,-0.009577587986681333,0.09000362310698525,-0.12368768628222372,-0.0259441655027236,-0.05632679166088498,-0.03699235821421976,-0.052365944703876659,-0.101358379466291,-0.025372217979600807,0.0759277971486184,0.11076749392890044,0.0952207612683054,-0.0026418742279923949,0.1294769390271805,0.002414860282678343,0.11188013193071768,0.10842198283830086,-0.08567784007878525,-0.07947212685432116,0.10869122475611204,-0.016478809832282928,0.11107915557743832,-0.082054491260276,-0.04615934455246246,0.09720524265440216,0.05210899074506844,-0.0860435069486212,0.03865148324530296,-0.034991468820775129,-0.09217819743259366,-0.10348244985968404,-0.07235578582892531,-0.019554826494352453,-0.08514117098262199,0.07516876402950394,-0.11402278348068157,-0.07979644143021118,0.06101317884905395,-0.06770981153267326,0.10974989738362412,0.06145231891948453,0.05551411380539285,0.10076555582084872,-0.02907219976339215,0.0015871824402817429,-0.06156574633208428,0.03797479381140011,-0.10774876028771433,-0.02839628208711743,-0.05331064418045557,-0.007495869096446579,-0.0785761125195656,0.10223744357081274,0.02972262744340925,-0.01849023038781558,-0.008827987855650177,0.0826582952156829,-0.020764375686129184,0.12173311658454086,0.01720362416259246,-0.08199326976095195,-0.04923753547359093,0.009475666441417992,0.0027310185027235539,0.11675532411825204,0.1097172218653417,0.09218501971524733,0.03575725311984824,0.03740874337419445,-0.021908640139719237,-0.04207216347738151,0.10780589418861388,0.05795430347356017,-0.04060893793377561,-0.01562350883753925]},{"weigths":[-0.0019359574105733745,-0.04464515959140881,0.06697813574688826,-0.07451963947349968,0.02636829571725328,-0.06105891367811678,-0.023065145119731957,0.02966213403041288,-0.014311324029419036,-0.0244927380284227,0.011682496583129025,-0.06309428911977354,0.08299293928115864,-0.08452755513777149,0.026251511823441516,-0.078020421594883,0.0207897036509801,-0.10074958885531656,-0.11080751090142216,-0.04707994349405679,0.08098597033921265,-0.02527281351914277,0.12362556816902118,0.09696559740040042,0.005594760689303775,-0.04583082103494237,-0.05819553975622464,-0.05512516847936055,-0.09486464796694336,-0.08572315171761912,-0.07525829905721923,0.06615121152474675,-0.0969222175331765,0.051346382891090298,-0.006371322748387505,0.007321081288607939,-0.04643786685116437,-0.008386813370460123,-0.016878152395617294,0.009752861577158457,-0.08924298514943224,0.08452830082626908,-0.021222968542126097,0.02294931536915372,0.0791351457925568,-0.08471017209417943,0.014208143285163898,-0.00816715886318875,0.003381948615398447,-0.02050849588995581,0.02283165964998178,0.06656808935726065,-0.009389978256690789,0.013674946455665064,0.08086031915282606,-0.03621992215822034,-0.05884746100609274,-0.0648388012337451,-0.061390609608384019,0.03694876883909832,-0.04927193642389929,0.12265001469554858,0.02509614439605527,0.09563733305110504,-0.015649620023024677,-0.0890559245946225,-0.09404411966575985,0.07222370198135769,0.0182242341255726,-0.025314368249054338,0.01191335737781727,0.0222330610554835,0.05302187134211436,0.006764604018465794,-0.02031979529222481,-0.01066727805007326,0.004171293674599359,-0.0182725781300131,-0.11901345833018018,-0.09565302569031356,0.05624393100218299,0.11090941676326909,-0.012457381244212506,0.028804298175096417,-0.09999305869328902,-0.09464861335715552,-0.026059256810982698,0.08400467112716689,-0.013628075823995676,-0.07866399579721058,0.06399794239687656,-0.07394387576033415,-0.07984127937106525,0.05315692961980888,-0.00008370206899036596,0.03204197736771501,-0.11672429928103814,-0.03968158202771179,0.09526864128014366,0.11414240566136425,-0.02101882264162464,-0.03710289627612964,-0.0030568174333163685,0.0541273611279332,0.05557664820888379,-0.07182436462833326,0.10674622066970885,0.09869243679145036,-0.024215717908438653,0.07282890046285438,-0.06974030239155163,-0.01080594590030761,-0.07404710214482005,-0.02770908531011718,-0.08221253659921006,-0.11672933381994642,0.08970244863101924,-0.08311534914673714,0.04548577687631457,-0.052608238571924818,0.010893316012067918,0.030673935168070728,-0.03510079076073103,-0.0515199582684566,-0.02737574624915804,0.03208699396328538,-0.07256558266085812,0.01896090303632898]},{"weigths":[0.05196208831719531,-0.11982015066748328,-0.06444499759312135,-0.056956212953481809,0.05674005980327016,0.09306906347096045,0.0550440808590201,-0.027979046223632933,-0.03589256990036841,0.02895786426497394,0.10529429172910776,-0.01409730219652262,-0.00931618528914633,-0.048587907856998218,0.01895615397438978,0.10414144730252909,0.008677672842275622,-0.1053803898368048,0.04998369444140162,0.049806705041058708,-0.10214834985882288,-0.053446588453279288,0.08087991141831796,0.06280061373786807,0.03252040348537515,-0.029570270650080368,-0.10604579050864754,0.03690397683147757,-0.11104040147194304,-0.02304658445337927,-0.010723847818709888,-0.012295726091905168,0.11970747017812164,0.01022555343582337,-0.03089789177062398,-0.04744928093922029,0.10570430511664776,0.06527132375831008,-0.026982240970329076,0.02677975486212593,0.0935637964176425,-0.03631231423675032,0.08088606648215227,-0.09389082028646193,0.0934160921746547,-0.0261402099987609,-0.10377503424147812,-0.11305902747764052,0.03909976477556746,0.002634146782042581,-0.03287458040370348,-0.044638181046272169,-0.0011318226294692129,-0.04043855220063476,0.043893798900044,-0.08253271401517236,0.1222774784158188,-0.044121412049155459,0.05217528244393703,0.02776779372319877,0.02748202349118485,-0.11607073467001956,-0.07431711561378912,-0.04826075004827947,0.05966148164896756,-0.07100476197280792,0.10639984234429624,-0.047662728904665257,-0.06320603941317941,-0.122062114129494,0.06533040855610467,0.038723120866287739,0.07213057859988334,-0.10456052939972044,-0.06112504984460234,-0.07899235385301425,0.11963773393389246,-0.01338942871679048,-0.02012262091707159,-0.07199494151296301,0.03044769056853136,0.08781364122156793,-0.05803570925212802,-0.10183595037354168,-0.011509027531851653,-0.07800848393414664,-0.12208513112195949,0.10486042025908953,-0.04055393628511798,-0.02459154401061519,-0.049472058685223179,-0.08008580968384696,0.11098068982838977,-0.07243545599618434,-0.08424838826110989,0.01766930240641363,-0.02243221697705183,-0.030835583860247496,-0.07780449954996477,-0.08374893523590357,-0.08466278657946157,0.11641425680535596,0.07668288885268393,-0.027919533975450444,0.01731957998419284,0.06287640492875568,-0.07971303761257591,0.11140841732259216,-0.08351431021661783,0.05942061032191375,0.008854744670355646,-0.09360849973689314,-0.020365618274771674,-0.02887000407670145,-0.09566493563435066,-0.0359036178070702,-0.06762181563453843,0.037073691896116488,-0.0755128441970039,0.08737002632768797,0.08685633062309216,0.07551257223035059,0.009386807822807705,-0.08070266342734886,0.06204352584091513,0.10089777622124524,-0.046306183550287937,0.023104669169495788]},{"weigths":[-0.08268223261220711,-0.07915340375341291,-0.04598659557777895,-0.08971820408124882,0.0449356812897782,-0.08979195314521721,-0.07154917883687644,0.012526331517586222,0.11680342468146354,0.09106859616963373,0.05792273838630031,0.03954889706774969,0.012384782570225314,0.120094685193539,-0.09213118355513328,-0.06993289621626589,0.06461132574105796,-0.1187360554802696,-0.08335557445371138,-0.11657090638797548,-0.02754375787285302,-0.08283241533815886,0.03575556108759449,-0.08111879760683172,0.06360148514474301,0.09920465150153445,-0.07860849557661019,-0.03488635653518219,-0.040972714039339368,-0.10151857291774932,0.12346330002465993,-0.00045865178253679033,0.03106574413018649,-0.05477750748528533,-0.077688395352122,0.08426377163356978,-0.05054324541691566,-0.12414706455522076,0.000638673152243875,-0.06493454740086745,0.10573159492127792,0.07311489804367674,0.05190444627368092,-0.00004644498671530637,0.022392217169860556,0.08508290156099434,0.056579574649918907,0.080889605526402,-0.10508821581600728,0.09682669100811774,0.08813739954496953,0.03539685164393204,0.03093108599058541,-0.0863179303255763,-0.033435838761007977,-0.00006300569420174439,0.0036047896048792369,0.07872564923074299,0.004299001939529033,0.11045413552354872,0.05933203115559573,-0.09361262599092014,-0.0632856774116516,0.0964602367531343,-0.01214532207307902,-0.0246040281204255,-0.020554349546509738,-0.096343424245414,0.10973419240168024,0.1145295302496978,-0.01996294254627611,-0.113107725561537,-0.0031963184554859218,0.10134636430172917,-0.049202779980735248,-0.0906041156441147,0.09279867347787524,-0.08271558227798572,-0.1110071297074453,-0.06759970066939344,-0.0655733652150432,0.10525006433103389,-0.0621046087326726,-0.0403303215882671,0.029842456884868849,-0.09451183059947364,0.09757144106993704,0.04444682679625695,0.0019317152380101948,-0.04894899933349065,-0.00008606004446603089,-0.06511938822882087,-0.032477921384168769,-0.016977283983638969,0.006399342030621256,-0.06257373274986485,0.025429984602939664,0.07518130403016504,-0.09642443969105469,-0.052985345222781848,0.0033081839819157994,-0.07830032706778679,-0.005338860680056125,-0.07124438004687904,0.0514916945857223,-0.05713679798241566,0.04861417179001654,0.05538829220759871,0.11826601334544808,0.04337241825272506,-0.11423126472548492,-0.12660863517428753,-0.06999484093938445,0.1157330115882013,0.013978832020842637,0.08760904501374957,0.030808308280588577,-0.0755741007238074,-0.01709960948527003,-0.027839929940325117,0.081076314954444,-0.04716575448273419,-0.008085135593276217,0.09576215851278748,-0.02159739422144307,-0.1105595025799504,0.07807612187618653,0.11616358819874705]},{"weigths":[-0.0962091953869514,0.05921783497421904,-0.009116918912003589,-0.028007739283772098,-0.08240903710869488,0.06606462622911427,0.09195921002386864,-0.03644288571203345,-0.11769592801321437,-0.05550285517864631,0.07761494996837938,0.09461596224809518,-0.0008347534696894069,-0.0926772037099759,0.03868037133201402,0.02040982864840142,-0.02710590004662351,-0.03364864973870447,0.09788541149415517,0.1185565147981187,-0.0023013181053949699,-0.0001250969823649703,-0.06806649258473294,-0.08671010011624002,-0.061871088364789,0.047646888997365539,0.01344114830345438,-0.04812599358844365,-0.096699657283688,-0.02294933879938388,0.0691966397286895,-0.0007435625610696587,-0.08501645099764381,-0.08804614092905494,0.02167849224496894,-0.06250260707580964,0.01568722597647732,-0.025683746740373084,-0.06344634982648091,-0.028608553464916258,-0.008224985930354524,0.06530861706233149,-0.10361009616248972,0.06257200553713939,0.08123288584779308,0.08728562583172986,-0.06549728211609105,-0.12431573536048588,0.06606039879977069,-0.0665368406765252,0.11525405086741725,-0.02540354310648825,-0.07023403258265169,-0.094682888853897,0.028567274179769104,-0.0275056607825007,0.04850282606551927,0.02402511538934583,0.0012049028208690248,-0.08162445809389826,-0.020776817104921576,-0.035047527675853808,0.113171701944723,0.0048204653139531298,-0.09150615481071196,0.10243773010663548,-0.06764298661433209,-0.027535252212516196,0.10162980553391596,-0.09726410180085009,0.05263091177334635,0.06537665325005827,-0.0018059851263177705,-0.07541081494542469,0.06128093212976991,0.05339730182421248,-0.07757076599245032,-0.12472238438117082,-0.08222236197414355,-0.07010793159269945,0.11408153390852208,-0.02249158742435837,0.0822227463150893,-0.10601772037398914,0.07191968743683514,0.10871391761691908,0.015203487418278952,-0.05832758467355593,0.021441614645320994,0.03716401789390055,0.043002490661695907,-0.022434335232928993,0.06638029988000123,-0.10694441629765644,-0.023015770500411378,-0.04002062889233575,0.02939395397408401,0.10564385292384304,0.011114125149845372,-0.07896324478176675,-0.01395447871292986,0.05244717530028243,-0.023160363074409858,-0.0846692269140527,-0.002824068323794366,-0.06598557003750309,0.0017553531501151394,0.01897720325431034,0.03515563372774282,0.018368279260317319,0.08848559515464776,0.02280047178727618,-0.1009266290606387,0.05313705132982123,0.01696851487360951,-0.10733830270946492,0.06657079606469522,0.1110810469048712,0.10633704051728889,0.019415408298671965,0.08047211717774014,-0.04490062003597302,-0.09967124365571976,-0.07248916511513684,0.02290785839250779,0.05141597130835754,-0.12458030904992153,-0.07361742619746059]},{"weigths":[-0.04138506625138228,0.05372812562600066,-0.1007930678009098,-0.05573898752534071,0.09496919235995308,-0.09276422989047048,0.11713622742657293,-0.0770140755179264,0.08644267613356852,-0.03014674248722939,0.09604819118675244,-0.05011724778611051,-0.03679963715741487,0.03905504350084032,-0.07409701058858408,-0.1032887614835078,0.025534583305442457,-0.016463746494062908,-0.10101730352128036,0.12171923552572568,0.07386953665856226,-0.01961415372002954,-0.0630030660117451,-0.06098728953546143,-0.032136565680644737,-0.044528119367098707,-0.045928007869026139,-0.02075516503960731,0.030423713378549948,-0.028040733995471888,-0.05313855586142935,-0.06224542463230188,-0.10007438209257876,0.09302481380257578,0.07381698438355315,0.0876940573498135,0.10728825237776656,0.09859252742710728,-0.1127711927193492,0.11321587187581094,0.008803587922881726,-0.08627125930629967,0.06715930554312297,-0.06446500756045735,0.04110688544315676,0.04593711144551535,-0.015979664258190818,0.04819954339633013,-0.08745923586451687,-0.09441290327441036,0.08676533155736951,-0.014285341224592569,0.04459311433342796,-0.06504396120521018,-0.003223437407649852,-0.07682496921086055,-0.10642549324851852,0.07553266738932794,0.1415765239339795,-0.04265080795295755,-0.04913865849606834,0.04896121786655589,-0.09400625262471432,0.05626302654652802,0.05660950781344,0.11689268466171228,-0.03444271181635941,0.00931933333780072,0.13016355040515618,-0.023570095103062868,-0.0005221372375666342,0.02445388038144645,0.030778535273543154,-0.03304623955815724,0.04311771647208024,-0.08605264117477328,-0.10819718744333692,0.012317416290217196,0.09827092555344153,-0.07537018545404398,-0.09003941633679302,0.000755885851549651,0.13272670911954896,-0.06412000501610835,0.002038835358536082,0.06336503363680325,0.007616159617020709,0.028771220278598073,-0.093527343580492,-0.0387172141237458,0.032852091908140448,-0.09552686535237597,0.07143074058382107,-0.10605562505643238,0.04740470913008711,0.0489479247568545,0.09991514998050256,0.08016005954194609,0.02377810139840837,-0.013164105974977896,0.027974188871581017,0.11374937760464896,-0.003790637967140295,0.0015566703527143905,0.03356337242339276,0.0350527172777679,0.08180773766600522,-0.04155240201301044,0.0403993488368883,-0.030310004274381916,-0.10419427694573909,0.04768599660654811,-0.0003009375285133909,-0.052777319637980529,-0.01045402287290548,-0.10971547839033244,-0.0904425026722119,-0.015849182767089626,-0.07617159982290824,0.0898237355618161,-0.0423621969196518,-0.10211977605081674,-0.02637020552286524,-0.002112032376466257,-0.03902836054382351,-0.027262564470971544,-0.03444616617996688,-0.12297985935815456]},{"weigths":[-0.09243467704717956,0.05497079301027726,-0.11289480004763668,-0.04349124410561155,-0.05845972297926573,0.07131557376167897,-0.06280685969281137,0.02562596391275581,0.06106769018933719,-0.08260018603442407,-0.017391778985007136,0.02985002358852476,-0.06821642936760945,0.05792029360070674,-0.008572986622134928,0.03489601517605351,0.03538002341536745,0.06619824124213265,0.02836657146493312,-0.08548314146313313,-0.0965816777280577,0.05215923602362837,-0.08999302048850355,-0.09584623640459192,0.04065829506231916,-0.03509994985303669,-0.04959198723539755,-0.029991083356544925,-0.11376983975488069,0.08704828593085797,0.07956042182806031,-0.06786906855694183,-0.07544875031146348,0.010936073144686745,0.1082494186859148,0.08768777029582121,-0.12055042024705896,-0.03752374893607628,0.07857876241517263,0.02873937995271315,-0.10597682872691848,-0.007618969583366978,-0.0008540931255883779,-0.024129888503115448,0.063185230212045,0.03375237092838028,0.1033421601460984,-0.03849920082970901,0.040067475722970497,-0.07784901199887062,0.011740354291362616,-0.05169725588614616,0.1098607145112827,0.10464616746051314,-0.07006183078914329,0.07083050626800143,0.1065873968482602,-0.08207242777408688,-0.07105489916451106,-0.002554337030249343,-0.05345225057959428,0.07959519620513025,-0.03881456660910555,0.00005481363529659427,0.009361518497908497,0.005042383693172796,0.030557216203822538,-0.08231138936579564,-0.014138719312523937,-0.08801919433623506,-0.028163042874425994,0.06546361666316929,-0.049250262709093928,-0.01860621575991034,0.007794117097073115,-0.09628937860869896,-0.03813774053989153,-0.11580492121824492,0.0636733933535782,-0.03655976272197498,-0.09150153214397498,0.04380742089580639,0.08766591160886082,0.12165282970278305,-0.0859996435239348,0.08932480872867181,-0.03675350708929748,-0.04041228338838717,0.022977116431326405,0.07279336267165679,-0.09909104230296805,-0.07984179454749188,0.1055670409375705,-0.08238058009652577,-0.08220904082003426,0.10764913128338064,-0.03147875190204279,-0.04136267040796385,0.019233358947230444,0.024126340843777628,-0.09311385659968696,-0.03151929716223943,0.06712585234786736,-0.07669045657574336,0.02446697235691578,0.0648460919047587,-0.04073896339891797,-0.05358357358642736,-0.01611731899361778,-0.10624482472522452,-0.03293180540403321,0.09934728686177562,-0.0681653084546034,0.006016786967373353,0.023609112981011809,0.06219071933665244,-0.01778657832805149,-0.10930273646361176,0.09781066965962336,-0.042602339863869059,-0.04411218475106447,0.05248266118113036,0.055618943392411929,-0.11827944606087634,0.010330268096209749,0.04573236101945483,-0.08657684411905521,0.11508024233924232]},{"weigths":[0.090762516855391,-0.06463772959066526,0.0022713365837489037,0.01223422491131292,-0.06940143618928489,-0.014759569784163705,-0.03536444227162165,-0.07408855306670602,0.03550964613233036,0.0822463881920905,-0.04112670773688326,-0.04718648454399609,-0.04673579995591976,0.07008134061045678,-0.026074863769148177,-0.03125996241488138,0.003991360855430336,-0.004536342380154966,0.08795596664465307,0.10000458717611709,0.0477498525147349,0.018855867184399554,0.07751061964204603,0.11985315401819052,-0.010367809320280225,0.1233238777177404,-0.047665351959340417,-0.11976104699145016,-0.12249826763835756,0.004106050548077229,-0.09353453562650184,-0.00975090392656399,0.11618678420464109,-0.03794480852184363,-0.07875892710590749,0.04307431975373495,0.04189188880146936,-0.0487072791215402,-0.03743503424264682,0.02675211672020996,-0.1218049231184785,0.06861354870850116,0.03459406261239666,-0.03138495703528266,-0.11175714275585344,0.05989441825035544,0.07903884898375893,-0.03079448711359741,-0.009963083274253585,0.09494709913761614,0.07746890627620259,-0.04129325396466608,-0.028055167824011817,-0.04064341440567466,0.10483646739476674,0.0955063616610971,-0.07231967774651459,0.03331980314009993,-0.06675944782396309,0.05159965168437377,-0.06570296010673235,-0.008117122046719794,-0.05025369348022333,0.013873245113969292,0.014747781346501042,-0.10027067359027274,-0.012846343921851248,-0.12209076423728796,-0.04161445494872264,0.005524378483569812,-0.05264913880293193,0.04442243840990456,-0.03631796840038253,-0.06867032972538771,-0.033245606315751529,0.03240804732577712,-0.09384562785138624,-0.0962569803207376,-0.03896406579376862,-0.09722267386419477,-0.11296659641460312,-0.12246992678694506,-0.07267737343476889,0.05270155653615791,-0.12217680717887657,-0.007049776747471282,0.08511806415007496,-0.12489232432421824,-0.03432683419615239,0.011455307945458245,0.042413954567044168,0.04798384250874757,0.06585320039002245,-0.017603621010186079,0.03019124259895306,0.027186498877969466,-0.03126631946069332,0.06054143187224759,-0.10152367959153866,0.09581685067060404,-0.06309642102017636,0.07477944531617652,0.1086411063437142,0.05213441207100347,0.05376807348463377,0.015956642005701406,0.0976176933838264,0.01697543168545647,0.0739483071990492,-0.04158352907509284,-0.014077900196253598,-0.08629684730264015,-0.07289233022353872,-0.10333894099416272,0.0615550563922596,0.11760804657835468,-0.04276355995047708,0.09340748569874452,-0.06379213278830323,-0.0006813779227705006,-0.10927629719764488,0.08258565628483926,-0.01751447591059999,0.09705736311286796,-0.09496085771161656,0.1082621719460666,-0.12168837810431248,0.08762503426313936]},{"weigths":[-0.0064495368236082649,0.03421218681881046,-0.11979076441827938,0.041312803491033587,-0.0723839056214705,0.10558187357958096,-0.06501199640859848,0.02681674768880513,0.06298600496319822,-0.07934604675564625,0.059405499830624739,0.0982507375030704,-0.010085014039219333,-0.11543143467481358,0.012928661352611714,-0.03990066385942376,0.10655973316259444,-0.07393099507686861,-0.002168832468650119,0.03828584082773969,-0.10931202548877912,0.006371688529057449,-0.06846720637385202,0.1092543290449302,-0.059254979348284098,0.07332217917361858,0.07663766597355619,0.11448316070535168,0.05669285263640504,0.06112937729715494,-0.041084965748986627,0.04942135123246565,-0.07283305654220523,-0.0970038606717846,-0.0394361415567324,-0.1077175787021373,0.06761108115348555,-0.09360245033010896,0.08764100075188874,0.01908041116864946,-0.1029947072304313,0.06174328038986131,-0.10495493624438708,0.003286311647501433,0.11448037453002218,0.001771903846694576,-0.01137167541599502,0.12697513706314274,-0.02149760775802313,-0.07290873623662056,0.05872086900729088,-0.11203259062827686,0.10642009248639112,-0.019500556486272276,0.0002463137426765271,-0.1075386956479002,-0.09785546992290298,0.07549530210975092,-0.03577038991425373,-0.0975763847917289,0.04986985435766151,-0.08808573386279004,0.01593653566120122,0.0636341261364903,0.11870336938971706,-0.0391178310848547,0.10235746485369704,0.0497868576001699,-0.08408814988198527,-0.008691468355385566,0.09802361678631444,-0.04545471419336943,0.09624065454783117,-0.09732290342694053,-0.075857980670729,0.01709361014144451,0.027513288912758804,0.12302425797885028,0.05912520666662848,0.011114978444237093,0.10694172944370008,0.06397701424605631,0.09972967870039068,-0.04917039312873782,0.0799846887176414,-0.0255995013633065,-0.10945817237514434,-0.03794671230876004,-0.06146344638407485,-0.04207776621424998,0.06315337127915419,0.05185241878412472,-0.08003480054242279,-0.032787650986240157,-0.016465644789565898,0.02836944016771396,0.09643870294688392,-0.018540464596182229,-0.05588383523984175,0.05332600323187667,-0.10175892917565613,-0.017058448421101385,0.037997677447987,-0.05746969329720126,-0.011563439742621314,-0.012308752654868409,0.1002145185962043,-0.014401088399701093,-0.002305893183155391,-0.04564207798772336,0.053928737565687,-0.054248329286398,-0.03156781673503908,0.12016893313395336,-0.010520564791450645,0.10568182960319145,-0.09578452347871984,0.024468515068920825,0.08055510700858774,0.12233375841130716,0.07400636251739774,0.04296418600500417,0.10453642928944826,0.0015325487243722377,0.05209030373875093,-0.07890643462659972,0.10263844967782113,0.06258933780728812]},{"weigths":[0.12306630446520464,-0.00714568140275099,-0.12271257192096809,0.00021980619048023864,-0.07023203458592342,0.122273953890951,0.023077915939121467,-0.011499286722755048,-0.04800026227034355,-0.04572419162703689,-0.07062706870401493,-0.08884121480601795,0.08126238892904485,0.059293909360250928,0.044105797112013258,0.013481242983626726,-0.01735748481209804,0.06145271950399631,-0.06926900983665121,-0.008380555089599446,-0.10871547659067196,0.0157619289458405,0.07986145480859554,-0.09322996953710526,-0.02383129800225461,-0.10140429655818378,-0.04148372669527164,0.10139439120767482,0.08983278634885482,0.08767908624145396,0.09047408713635397,-0.04839496851527105,0.020246185450722058,0.015168672536552916,-0.03801839983257476,0.11886731497476048,-0.12243675923806288,0.04119346016136535,0.08593198714002301,-0.0785449476657472,-0.020771273260268856,-0.1001105890806732,0.015184216175852377,-0.007962073311769494,0.04728390035578426,-0.05822891218186877,-0.1003484154557642,0.006960212610326738,0.0015079943024092036,0.07415191385063241,-0.0565239154899221,-0.11689077487499002,0.09927992519368474,0.12308699921586793,-0.03180566776014741,-0.08799160582660666,0.11226438453852396,-0.020003432849814954,0.0734155324320547,0.09814411363321993,0.07376137584139178,-0.07179835279110057,-0.01518441914084883,0.021367924469877628,-0.12176677612036184,-0.1072316201363474,-0.08764391513460029,-0.003647611954202853,-0.07598143425672228,0.09201187368253904,0.03300465658048897,-0.09387542166870952,0.052311877642167988,0.08769411631854565,-0.02079473296006688,0.1069111882158483,0.010288589974980629,-0.014503843207145422,-0.11775296469978872,0.017349661302572717,0.01178589956461064,0.06566018984077919,0.03555684105470662,-0.05673716382551504,-0.09514571439507796,0.10947143596856544,-0.05627439062568599,-0.11382082000358852,0.023062825265945,-0.04425053381361623,0.04711989434257684,0.04335310277910643,-0.05528516882753167,0.11243772656740409,0.06000036020483284,-0.05348164832105834,-0.011206101694457602,0.058247185984205248,0.08197420419403963,-0.07443397327398604,0.05189504832847864,0.09139875357972736,0.06394715422214575,0.05740004675851306,-0.06192040524593849,-0.11196690804650744,0.02477349270857678,-0.04552248806105884,0.010369843993871654,0.11931581820721186,-0.007471773648260001,-0.08062593791266135,0.12290292614380778,0.01806607968361136,0.12588894370536836,0.10066205024807706,-0.045331159204521128,-0.08839709802717635,0.11221792436062836,0.006008600089056392,-0.09922921041149992,0.10889371256429416,0.06299994209245473,0.06951089690442378,0.1157748891779398,0.0009359569122533278,0.06961219141315089,0.05809954646580463]},{"weigths":[-0.043507580735051929,-0.06146610023479304,-0.08007222558015884,0.11043152024060706,0.027816553177118024,0.0786058780032395,0.014728124234731044,0.009526706586111125,0.10215090305858284,-0.02420924068591217,-0.1163195796795136,-0.00536704310221262,0.05596652582868336,0.02178375246815803,0.029993178225893627,0.11395266092343612,0.12153044185780974,-0.0907705802575552,-0.008501458115533241,-0.10148195719987972,0.05170882526190299,-0.06758639868835467,-0.0838160356891597,0.05477322322159099,0.009971590627633994,-0.02083465684477709,-0.0946931239533614,-0.10557489180355784,-0.1247404611920501,0.03985258511018279,-0.08658487175905905,-0.0629245049536732,-0.08711826725469932,-0.088732442721636,-0.11822250281917105,-0.10194271476307106,-0.04276111500790127,0.06070114268891668,0.09539040560251448,-0.06636112890348145,0.01097210306937632,0.06364736052171431,-0.11124210738321676,-0.07749868576451453,0.0642769806524252,0.07332699771097821,-0.07471455340531622,0.06272492494441558,-0.08950860745374886,0.0003984722391317298,0.0009898557687608,0.08220418586805989,-0.11563530113104272,-0.03366250544516397,0.11288662517814044,-0.05581493944491504,0.0880636019564685,-0.03044051171996526,-0.0920451966957768,0.02018518105466624,-0.06764572981890643,0.06166495008633782,-0.0694554811577606,0.022988836193762138,0.03711355003009784,0.022450597938138474,-0.0090328270034312,0.11818308500737729,-0.06570035295130485,0.05797831294567217,-0.10711080498826886,0.05777014775197311,-0.06897658602765219,0.04640838605080526,-0.02435642455352454,-0.1171699196474153,0.06020070652247232,0.02809604728955753,0.0509004318652983,-0.06592030577730286,-0.06274737942466505,-0.09237785846326062,0.043682908087958088,0.03273412344499891,0.05714906939864663,0.07112860258222259,-0.1144440853606536,0.03411703788869778,0.09548761782759004,0.06541224317573637,0.020842178043497,0.00941685259006498,-0.04355378069288488,0.12424244137868948,-0.06556901156647357,-0.03460248288198301,-0.01618273417757297,0.12354842123402488,-0.010085176572379376,0.09313074828439556,-0.0840532875776078,0.097087000583213,-0.010521862220943228,0.03704006068628778,-0.05367678322448071,0.05739435140298367,-0.06463703906007672,-0.12452888154109168,0.07321361796231278,-0.016626712465966085,-0.0685486156150577,0.02625455325314319,0.07633855364373957,-0.07574736916869568,0.11894257328942744,-0.04078112615389252,-0.118049865524287,-0.03924780504892142,0.10258660788438046,0.05751490085024825,0.05879993716526213,0.01962816906998496,0.08224567566629258,-0.09993636993105336,-0.050298584695832818,-0.0408953604048302,0.07167353785011486,0.07047178382254525]},{"weigths":[0.06207829503556584,0.034666892136977229,-0.009296518156328982,-0.08928547611484718,-0.05045839158329674,0.046761884801700657,0.012536240552662273,0.06681863033221697,-0.009309985490838906,-0.0755887003784781,-0.07308974499315649,-0.003346587579995473,-0.07882262365593723,0.04959689697188674,0.05738347667996106,-0.10452436963451804,0.0875776999726193,-0.0691665222814926,0.08647292165259353,0.10402646709904354,0.005481908234795131,0.08226678743304411,0.1233779960164744,0.010432656867185144,-0.06921895924924937,-0.08032220718149848,0.002642087327017127,-0.08841854741463859,-0.1243979618907492,-0.06132497967614108,-0.12496541944861166,0.02638101102995458,0.0836271800316189,-0.119921903031441,-0.07800905718303587,-0.006358908287909528,0.08592269595822771,-0.1151489287997958,-0.05274299298405309,0.016287654593682447,0.02746315790548456,-0.07929718979628904,0.10260623159863228,-0.020670393154442913,0.04298471197460745,0.1013267544243145,0.0018353558126936114,0.07235691576886154,-0.0989957626681642,0.07334714033055505,-0.1081211399229048,0.0703267147573557,-0.034772477866064948,0.014449620548818872,-0.09787280956683016,-0.07613796932728115,-0.01702563447845297,0.04534946969509,-0.10687706586674732,0.04791633610669249,0.05578821698730378,-0.11621536279380168,-0.016003179117701106,-0.02003112481013306,0.029268924713905677,0.07751999245657683,0.03682490274354539,-0.013992745520002738,0.12494128745088042,-0.06190442982943364,0.0758688331767692,0.0007287710463498747,0.11370511193886064,0.11738230817206809,0.10285089794678448,0.04857608178395941,0.10470184953511472,-0.0706980073628697,0.02762129135641122,0.02850657882582432,0.011110030774948576,0.07855157340622419,-0.07864481946295801,0.07103908980623644,-0.09081027691943472,-0.05983556430964303,0.022470907076759237,0.08955738175769283,-0.04532530416803626,-0.042816078510303289,-0.06295826171250091,-0.022682662421240578,0.0012397581246141557,-0.07477155303439928,0.00839437378864866,0.0019662247777809925,0.1143329648750214,-0.10025309480324962,0.09859916530159356,0.09054391532631497,0.034594474088300557,-0.10427681419243962,0.12043789755142204,-0.11275668419735469,-0.08568771591949505,0.10856764474122292,