{"LearningRate":0.0025,"hiddenAType":1,"outputAType":4,"layersSize":[9,64,32,2],"Layers":[{"InputSize":9,"NodeSize":64,"Weights":[{"weigths":[0.020399008622325217,-0.09703027996470117,-0.038486629486071319,-0.006708741785604522,-0.12474565566595612,0.0394002847166634,0.05984379659457398,0.11248635113829063,-0.07778243199282595]},{"weigths":[0.07796497142752917,0.05944417607746283,-0.12789222667886719,0.040008067693407579,0.073688140627761,-0.13150137160815093,-0.009938019676379806,-0.06003500902016805,0.10725891659912601]},{"weigths":[-0.08339853390940527,-0.04321344585619504,-0.05372485254810612,0.07518512532360541,-0.07703626126368678,0.060003925622500408,0.032470084495926778,-0.06171538023794397,0.03210352720987524]},{"weigths":[-0.06554322439428896,-0.09109462514321003,-0.00238275893678057,0.11684358771352116,-0.03533621974335366,-0.07889513427002924,-0.08081070562731413,0.07165474061414409,-0.034282340781708848]},{"weigths":[-0.10179111758453825,0.02093450581470006,-0.004458416809535239,-0.020201976393872155,-0.1209050641053024,0.06004269848321879,-0.11908493959817336,0.0958556911586326,-0.0971953793925062]},{"weigths":[-0.0807365077531956,0.04309762340279444,-0.04715898489025903,-0.0813563220682332,-0.008108732066226416,0.07682440753936434,0.10354764388371987,-0.12253583396689773,-0.025368050738698149]},{"weigths":[-0.10961138545440426,0.10927606516664657,-0.06390988603134589,-0.01655570468880098,0.019600136532700917,-0.09646410273722812,-0.07304033602286755,-0.008580352975028382,0.005952074854622903]},{"weigths":[-0.0678096692247182,0.09583601686476531,0.03210358183627334,0.08798138434781448,-0.033287752879850068,0.04943648259167537,0.1053827706905539,0.026681837212085288,-0.026145793610388609]},{"weigths":[-0.08446300009126746,0.07848306361076642,0.0815169724655386,-0.013990763733793585,-0.09889692701576253,0.1345446558479291,-0.10211731117649096,0.11201492320616825,0.025894846750850368]},{"weigths":[-0.016436134746373018,0.04836865683248399,0.0887030077085771,0.06606936504389748,-0.07732438042851357,0.11318615812433425,0.030631863767004248,-0.038728844439560577,0.004557307395319796]},{"weigths":[-0.004127403648755703,0.07750339652385956,-0.06752114434086062,-0.09999974885413741,0.03876914925970375,-0.09900524005933956,-0.029711971087991758,-0.12066339666840935,-0.021851455522166154]},{"weigths":[-0.10576313096150783,-0.003006359300726663,-0.10153679999008958,0.06798559382185582,0.002319638274969428,-0.09198959443608233,0.08135391532735469,-0.030793814416775198,0.08523271902419026]},{"weigths":[0.04105419682032402,-0.0945902200159043,-0.04079568445077384,0.06357552196106706,0.08349777542759096,-0.10413297179815077,-0.007071402586092724,0.03269797030559393,-0.07611314703338673]},{"weigths":[-0.12921955089765209,-0.10903452380696126,0.03815597572412152,-0.10229355050812733,0.09239234331660988,-0.02481783496284271,-0.018890286592880787,0.05265784479959082,-0.019475443005449349]},{"weigths":[-0.11207491740762221,0.06666478065105457,-0.10017211917577841,-0.11027488743873335,0.03147985236538461,-0.08300195957381125,-0.10989630888512477,0.09801746357493756,-0.10125378729685156]},{"weigths":[-0.01956402435189205,0.0639062573594085,-0.004576928527627638,-0.011219630282931763,0.01875512200002005,0.03007441125471785,-0.09891618258052379,-0.10699349000439101,0.01341679913910269]},{"weigths":[0.11339032341388118,-0.10053976668288892,-0.11602917529582566,-0.07327561209041239,0.09000963236552862,0.08885411032399388,-0.10461910062821402,0.011895429031933138,0.04660968628522781]},{"weigths":[-0.04978251211171124,0.12298864109598312,0.08968979362259302,-0.1050644080033098,0.08695471390224687,-0.14281569325581684,0.07245516679765109,-0.02405853446379169,0.11700245315369044]},{"weigths":[0.15003266630704086,0.013418124084203195,-0.0500286489835461,0.09946726218733422,0.011061088460890581,-0.05142179531588584,-0.014491961976472396,0.022553939425512524,-0.050461399740867957]},{"weigths":[0.077472676787736,-0.017264818427949463,-0.040070829838574909,0.024557128333324658,-0.10322035994766187,0.04554177204379639,-0.07680156115437345,0.09003142337413332,-0.11567830862137563]},{"weigths":[0.05365944871749127,-0.07324011744752634,-0.044288614975789317,-0.09514046948989648,0.006023453030090513,0.05687320239590984,0.09961069039319877,0.04382465824486537,-0.02207485094078676]},{"weigths":[0.021033349382370549,-0.010281997405604286,-0.00578382495607973,0.11802040352901779,-0.006440925111389066,-0.00108504161776494,-0.03989637413813395,0.08355799574552928,-0.06681342494090596]},{"weigths":[-0.11078436471022653,0.04774306854214841,0.0990731461531892,-0.035301695155875129,0.0034052176098660466,-0.11037234045283785,-0.05501156220051308,0.030356573474351696,-0.052020643616027029]},{"weigths":[0.04014113884902837,0.03740838012560567,-0.08943117981582001,-0.03126911275226005,-0.0012952684663657469,-0.044540885274931118,-0.01641318251368104,0.057803342998332948,0.006959850837261926]},{"weigths":[-0.11323347613306666,-0.00559094400891134,-0.037703761140179588,-0.03440048265764278,0.10497270856386956,-0.04676957114378884,-0.07526630509295458,-0.06973364231430072,0.08750524752948376]},{"weigths":[0.12445321558788454,0.012198064882416399,0.11474381909485107,-0.07384468123354828,-0.038451711472184939,0.1435851520860796,0.09096421241263202,0.13401174967791253,0.039782112527177167]},{"weigths":[0.05508688704283154,0.11656640271791132,0.013971444087412367,-0.04175660604100485,0.0429475010966756,0.10607063921764591,0.07257964829900493,-0.08148012387962503,-0.01979891871123139]},{"weigths":[0.10453532616258371,-0.007890536740111568,-0.028580152398122128,-0.0548054098781916,-0.05011020347505007,-0.015986626362663973,-0.11146894961954876,-0.04018654968274538,0.11268854633197753]},{"weigths":[0.0002153265694920883,-0.07214843569581382,0.0780750441078902,0.004511319241616766,-0.07051615779155679,-0.008032051901370902,0.06904114536227486,-0.12251484844672553,-0.06684972826520434]},{"weigths":[-0.08702687668331091,-0.08490683316883062,-0.022115038322601346,-0.017652703745741358,0.024016545133718767,0.07144799620139358,0.07492072788543249,0.02800640858504571,-0.06961553833158592]},{"weigths":[0.040621007128530398,-0.12345397996189979,-0.12034235800335648,0.10475163662288314,-0.10995611280613084,-0.10385524850258206,-0.12274957672136189,0.015795543767513414,0.018510865478741126]},{"weigths":[0.02474659014569339,-0.010567457277395533,0.07767824457873333,0.042515116826846308,-0.0939666279522476,-0.1090381345302052,0.01085603006147805,0.058622754499916319,0.05109883854756471]},{"weigths":[-0.09611680787463883,-0.037007478448223118,-0.11483032999331663,0.10232416041010037,0.03933873845580552,-0.05748521751789917,0.038067251344740458,0.09963547481144684,0.031740892243062857]},{"weigths":[0.12052482193618454,0.0265341035711239,0.0037643589044136047,0.1386735210631987,-0.11187051388199257,0.06938067228399116,-0.019544972163650827,0.0871762004242887,-0.08831435763562592]},{"weigths":[0.00152319556532582,0.1001910418101123,-0.057366519469796237,0.10818344137596556,0.053574294958415747,0.10651100346590226,-0.00668717390085045,0.03177561347650202,-0.042393882212758689]},{"weigths":[0.06870948965551389,-0.08715404815902252,-0.11584033468151589,-0.11230309864538428,-0.0752627863841231,0.050915957249842148,-0.100683286044299,0.01599396023223675,-0.08343580710098095]},{"weigths":[-0.06018734142922283,-0.019572757730955648,0.009436486072232652,-0.11227097986158408,0.12239150824253824,0.0834521138385425,-0.013892469329091712,-0.026306261474853287,-0.09329566918468527]},{"weigths":[0.052053181711219979,0.11629520094734497,-0.0016459694732360599,0.10563253153866505,0.06082144206758486,-0.034627895259491798,-0.07669249649982231,-0.061909161981600169,-0.05250649202065096]},{"weigths":[0.051075971529133689,0.09831174733065885,-0.09445163937021897,0.09765134589870414,0.0035585959032523749,-0.048373180705265968,-0.052219572035182067,0.05918813855625703,0.1257998846989825]},{"weigths":[-0.058991317616152557,0.0571333842597594,-0.13049358646903254,0.0951205881036257,0.04579767915310346,0.11731802848385825,-0.038062721715515227,-0.011074188709656149,-0.060200105494681539]},{"weigths":[0.024416711449998839,-0.0499823516392468,-0.0009851953781240416,0.0028414317963568697,-0.005573788909998237,-0.09767825490809699,0.022881804123718508,0.09561568657901465,0.11101186814159524]},{"weigths":[-0.0930027692647327,0.02771426364395536,0.08876930520900348,-0.057043914474702559,0.027881415951523267,-0.05264216375149069,-0.08078461566664508,0.05107454638503881,-0.06212825361318971]},{"weigths":[0.03830697978491139,-0.006337465850346371,-0.06086940230004374,0.05769404970395022,-0.10908768364322194,0.037179786451249707,-0.08020179985315637,0.03685401311622797,0.07393579689487449]},{"weigths":[0.03629388632512398,-0.08615355738002123,-0.009956872328422158,-0.018794917758585808,-0.04573750057157026,0.014593026436431168,0.115414634694298,-0.11813934322143044,-0.08963422598001805]},{"weigths":[0.08350475925551533,-0.01265375114303128,-0.13337593705872798,0.10767905294653092,-0.09642723402793815,0.09240900128073688,-0.07804623502905586,0.10493231163808532,-0.11021598766224192]},{"weigths":[-0.03505270804830445,0.026300114797830309,0.06551972559959984,-0.09681583148367985,0.12674102445337483,-0.0430189506054884,0.05445565086101208,-0.03742687750577656,0.011060878171624904]},{"weigths":[-0.015640940459189957,0.07291559124062376,0.021713171749005106,0.08479393333193493,0.058976704498169659,-0.10403203232309849,-0.06539793876455712,-0.12145343142511088,0.0743679881660495]},{"weigths":[0.05613412262308038,-0.03171975634697277,0.05982752242546967,0.010209204701134234,-0.11920416847572092,-0.04879542260801164,-0.049761281802603387,0.038485865186521899,0.07123393766144076]},{"weigths":[0.07638116577395537,0.008262714929920437,-0.05509129811318095,-0.06530218137428332,-0.018302953507344768,-0.0993181714303193,-0.0800750174364656,-0.07293505588237914,-0.005839539349940834]},{"weigths":[0.02795670500432525,0.04695046984553211,-0.06374273228765229,0.09286938488274554,0.015049947276400779,0.07845400996597306,-0.06998476300403663,-0.10657546150845708,-0.0856959965361528]},{"weigths":[-0.12170026622411942,-0.034967431853059869,0.03207198252674087,-0.02119698725568316,0.07964337603356303,0.10898277582491575,-0.07937279370531857,0.018576207255155499,-0.0037671070724814186]},{"weigths":[0.06245296443264571,0.07681295675114158,-0.06290422272570517,-0.08110245391141347,0.08897206764569186,0.10836347064410826,0.0943796012571702,0.09461447386458923,0.08064018240275509]},{"weigths":[0.08767066500380012,-0.10420163910428339,0.04294242519079499,0.00753012567334142,-0.026483349996761927,-0.09437354151910822,-0.11142931090769968,-0.02114013313970876,-0.04613434824445072]},{"weigths":[-0.04744286150908251,-0.05605084361435084,0.005079199636878927,0.0007061909957307395,0.05511888607981152,0.032326207447317647,0.06825653094806748,-0.08300439593774328,-0.019490872744876914]},{"weigths":[-0.07197463702745143,-0.08224843544669572,0.11167456656303038,-0.0101688630510581,-0.10528526710094678,0.08947115165832818,0.06930889233119393,0.07091279395388223,-0.1176159655528424]},{"weigths":[0.12563200685995563,0.07728407796082651,-0.12653123308295564,-0.0356372610664947,-0.04561818485980254,0.01660309927264793,-0.06672951751190931,-0.012854135546233709,-0.0022664789473882055]},{"weigths":[0.029206940492355547,-0.0656545724676601,0.012695754365539819,0.10340895505769218,-0.030904871658980858,-0.10331508128614266,0.104257948583847,0.11474252455111754,-0.019258399335050574]},{"weigths":[0.05805296350538927,0.05944705897391348,0.1154530408894393,0.08856573537826754,0.10841721552054476,-0.0855369734638817,0.03257529827547554,-0.07947803516109793,-0.13251681023633095]},{"weigths":[0.09180526028426456,0.01703576723042069,0.09828322379697782,-0.0019425980621003605,-0.11720115989818048,-0.06843849052614182,-0.06965210418832559,-0.053336417262110139,-0.0499776816366156]},{"weigths":[0.011098690342173827,-0.11206933383295295,-0.10708139303259716,-0.02725810611504359,0.029859267667975314,-0.011839930815144267,-0.10734921985156368,-0.0007535945808349375,0.004559563901932618]},{"weigths":[-0.10859835540965238,-0.09956750842849026,-0.08383945627155566,-0.06045201381257154,0.08719694337169774,-0.07015141687562125,0.07197839658214944,0.011950523007862185,0.10865847177765416]},{"weigths":[0.12626674590214785,-0.08703723367690383,0.06791686914828825,0.07635439842406196,0.07633892501170203,-0.00028149678562778614,0.027454683792783327,-0.07748994087966102,0.01171439839674172]},{"weigths":[0.06608976939549372,-0.10703749072257117,0.08165364805578915,-0.10268161660362886,-0.10586801885560376,0.0417404768426234,-0.11326695462488303,0.11209129995924822,-0.004682458393203375]},{"weigths":[-0.07671594672069902,-0.08458157300418956,-0.08934552831775121,-0.023766456540001175,0.10389848218483452,-0.0722215508392394,0.09122880449659332,-0.08858110246171368,0.04550316223768017]}],"Biases":[0.012552553252655606,-0.005827462855203575,0.007890117116601477,0.0014548733352143743,-0.003452161965407785,-0.003231206938644336,-0.00009558902334285832,0.023141738362669429,0.013475494729973529,-0.009497822284561308,-0.00008516666796939081,-0.0014709136854283024,-0.0050614398157136039,-0.014884951704725924,-0.0035410814563265776,0.0020103057890121579,0.0005503666695248947,-0.0066575486291894719,0.003626652981956375,-0.003221170758285299,0.007604768503965331,0.0033631305352482714,-0.0074728774245629409,-0.0020315869123956116,-0.002320303882893409,0.0036404311232251728,-0.00808470033405421,-0.0065765331974993799,0.002950404352007961,0.013579013184911372,-0.00021055357181258032,-0.0035404269855180187,0.0038722923643755245,-0.0006486028741983138,0.035282076461028998,-0.00017975166896680144,0.004803882708244612,-0.012234884698552669,-0.0017150143563586876,0.004684106982610999,0.003067205371826488,0.005349629174720185,-0.0061831866170777749,0.02170413812228536,0.00035986590172645827,0.0056042954061282369,0.007640191431651728,-0.010409055832680751,-0.00007760372864179803,0.007751386017522988,0.004964566861217848,0.024159172764173409,-0.000028302422736642473,-0.006784541805856498,0.012837768404063623,0.0075533157145819189,0.01168603370642225,-0.01779799615535493,0.008399942956567867,-0.00007960338719326587,-0.001777884405996216,0.006414985589120604,0.00014562601210439392,0.00003456773470329627],"_Inputs":[0.658901035785675,0.809571385383606,0.34531131386756899,0.5705511569976807,0.463897705078125,2.343902587890625,1.2070770263671876,0.20709228515625,0.8873598575592041],"_Outputs":[-0.008676276108528695,-0.13096009509579532,0.1011223889540529,-0.3640766431645189,-0.1921360166326286,0.17059555158042304,-0.3170546336530559,0.32969190798183509,0.2338081040753621,0.34931269679603929,-0.31477400086537646,-0.11694369172174757,-0.3070701322184405,-0.2779960828645026,-0.5030805036756784,-0.01757059158352825,0.07983850672961451,-0.0769894886371204,-0.02018102975885186,-0.0838261198587981,0.16168732998743005,-0.021435642030631597,-0.3911410331813772,-0.10066000157376928,-0.20267161514326946,0.5849522786214775,0.42463969095882239,-0.08882494657056474,-0.07868333973228863,0.08461299673719805,-0.4780805894374779,-0.1732927469854959,-0.09242250942772662,0.20437341724763545,0.3945251775629927,-0.23734905963563944,0.037143850194191228,-0.02904567929438364,0.08430598021622336,0.2182455401879364,-0.10562888543372406,-0.2879028797869158,0.0389307142249246,0.011534178555501755,0.06192283733054655,-0.0030425807473954066,-0.14233993205593385,-0.13115987614000414,-0.35756982369461817,0.10463234908603005,0.09287662238667789,0.5616212815629146,-0.420823656405807,0.06728426175532199,0.08759023972481403,0.022393677184001386,-0.08281828061371405,-0.0859685578128731,-0.2387275424349482,-0.2756019858928789,-0.155581116716122,0.1461829962331911,-0.1422841767847836,-0.15233879286703179]},{"InputSize":64,"NodeSize":32,"Weights":[{"weigths":[-0.1506198644810378,0.09029168273689586,-0.16760634977696613,0.12406784416723217,-0.07804341906250596,0.027645579675532437,-0.039208503215076389,-0.14780458046967932,-0.071959315259215,0.029273293734600807,0.16412681547879416,0.07726991976828147,0.02324306307631885,0.17055138543169469,0.016746948038220294,0.06450147483775487,0.13623665443338912,-0.08784171094993411,0.08151988940875456,0.14976277827376503,-0.15308825033143237,0.03920924277964906,-0.04948319536742902,-0.04789571586035656,-0.09656733681609156,-0.10177937966624262,-0.13294041968067103,-0.026559733024535138,0.048211109861192317,0.09099241377640052,0.11064501678146668,0.0714380243190174,0.08868689536524463,-0.08368657074519488,-0.1495479638222716,-0.12781204997621505,-0.04279930481537486,-0.11799815574722632,0.15708356386652368,0.08013362390740643,-0.13226846251183553,-0.027900263267631017,0.12879304695230468,0.031889002438840029,-0.16215636438323587,-0.13080891212394625,0.14335181055092906,-0.051931708122872229,-0.016579542683846275,-0.0070029744358138979,0.026986010041037787,0.1645722884093744,-0.04553079656827188,0.1652406222705876,-0.06888085951036523,-0.1754734411929358,-0.04243628969912645,-0.08640643571996634,0.01164992493089182,0.09026294041066534,0.09724386908038284,0.14787802022397218,0.1225576850999313,0.14357643938107315]},{"weigths":[0.04685327321779155,-0.06495283155764954,0.16379988555660547,0.10881311239330745,0.021804960966739029,-0.12008101859880312,0.031523987943190379,-0.07987462003094885,-0.090584984387778,-0.10044261589468179,-0.044890146092681489,0.10960231158366779,-0.0556180025511852,-0.1533305266875677,0.014219870307611019,0.01192203257958311,0.12895139610685286,-0.14370814208470349,0.13850359084433745,0.033829544895115009,-0.05741312287468527,-0.06534044057708073,-0.09857081234414651,-0.15771723236712854,0.11060794522162808,-0.01253203571585866,-0.007701115060810006,0.1435135165712741,-0.06497512909105346,0.034708952965279957,-0.16783187257212013,0.1340071244206971,-0.08709765175150226,-0.05556313994283772,-0.1502753021712988,0.15545621324234694,-0.030484640664008305,-0.013507111366906131,0.09101038582521955,-0.14690553679140853,0.12911330708167616,0.12109315378650994,-0.04741420202314423,-0.012374493785562139,0.04170055509195841,-0.07867365945646768,-0.1085825459310401,0.11959445260880743,0.024755725659729563,0.11588254759992156,0.11390237196250347,0.13366634539948159,-0.16309978224707503,0.030076268827407987,0.001867874210468294,0.1353659640868061,-0.1376290835555714,-0.026894614144481425,0.07163314515373338,-0.0419089951991455,-0.09718633685870287,-0.027625377325811247,-0.06322232780502865,-0.08441050830403255]},{"weigths":[0.05690161977626576,0.07899217719939447,0.1498010343033555,0.127293355196549,-0.16504751757400594,0.10840195900290278,0.03434783404260765,0.14134038906919123,0.12019018308488262,-0.16551037472839345,0.05399223072259847,0.06279539292930218,0.15264878138235817,-0.026912355855571746,-0.05128160970133846,0.17401489714411126,-0.06824264702725398,0.054657232540446878,-0.056631625790848589,-0.05362460334718541,0.1544855644888003,-0.061638011173578938,-0.018868378573194137,-0.011533021579700643,0.03995770320766732,-0.03733692597417562,0.12041001279493814,-0.10353542922890252,-0.11553902711115137,0.17093273559194034,0.04111174232620309,0.010721612279301463,-0.06012826749677437,-0.12563469674084977,0.14753878700282015,-0.07614106000393815,-0.02957765072482794,-0.0974676534812935,0.14499377951980509,0.15322276240778963,-0.02512545008387809,0.016448122324546404,0.1637530379062703,0.1873019901118201,0.17412678132433449,0.09796206890386078,0.17396471535270437,-0.0197489828132983,-0.0622698600279179,0.018023171681250766,0.18005970452918858,0.1342926301147734,-0.043924590332510397,0.05975031546618552,0.1498416577014137,0.14529939302997617,0.008775881589590772,-0.07139714627341708,-0.05710497829629403,0.03671665690747746,0.06841327071409546,0.08439396778657292,0.11283125831950712,0.09200781348940949]},{"weigths":[0.17529125508406316,0.0688942456197136,-0.14630320154213609,0.14219168082368092,0.004095864587050934,0.08725746025370386,-0.06044689851348769,-0.04019765895035027,-0.021831320596494669,-0.16854119756550943,0.021283186834697749,-0.029543853002736554,-0.07826626790415434,-0.05037969119623354,0.0011016436137076703,-0.0579510750398592,-0.02254109802427971,-0.14836331954656696,-0.15647520797803705,-0.038091188225440237,0.08824856756268236,0.14985904025223277,-0.12866121567276307,0.14744068946135978,-0.14185679825750789,-0.1256870494162299,-0.03980338259959321,-0.12985585156127833,-0.06991501178466689,-0.012447655970405177,-0.15673181254507299,-0.12183504614049369,-0.0021830929052879387,0.06453136478340728,0.11515629087708269,0.00711231823490151,0.024729068305925258,0.15239699594157297,-0.11776703317880363,-0.08123758580283028,-0.0011193547484143426,0.08954754077761557,-0.15948722421598453,0.011558723956049504,-0.022946091359071824,0.14253454662589885,0.10300981646260087,-0.03601897024877044,0.13795088793066025,0.07994985184142385,0.044385096573083978,-0.024197655261291197,-0.14780448481902545,0.0658728473597763,-0.00828019931413262,0.014399571645223725,-0.09027671315898182,-0.16770142800109845,0.07902532850081193,-0.17362903971166813,-0.08323620823685389,0.1557062749525024,-0.07017758294563174,-0.17034634582266054]},{"weigths":[0.03737035939124726,-0.1338972580762164,-0.11806655135046844,-0.10808593434668842,0.09657960992612892,-0.14037156991128323,-0.14614029031247706,0.06430591322044227,0.007869371980598148,-0.05366958035779218,-0.08804507710698459,-0.09906963739576008,0.024247921775030026,0.03951087619052906,0.10378007924423292,0.11962181473842493,0.145526656248024,-0.08906620807031486,0.14891677093201137,-0.13155196013114493,0.12312666691367573,0.09061606692048152,-0.1469900428470911,-0.07267154163410757,0.020751895296473739,-0.1152162607123404,-0.08513595293925279,-0.05315116573612025,0.05486021853936155,-0.0896594043448433,-0.0449994829153438,-0.05217727858782989,-0.014490042453212601,-0.11250904553253947,0.1222269641460159,0.15195928333542217,0.13576679630546482,-0.1646780429120465,-0.012447495362410572,0.14960969408706049,0.018066048090429805,0.15622908129527217,-0.03644441585155093,-0.14092851857833814,-0.12265739270772688,0.06846298530294569,-0.07792240831200138,0.0839326748597179,0.11835195493342195,-0.16009410157412649,-0.07927535899339845,0.13948201215792487,-0.09312115429195901,0.161390027844672,0.052030747599886548,-0.09290602207997755,-0.0292922054996057,0.1118148557918441,-0.15209830105570106,0.1757294922339367,0.02057898967978257,0.019202274701139469,-0.1706450558759659,0.0063743551676620079]},{"weigths":[0.0016895753958453572,0.10886330380729936,-0.10780661626556724,0.018416229245707778,-0.015355245079464763,0.11777977708360409,-0.12267836815836802,-0.08946128873468914,-0.0057042572302516349,-0.1534512373162553,-0.0970682842208045,0.04796541184084516,0.062073386828472677,0.08944556681808143,-0.16978487084224748,-0.03748874538987398,0.007181147879136098,0.11632921647247661,0.000095905888486695,-0.12420909699387034,0.06412279786194129,0.028363537378683007,-0.023791954191426155,-0.17238854578374056,0.11185634901876554,-0.024452136291625766,0.11760629472486148,0.1363585600790134,-0.07028336925540148,-0.12005735984162874,0.06397293468823927,0.015614156282678866,0.12793702643427205,-0.10309929670731426,-0.11220834671055785,0.17394535455095523,0.15585948972853404,0.08532302654793217,0.05435001213935184,-0.02844845686499169,0.04494380504288724,0.163904491049258,0.12876811467490113,-0.11034028869827152,0.11716153260919665,0.06379697103046522,-0.05222502721126821,-0.14389936862584369,-0.16209664966279467,-0.11573362834377622,0.13160353106648796,0.13330998263040243,0.07072588343341059,0.10677915351917793,0.05987327688378573,-0.14472372527663025,0.06597849486737539,-0.056604126912002148,-0.17577309674107986,0.14542339870088634,0.13479511207488607,-0.11075508356794205,-0.07229267676906813,-0.1613989502138957]},{"weigths":[0.12865266894729003,0.12047256147201606,-0.1664582144051084,-0.09374398457541188,0.0579080928278527,-0.1488860637719994,-0.02267462232889126,-0.04776743787389742,-0.04889461945163291,-0.05527165377782432,-0.03963548747062564,-0.08213734279698995,-0.14698348412647373,0.11886633463599999,0.015866669858274408,0.15974791476530848,-0.09381004687104554,-0.09684629710258644,0.1029185569349383,0.09471687561013774,0.09392885996635843,-0.16756744542224676,0.0996814991133819,-0.10723448434659654,0.026287870652921185,-0.1266993104519124,0.14461953111618396,0.09443002527436947,0.003456268373250267,-0.12099674942445264,0.1192709760820589,0.16407541028011778,-0.08940092923984423,-0.004022535869387557,0.16687000535567565,0.005261825340855813,0.05166176578080998,-0.014894058198672181,0.10513677981357055,-0.0417586889201349,0.1705740592635504,-0.09094903901946863,-0.08609285422785718,-0.04953839939990704,-0.1447706711606448,0.16651171949700384,-0.008110521605227558,0.01152416721294185,0.09237876572565748,-0.0508617038667367,-0.09214469602873612,-0.060883836455626779,0.16570746416572283,0.16676891067212233,-0.09997614654999941,0.15069829391562718,-0.04280498979582912,0.06471580989403542,-0.057261816420617079,-0.05818175805227932,-0.12548883607853404,0.16141806080342278,0.1731315348991018,-0.07978865382209888]},{"weigths":[0.12861199668931959,0.16121854785368767,-0.06206417768669193,0.14968770309151553,0.1549398089224054,0.0013431820730587903,-0.06547872778371715,0.008780207016313378,-0.11238459203286505,-0.09514991901026772,0.02938999695710433,-0.041346178498605678,0.12540884619240653,-0.04038906408301626,0.059677473666929829,-0.08904595083681404,0.0460387310574836,0.12456460119686289,-0.177535119506428,0.1670457873755996,-0.09425985728213309,0.02840736189112509,0.044305673163373287,-0.03192410261659336,0.09155607910295664,-0.18446790671323846,-0.03163369120584409,-0.017910372021727688,0.1778772303657798,-0.05720459292330958,0.1604239186960521,-0.05205183562393967,0.13782628903594755,0.14329573772514538,-0.13394693161173619,0.16569005554005493,-0.06304901766433806,0.07902373122287478,-0.05317303503870175,-0.11492864895724812,0.12030377003758446,0.134770054398639,-0.1456795928099265,-0.08275906931778347,0.10932149632178735,-0.07077068425779699,0.05652865043966126,0.11037068940690241,-0.13502161397143315,0.1372606332434476,-0.0716407219921314,0.14929276064661929,0.02722070215647179,0.001010032050735692,0.0120953515966142,0.07736246477201965,0.08372753246664279,0.1463788302759126,0.14224460983147156,-0.11008611230332231,-0.17261145630863693,0.037868742931072538,0.0032166901365007687,-0.10836658837946539]},{"weigths":[-0.1305565508253873,-0.1078426055422946,-0.06523234199105614,0.0027225692329393127,-0.07406174004418295,-0.025977899041243245,0.09889486477536876,-0.1309699148552726,-0.08789741004529647,-0.027808790822662675,-0.17570893450013895,-0.14773922104495075,0.02070906011291682,0.02709688608586093,-0.13058247680239094,-0.03848583843718816,-0.0005654362978395881,0.10691126530076958,-0.05152488429873714,-0.03019606528252801,0.051903126863671298,0.14354980815286948,-0.05142388437182699,-0.1347019269052415,0.02869472996881399,0.11954017406801659,-0.04204655793820901,0.00021822316035602918,0.04233764026904004,0.12809946195654524,-0.16006200971625374,0.07398501562188836,0.04485904391930361,0.15765733701870644,0.11901058207098468,-0.052060734857764117,-0.02112603576656166,-0.08642958912253493,0.0695600190741539,0.05865305368624556,-0.09759032399043216,-0.1063652300101516,-0.057237062933974788,0.16815381610375799,0.06522150076500702,0.03683137195749429,0.1736087641641021,-0.03255482646693325,0.043951503189994658,-0.1527037901106257,-0.004636060783179289,0.03962204918885528,0.05247997463207535,0.035825271806864889,-0.06452099328838411,0.07737668641602214,-0.04794634057946623,-0.018949722330012968,-0.1601800806144686,0.01616237133502981,0.0326969257743769,0.10318133554838341,0.05205468469016499,-0.16631399045342078]},{"weigths":[0.08822556475082894,0.0643161660335044,-0.15961786730490108,-0.0731678812641709,-0.15752837362578907,-0.08519138867042878,-0.07413196648050416,0.11556066184608618,0.027570814975576963,0.006513797100481249,-0.17348193786491887,-0.025343705687549339,-0.16514170104405186,0.12323242428283123,0.0042228402029347669,0.041827069317831148,-0.14315529779879275,0.002802855787190987,-0.07813468702375465,0.08782203731747612,0.014467587838299214,0.12099340951660122,-0.1615188282698617,0.17565311301778906,-0.1299381826337991,0.015664319347870126,-0.14172811617484605,0.10963191135061536,-0.0012631755908518164,0.05719807790113541,0.11978627948159514,0.0954543294868696,0.07569390085047144,-0.10643719325399052,-0.06514106979693345,0.06384545536886419,-0.07749084560837999,0.08200656328607616,-0.026279426417815469,0.13587280265782254,-0.03456978040582389,-0.07104454292732492,0.00040192552473907974,0.018992080347212484,0.027971497428962556,0.0677056907457667,-0.10584840145072003,-0.013446067407776446,-0.00032724327502512877,0.05222707562771719,-0.12445428709090244,0.137851456089038,-0.15433390754820063,0.11518865403098491,0.138877810235935,-0.04143127750176334,0.11520419285134026,-0.023343910615234804,-0.030030424267209117,-0.018593737908454486,0.03850990240263191,-0.0353338843239059,0.06935639708616374,-0.07074509316424799]},{"weigths":[-0.00372144358745805,0.15554564557221274,0.14917730658589305,-0.010541414187770628,-0.025730293333284555,-0.012347868916518127,-0.1712852919702914,0.07794490399198229,0.16199478858232606,-0.015944218038436137,0.1500044724122707,-0.17329329191208785,0.007543137174790313,0.13078190115199227,-0.12129996563088565,-0.059095901944299537,-0.1383755759661619,0.1121626437124113,-0.12310268153784559,0.12440165949080344,-0.16949043436420606,0.00043022136610420625,-0.1110678300401886,-0.11763302163745138,-0.1282700134253892,-0.0019263019664655143,-0.11873849893881775,0.17689180469509156,-0.017785121343815249,-0.06422999933705999,0.04865486260188585,0.16067725943011425,0.17612998301281983,-0.0661626038963978,-0.1494292660045654,-0.15342667850911713,0.16732725727200929,-0.17023909121322207,0.10729576616523014,-0.14828214638096205,-0.11901934727014568,0.05360258042753983,0.03278884728102702,-0.1458628856439368,-0.13188438066085859,0.060047693684959987,0.13811135872046269,0.08939811307982626,-0.12873164893152742,-0.1297432300589473,-0.12026215978581816,0.04868018650431452,-0.011639283657299039,0.12049760632196424,-0.1375797445671606,0.14412725918011078,-0.1191078009127215,-0.05485567864178637,0.11224731454918419,-0.08768873183470752,-0.16626716101293935,0.08413234662681228,0.004830836318558649,-0.019606544458899375]},{"weigths":[0.03974572401552855,0.05528526221372935,-0.04202237923520446,-0.14083430878665324,-0.03856101104165501,-0.04358226957931699,0.022356625837586746,0.031031514719899856,-0.08689034428614648,0.08210508321059658,-0.16289730170625747,0.05681862848877687,-0.1376532551942535,-0.15732010840712644,-0.060896144764484318,-0.03454867345369445,-0.12775739438421444,0.07088133028046943,-0.1228098074726165,0.17575511960882216,0.1102857636848989,-0.14084347106101159,-0.035984872109316567,-0.047443815346789489,0.12772915952219467,0.01604221302303916,0.07500290183875523,-0.09186281087370785,-0.11457585298942201,0.16751798029030375,0.1065719736571223,0.14360369044810585,0.013029221112845182,-0.025129541356386458,0.1594253377552501,0.12027506713952709,-0.13413526307498795,0.16948171153937159,0.04199615706768212,-0.0959340788281178,0.17159843928945107,-0.10163719598865193,-0.07181637408681507,-0.044764744274280659,0.05179932604943761,-0.1717911981673577,0.05107797014973811,0.14763791160187759,0.1581236102100312,0.061034968188630387,-0.17337730846890904,-0.1844897649326273,0.015693787141024298,-0.0999182547742376,-0.026800223399651905,-0.04822096857073948,-0.12963705470595206,0.011580352340485993,-0.09554496748301936,-0.013416505413062129,-0.16186329117293855,0.08930977449623044,-0.014985451226035833,-0.15434691854545216]},{"weigths":[-0.15288901636245856,0.15628050120186677,0.1273063863491807,-0.052277777703495838,0.11511104958929874,-0.15558067720733052,0.048469968430516197,-0.0696333130384421,0.1151760610361042,0.13992742426438366,0.030079032719082248,0.0918606132792588,0.06459620016390816,0.11591707024296993,0.0876589749970035,-0.13846014697910609,-0.12161530746931874,0.166558396178579,0.0990925508979644,0.11232840387214255,-0.08044836574358883,0.008827546934560926,0.0232150473231388,-0.006112872810523335,-0.03479629340021644,0.18944665889277105,-0.0648432201161244,-0.05116192684465592,-0.04968387208799052,0.03892808621306276,-0.0974253696859096,0.12596236877963819,-0.08322550611115405,0.08869316587090054,-0.0017199371701294459,-0.13572404810020237,-0.12338598445751521,0.12294815824196612,0.024715823921440728,0.09495818766121556,-0.07987939031509049,-0.09661259320019569,-0.11039045786726615,0.10898085150833047,0.10965021911452765,-0.1737547628893455,-0.08223877572180372,-0.14737291396066275,0.005725494487406678,-0.12628918282276389,0.015556018952868534,-0.028453171311025619,-0.019791247249919917,0.052072728016502287,0.0989418190918368,-0.12867268533018129,-0.05853990160194539,-0.12586475732599765,-0.13412492327656737,0.048792791745609489,0.1310075469156345,0.07599542863601554,0.033952419922347629,0.14691445096519918]},{"weigths":[-0.17531432969439648,-0.023656469389583619,-0.03201153143984826,0.01689279925784104,0.06722562628356997,0.07566738963513377,-0.04050517666173206,0.02251271899724637,-0.14042513369301025,-0.016873987561715228,-0.025396930695162597,0.11642227522274704,0.156705666358767,0.003896033904836791,0.14773686957969305,0.1267592903508004,0.17529798620383819,-0.022356943154087047,-0.10518338667444323,-0.09028011002115512,0.13940373086362077,-0.053551253810299449,0.1465281940527805,-0.14886103872281165,-0.008729883642721119,0.06361985828456908,-0.0560524365219159,0.07242238036396814,0.1472436271818283,0.15345044128428116,0.15410958328729502,0.12170026723169117,0.04632677070576654,-0.1500257405098251,-0.0391386573512648,-0.11967503509891042,-0.02246167486631942,0.14108958733226133,0.14780354826247639,0.0697637802300671,-0.02381318987136604,0.0879544454460346,0.1504514262020402,-0.031376308156713699,0.08246842090909033,-0.026240776034588414,0.1355335997361141,-0.01481209594657081,-0.0439260521855793,-0.11444182839575486,0.13257949602177802,-0.0663409104609216,-0.023116989972011848,-0.1319921484779108,0.1162269360930709,-0.14618841045399609,0.16863462212616155,-0.13029189683698118,-0.15562022690688333,0.0014922882390269593,0.12444930528913904,0.08516391792790919,-0.12044991073234639,-0.14108297076445593]},{"weigths":[0.09825977867570034,-0.036975576721522119,0.06840618316958913,0.1691793196334091,0.11249212822276247,0.07518282575719015,-0.14696305490511089,0.09051588123754417,-0.032871056451423578,-0.0540700136747428,-0.06881355754766035,-0.12293887089236028,-0.1619815879829919,-0.0641513894174967,-0.048230514981943247,-0.13096453957789054,-0.16515653727148572,-0.13651353109655046,0.10237033732243303,-0.08030212379474795,-0.10117580712390431,-0.15774686650174306,-0.044373459158800098,-0.1427636581363522,0.121757269480331,-0.1694818199674428,0.05945328022531381,-0.12959891414373762,-0.1558747988938712,0.17533482796365558,-0.1357443368582665,-0.025891172897915279,0.0723612935621296,-0.12358719217156514,-0.12008689469140037,-0.016664541440515387,0.15956818990067213,0.16698915683762753,0.15277000606790068,0.07052403687445412,0.02046376720850193,-0.05857561524462317,-0.08216741253477095,-0.16406709187112307,0.024404171252022753,0.17369321969556793,0.03078119476411192,-0.16702794549336834,0.0648483145188866,0.10257640895927166,-0.009820681407295706,-0.08115907402708672,0.14441778339816487,0.0007003496967452203,0.04483562458966525,0.06958625165673979,0.15769638601866479,-0.16910471755833277,0.0985918228215513,0.0085130758788238,-0.08968286822664404,0.0761108531584065,0.14696693550634774,0.08723154045146298]},{"weigths":[0.0310094488185717,0.07006907033380787,0.1493756293181647,0.11468376279523043,0.09235240277046052,-0.07263237518238822,0.1532945731178554,-0.05527400690015205,-0.0007182076113707137,-0.08442192349451902,0.036911899473757978,0.17556610426212075,-0.042010107792262458,-0.1273120845442268,0.0029760236717458878,0.13904028438876235,0.004360157083682084,-0.08525096892405718,-0.15900492993177066,-0.0006695260753213443,0.07306524291756818,0.0982520123120491,0.07547008161024196,0.09440656697230332,0.15321855405752209,0.1620480986242297,-0.15954707238027025,-0.1524598386231113,0.1476852247402585,0.14868112831310174,-0.0029148486693800449,-0.041430789430141567,0.005926620315410261,-0.16534870613483877,0.0006344047777807811,0.14262125243485994,-0.054374363611602787,-0.14883970351818932,-0.09291397211925297,-0.003947945968458466,-0.11165688874771965,-0.028752542730351668,-0.03223720831116439,0.07178994411168166,0.06644187354468427,-0.10208169280883467,0.03547852699105468,0.043645555561097847,0.03535406717329211,0.14869656434958487,0.17805887404743485,-0.06204514671638978,-0.09382319905276283,0.10976164976855299,0.06660619961642414,0.004031745960250524,-0.03777254477045849,0.026017032350715499,0.05772116414838359,0.04486159590684145,-0.07620498241070974,-0.0005759790126933689,-0.1688153043024148,-0.17342224881192867]},{"weigths":[-0.13750930049784436,0.07801210374321666,-0.06020501476332365,-0.14533348358863233,0.1566720065628741,0.11171215514737157,0.04629729703786657,0.10681992677912174,-0.1675194074256398,0.14829272743531927,-0.09765924072502094,0.17241336731318594,-0.15527207083934994,-0.13850302422491166,0.058646247439254877,0.0354897290123053,0.014210236896773742,-0.16058181471833087,0.12907823261969826,0.09013587808240688,0.07190395511539173,-0.08768916102110647,0.0528872840166454,0.0346223583493021,0.0030793264985367497,0.16807659413139915,-0.09765914458016212,-0.037085850594088236,-0.04637137606464124,0.09608773783272352,0.1214504272609265,-0.16271002042305914,0.13036120971032337,-0.03433857349632166,-0.05253357759214298,0.11626356479161063,-0.13010563636949716,-0.1471053929230181,0.027919063805246576,0.05388010534410062,0.034954823205158958,-0.16523975349069845,-0.12937819290143832,-0.02381368747382933,0.09872839663298241,-0.030809036627198355,0.11015363461569375,-0.05762810441057681,-0.008375254862760329,-0.03420938038891253,-0.005645419194473856,0.062301556318890848,-0.08442604557434058,-0.14894434648032343,-0.0631832765331486,-0.11370008313629805,-0.15722929767421396,-0.11314216746098999,0.10014977588582796,0.15162208541888767,0.12699935721085266,-0.16559328053611373,0.12515538177757339,-0.04806457450569468]},{"weigths":[-0.05620783077822615,-0.003435480818909754,0.021622966390332095,-0.037422796020271629,-0.06631625592666903,0.07387901711055318,0.1139623011824508,-0.030246704447806768,-0.11769375224630303,0.07740126240601247,0.09924699363225166,0.0993873647618765,-0.046587120607282667,0.17384590803660156,-0.0892619898708374,0.1533646231996644,-0.13685731013069983,-0.06770756307831247,0.1757868106264021,-0.14897363613660442,0.10782550849473016,-0.09399464905057863,0.09278289269614329,-0.14242064537388614,-0.12889269428299583,0.09340945809831311,-0.0038930235070571506,0.16582719947405354,-0.14079972410148065,0.12336196839348764,-0.0362076569218816,-0.045409800634315069,0.09444020305783461,0.09654687863972683,0.14048228578414749,-0.10153442185968573,-0.1262746348460653,-0.06403224999148845,-0.11503873665480571,-0.14576871628411038,0.1522977003630168,0.0072603704516111,-0.14181971368934205,-0.1205275227829806,0.05548937707682461,0.16550261932736616,-0.08085680953629729,-0.1294785887095264,-0.16917724412015104,-0.13803495868714855,0.09904050485081932,0.14189742001283787,-0.08044591462807936,0.1603828160486633,-0.09587962033856636,-0.060420668124264529,-0.14674645188369737,0.15882504746829036,0.04623742158010181,0.11521516405838979,0.16671839166664696,0.1588899861332566,0.07533558887366102,0.05063075492939644]},{"weigths":[-0.09328766307998408,-0.08149103351781789,-0.008668811192293793,-0.00007094719972395947,-0.1549096984367452,0.07773646467921454,-0.015252679941437196,-0.1354044115821701,-0.0700572250433037,-0.08852452066112689,0.15242087185223814,-0.09837356810124626,-0.14964537739720308,0.022825135764322079,0.11912390390477386,0.00769931219019114,-0.02403959206201506,0.015834352974952224,0.17259141425695102,0.02941556661700542,0.08463150321276404,0.1149738505945025,-0.04066349301932447,0.0641441529956397,-0.0054302355917838379,-0.16911082165172976,0.14927822219989773,-0.06515142040335735,0.09166718459995442,0.1501066947171519,0.1448344304235713,-0.031831284426552929,0.10689990340422101,0.10351304716303318,-0.1698864188241641,0.12337420812670703,-0.007136487033736674,-0.16407970297009906,0.17053712339211558,-0.017872322222728704,0.09654166262998437,0.05790928246581809,-0.02508849527522954,0.12589262640332428,-0.07441102862313183,-0.0488761180133766,0.08425992377373705,-0.04233737582001102,0.09993066757372171,0.13078921338988723,0.1593259775847206,-0.09535714887489444,-0.12109464886052296,-0.037491462723032737,-0.08652565059121545,-0.16240745299716384,-0.05635409792994916,0.13619903016651087,-0.07811214953688879,-0.11420373712580877,-0.07952376653254893,-0.1051232936617037,-0.04640807731011672,0.11282963489118689]},{"weigths":[0.14101817648759136,0.1598254876275809,0.1469624552356538,-0.0307329249832207,0.1212731020511555,-0.06454841295536072,-0.04359826058168803,-0.06396352723680479,-0.16242297630185477,0.10994239845279433,0.0103409550145899,-0.016645649396124695,-0.10297881988766222,0.1098282237882195,0.06655933376539361,-0.09014202669337614,-0.17819337888446608,0.011985715766701752,-0.0549184055628804,-0.04292317074566267,-0.038573430964358,0.0810361077267194,-0.13708078531356045,-0.042861615337850596,0.029736041817752795,0.15849943154595037,0.052987166946860137,-0.10645294646985632,-0.12299059120701811,0.07785023885127376,-0.14968690723099915,-0.04895035785058016,-0.014752169431471377,-0.1436807708886158,0.09625886685622025,-0.16585096606862533,0.13553933753935966,-0.023649317329858249,-0.09540351746624125,0.09845234588488278,-0.012626277261130834,0.07511448313734867,-0.06576770842330458,-0.0016970994870069072,0.1502806831268923,0.04801875357651002,0.09808928310996408,0.1044751668498983,0.1612909392171824,-0.0940249123420513,0.1043152618007829,-0.06430760749620873,-0.05614656958635091,-0.15747410163878693,0.04996722267965547,0.15861853011196795,-0.16463635100812397,0.15305638685739057,0.15254726080145446,0.14991459824958187,-0.0826515971880453,-0.15254148459514253,0.014975943052542915,-0.06410440569263359]},{"weigths":[-0.061710377460804679,0.07313086795504019,-0.04597497230377194,0.1274176341729599,-0.15818102995249598,-0.03876198613061521,-0.028895906416115465,0.11589449711797288,0.11810961559254986,0.17084108983033234,0.10027162116248477,-0.007615165609214542,0.08734577369822401,-0.026587334782905378,0.07797223186260194,-0.1365437401760697,-0.03237017174397999,0.16481268916636655,0.09424302785598966,0.0777608038414434,-0.15017483385915884,0.018470654307271157,-0.05746026726664283,-0.048845848941758449,0.16264989163986724,-0.1574027485308744,-0.04293585237598183,0.14615717115464867,0.10095812203374262,0.06467741338238418,0.056674437129295918,-0.011609563896282672,0.08846408511583187,0.051885933933829269,-0.03852928167454516,0.1388572515062162,0.1112924345173518,-0.15560820475321827,0.02159702832763411,-0.1608977707045898,0.049303314435604029,-0.14216498096841774,-0.11424043945330471,-0.15140614571240555,-0.011404156036534745,0.019111638578407778,0.04276288014456391,0.007843342795778117,0.07922138756672624,-0.09152676498784339,-0.1765817188901961,-0.08871133895971935,0.15228799203585087,-0.08993561883000323,-0.15625414073243999,0.1744349020576601,0.12218649816982595,0.09282775783474076,0.1478036744504616,-0.003848910004357844,0.14415488411087058,-0.15823932228310956,-0.044536401560865346,0.13147277788239584]},{"weigths":[-0.08409707201607153,-0.045151734210954318,-0.12851692873561258,0.1728784947245662,0.14680075595287857,0.0581863500937446,0.023809638602867276,-0.05006992949060178,-0.0735412254064294,-0.1250787920919762,-0.010997378912087054,-0.1567808884867462,0.16312610028188763,-0.14109181479573677,0.16768244667632499,0.132915819009519,-0.012825190864346963,-0.010990916231665097,-0.02717807942035872,0.1134372152879034,-0.1331437023024724,-0.03953982412850247,0.014748961176004746,-0.12560821823082939,-0.03158749382441129,0.05430928280790368,-0.13065396152162296,0.1604707295423074,0.046044677904760498,0.11078864208150569,0.0068029504593140458,-0.06864846640761224,0.1716562119225138,-0.10211253566303676,-0.03853999318801907,0.10136908477371745,0.0791413111581361,-0.12590315369549727,0.057051288612737,0.15862518330321183,0.0838665376373671,0.1397173147958591,-0.10613921999173595,-0.09460191441456029,-0.09848613896582302,-0.06438949070583233,-0.1560263692998767,-0.17345172188400427,0.03562962761877555,0.07430132922095191,-0.1659189572422597,0.06783363107040332,0.16704159433523267,-0.1565399642038382,0.04494042631020564,0.08034321244853637,0.07950962364220028,-0.08814199631654289,0.06034630300095171,0.06093496823667149,0.06408781803850776,0.12765921910643003,-0.09288952450129109,-0.0885131418168686]},{"weigths":[-0.00678602251484885,-0.13611849066918736,-0.03909697804433133,0.16285549318703278,-0.16874402457043745,-0.14036720755376129,0.08716341966830757,0.11340668590815285,0.1016135769448365,0.1547753509252009,0.1354788611836551,-0.1114956810092436,0.17384523806676945,-0.08187352353665674,-0.0014347633860276994,-0.10858517740681433,0.003079252600967107,0.03024768299678778,-0.026408866031973116,-0.0541692960344606,0.0033453836290265974,0.12437955044751255,0.06414620204244198,0.13685101594598043,-0.12369780778512939,0.08179302237407701,0.04686461234922164,0.048236423028555578,-0.053394672720604597,-0.1533631278669131,-0.03944548206627741,0.014875212235245315,0.016306068632292529,-0.03039217068548776,0.15664143812981549,-0.06066848433890328,0.1432729737816106,-0.11055983892446453,-0.046108995240752178,0.09486310759625007,0.16693073230710565,0.06251504850424625,0.06306102479842477,0.05978287246103609,0.05226413580288773,0.1714850000305066,0.10483345760266023,0.08462458013484349,0.027736254354012076,-0.036743965407118609,0.15143711756627069,0.061814104608808959,0.02745748469653574,-0.08319654730145375,0.044270059127786028,0.10776373890461055,-0.04325450856590094,-0.009734211418824806,0.15095276900095337,0.1142477268200424,0.03835817270761006,-0.011939156754981894,-0.08762257859819155,0.12957255381372843]},{"weigths":[0.013500954592916184,0.036015939919321188,0.0717786384371117,-0.14314520176460633,0.07530482285290168,-0.06385363923157624,0.12504173464370894,0.04194716853527037,0.15497112232826083,-0.09188489845775175,0.0031314738018710767,-0.09013916579168856,0.1549736873196052,-0.15203743985699345,0.006152060270610999,-0.07029920012413861,0.06113544844543306,-0.10659757621842438,0.008219803871164203,0.1362238396794727,0.05439680736700808,0.12721500710095147,-0.1542046594672208,-0.10400244132172375,0.07516765702969551,-0.08279224034515472,-0.15259704632041685,-0.00518068449013428,-0.10519843945435573,0.11347237888520517,-0.005599755084124081,-0.06945854237815909,-0.051632101760553227,-0.15944256872230823,-0.04698016872825691,0.16251892100618615,-0.07871645036997162,0.012323657290859366,0.01906284474916719,-0.11137209571442997,-0.16555705492039067,0.10502979657722882,0.07619775368992705,-0.013984963351814416,-0.1359031779374885,0.11015620045468816,0.027618026973776478,0.08146594407720756,-0.12194150358947921,0.020767555342278249,0.15982047638645437,0.05395307043587259,-0.15847823512273999,0.09683251118647882,0.016657435630014155,0.029735876219515395,-0.1258404479524178,0.07130884986911344,-0.129839439035035,0.16457142592140915,0.06406958457709448,-0.0410310494599367,-0.1254396252938423,0.09521987531062155]},{"weigths":[0.059038403985795049,0.1398606815241009,-0.07212000930519472,-0.0533315563064753,-0.02617480464687768,-0.03808952951471197,-0.1343668881625159,-0.03402224442359868,0.15321706322735724,0.0029005694580164045,-0.1025367562355465,-0.12432201710059507,-0.06470591970149052,-0.12105854236542411,0.1603275219032734,-0.1588922622690775,-0.024132769165063105,-0.05243422685492912,0.16476598340316393,-0.06542271465683196,-0.07799478774852069,0.12913627053589955,0.03572455330942107,-0.007427445786092468,0.016898772599591287,0.04918335310870591,-0.1820709831882569,0.014551132142791967,0.1558305554296705,0.10285020121090013,-0.16636780880921799,0.0980565893201385,0.08011712945497039,-0.10252266039177699,0.08590757964417521,-0.10364257531846982,-0.1537900534830881,0.11826505609604764,-0.06769440072190641,-0.17643380839410759,0.13542771259047466,-0.030731283396584084,0.08339087185110977,0.1591157375790449,0.023618201635984,-0.11995036353941773,-0.08279139629557407,0.13575299029992575,0.027326081022388778,-0.023417436592603388,-0.12097214672788508,0.029985789054415254,0.08337864555839536,-0.15175100588651875,0.03928273432410595,-0.01587564658317589,0.10833333743717944,-0.13745573805388976,-0.0917029726554444,-0.07242654462850118,-0.04876119580977989,0.002529411271775881,-0.1338182787466263,0.02048994663178071]},{"weigths":[0.17155030677613279,0.17071224457958635,0.10699630054650653,-0.07581786441509549,0.09303368407310495,0.12887132856211695,-0.07843473484050663,0.0684288494974714,-0.14210406627397735,0.010604492585177122,0.09874651237310832,0.15619989914853175,-0.12940689167906598,-0.11670951165731543,-0.12841454746633636,-0.1087793920748059,-0.08674750933065149,0.0003686385470137373,0.1262061221230704,-0.1129955074267555,0.05828148625280207,0.031142969961111,0.16203864285137843,-0.13986542086133348,0.09450633911512468,0.09437620269175705,0.13839692446394978,-0.012665703413969347,-0.042217199399607979,0.15800771180064733,-0.06957952496207948,0.12457592674387472,0.16020993644308682,-0.13921158578201446,-0.13389696594706014,0.13342350136121376,-0.15180086258039894,0.009968212061546479,-0.01856637722575108,0.13691760874836496,-0.11930382299670395,0.14368056503634198,-0.13879259595702193,0.11052695203909427,0.15587582650698088,0.17330314663947714,-0.15150023525184479,-0.03530596022417819,-0.06318200297798397,0.16274237652953037,-0.1309098671787495,-0.14785735744574936,-0.04919988676947307,0.037012310066793108,-0.17230818825719824,-0.13990600731757867,-0.1323113145085646,-0.16305189551184716,0.06770560757772287,-0.12313388620385599,0.05496032341741378,-0.03178310017579076,0.16407394652467173,0.016629941503461575]},{"weigths":[-0.00859928315994516,0.1175643425825175,-0.025415406076746608,0.12086710074201013,0.0862205060538828,0.031108145252493219,0.14148385409592358,0.033478456018658359,0.03995424684712937,0.03116471719485803,0.14975263504797999,0.0722867696124273,-0.03388866797650213,0.13715297543316277,-0.09821192929850985,0.13920209037739937,-0.027335939500171565,0.13982401977690468,-0.07839678738481253,0.13552753779286498,-0.12636495292878226,0.054760516241919788,-0.17412051618592903,-0.03945724401331836,0.05167081010688323,-0.1349653911206135,-0.15705391973564354,0.1237001285594249,-0.03199648743656087,-0.04717282047672184,0.14078965218721233,-0.06194929811335219,-0.023056193414058368,0.10928989463041021,0.0704729590823604,0.15754885904978978,-0.12238570586310582,0.0797666524380797,0.010986974033494343,0.07458758762299472,-0.12127436092821165,0.14963867601866613,-0.14459738223630584,0.0839472511070175,-0.12051422916337018,-0.15072295277072854,0.1752342628081503,0.16646244055997218,0.1462117747778898,0.11609965056923946,0.11786009571252163,-0.1457777953158951,0.017603616769614223,0.06248015503159237,-0.025674729031925214,0.1169285103553004,0.007990459608814041,0.02660131892564679,0.13426252344300167,-0.0158948929453032,0.028732055312258428,-0.08003887882994193,0.17313110528816856,-0.13047726925593235]},{"weigths":[0.02856402198793075,-0.15426802851294137,-0.08571687645463201,0.08406429106200163,0.15887443410336964,-0.010578323625992927,-0.15463334425546353,0.11221616846899835,-0.011366592172014727,0.07285963258919076,-0.13037036720897039,-0.14821717115080786,-0.050975933548473507,-0.07261687390491388,-0.17402389572776004,-0.028767908615028188,0.04912090612368219,-0.11334297479406323,-0.10303562032011296,-0.001260195455558567,0.07089005933254603,-0.02453951151736694,0.13411383518886489,0.13544462052386725,-0.05696617862766419,0.13158092424661806,0.008353031369118297,0.061689471753934178,-0.1140197229445993,0.044930303602965637,-0.17373682278841866,0.04420630505771464,-0.0825239721563387,-0.059192576184276698,0.1063290629609526,0.09277466635745409,0.10066790038151565,-0.014778770667722437,0.05972544664160453,-0.10239918635342138,0.11902466388281133,0.15321397944778274,-0.1342549237579165,0.05648766331450947,-0.14827000815910097,-0.1435765431528813,-0.16102621801558263,-0.035540036990778598,-0.1002035134233287,-0.02133413045766914,0.03503406307537884,0.07327178145769498,0.017109167459282736,0.0899203358650298,0.13731583448292579,0.16425849314500916,-0.13878898055896733,-0.0890533346313683,0.16261327880273258,-0.051057199556988269,-0.07147055958244515,0.10675753410453667,-0.09066307203433256,-0.08965672420972273]},{"weigths":[-0.020818577068267946,0.1000865066804665,-0.07294611894178935,-0.17442549312322815,0.05846361570701342,0.14346648142391325,-0.11120661792791922,-0.1487091066021125,0.07980409663509389,0.15878747612723563,0.15971281435446345,0.11540066748044155,-0.11795686297122042,-0.07344291456463807,-0.04366261056416156,0.06168291803809812,-0.1231258943418852,0.1255362950720332,-0.04821317859890402,0.13333384764219764,-0.046698028107184128,-0.09656752140399895,0.04982956815354236,0.15193572799191835,-0.018185404035238607,0.04251754614644166,0.08784375765621803,0.06495252170881337,0.035751156145224168,-0.06401701062657442,0.15901891191077248,-0.04212022166400532,0.14628410522607752,0.030610568051719246,-0.15510450486737929,0.12168447007499306,0.15511575272425014,0.12870790984008463,-0.0555909004199143,0.11559052411001797,-0.05088623925081218,0.17291301680344174,-0.017962932587933839,0.02399264160213293,0.07863105181801306,-0.05711259079948814,-0.0059836386417008728,0.09578852483042495,-0.0740607499625573,-0.15441742056400757,-0.17159716610212459,-0.018786759372281395,0.008013131702999064,0.019342207488410983,-0.03170300824723813,0.03316326963642198,-0.022166494091883889,-0.16849614113191184,-0.059741994467241047,0.02949237876368553,-0.01661809190686844,0.07440922349103442,-0.14080420508183193,0.08845034071599947]},{"weigths":[-0.07776927168299022,0.12826779914494153,-0.028940368862666264,0.1761612279432285,-0.14748637676391644,0.03473284460665194,-0.12435531421579178,0.014970618495119466,0.08296590142956331,0.10992330828231757,-0.11582224050112883,0.14472990780653698,-0.131600204778393,0.018183093483111223,-0.14325523165757207,0.1038678816797875,0.09402966508790538,-0.03602107707622393,-0.043995377712522678,-0.021262618198539069,0.010714994992229882,-0.12215589844916269,0.07200718174980477,0.05591860620779804,0.015651987601329556,0.008105030644420497,-0.03863371954446449,-0.036012949429730409,-0.07610080228099575,0.1580976824226706,-0.16265883851470648,0.12980842861860943,-0.07376087952485047,-0.06295014676996569,0.1630430585589359,-0.05142251676828447,0.15542381317788088,-0.1539776166340434,-0.010870536715863012,0.12478117299826353,-0.046286528059631088,0.029327345815362894,0.045940195762372699,0.10532038718933731,-0.15045445666034525,0.15354699013344143,-0.05155192562049968,0.139791526132842,-0.005509479903424193,-0.08015187123728678,0.0673313568898089,0.1239497525540407,-0.16253964781420336,-0.01314748951772731,0.036722651383909409,-0.10750367034641437,-0.14738166600470069,-0.1744074372203542,-0.11295095868824382,0.07717378474139247,0.018282376232375155,-0.06263881917863626,0.13504354259882565,0.13155196815380749]},{"weigths":[-0.17942358423254693,0.0837078480178018,-0.09743055569651273,-0.1252133279364058,0.13174576771541819,-0.16762443937195257,-0.07714002025899758,-0.1651494263094558,-0.022544822380445478,0.11815478159510869,0.16239879857679086,0.14337652058569876,-0.014001001554867356,-0.036694758367863979,-0.06919871301775992,0.1677636735330258,0.09344317448872605,0.11613731323931911,0.10092127265877736,0.13642722877647099,-0.13159875004233333,-0.038127353510808089,-0.019060721377816768,-0.11535095229626671,-0.018800062360907159,-0.15790879266167963,-0.022286356439739836,0.05980135296864258,0.08071220163842491,0.07343765405423576,-0.07245648569019658,0.07239352439741348,0.0060740124672290459,0.09619494333882089,0.16618812611994394,0.1018923096447866,0.16188831057987505,-0.13964128621025605,0.1738464334492745,-0.12745113864884953,0.07674016992056535,-0.0909285139867131,-0.16724154139506074,0.14227093849295079,0.036749836250896828,-0.11323569556559486,-0.153814574764802,0.059113148369483507,-0.06702330205009637,-0.10421210152399166,0.09339957352704463,-0.0607084855793386,-0.07529653972565197,-0.06935045333302154,0.12618835781913532,0.013390805942479458,-0.12914574214614497,0.05362300641411137,-0.019388880991047878,0.0972332156740656,-0.11848895489769469,-0.09171054348426097,-0.036234054463881667,0.15259204017035309]},{"weigths":[0.08286591387807102,0.10177874909831993,-0.12945279511043907,0.15925850500137704,-0.06146885614868596,-0.10697505721414374,-0.1194853491765348,0.19607525997500573,-0.01483835302339094,0.17886888239343957,0.17414329490556083,0.05087084996422636,0.00602296334133839,0.03625335391048392,-0.08719888505756782,-0.06122075283076446,0.13946602424658439,-0.12052714659672365,-0.1555443982851741,0.15954618852837225,-0.12373337913738716,-0.11224482096558733,-0.17724331500400954,-0.05157624637696784,-0.07907537717512316,-0.0687684421049679,0.10577225567790974,0.00782936728852247,-0.015322853653214744,-0.12989876940707557,0.03554394613002527,0.09414645011612565,-0.15995625047023988,0.004257957275653584,0.18188637535597949,0.00039802654880669014,-0.057209448099540139,0.11406786564332229,0.053008106173803328,-0.12161154793877656,-0.05286857966193798,0.08334592882307536,0.0881351368607561,-0.17156547571236659,-0.10200944665918999,-0.030697198055140933,-0.0170209880286175,0.028070764840841736,0.04093571803636648,-0.024122858104522288,-0.11537201863158095,-0.03589628463552423,0.0724037951713496,0.011730974346001079,0.08044536791018812,-0.14672581770670937,-0.14671494471229724,0.054001827480919448,0.05860086631141978,-0.1724242237305811,-0.14297729730277376,0.11022904612805089,0.08432439323779872,0.1416545455066862]}],"Biases":[-0.014040465035647057,-0.004910202676326222,0.07935013436861917,0.009667834555643122,0.007009206847784943,-0.023699358228067927,0.0005543696524374022,0.03809984480427027,0.012156834102461517,-0.013246216785575447,0.008585980116540104,-0.022469292615453559,0.0021469575649453768,-0.009410552690053758,-0.0031923830574635528,0.016065156172000704,0.03361173316781893,-0.011667040607832144,-0.0015397351619770689,-0.011772471765125347,-0.014081077806228908,-0.008163423857456673,0.0058783523634718319,-0.011987449535015484,0.04083918561263584,0.0030981109042068427,0.010636476265557414,0.04090865635902291,-0.024686994869834279,0.047398995291651289,0.008645764385433169,0.006122110252404088],"_Inputs":[-0.00008676276108528695,-0.0013096009509579532,0.1011223889540529,-0.003640766431645189,-0.001921360166326286,0.17059555158042304,-0.0031705463365305594,0.32969190798183509,0.2338081040753621,0.34931269679603929,-0.0031477400086537645,-0.0011694369172174757,-0.003070701322184405,-0.002779960828645026,-0.0050308050367567839,-0.00017570591583528252,0.07983850672961451,-0.0007698948863712041,-0.0002018102975885186,-0.0008382611985879811,0.16168732998743005,-0.00021435642030631597,-0.003911410331813772,-0.001006600015737693,-0.0020267161514326947,0.5849522786214775,0.42463969095882239,-0.0008882494657056474,-0.0007868333973228862,0.08461299673719805,-0.004780805894374779,-0.0017329274698549592,-0.0009242250942772662,0.20437341724763545,0.3945251775629927,-0.002373490596356394,0.037143850194191228,-0.00029045679294383643,0.08430598021622336,0.2182455401879364,-0.0010562888543372406,-0.002879028797869158,0.0389307142249246,0.011534178555501755,0.06192283733054655,-0.000030425807473954065,-0.0014233993205593386,-0.0013115987614000414,-0.0035756982369461816,0.10463234908603005,0.09287662238667789,0.5616212815629146,-0.00420823656405807,0.06728426175532199,0.08759023972481403,0.022393677184001386,-0.0008281828061371405,-0.0008596855781287311,-0.002387275424349482,-0.002756019858928789,-0.0015558111671612199,0.1461829962331911,-0.001422841767847836,-0.001523387928670318],"_Outputs":[-0.14038407023128306,-0.09346420677217306,0.4165040034824306,-0.09385274096111039,0.01839855919289152,-0.044587949096185287,-0.06968190829564605,-0.12117608327905774,0.1211356738196205,0.014951272871876425,-0.09862684831503606,-0.026664807603721278,0.13569208704228465,-0.005346295451799505,-0.12877925340204414,-0.008536024058130716,0.14426362161414667,0.18621946420535077,-0.18696975572566383,0.04550813928076119,-0.19061627483032513,-0.08930970770916216,0.27461640156513758,-0.119006172834911,-0.03441487640360802,0.008061564456696716,-0.14678142974485623,0.27537745705263935,-0.0006441250701657957,0.2627156274429719,-0.12446284218022365,0.11315453122300016]},{"InputSize":32,"NodeSize":2,"Weights":[{"weigths":[0.386922014271449,0.24601158831046908,-0.3114114826266984,-0.5343853820833633,-0.08660202000918092,0.6093938492490983,-0.08753698885044592,-0.562378842240419,0.1922571994875492,-0.4025828048336484,-0.32287453467297769,-0.10903270401847488,0.41299317247240438,-0.36004275970508478,-0.09027785302570812,-0.5624167351990058,-0.489167356638429,0.33453995879180278,0.4109863378934106,-0.05171043928914236,0.3195733995086567,0.5188637472840029,-0.08827028729254019,0.27249989814759226,-0.5259510742381126,-0.13065174730628582,-0.5482397703329219,-0.35897989044850028,-0.5042488790522837,-0.36609987588222728,-0.36498989532228978,0.3001463329603834]},{"weigths":[-0.3329663431555793,0.5577757836388566,-0.7313308770202133,-0.3597224418086317,0.12833674030958643,0.09037281268027156,-0.03236655599849428,-0.3147558129637519,-0.35292787320759258,0.5769316596591824,-0.3434422009052702,0.4607223080010528,-0.10064271080923601,0.23435891047983693,0.41987728826860568,0.42860774750907679,-0.35764526137275706,-0.2087483892622789,-0.20261872153135586,0.3088423336047146,0.13676569748124194,0.2882195152296592,0.019087938089400168,0.4688604298317982,-0.30655728516405236,-0.09800118863767982,0.21561075285064694,-0.20274617929413639,0.21875327148829089,-0.5702600536207276,0.20489239231862825,0.21641467466109164]}],"Biases":[-0.07793100497179445,-0.07556768405494387],"_Inputs":[-0.0014038407023128305,-0.0009346420677217305,0.4165040034824306,-0.0009385274096111039,0.01839855919289152,-0.00044587949096185287,-0.0006968190829564605,-0.0012117608327905775,0.1211356738196205,0.014951272871876425,-0.0009862684831503607,-0.0002666480760372128,0.13569208704228465,-0.00005346295451799505,-0.0012877925340204415,-0.00008536024058130715,0.14426362161414667,0.18621946420535077,-0.0018696975572566383,0.04550813928076119,-0.0019061627483032513,-0.0008930970770916216,0.27461640156513758,-0.00119006172834911,-0.0003441487640360802,0.008061564456696716,-0.0014678142974485624,0.27537745705263935,-0.000006441250701657957,0.2627156274429719,-0.0012446284218022364,0.11315453122300016],"_Outputs":[-0.33448163306377967,-0.679603843111234]}]}