{"LearningRate":0.0025,"hiddenAType":1,"outputAType":4,"layersSize":[9,64,32,2],"Layers":[{"InputSize":9,"NodeSize":64,"Weights":[{"weigths":[0.2033471728350661,-0.1005877171558498,-0.03183907933846156,-0.3749670372958806,0.027079960516336017,-0.021162527740032818,0.0028882751636132256,0.0499185184989125,0.13217592680843613]},{"weigths":[0.07039434808189955,-0.06407664989175636,-0.03888888368220109,-0.36734986185154519,0.22627075844825349,-0.09435694963704808,-0.03424984385208537,0.15338297588971615,0.15785147115742097]},{"weigths":[-0.0829465338113194,-0.20005437727609938,0.09524934281630138,-0.022132688695307429,-0.05147558636760034,0.0480687164256651,0.05376605090729543,-0.08623435866289395,0.10990098564545309]},{"weigths":[-0.22138033948937964,0.021002282306210226,-0.42020269137678747,0.10557822116617305,0.1798557121197848,-0.09644557081792173,-0.04438595079176109,0.14793578970075464,-0.08598923868200749]},{"weigths":[-0.4816013029375016,-0.30101102819111888,0.38044005306999059,0.1808381386720845,-0.09630434786367652,0.12901799068741957,0.11472434551307535,-0.0033067127050498787,0.089508629187412]},{"weigths":[0.12529121584926018,-0.1256521438838717,-0.5791846633112555,-0.7590461600395536,0.013172185398400285,0.15916245032003407,0.11940921588279198,-0.002800090499856436,0.3064156631200624]},{"weigths":[-0.04592460744101206,0.04233431876755241,0.07021989372625454,0.10560799798501744,-0.19822486021436185,-0.1654268256702472,0.01768847953123349,-0.1349565981078895,0.0786701138702543]},{"weigths":[-0.46810744248236715,-0.7342322093740332,0.5682991437023889,0.3791561974561626,-0.1506817527058453,0.009155225908115569,0.02155435339000063,-0.13965115301889803,-0.05851173840147052]},{"weigths":[-0.5109193649780073,-0.8071603907916707,0.7337391504870406,0.31126042965452707,0.12044800766471139,-0.19074685050057489,-0.05084159900554688,-0.005522434182651467,-0.0690825919850765]},{"weigths":[0.03702338722618381,-0.06520255700852786,-0.34337080507744546,-0.3644955307116377,0.20160036724376804,0.07287963184257535,0.005792246943017541,0.23765528140503623,0.08304104146336418]},{"weigths":[-0.11475674065483958,0.2571731189068696,-0.265577791972004,-0.047830969647648737,-0.0029785794953787337,-0.030938099955120404,0.012247102641710492,0.006823301371644981,0.47569517955889]},{"weigths":[-0.10812173882691963,-0.04778120693721811,-0.23349587747915974,-0.3820479591983976,-0.03311129112149457,0.18094367073929333,0.14452280525600234,-0.04234931896816544,-0.3039983553778177]},{"weigths":[-1.6344501108398074,-1.5931989537341967,0.684680204883787,0.08140738165053384,0.08193567878084209,-0.016332530383515614,-0.005432956966274038,0.12753364196519549,-0.4035075396648946]},{"weigths":[0.15034417273085366,0.8156452628334474,-1.3864871257421086,-0.4498936857389116,0.01471843562319994,0.05377157478327059,0.015581658234768535,-0.006422558735791296,-0.06325054918712894]},{"weigths":[0.3754919297124664,-0.008736621064685296,-0.7182599505459186,-0.7945396082270871,-0.02511971388167815,0.4208752104474939,0.3350168366936066,0.014104968385348343,0.23399840362758826]},{"weigths":[-0.4487900384524575,0.29975786164405496,-0.41821054365028756,0.4983299674526308,-0.1399024976983007,-0.02827703145562983,-0.032440796284210249,-0.1779430011514475,-0.04517797457412763]},{"weigths":[-0.14924190601466023,0.13535009560438616,-0.6028416002570114,0.07869463066282533,-0.02259434577385777,0.0966544051915393,0.08012607603691098,0.007985640137359487,0.2638102453952754]},{"weigths":[-0.22636445673919465,-0.4058461539027301,0.34912563225535278,0.18847525932948998,0.16155922974262786,-0.2168406345369813,-0.13665996763445838,0.061758788888269019,0.11035974593081896]},{"weigths":[-0.05635492656435533,-0.00013475770984255068,0.05621811350399701,-0.10802858456113312,-0.10554977611051833,-0.12710844345482698,-0.03060452203811179,-0.11646093136595427,-0.06776917839898122]},{"weigths":[0.15316404380174737,0.005571910323082824,0.13238465186436236,-0.3880296093302274,-0.0373195214655029,-0.01273126874794707,-0.4013996490684616,-0.12280076145183272,-0.21871076300127474]},{"weigths":[-0.6355652112018057,-0.4907764365053461,0.4866917426486466,0.28006204397052678,0.07458968209043929,0.03216486460299837,0.04550560943668246,0.09998269844605926,-0.06064960217627511]},{"weigths":[0.469027956857076,0.170431990570242,-0.008080218645685219,-0.48782100136132847,-0.059756571430390068,0.10490117352747845,-1.4501010899253546,0.12040404119566789,0.4587838168824952]},{"weigths":[-0.3074382793178296,-0.43732991227626197,0.5130724102645913,0.18137656795164573,-0.0349347002500499,0.08553597506598365,0.11135586438995643,-0.022532616541965767,-0.20812599935735966]},{"weigths":[0.044842377594712528,-0.06400693669881927,-0.27978151643472057,-0.014562656139703702,-0.23006408758495007,-0.024352952844199587,-0.09606368505271272,-0.2231790571463782,-0.14631550133721356]},{"weigths":[0.35768174488251278,0.049511213403029188,0.07359944817991787,-0.5823945534709725,0.08082461361545494,0.007199036745610782,0.018249101544880417,0.021612097385512648,0.31367901020626579]},{"weigths":[-0.1393055344378052,0.06599507832337068,0.10010987468647519,0.20883192574257887,0.08161639589144296,-0.006275114578961698,0.020217592118014897,0.06407445333474818,-0.022841626264956447]},{"weigths":[0.2551109047252011,-0.11941119613664399,0.28987547023905127,-0.3852883431643271,-0.04288734991940782,-0.09286766605071821,-0.04229644922049453,-0.021438214740505024,0.04941029382819468]},{"weigths":[-0.19306876009053773,-0.29854287099614748,0.002582337954147671,-0.04605880881784612,-0.11353630251391947,0.2104635541543801,0.218658335957925,-0.03603455057900171,-0.1115910752160985]},{"weigths":[-0.06556772816659226,-0.09199911149564007,-0.09860995709076875,-0.003882568966038108,-0.05999375115851657,-0.11804000111048872,-0.026861898895621029,-0.0029801722544754475,0.05506052371135759]},{"weigths":[0.11327541617300686,-0.11997899715870603,0.03240878295605606,-0.1675389550021072,-0.5596463618906649,-0.04644924131086547,0.07335008936395969,-0.451709516082467,-0.43924512829529846]},{"weigths":[-0.3736924245912506,-0.3797308552927769,0.3332888910643186,0.04384153610387635,-0.4432622520254129,0.10483439383988479,0.09056124117964712,-0.15712009555550145,0.2458886451748289]},{"weigths":[-0.1778718898375211,0.15789519387113833,-0.4434320240432097,0.08932987150456644,0.23645895628769079,-0.07890425495868193,-0.013509061688671873,0.04738783322310046,-0.04734946546700739]},{"weigths":[0.07975093781998084,-0.0415384339323722,0.1266885270189926,-0.2501930743719317,-0.2041768387736178,-0.06627229990707613,-0.04807156892507741,0.07381220580375009,-0.06480942073614125]},{"weigths":[0.031544164116863507,-0.012229052732052366,0.0917514886312926,-0.13903035437204334,-0.17498761626331078,0.23585138861268524,-0.7785365457003759,-0.2932552475527322,0.26103762169592406]},{"weigths":[0.3156183527608064,0.2769177956817282,-0.9875975102504038,-0.80454411220916,0.21571980858736709,0.34845127281629409,0.3258837212713365,0.23506368236419046,0.03869356111419922]},{"weigths":[-0.04209357018160094,-0.11428641130333516,-0.2505001160644548,-0.09905956357441505,-0.07865438759525358,0.14434904003657288,0.12093553659486124,-0.08026793046366991,0.2503646050617607]},{"weigths":[-0.3085600113142033,0.36925159276673677,-0.6540903394896417,0.3040355837571929,0.01703443536646865,0.13576972653537634,0.17479517519289926,0.03734955913763089,-0.09113673087792226]},{"weigths":[0.13658468335415059,-0.34327646557600657,0.29277037034935907,0.07719022260680345,0.008402462930693753,-0.8152635974362289,0.017042087334904748,-0.09145606281967421,-0.293533768658563]},{"weigths":[0.16434589168689268,0.10745750346947548,-0.21371321976559738,-0.40105881225291059,-0.008890480197200778,0.07450847215291472,-0.33840610880309698,-0.005821005261609737,0.13496743759291014]},{"weigths":[-0.27942397950973849,-0.4000583759246794,-0.000942829373785306,-0.10788839151544007,0.14471665174712074,-0.22037367552537194,-0.09992362586021284,0.13988271096972874,-0.1942635771610184]},{"weigths":[-0.85714537319621,-0.9608833375053247,0.42134740869105677,0.01886592559886777,0.041925627496846567,0.17602345656632477,0.1765628704308526,0.07084199532055495,0.05566499286689049]},{"weigths":[0.21047585198573214,0.9415832216116,-0.9929680030532279,-0.401963553257772,0.08289854521389313,0.3692353343737237,0.3726368911028984,0.11318344643885976,0.010274408872912134]},{"weigths":[0.7216830164118305,0.32460763086049757,-0.6512788331313659,-0.9781185453680352,0.06877877872622743,-0.05537547736967909,-0.08758817114710888,-0.20329586901171446,0.4541984733448746]},{"weigths":[-0.08377074354015185,-0.2983353401169106,0.17838065251141553,-0.01612673105771036,-0.06043556160501777,-0.11523451633771669,-0.09687496566958691,0.06034798207533803,-0.11043677152749065]},{"weigths":[-0.1089689086302366,0.022860997267020019,0.008076809818940418,-0.024376529312799334,-0.06988335131639495,-0.10287514956160211,-0.010809778819966018,0.046915997026037669,-0.014536832570672263]},{"weigths":[-0.3306893845229551,-1.1273783231010038,0.9328177205122239,0.19575474480918973,0.15511502019382579,-0.02067939476221803,-0.04427034803986449,0.09029924193199143,0.06380658784567309]},{"weigths":[-0.1752950043883884,0.0875992355129801,-0.2563511269048229,-0.11913497000366125,0.2318089678079999,-0.10466843249435963,-0.0025496287226922829,0.09101382287418274,-0.1566476252978221]},{"weigths":[0.015778837911648314,0.6771386816556116,-0.6684444661321484,0.19848039385938485,-0.08646459715148733,0.04344960356195288,0.01787920852139964,-0.0948475402846484,0.03845626423241208]},{"weigths":[-0.11401157111370475,0.04903037350217116,0.014808519072262659,-0.09444369905038543,-0.03368925513136478,-0.12418477343866427,-0.0006123088531828941,-0.11001330047912925,0.10185525360709325]},{"weigths":[-0.11914028900286163,0.0651436552981534,-0.029106110726621699,-0.10287191050614676,0.00034250115922127667,-0.13224115100927373,-0.04606182888942589,0.041620984964187559,-0.026599317237603737]},{"weigths":[-0.4129191561396336,0.22336119456248602,-0.07873353676756589,0.22463984151743508,0.05549129299679038,0.16904514848351924,0.10324651823687477,0.06389616002304156,-0.14054858172812355]},{"weigths":[-0.03284765863862554,-0.3174711493335334,0.25217133377541958,-0.039684032705824549,0.02823894797772812,-0.06337840128676045,0.0035283266763536616,0.10188117506888253,-0.016290773133543179]},{"weigths":[-0.11055532081337039,-0.02838725577542418,0.22394550323287056,0.12352315364802386,-0.14741493803666445,0.06130960073892334,-0.7675057699762719,-0.2375230096420165,0.24912920432569786]},{"weigths":[-0.07769698801201434,0.2699054566239204,-0.7755768907983269,0.06605320049657627,-0.23568679646906177,-0.29997930816246978,-0.1332601376245396,-0.10696707412111394,-0.2705164129874386]},{"weigths":[-0.24783919007363246,-0.3518188459650111,-0.06925906801213913,-0.3951243944973835,0.10536437865438825,0.06388865777089227,0.10878087670388466,0.08722968643079769,0.1986341642897796]},{"weigths":[0.009698722371469817,0.06339539301046118,-0.07631350764336896,-0.11667190239773313,-0.08488348925888592,-0.08079356394118191,-0.025624730123569404,0.03215187609927325,-0.05452411363610678]},{"weigths":[-0.26906279369555699,-0.10797218633114993,-0.011257192996357312,0.16899079761262687,-0.3088044530937185,0.049181736031032759,0.05840892363922576,-0.18714827389801565,-0.20655875388190562]},{"weigths":[-0.20239000448989279,0.05012586065734748,-0.17864800952084634,0.010915941210783351,0.07305945127881174,-0.200446893311636,-0.016321323027666185,0.04654556344629497,-0.16782557652316525]},{"weigths":[-0.2694126854225286,-0.21375541726950177,0.1526266533166887,-0.08587434654111215,-0.13847200586828138,-0.029186666422919975,-0.04623554157345716,0.05484415092607071,-0.15302865580431578]},{"weigths":[0.0740288071437,-0.08356858184951686,-0.07597303692772888,-0.0862533562311272,-0.05840605340484643,-0.02440804704881857,0.0422031625351272,-0.07819006349744075,0.06749385511861902]},{"weigths":[0.24554634187596936,-0.06654169485319606,-0.003805197296344535,-0.3986063297571425,0.13939058165311769,-0.2756730302854879,-0.09888505946263246,0.09754813423617502,0.2777303744810975]},{"weigths":[-0.1807872764035467,-0.5125963503992447,-0.1432766797866913,-0.7405181698786582,0.08688602337370084,0.3435756441050461,0.3500546765432135,0.05460728484390773,-0.024395998608040906]},{"weigths":[-0.20292328533723726,-0.4889885665840685,0.1853643067907779,0.07458581143496399,0.1465850946669089,-0.18513619839549898,-0.1833925634703456,0.15041448188313823,0.12421525467631413]},{"weigths":[-0.1516480052834098,-0.15673565303343793,0.09757444924665243,0.16423061875910686,-0.28383987445116007,-0.09367357435220465,0.12620173293794507,-0.20409015702267445,-0.046378144728296]}],"Biases":[0.25424345955454377,-0.0787897624662488,-0.040169975570363999,0.18986034618132822,-0.008584646601877742,0.08803057338046214,0.011824444412599342,0.27420536692035826,0.041050504837385839,-0.023685258873492,-0.30933575719091535,0.18733842569605486,1.0155462136204108,0.5012327336645944,-0.11016698639224848,0.2057222449675442,0.02687296035264996,0.28064388095985506,-0.01283773047984119,0.08480564797600153,-0.10134537287237376,-0.5982033762190677,-0.048264408031702659,0.03984086891403633,-0.09281693903858628,-0.26287872598706527,0.16439685385300527,0.11297535140814773,-0.0009829622331154998,0.2614820740044377,0.4276183396179273,-0.07686947722821176,0.16953621176359638,-0.14586129643968485,-0.17634443576352533,-0.027946250540323723,-0.036289749111351968,-0.06447987426868114,-0.10466558832217452,0.1765778735094221,-0.06458015692531336,-0.22748797058969037,-0.4424330167326707,0.10970904073136874,-0.01496232822173882,0.2264617604897958,0.05044299399481106,-0.1935188363853681,-0.0025437558895485057,0.0009394759335691553,-0.2903001676956903,-0.008864163360483456,0.10867167849370989,0.6519177715719349,0.0328028709883046,-0.0019685965862112424,-0.021859455389257537,-0.1515117489813733,0.010791261965311406,-0.0066121947605084318,0.08399723121847262,0.09724853957647682,0.4029515534708849,0.019363312346781206],"_Inputs":[2.457765817642212,2.9686336517333986,2.642083168029785,3.0972633361816408,2.310068130493164,0.4300708770751953,0.24092864990234376,1.2409286499023438,-1.231600284576416],"_Outputs":[-0.8365917024872398,-0.8670969721022342,-0.9825325485798007,-0.42276217394221618,-0.7744286497754608,-4.1116591517870619,-0.2518112906113983,-0.8205611673803364,-0.44591801191774269,-1.4720941981721246,-1.2725985430209839,-1.662565125793706,-4.833988406152564,-1.6345643682644578,-3.6392095806571804,-0.07757332578054219,-1.593613252188541,0.21913122643694439,-0.7050546226391562,-0.44579663910578379,-0.5709639268963191,-1.3303772237863326,0.0206026075135992,-1.4865363355217656,-0.8410857370413186,0.8016632334198435,-0.22722835388944288,-1.4098780191575074,-0.9749881403165706,-1.564540257150583,-2.0567694134793927,-0.3142065884433913,-0.5381451072664024,-1.4690445296422388,-2.708407459917152,-1.938086286711848,-0.18673399626837859,0.22603416436026467,-1.4322306915266157,-1.4063688820430754,-3.618112856585603,-0.21539512904476106,-3.1533269953618379,-0.5622236549247427,-0.4012434320273264,-0.4897403212623621,-0.37097456108947898,0.36572266485959006,-0.7837319400460812,-0.4771336953215974,0.3391939836860468,-0.30337731858564767,-0.37478213082540209,-1.0885940835140589,-2.8669755572195005,-0.4830344774410967,-1.1657882292724589,-0.5950653914488516,-1.2354911987738842,-0.8561699943475578,-0.7959098800372683,-4.0101505410327429,-0.5781450106340346,-0.9135678955409121]},{"InputSize":64,"NodeSize":32,"Weights":[{"weigths":[0.0814728910413223,-0.0025878630748521994,0.04119355550452785,0.16718216625378855,-0.037557470114447957,-0.10240569903602624,0.059834408547253959,-0.2821437598152761,-0.13936808115872138,0.08258477743896044,-0.011140275473924702,0.11787624918433724,-0.23468729194130473,0.0698739509032309,-0.01004102496616593,0.10648299555308812,-0.2637507503698146,0.1417624624132886,0.02965955714796921,0.19037443665089089,-0.08750574046864922,-0.11998082560051036,0.13837152455646718,-0.13445952459515216,-0.1852600001667632,0.187619520358771,0.11499115858524159,-0.10126490027341312,0.15669249300778757,0.030506676563044706,-0.020445325550586717,-0.063852396452655,-0.041751217812429967,0.07387974891706514,-0.0252308812537098,-0.1688747175634097,-0.03622109214325746,0.02094211874312834,-0.015122444819635725,-0.13513899030750976,0.16359380226761648,0.14499080220543573,-0.09775608713059099,0.03939168477171323,-0.06513915946268498,0.025007688979509406,-0.0146161631774515,-0.09711772341099923,-0.05764352034237744,0.10365204428359164,0.13581723211254324,0.06824111059931293,0.06693124602010638,0.0867522868708006,-0.14493486083699112,0.1232185244352042,-0.07211758817736795,-0.04636404433817569,-0.04593297230379414,0.025640968600681353,-0.1188126596773675,-0.13788703331108594,-0.037563254159978649,0.0516020320309247]},{"weigths":[0.12754533790443227,0.16701496072474163,0.0331091063350448,0.05515616548206058,0.010094480995578774,-0.11654344807747692,-0.09997098175770769,0.2923831048344947,0.305058347308633,0.03646209032481946,-0.05640219800661287,-0.12729969350445365,0.34866540879179927,-0.43008514100813996,-0.17460396524838929,-0.046923202700145678,0.14832001006825197,0.004321138747724043,-0.050085193236674149,-0.07811300842370263,0.06281300240991514,0.01937977596872897,-0.03330142026176589,-0.05262998980889199,0.07307659541155036,-0.2011808050775599,-0.061356973350656169,-0.019008530664985237,-0.05997773320442564,-0.12051560527488216,-0.021703940254708778,-0.14209749176867662,-0.1206474796678582,-0.1808900088630482,-0.24428790059098202,-0.07286226645748444,-0.305136482533516,0.23068423130136277,-0.048264991240822067,0.1774005540006792,0.1164801599227479,-0.4162688621636806,0.019053895695228454,-0.00020710486136810472,-0.05026062002131605,0.2979306752114012,-0.08765416282777353,0.05806955467173438,-0.1515385007319694,-0.03149855147376183,-0.2645660175728055,0.14085875610423619,0.12380669825647,-0.2708865268271192,0.10057979373488303,-0.1361838240706814,0.10538042568816916,-0.1640583449690775,0.05228283068175198,-0.01655369014944532,-0.020732124928129229,0.05429955165171541,0.30577054752628676,-0.014506524920009203]},{"weigths":[0.010546921662023198,-0.027789173756168577,0.12494207141635401,0.18137721706647567,-0.008881246019011344,-0.13336602926001396,-0.145375623912667,0.35077086414672817,0.041959287889692029,0.09758482859722324,0.23551215602860035,0.05164295025591923,0.5111239693670368,0.13064840269354364,-0.26827812601097386,0.14483007973727508,-0.08051785765878356,0.08389781067772391,0.021407629066725246,-0.19837376495389634,-0.17992465489852087,0.2699797671911282,0.21022413997263543,0.17773294063469914,-0.2779183208496913,0.12703107811659707,-0.125364981456874,-0.008574403563435867,-0.019741496342475415,0.1075156937690827,-0.23634709767273774,0.011064993681423835,-0.10155038862974016,0.3021167588471862,-0.16555998297398068,-0.14739307158847024,0.04517401830980378,0.1982379430858928,0.10310120651710299,0.048408406262871118,-0.14406927249888619,0.05966284029573051,0.30447793922005858,0.0833829984705138,0.06696084469241134,0.029199852849529967,-0.03926632042064703,0.10581345475108403,0.0287618303751265,0.022415169685407505,0.30373966584829628,-0.09587323632853856,0.09794678218535305,0.06010431259239616,-0.05002990712523295,0.03080167877041924,-0.04608015673678547,0.1626922908643325,0.016363202465916553,-0.030100424300276458,0.06702549799697089,-0.23654501085532063,-0.1418953777398892,-0.03511968167296608]},{"weigths":[0.10882198152737972,0.17063568635042804,-0.12655272076710806,-0.05406246289472386,-0.0764495679629256,-0.06266436458580041,-0.11298454986502926,0.1330532862012814,0.00017387769678814808,0.1599054489520149,-0.15264580480654806,-0.098306225350903,-0.20861002180098776,0.05655456313213151,-0.17170698680869754,0.11584307220157293,-0.14659196829418928,-0.10816640263479259,-0.04564449803538072,0.11111184738252358,0.10948404579614982,0.07721087713002312,0.041712631607814357,0.05396025175752857,-0.10343175224518923,-0.12411793120178946,0.00586080853518134,0.025058381142270437,0.1061134100797192,-0.15621666329993778,-0.027595644353466326,0.1238767210603107,-0.07711161254510597,0.08167998650618763,0.036364908090470268,0.029848369374746755,-0.026580436495589556,0.11260524150910274,-0.04682437402897857,0.03027948235342152,-0.15542100538266818,-0.17917656761669549,-0.09059789369313681,-0.02746836239868212,-0.1191257094951133,0.15739579871626767,0.06269997335427695,-0.06282236552928196,0.13205024458168394,0.0402675447279178,-0.22532687058469004,-0.0412224987038684,-0.197377851815327,-0.17669958801623973,0.1406849163595838,-0.0664392148214722,0.08038810450245646,0.1272145747182998,0.059119017677533507,0.12415050749799546,-0.19373585744615486,0.016237330248288306,0.09399255635256797,0.06109651207496565]},{"weigths":[0.09397029360778386,0.07355768378110758,-0.23231201079151876,0.04268768715398807,-0.23755426613467948,-0.11947427972879693,-0.10979023766768276,-0.06376590851572602,0.12975104150648066,-0.18271090848243078,0.06557069935326587,-0.16090517031328284,-0.034835470173089497,-0.2433327314313783,-0.11609833491597516,0.01139827058944211,0.06917669472334089,0.10746612055699656,-0.0177743269639404,0.14077685727150428,0.1444350361271302,-0.08079533315853928,-0.09365432838727483,-0.10581311828761361,-0.01819863345568457,-0.14333245768086445,-0.07136897069264207,0.1129647941304782,-0.1675870390021509,-0.04271796881396611,-0.02178815646601847,-0.030363039060378608,0.058255878393171037,-0.030954411198163616,-0.26109233416106478,-0.1766104005800967,-0.06123969909930424,0.12494285353828372,-0.15400625016934825,-0.25819681388898388,-0.03750745873337043,-0.12070243971149652,-0.022066850573492389,0.11574111964145692,0.11457897117657402,-0.09027879046486499,-0.03138113492984094,-0.13025739456751213,0.11447282689025025,0.13127963222099954,-0.18602033139483382,0.025982054312353423,-0.07047135290048204,-0.1656841753769422,0.01981028478915881,0.011039516595733587,0.052384902690014719,0.030599052741651667,-0.009918062656453461,0.161555669963987,0.17651471850062815,-0.03193024386197769,0.18425643738279469,0.16521110595317224]},{"weigths":[-0.14076458535080844,-0.0890910892140072,0.013187157101186623,-0.004566328175123167,0.08190203456638204,0.4726303771672059,0.00010144362319184567,-0.2500840018083856,-0.20197539074398886,0.11534372819145272,-0.10795734963454941,0.11522524346159074,-0.19219681392321429,-0.10011139607402986,0.10643165194260389,-0.10396694473982654,-0.015622076954587557,-0.1838625147991134,-0.044018805348797349,0.16627311443912896,-0.05592801029541955,-0.40831473346910748,-0.16582445134501318,-0.12337019367795071,0.10761588002602135,-0.26914779547261005,0.022635213428043114,0.21840960865595875,0.013354085654047103,-0.314456095875239,0.2721207426302154,-0.005103286801960093,0.19073715378392493,0.04758982999436645,0.3072839975975928,0.13319727696795564,-0.20450184150627707,0.03951231223791588,-0.14032966179458396,0.10960038693315667,0.42816293707807837,-0.0537298337211287,-0.4000279003640984,-0.06713428784432633,0.024180619729659876,0.2147555807274028,-0.14705076710312588,-0.29725744337830997,-0.1578289977321787,0.051547812297448699,-0.33870293063849235,0.08730646539777332,-0.0084225483348327,-0.042736533687560449,0.23774696109571726,-0.016285295158526355,-0.08455641377781492,-0.10084355147505575,0.05073765966450359,0.033522448614186618,-0.3595509625943576,0.41045222315932997,-0.13894987045025165,-0.07441634417194135]},{"weigths":[0.015937979344584464,-0.0897281202477685,-0.060837722544733668,0.14260860909157867,-0.2916944672999331,0.0696155283566444,0.012151397818867656,-0.15350834555366328,-0.2531512018446235,-0.017837921988626949,-0.07682382461404822,0.09471459752308859,0.012440294326749455,0.3319296159377615,0.062397371690690577,0.10719585356526274,0.28856800685946945,-0.021127468284621265,-0.1325197925900502,-0.06973700895254015,-0.03482141239407668,-0.03381068702180414,-0.22655427966358533,0.147021775501993,-0.07023858667023203,-0.11879092406502544,-0.20678595228360853,-0.028057478998406009,-0.015925593428317964,-0.013144165491666584,-0.23848929497517688,0.02925548227102554,-0.055696347073159329,0.16299467226661544,0.7824721911391837,0.00449717831035228,0.07324430148308908,-0.3210024414088689,0.16431422314603615,-0.012333408672909165,-0.059621370219188018,-0.012539454173630045,-0.10462246957042552,-0.0017060941203001965,0.0008945334503187332,-0.48918552596858619,0.23852428442877075,-0.2308559073220252,-0.07783648473138592,0.1527512899702956,-0.09115118270281782,0.0015097030927886653,0.10908417723576623,0.314924091703757,0.1929352295785583,0.10103893611648009,0.02022637664207889,-0.008400437532721373,-0.07599747919316972,-0.017046653987256117,0.044900021949749849,-0.07936537753638963,0.046221015760981368,-0.07568657130957164]},{"weigths":[-0.05500658075645445,-0.13137190966097235,0.08513027936243066,0.1324673420899278,-0.033686318401349179,-0.2928020893957613,-0.011699794572063535,-0.0950729355946839,-0.13878155391908976,0.030446743229327074,0.14036082401699588,0.03960040458710728,0.04643432554944702,-0.07962154030900605,0.10454516598211981,-0.15928770408662963,0.021919245124811198,-0.08393950206638887,0.09288247051855406,0.18716176987668929,-0.3135122882037418,0.15319835686205539,-0.009973023579084415,0.11822804277295922,0.10599623994256856,0.005032348620045111,-0.09260364322670223,0.07980240697778352,-0.009720661829487713,-0.08958560830722196,0.048047287838092558,0.08528411389255863,-0.15819688281266623,0.1360729401994329,-0.09341172877461547,-0.08640255497941056,0.12609922823863424,-0.059445199524943138,-0.009183637625943825,0.13238311310423657,-0.05094034582731619,0.07221780871979151,-0.0003628735605741874,-0.1341039239691461,0.13695617764643717,-0.06902748225429049,0.2454483059988162,-0.011833664190966053,0.11513435859024411,0.03090690935418429,-0.14020488127899978,0.08722437478799744,-0.05891803664573446,0.0993429618886833,-0.09909493713258949,-0.06295706996616378,-0.05997786908349454,0.24495959402689639,0.09662395766420538,-0.015078406682359854,-0.15663718131601699,0.014648657066204992,0.05405346670937611,-0.10118464193932717]},{"weigths":[-0.04995609884730238,0.07078608805362598,0.05174641045812024,-0.18101305513162459,0.23111878522264854,-0.01126138128084283,-0.1419468887204252,0.3085937247772323,-0.08962536415526576,0.040550497436368067,0.07640105947251798,0.06157432814889454,0.15679526673435249,-0.37996789323196386,-0.14624861201468515,-0.08570175738564968,-0.03495627296580706,-0.12637360064402193,0.029850113941926699,0.005812376898370583,-0.2070575241027774,0.05847975882290516,0.03448886367915347,0.21003419440673566,0.021223200179302124,-0.011838392166106306,0.10032130563238302,0.04681747902524121,0.026316354708654334,-0.021083638588049303,0.10381847067786039,0.04219151737278685,-0.04275269052607545,0.01647009070375624,-0.21496534207125174,0.1022128950552888,-0.054597753590242308,-0.11908875961511617,0.09167540479022159,0.07649448395992154,0.050951939162900559,-0.017300807131315576,0.058782439878568817,-0.05954561978899557,-0.062477089602787676,0.023214280478319875,-0.20954792495173628,-0.17383370688539616,0.12877919650821405,0.1572088244013284,-0.1372580341268512,-0.007817575071702976,-0.045154198491131,0.021426333100287067,-0.07175706597842018,0.1462796085571179,0.15381134543277115,-0.09218567312276652,-0.02188390396674087,0.05680901029169291,0.08230110434555496,-0.10847879099252939,-0.1892522852253908,0.136474145094694]},{"weigths":[-0.15949811332806114,-0.029840770999239716,-0.04303116574906211,-0.009216648364970704,0.0799858782213271,0.06240139549455425,0.19970941702173435,0.027114578215942456,0.2582060503889279,-0.050153122020907017,0.04104679998941477,-0.2799747243576957,0.3056895016174875,-0.3597725243383846,-0.046773872924081517,0.1301844903132738,0.07653705742553492,0.09145620594027737,-0.1171096621521262,0.05909347940821785,-0.06132222509509817,0.0598553798581401,0.10175391473880569,0.039821185030870068,-0.1341089588831747,0.056454307303894727,-0.058545343833690709,-0.018459866817114053,0.009196660809645334,0.25178625500835,-0.09500561449370494,-0.15799285744264675,0.08337666751608988,-0.13917171605355073,-0.11172962902172019,-0.16504152346709054,-0.24480637539059317,0.13137066750693619,0.09164179295810865,0.13625120383899143,-0.09307191742854541,-0.42459735916780069,-0.13544347586209858,0.13729808332395694,-0.1326039456154016,0.19267482425304095,-0.005511442157058646,0.01626147960777291,0.15479400485559159,-0.05489212012875511,-0.2548892191809354,0.13035825889768863,-0.19019790621565267,0.031369354627884839,0.14214498501618406,-0.05918045666433024,-0.12198570849787575,-0.06854535489304156,-0.1191759967024511,0.04506725136367088,0.10166277147050239,-0.15599792174391245,0.3068282399163225,0.13611429475176604]},{"weigths":[0.0931239881949341,-0.058023440931076839,0.10439978393129798,0.04118841172636646,0.049224415420415137,0.2925782569277029,-0.11595384285672197,-0.01761358090061304,0.31250081955448386,0.046150848079244719,0.02338482662020695,0.011179341382440728,-0.05911006136676624,-0.44439145971785928,0.09385840266547702,-0.06666033380103616,-0.23384797178210948,-0.09399921072069312,0.13229297585626546,-0.10682775793732347,0.14469477471839146,0.023054489491052957,0.2794585515846965,-0.0021436060469391677,0.010951789830449336,-0.18718382462949757,-0.08966771335555603,0.359795846599027,0.053317603299276958,-0.1167199788566164,0.30105622847218396,-0.00020436749973614922,0.13538856182807813,-0.11543928396907546,0.2826621239690092,-0.10718285855965312,-0.12714755610414675,-0.08727164792354195,0.026049671273063098,-0.17191374439647415,-0.015283896505002634,-0.1803791294263135,-0.1727756570471816,-0.06312705185052152,-0.12833581647315704,0.3147293596243336,-0.08936294840730158,-0.3553101911975806,-0.06207579450235207,0.1330844672283394,0.017740771541405795,0.04273791147013547,0.03898632778882532,0.1392671573993636,0.10556549096839847,-0.16670741445233887,-0.01685625422937945,-0.009491264869099809,-0.03840388106283563,-0.04496017947958725,0.13597826773217176,0.37533066296765868,-0.1194990482636647,0.14753349908890033]},{"weigths":[0.1818980149176024,-0.13642675383741346,-0.0032913514054901959,0.07205640705586068,-0.1668265907368082,0.08455087478774622,-0.11934621162258215,-0.20206638593544302,0.12854095584144568,-0.1975491290669271,-0.27844788568283787,0.2011456207133782,-0.00590313266247155,-0.10358441709060794,0.25097050867393846,-0.25976885396390689,-0.06708374086817867,-0.04211426511653145,0.012993388681707795,0.15902150091525689,-0.20763145740980575,-0.03987899364565983,0.11376489358659532,0.0005885562864685887,0.12492963201424634,-0.24852049524057413,-0.1317331200322396,0.032928683742578939,0.10360602654464278,-0.054621731069251579,-0.08057980851620696,-0.2696358640578225,0.10143155033909524,0.14991031622551879,0.2259131744158858,0.10992021312276239,0.11195040140833965,0.08851355529234982,-0.1666397270073495,-0.15843093088114799,0.17630860994913404,-0.0326450767929247,-0.2741908160605046,-0.1843896193312448,0.1593303142963334,-0.157408350338915,-0.09357059027487907,-0.47667132153084609,-0.1423594949153881,-0.046634250738976857,-0.03812244629862397,-0.0132323642719673,0.1460389206088525,-0.08062726982423335,0.09515910621359057,0.0004074936002742821,-0.16572245477586274,0.04799377543289098,0.027850521639544626,-0.1212446672369685,-0.09986589258075517,0.12336197489695579,-0.16549660986242174,-0.19738243268430709]},{"weigths":[-0.117847316252507,-0.11399156109547522,0.040240457055153677,-0.011435013896877929,0.24188673599202235,-0.1440175596771409,0.016902322271879209,0.19103920220870883,0.353199571304416,-0.002915056952784845,-0.2095332128420057,0.14642782475830866,0.7319647549711392,-0.5053452798378961,-0.4139994547652592,-0.06823849494792815,-0.019473839896293634,0.17962969195480373,-0.14105288840622483,0.11546464368633378,0.04638682686698445,-0.3283433568827535,0.037302146656585117,0.13802422891112454,0.13643267649222327,0.1515342570172152,0.13388203823556597,0.19114675359999407,0.09817769313441183,0.36839255555744906,0.20367654917273346,0.16420043659845016,-0.1736479758414856,0.2240228273645018,0.054839546216651807,0.1991167284910346,-0.02957126288673999,0.23613067711910749,0.0833127716990615,0.09677684658690589,-0.03780185004932968,-0.14475938103048345,-0.18824096886618894,-0.022823704191769917,-0.006542154018555177,0.32344893593464926,0.09483011986984263,-0.09293458501238124,-0.05839137268787114,0.03333781003115392,0.03281999723783725,0.04598496400512461,-0.12568287025269357,-0.13733180001462287,0.16671217615199336,0.017847728625589477,0.20192800517913624,0.16146147599432238,0.015456449452494472,-0.17574728880998129,-0.15513596205764089,0.18519511299180844,0.1812951616635953,0.1593012903180095]},{"weigths":[-0.02679277194541937,0.07565052473442977,0.11078639700271625,-0.037392538537730519,-0.07056729517233024,0.017724514852423699,-0.13298372659541514,0.058509814438552399,-0.01430468159070726,-0.15627557875724785,-0.09617801157830025,-0.017532182766166937,0.12524570084190088,0.06401462249908803,0.14371433772638798,-0.11928876264391469,0.029969449030972953,0.11992639172012272,0.05184578917093836,0.11943656497703789,-0.08595967558099572,0.11411797925283769,-0.18718581154239723,-0.03223901122753366,-0.16465178321062746,0.08458414379986797,-0.04120006652281601,0.001581114166504543,-0.03906362498090313,-0.06382103910832356,0.0031792101453960578,0.16187608915459157,-0.03658370420951956,-0.13168183777239504,-0.05482246542963324,-0.058137744650912707,-0.124258503466463,-0.06532683215303727,-0.16404538333506689,-0.054259232117576498,0.06865937802596112,-0.074009691880888,-0.1175062331792678,-0.02804462461645203,-0.12693513886712466,0.02705436106932928,0.2114909654446254,-0.104244688057025,0.08965357451351264,0.13340503153584103,-0.1736894576692695,-0.02180594655504532,0.06420946706819547,-0.06709700029499789,0.18754701844519337,-0.10657053869060314,0.036572001635849688,0.10115827478901185,0.03933528187343086,-0.01347903891905209,-0.1482629846723577,0.03755030178269479,0.17527782832388109,0.1609641047841158]},{"weigths":[-0.12547774074192342,0.17376293931758186,-0.07448684471017503,0.048546117559122848,0.04075101209105821,-0.29301078353892159,-0.013524035017864256,0.1342551061944424,0.17461698345933369,0.13276786602376379,-0.16297719632016093,-0.05357191223608917,-0.08766569688164779,0.021707370045153254,-0.15381330877234837,0.25952072955228336,-0.10091422952647773,0.10665849744367517,-0.0033890514161549849,0.0971879468327097,0.07571651871426989,0.017727066119501066,0.024763872777941934,0.16154353488285903,-0.10949602868616998,-0.0225756165788702,0.04423237007709279,-0.12992860200895188,-0.13516005306333837,0.1752714928853649,0.1941239110462047,0.04068611580822824,-0.055016929937836796,0.17705272705201567,-0.55512436815097,0.05140601860195605,0.16603999767895026,-0.05894076495009211,0.058389439510787278,0.2086386665571584,0.11621484547146498,-0.26295439837526338,-0.13661866860672368,0.07701770354430923,-0.06481010627585668,0.005218815532688943,0.11529340679350822,-0.0159806536860628,-0.050795092845608808,0.17874244592978645,-0.08731321413525851,-0.03840413494439501,0.30609561375244667,0.4190659795384017,-0.04742060374535185,0.12256351487426554,-0.13005922828963807,0.010217061581555829,-0.10343783668812506,-0.0007480491093627714,-0.19051765728781523,-0.06224790449257421,0.2727015641873812,-0.03617418782139435]},{"weigths":[0.16605558999853746,-0.04333601247258688,-0.18101912887094896,-0.21165075142961449,-0.16259789259447533,0.2534808212402248,0.050706941378438,0.10527575430075868,0.07291858005271004,0.10135281953869309,0.24081893069108468,0.12073873340514282,-0.026830663186649844,0.4161628259424936,0.2633208093017128,-0.4176211533049893,0.11059654069629148,-0.24063371176528534,-0.1441641557672281,0.32464338497469566,-0.21633014034667273,-0.11093046009186408,-0.3750431951435364,0.029191030953506358,0.33111325291313606,0.0026851824625623804,0.08307196393892985,-0.043537809527354847,0.17051912333241762,-0.11185327715027371,-0.18114268591317987,-0.12872160211673834,0.21287741616050413,-0.01238473181022147,0.04466651894661752,0.25202427151569126,-0.4350883623056486,-0.07901454314113077,-0.11325693074312234,0.10592813205949879,0.06662396387762196,-0.03615371628314332,-0.0855003973194035,-0.0700965739794761,-0.11434425081217117,-0.023571013284701227,0.12254236522679805,-0.0008273744228944471,0.12986216082554739,0.06032421896117102,-0.4314577738482645,-0.09298697754233322,-0.002272692451146999,0.12640357460303418,0.1423878061793063,-0.029241783016006423,0.1058191744089198,-0.04849307494067078,-0.008009668086905453,-0.09309947033306432,-0.24398496854654304,0.015826710805151909,-0.16315744650937578,-0.13083368660550574]},{"weigths":[-0.033592857797294848,0.141014016373106,0.021335034890069043,-0.04461465151371964,-0.23592634840316913,0.13613312986792687,0.08552232159296412,-0.23402446926566648,-0.20615000198230286,0.19166159798607533,-0.04538636084909454,-0.0061772585977213959,0.05438107958648788,0.2141482261654041,0.007809568436102429,-0.10669112987669843,-0.08803377211839819,-0.22939818844646393,0.030993577851253813,0.029450974284511844,-0.29476646277156917,-0.009386506830628167,-0.188476623480978,0.1485597081606011,-0.003338188442405319,-0.13883194615710113,-0.037562746470542907,-0.057691507546976609,-0.06835653393253939,-0.035409025507748177,0.060453169978274618,0.1477625175456345,-0.07665556552459718,-0.051544048032321109,0.4688116242054118,-0.08061714995756293,0.1110752153351363,-0.057338176019985167,-0.13454482480423114,0.003120377947507288,0.09757691380923747,0.16003486284448888,-0.013819954650747675,-0.04036125381527512,-0.08826242526647817,-0.3232797442240814,0.2360688922878406,-0.07227448727549017,-0.051315400342953367,0.01026873411163705,-0.05985071733151286,-0.10235329358857233,-0.12712167777961357,-0.07027695098709451,0.016258182743748747,0.14936193313060379,-0.012650887605363882,0.06788657391739038,0.03728597267005862,-0.019429807936607869,-0.04106516628719038,0.1368104394668226,-0.15586855016374619,0.003261833794520939]},{"weigths":[0.0885808644170117,0.05635924597969726,0.14765715301489502,0.1261245457935671,0.18013918760445056,-0.08592885040709807,0.02009209446173702,-0.20813537561150806,0.043034316542319258,-0.1958494322983667,-0.14451913585104676,-0.004965435038251683,-0.2223425239241441,-0.27805322871918028,-0.14584843206165228,0.015062117187349168,0.008176150536856521,0.08418620064012783,-0.1469040155145195,0.12065243594646481,0.08650360738777188,-0.091153009426042,-0.030518384488808307,0.09026938142287744,-0.05318221862361113,0.05096000727468565,0.06489566772269873,0.12149222755220828,0.15680756197861415,-0.24765372669939224,0.05323750885941699,-0.041715446660493277,-0.042579843805116739,-0.260473805612519,-0.12427695760485543,-0.16275976782741165,0.07679624318478733,-0.029942584017485519,-0.07512067639971357,0.04363754912686091,0.028297095272447685,-0.07715010648561788,-0.17554243743491217,0.00907380705549832,-0.13347453116817377,0.12231669021215322,-0.05375755928501309,-0.08616375531780903,-0.02763431956634529,-0.07947606823643652,0.2177801796734308,0.03256261234238496,-0.1328244470303527,-0.3005750333708458,-0.19797821260269209,-0.06239655947725925,0.01122769361775082,-0.15426341706196754,0.1630318960740053,-0.04326233232009341,-0.06937182444022334,0.09582949679737168,0.14728368383481647,0.014089668456143144]},{"weigths":[0.174367722743561,0.13135205733429415,-0.17212405741975948,-0.11073737011618713,-0.05705131274121925,0.1494286331936143,0.06428291328600251,-0.13617310638353273,-0.29250080047823959,-0.08065357498083657,0.08005902929320055,-0.15589750766277034,-0.1204875372549458,0.2743647810998951,0.12143117021797606,-0.2246106347885783,-0.003569224141558267,-0.37133203213202278,-0.03181971106881122,-0.15216945908602096,-0.02767179411448769,0.508866798037856,-0.22679844401762168,-0.10782867270687993,0.3715701709409776,0.006558757628396056,0.29799055675919147,-0.029423772598352585,0.12659987720032346,0.050363183685040367,-0.33723129510747376,-0.04445624540339842,0.011919856039012687,0.2153387761564987,0.0605594160060057,-0.07292105530549552,-0.2289935672502009,0.14448723825179014,0.0838526349466065,0.051160404995592278,-0.025993358090049155,0.17137172431636256,0.463920970974018,-0.19474378590929634,-0.09101007811257299,-0.3951134407408199,-0.05673297775358565,0.06276514605578282,0.12428635680598779,0.17541562246273208,-0.3218527611635072,0.1082949353208286,-0.03224250617035327,-0.00417255151781691,-0.1243035275381582,0.1030982124903519,0.139001010188573,0.07176082412752524,-0.12775220485358319,-0.13516149824731958,0.18738685555851165,0.029325187753328275,-0.06453714536835147,-0.11340248192859782]},{"weigths":[-0.151890713690736,0.12524240310878913,-0.07533998078881632,0.15717878984253423,0.17961941141066155,-0.21343233789587152,0.12222076168323415,-0.035876688962944987,-0.07283588166838616,-0.01327287652221031,-0.04566521901937437,0.23622290801899646,-0.22542973646837567,-0.18295221874172166,0.007185825115215697,0.18998141681986142,0.0222122115754939,0.23075098146391344,0.06646969527208528,0.08944840558346051,0.03986697743011821,-0.21965910850393859,0.1254311975768246,-0.07421449200572472,-0.14670191657890303,0.06223445447370685,-0.0060159202926747409,0.2330098377881956,0.030522406511648418,-0.2232425397338005,-0.07143066584562144,0.2892525362263346,0.12725550845815718,-0.34428407465939928,-0.15279911590427024,-0.1791838684292146,-0.05039178623074657,-0.3132566060973394,-0.10826129973938748,-0.008227996187922969,0.2786131455326442,-0.09526912739159,-0.04127740732892204,-0.10114438327252153,0.0007661365601973572,0.2297470460523418,-0.0765067754872166,-0.17306901163691516,0.0746487473953001,0.15870206216200076,0.14357432560087836,-0.01623428334523181,0.30934240168317919,-0.1681682503161555,-0.11322136034303343,-0.1007351538936624,0.22552318261488414,-0.08419985445146755,0.05649997612370352,0.16988974858895354,0.15621863532726483,-0.037326499074049109,0.3147128725266058,0.04196408954159972]},{"weigths":[0.1537223922848767,0.028889346242675738,0.1112731239964672,0.19392849922231579,0.007720870462770953,0.026966212577518343,0.14795857342482464,0.14986394310604304,0.030710459124812234,-0.049697178986495758,0.1813355002346863,-0.015078044777952592,0.23132136650909844,0.2767874954864495,0.13361314884719839,0.011424253976618507,0.375765967865338,-0.0031316602793613195,-0.10160727164450763,0.09750023495813615,-0.19569310459400397,0.39069944853677787,0.2691144872233048,0.18378027901306247,-0.08749080942232303,0.11397719811890438,-0.07375703919683473,-0.02058196759327812,0.01885740773270725,0.0978285853229583,0.08346008268097349,-0.09810988152078545,-0.06076204132174958,-0.01879880536915086,-0.38358945604499297,0.0930673587565817,0.08966620699462477,-0.004900406326059665,0.045951484955293459,0.15964524807088216,0.007242146771430261,-0.04131898940196923,0.3304837285785111,0.11691557554941332,-0.05856604235745158,-0.02531208412863913,-0.05081252287136678,-0.048468872131896847,0.08881728186435227,0.18756586293960854,0.1231449734837885,0.025998654367676348,0.027232291514660928,0.26015599630562749,-0.12517065878944123,-0.07686130119503242,0.24231245520230464,-0.12791493544836433,-0.08335120425496649,-0.04671386384547707,-0.20153897405557287,-0.2900419285608762,0.034058188573583256,-0.048887436990163696]},{"weigths":[-0.03952067425052539,0.07815988226240506,0.0017036899013669679,0.0179181058867602,0.07533744730893818,-0.10728206340825634,-0.1658608847165038,0.008004094904906756,-0.12861389391440229,-0.16874231241231572,-0.17704873407502945,-0.15251185235041743,-0.12436255115992918,0.05606635386219714,-0.14818939757151554,-0.004734210361539433,-0.09525947255450958,-0.05860934657257923,0.0632667889338286,0.1424669123912455,-0.1197851148421304,-0.050371145883493128,-0.07233038942869034,-0.04320679201475152,-0.1268427830930138,-0.09564102355721437,0.10257020828066925,-0.12471289430918167,-0.12449893873924319,-0.12803493905316958,-0.09407993860860908,0.1406967181045107,0.1726165858136363,0.16167542530091984,-0.06809577888910726,-0.06798093656407796,-0.12059892143433589,0.02718513191242005,0.12516780359664385,-0.14883040754882777,-0.005431234668810079,-0.1335118108095081,0.1048809452967603,-0.06709366090219678,-0.020824541803680358,0.12863791143277715,-0.09365184300410468,-0.10076064160991331,0.040088660546082639,0.09883355219030216,0.03317666750126287,-0.03355785335068425,-0.08006014029638818,-0.037635560971389658,0.0971743141177899,-0.059260722449528308,0.004630209179336336,0.10250129573424143,-0.05037246084482204,0.16490745043614858,-0.16232468654896577,0.061148258235896219,0.03323457409272728,-0.16018911800922673]},{"weigths":[-0.08778228404511114,-0.033017511283407598,-0.1561931239395847,0.11048876314149071,-0.04505702318554887,0.05149908402659211,0.13310146314090955,0.12032410013753048,-0.03735639475380343,-0.022728033290972006,-0.10096693442489643,-0.11400947627831337,0.03844333157631015,-0.06600632953168057,-0.03687971992513453,0.1797736781618987,0.01355440935617766,-0.06464500018661138,0.07223835777285115,-0.15648059169250773,0.052174782002904099,-0.034568465858253339,-0.16764180522241785,0.16420581072855135,-0.049403826532930867,0.09832155848041588,0.034227175894697117,-0.18305860464005484,0.05803107708289798,-0.055079319258690858,-0.018731295554647036,0.14247631312444634,-0.09158068796073879,-0.00019075398334686077,-0.02909338467014627,0.15620832448866094,0.1121958694468026,-0.15252916200612189,0.13725594720995858,-0.15496442918554813,-0.2336765770087164,0.27643917005957388,-0.08873763537976452,-0.10318888216054839,0.08260347439684822,-0.13390979973806833,-0.10029453741819519,-0.08195802921363602,0.008730920676801122,-0.10077733344883574,-0.019022448901726054,-0.10451307977142703,-0.1804824913266927,0.07928525498193388,-0.06415854567215342,0.17439393498321208,0.1062219904037858,-0.0010656154256251246,-0.1652500368925861,0.1735085093719442,0.04022667477526975,-0.06347767951222629,0.08897997106666436,0.04082888377016276]},{"weigths":[0.10894345690916675,-0.000981416562456452,-0.0002336983282801041,-0.18232255741705753,-0.10694408861959379,-0.1320041199964259,-0.10216077494552602,0.05580661679275582,-0.09427360947104796,-0.17148121799995068,0.008272266605433569,-0.09410901072902273,0.3145410039946816,-0.05368899102229868,0.05857063494843519,-0.02866264075404992,-0.03731094139560674,-0.19526639326518994,-0.13847570807059163,-0.11759012070894058,0.10472516364812402,-0.07323666038912762,0.034078395473885549,0.038738522269184418,-0.0022103331816961298,-0.0479690873912416,-0.006654603685412145,0.05921099867890572,0.052467508256747,-0.05504103986983008,-0.004199657214510741,-0.1340684666176748,-0.054969453557338437,-0.035462223800153,0.08548584655214679,-0.10494387232486988,0.08736444153774803,-0.0182738849792867,-0.06180071096930019,0.17807019331135896,0.1043475130161846,0.08017067070595668,-0.024263743599604576,-0.2170900388394727,0.1486917482141409,-0.01626070006896888,-0.13510342448967883,-0.04547100930410039,0.15179747116759097,-0.07861367333470708,-0.15089208097856347,0.11024340775978703,-0.028068957996620154,-0.09659673353145092,-0.11800272474868127,-0.02591442354204773,-0.23194504642608755,0.16937407519592469,0.18138664016138673,-0.15619325397835713,0.17258876000205496,-0.04797761857174874,-0.012972973422771503,0.12846720354520584]},{"weigths":[-0.1374471377969408,0.16510722800007819,-0.19513327856346453,0.016732720428237734,-0.09653776583434468,0.05973026974081465,-0.0491793511446798,-0.129305753486704,-0.166073358536168,0.055873225358049918,0.1303338651886315,-0.17250427441750033,0.1540400024700872,-0.1365611416091464,0.1129273741520804,-0.1614720265311914,0.1572207181429929,-0.05924892087993359,-0.07031864911968948,0.1356793137793454,0.04714314420421839,-0.03924658231764685,-0.11609506276497346,0.12131542055602528,-0.09740155375603767,-0.1326408393548031,0.19490641245303598,-0.056961069332953178,0.08322033685681056,-0.13997129524177003,-0.04882255406732838,0.0016393081598313827,0.1579143361859348,0.07509528647923847,0.05273068532195148,-0.1412422212335029,-0.13889568250817872,0.10898122808323477,-0.02913675190397648,-0.0479721617273132,-0.15448000752755004,0.07236468108222724,0.12799598820867648,-0.0076855478935000669,-0.015709209802148545,0.05486627421823083,0.10079853775531275,-0.11297167573620772,-0.1588320357899223,0.09852673437095655,-0.10948530472272078,-0.16191365848477694,0.034858671392890939,-0.018956254501460255,0.002287041403955049,-0.011951704800257807,-0.029049355443327489,-0.17370242336964576,0.026883883570989015,0.15048211019485545,0.0012175536973860822,-0.22395578339813553,-0.0105252423922859,0.11242096624521189]},{"weigths":[0.06243113434403426,0.18439789153789816,-0.07456719530311018,-0.0014402803205251329,-0.07535335066220275,0.04943479536292372,0.11488036477709965,-0.11283779726716327,0.08745887790576677,0.07324595049043742,0.02413396973009588,-0.06485100885932557,0.07522341971744673,-0.14171983001452086,-0.10477458658396027,-0.08719971260350681,-0.14048272734901663,-0.19850517800454033,-0.10173557962012352,0.06803804699654236,0.1806204738574114,0.05773725826092759,-0.15328858580937428,-0.08173080167058733,0.17687429672193945,-0.07031882264979728,0.09786492269340715,0.13024523638519298,-0.06308182600000297,-0.03802710849987665,-0.02336687431640556,-0.034901261131393798,-0.13394215972011237,0.09647363010977665,0.26290958084516599,-0.07896316110721633,0.0004007199876518368,-0.11109145053180829,-0.12706237209679126,-0.17420769414856555,-0.10467376882483075,-0.08556387633672447,0.15840946996891124,-0.019364314043563058,0.07646175263352051,-0.06713681259767981,0.0835481617445392,-0.07721344041630274,0.11731972458636227,-0.026847478941559829,-0.06682892286033221,-0.0788262079701753,0.06938489641844482,-0.11668544147876646,-0.04765126693179427,-0.08433843929189808,-0.10385516664831307,0.05801106477671637,0.014758593404597582,-0.110661014516807,0.1544287322318809,0.22950989361442246,0.029270947574600214,0.06606601087236007]},{"weigths":[-0.2496299210153213,0.28602421080596776,0.05040082162777553,-0.07738151489284716,-0.2940911943864907,0.23811801430332278,0.1286230775689112,0.05265230625760756,-0.32985100338959857,0.1177349375253918,0.2523720437169641,0.2496267098090749,0.17786206504450803,0.2604477604807602,0.6123945021077205,0.061522148510133368,0.0496208575185596,-0.2660572012438189,0.16103088767160468,-0.12052689975548779,-0.40381218793241349,0.6057782212381818,-0.18094540168912658,0.14808447220379396,-0.13354219249267075,-0.31114007906347587,-0.3395029232434929,0.07465850898195811,0.16996341272638955,0.2572208773981231,-0.30466685259151368,-0.06790852356205937,-0.08727662210899193,0.17369899368671977,0.12980397375622877,0.19695548216324097,0.15704674848801998,-0.01047038528333271,0.28995370663905026,0.3878709197595332,-0.5211755006617078,0.1126489388754458,0.6858714940301545,-0.20153773160713,-0.16288980262848655,-0.22400544142543728,-0.2005239044650999,0.15692048691607109,0.15125718732848293,-0.04306226436315715,-0.2978725329504287,-0.09471710101753131,-0.2769196569440631,0.5070030673820954,-0.24604982863045858,0.1456310518836454,0.17907292668531797,-0.02784154722077631,-0.17275236063114086,0.13027105699705528,-0.060307404237535579,0.1391308982757499,-0.09107811093226984,-0.12958700873454877]},{"weigths":[0.15744080951661366,0.1134000069064807,-0.06028170695269378,-0.12462039221820186,0.18345282106322564,-0.07510110531163845,0.008547871209267174,0.24844482571469329,0.48641366341185979,-0.07928761145261182,-0.15200336349767064,-0.15699340177543215,0.23165945922193158,-0.19993548053022354,-0.02380797908095418,-0.3761946042061966,-0.10171476709820997,0.2313185706283084,0.10277730754256608,-0.011756629478980024,0.3140755694626088,-0.07191410018595695,0.27830921049970477,-0.08292981899308258,-0.13125440205870318,0.0926578587737973,0.07558571761916926,-0.0110366534051066,-0.10586983010039071,-0.048668199250338117,0.15301780438941046,-0.24783214839842167,-0.01293421135013442,-0.09868377946363589,-0.06542143274872647,-0.06883120894138273,-0.47492384033265247,0.03222548326633872,0.07752460794372407,-0.03902997432470667,0.5692313227358697,-0.9483017528253659,-0.1710847365330808,0.18889397610192067,0.10788446295270211,0.6199187001133559,-0.06677139721311588,-0.23638917597189045,0.1746170431386823,-0.014504387773540509,-0.1539304068989388,0.2833357441189122,-0.09400939627657684,0.046434624263736849,0.06317223529532992,-0.10814086696768384,-0.1654508747508554,-0.01885370517140306,-0.01012591568093615,0.032264788039215477,0.08531301215818404,0.0023976796041467708,0.19414352607627004,-0.0121018085062542]},{"weigths":[0.036959972313915217,-0.07781703707941336,-0.061317870381195068,-0.23002378812280237,-0.054104324975795179,-0.4150702087977286,0.18149673557715799,0.16534727989385965,-0.013147652606668597,-0.3953859976146864,-0.10545972655524308,-0.04107910919887282,-0.16761573258658067,-0.04879506660030953,-0.14872730073716707,0.11276497949640255,-0.019004365990799647,0.14841925705925083,-0.14296687898778449,-0.17198441653391897,-0.03346170334154007,-0.11570027109685356,0.36451308129549267,-0.17195658982523252,-0.003379537208877268,0.08894328957471032,-0.06884886990722108,-0.11895124438948876,0.024378811272617378,-0.008078377991843839,-0.07710108478068376,-0.006399686669098111,0.13137813579508987,-0.1604528355269941,-0.20969641935333117,-0.15376189737364105,-0.0001692909109721607,0.11291908183561134,0.07886504729305272,0.22637130967660044,-0.1857279084237777,-0.035408867237488168,-0.030210603894869745,-0.11942141090555113,-0.08982567948636987,0.10093345317754109,0.04043505590869295,0.15742974899161572,0.16898261474990795,-0.02494073842615192,0.220166719792623,-0.0524529570795627,-0.2782146213826613,-0.05283931789230688,-0.2194908936594375,-0.07028888122170579,0.12414708631996389,0.1389148138037084,-0.012608543025456124,-0.15732556700715592,-0.1178752526235542,-0.2406714156850895,0.17920692674353978,0.03635921392445157]},{"weigths":[0.10494556057044521,0.03402288313853893,-0.11746103742748232,-0.08000279007512178,0.015344484833079939,-0.05545931605014323,0.10996517860145633,-0.1879777220516119,-0.04224628838287743,0.029627651794712066,-0.06850428069605855,-0.14543655052795916,-0.06253637609655873,0.12432886774108543,-0.15651884860866428,-0.16709626825338975,0.042649027767975768,-0.15069695785055108,-0.019455196146316409,-0.005360664912888201,-0.07939981077285305,0.1537817411623048,-0.11035192716374089,0.06918292176685599,-0.09717750670698727,0.01655212062295572,0.11168416128196243,-0.13168332269870476,-0.07747116271798448,-0.10513782199860024,0.12842097755398297,-0.02894937870451836,0.05730682238326841,0.1622307994919993,-0.04838815100250729,-0.08056792171001887,-0.18989783666184566,0.018986723746156916,0.173386590304023,0.11057373324721491,0.14198733374128043,0.11378045760798021,0.0027331969638794159,-0.1480079329804599,-0.14590610750504605,0.1211845625033766,0.008115701354683022,-0.1730861590426486,0.059939476483797608,-0.02587664013631395,0.06019830803901697,0.039797261593629559,-0.08321985518374219,-0.138590013754166,-0.027174969717816197,-0.14355712281318659,0.04923194900209919,-0.11449192187388203,-0.017437600987832155,0.11970874114746023,-0.1114831959703314,0.1025774148101581,-0.023530689446277,0.08259673870617862]},{"weigths":[-0.1446654730088076,-0.1630780461680769,0.07911787883026397,-0.05002932366740298,-0.08775291656604929,-0.0745878834588315,0.16861018762865519,0.11666443980411448,0.08024141746056761,0.05781589511010957,0.015515106277234752,0.12954623231465596,0.15314032650297916,-0.08063120365843289,-0.09572396715817075,0.015131290832085027,-0.11653848334105115,-0.14108450307073554,-0.1186909190311998,-0.03602154165361324,0.019872330734778636,-0.1556981910864816,-0.08866948883000336,0.12113792886090585,-0.04157481786644816,0.06754851837552821,-0.12970118324308015,-0.13215470527650798,-0.1180171126207645,-0.07337293405149717,0.01361951866808693,-0.16906582427354673,-0.028819470098816949,-0.08398905371203142,0.12965042590248652,-0.008889188337702055,0.1362145048820599,-0.12871203572130503,-0.12977963983555058,0.13195419702770734,-0.10299846910397663,0.1289012399956758,0.11441266926320715,0.14409203935923704,0.04700568402234713,0.15034056047207168,-0.12529216997985163,-0.16137986510996417,0.143112501648967,0.10178822463214943,0.08686287238220846,-0.16068929262928295,-0.13482769837307014,-0.16148849353869938,-0.1560665535719145,-0.009312490397227112,0.13381741798888789,-0.031774665559769068,-0.10693919998809837,0.15005249464388169,0.042017747623683859,-0.21174832941692174,-0.03349197789944438,0.06912697884302924]},{"weigths":[-0.1407480556028053,0.12635444753734605,0.13707283384939587,-0.0887979559566633,0.03214884911211684,-0.04522736888091265,0.03898502489883869,0.005858366468472031,-0.14235009505468119,-0.17911519950037883,-0.0634221126185726,-0.0069976115662943138,-0.15421052049644455,-0.1336337270755015,-0.09210657126004529,-0.044817295706680058,-0.18035892788266248,-0.15292655093278563,0.11401100387173979,0.07838009891283295,0.09241120496470196,-0.026354075031822249,-0.022921983768404185,0.006084448187954345,0.08302903838299286,-0.05427177597533499,-0.040181203261438588,0.058782493909693259,0.09896088356001529,-0.09622985608398424,-0.10661375268686928,0.015295674276953074,0.038582206094058119,0.037466073787793988,-0.4217631182641155,-0.061641337176787689,-0.061132603129025828,0.2616074147438793,0.04027511005308634,0.09521827640833836,-0.15564670762252026,0.163692121558932,-0.16927882053109176,-0.10606796444942135,-0.039063503138052169,0.056185867051454559,-0.06787135493368998,-0.1744513249942915,0.13282108573433544,-0.0492125149381969,0.09746224376670089,-0.11006197513101759,-0.0699672739480599,-0.14454896108855626,0.1475371332710695,0.08897788686067103,0.05200654617641489,-0.09250483694242921,0.2837638081260016,-0.06391665798081257,0.09103713784809811,-0.15068495693645218,-0.1120419541872632,0.1797277626368626]}],"Biases":[-0.14938130018411423,-0.20408665406990129,-0.0695400757448764,0.1132024580236902,0.27222497109034246,0.16884090720921994,0.23369074041689529,0.02975251983452042,-0.02660608945839554,-0.17139649008662165,-0.08775684672186399,-0.04223465983116201,0.29714068252242939,-0.09215532316222063,0.22304558090384619,-0.2688648292649224,-0.17786830248419406,0.412101355449604,-0.6810195237082145,0.2661904594983496,-0.07847028537779671,-0.019157624366177765,-0.0713477886295601,-0.2911504334530882,-0.16591879179872996,0.0011743055166270399,-0.19609077728802688,-0.539918324153269,0.032424386566067987,-0.13375248188426576,0.05941382971931931,-0.03146236198064706],"_Inputs":[-0.008365917024872398,-0.008670969721022343,-0.009825325485798007,-0.0042276217394221619,-0.007744286497754608,-0.041116591517870618,-0.0025181129061139829,-0.008205611673803364,-0.004459180119177427,-0.014720941981721246,-0.012725985430209839,-0.01662565125793706,-0.04833988406152564,-0.016345643682644577,-0.0363920958065718,-0.0007757332578054219,-0.015936132521885413,0.21913122643694439,-0.007050546226391562,-0.004457966391057838,-0.005709639268963192,-0.013303772237863325,0.0206026075135992,-0.014865363355217655,-0.008410857370413187,0.8016632334198435,-0.0022722835388944288,-0.014098780191575074,-0.009749881403165706,-0.01564540257150583,-0.020567694134793928,-0.0031420658844339129,-0.005381451072664024,-0.014690445296422389,-0.02708407459917152,-0.01938086286711848,-0.001867339962683786,0.22603416436026467,-0.014322306915266157,-0.014063688820430754,-0.03618112856585603,-0.0021539512904476109,-0.031533269953618377,-0.005622236549247427,-0.004012434320273264,-0.004897403212623621,-0.0037097456108947898,0.36572266485959006,-0.007837319400460811,-0.004771336953215974,0.3391939836860468,-0.0030337731858564767,-0.003747821308254021,-0.010885940835140589,-0.028669755572195006,-0.004830344774410967,-0.011657882292724589,-0.005950653914488516,-0.012354911987738842,-0.008561699943475578,-0.007959098800372683,-0.04010150541032743,-0.005781450106340346,-0.009135678955409121],"_Outputs":[0.08394978264048253,-0.38068014279474629,0.22740649013788939,-0.06275181322794105,0.13712759339833686,-0.34479724532032376,-0.08795397958774815,-0.04632904415323828,-0.2065842084644146,-0.1488876176529499,-0.4293538444066368,-0.4206025838317329,0.4514971767079323,-0.12406456834740779,0.19767361077912266,-0.5279891023187227,-0.42696756649438907,0.5558876911869084,-0.8366470883554145,0.30591084993964359,0.002320166766085943,-0.10383083185555615,-0.06472828349933224,-0.44732003301090275,-0.33845302343114477,-0.18838516998014427,-0.6347997372083831,-0.5596825472225401,0.3858305311860426,-0.1915940246089196,0.03861591220627188,-0.04071231384754223]},{"InputSize":32,"NodeSize":2,"Weights":[{"weigths":[0.3320245744320766,0.3266784045460236,-0.6210813619901077,0.26907805560026429,0.45066051183753827,0.9161493890555981,-0.19578109095498748,0.3801633071777541,0.4322624458300592,-0.060302784744468988,-0.8982219290771972,0.7547069953945659,-0.8721293177729531,0.22131428111949956,-0.37122937123325419,1.1134028684954128,0.2523234732231718,0.4087592128825688,-1.2709223655085267,0.6066082366494829,-0.46656777740462998,0.07666430873759504,-0.23349219077586454,0.5448354937399749,-0.32269172334391396,-0.18409169147049374,-1.1957905379668219,-0.365022582155646,0.5205111711782128,0.6059244888509739,-0.2261507776372721,0.10366267682184415]},{"weigths":[0.026788330433655143,1.1224166554062019,-0.14676571406356263,-0.3315980377167539,0.33994224912933015,0.3071277409756034,-1.0925500995098268,-0.3971287206657594,0.5197165607027849,0.9434476443550012,0.012647183513965628,-0.4165305775179655,0.1984533611864504,0.11201817134027123,-0.5805854906750386,0.6882121795494915,0.9266242585292325,0.32368165736395496,0.005322973521302718,-0.22942442842553327,-0.3297859491526869,0.48905482570991967,-0.22313159666884367,-0.6533175465508329,-0.2759353552376025,0.595708388905181,-0.7395367915479428,-1.5277079583425795,0.5039985296127857,-0.6061917665549408,0.17117523685201789,-0.6555581136001715]}],"Biases":[-0.16647739706664606,-0.32078564144113388],"_Inputs":[0.08394978264048253,-0.003806801427947463,0.22740649013788939,-0.0006275181322794105,0.13712759339833686,-0.0034479724532032378,-0.0008795397958774815,-0.00046329044153238286,-0.0020658420846441465,-0.001488876176529499,-0.004293538444066368,-0.004206025838317329,0.4514971767079323,-0.0012406456834740778,0.19767361077912266,-0.0052798910231872269,-0.0042696756649438908,0.5558876911869084,-0.008366470883554146,0.30591084993964359,0.002320166766085943,-0.0010383083185555617,-0.0006472828349933224,-0.004473200330109027,-0.0033845302343114478,-0.0018838516998014427,-0.006347997372083831,-0.005596825472225401,0.3858305311860426,-0.0019159402460891963,0.03861591220627188,-0.00040712313847542233],"_Outputs":[-0.0751738662871609,-0.006594046470513926]}]}