{"LearningRate":0.0025,"hiddenAType":1,"outputAType":4,"layersSize":[9,64,32,2],"Layers":[{"InputSize":9,"NodeSize":64,"Weights":[{"weigths":[0.302835739218833,0.3495419220609123,-0.38551565978122728,-0.25359167120061706,0.0018091486878050109,0.047076274497257469,-0.03051233125575656,0.03229829970226207,0.006827426108401264]},{"weigths":[-0.008429574564464655,-0.34025304373148348,0.2246932677562348,-0.3343492835269348,-0.21069986200113886,0.13958055541019008,0.14257924534663239,0.02317526625003419,-0.07460530442881409]},{"weigths":[-0.06537707163782618,0.004155018279956047,-0.08713621393314015,-0.00810337994193351,-0.11425084709658295,-0.15418879631002917,-0.08621811422605931,-0.06878695528240037,-0.200269143627752]},{"weigths":[0.14806281126625146,-0.12795194872521907,-0.04506281830161867,-0.10794740623284165,0.07410906567121778,-0.04440023065854188,-0.24041747551430488,0.07730611374759387,0.20051756601199897]},{"weigths":[-1.1656711336920549,-0.6785986394923737,0.26071011787045497,0.11428943876890892,0.11111888947698724,0.10749459208303862,0.11537383970746487,0.0678114492072237,-0.1951539211545939]},{"weigths":[0.4220735303334015,0.16667958359135244,-0.174457311290753,-0.4834248497585824,-0.01246096952635783,0.008494171816664648,0.11837406850201315,0.0028250061705725095,0.1394715690858484]},{"weigths":[0.11714876244957662,-0.046975500705892059,-0.2497594538095504,-0.17445804751339559,0.23092543348786516,-0.13086191924456726,-0.04911296752573828,0.13299830850286174,0.31666672274228177]},{"weigths":[-0.4648440570718626,-0.676256267556686,-0.06523294531985884,-0.2707003801969168,0.033940224221217198,0.038422200641782918,0.04718816771940001,0.012004981607277163,-0.2847067086326122]},{"weigths":[-0.10219615015890142,0.04727664767632003,0.06349001530259278,-0.12442992155066084,-0.09881923944301195,-0.0691582985181878,-0.04964323402638208,0.10448003557582639,0.06805597413655428]},{"weigths":[0.07280890363091515,-0.12950479240256836,0.0035650997948652189,-0.15254246452700266,0.11212164834237658,-0.15752782064273219,-0.024436382861575079,0.03808890082896003,0.17388318537936243]},{"weigths":[-1.138014338037927,-1.248906431225545,0.6810097388175898,0.13016452401275889,0.04523061251197681,0.04170838472661266,0.02097483638573847,0.07431050621755528,-0.2435341192142015]},{"weigths":[-0.11640244526098158,-0.10911930567551842,-0.04604254362117013,0.071392824543472,-0.08012316413991752,-0.11211459789652145,-0.0381717052921942,0.09503260770770981,-0.0021124255620404805]},{"weigths":[0.11254822981368853,0.7783010353990097,-1.373388954336092,-0.04704496602338769,-0.010938360421106273,0.023536527766225804,0.0217262189141039,-0.00827860434508641,0.17947967328266876]},{"weigths":[-0.07664112852671862,-0.5940742436652086,0.787041902836402,0.2228079596387273,0.04147825057037255,0.0172354344407527,0.014169045928727758,-0.06772158990609745,-0.05596484405669069]},{"weigths":[0.2792991557069032,0.026706983751706448,-0.24480301081427006,-0.43992203183133596,0.10457949350988739,0.018630719448398747,-0.13527866115893645,-0.22471096279351258,0.224653541238909]},{"weigths":[0.27330980793738066,-0.18357068038194819,0.031380735115499037,-0.706598478498677,-0.10584180053104474,0.17407003885334389,0.18734381262313624,-0.30707591129960978,0.2503430137594492]},{"weigths":[-0.18898360669023976,0.296927195138833,-0.28909536959147627,0.11038376556758801,0.06793477901909452,-0.04088233718082319,0.21106613013782797,-0.08975000659332279,0.04892627854501163]},{"weigths":[0.05672389551871218,-0.18952987475803594,0.199763227213061,0.09696297412609292,-0.12372349167116478,0.06442705385025238,0.024004523370147389,-0.01333425757780538,-0.08225781648112982]},{"weigths":[-0.2250084201681191,0.09687132518382999,-0.10069045658905193,0.18733010140233775,-0.11208401152609468,0.004323367094958805,-0.00599479716414317,0.08727267907644076,0.15780011903338854]},{"weigths":[0.019148636318193015,-0.0927960502746194,0.06541958064722788,0.13967526091751446,0.058936706101790348,-0.24882599311278295,0.057883828950134077,0.058885479921627067,-0.052100449739250129]},{"weigths":[0.19345472400564157,-0.004563277787925295,0.027130351696154327,-0.19561343099701954,-0.028871437308521917,-0.34424274746433106,0.11481396339040337,0.020252084941799997,0.28525225414185936]},{"weigths":[-0.11561155121712329,0.05482002137540565,-0.17714772557222403,-0.03229493214962483,0.10237390071765214,0.0020924444068121438,0.1718620322961102,0.08331077434178319,0.06700243720644574]},{"weigths":[0.08605763909777327,0.001766678857549711,0.14341655044062003,0.23724218913984303,0.08066950662979296,0.018884230527951217,0.051520512436175457,-0.06456922689988018,-0.11261553032293563]},{"weigths":[0.015403014473309508,0.4846909169875264,-0.3817708268792586,0.0904989840133197,-0.0865018608054812,0.09411792369166014,-0.0240360380783505,0.03334354021812934,0.005619120311271556]},{"weigths":[-0.2053050549357872,-0.07927475293724139,0.20367422731902594,0.03930207792446107,-0.2874554407760905,0.128117423552315,0.07589478524476329,-0.029554859970421369,0.0997790660300651]},{"weigths":[0.051995633128079397,0.07469888596917285,-0.026466659764960076,0.1892906900808928,-0.09489407250265385,-0.06942596954631694,-0.16293670943782519,-0.061022151559329187,-0.04908397456842164]},{"weigths":[-0.12239757569297853,0.19288472419162218,-0.25462351392196277,-0.12833098658616735,0.15321694535407968,-0.09925493849001022,-0.05212809387966422,0.18450249229876976,-0.11022875087561114]},{"weigths":[0.10317100637148681,0.10335833755836418,-0.1409864504305233,0.008562194705168164,-0.12468663398852499,0.1421604549905658,0.18479054679117119,-0.06204482618266682,0.0054509336110869859]},{"weigths":[-0.014529211829459302,0.1409011748560594,0.04008095319413754,0.07704620280415532,-0.11055067110009558,0.05936803273186712,-0.41964052586950958,-0.21975446547537925,0.022168467434991069]},{"weigths":[-0.08705004286490621,-0.42675464365547668,0.5944886401045362,0.24833883425718954,-0.020263424477508914,-0.02343033827020231,0.06964125093983324,0.023510429945179265,0.11802671147245615]},{"weigths":[-0.055382455776845949,0.0064506719970510149,-0.047385183225171167,0.13137458436875117,-0.0771818513206966,-0.08154380925719591,-0.07728313562405896,0.03956280549981206,-0.2251270056798428]},{"weigths":[0.12022485761944098,0.03463301101798646,0.054513885448589229,-0.2652841005885881,-0.010605511038247419,0.014866744987319755,-0.17152863028708299,-0.05404821478715151,0.13416573674143388]},{"weigths":[-0.10276109921073393,-0.04991445641262603,-0.48152786343441936,-0.18313767564858256,-0.09486777366521046,0.10065262692878309,0.04487607731388259,-0.07424190172012904,-0.20333291331667764]},{"weigths":[-0.004325175682009042,0.05161209884720195,-0.2130505674106416,0.21294641709569918,0.08463926285424031,-0.12415292160874997,0.15034639293707148,-0.005423733302301407,-0.14794262806137518]},{"weigths":[-0.04074024770050136,-0.11535017661494564,-0.10408531380406556,-0.044883586084775,-0.10860953224752641,-0.07065216756790871,-0.01660920897693098,-0.03634956304482958,0.008955192170621596]},{"weigths":[-0.029598074574602914,-0.11122861552520035,-0.11972161262644746,-0.020998365347714037,-0.007334802451361285,0.007523155946345473,-0.09805349679420324,-0.09249808002394154,0.04428276267011556]},{"weigths":[-0.0015074660126048947,-0.10818438828783864,0.0260610563310977,-0.050034067792129207,-0.06579522543321442,-0.10892509844104231,0.0499069029840758,0.03152545455285551,0.07599997332257279]},{"weigths":[0.014583881683846027,-0.12361657390069982,0.0863452203856341,0.04662148718290777,-0.14132963612820066,0.05663602674575867,-0.20607203022037857,-0.046807950886480948,0.09682108804483165]},{"weigths":[-0.15361807078059826,0.04456927090901447,-0.2378781888205896,0.18642852737857544,-0.05563541405232237,-0.40632647164259536,-0.059852154139532969,-0.05728514934776608,-0.14879239182059218]},{"weigths":[0.1406400427530466,0.14184890132618359,0.07860396939505946,-0.2508547344628305,-0.04834311740745558,0.05550025444167066,-1.020998855178481,-0.018862455359851799,0.36413185783366305]},{"weigths":[0.22603927374704026,-0.06650178077336379,-0.06964884878120348,-0.43250980400429586,0.03819748592610045,0.002323493860722773,-0.04968815922217436,-0.03776929205075176,0.15575909205269673]},{"weigths":[0.14903409570159319,0.1152324309048342,0.10002295276137065,0.1949358463585186,0.15444113368222529,-0.17167352415922655,-0.13843810848741262,-0.059711339333824529,-0.21046028172712098]},{"weigths":[0.044366961170645379,0.41011828388274215,-0.3584981590171364,0.019259250459401558,-0.024033745244292916,0.11130184864807555,0.04182928398757692,0.033010177881132227,0.04515333448854056]},{"weigths":[0.17681096809396652,0.44879711999033247,-0.8714870993216914,-0.3219856995993385,0.004952811028694044,0.14138163834147916,0.1125362119645209,0.013912251706541885,-0.06832154218604214]},{"weigths":[-0.08522087212929303,0.019910210299983204,-0.38199765999789306,0.09855213195492187,0.10122206999488004,0.060745445416275269,0.1215098770908915,-0.09226835926056457,-0.052828246884084297]},{"weigths":[-0.26320663239241268,0.16265388858453079,-0.426866436612426,0.048967456639617008,-0.04084480611945439,0.17646357859092808,0.1926394951328565,-0.12485249004088212,-0.004145693009213475]},{"weigths":[-0.027763043616966178,0.22186832106298855,-0.3669171397722956,-0.3173890703507352,0.27476802394706,-0.035225523346901477,-0.023332124866197996,0.18070736655427165,0.19882881279376003]},{"weigths":[0.2320619784889697,0.3139514479296742,-0.5561428490707283,-0.3522626646108832,0.07510893506525894,0.03476395170013918,0.14303994090312434,-0.0513715988108947,-0.09164866552979889]},{"weigths":[-0.15901109870521169,0.1620216915143291,-0.06548379155450301,0.23254824103765213,-0.0809261523121122,-0.12295046523655259,-0.12531091563913383,-0.12802003341537997,-0.04344805785527853]},{"weigths":[0.11183184632070258,0.11219747869179206,0.15593985766754768,0.06453093704500286,-0.07750059537763629,-0.14804919751506913,0.00008967529023481387,-0.033896783138305,-0.03831844411149623]},{"weigths":[-0.2709441372234978,-0.5232273436327432,0.682357456911144,0.4773599604750774,-0.02150986994551712,-0.013124074982277867,0.04896177221815225,-0.008330571939739648,0.16513700858785552]},{"weigths":[-0.10714679585880273,-0.49233992907994736,0.5922635473712522,0.05907873044584856,0.03891961046921693,-0.07322883248647569,0.0011452469465523693,0.06422942871300659,0.04633262939204718]},{"weigths":[-0.1183354127639936,-0.13923185034980685,-0.1365129112447771,0.023287004846519887,-0.0064565154220778829,0.06179387228971983,0.062036644868550139,-0.057008193117108117,0.29302620556725009]},{"weigths":[0.09151164712970218,-0.0741097033799284,-0.12860033158599713,-0.16800272363160879,0.11199260412329343,0.02980534996749758,-0.12401614127642097,0.0003345897868835154,0.1513248993154588]},{"weigths":[-0.2688623598829046,0.14727622037887473,0.07065405873301586,0.17098620204823374,-0.2118724488446421,-0.0023912883924620757,0.005974297918699248,-0.08310301316513702,0.13176713041964414]},{"weigths":[-0.228407850127307,-0.2362209850056612,-0.007451390011930274,0.10658561849205647,0.16317935731967027,-0.11820880629754442,0.026024727508581908,-0.04115811200281372,0.1357344856429474]},{"weigths":[-0.3350965423843934,-0.19508517796986919,0.0022925911902732444,-0.06121286727248497,-0.057556679652656397,0.17201396299385045,0.05697340719556239,0.11563562221489232,0.05220367154182667]},{"weigths":[0.35880177489432327,0.03577068503983034,-0.009537173820327294,-0.5493798549176517,0.09027347676626357,-0.06123959700621488,-0.3011085518400125,0.023377290081815675,0.1022731879062142]},{"weigths":[-0.3225918859627043,-0.37246554440792326,-0.21348990390890497,-0.5684146605287437,0.09511300514273194,0.283457713113219,0.3391332750500414,0.11082008311426671,0.11959040941867427]},{"weigths":[0.06961288144789875,0.18350344276511366,-0.023669284115045667,-0.0032493239314383738,-0.08771368161577015,0.014815649196906037,-0.17111774876544109,0.08667209200354621,0.36800707160841686]},{"weigths":[-0.21199233525209608,0.05287925245633794,0.02278793470059155,0.005958908044798958,-0.18944490056950875,0.09566238138782547,0.02467203198323783,-0.13602406478096813,-0.14723782123854224]},{"weigths":[-0.06108387240154366,-0.162299344153648,-0.08646447023524655,0.002285340331514376,0.08635570097062094,-0.3576617040557277,-0.18209480918194646,-0.04931774878303965,-0.26939332467406215]},{"weigths":[0.23928312535280728,-0.34721528051095298,0.1676042484467563,0.05842758842176806,-0.03788906150532984,-0.6809125818207957,-0.07015081943789163,-0.04231973723609547,-0.29516498239369529]},{"weigths":[-0.1273337453337267,-0.22482518016029374,0.1684893282630657,0.027485680844394616,-0.23309831116719685,0.00313258892828882,-0.019686105273550217,-0.10417754861791263,-0.13220133871735929]}],"Biases":[0.048325803510191,0.13361504812530893,0.17043510495026024,0.021450165355364708,0.11330564152066566,0.20573805137377888,0.04526210097387281,0.5919784393869305,-0.0008004992256638813,0.06080859091057619,0.680890112802924,-0.01630258673775877,-0.013184858586026381,0.0763031141527836,-0.19397335199798658,0.2786349635380344,-0.017774474154061596,0.01654669516892801,-0.0004347315243415253,-0.0349269189713671,0.06800411262288643,0.1613208925130418,-0.35587579084520107,-0.03442352910494832,0.1408811278924222,0.12297327315260563,0.14847688233606,-0.028830740745329515,-0.04782519482028736,-0.009284508523562524,-0.07779139633476688,-0.049910969628028167,0.31680964808632647,0.1452629887099567,-0.0016457453089863276,-0.00007024899951471676,-0.004928856783960601,-0.013097186908640705,0.4072252888857608,-0.29354305482599138,0.1200334252351492,-0.20570131597069325,0.029101197670019727,0.2042363471633757,0.10547219976775893,0.11473960526726855,-0.1721643241311558,0.07135904596978295,0.08443211997156824,0.03585498597982993,0.09437015135832952,0.003431522963926391,0.018521513552019858,-0.11448113310971557,-0.04556008030422129,0.17047929022188466,0.0636818258843249,-0.001285751767862053,0.12342828012241587,-0.01030740705195059,0.11564319642953118,0.26508659996939945,0.09746814106106089,0.013440265660315927],"_Inputs":[0.721587598323822,1.1619971990585328,1.568222165107727,1.7998281717300416,1.817138671875,1.817138671875,1.73388671875,1.73388671875,-2.6442408561706545],"_Outputs":[-0.31410283130461338,-0.1618019714780371,-0.25013765359583919,-1.0443888056921383,0.3287828277567724,-0.6055463510171055,-1.140526765966736,-0.13180651060347793,-0.5341047815567931,-0.8247188743682292,0.678018454612332,-0.4159453550170751,-1.6944087965108355,1.1282186209878314,-2.131419295133238,-1.705590585659147,0.06617029384920531,0.45373543458302725,-0.3431296495992217,0.22009643278206249,-1.3053108125914184,0.2605189649628237,0.8162756499440973,0.1189746772946826,-0.1822673805956439,-0.010647701057478032,0.27254490266728467,0.19027670917717352,-0.9533193092541229,0.5817173422224778,0.2934776238040383,-1.0530413115254494,-0.40284168173787507,0.8218150529899975,-0.8503431304003624,-0.823361468766696,-0.558167839803465,-0.7752813694856059,-0.3384504389029272,-3.108305417182728,-1.1716721139130058,0.7247950879498879,0.17890817369069757,-0.4270637254593691,0.130226683235537,-0.09254403790288136,-0.8986426001515123,-0.30160367455117045,-0.2210170223444577,0.24037830760965127,0.7907876822852833,0.31767365672088379,-1.066380884743401,-0.9955378002686459,-0.5213902632999966,-0.3921048475154315,-0.14215435692604407,-1.4037895161657779,-0.7481509576890181,-1.0418022267457794,0.09695126225631902,-0.28096838748262217,-0.4860181207149319,-0.3090667158542283]},{"InputSize":64,"NodeSize":32,"Weights":[{"weigths":[-0.16815281137148489,0.008474297851154151,-0.050591796098416758,0.11651797811637713,-0.00029834726221052003,-0.01956703416555751,-0.1484362586894372,0.02411768640449907,-0.11183026884292553,-0.1692576521227253,0.17256105107672635,-0.07731464595941586,-0.13055294010768699,-0.0854759750386846,0.10620960356673712,-0.016190282805644573,0.005524296331096478,-0.07956659897575824,-0.08135179883626151,-0.026037912390446027,-0.023212763356431473,-0.07932462893376018,-0.007413090177552256,0.02056251702868846,0.11888968847456678,-0.04723020798435742,0.1751260961968593,-0.15925835400449935,-0.11715105469056946,0.13817918997650772,-0.13923721756818656,0.04106260383762482,0.04641273200074619,0.07475272209243798,-0.1632784637732279,-0.04408100605279159,0.1141669197765078,0.14784956505753753,0.003914137595949359,-0.17225085832894949,0.15079997368179705,-0.09576364121644594,-0.10333392117564099,0.13827110363745358,0.11929392211773171,-0.014158146911859144,-0.09744307952904494,0.03704234468521997,0.008053244770675114,0.042472920243667947,0.09916856210974652,-0.006096535895720638,-0.15425908981312737,0.021852764029779503,0.06225350291836813,-0.10240982242265384,-0.06301504161415854,0.16896017245013113,-0.10579854914170095,-0.11070817975658422,-0.13015536724227684,-0.041475573018016,0.11795314795002075,-0.08573512748571237]},{"weigths":[-0.008492779316076904,-0.1198922398167366,0.019223368791793116,-0.1947617212462082,0.34283929504760626,0.1046653114342911,-0.10661223185250035,0.29038073754658919,-0.009047999965227174,0.1156135947108782,0.357630148149509,0.17009947700131654,0.03490424777177762,-0.036865782347922367,-0.06445600001487975,-0.19927362689765669,0.0696613793535942,-0.1278011526123969,0.06923881010975873,-0.042307079096436796,-0.22770561305830515,0.23910801548402658,0.09696162188039533,-0.019540705300962394,0.09329900848116299,-0.049639704558739877,0.1261093639919199,-0.14979969155148713,0.25338901353628076,-0.007759508702134171,0.15527131639231926,-0.1555209235486325,-0.20409039913719824,-0.1424415048894981,-0.08463451798471873,0.11311281043918062,-0.16686570250045713,0.1924657244031808,0.20055921773156266,0.1994283875783185,-0.21401670058430928,0.27473289252612506,0.068297257225373,-0.1463078813894804,0.041028461615700857,0.07994589148579858,-0.15863729124789034,-0.11519419633087567,-0.00017775341873812073,-0.11907090186457292,0.09462281857293256,0.13206218692187489,0.282253656439987,0.0298357279781183,-0.12139041596576433,0.14553358401802195,0.08051357703619105,-0.12864822197029877,-0.2019469740469889,0.15800282741118355,-0.12508986581511778,0.18677615876272278,0.23719253261423796,-0.043526646630228569]},{"weigths":[0.23716640021158826,-0.06836179923148461,0.0989559821294972,-0.028791545716657476,-0.1255264146498489,-0.04282984017411257,0.2699102590947523,-0.20173877127846666,-0.14813416842735803,-0.011318031760715815,0.007259490379170219,0.08874718771259571,0.014029246985365793,-0.03821963382352806,-0.1933180775985206,0.1274977702640517,0.007456790087913682,0.059263376523584359,0.14969005076462836,0.07743630745092203,0.11273859806536796,0.20756242350826255,-0.09741923303820406,-0.19200060081798374,0.2028994605045055,0.052838271998841949,0.03551046210006693,-0.10096065952767768,-0.1417950086119018,-0.06737487720899925,0.07111473394211396,-0.09072849015048887,0.14081265110419426,-0.17802017968076459,-0.13186514732874336,-0.05850520337776041,0.0342148645121462,0.007150928701149765,-0.047655874851333147,0.06274290793236093,0.11571978108602035,-0.05140807652598218,-0.13327856378915374,0.20279653222307493,0.023841894167209215,0.0005659307749002842,0.2180859589909393,0.08130039610748441,-0.07451694939157783,-0.15486014834395074,-0.21404642295652674,-0.20632489406215438,0.07058874986296829,0.09652111340000304,0.12367662918660016,0.1317682279243909,0.14549408733714423,0.09795900688560466,0.2672413401531932,-0.058842838472789597,0.09491197668532413,0.08806407565773225,-0.08654839536328106,-0.06664077997389247]},{"weigths":[0.06168399752962243,0.09474048222876323,0.1266455908368747,0.124587482007843,0.1768575050619936,0.12501276787300437,-0.03806099879629978,0.05579638673749912,-0.07308629306082336,-0.0786318437367343,0.22101448026992186,0.08893473501870801,0.21675676679393816,-0.06287273156767574,0.07961308987547627,-0.11768860865341459,-0.11867721565133778,0.0007792483794063608,-0.03753877142002549,0.10725528549143822,-0.16119595862997383,0.07306074301414421,0.1937612793333147,0.12370627888308843,-0.04559243929797877,-0.13037115979353915,-0.11924132828700489,-0.002970629310733709,-0.19072672243793649,0.09964057325140029,-0.030987884536380546,0.20456851213371494,0.19379645272612645,0.032939887010516619,-0.15183611175104728,-0.16104028165341414,0.1427393520031592,-0.010727860295502393,0.05940946237681318,-0.027711532654384264,-0.01727378398910866,-0.026676716284908219,0.0570202761417669,0.05779654783073591,-0.0690265121618404,-0.1596276843760691,-0.038920676871669637,0.24063799625441485,0.0570165137969474,-0.053741759279473267,-0.04574893948366893,0.152777506321918,-0.04564096386497425,-0.0867927784270429,-0.1405741428133085,-0.032077930553223107,-0.08561959801472333,-0.08958022068696799,-0.17046295970357068,-0.23693976536120496,-0.1567587716395578,0.13073758299539654,0.06600572322836426,0.019735634044904923]},{"weigths":[0.12932256115554245,0.019565150657482635,-0.04286314937878635,0.13815476067398778,0.39364262577960598,-0.07755919323708681,-0.18399068148395307,0.43632478324465875,0.15107974016345333,0.1876552867340782,0.41125725064620585,0.0011968508473755823,-0.04596443332828481,0.19259693984022337,0.0811210318864908,-0.12693407635822483,-0.1398623448729395,0.08900841857591528,0.017004340425202905,-0.004564725787519022,-0.18845555075128213,0.03698971668525103,-0.050663932453286809,-0.07164804895621103,0.2196841853309403,0.11994938215728388,0.09861298147082114,0.058478725072432968,-0.030090632055453909,0.11854149000209598,-0.028304608309917675,0.12071309863817334,0.11931835566378406,0.10119166305229784,0.15960063781827139,-0.032469423535285649,0.042038177059990858,0.010852782197219822,0.32695752777148887,0.32802239789237228,-0.22237898818320787,-0.04303147469020205,-0.11927373340332255,-0.17003668922323476,0.05755365527972196,0.0705164474533241,-0.05145267153092369,-0.0930341353354123,0.045217568943337938,-0.0400217202736522,0.04566226253541544,0.007377670972587781,-0.15474460252219478,-0.0516863237659707,0.14418272192194304,0.07239348063269016,-0.006061667282962628,-0.27963189282217768,0.1685847576825453,0.012284772175676773,-0.10966579044330413,0.1711421062709742,0.2961670000566363,0.06104125333522121]},{"weigths":[-0.024658671760901999,-0.12291139841363033,-0.17330308195981634,0.11188979506754342,0.19711836571208858,-0.2773998321500737,-0.05761245520038651,-0.03352443722911884,-0.10319236212324043,-0.16326736625638747,0.20964030207559773,-0.06879792077282074,0.35546940732033335,0.15552781547973597,-0.010157324013309618,-0.32001470586667626,0.09350775155614723,-0.15244387844232466,0.10084709325014345,0.0024201425064401406,0.14199762123491184,0.17768948912172037,-0.1109758263968591,-0.04843984183240993,0.1342657097907475,-0.16957852609709055,-0.025687720020587867,0.0026733165319488495,0.1428627491414174,-0.06599670564559346,0.02266900053496689,-0.10015118437408745,0.10210254819003285,-0.08047724589703653,-0.1481594997230153,-0.029545668793531145,0.08455917631439428,-0.08389348610838504,-0.15293938576725694,-0.07117274283087902,-0.07942457747354753,-0.2797565341291663,-0.2162545952205775,-0.1604224706442492,0.09249930426697276,0.15327185288880425,0.041830609937110827,-0.18326293871155023,-0.03796112555332539,-0.040166813311664269,-0.006623820919062688,0.1775637447283439,0.1460398473372256,-0.1224211417276339,-0.021945386130230759,0.12241591241613413,-0.004134271573737789,0.06058797816719305,0.18963836983112407,0.04757619408610086,0.19339760273165183,0.16157537126289504,-0.13163381017659174,-0.08440945380631074]},{"weigths":[-0.045937343488551569,0.008088377119725815,-0.07293028572630367,-0.10588015089745687,-0.14685514787168495,-0.06240275246795634,0.11901280881056468,-0.12948186849054287,-0.04890452993188106,0.07673090713351609,-0.07791865664080403,0.15946259276020353,0.21874184012086107,-0.20939962748498515,-0.07514291095464666,-0.0899409419604243,-0.07240884381132307,0.08658669363268312,0.17651856943658915,-0.14396813024601527,-0.043230239752878988,-0.044655441415085327,-0.06581504403440125,0.19274251200271895,-0.11266357126468474,-0.09508904007338574,-0.1212996749819878,-0.06540274730057098,0.2303181834279273,0.08478013865007295,0.11825883134872499,0.20334941396403309,-0.13311893354259453,-0.22210227161618183,0.1555270582303005,0.1573724078815177,-0.011502327331391876,-0.0066816712060925359,0.04122903538844692,0.3784921796928902,-0.13718314039510727,-0.05536722619139064,0.10802473478556912,0.09227729569271934,0.16902551893475205,0.06091475732608571,0.18736227305944018,0.10218187939477928,-0.002416636910678274,-0.06160758686134883,0.056790888919306958,0.023267220563914716,0.05981812484610845,-0.12410401960203134,0.20996860298537313,-0.06664645091509708,0.05580346488525753,0.1865001833308194,-0.10993952089041526,-0.04213931026709696,0.10069893624787883,-0.15941650240718553,0.028365078793519528,0.07610909519365068]},{"weigths":[0.1737517106905063,-0.012515180020084146,-0.14129244107920115,0.09665534788381905,0.002375894668440842,0.0035424262029927764,0.14417026641306927,0.20954514382791546,0.11263375360683033,0.12958226441426005,0.16465821168401513,-0.15063725169149187,0.27224224823648016,-0.06355851911120089,0.05271357185744223,-0.043605474106331029,-0.04778580129884027,0.10181268997996673,-0.12640027509804423,-0.0945468092856031,0.023021270132519746,-0.02575248737688964,0.07805488826601014,-0.14488050939859244,0.1506030305930622,-0.2081789562399509,-0.03548382374991601,0.11682098172397862,-0.08699162048238424,0.053756230395285629,-0.10417442508583663,-0.04557688993700292,0.07054216862924752,0.04665665373443109,-0.14976772950529977,0.0521501685981415,-0.14400857190517578,0.04922127880488119,-0.035631279752229707,-0.13779175547542456,0.03289486732541757,-0.11035457857803302,0.13426762750767999,0.206410614351451,0.13449459951021509,-0.07978337644940015,0.11731426595022963,0.1548722460717003,0.04134910067618055,0.03420104699119244,0.03183042029950945,-0.0537884715185452,-0.1634612551382,0.11519603042275263,0.014806910509589898,0.1597219470489168,-0.027322091706031377,-0.11810712139116567,-0.042060847794139957,-0.24158088961392083,0.13316301475024842,-0.04179051735765588,0.1531862767977639,-0.03431923865191847]},{"weigths":[0.1156551912317728,0.05877379895461534,0.09171166358652815,-0.09295264934113827,-0.187515212114379,0.11366702224368139,0.11461645874436972,0.25077568443291717,0.16847434104300516,-0.1902379787254914,0.07076880989869987,-0.03111731472291942,0.13375349441651289,-0.2926202769811752,0.11073595543636197,-0.2766502285633205,-0.05633783290618923,0.10633939630971752,-0.022185822508055409,0.021683446483650727,0.02218334610968551,0.05952115808960326,-0.1585000550122352,0.12786109970995464,-0.24608776317207974,0.14118409461438242,-0.033991603265243839,-0.02753668894493504,0.026067459454886065,-0.3251409832628632,-0.04108201568338763,0.13976982718247928,0.3208822257718399,0.041685906673205878,0.08452488048380619,-0.13924488006765765,0.07985565658678388,0.06789168809637963,0.16635259015156857,0.21878537500920526,-0.010841980679080916,-0.02382399780097018,-0.10638981203449713,0.12613820045468067,0.05452882826371138,-0.032481856461197427,0.20493876125262285,0.16267630905062745,0.15294787069714747,-0.11302246598338925,-0.39900979706141828,-0.2529658510273838,-0.11072134520950038,-0.0881770118814192,0.05308334088324971,-0.18592495072754718,-0.023298942757516033,-0.2699345718525701,0.120167198428589,-0.16530535233316505,0.20108229774540696,0.19072618197146438,0.013523660394679883,-0.16638570978105356]},{"weigths":[0.041772251456995469,-0.21954284669218353,0.14726208471804115,0.012589755295176609,0.012858117859593076,0.28320259093257357,0.22756972398547824,0.1838644986670705,-0.10792572657665199,0.018204884430420965,0.014335062762024669,0.11444144501539218,0.21585266058487288,-0.311040019405914,0.15228077889502898,0.2105411504590155,-0.09789636241730945,0.00754544788221157,0.042807112995812527,-0.055500135704190909,0.13429684804233575,0.04642074802463724,-0.24855555321510768,-0.007576129698459211,-0.0304017437757372,0.12946232087925656,0.11327488178142788,0.16137335215934549,0.2017424274734507,-0.11990642072965827,-0.07890040713061207,-0.11382869405689955,0.10739331000664383,-0.09161270865230235,-0.13375604730773056,-0.1637484251634681,-0.08264068155486668,0.16453560579387348,0.17032896249388164,0.28087291758739299,-0.18223193729883264,-0.04254890244012218,-0.1541307002804998,0.23409351472521604,0.13732321261496523,0.12968058891699625,0.047380955610705498,0.2173703720089721,-0.005187356415201768,-0.07102473947963374,-0.28057123508967149,-0.2299996749066514,-0.14238074314979227,0.23227552975372757,-0.028816261222096304,0.0628168687161824,-0.28205037521686629,0.05663835067788276,-0.08742177170551094,0.2262636258323027,-0.007784763500137761,0.1119915750036539,-0.14653512684183576,-0.10379150071037872]},{"weigths":[-0.07718547754350577,0.07474964974947636,-0.15726776767595058,0.10575350810197064,0.32711638706776915,-0.0469535907539999,0.14339256074924518,0.10489815468816856,-0.057507321600784987,-0.05193839686894213,0.30190845877837865,-0.011711365036041916,-0.07565923196812886,0.26782252888677718,0.09421404692810832,-0.05815535157847864,-0.28650062514880617,0.07859110987941295,-0.04522336492837684,0.03639279784370521,-0.16160475845133968,-0.08261315592368962,-0.08721576012263026,-0.4663611994103797,-0.028220874040305694,0.09407115893807201,-0.21344142409679474,-0.21571566259457876,0.03792520277175833,0.20960328859836206,0.058232498365853899,-0.08418012769764771,-0.19733855591726238,-0.17441821167045319,0.05238562346479252,0.1061641508310718,-0.015545034245205487,0.13056107070385412,-0.2328917485602124,-0.0077546078035161439,-0.1509716353326833,-0.10156730299313631,-0.4684724996996322,0.14669666762303894,-0.18703519447740653,-0.18362875658387793,0.033788542228720169,0.0028538409494731668,-0.18994551088590989,-0.12489291318547084,0.42313928050242669,0.34427050925231569,0.08573353737491418,-0.0013990885867208143,0.06734881563040043,0.12911988257013144,0.05207206941815328,0.1000367463450514,-0.006234939182522677,-0.1968116539674555,0.11856795460639781,-0.30908344907929538,-0.0505229756791415,-0.06466057777380383]},{"weigths":[0.11319465928901446,-0.18650304501233395,0.03461301087428259,-0.15343474472992303,-0.1028114533780222,0.26805982862994806,0.12391512799694336,-0.05872299420750858,-0.17733787125000922,-0.03803385223557605,-0.015812538505285236,-0.08456862414486409,-0.06836807096903192,-0.09975141939561594,-0.15557682261054149,-0.08396929259746194,-0.011000130407413076,-0.1704468093376043,-0.05056522166957434,0.11858954056279624,-0.13931133224245685,0.09943378371772653,-0.027865803743986969,-0.016803325916753436,-0.17697807336494249,-0.12576399475284789,0.16779385191320574,0.20677032963822104,-0.027930481430781349,0.0235045830726798,-0.10665426769013202,0.1380106208656917,-0.21915066334372405,0.1098912517770393,0.16835311335677448,-0.13751392321364046,0.03146307090069737,0.00777845506290774,-0.026967696780984604,-0.2236751432575635,-0.16769294027097438,0.08195694197554618,0.1964282292464012,-0.05272169683978525,-0.0742909703640138,0.19016705706063698,0.19955252254770454,0.011088520621577294,0.011824392392445062,0.0369175509485683,-0.015538231829049399,0.15728610175656694,-0.03246442650340465,0.04616950234489797,-0.08220758389683107,-0.051081708087710047,-0.07376204347656816,-0.09341903017455367,0.060082545949362017,-0.14156214438927865,-0.09355495153238079,0.025085297729027197,-0.05857715218589159,0.060866870931996597]},{"weigths":[0.31092766498035009,-0.16001681624014647,-0.07466704707081723,0.07158733070091214,-0.07294158994498119,0.264977154504869,0.0783432864958339,-0.041443239391199589,0.1751240122986812,0.030929472845145499,0.16149418335076019,0.10341903801638805,0.22614524787625238,-0.16634869517685217,0.33381666648836985,0.29772030538898405,0.07509956286586617,0.021102506473158628,-0.10172919476786423,-0.08889101253258984,0.08911465518088323,0.004155965879702642,0.06712650953941302,-0.06980015992007421,0.013965610926802218,0.0165799185017128,0.12161189683789323,-0.11863189930910603,0.11895878324393351,-0.4424252700473263,-0.02026438613222385,0.11496025342921125,-0.1312893015764491,-0.19144750447117404,0.0909677589176864,-0.17440531285668263,-0.09574154851440416,-0.06323222593258164,0.016986203980342959,0.31805250934927095,0.26527864229690137,-0.24090509417564155,-0.10073289180345213,0.12765622911874895,-0.15473726638579964,0.07347878139067131,0.025269084192597915,0.2345471400216832,-0.09103501437641677,-0.22375934443921148,-0.4327274088072945,-0.19160344690163287,-0.05222054152814556,0.10203399398577257,-0.07242394924446497,-0.20913778542621878,-0.14714056408461899,0.299051324169472,-0.12908627717942149,0.11216381331479751,-0.16132716913168608,-0.07414263005441138,-0.0971252260868741,-0.04899495088636237]},{"weigths":[-0.02854426711998151,-0.1707564314289687,0.18658484334595308,0.06840994738440264,-0.10103161097171902,-0.05770132418169347,-0.023292926201693533,0.19055068752475655,-0.0751448088069855,0.17098973067337479,0.2609230410898465,0.04004049888989366,0.17297803950421654,0.07451768386177144,0.21003121153673524,0.08839144478114,0.0823193514020218,0.04874476398389434,-0.1301806370135653,0.026190695004877554,0.05391695309051091,0.029359599617624047,-0.12525748913765986,-0.005412889844328264,-0.051518193787335398,-0.20425857021987693,0.04724527461764027,0.1159842143809892,-0.009586251192487346,0.16074756476749608,-0.0688776628020274,-0.047029478929793467,0.07036214619638175,0.1464145661033286,0.030489102036697504,0.14339745435229193,0.164082492074918,-0.01833582290441962,0.10892609133813551,0.17044155131464004,-0.05079191105576653,-0.09267222131261352,0.08876509583241454,0.025314741026769256,-0.15280425121300779,0.046327423174215408,0.06906504500688216,-0.04867641389750362,0.0503137033817747,-0.02077733022664846,-0.15259056138564545,0.04536623324069579,0.1001216060605702,-0.04127061914612456,0.14945126986553038,0.08498321682090666,-0.0615427504325905,-0.09408182249502871,-0.12519986219661057,-0.09084505766374083,0.12410570915399999,-0.00010622553227102147,0.08712217594645544,-0.20749468997912796]},{"weigths":[0.08909721897546093,-0.090241314579494,-0.1423960149368008,-0.123075001228058,0.0013121696899971508,-0.12391087790764498,-0.20380537067087438,-0.20930530114070299,0.040149494858117817,0.108913058310187,-0.16420238224713536,0.17347243970110688,-0.05985305628941841,0.011188610413611118,-0.19328897650111646,-0.038925537227045659,0.09825710711456981,0.09130306903661004,0.02014252765436581,-0.031007388994171354,-0.006532893366679401,0.16112135831800818,-0.11777314814956382,0.039681012431753707,0.11640836231814349,0.01744750838816261,0.12168921866886938,-0.05652159876254743,-0.13795617647324438,-0.13614186673919413,0.170577076864473,0.050445328031611499,-0.16060589949283936,0.06439441120636641,0.07089869870307267,0.10814998503562713,-0.07475660091352689,0.07479510668880073,0.0489754302197006,-0.01169032415114721,0.003968076355078783,-0.12880028128599869,0.14093130539640257,0.22894116188682846,0.12895337300988014,-0.111336036082794,-0.23574260157593608,0.002282372887286091,0.032262351724499597,-0.03974062460374522,-0.06637901084525845,-0.07722236394530743,-0.05205002637755841,0.014588761926386878,-0.20825547727646949,0.008195750134972698,-0.17673743451669705,-0.08677177271686978,-0.2515175086671573,-0.08840599493827749,-0.16856135947375965,0.15297762675153649,0.049938737654570328,-0.0767382956379273]},{"weigths":[0.022775163847335954,0.010777860006726701,-0.1499465395596924,0.07746081075440885,-0.3804274505096967,0.044062100148297537,-0.029346930040440035,-0.12153264673170135,-0.05944756692686229,-0.10067719572930599,-0.1482225000136828,0.16857322561365174,-0.1258080733689389,0.1561354910375896,-0.14245250340038169,-0.16734411410674583,0.12101582887760125,0.06709685750214135,0.144064843536658,0.026441038525195656,0.05911791068200903,-0.0330945869897633,-0.09419838475975821,-0.0508344180765805,-0.00926619342422775,0.1787011477464568,0.19545169074793437,0.05975907119265683,0.1407330580159306,0.027742591364671874,-0.04927330700165784,-0.06962693563180113,-0.09101181419662663,0.05741363367164442,-0.042251189894254127,-0.053931978471505697,0.026265705266035358,-0.12086816975700567,-0.14039208561926309,-0.20297862027923894,-0.02904267309658998,0.16971338188290195,-0.11433622487266238,-0.016941216456154586,0.012788291252486938,-0.03349061945667871,-0.23537255845368539,-0.0026339889766083979,0.023425269181651513,-0.14257335080168954,0.05997697532512377,0.0722653641374895,0.03482425631296151,-0.15060784392490057,0.1402719951712008,0.14347423598754625,-0.04777531491359524,0.1887321333359832,-0.07332867763022696,0.05028534491431241,-0.06997373814886704,-0.2014957633224269,-0.3804422884857382,-0.052488287136078098]},{"weigths":[-0.07329328215850614,0.1614538575213927,-0.025314357471522453,-0.08300708791450665,0.07081105602912509,-0.17676140963373838,0.13771719165554587,0.120368797306028,0.0243823203082518,0.15346181154845574,-0.1544708958940876,-0.08879426852668407,-0.0671704275651943,-0.08888361720066758,-0.04388234961140741,-0.18548370291453257,-0.12752702077441853,-0.11388911162390153,0.0909965559377932,-0.07756819973771676,-0.1622628038858215,0.015360900731724792,0.007716257762416719,-0.045348014090275789,0.03230756324453899,-0.15545604731141453,0.11794431874989348,0.06446248714226775,0.08867462144938222,-0.02545356410574576,-0.004530431134543308,0.02906562480352503,0.12131939123022262,0.050726288150395839,-0.13727624535485714,-0.05903586244568842,-0.1310614477125455,-0.0778157378360556,-0.13374880147298413,-0.020395229414151208,-0.0371775757235317,-0.13669755989217359,-0.10481102451473014,0.08899808666829123,0.1270352210788699,0.03251998915851115,-0.07206297433165082,0.08999292041422073,-0.03220470191519044,-0.05076242093289666,-0.12337598482077068,-0.04477311253648751,0.11896583874595553,0.0508488808715257,0.07872268180243539,-0.07254218929083838,-0.1349881922857159,-0.09547071697367483,0.07700950472648403,-0.04119691467863028,0.06741483126599952,0.03548828531106879,-0.012015015423325067,-0.05462924947802213]},{"weigths":[-0.14695641825463949,-0.015250914078048224,0.1662792751386528,0.1555211501487764,-0.054562771865997668,-0.06689779540192936,-0.12192107283540098,-0.15572966659371566,-0.06712344249155619,0.07491590269418891,0.10241881621262177,-0.05577254549827811,-0.14227467531752223,-0.11291761220802839,0.03655123821625136,-0.12323941614569244,0.14010961396674813,-0.13566596749682467,-0.06876992011543888,-0.03712728114582348,-0.17025769886094045,0.032950010983587987,-0.08149689749451368,0.1610024668458806,-0.15936287321929014,-0.10517406770071999,0.15258529578678654,-0.13252588221421122,0.0023671307696054844,0.07131906114382916,0.15209355317340479,0.11715825301976157,-0.008431076304811583,-0.10024432767204787,-0.17181701369282996,0.14632961710434357,-0.015378315398392758,-0.13587015789412283,-0.17502089584219833,-0.11933215975622053,0.0010630192285953015,-0.05661064875590217,-0.09737055097036351,-0.03327359234842907,-0.037684478856582857,0.16115044192751308,0.020965753265037323,-0.06828440359709381,-0.15706784066233199,0.04602219368958068,-0.07891849659374611,-0.03943410574456789,-0.12419518295352515,-0.13101707701538629,0.01555954463271371,0.05713396265882319,0.11025972251901116,0.10897433073503576,-0.0443726422315535,-0.09428769534430812,-0.09319923326775849,-0.15466688029461454,-0.006889860237003364,-0.10868041292229067]},{"weigths":[0.008616695647516647,-0.27267074940925048,0.20901713568296849,0.0443470711518195,0.0711322531681283,0.17961214203998064,0.011016311312945122,-0.24986491699332895,-0.057728471744571439,0.06462725389597604,-0.2245384129000475,0.08428636793661676,0.20369978415453036,-0.3918937465765587,-0.052870626387689387,-0.1594126956856454,0.16355438669463849,-0.13058733010334565,0.10623110512454541,-0.16868926199790036,0.06810601499980818,0.11616230220460301,-0.20291728981379185,0.044334531195882629,-0.1951727934332533,0.15524606929662497,0.19536293350114693,-0.05634741061366006,0.08961900773429155,-0.2842435520714328,-0.008521598369229066,0.18718384730183,0.07005052935171867,0.10099148933768446,-0.12873181351711833,-0.15000252215174066,0.02042915781441384,0.113009197236527,0.16477117751038604,0.19969135625502183,-0.13746436454800874,-0.1693295572114496,0.2003076455133266,0.3170530238415123,0.10533634371603905,0.009834649495935284,0.09910245846426059,0.1485857750436338,0.1395881212942906,-0.1323777769597393,-0.2558186396629196,-0.26423991997493698,0.10121869453335182,0.05365447305771848,0.05247129370101547,-0.14052456118482724,-0.0453939979393792,0.021908559609061189,0.00006482416033678905,-0.002627847296870678,0.09511179838195663,0.10655585424043618,-0.3282692244158442,-0.09406671248860853]},{"weigths":[0.11359754650471514,-0.07538224508518882,0.09667095068042772,-0.09845462089028172,-0.1690464149248836,0.1015941817758996,0.008762396674788327,-0.055391127819839808,-0.01819231615915885,0.1535152373204212,-0.13800348952732759,-0.04574121280257906,-0.08957490352440653,0.033223000098478169,-0.09512205679860736,-0.011327863025880073,-0.09656762526559608,-0.06833722141537926,0.06418877185252399,0.06241067790280261,0.1885939828392013,-0.13755097026687267,-0.10308958718083833,0.011304973329013138,-0.001531717447989333,-0.0617313546096745,-0.1227309295301601,0.021289380120092958,-0.12346051447190835,-0.06922552298751757,0.09817888748586502,-0.03129030959324887,0.13976761904499877,-0.13207809339368546,0.14071242612091343,0.16005590326140724,0.04653148092736147,-0.008707566268984633,0.029174314102250275,0.08157562771801375,0.038313143920284887,-0.09550302032740345,0.0688750219456122,-0.16918124192457135,-0.13190053742180497,-0.01265679032000039,-0.08234605715684636,0.17076232884984447,0.14604200694180606,-0.045942086309575459,0.03885613199771828,-0.1302602001717313,0.1092692144789213,-0.1378373819580427,0.17246974150677706,-0.025180534066386395,-0.07599539171974122,-0.13516920562420146,0.14743371637681644,0.14756709055805185,-0.032616043297496729,-0.09186428428518748,-0.11427172921098397,-0.17374888504748729]},{"weigths":[-0.08749348182759133,-0.0972922854060316,0.18227091857786369,-0.22539924236762638,0.1595282381016865,-0.012305984612631006,0.0029943035155386846,0.11063579577145959,-0.1452696507990597,-0.21821707465027774,0.2784140077241554,-0.05303707593100067,0.5171235302494048,-0.19622022424774969,0.27855364970970938,-0.26009219873977809,0.2614242143941818,-0.197672996967315,0.24501830632114797,0.13143362373645166,-0.20215430672477339,-0.13319577935219716,-0.0636560361345823,0.11461984814649753,-0.07046199636207448,0.015800172009637599,0.09051151869399221,-0.019390410643441038,-0.05697005495888649,-0.19289185123942119,-0.0256470267229466,-0.05543337145985836,0.15109985157009724,0.06681723434820952,-0.16027519781097514,-0.02561126050195918,0.10274994311087345,0.17227996830482765,0.04588096015531916,0.010262105322258814,-0.11100949204941148,-0.16886999940605319,0.05838911666765653,0.12679632357567839,0.1529376896374079,0.02072320466138519,0.04018915682237032,-0.06194028714121555,0.24470565340530768,-0.09639653825408777,0.04561883224755123,-0.13342451239053805,-0.03305533911913474,-0.030035961313430016,0.21895092891605653,-0.12821649805422523,-0.15775047759239739,-0.40524268772345586,-0.3303929062590051,0.059117950335123969,0.08869638428715872,0.22918864643036117,0.1921343257160084,-0.07651394080086434]},{"weigths":[-0.04266777753624916,0.035563353353935459,-0.07213194219804331,0.1359943582282204,-0.05221664132979208,-0.15457329964269488,0.06204736524476554,0.08130975659298435,0.17119810280318438,0.05199385684546308,-0.0993303551043611,0.15144862297644696,-0.1323168103492734,-0.020970356332994545,-0.1055491004342405,-0.13518042702932646,-0.05709099603360387,0.13914695333708289,-0.00310664081656771,0.1313729976109548,0.08961578521419785,-0.1487434014395743,-0.034129235154989,-0.007969522225028159,0.16080469892083552,0.05811267434795338,0.13580286359744019,-0.1159851134036756,-0.13261830636199962,-0.1430741766719388,-0.0899638582911191,-0.15737005891554066,-0.05363530805847628,-0.1425945051262409,-0.0805889349493408,-0.11748190651463546,0.005775286475762858,-0.07677726965668481,-0.04505978718948231,-0.02067498052656127,-0.03517038978276892,-0.04718074466750596,-0.13599558064104098,0.017968721806388783,-0.0334908125040726,-0.16849909654216184,0.12658945627124883,-0.07948611149178897,-0.02028553006249444,-0.09167073764442095,0.026814280372247674,-0.1264729840590368,-0.1298898320723587,-0.07620739925013689,-0.0010663727606462185,-0.14863865340870473,0.02482185951072043,-0.17277284002854979,-0.01798064734819917,-0.15761741545492415,0.14614627615430779,0.14699001826105816,-0.16471971289527749,0.1650073482102673]},{"weigths":[0.1280265082109214,-0.07237465883852593,0.1579910663134703,-0.09183103819864921,0.06379956249868024,0.09224971676771797,-0.03512343148580826,0.031204114518454237,-0.013319606010244659,-0.001471397319590853,-0.11151112043653037,0.10180713314216879,0.13813261653208573,0.06888253973836917,-0.10719676653206661,0.13397231475340289,-0.0859852728027521,-0.13424202221958188,0.06252502926385234,0.10302143940548445,-0.03907678602284083,0.16677382935770289,-0.15540659518481385,0.01809024256636441,0.08067187458958128,0.12113623729818882,0.03712931731845267,-0.1783597486821293,0.3013140549041185,-0.07266990682637438,0.05272467429745421,0.05140016091187886,0.19030302016197393,-0.1217103360664158,0.16737019952407207,0.043959693922990188,0.1068563963483435,-0.016287790403613265,-0.11256518864428603,0.22932736547255443,0.145281670661378,0.027949002481602756,0.050141201300204437,0.1814120934347958,0.03617773142307778,-0.06422725427928441,0.15301114773315689,0.051671923872344167,0.1494720454488645,0.08281396119368065,-0.08831590312569125,-0.08048990833533941,-0.19388206357179067,-0.03339792809558267,0.0314091883727497,-0.05152896812809993,-0.1856194233292953,-0.11424739038274429,-0.1592203256238971,0.3060748704817588,-0.17342977188929169,0.05101189052589404,-0.023678415850149034,0.03036788140248946]},{"weigths":[-0.07144937180024905,-0.15262574225483936,0.11592105144140844,0.15907994566522408,-0.041227776396248697,-0.10737775158336865,-0.03506239246867831,0.037814581521748557,-0.013361409814247915,-0.061527151809952187,0.22318290468887728,-0.1707350915530843,-0.05482742898041687,0.1087659928650963,0.04221749144234825,-0.02459440286452714,0.09794643792081137,0.023995773637911334,-0.18145560158790059,0.1142936152167814,0.11687305564923764,-0.044720741577781209,0.0068567917848538239,-0.09574764939847726,-0.08850804976224362,-0.00857716179693992,0.16395333930749515,0.18628504716604145,0.12277110976349197,-0.13968446555247003,0.0903476893951493,-0.08757118656802968,0.17603369890827884,0.09329301062467567,-0.00323438513834141,-0.09184363018749513,0.1560102419375988,-0.14286884423389696,0.1267717493307482,0.17586243849830658,-0.1369018820181324,-0.016162242753156004,0.1329588533508437,0.11921569513178113,-0.0386345961842894,-0.14167661513657277,0.1756605105040699,0.13034958133436817,0.05702853027840104,-0.13182671654777057,-0.23807276451988253,-0.0797565508367005,-0.1877778930820518,0.02070199571290428,-0.07536371624777212,0.13054240048383473,0.014280456738610328,-0.03967693050936832,0.08565146017759456,0.06806998451714856,-0.10722566646261554,-0.16390842871839607,0.18810496091696178,-0.026277697094664679]},{"weigths":[0.003916262077699816,0.020034558390695149,-0.13159125949358867,0.15118673715197496,0.04702010303018414,0.054097820298185207,0.06306050247325541,-0.13901088960667103,0.08111294692566187,-0.046172213271837788,0.10331070981854519,-0.06520376702730312,-0.005453838516485365,-0.09619420178715742,0.08345283938094775,0.101811092830389,0.0835166127066051,-0.058069293490499388,-0.0314612902506315,-0.040841574601082477,-0.15147214209144978,-0.07002327558376462,-0.16268544658773435,-0.04451899476769878,-0.06728993804738028,0.09491957061318952,-0.06936431394063714,0.18154599878747225,0.04692640567189135,-0.19899288035463737,-0.09584028526745953,0.13623197583457839,0.055501697907503897,-0.12383849856863832,-0.019819248692284937,-0.11375988584264872,0.05654637357386781,-0.045282182764789107,0.08104312369274408,0.04548195620329515,-0.10658874971870838,-0.05548692082822362,0.015739601902919076,-0.024085688459371904,0.1300012856016094,-0.026936092308157777,-0.15180406939989503,0.15045719364966426,-0.1646930611062789,-0.04655132308389387,-0.2110673228017931,0.07066168113689171,-0.13007080882221945,-0.17597003541396936,0.034651212716505858,-0.08760469895368103,0.029013878703122887,0.11792972238543782,0.18366451720531566,-0.05324062566938651,-0.15139891833823033,-0.08383391302937185,-0.12930060082210033,0.011232354179036277]},{"weigths":[-0.1126851199081656,-0.02719104832857082,0.062324298912988369,0.042864951399868827,0.04088671311550187,-0.15709565991356615,0.06139695108484137,-0.05442273103001849,0.0016293257595346022,0.04830965872799297,0.000018887941509766245,-0.01075362873511137,0.0925690889816788,-0.02491555531428097,-0.15699615660134434,-0.047586370295144318,0.09013970276474447,-0.0317773378386024,0.0755286288281101,0.017242226985973054,0.019882846075896519,0.012037468456673738,0.027114019042728748,0.155353804323489,0.13719442664040427,0.08567165163832472,0.051352008631535429,-0.08726467117710535,0.019651196932239196,-0.15186613384901399,-0.14341094046096504,0.14105238115650377,0.0982207882694405,-0.11623137158635896,0.12446820903337047,0.06997472765320069,0.16794743668427626,0.09380371582980972,-0.13306237987985698,0.12565022227727724,-0.0739362166273235,-0.017992449447714426,0.014346169393742782,-0.1674538517458711,-0.08162139654504409,0.11074706256474878,0.08049878571286727,0.06427159502374856,-0.16735036030976498,0.06732952932411729,-0.020606720933957487,-0.13279268932751393,-0.08628280130743903,0.15418534820453298,-0.0356870559271295,0.029837178483141496,-0.06882802020043559,0.018479449294332929,-0.012472186718401692,-0.025911206205949574,0.021942358909420806,-0.03267271802591193,0.17182035145586775,-0.059922511814572528]},{"weigths":[-0.20398876137265033,0.06973759576227717,0.16085326262780495,0.07644324999209194,0.06166770193932122,0.12312928981175542,-0.19682682636217622,-0.016860945839684627,-0.16851300673397869,-0.07765182742538489,0.10629351021637186,-0.016206431039839834,-0.015926884574059928,0.0033105054004815605,0.02160950901896173,-0.07953953557238365,-0.10810027759163879,0.0021766049185823119,0.002814428521998027,-0.0537255805454393,0.05784720018529358,0.14158060535983564,0.05736900236623697,-0.11355515545578973,0.10114267747227673,-0.04671491270392798,0.08562293513760631,-0.18925209729007595,0.034648030276710869,0.10921426242737439,-0.1655955627441214,0.1029603596503795,0.06254264197718304,-0.2252395209060285,-0.10780622516254333,0.11409335610426054,-0.14550265417608986,0.03770059545072809,0.03688579738069296,-0.09553427315783643,0.05901018312741721,-0.14452570488205863,-0.13770138044611875,-0.0002464902093370969,0.11092689345732931,0.1848006525653731,-0.12426091264847142,0.1164276170549733,-0.16882595344792068,0.006265115243854371,-0.12685256668118365,-0.08106882246833083,-0.12817748749616166,-0.13712094237864556,0.12993549494972354,-0.09577433030042956,0.10920534796542486,-0.0516493186717183,0.19074932473182677,-0.10197945651594066,0.17465577552688017,0.18386563427519327,0.219696813976319,0.142024794007998]},{"weigths":[0.1467430597015899,0.11195658944132,-0.048423092848070569,-0.13027471124129515,-0.17381550127184262,0.26020729401154327,0.045035125904604119,-0.14850128550337667,0.1616742756676993,-0.006020199175739715,-0.12124430976229098,-0.15494252169246079,-0.16675635684254393,-0.21691910284788003,-0.03238385314896071,-0.18592843903367219,0.003794395944913358,-0.19933588396684238,-0.11495861459059807,-0.07833239046654915,-0.040108803014532689,0.03867391195796189,-0.2261261035495137,0.0021783918951505025,0.1627478294687257,-0.024106185265686067,0.09258580628587122,-0.030518232059265947,-0.08821026692752793,-0.20175470857064696,-0.009548395937362455,-0.09592370372052334,0.1857378832690118,-0.10745816300330177,-0.055507384973239117,0.035105095888703929,0.09443331058839877,-0.175496462104306,0.008303287842432493,0.1089356245933002,0.016918841838308417,-0.11310441042184497,-0.056738619748707138,0.08245613116347402,0.07154866283555886,-0.08241815327566937,0.23494147070400979,0.2710784177965563,-0.10362265897111416,0.1415389779813476,-0.24298445472297618,0.031133175403398665,0.14965080350969096,-0.07121705528190148,-0.033835886406706729,0.13795071750499539,-0.07879552308268034,0.030017672581743289,0.04806374416598639,-0.04097033207284157,0.11783090817036922,-0.02889031841319766,0.06579043558297104,0.019058384744144866]},{"weigths":[0.06820631208844283,-0.22678495488243248,-0.08547209250316014,0.11618691572554584,0.21086073377588486,-0.17430798119633837,-0.13588067631865828,0.2616526785456877,-0.1418756030157851,0.03215584331845733,0.48267225769047336,0.17107338247612895,0.49829863485868966,-0.22066812518400906,0.17837769305075788,-0.39126991426310306,0.11067124912049964,0.06396175236848767,0.14702059256117384,-0.13644063822346887,0.025759507287279879,0.03167798463727314,-0.01123659314691201,0.10969531797022836,0.006825551455843543,0.0942055929496505,-0.1366055199200183,0.11233219615265074,0.032807416073584,0.10251053158410904,-0.11954932205183004,0.04819757682981287,-0.00497463362368579,-0.08044265666042916,0.11968706566575505,-0.01761425901199201,-0.020848664155244727,-0.024068012871714764,0.2256726854724574,-0.024308078971763806,-0.2723548855361678,-0.31197046960481847,0.13029490076898746,0.2775269421190475,-0.02750308295292779,-0.0021557744818657919,0.044910575247271346,0.10683700846466754,0.13548442220823946,-0.22055207496773866,0.02537529532559534,-0.1371871879555805,0.03579809643158918,0.21920610107658765,0.23709584278850164,0.009782285809634752,-0.047652912901173478,0.005741559078710717,-0.2614255932406818,-0.14832181209591156,-0.08986579588241528,-0.05407664586997789,-0.2109931030006267,-0.24807091951208874]},{"weigths":[0.14631439743395176,0.02466683421155203,-0.06618892381282167,0.22604957217987374,0.09461501101240255,-0.07399157007680644,-0.03784874606916887,0.10320399796326413,0.0548839882618921,-0.026576002021318325,-0.10765167893400127,0.16999231713525224,0.20651859567408729,-0.1433010077093425,0.12419095120492405,0.13855455110339885,-0.07625169011673888,-0.08144141364772098,-0.06467888704810822,-0.10751137003637529,0.113215920442347,-0.11848925870492445,0.03480565723875255,0.06529447891385516,-0.011836558628645616,-0.12580847839646845,-0.14444094471754227,-0.09045736952699087,-0.07495568184329482,-0.08951842770786048,-0.02568259623301063,0.11381567225301853,-0.03396264646153554,-0.16218096201499075,-0.03700427282799711,-0.1250569146374911,0.1400306441558153,-0.17187629862607146,-0.1345256803371285,0.17153321421948077,0.14867611814376795,0.14066384363469806,-0.12893017667260396,0.15098925258649965,-0.19279129860865808,0.06648618565505842,0.1757447698749413,-0.11154148008638046,-0.07955625048624326,-0.1787288159252304,-0.3042841514958805,-0.08849612326304317,0.11961791062150186,0.15082413505978438,0.08178893735061453,-0.020641744479830704,0.01838915995862523,0.22498049262292187,-0.0071134516743199169,0.15307985207311906,-0.052133060887510369,-0.16954204913083696,-0.055831819826690397,-0.06646715908711853]},{"weigths":[0.029409359703565169,-0.10864773008790083,0.17953447096239118,0.007444462446323475,-0.023399694207609475,0.07973265010445364,0.06776994349747266,0.0015649500604590825,0.14065337036486198,0.15322430293947424,-0.07711563686945959,0.0822877504367273,0.014314204221124064,0.24422061666884727,-0.14741965375105105,0.052227451362533209,-0.16480191639892476,-0.02748187835503204,-0.16686856323274669,0.023797521100233009,0.1450381953715806,-0.18112958937806845,-0.09537591560034298,-0.11724805367613164,-0.01897645419859941,-0.09328044233178069,-0.112008923452613,0.03817195723040597,0.06011172653702331,0.1847158404764452,0.11395978254759368,-0.023767494810395988,-0.08395330581300188,-0.06637206798827873,0.17546825798237107,0.13409791930563789,0.12777563350020133,0.00438930531507083,0.06309488217829949,0.09627380287946802,0.17327018666396439,-0.15590358856467705,-0.13721996906188425,-0.1048642500763019,0.04693729456677806,-0.12910530528327406,0.008390742572792933,-0.07536734458943184,-0.034009345492608759,0.12660905035422743,-0.09421353961308013,0.00013959304126995615,-0.02995052916729733,-0.03380389052941201,-0.16303997128360205,0.08429653446025923,0.14731706988015057,0.03640065399226104,-0.02976816700997907,-0.16657091134230174,0.14647829637544763,0.04720101351080615,0.12336743997249115,-0.0009475949667452175]},{"weigths":[-0.16077162379815014,-0.037355515642302748,-0.031321246778372609,0.10566460671557922,0.19644253225446388,-0.33164782574388387,-0.12386142631267204,-0.06958042546404099,-0.10449047566940137,-0.1585220759711594,0.10348669578103963,0.00911719768337919,0.096200661463441,-0.06648149360284146,-0.10587749153789943,-0.3428022012797968,0.0379571026590043,0.056180753574799287,0.09130610182319558,-0.2077351366436516,-0.14789781096418734,0.005231188687396895,-0.10839599640660516,-0.057769696616959898,0.13697128099950282,0.02732037531381744,0.07518282728305477,-0.10320575454013617,-0.1615046973493625,-0.1239823152486097,-0.23098730632858995,0.1389663655101963,-0.07317156657905338,0.13117453146227527,-0.1683241036380438,0.16576059204497074,-0.007622243666465562,0.10832999803107547,-0.06007070490577,0.12213669218407501,-0.17306584184089239,-0.16845497825680193,-0.15875652609185704,-0.12269842450513456,0.1292669506830073,0.08699311907104038,-0.08740943476216336,0.0252674103243867,-0.08506383356427524,0.05525163951309419,0.010237876704066698,-0.1280674777648548,0.07369440937633094,-0.025923686183706514,0.14917056922316186,0.005582555814923752,0.08149212490574247,0.038093371673021087,0.10753368805643905,-0.02521871504889316,0.11057871887183467,-0.023940581641118953,-0.09322530437349272,0.10756712070006963]}],"Biases":[0.0114874357143641,0.08414361681556429,0.04593872694991093,-0.03288463246377275,0.272369290043445,-0.007587557409935057,-0.15163303244777483,0.1435431236504091,0.052262009011582847,0.1521669325518607,-0.6990566235298953,0.02505523370306863,-0.6022210390536302,0.16701113017178338,0.1584708015246925,0.316086374559566,-0.03745068425809596,0.00033392538346185444,0.4679043506670441,-0.016012520965272546,-0.0017728510538377492,0.0012156783330788287,0.14447527775947234,0.04034334944500379,0.12960698176529748,-0.05102319438729774,0.05457414175405097,0.27056527898532597,-0.05821823804496136,-0.2570581916830132,0.07409768488069257,0.06705061855637135],"_Inputs":[-0.003141028313046134,-0.001618019714780371,-0.002501376535958392,-0.010443888056921383,0.3287828277567724,-0.006055463510171055,-0.011405267659667359,-0.0013180651060347793,-0.005341047815567931,-0.008247188743682292,0.678018454612332,-0.0041594535501707509,-0.016944087965108356,1.1282186209878314,-0.02131419295133238,-0.01705590585659147,0.06617029384920531,0.45373543458302725,-0.0034312964959922174,0.22009643278206249,-0.013053108125914185,0.2605189649628237,0.8162756499440973,0.1189746772946826,-0.001822673805956439,-0.00010647701057478031,0.27254490266728467,0.19027670917717352,-0.009533193092541229,0.5817173422224778,0.2934776238040383,-0.010530413115254494,-0.0040284168173787509,0.8218150529899975,-0.008503431304003624,-0.00823361468766696,-0.00558167839803465,-0.007752813694856059,-0.003384504389029272,-0.03108305417182728,-0.011716721139130058,0.7247950879498879,0.17890817369069757,-0.0042706372545936919,0.130226683235537,-0.0009254403790288137,-0.008986426001515124,-0.003016036745511704,-0.002210170223444577,0.24037830760965127,0.7907876822852833,0.31767365672088379,-0.01066380884743401,-0.00995537800268646,-0.005213902632999966,-0.003921048475154315,-0.0014215435692604406,-0.014037895161657779,-0.0074815095768901809,-0.010418022267457795,0.09695126225631902,-0.0028096838748262219,-0.004860181207149319,-0.003090667158542283],"_Outputs":[0.09544173625166422,0.6983344731196473,-0.5440712380679307,0.3263614227235,1.0350337535287562,-0.007447317123623929,-0.6456085787228876,0.287455729885425,-0.9629501948813337,-0.8800291148459329,-0.06501432380371264,0.11466451775436076,-1.7965376637635986,0.3745546339458101,-0.041190970222527909,0.48409997517954708,-0.4315048413092077,-0.2764652418115942,-0.7555306868060959,-0.5223961497465768,-0.25232547387375528,-0.3729618086396549,-0.1843749125851464,0.17355506494692259,-0.501927168244261,-0.3236407277443545,-0.19731063034420466,-0.8040411104527956,-0.24523088106594669,-1.0596191858618354,0.025246269448016439,-0.14862400660817844]},{"InputSize":32,"NodeSize":2,"Weights":[{"weigths":[-0.1035032809501828,-0.6005126781850793,0.5737454160623656,-0.3964348420029198,-0.6428838973681579,-0.684949686773687,-0.685228788048343,-0.3694007991468469,-0.5151984358838725,-0.6175637901325142,0.10508886319448528,-0.015500344260682074,-1.3548139042217496,-0.32485099361252287,0.31702565426022247,0.49441471731091365,-0.6268447852236441,0.6870375747162296,-0.06594908533976235,0.12721734056247023,-1.035278203064747,0.5870092725387786,-0.13519410661691792,-0.31365378154075426,0.09429041063307572,0.17371323029500056,-0.2162634652735787,0.3521950298416555,-0.9245575531046805,-0.7822509833815784,-0.42942110747429099,-0.7762230772513511]},{"weigths":[0.16688977472128004,-0.04332790070266057,-0.04315760151995211,-0.2675817066708255,0.12052568586344911,-0.12583302122643617,-0.1506161255291406,-0.33751752906548446,-0.8353303459109873,-0.6470552830207924,-1.3570593163189058,0.3368267015784092,0.14612324122628546,-0.19219955451181107,-0.3785913353588932,-0.27065813697820825,-0.4097122250509975,-0.32427830214023958,-1.2238651117023099,-0.5837992048450803,-0.05681375861116828,0.24263271828431225,-0.5144067333353272,0.06769371497004903,-0.48776354903876487,-0.3927041856442386,0.40659539982946937,-0.7231880951226055,-0.4415928433117563,0.4157451896988289,-0.3115377393251348,0.6237761571100964]}],"Biases":[0.1828606608331498,0.054596576002158048],"_Inputs":[0.09544173625166422,0.6983344731196473,-0.005440712380679307,0.3263614227235,1.0350337535287562,-0.00007447317123623929,-0.006456085787228876,0.287455729885425,-0.009629501948813338,-0.00880029114845933,-0.0006501432380371264,0.11466451775436076,-0.017965376637635989,0.3745546339458101,-0.0004119097022252791,0.48409997517954708,-0.004315048413092077,-0.0027646524181159425,-0.007555306868060959,-0.005223961497465768,-0.0025232547387375526,-0.003729618086396549,-0.001843749125851464,0.17355506494692259,-0.00501927168244261,-0.003236407277443545,-0.0019731063034420469,-0.008040411104527957,-0.002452308810659467,-0.010596191858618353,0.025246269448016439,-0.0014862400660817844],"_Outputs":[-1.0512630149610123,-0.14732741120815574]}]}