{"LearningRate":0.00009999999747378752,"hiddenAType":1,"outputAType":4,"layersSize":[9,64,64,64,64,2],"Layers":[{"InputSize":9,"NodeSize":64,"Weights":[-0.09601175040006638,0.10591347515583039,-0.08443633466959,-0.0954684242606163,-0.049459412693977359,-0.11119761317968369,0.06923330575227738,0.07454369962215424,0.03321284428238869,0.07415415346622467,-0.06691884994506836,-0.07917040586471558,0.07137467712163925,-0.063164621591568,0.021497758105397226,-0.024773359298706056,-0.03438371419906616,-0.09234485775232315,-0.09063198417425156,0.07827978581190109,-0.030708186328411104,0.021702954545617105,0.09384384006261826,0.04408641532063484,0.09929701685905457,0.011648928746581078,-0.10433576256036759,0.09902604669332504,0.03116973675787449,-0.06630364060401917,-0.12142582982778549,-0.037412311881780627,0.10953281819820404,-0.08733582496643067,0.028634382411837579,0.006278373301029205,-0.0747070237994194,0.06803902983665467,0.08711383491754532,0.05627677962183952,0.015195632353425026,-0.06754892319440842,-0.006344119552522898,-0.031056568026542665,-0.10387847572565079,0.013775368221104145,-0.034121863543987277,0.038815781474113467,0.12250711768865586,-0.12064936757087708,-0.04919923469424248,-0.007567985914647579,0.02429082617163658,0.060695040971040729,-0.10032930225133896,0.11106713116168976,0.03390490636229515,-0.06514541059732437,0.09676116704940796,0.01714470610022545,0.07797945290803909,-0.11931189149618149,-0.0316183939576149,0.09701405465602875,0.008608056232333184,0.04325158894062042,-0.030291959643363954,-0.0718553364276886,-0.027643779292702676,0.008084025233983994,-0.08439464122056961,-0.163216695189476,-0.021136850118637086,-0.006609437521547079,-0.08001544326543808,0.06570009142160416,-0.044023171067237857,0.09793700277805329,-0.06559662520885468,-0.09678635001182556,-0.06569122523069382,0.05876534804701805,-0.09518849849700928,0.001126506133005023,0.019507111981511117,0.058374110609292987,0.10257641971111298,0.10704073309898377,-0.01737542636692524,-0.16183169186115266,-0.11397141218185425,0.079930379986763,0.04976201057434082,-0.04957036301493645,0.05427676811814308,-0.08016981184482575,0.049385279417037967,0.053815387189388278,0.029249200597405435,-0.0218768622726202,-0.0017997778486460448,-0.06284348666667938,-0.013228571973741055,0.05004996061325073,0.06002030894160271,-0.10569721460342407,-0.08005106449127197,0.08319946378469467,-0.0030713302548974754,-0.08006299287080765,0.000030081730074016377,-0.05920983850955963,0.07869481295347214,-0.05349854379892349,-0.013370613567531109,0.09048709273338318,-0.021037722006440164,-0.06560613214969635,0.008979364298284054,0.09379211068153382,0.004677671939134598,-0.0013892051065340639,-0.03207921236753464,0.08926063776016236,0.08760017156600952,0.11454147845506668,0.06921248137950897,-0.02459222823381424,-0.03538244217634201,0.0054077273234725,-0.12080986797809601,0.10822446644306183,0.09575898200273514,-0.02886306867003441,0.04347294196486473,0.01518784649670124,0.07329214364290238,-0.1336786150932312,0.07265138626098633,0.015660809352993966,0.08236874639987946,0.08591278642416,-0.09983159601688385,0.0458383746445179,0.015412411652505398,-0.06249900907278061,-0.05337538197636604,-0.0008623032481409609,-0.09464075416326523,0.07661409676074982,0.04146832972764969,0.09533211588859558,-0.07155416905879975,-0.09745024144649506,0.0832209438085556,-0.07555249333381653,-0.10471152514219284,0.0574207529425621,-0.0722121074795723,0.11419374495744705,-0.07814845442771912,0.004977420903742313,0.0006780257681384683,-0.07392814010381699,0.018405213952064515,-0.051440540701150897,0.08918873965740204,-0.10455180704593659,-0.03802281618118286,-0.030446108430624009,-0.10487844049930573,-0.03652399033308029,-0.007694856729358435,0.06714154779911041,-0.0011236907448619605,-0.10329218953847885,0.029544344171881677,0.09037933498620987,-0.03256436064839363,-0.003161445027217269,0.09791731089353562,-0.09443841874599457,-0.001531628891825676,0.02722823992371559,0.11255095154047013,-0.11301831156015396,0.05010409280657768,-0.12720069289207459,-0.06174657121300697,0.07302217930555344,-0.008370081894099713,-0.07229918241500855,0.02250693179666996,0.05654406175017357,-0.011734455823898316,0.03256065025925636,-0.08958695828914643,0.04076583310961723,0.004885104019194841,-0.04538702964782715,0.023205677047371866,-0.01480606384575367,0.11701471358537674,-0.03132467344403267,0.10742644220590592,-0.027291998267173768,-0.10930692404508591,-0.01233874075114727,-0.07272925972938538,-0.07969469577074051,0.07334309071302414,0.043080490082502368,0.10141059011220932,-0.10367464274168015,-0.07616742700338364,-0.12861643731594087,-0.10556115210056305,0.09564851969480515,-0.06861045956611633,-0.12318417429924011,0.121780164539814,0.024944936856627466,-0.054267656058073047,-0.10164663195610047,-0.006419722456485033,0.07684245705604553,-0.030488429591059686,0.04301073029637337,0.030272595584392549,0.049086470156908038,0.10369092226028443,-0.0030721898656338455,0.07437683641910553,-0.08026516437530518,0.10943369567394257,0.11228950321674347,0.06646161526441574,-0.09852048754692078,0.01996297761797905,0.011781242676079274,-0.03918759524822235,-0.07574502378702164,-0.002683925209566951,-0.043756451457738879,0.0019447053782641888,-0.004177797120064497,-0.06803757697343826,-0.0066341981291770939,0.02262505516409874,-0.01633032225072384,-0.08777624368667603,-0.02468011900782585,0.07496899366378784,0.03138461709022522,0.07465548813343048,-0.10214254260063172,0.012810744345188141,-0.1269526332616806,0.09891467541456223,0.07359299063682556,-0.004088891204446554,0.04090522229671478,-0.1192699745297432,-0.09641562402248383,0.007858325727283955,-0.07408610731363297,-0.08236756920814514,0.12116894870996475,-0.059431787580251697,0.048004280775785449,-0.07880415767431259,0.030144376680254937,0.028840230777859689,0.000886038935277611,-0.09962111711502075,0.049865398555994037,0.06537546217441559,-0.09724870324134827,0.04621587693691254,-0.07193214446306229,-0.10867311805486679,0.11158540844917298,0.07364858686923981,0.09813767671585083,0.04580721631646156,-0.08929912000894547,0.11398087441921234,-0.008865611627697945,0.06667983531951904,-0.01594577357172966,0.06523538380861283,-0.0026020249351859094,-0.06619489192962647,0.020927144214510919,-0.06419272720813751,-0.014579235576093197,0.02043827250599861,-0.0554339662194252,-0.03034619428217411,-0.06242375075817108,-0.008390773087739945,-0.1134759858250618,0.05582724139094353,-0.03213779628276825,-0.03910062089562416,0.09877961128950119,0.08679414540529251,-0.08319860696792603,-0.06737421452999115,-0.02564927563071251,-0.04301005229353905,-0.08497527241706848,-0.08659955859184265,-0.06692865490913391,-0.029408754780888559,0.04921852424740791,-0.011081918142735958,0.11255853623151779,0.09609141200780869,-0.005013889633119106,0.04228447750210762,-0.06329882889986038,-0.0924939289689064,-0.09029724448919296,-0.08082779496908188,-0.10022708028554917,0.09645542502403259,-0.06704704463481903,0.047442469745874408,-0.0656573474407196,0.12462197989225388,0.08255255967378617,-0.01176414079964161,-0.031398266553878787,0.05354803055524826,0.04001718387007713,-0.059475935995578769,-0.026929594576358796,0.011569006368517876,-0.05510328710079193,0.10508482158184052,-0.04783063009381294,-0.041242096573114398,-0.05129825323820114,0.1008562296628952,0.015031935647130013,-0.05569884926080704,-0.11870967596769333,-0.12650145590305329,-0.012697044759988785,-0.11560308188199997,-0.07951220124959946,0.11474957317113877,0.062273573130369189,0.0904984101653099,0.02368694171309471,-0.06448498368263245,-0.05483654513955116,-0.04507998377084732,-0.11252599954605103,0.01219190750271082,0.10572438687086106,0.027238797396421434,-0.014803154394030571,-0.09172698855400086,-0.07182489335536957,0.03821399807929993,0.06223733350634575,-0.1177464947104454,-0.10989081114530564,0.12086334824562073,-0.021595407277345659,-0.027432691305875779,-0.10305966436862946,0.053503792732954028,0.03197892755270004,-0.035159867256879809,-0.10562033206224442,-0.0479971282184124,-0.037485431879758838,0.03779694810509682,-0.06790848821401596,0.004082901868969202,0.04328392073512077,-0.0134500153362751,0.057356346398591998,0.10538565367460251,0.03142993524670601,-0.0606326125562191,-0.006740618962794542,0.03375636786222458,-0.022918416187167169,-0.07866057753562927,0.052484482526779178,0.08091636747121811,0.08165746182203293,0.0034765303134918215,0.000003117136884611682,-0.01685428060591221,-0.0789198949933052,0.007954653352499009,0.012522594071924687,-0.07481573522090912,0.11513008177280426,0.07312540709972382,-0.08970581740140915,0.10767056792974472,0.07780677080154419,0.09705342352390289,-0.1283985674381256,0.010511551052331925,0.021422158926725389,-0.03468950465321541,0.01720656082034111,-0.04615894332528114,-0.04132648557424545,0.01722242310643196,-0.01870686374604702,-0.02556699700653553,-0.0007430175319314003,-0.09506291896104813,-0.07711131125688553,0.08632718771696091,0.030296631157398225,0.04469456523656845,0.045693933963775638,0.02050815336406231,-0.05337671563029289,-0.01847258023917675,-0.10765960812568665,0.017178025096654893,-0.12528617680072785,-0.12877598404884339,0.09110729396343231,-0.05574847757816315,0.03741537034511566,0.009447789750993252,0.06219334155321121,-0.024094343185424806,-0.12414470314979553,0.01281936839222908,-0.021094486117362977,-0.012584938667714596,0.009946095757186413,0.0036189588718116285,-0.09160016477108002,0.09539356827735901,0.05423227697610855,0.004743351601064205,-0.09179165214300156,-0.019597208127379419,-0.1147693619132042,0.017064590007066728,-0.07230836898088455,0.024061089381575586,-0.10293999314308167,-0.01893293857574463,-0.07237914204597473,-0.04135996848344803,-0.123627208173275,-0.07924368232488632,-0.07277347147464752,-0.11863992363214493,-0.10659276694059372,-0.09913302958011627,-0.10419118404388428,0.10926927626132965,-0.012732538394629956,-0.0702969953417778,-0.10132987797260285,0.006660299841314554,-0.04399619251489639,0.015560002066195012,-0.11375878006219864,-0.01292236428707838,0.054738059639930728,-0.05955544114112854,0.02783597633242607,-0.0984019860625267,-0.015754615887999536,-0.028494447469711305,0.11922677606344223,0.10406722128391266,-0.0005794484168291092,0.07340234518051148,-0.12036322057247162,0.05817507952451706,-0.008483330719172955,0.04552387073636055,-0.10749555379152298,-0.07868272811174393,-0.08723385632038117,-0.028152871876955034,-0.05464571341872215,0.01098973210901022,-0.01948273368179798,-0.08614874631166458,0.03907214477658272,-0.08753905445337296,0.12019559741020203,0.09903734922409058,0.020869843661785127,-0.015002806670963765,0.0502006933093071,-0.05746040865778923,0.06567385792732239,-0.09212002903223038,-0.0877755880355835,-0.06272026151418686,0.009762948378920555,0.1085081472992897,0.05869337543845177,0.05773872882127762,0.018285121768712999,-0.11843541264533997,-0.016717717051506044,-0.08072792738676071,-0.10322317481040955,-0.08691827207803726,-0.07935754209756851,-0.04790116846561432,-0.009831144474446774,0.09133538603782654,0.012646786868572235,0.10901795327663422,0.0860653668642044,-0.076344333589077,-0.09185776859521866,-0.008268856443464756,0.05099279806017876,0.005723079666495323,0.05267266556620598,-0.10146230459213257,0.04683694243431091,0.11928453296422959,0.006524553522467613,0.03924275189638138,-0.09477327018976212,0.04107644781470299,-0.06629332900047302,-0.0694858729839325,-0.04827694222331047,0.008233519271016121,-0.11679395288228989,-0.03927043080329895,0.0638231486082077,-0.09350720793008805,0.09542392194271088,-0.03144383430480957,-0.10935185849666596,0.09594118595123291,0.07769635319709778,0.13369208574295045,-0.05821993574500084,-0.028766272589564325,-0.10751503705978394,-0.08660382777452469,-0.12451664358377457,-0.10517406463623047,-0.08437109738588333,-0.05506354570388794,-0.10437015444040299,-0.01349729299545288,0.04590693488717079,0.009675898589193821,-0.06467760354280472,0.037174906581640246,-0.05490214005112648,0.02184884436428547,-0.07280448079109192,-0.03227820619940758,-0.03186160698533058,-0.02565733902156353,0.07727854698896408,-0.010583347640931607,0.06180281564593315],"Biases":[0.0001322375755989924,-0.0021081180311739446,-0.010742899030447007,0.0004863798094447702,-0.006965436972677708,-0.0003058175789192319,-0.002134655136615038,0.006410208530724049,-0.0027173846028745176,-0.0014105724403634668,-0.009975329972803593,0.0013527694391086698,-0.0031597057823091747,-0.004433618392795324,-0.004925412125885487,-0.015137257985770703,-0.004756185691803694,-0.003276119939982891,-0.0009247430134564638,-0.007907728664577008,-0.010598354041576386,-0.0019253838108852506,-0.0034769130870699884,0.0013767010532319546,-0.00003312422632006928,-0.007158256601542234,0.003695578081533313,-0.00001738965693220962,-0.005582384765148163,-0.0001533568574814126,-0.009007833898067475,-0.0014332991559058428,-0.005807398818433285,-0.00026360427727922797,-0.00006610002310480922,0.001492877840064466,-0.00023501651594415307,-0.008355043828487397,-0.002119889948517084,0.007556119002401829,-0.001607073238119483,-0.002039868850260973,-0.003516425145789981,-0.0011127727339044214,-0.011986990459263325,-0.0006306168506853282,0.00007481519423890859,0.001696186838671565,-0.00623586168512702,0.0022696687374264,-0.0003930218517780304,-0.00002422512807243038,-0.006821503862738609,-0.0019117771880701185,0.00008057873492361978,-0.0026849410496652128,-0.003950632177293301,-0.000011201820598216727,-0.0017802829388529063,-0.0003674959298223257,-0.0006617550970986486,0.002368490444496274,-0.00002157866401830688,0.0031252047047019006],"_Inputs":[3.1025099754333498,3.5303187370300295,2.6582493782043459,3.1209652423858644,2.2313995361328127,2.2313995361328127,1.3195953369140626,1.3195953369140626,-2.774600028991699],"_Outputs":[-0.7071582674980164,0.08919322490692139,0.7141857743263245,-0.07141529023647309,0.5307043790817261,-0.11784322559833527,0.2528603971004486,0.48832815885543826,-0.010990889742970467,0.8351958990097046,-0.1065700501203537,-0.5115606188774109,-0.26369160413742068,-0.07145899534225464,-0.014617018401622773,0.23532620072364808,0.016688266769051553,-0.5387089252471924,-0.20506638288497926,-0.05291382968425751,0.10925230383872986,-0.015240563079714775,0.4671584367752075,0.16533958911895753,-0.4172343611717224,0.9900989532470703,0.5354398488998413,-0.3855744004249573,0.20176784694194795,-0.9269117712974548,-0.3489646315574646,0.2965894043445587,0.04839274659752846,-0.9682222604751587,-0.6902357935905457,0.8422817587852478,-0.2923038601875305,0.16842709481716157,-0.24826639890670777,0.7032657861709595,0.5299708247184753,0.11897099018096924,-0.5249999165534973,-0.30741438269615176,-0.39630138874053957,0.28258559107780459,-0.8270633816719055,0.5068349838256836,-0.1868724524974823,0.2710988223552704,-0.8284240961074829,-1.644083023071289,-0.700949490070343,0.5345557332038879,-0.5738345384597778,-0.1789540797472,-0.5269274115562439,-1.2227191925048829,0.5497969388961792,0.5168312191963196,-0.5847383141517639,0.52079176902771,-1.1996970176696778,-0.5961626172065735],"forwardCS":{"instanceID":24632}},{"InputSize":64,"NodeSize":64,"Weights":[0.10282042622566223,0.08433709293603897,-0.0911383181810379,-0.033685557544231418,0.054381225258111957,-0.057959094643592837,-0.10973969846963883,-0.05795445665717125,-0.06383738666772843,-0.04845978319644928,0.06699149310588837,-0.019399423152208329,0.11685333400964737,-0.11330617964267731,0.0021297938656061889,-0.08986610174179077,0.09736772626638413,-0.008482193574309349,-0.02852959744632244,0.05773703381419182,-0.024551186710596086,-0.12073837965726853,-0.00594377052038908,0.007795461919158697,0.09146788716316223,0.029549159109592439,0.09057726711034775,-0.09760264307260513,0.00748685235157609,-0.1087118461728096,-0.03722244128584862,-0.006441012490540743,0.05002375692129135,0.0043944125063717369,-0.07228261977434159,0.0037616812624037267,-0.06712151318788529,0.061287764459848407,-0.08154964447021485,0.05850774794816971,0.05873946100473404,-0.050668057054281238,0.019682705402374269,-0.12245793640613556,-0.10717297345399857,-0.03431796282529831,-0.10266128182411194,-0.04094303026795387,-0.09517717361450196,-0.06635774672031403,0.12425750494003296,0.015148123726248742,-0.06148042902350426,0.0684756189584732,-0.12213877588510513,-0.012248820625245572,0.07864760607481003,0.044315509498119357,-0.08312445133924484,0.04674871265888214,0.10473506897687912,-0.11381632834672928,0.1150902733206749,0.003109830431640148,-0.06588560342788696,-0.07215995341539383,-0.06040360778570175,-0.08491500467061997,0.09063151478767395,0.054676055908203128,-0.11390119045972824,-0.08186928182840347,0.034027837216854098,0.0897887647151947,-0.015810109674930574,-0.005638977512717247,0.06202665716409683,0.111728735268116,0.026575859636068345,0.11782117187976837,-0.038420598953962329,-0.12379111349582672,0.010430635884404183,0.00021201520576141775,0.06476181745529175,-0.10716550797224045,-0.0413903146982193,-0.11272114515304566,-0.010327893309295178,0.08705626428127289,0.03251580521464348,0.050503797829151157,-0.05397965759038925,-0.06940784305334091,0.10841137915849686,-0.04609791934490204,0.07942847907543183,-0.030566677451133729,0.04701930657029152,0.11211822181940079,-0.11276579648256302,-0.046149276196956637,0.08532597124576569,-0.04997799172997475,-0.027192359790205957,-0.00011751763668144122,0.027443140745162965,0.08269594609737396,0.06288030743598938,0.04646572098135948,0.11925264447927475,-0.0824563130736351,0.09420302510261536,-0.052845314145088199,-0.1199520081281662,0.0069595989771187309,-0.03281279653310776,-0.07859565317630768,-0.06004282832145691,-0.05901411920785904,-0.03789621964097023,-0.07809371501207352,-0.06632432341575623,0.03956340253353119,0.1188337579369545,-0.04950457066297531,0.09768547117710114,-0.11196919530630112,0.03122456558048725,0.08347591757774353,0.08429285883903504,-0.0858309268951416,-0.00477595953270793,0.07452079653739929,0.04433398321270943,0.03036174736917019,0.027877651154994966,-0.07943933457136154,0.09831754863262177,0.08378077298402786,-0.07928469777107239,-0.003493933705613017,0.040134482085704806,0.07013073563575745,0.018260587006807329,0.09041007608175278,0.05377161130309105,0.09093078225851059,-0.06439375132322312,0.08586426824331284,0.11053353548049927,-0.0922844186425209,-0.010031159967184067,-0.019089050590991975,-0.00963161326944828,-0.09717341512441635,-0.024106698110699655,0.12090718001127243,0.1018972247838974,0.019206088036298753,0.1051764264702797,-0.08726122975349426,-0.03877002373337746,-0.03180953860282898,0.04060981422662735,0.10664904117584229,0.09534383565187454,-0.1096801608800888,0.0006756735383532941,0.04620074853301048,-0.08452706784009934,-0.12071915715932846,0.11827440559864044,-0.01980738155543804,0.039678286761045459,-0.0008355987374670804,0.05047910287976265,-0.01940562203526497,-0.0448283851146698,-0.047183021903038028,0.10593298822641373,-0.10632564127445221,-0.07331956177949906,0.019463108852505685,-0.021577173843979837,-0.0446452833712101,0.04955821484327316,0.04616862162947655,-0.040201880037784579,-0.1087913066148758,-0.061174094676971439,-0.019892601296305658,0.10280707478523255,0.06635606288909912,0.006457361858338118,0.05336863175034523,-0.013608220964670182,0.014457045122981072,-0.025919122621417047,-0.054176587611436847,-0.010050651617348194,-0.08519904315471649,0.08196931332349777,0.043928977102041247,0.04195045679807663,-0.014259647578001023,-0.11646895110607147,-0.07850388437509537,0.11155252158641815,0.07789608836174011,-0.05205652117729187,-0.08104191720485687,0.05324229970574379,0.12045563012361527,0.024643409997224809,-0.06611508876085282,-0.04133344441652298,0.0021089273504912855,-0.003870740532875061,-0.123110830783844,-0.053392600268125537,-0.02730211615562439,0.09177585691213608,0.10563228279352188,-0.08098801225423813,0.030215594917535783,-0.0606781505048275,-0.027262801304459573,-0.1018790528178215,0.02265748754143715,0.027787979692220689,-0.08257763087749481,-0.008437443524599076,0.010942701250314713,-0.0289720818400383,-0.0957055389881134,-0.11216025799512863,0.003242892911657691,-0.107676200568676,-0.06395459175109863,-0.12067397683858872,0.048765745013952258,0.09689559787511826,0.05236034840345383,-0.08334425836801529,-0.10348206758499146,-0.09296524524688721,0.04297573119401932,-0.011785119771957398,0.036188457161188129,0.012426339089870453,-0.06338798254728317,-0.06558774411678314,0.12340517342090607,0.08956322073936463,0.007235432043671608,-0.0037031706888228657,0.012005309574306012,0.01704806461930275,0.045987844467163089,-0.08823396265506745,-0.07746170461177826,-0.008364367298781872,0.07708704471588135,-0.10662668943405152,0.11194580048322678,-0.0702909305691719,-0.03897120803594589,0.04432068392634392,0.0907144770026207,-0.11787977814674378,-0.020291876047849656,0.001702700974419713,0.12117570638656616,-0.012836565263569355,0.10381732136011124,-0.07228145748376847,-0.11594408750534058,0.12045687437057495,-0.05776228383183479,-0.10430354624986649,0.01386504340916872,-0.0035040308721363546,-0.08902408927679062,0.07446268945932388,0.04596395790576935,-0.03667805343866348,0.08594348281621933,0.1132119670510292,-0.004057765007019043,-0.08704238384962082,-0.02401849254965782,0.11271954327821732,0.10915286093950272,0.050197549164295199,0.08424212783575058,0.057655639946460727,-0.08777406066656113,-0.09704586118459702,-0.11375322192907334,-0.016977183520793916,0.10508373379707337,0.06633021682500839,-0.11345116049051285,-0.10762347280979157,-0.03250281140208244,0.011354506947100163,-0.061707597225904468,-0.008785974234342575,0.11769247055053711,0.07081367075443268,-0.05278155207633972,-0.11170411109924317,0.11375143378973007,-0.10851013660430908,0.011895706877112389,0.09305395185947418,-0.011182570829987526,0.00830379780381918,-0.026826467365026475,-0.04143357649445534,0.11329342424869538,-0.12201017141342163,0.11670032143592835,0.0760318711400032,-0.11527130752801895,0.020961500704288484,-0.007962205447256565,-0.08904162794351578,-0.0157883670181036,0.09423181414604187,-0.027626659721136094,0.08208756893873215,-0.0951104536652565,-0.07319147884845734,0.048910193145275119,-0.05600336939096451,0.06734176725149155,-0.05716440826654434,0.11864155530929566,0.01899891160428524,-0.10033697634935379,-0.10046298056840897,0.0254971943795681,0.12285953015089035,-0.10282067954540253,0.09051080793142319,0.07080723345279694,0.08901295065879822,0.00449935719370842,-0.10565484315156937,0.08632217347621918,-0.01414730679243803,0.04613136127591133,-0.06592071801424027,0.09900900721549988,0.02557562105357647,-0.06613126397132874,-0.013161365874111653,0.11276315152645111,-0.062484629452228549,-0.03958197310566902,0.12075429409742356,0.10000203549861908,0.10027012228965759,0.09483803063631058,0.0001032077707350254,0.02651771903038025,0.03852485865354538,-0.10594592243432999,0.06548945605754852,0.11597095429897309,-0.07421737909317017,-0.024484314024448396,-0.08982228487730026,0.12303180992603302,0.1162768304347992,0.08277244120836258,0.018495814874768258,-0.013859699480235577,0.10608980804681778,0.01978735439479351,0.05481158569455147,0.10447292774915695,-0.06986524909734726,0.04265184327960014,0.08141164481639862,0.07444928586483002,0.014016863889992237,-0.010797280818223954,-0.06746829301118851,-0.10667861253023148,0.04135813191533089,-0.029960578307509424,-0.11439810693264008,-0.039497409015893939,-0.014947347342967987,0.0536983422935009,0.10380590707063675,-0.12528526782989503,-0.12042863667011261,-0.09895972162485123,0.12240420281887055,0.0747077614068985,-0.11221831291913986,0.11611858755350113,-0.0032140645198524,-0.0751006230711937,-0.12318449467420578,0.08805210143327713,-0.08629228919744492,0.04977082833647728,-0.10310813784599304,0.03766965866088867,-0.10722140967845917,-0.03659723699092865,-0.07288522273302078,0.0008462261175736785,-0.0501762293279171,0.045285001397132876,-0.0001919511560117826,-0.035332076251506808,0.106638103723526,-0.03779931738972664,0.09461943060159683,-0.03700132295489311,-0.0661860778927803,0.09983757138252258,-0.08189194649457932,-0.04710105061531067,-0.06922874599695206,-0.06386645138263703,0.10528398305177689,-0.028774738311767579,-0.010926738381385804,-0.09480811655521393,0.06430630385875702,-0.05571682006120682,-0.09966941177845001,-0.11651827394962311,-0.010287461802363396,-0.08797451108694077,0.07919342070817948,0.06145220249891281,0.12127690762281418,0.02314440719783306,0.11967937648296356,0.10058066993951798,-0.0865115225315094,0.11935380846261978,0.08137067407369614,0.052267059683799747,-0.08838257938623429,0.08751348406076431,0.08294755220413208,0.07022964954376221,-0.032623905688524249,-0.10118433088064194,-0.10529814660549164,0.07897668331861496,-0.043612197041511539,-0.018097376450896264,0.06094430387020111,-0.03871951624751091,0.030659619718790056,-0.038128744810819629,-0.07423539459705353,-0.05943424999713898,-0.08220704644918442,0.09372256696224213,-0.023229027166962625,-0.06922800093889237,0.08152613788843155,-0.03445589169859886,-0.08791204541921616,-0.08235350251197815,-0.09444434195756912,0.029471077024936677,0.08261189609766007,-0.07839585095643997,-0.059477221220731738,-0.05038977786898613,-0.0830468162894249,-0.11632056534290314,-0.012940111570060254,0.06559356302022934,0.12233874201774597,-0.06480647623538971,-0.018549349159002305,0.001977906795218587,0.01934758387506008,-0.09223147481679917,-0.0787258893251419,-0.09141065180301666,-0.03583706170320511,-0.0026544593274593355,0.06307130306959152,-0.027341077104210855,0.07075957208871842,0.08185820281505585,-0.06825727224349976,-0.11536388844251633,-0.01793557219207287,-0.06976059824228287,-0.06025803089141846,-0.0851566344499588,-0.027637386694550515,-0.012528160586953164,-0.03375306352972984,-0.08710365742444992,0.07847345620393753,-0.03136340528726578,-0.10262495279312134,0.030663464218378068,-0.06678570806980133,-0.09516702592372894,0.06772445142269135,-0.0703301802277565,-0.06906547397375107,-0.007629222236573696,-0.04844841733574867,-0.04257963225245476,-0.0486031249165535,0.055569712072610858,-0.1250503659248352,0.0312776044011116,-0.05612502247095108,-0.10328759253025055,0.014547289349138737,0.10298896580934525,-0.023992720991373063,-0.08699440211057663,0.11307370662689209,0.08012936264276505,-0.10560454428195954,0.08490728586912155,0.06244974955916405,-0.04277724027633667,-0.011863503605127335,0.01492007914930582,0.07248348742723465,-0.024030549451708795,0.1105404645204544,0.100379578769207,0.10095848888158798,0.06740142405033112,0.008580426685512066,-0.023805217817425729,-0.004492851439863443,0.10429222881793976,-0.05149844288825989,0.00017319466860499233,0.0324721522629261,-0.10800594836473465,0.011260148137807846,0.009701709263026715,-0.11389685422182083,0.04342035576701164,0.04141590744256973,0.053187232464551929,-0.07788193970918656,0.005012820940464735,-0.009406909346580506,-0.035766951739788058,-0.02548995055258274,-0.12636876106262208,0.032024405896663669,-0.07808082550764084,0.04558669775724411,-0.11103938519954682,0.08773805946111679,-0.0951571986079216,-0.0003177622565999627,0.0957658514380455,0.057818420231342319,0.10258264094591141,-0.05309256911277771,-0.08603109419345856,0.09785380214452744,0.053765419870615008,-0.0746079608798027,-0.031548094004392627,-0.018558913841843606,-0.12355681508779526,0.10395249724388123,-0.11311822384595871,-0.05780767276883125,-0.07693412899971008,-0.07589215785264969,0.02960890531539917,-0.09965813159942627,0.09184561669826508,0.01899431273341179,0.027674702927470208,-0.0988720953464508,-0.06373251974582672,-0.06771579384803772,-0.1218305379152298,-0.06587472558021546,-0.12300040572881699,-0.08488934487104416,0.10870416462421417,0.012630684301257134,-0.0891185849905014,0.07882227748632431,0.022018438205122949,0.08995795994997025,-0.07502032071352005,-0.11791207641363144,0.06762365996837616,0.0593048520386219,0.10916342586278916,-0.09430389851331711,0.032510966062545779,0.02595595456659794,-0.03190181031823158,-0.0501069612801075,-0.12541157007217408,-0.042580246925354007,-0.12290088087320328,0.0713161826133728,-0.009199419990181923,0.10753286629915238,0.09109821915626526,-0.11071456968784332,0.0010157800279557706,-0.07990255206823349,-0.05166390538215637,0.034290652722120288,-0.04655170068144798,-0.05271337926387787,0.031052405014634134,-0.07728523015975952,0.11257421970367432,0.05685125291347504,-0.0030277010519057514,0.02744339406490326,-0.08628793805837631,0.035465408116579059,0.04237605631351471,-0.03500360995531082,0.033449504524469379,-0.034382954239845279,0.032856643199920657,0.003981946036219597,0.01782660372555256,0.09095738083124161,0.11593721807003021,-0.0014594011008739472,-0.0250669214874506,0.10336799919605255,-0.09912166744470597,0.0119071239605546,-0.07895953208208084,-0.1087796688079834,-0.033652905374765399,0.02304251678287983,0.08307608217000961,-0.014336647465825081,0.05966117978096008,0.05044656619429588,-0.0989154577255249,0.0473763644695282,0.10960865765810013,-0.03274917975068092,0.054031796753406528,-0.019802125170826913,0.04223894700407982,-0.08755211532115936,0.12407688796520233,-0.07866136729717255,0.06899431347846985,0.09374520927667618,-0.050443634390830997,-0.08489371836185456,-0.06306499987840653,0.09685632586479187,-0.04337221384048462,0.026639128103852273,0.08269889652729035,0.10488942265510559,-0.08811462670564652,0.009500935673713684,-0.0971115380525589,-0.06332315504550934,0.06683699786663056,0.11076229810714722,0.0613616406917572,0.12276986241340637,-0.06631111353635788,0.0007995044579729438,0.11494161933660507,-0.11288395524024964,0.007803968619555235,-0.04083903506398201,0.032986775040626529,0.055195074528455737,0.08996798098087311,-0.0579138845205307,0.12168212980031967,-0.12458086758852005,0.12684376537799836,-0.062169693410396579,0.08759766817092896,0.022090889513492585,0.012973484583199025,-0.08567503094673157,0.017388246953487397,0.024317441508173944,-0.10490677505731583,0.0021645124070346357,-0.09463512152433396,0.09476421773433685,0.11262612789869309,0.06446823477745056,-0.005418810062110424,0.11244669556617737,-0.09064175188541413,-0.0965840145945549,0.10961088538169861,0.03181866556406021,-0.09660203754901886,0.10596634447574616,-0.023661216720938684,-0.1133144348859787,0.1051238402724266,-0.04272954538464546,-0.0964583158493042,0.04574403166770935,0.017652008682489396,0.08166389912366867,-0.004252465441823006,-0.11887200176715851,0.04741477966308594,0.0003856839903164655,0.0653497651219368,0.022551972419023515,0.11144361644983292,-0.053901467472314838,0.05030759796500206,0.08380530029535294,0.005101948510855436,0.09161371737718582,-0.09853710979223252,0.012481370009481907,-0.007329265121370554,0.07747045159339905,0.008247491903603077,0.10725610703229904,-0.09335650503635407,-0.05167568475008011,-0.07527684420347214,0.08255770057439804,0.09009331464767456,0.05141075327992439,0.12304946780204773,0.023164717480540277,-0.07035941630601883,0.027766028419137,-0.08686896413564682,0.09914801269769669,-0.04671945422887802,-0.08314016461372376,0.0032806869130581619,-0.06397616863250733,-0.02430795505642891,-0.0061457036063075069,0.022050930187106134,-0.11269430071115494,0.0979059562087059,-0.032250575721263888,0.10791809856891632,0.05675610527396202,-0.020383531227707864,0.11119040101766586,-0.03374084457755089,0.015757102519273759,0.07843886315822602,0.11754333227872849,-0.031140729784965516,-0.04599703103303909,0.000732871878426522,-0.08291546255350113,-0.05396400764584541,0.03563397377729416,-0.09654595702886582,0.12362654507160187,-0.10260970890522003,-0.12456287443637848,0.09186441451311112,0.018852122128009797,0.08826392889022827,0.10495473444461823,0.12199461460113526,0.028871487826108934,-0.08608841150999069,-0.008947682566940785,0.07784563302993775,0.01602712646126747,0.06602413952350617,-0.023124543949961664,-0.07127422839403153,-0.020606771111488344,0.1045553982257843,0.027653943747282029,-0.08250315487384796,-0.08215214312076569,-0.12446706742048264,-0.075278639793396,-0.0039019063115119936,-0.005063613876700401,0.06930527091026306,0.06543844193220139,-0.012690725736320019,-0.01393839344382286,-0.10837370157241821,0.038674406707286838,-0.07519841939210892,0.02949950471520424,-0.03561602532863617,0.006561459042131901,-0.07059691846370697,-0.08324054628610611,-0.028264500200748445,-0.06780678033828736,0.0716945230960846,-0.10478771477937699,0.07361152768135071,-0.05156174302101135,0.05267217382788658,0.1140589714050293,-0.07524357736110687,-0.10182579606771469,0.06395057588815689,0.05090857297182083,0.06853686273097992,-0.023513326421380044,-0.05293552950024605,-0.000604352040681988,0.025070585310459138,-0.08640960603952408,0.0672571212053299,0.07838710397481919,0.07629139721393585,-0.058801695704460147,-0.0026909657754004,-0.0998029038310051,0.0864456370472908,0.03859097510576248,-0.09023565798997879,0.013128368183970452,0.012994724325835705,0.05877550318837166,0.06857555359601975,0.11624389886856079,0.07256552577018738,0.10934194922447205,0.10164731740951538,-0.0166202113032341,-0.008323722518980503,-0.0771719366312027,-0.05350483953952789,-0.06053793057799339,0.06583859771490097,0.06481345742940903,0.1204310804605484,0.08552367240190506,-0.0069516925141215328,-0.016969949007034303,-0.060816116631031039,-0.11535714566707611,0.03617140278220177,0.006804944481700659,0.05406107008457184,-0.010026742704212666,0.08538791537284851,0.012575468979775906,-0.06404837220907211,-0.10048316419124603,-0.10679060965776444,0.03359859064221382,-0.11368855088949204,-0.046110812574625018,0.10390329360961914,0.08079272508621216,-0.10896673798561096,0.03089235909283161,-0.05611205846071243,-0.0510718859732151,0.032519664615392688,-0.0986412838101387,-0.08827822655439377,-0.05642417445778847,0.1141410544514656,0.04594818130135536,0.12005095928907395,0.08521386981010437,0.008158653974533081,0.0656793862581253,-0.057388778775930408,0.05701615661382675,0.07682755589485169,0.04920797049999237,0.09925798326730728,-0.03185947239398956,-0.05005442723631859,0.08269666135311127,0.038132790476083758,0.11457116901874542,0.04346027225255966,0.05240090563893318,-0.10633794963359833,-0.12288029491901398,0.12190953642129898,0.02962527424097061,-0.048732731491327289,-0.1044522374868393,0.06484202295541763,0.057449545711278918,0.04683611914515495,0.08703818917274475,0.03170708939433098,-0.011653944849967957,0.04617150500416756,-0.007520332466810942,-0.06608393043279648,0.019100232049822809,0.014353461563587189,0.02020874433219433,0.11456778645515442,0.11425362527370453,-0.004191093146800995,-0.11376794427633286,-0.11375732719898224,-0.10956323891878128,-0.10630087554454804,-0.009447167627513409,-0.006918314378708601,-0.03713824227452278,0.10052774846553803,0.11236854642629624,0.007107717916369438,-0.10111836344003678,-0.036881376057863238,0.0793711468577385,-0.012697963044047356,-0.11494484543800354,0.024181224405765535,0.0718003436923027,-0.006375698838382959,-0.016951067373156549,0.0319998636841774,-0.034132637083530429,0.09080062806606293,0.10442280769348145,0.030349109321832658,0.019630245864391328,-0.09523747861385346,0.051532596349716189,0.05738487467169762,0.04605751857161522,-0.07244719564914704,0.0323793962597847,-0.014413969591259957,-0.0741828978061676,-0.008272496983408928,0.07436168938875199,-0.10887034237384796,0.10128459334373474,0.06727344542741776,-0.010042449459433556,-0.08738109469413758,0.021459322422742845,0.040046337991952899,0.043406903743743899,0.025059036910533906,-0.021867498755455018,0.06899741291999817,-0.00042053277138620615,-0.02472706511616707,-0.1044691801071167,-0.11051739752292633,0.09928040951490402,-0.01574704796075821,0.11722177267074585,0.05457613617181778,-0.09914121776819229,0.08607863634824753,-0.04879629611968994,-0.06901715695858002,0.013309407979249955,-0.11149971187114716,-0.0501079298555851,-0.001498488592915237,0.09686282277107239,0.10720370709896088,0.06538067013025284,-0.06347193568944931,0.12052969634532929,-0.07477106153964997,-0.006701398175209761,0.04583584517240524,0.10495708882808685,0.09811997413635254,0.040521495044231418,-0.005305133294314146,0.10734090209007263,0.06596620380878449,0.10757893323898316,0.055475980043411258,0.03245300427079201,-0.06478559225797653,-0.042979951947927478,-0.028341451659798623,-0.059333883225917819,-0.11582453548908234,0.03698454052209854,-0.014939181506633759,-0.03329910710453987,-0.11149848997592926,0.09989629685878754,0.041066695004701617,0.0938798263669014,-0.05746610835194588,0.04727308824658394,0.08096760511398316,-0.030841588973999025,-0.11449361592531204,-0.11465509235858917,-0.09136336296796799,0.04570798948407173,0.06555946916341782,-0.09567634761333466,0.013668384402990342,0.10030226409435272,0.09229926019906998,0.11147169023752213,-0.10215231031179428,0.056211140006780627,-0.1164972335100174,0.023206131532788278,0.048920851200819018,-0.10818079113960266,0.061368562281131747,-0.014456613920629025,0.0872235894203186,0.02007194608449936,0.0547354631125927,-0.10458867251873017,-0.04088546335697174,-0.014677616767585278,0.001627484685741365,0.022972779348492624,0.08235324174165726,0.06022109463810921,-0.06620015949010849,-0.11118960380554199,-0.08180109411478043,-0.07351960986852646,0.045012593269348147,0.017734380438923837,0.03885721415281296,0.05994259566068649,0.03634538874030113,-0.02524268813431263,0.054439250379800799,-0.061416976153850558,0.11903451383113861,0.00537720276042819,-0.10549717396497727,-0.06839422881603241,0.05902893468737602,0.03909267112612724,-0.010743562132120133,0.06522587686777115,-0.11609536409378052,0.016838714480400087,0.09643212705850601,0.1045684963464737,-0.05923330783843994,-0.006748244632035494,0.049296822398900989,-0.11859840154647827,0.0006822991999797523,0.10694532096385956,-0.028594892472028734,0.08564361184835434,0.05537900701165199,-0.12441699951887131,-0.052098728716373447,0.11845067888498306,-0.012715380638837815,-0.12402217835187912,-0.008553647436201573,-0.07138027995824814,0.10237916558980942,0.07593902945518494,-0.07348693162202835,0.12427646666765213,0.016220808029174806,0.07586111128330231,-0.06508831679821015,0.04874426871538162,0.10336920619010925,0.12154804915189743,0.05248074233531952,0.09568541496992111,-0.03975503146648407,0.0398373156785965,-0.06062350422143936,0.028479591012001039,-0.030344147235155107,-0.09091481566429138,-0.08706787973642349,0.11455604434013367,0.08375321328639984,-0.0009477600106038153,0.08359148353338242,-0.06439492851495743,-0.03838656097650528,-0.0373087078332901,-0.008735035546123982,0.03824668377637863,0.07982080429792404,-0.11024272441864014,-0.004678637720644474,-0.0076441396959125999,0.042605359107255939,-0.0014393582241609693,0.029555656015872957,-0.02945580519735813,-0.024836231023073198,0.059769049286842349,-0.01177849993109703,0.002540233079344034,-0.10591483116149903,0.07560001313686371,-0.07164012640714646,-0.04647349566221237,0.010988197289407254,-0.023465681821107866,-0.103751040995121,0.059290140867233279,-0.03344876691699028,-0.11192304641008377,-0.026194913312792779,-0.11426538228988648,0.042036425322294238,-0.08713576197624207,0.06596018373966217,0.07210317999124527,-0.08089796453714371,-0.0013189992168918253,0.09539636969566345,0.07616998255252838,-0.014674887992441655,-0.04314673691987991,-0.03417331725358963,-0.044101737439632419,-0.0013684234581887723,-0.11259240657091141,-0.1087690219283104,0.11457397788763046,-0.11568424105644226,-0.1253684014081955,-0.11042987555265427,0.04116390272974968,-0.05846576392650604,0.005371093284338713,-0.09012003242969513,0.11737842857837677,-0.07418219745159149,-0.040716372430324557,0.021027706563472749,0.043650589883327487,0.08283897489309311,-0.08739855140447617,0.11776409298181534,0.11047489196062088,0.09824488312005997,0.10805753618478775,-0.05986931174993515,0.011118476279079914,0.014492370188236237,-0.028586020693182946,0.012512333691120148,-0.02007121592760086,-0.12812276184558869,0.01260997261852026,-0.10866679251194,-0.060066305100917819,0.041032999753952029,-0.10022222995758057,-0.07678213715553284,0.011681793257594109,0.11717762053012848,0.05582762882113457,0.10969658941030503,-0.07284928858280182,0.03251264989376068,-0.043475374579429629,-0.03250528499484062,0.06506693363189697,0.03212466835975647,-0.07892275601625443,-0.02147015370428562,0.11405818164348602,-0.06675869226455689,0.08658982813358307,-0.09886647760868073,0.08278091996908188,-0.10649725049734116,0.08506231755018234,0.03941746801137924,-0.046398986130952838,-0.07944513857364655,-0.11180035769939423,0.039373043924570087,-0.03587624430656433,-0.007425115443766117,-0.03371652960777283,-0.022336537018418313,0.06509508937597275,-0.006202053278684616,0.028405843302607538,-0.07816942036151886,0.0963955670595169,-0.05018947273492813,-0.0003058623115066439,-0.01573215425014496,-0.001408272422850132,0.027243738994002343,-0.06118788570165634,0.005462144035845995,0.11135921627283097,0.00038262418820522726,-0.056536510586738589,-0.0029827565886080267,-0.04210289567708969,0.09404654055833817,-0.09032327681779862,-0.012659755535423756,0.1016387790441513,0.0687267854809761,-0.0741937905550003,0.04975434020161629,-0.07248834520578385,-0.07220089435577393,-0.09731334447860718,-0.0004381079343147576,0.06950333714485169,-0.06991738826036453,-0.08777370303869248,-0.07547952234745026,0.08234155178070069,0.012543157674372197,-0.06282756477594376,0.04427579790353775,-0.06873894482851029,0.05620564520359039,0.021608952432870866,-0.05367916449904442,0.09756369888782501,-0.0470932275056839,0.10695488750934601,0.08127904683351517,0.021446848288178445,-0.030665701255202295,-0.10325129330158234,0.008047780953347683,-0.10337074100971222,-0.08196929842233658,-0.04875044897198677,0.030436020344495775,-0.010503849945962429,-0.05061206966638565,0.09013558179140091,0.05656145140528679,0.08098980784416199,0.11755448579788208,0.10269666463136673,-0.031243732199072839,0.07835669070482254,0.06370484083890915,-0.047516461461782458,-0.10652563720941544,0.03514033928513527,0.06845730543136597,-0.040303491055965427,0.1116270050406456,-0.06103186681866646,0.04257522150874138,0.009167991578578949,0.0367281399667263,0.014219364151358605,-0.012537849135696888,-0.08796084672212601,0.047215331345796588,0.06623665988445282,-0.019830113276839258,-0.04363241419196129,-0.09489578008651734,0.009125628508627415,-0.0758669525384903,-0.0417020246386528,0.11822434514760971,-0.07515236735343933,-0.052506498992443088,-0.08524107933044434,-0.08994666486978531,0.055128395557403567,-0.08661898970603943,0.05697048455476761,0.0516582727432251,-0.031790852546691897,0.035782601684331897,0.04773249849677086,-0.03352097049355507,0.004530358128249645,0.12434057891368866,0.09235440939664841,0.01881074532866478,-0.03874777629971504,0.03209653124213219,-0.025837533175945283,-0.027309855446219446,0.04500117897987366,0.11617812514305115,0.10489651560783386,0.1201719343662262,-0.030255243182182313,-0.051966287195682529,-0.0390741229057312,-0.03359673172235489,0.08733105659484863,-0.07350658625364304,-0.08267311006784439,-0.11845242977142334,0.0767500028014183,0.06571967154741287,0.08014969527721405,-0.027784114703536035,-0.0155075304210186,-0.058181118220090869,-0.05650082975625992,-0.01714794710278511,-0.051387593150138858,-0.048645444214344028,-0.06752766668796539,0.02790824882686138,0.08744291216135025,-0.04613811522722244,-0.11984553933143616,-0.12225169688463211,-0.018838873133063318,-0.05730801820755005,0.015014097094535828,0.10017707943916321,-0.008881638757884503,-0.11204205453395844,-0.026692435145378114,0.10214605927467346,-0.03173180669546127,0.06521935015916825,-0.07142584025859833,-0.017758555710315706,0.10089986026287079,0.0509602352976799,-0.1112222895026207,-0.08851253241300583,0.04616623744368553,-0.04581030458211899,0.04740920662879944,0.09528142958879471,0.08315151929855347,-0.10985175520181656,0.011502785608172417,0.049230579286813739,-0.09511823207139969,-0.03787185251712799,-0.0773441419005394,-0.02854399010539055,0.04754013195633888,0.014342747628688813,-0.06446553021669388,0.08677420765161514,0.05707339569926262,0.10493510961532593,0.08815361559391022,-0.06339327991008759,0.06759465485811234,0.12346533685922623,-0.06154169887304306,-0.10951105505228043,0.05658015236258507,-0.01606493815779686,0.06788848340511322,0.09587521851062775,0.015151849016547203,0.09846339374780655,-0.06679971516132355,-0.09977483749389649,-0.11347862333059311,-0.04428311809897423,0.08646050095558167,0.04721226543188095,-0.07349126785993576,0.08350691944360733,-0.09699739515781403,-0.12572674453258515,0.09856077283620835,-0.06916336715221405,0.0629919171333313,-0.04107526317238808,-0.007408392149955034,0.005113132297992706,-0.029077667742967607,0.07882086932659149,0.11757630109786987,-0.10697892308235169,0.11890639364719391,0.10120345652103424,0.027154406532645227,-0.014936830848455429,-0.12125050276517868,-0.08530335873365402,0.10039422661066055,0.040205713361501697,-0.10963395982980728,-0.10930515080690384,0.0893263965845108,0.018838437274098398,0.018334580585360528,-0.02230684459209442,-0.04221019148826599,0.062363505363464358,-0.07662802189588547,0.07173684239387512,-0.11161144822835922,-0.09194906055927277,0.03133779391646385,-0.02128574810922146,-0.06597842276096344,0.07367881387472153,0.09298086911439896,-0.07028794288635254,-0.06418706476688385,-0.017031291499733926,0.09269103407859802,-0.018093213438987733,-0.031502094119787219,0.12131723761558533,-0.11887072026729584,0.001289750449359417,-0.022428086027503015,0.08091919124126435,0.015634668990969659,0.11199192702770233,-0.052403490990400317,0.07933143526315689,0.010807252489030362,0.08806988596916199,0.02788127213716507,-0.10033529251813889,0.010715603828430176,0.01698969677090645,-0.017082784324884416,0.08483719825744629,-0.05782715231180191,0.09759843349456787,0.07595296949148178,0.07024030387401581,-0.1120024025440216,0.04541080817580223,0.10900093615055084,-0.013858113437891007,-0.021108269691467286,0.1229722872376442,0.08741896599531174,-0.07279074192047119,0.0027454725932329895,-0.04372970387339592,0.09774044156074524,0.09014830738306046,-0.10805079340934754,-0.06466313451528549,-0.12386688590049744,0.11800447851419449,0.04965706914663315,-0.01697535812854767,-0.05330989882349968,-0.007227632217109203,0.08995676785707474,0.03956454619765282,-0.05194978043437004,-0.12594348192214967,0.01992730051279068,-0.01819656789302826,0.04562671110033989,0.020049534738063813,0.05135512351989746,0.07171094417572022,0.058305758982896808,0.042532917112112048,-0.005051093176007271,0.058012306690216067,0.08513890206813812,0.009389431215822697,0.05142265185713768,0.09602630138397217,-0.023774586617946626,-0.02026120014488697,0.07448223978281021,0.00034018332371488214,-0.009225279092788697,0.10826186090707779,0.09651665389537811,-0.040504250675439838,-0.043871618807315829,-0.08537552505731583,0.011359338648617268,-0.09129703044891358,-0.07678761333227158,0.12078707665205002,0.00817028246819973,0.08809704333543778,0.012446009553968907,-0.0776471346616745,-0.03727874904870987,0.0311990175396204,-0.033349212259054187,-0.002375916577875614,-0.033247336745262149,-0.0155815239995718,0.0800999328494072,-0.10276157408952713,-0.04532388597726822,0.11422121524810791,-0.0752640962600708,-0.09719675779342652,0.09652746468782425,-0.11685328185558319,0.004183122888207436,0.027781642973423005,-0.08526226133108139,0.10180111974477768,0.08070959150791168,-0.0402725413441658,-0.08607129007577896,-0.09308867901563645,-0.03467031195759773,0.09167349338531494,0.05768261104822159,-0.09539144486188889,0.07353951781988144,0.10606318712234497,0.11678063124418259,-0.09756244719028473,0.07095795124769211,-0.020812388509511949,0.021153274923563005,-0.004897335544228554,0.1055125743150711,0.032467614859342578,0.057027656584978107,-0.037271831184625629,-0.0754532590508461,-0.0025443793274462225,0.11731583625078201,0.09674583375453949,0.11839853972196579,0.08302825689315796,-0.04757117107510567,0.10568950325250626,-0.07937651127576828,-0.06067344918847084,0.01475521456450224,0.08407122641801834,0.034386973828077319,-0.02121591940522194,0.06759680062532425,0.01338969822973013,-0.09598930180072785,-0.011536224745213986,0.088238924741745,-0.07966715097427368,0.04509567841887474,0.0766790583729744,-0.0867409035563469,0.005928307306021452,-0.04926570504903793,0.0754469558596611,-0.10608919709920883,-0.11959384381771088,0.02347409911453724,0.048369184136390689,-0.02316368743777275,0.09311755746603012,-0.05909068137407303,0.11206143349409104,0.10935243219137192,0.07738029211759567,-0.06735669821500778,-0.09525793045759201,0.11083352565765381,0.07810398191213608,0.0033357080537825824,-0.062967948615551,-0.07792447507381439,-0.04810113087296486,-0.014957735314965248,0.006274396553635597,-0.043171416968107226,0.05132343992590904,0.05460566282272339,-0.1075429692864418,0.06803855299949646,0.08407499641180039,-0.03524893522262573,0.11896040290594101,-0.06302578747272492,0.044298768043518069,-0.10972073674201966,0.06790275126695633,0.011107373982667923,0.017941756173968316,-0.12521639466285706,-0.027503645047545434,-0.021138383075594903,0.09615865349769592,0.056775741279125217,-0.00010480447963345796,0.0827011689543724,0.027082618325948716,0.08984924852848053,-0.07681276649236679,0.04827949032187462,-0.04050269350409508,0.01217849925160408,-0.054792795330286029,0.009172331541776657,-0.12015368044376373,-0.04820731654763222,-0.11286859959363938,-0.05454420670866966,0.03561641275882721,0.09733723104000092,0.008226952515542508,0.07059033960103989,0.08924346417188645,0.057054221630096439,-0.06145248934626579,-0.07229309529066086,-0.01987333968281746,0.11537821590900421,-0.05791231244802475,-0.02646724320948124,-0.026532452553510667,0.05290807783603668,-0.03111695684492588,0.04494857043027878,-0.0015887611079961062,0.0996452197432518,-0.03765714168548584,-0.007152567617595196,-0.09644608199596405,0.036728620529174808,-0.11537683755159378,-0.08420315384864807,-0.034931764006614688,0.03904912620782852,0.11530043184757233,-0.06284911930561066,-0.10620888322591782,0.054643549025058749,-0.11385275423526764,0.09351775795221329,-0.06825889647006989,0.09062846750020981,-0.10614310950040817,-0.11501091718673706,0.10535941272974014,0.018939245492219926,0.013539009727537632,0.05875612795352936,0.047934725880622867,0.07432182133197785,0.04544873908162117,-0.046773288398981097,0.10378175973892212,-0.06985212117433548,0.09202385693788529,0.07846284657716751,-0.0659034252166748,0.08780413120985031,-0.12387401610612869,-0.10313862562179566,0.02518385462462902,0.09368664026260376,-0.04920714348554611,-0.055525220930576327,-0.0499892458319664,0.029239580035209657,-0.0614437572658062,0.006669853813946247,-0.0659363865852356,-0.011214248836040497,-0.03454286605119705,-0.08597397804260254,-0.07895199954509735,0.12348978966474533,-0.10642646253108978,-0.08787226676940918,0.0037795701064169409,0.08887749910354614,-0.11509028822183609,0.049622826278209689,0.08784717321395874,0.013678206130862236,0.08640516549348831,0.0004473738372325897,-0.08994456380605698,0.01880073919892311,0.10366679728031159,0.058081600815057757,0.11497073620557785,0.013424089178442955,0.09531950950622559,0.02383812889456749,-0.050028908997774127,0.061374273151159289,0.05795714259147644,0.032357439398765567,0.08017055690288544,-0.026736462488770486,0.06246098503470421,0.04067742079496384,0.10496446490287781,-0.01931234821677208,-0.07765638828277588,-0.037822723388671878,-0.1036425307393074,0.06531233340501785,0.061669524759054187,-0.040211621671915057,0.0492202565073967,-0.08456466346979141,-0.034755889326334,-0.05515704303979874,-0.1120678037405014,-0.012573158368468285,-0.09067361801862717,0.08232736587524414,0.07977425307035446,-0.014670062810182572,-0.07184694707393646,0.07568901777267456,0.007080255541950464,-0.07532640546560288,0.11079062521457672,0.045129209756851199,-0.020637312904000284,-0.10938223451375961,0.06805619597434998,-0.12153445929288864,0.11839397996664047,-0.09786732494831085,0.03630266711115837,0.07267831265926361,0.08757546544075012,-0.05352110043168068,0.10805277526378632,-0.04179559648036957,-0.09544280171394348,-0.02059756964445114,0.11463547497987747,-0.12062869220972061,-0.056828923523426059,0.07214637845754624,0.04171740263700485,-0.06624501198530197,0.08414406329393387,0.0350007489323616,-0.04792185127735138,-0.0453672856092453,-0.10140063613653183,-0.09068293869495392,0.06096025928854942,-0.055801209062337878,0.07748112827539444,0.07587134093046189,-0.09765191376209259,-0.08218161761760712,-0.008752500638365746,0.03978831321001053,-0.06424983590841294,-0.11726316809654236,0.07189223915338516,0.1011359691619873,0.01633632369339466,-0.01565628871321678,-0.04768228158354759,-0.05823870375752449,-0.06555243581533432,-0.08413912355899811,-0.07053203135728836,-0.03788946941494942,-0.08572306483983994,0.03628004714846611,0.10745669901371002,0.11638998985290528,-0.03137914836406708,0.07416556030511856,0.0017618103884160519,-0.06773744523525238,-0.011145580559968949,-0.0373220220208168,0.0466361939907074,-0.10541162639856339,0.07286006957292557,0.041195932775735858,0.06490861624479294,0.05656607076525688,-0.0953284353017807,0.013610436581075192,0.0896756500005722,0.048435334116220477,0.04406693950295448,-0.03402144834399223,-0.04629874974489212,0.01781606860458851,0.09170810878276825,0.09192544966936112,-0.046717312186956409,-0.10772664099931717,0.11792127788066864,0.01178219448775053,0.005944805219769478,0.10504578053951264,0.05046897754073143,-0.08034258335828781,-0.08674522489309311,0.10817987471818924,0.0036816869396716358,0.02548326551914215,0.035604819655418399,0.08428671211004257,0.0803147479891777,0.0636400356888771,-0.0522652342915535,0.07009625434875488,-0.04946446418762207,-0.10873238742351532,-0.0018344444688409567,0.0023033954203128816,0.032324448227882388,-0.08865832537412644,-0.07361357659101486,0.11192796379327774,-0.012564488686621189,-0.08527012169361115,-0.07409413158893585,0.01524343527853489,-0.027981603518128396,-0.12113906443119049,0.009096642024815083,-0.011821848340332508,-0.08519242703914643,0.08085087686777115,-0.0451597236096859,-0.0049200537614524368,0.0653129294514656,0.05792951211333275,0.09653713554143906,-0.10965687781572342,0.04851635918021202,-0.06280557811260224,0.09703819453716278,-0.006124166771769524,0.11624491214752197,-0.0660383477807045,-0.09583841264247894,-0.0520598404109478,-0.04057791084051132,0.0778278261423111,-0.053610414266586307,0.08528625965118408,-0.041917767375707629,-0.08342555910348892,0.0584244579076767,0.08574392646551132,-0.04740775004029274,0.1231653094291687,-0.03422790393233299,0.06444384157657623,0.1016484871506691,0.02360611967742443,-0.09828449040651322,-0.005435714963823557,-0.06663237512111664,0.059054914861917499,-0.11415392905473709,0.014243263751268387,-0.02636249177157879,0.07171514630317688,-0.03458680212497711,0.08845476806163788,0.12189354002475739,0.0954282134771347,-0.1009388267993927,-0.06265681236982346,-0.1134956032037735,0.11586041748523712,-0.07130590826272965,-0.06747128069400788,0.11322855949401856,-0.06413424015045166,-0.11171387135982514,-0.08368188142776489,0.08817280828952789,-0.07118015736341477,0.003509505419060588,0.011857423931360245,-0.08300266414880753,0.09390880912542343,-0.04288330301642418,0.018324142321944238,-0.03581233695149422,-0.03133253753185272,0.04126846417784691,-0.08418934047222138,0.07271917909383774,-0.11342383921146393,0.047652795910835269,-0.06458396464586258,-0.11747970432043076,0.05969589948654175,-0.026212193071842195,0.12346538156270981,0.1024198904633522,-0.09709880501031876,0.0945795327425003,0.0005895803333260119,-0.013693412765860558,0.024917837232351304,-0.06458908319473267,-0.07950808107852936,0.014480574987828732,0.0584164522588253,-0.06329815089702606,-0.028771599754691125,0.07571789622306824,-0.0658845379948616,-0.10913989692926407,0.03983420133590698,0.08757887035608292,0.10188942402601242,-0.08637890964746475,0.0663413405418396,-0.034895505756139758,0.10634736716747284,0.0890684649348259,-0.06642410904169083,-0.08631422370672226,-0.11906649172306061,0.11189798265695572,0.11589235812425614,-0.08075721561908722,0.09575802832841873,-0.08757460117340088,0.014073452912271023,0.11867880821228028,-0.023832252249121667,-0.00476601580157876,0.05180453881621361,0.013632500544190407,-0.014354459010064602,-0.0329664871096611,-0.010116265155375004,-0.014522088691592217,0.10157723724842072,-0.11353298276662827,0.09031511098146439,0.03213776275515556,-0.059646736830472949,-0.051446523517370227,-0.11390955001115799,0.09431470930576325,0.10826962441205979,-0.04272742569446564,0.08625732362270355,0.05612115561962128,-0.045941855758428577,-0.04387563839554787,-0.0812973827123642,-0.06861619651317597,0.023493941873311998,0.02386537939310074,0.025640860199928285,0.0027997130528092386,0.05337632820010185,-0.011152317747473717,-0.008196186274290085,0.034862417727708819,0.034257300198078158,-0.09056509286165238,0.10979153215885163,-0.04222823679447174,0.09892889857292175,0.029935620725154878,0.1038152202963829,0.009149105288088322,0.05228345841169357,0.06904950737953186,-0.028835946694016458,0.0340200699865818,0.00045773349120281637,-0.008491636253893376,0.04628261923789978,-0.00748587166890502,0.07434479147195816,0.04905865341424942,0.0625225305557251,-0.03683687373995781,0.09741510450839997,-0.05095600336790085,0.1144460067152977,-0.018037280067801477,0.007758523803204298,-0.11948075145483017,0.0794261246919632,0.09321907162666321,0.07242434471845627,-0.01819653995335102,0.006003599148243666,0.08136992156505585,-0.03254025802016258,0.05264543741941452,-0.11757583916187287,-0.07734954357147217,0.0019708331674337389,0.019198549911379815,-0.03419466316699982,-0.09968279302120209,0.05134379863739014,-0.04316932335495949,0.06724264472723007,0.020893028005957605,0.06448022276163101,-0.03161321207880974,-0.010635397396981717,0.04213383048772812,0.04803880676627159,0.06352520734071732,-0.10073420405387879,-0.08492076396942139,0.08653811365365982,0.07324941456317902,0.03537365421652794,0.06599131971597672,0.11606033146381378,0.0860748142004013,0.04237337410449982,-0.013552810996770859,0.021762555465102197,0.09048029035329819,0.07324427366256714,0.039307910948991778,0.08339649438858032,0.08528445661067963,-0.10733907669782639,-0.08952496945858002,-0.09122705459594727,0.07539261132478714,-0.0969112366437912,0.039033956825733188,-0.012549559585750103,0.11467795073986054,0.015659810975193979,0.05228104814887047,-0.06259345263242722,0.09981022775173187,-0.10628208518028259,0.07186666131019592,-0.09345713257789612,0.09398645907640457,0.04062676429748535,-0.10352837294340134,-0.08859404921531677,0.049914710223674777,0.11719124764204025,-0.11663366109132767,-0.11042863130569458,0.022751852869987489,-0.01146300882101059,-0.0956973284482956,-0.005133267026394606,-0.027131829410791398,-0.021007517352700235,0.09940333664417267,0.05562564730644226,0.04824522137641907,0.09555879235267639,-0.11521608382463455,0.04178420454263687,0.056834474205970767,0.06761956214904785,0.09524334967136383,-0.004290746990591288,0.055390384048223498,-0.007509327493607998,0.10535386204719544,-0.09559792280197144,0.0025705546140670778,-0.10103973001241684,-0.05929304286837578,0.010365455411374569,-0.11343339830636978,-0.044569190591573718,0.04561707004904747,0.00578948063775897,0.009575276635587216,-0.08460527658462525,-0.007247230038046837,-0.07310402393341065,0.10900354385375977,-0.06479193270206452,0.06895145773887634,-0.09027832001447678,0.07479936629533768,0.0063899802044034,-0.0871063619852066,0.09640305489301682,0.0147724449634552,0.009587729349732399,-0.04393138736486435,-0.03567371889948845,0.008476446382701397,-0.033280499279499057,0.0011831197189167142,0.08970680087804795,-0.02376289665699005,-0.12612299621105195,0.06467218697071076,0.07994678616523743,0.007614981848746538,0.10213040560483933,0.10536698997020722,-0.0991012379527092,0.10962817817926407,-0.026076624169945718,-0.09881177544593811,0.10799814760684967,0.08717126399278641,-0.06080077216029167,-0.06786099821329117,0.06772761046886444,-0.012179640121757985,-0.09129387885332108,-0.10959562659263611,0.07885470241308212,-0.01722494699060917,-0.046362459659576419,0.029613418504595758,-0.062321364879608157,0.08468224853277207,-0.012029912322759629,0.1229192465543747,-0.0077238972298800949,-0.08303314447402954,-0.10353266447782517,0.03780687227845192,-0.021792974323034288,-0.05770399421453476,-0.10611318051815033,0.05720129981637001,0.012742800638079644,-0.007566101383417845,-0.006766726262867451,-0.04673146829009056,0.104390949010849,0.019753403961658479,0.07719134539365769,0.020536908879876138,-0.036436475813388827,-0.037086598575115207,0.033778492361307147,-0.07424570620059967,-0.08596707880496979,-0.049802716821432117,-0.04943730682134628,-0.07543565332889557,-0.03703605756163597,-0.07016223669052124,-0.009499738924205304,0.03286563977599144,0.0359564945101738,-0.055762410163879397,-0.07352059334516525,0.11046326905488968,-0.05424751341342926,-0.10163839161396027,0.10769706219434738,0.04875069111585617,-0.09207738190889359,0.09652741998434067,-0.01167983002960682,-0.0653938502073288,-0.08175875246524811,-0.008834205567836762,-0.12391609698534012,0.030066920444369317,-0.019312696531414987,-0.09196924418210983,-0.09212663769721985,0.01775652915239334,0.07193448394536972,-0.12386646121740341,0.09180141240358353,0.01642247661948204,0.09254472702741623,0.03564400225877762,-0.029200073331594468,-0.03361372649669647,0.0888376384973526,-0.059296056628227237,-0.05896874889731407,0.04692075774073601,0.012150200083851815,0.01662890985608101,0.07719478756189347,-0.017402654513716699,0.0037042126059532167,0.002943468512967229,-0.017376765608787538,-0.055371250957250598,-0.09576351195573807,-0.05778660252690315,0.027104146778583528,0.03704451024532318,-0.015687687322497369,-0.02528807334601879,0.10375851392745972,0.09053713828325272,0.10726001858711243,0.030149485915899278,0.028802964836359025,0.10382130742073059,0.016406338661909105,-0.10519880801439285,0.016942637041211129,-0.07973887026309967,-0.04923705384135246,0.03874814882874489,0.09549377858638764,-0.09877204895019531,-0.024622345343232156,0.03970268741250038,0.12383247911930084,-0.04426280036568642,0.08693022280931473,-0.04281630739569664,-0.1198422834277153,-0.07701050490140915,0.024401631206274034,-0.011538873426616192,0.09327320009469986,-0.09003164619207382,-0.045227959752082828,-0.07603719085454941,0.06062508374452591,0.05281210318207741,0.010710561648011208,0.0005193172255530953,-0.09659692645072937,-0.063543401658535,0.044893115758895877,0.002971403067931533,-0.03614267334342003,0.10155797749757767,-0.011590812355279923,-0.05169306695461273,0.10252685844898224,0.0732409730553627,0.10515648871660233,-0.04836001992225647,-0.020807335153222085,-0.08042864501476288,0.12399239838123322,-0.10838956385850907,-0.06993270665407181,0.033261243253946307,-0.08591929078102112,0.014775487594306469,-0.10277226567268372,-0.008242372423410416,-0.023770347237586976,0.004421500954777002,-0.038412049412727359,0.032287757843732837,0.029815183952450753,0.036501478403806689,0.015745587646961213,0.10826072096824646,0.0926160141825676,0.027161460369825364,0.03685881569981575,-0.00932083185762167,-0.10153651982545853,-0.10810163617134094,0.01394282653927803,-0.0005804479005746543,0.11307493597269058,-0.06825992465019226,-0.043509408831596377,0.015101689845323563,-0.12253647297620774,-0.10778966546058655,-0.05135180056095123,0.08467905223369599,0.021746808663010598,-0.08294229954481125,0.06879135966300965,0.011038638651371003,0.06842636317014694,0.001237565535120666,-0.08656120300292969,0.1013493537902832,-0.1023087203502655,0.01614743284881115,-0.08025378733873368,-0.08631402999162674,-0.011949446052312851,0.0031136043835431339,-0.11515817791223526,0.03120705485343933,0.09424970299005509,0.021167155355215074,0.09054984152317047,-0.08839710801839829,-0.03115278109908104,-0.032153308391571048,-0.04121750593185425,-0.05709322541952133,-0.03813965618610382,0.011752383783459664,0.0033536602277308704,0.007192088756710291,-0.025392264127731324,-0.06150459125638008,-0.02192460373044014,0.07263828068971634,0.12458626180887222,-0.09679912775754929,-0.04822895675897598,-0.006811325903981924,0.1055239662528038,-0.04610777646303177,-0.005880334414541721,0.05382116511464119,-0.05818396806716919,0.04177303984761238,-0.11425790190696717,-0.03067983314394951,0.021792719140648843,0.01797124743461609,0.0034501601476222278,-0.11819488555192948,-0.013263802975416184,0.05009554326534271,-0.09538116306066513,-0.097718745470047,-0.014184979721903801,-0.01901228353381157,-0.09256209433078766,0.07797066122293472,0.07888135313987732,-0.035519398748874667,-0.1164737120270729,-0.0621100515127182,-0.03376694768667221,0.03882616013288498,-0.022287754341959955,0.1173955574631691,-0.09297347068786621,-0.010441127233207226,-0.11068122088909149,-0.07480849325656891,0.06145714595913887,0.12080323696136475,-0.07682336866855622,0.09898226708173752,-0.10709287226200104,-0.11570386588573456,0.058476001024246219,-0.03459806367754936,-0.07231668382883072,0.04015561193227768,-0.038730550557374957,-0.01803789660334587,0.05406487360596657,-0.11610786616802216,-0.077582947909832,-0.022113721817731859,-0.06110791489481926,0.03263093903660774,0.012283595278859139,-0.03189712017774582,0.03996341675519943,-0.06746949255466461,0.06540340185165405,-0.053718071430921558,0.10647302120923996,0.07472305744886399,-0.02407456561923027,0.11637955904006958,0.11372756958007813,0.010077114216983319,-0.04330015182495117,-0.04446032643318176,0.028422867879271508,-0.06355326622724533,0.10269366204738617,-0.0900513231754303,-0.1089855432510376,0.0019380237208679319,0.08933140337467194,0.0724596455693245,0.023820478469133378,-0.09577625244855881,-0.12209250032901764,0.07194263488054276,-0.06388302892446518,0.06272601336240769,-0.11235687881708145,-0.08073561638593674,0.07439769059419632,-0.0054060169495642189,0.10399585217237473,-0.026303643360733987,0.06878173351287842,0.03306117281317711,0.039456602185964587,0.11776905506849289,-0.016095083206892015,-0.10975342988967896,0.08849174529314041,-0.02397899143397808,0.017725162208080293,0.01811770722270012,-0.0018708007410168648,0.11141122132539749,0.009653429500758648,-0.07371937483549118,-0.11264341324567795,-0.06366939097642899,0.03264058008790016,0.07116607576608658,0.0598919652402401,0.08681996911764145,-0.0900912880897522,-0.04872887581586838,-0.11518948525190354,-0.11608972400426865,0.11762355268001557,-0.03284353390336037,-0.046510737389326099,0.10063085705041886,-0.056028541177511218,0.10275287926197052,-0.053889576345682147,0.1041644737124443,0.11539819836616516,-0.0018475429387763143,-0.08955951780080795,0.020227039232850076,0.10631542652845383,-0.12127608805894852,0.02418064884841442,-0.05813117325305939,0.12177462875843048,0.0022757225669920446,-0.05429580807685852,0.014836682006716729,0.015380194410681725,-0.06949659436941147,0.1207723468542099,0.051877498626708987,0.07983020693063736,-0.04045885428786278,-0.07216186821460724,0.037431713193655017,0.016718318685889245,-0.11315564066171646,0.10553063452243805,0.002906876616179943,0.10882413387298584,-0.07329200208187103,-0.039423055946826938,0.056140098720788959,-0.11932481825351715,-0.04967650771141052,0.09480128437280655,-0.05212415009737015,0.07665994018316269,0.049159448593854907,-0.004281338769942522,0.0407990962266922,0.0557827427983284,-0.09162312000989914,-0.08873425424098969,0.10559505224227905,0.10240635275840759,-0.11128175258636475,0.10955337435007096,0.08079932630062103,0.11730383336544037,0.10420235991477967,-0.024853931739926339,-0.10566617548465729,0.07495769113302231,-0.02749485708773136,-0.04496421664953232,-0.03376142680644989,0.1093745306134224,0.0032124295830726625,0.11468072235584259,0.09101398289203644,-0.08907034248113632,-0.0019782090093940498,0.08450453728437424,-0.11664582043886185,0.10328202694654465,0.040478456765413287,-0.02209126017987728,-0.10811886936426163,-0.07467135041952133,-0.053964242339134219,0.007508943788707256,-0.06144682317972183,0.09669989347457886,-0.08815710246562958,-0.10743527114391327,-0.05899229645729065,-0.12270230054855347,-0.12254680693149567,-0.012632775120437146,-0.048976294696331027,0.09124760329723358,0.118104949593544,-0.11435487121343613,0.0061790114268660549,-0.05409142002463341,-0.022424990311264993,-0.11948714405298233,-0.007314001210033894,0.06468242406845093,-0.10641317069530487,-0.10959916561841965,0.04584328830242157,-0.0019147158600389958,0.009672213345766068,0.02914612367749214,-0.04650130867958069,0.03153259679675102,-0.05966554209589958,0.021901659667491914,-0.10004052519798279,-0.0037085125222802164,0.0073542348109185699,-0.1196294054389,-0.05592161789536476,-0.0800795629620552,-0.07801511138677597,-0.03920903429389,0.020293742418289186,-0.06722694635391236,0.05232587084174156,0.07613430917263031,-0.03976309671998024,-0.05331818386912346,0.021063726395368577,-0.028754783794283868,0.045576415956020358,0.0004667578323278576,-0.06090138852596283,-0.043705787509679797,-0.028309574350714685,0.012165388092398644,-0.055885493755340579,-0.09276703745126724,-0.058598972856998447,0.09059370309114456,0.05024796351790428,0.07499025017023087,-0.07151275128126145,0.016921516507864,0.0871562510728836,0.022312751039862634,0.10606347769498825,0.05821328982710838,-0.1094600036740303,0.11679574102163315,0.03202136605978012,0.08306536078453064,0.023385684937238694,-0.1125866249203682,-0.12194492667913437,0.09204995632171631,-0.04729564115405083,0.07513754814863205,-0.10514495521783829,-0.011698135174810887,-0.07352141290903092,-0.055093906819820407,-0.008137596771121025,-0.014080195687711239,-0.018888045102357866,-0.001751994714140892,0.06114254146814346,0.028144795447587968,-0.06004459410905838,-0.07473298162221909,-0.08168601244688034,0.1241283044219017,-0.015282811596989632,-0.09634736180305481,0.030987095087766649,0.0067742434330284599,-0.10214854031801224,0.007089239079505205,0.011211377568542958,-0.0059394799172878269,0.0015788895543664694,0.03922436758875847,-0.016896018758416177,-0.032504260540008548,0.015498008579015732,-0.0588730052113533,0.05019572377204895,0.008055638521909714,0.01141155231744051,-0.052985526621341708,-0.057393305003643039,0.062413979321718219,-0.0737127959728241,-0.0003846277832053602,-0.004325969144701958,0.028505686670541765,-0.05437619984149933,0.07063928991556168,0.014988327398896218,-0.11246631294488907,-0.08240124583244324,0.06414859741926193,-0.04744526371359825,-0.06762974709272385,-0.12193941324949265,-0.09274499863386154,-0.03792063519358635,0.06269693374633789,0.1036539301276207,0.10104609280824661,0.10580269247293472,0.05308207869529724,0.0442352220416069,-0.04464446008205414,-0.06821348518133164,0.12360431253910065,-0.0005131896468810737,-0.09988520294427872,0.10236827284097672,-0.1107272356748581,0.02508426643908024,0.0685177817940712,-0.04952866584062576,-0.1228562667965889,-0.0611584298312664,0.03899946063756943,-0.0704595223069191,-0.0032888418063521387,0.09787862002849579,-0.07363419979810715,-0.03404523804783821,-0.0742194876074791,-0.008939864113926888,0.041978027671575549,0.051440656185150149,-0.06006738916039467,-0.02917519211769104,0.03562963381409645,-0.01805107481777668,0.03483283147215843,-0.057053323835134509,-0.09975536912679672,0.013416721485555172,-0.1223679706454277,0.09496832638978958,-0.121589794754982,0.057463910430669788,-0.08747164160013199,-0.015938004478812219,0.05840118229389191,0.019604593515396119,-0.02214641124010086,-0.05964891240000725,-0.031029989942908288,0.06645393371582031,0.07924948632717133,0.07676932960748673,-0.02008182927966118,-0.047355975955724719,0.11442369967699051,-0.07131343334913254,-0.11216346174478531,0.11717874556779862,-0.04743526130914688,0.11478359252214432,-0.047749996185302737,0.014830273576080799,-0.053848810493946078,-0.04677028954029083,0.007726946379989386,-0.12150025367736817,0.003194887423887849,-0.0982832983136177,0.09612346440553665,-0.028803523629903795,-0.1008189395070076,0.020622920244932176,-0.015620697289705277,-0.0773053914308548,-0.033127546310424808,-0.08487336337566376,-0.04057716950774193,-0.08096359670162201,-0.10598433762788773,0.08540839701890946,0.09402861446142197,-0.07861067354679108,-0.09556256979703903,0.11124756932258606,-0.07802484184503555,-0.11178596317768097,0.03342992812395096,0.006099688354879618,-0.07852842658758164,-0.04252281412482262,-0.016817376017570497,0.038890644907951358,-0.04919397085905075,0.03620743378996849,0.037916991859674457,-0.010548626072704792,0.027943328022956849,0.05951608717441559,-0.07292947173118592,-0.08746884018182755,0.11267391592264176,-0.020886961370706559,-0.09835545718669892,0.12540948390960694,0.0041280388832092289,-0.09486199915409088,-0.09821294993162155,-0.11205530911684036,-0.08724352717399597,0.059157390147447589,-0.019561007618904115,-0.1019950583577156,-0.05193840339779854,-0.1109713464975357,-0.0005607096827588975,-0.09148439764976502,0.04963686317205429,0.1051536276936531,-0.042004115879535678,0.08506394922733307,0.12249577045440674,0.03028680384159088,-0.09804661571979523,0.011272961273789406,-0.11091047525405884,0.02281784638762474,-0.008652884513139725,0.05001941695809364,-0.010656745173037053,0.10300464928150177,0.037248991429805759,-0.07026366889476776,0.05137675628066063,0.08799340575933457,0.07614507526159287,0.024580281227827073,-0.07749909907579422,-0.11148443818092346,0.07221601158380509,-0.04691445454955101,0.03922625631093979,-0.07855939120054245,-0.0637630745768547,0.07397022098302841,-0.045798033475875857,-0.1012384369969368,-0.002645220374688506,0.07378074526786804,0.028944505378603936,-0.013177146203815937,-0.07798716425895691,-0.037704844027757648,0.09358566254377365,0.06850361824035645,0.06657800078392029,0.08732917904853821,-0.00684615271165967,-0.0367351770401001,-0.02868928760290146,-0.019029194489121438,0.11221970617771149,0.0016134880715981126,-0.06389004737138748,0.022024014964699746,-0.05201715975999832,0.08792662620544434,0.022417983040213586,0.02678091824054718,0.11252600699663162,-0.06391160190105438,0.06969989836215973,-0.021372249349951745,0.014092467725276947,-0.005913767032325268,-0.07899019867181778,0.11844733357429505,-0.05598609894514084,-0.06006881222128868,0.056294530630111697,-0.09687460213899613,-0.09872712939977646,0.10223878920078278,0.037187375128269199,-0.09853217005729675,-0.05637683719396591,0.09014685451984406,0.10369628667831421,0.02559334598481655,0.0048979343846440319,-0.12214367836713791,-0.009249581024050713,0.04141870513558388,-0.02771858125925064,-0.05835592746734619,0.041060179471969607,0.0934448167681694,-0.018679380416870118,0.029834339395165445,-0.021908966824412347,0.03459635004401207,0.06889452040195465,-0.11267603933811188,-0.06673998385667801,-0.035776618868112567,0.10269632190465927,-0.023983290418982507,0.001634111744351685,0.0035540445242077114,-0.04217413440346718,0.049178171902894977,0.10816680639982224,-0.01960732787847519,0.12020094692707062,0.03190172091126442,0.03594232350587845,-0.03121931105852127,-0.09977184981107712,0.05590884014964104,0.0007553129107691348,-0.0038623816799372436,0.052147626876831058,0.0021649040281772615,-0.08057542145252228,0.08645133674144745,-0.013291670009493828,-0.021443810313940049,0.08520583063364029,0.10841196775436402,-0.028573013842105867,-0.08151768147945404,0.043372198939323428,0.09972955286502838,0.061097171157598498,0.07676135003566742,-0.041851457208395007,0.07091528922319412,-0.01909518428146839,0.07419153302907944,-0.03052147850394249,0.07546228915452957,-0.039483893662691119,0.06139693409204483,0.08330035954713822,0.03592543676495552,-0.11733721941709519,0.0072154514491558079,0.08651354163885117,-0.019183462485671045,0.028808588162064554,-0.10747493803501129,0.0050226841121912,-0.09571578353643418,0.10181446373462677,-0.02315785177052021,-0.0021318907383829357,0.05808911472558975,0.044719498604536059,-0.09021370112895966,-0.1124999150633812,-0.006279176566749811,0.06634253263473511,0.062365464866161349,0.047885458916425708,0.05621080473065376,-0.023832228034734727,0.03329486772418022,0.11689434945583344,-0.019512511789798738,0.04265405237674713,-0.0642738938331604,-0.12297984957695008,0.10034934431314469,-0.018167730420827867,0.027988629415631295,0.1114295944571495,-0.03896128013730049,-0.08708123117685318,0.06420908868312836,-0.06776179373264313,0.12029440701007843,-0.07148490101099014,-0.054214995354413989,-0.043625179678201678,-0.03778970614075661,-0.04183825105428696,-0.057906534522771838,-0.07915785908699036,0.1083916500210762,-0.08049868792295456,-0.0007901052595116198,0.09124977141618729,0.09031960368156433,0.059628888964653018,-0.012849604710936547,-0.07565848529338837,-0.0032623803708702327,-0.010334051214158535,0.06829435378313065,-0.11252135038375855,-0.12380421161651612,-0.08804703503847122,-0.10369425266981125,0.05152149125933647,-0.023293349891901017,-0.07453781366348267,0.10564380884170532,-0.040096402168273929,-0.029089976102113725,-0.11170602589845658,0.0956495851278305,0.03557616472244263,-0.06572429090738297,-0.06334979087114334,-0.060973528772592548,-0.05877702683210373,0.09966547787189484,0.09226886183023453,-0.02047978900372982,0.08472271263599396,-0.05247414484620094,-0.09507011622190476,-0.03644965589046478,0.0786755234003067,0.013173138722777367,0.1023658737540245,0.08776282519102097,-0.01719927042722702,-0.10121753811836243,-0.0017183369491249323,-0.0512983500957489,0.012999733909964562,-0.05678408220410347,-0.09102042019367218,0.025027377530932428,-0.02840498462319374,0.08017478138208389,0.034280527383089069,-0.12370626628398895,-0.042769063264131549,0.04217767342925072,0.08215048164129257,0.002903626300394535,0.016347739845514299,-0.0657198429107666,-0.11092144250869751,-0.08090413361787796,-0.04821203276515007,0.07442422956228256,-0.057126618921756747,-0.09700610488653183,-0.11289942264556885,0.051354117691516879,-0.0009824838489294053,-0.034009747207164767,0.015679627656936647,0.106754831969738,-0.025723131373524667,-0.04478874057531357,0.07483403384685517,-0.04568609967827797,0.04062258452177048,0.00805575493723154,-0.038529254496097568,0.10700172185897827,-0.04620040953159332,0.06488826125860214,0.028136368840932847,0.12020996958017349,0.019442616030573846,0.10427071899175644,0.09553970396518707,-0.03406577184796333,0.07274273037910462,0.06518163532018662,0.045923106372356418,-0.07494606822729111,-0.11153819411993027,0.03888831287622452,-0.02696644701063633,0.09172583371400833,0.09410348534584046,-0.023609092459082605,0.002722421195358038,-0.10683804750442505,0.009776271879673005,0.05203012377023697,-0.05306767299771309,0.02042381837964058,-0.043728653341531757,-0.053481608629226688,0.07603698968887329,-0.10839235037565232,-0.0465630441904068,0.013825290836393834,0.071736179292202,-0.0006584298680536449,0.08829265087842941,-0.06628987193107605,0.03736432269215584,0.03283589333295822,0.012357481755316258,-0.04483478516340256,-0.08496139943599701,-0.10917890071868897,0.014255828224122525,0.037312112748622897,0.10393178462982178,0.004551481921225786,-0.019811509177088739,0.11929546296596527,-0.058829475194215778,-0.06372304260730744,0.07352634519338608,-0.02993782050907612,0.014080380089581013,-0.03996942937374115,0.05552258715033531,0.12092223018407822,-0.04507697746157646,-0.06625787168741226,-0.10555531829595566,0.057222526520490649,0.11301634460687638,0.05019073560833931,-0.021474739536643029,0.10000008344650269,0.10204827785491944,-0.10751175135374069,0.013240214437246323,0.044833142310380939,-0.11079014837741852,-0.07401705533266068,-0.02192249707877636,-0.059689443558454517,0.0835232064127922,0.052906908094882968,-0.0494900606572628,0.09282843768596649,0.005106940865516663,0.11989109963178635,-0.12337129563093186,0.12090281397104263,0.1102999746799469,-0.07461755722761154,0.0626387745141983,0.003136170795187354,-0.05782880261540413,0.044858261942863467,0.08704089373350144,0.06507258862257004,0.026969408616423608,0.044726282358169559,0.024500856176018716,0.017696954309940339,-0.10047978162765503,-0.11115527153015137,0.03734962269663811,-0.07918628305196762,-0.005119810812175274,0.10129634290933609,0.09605848789215088,0.08571697771549225,0.07833942025899887,-0.0564173087477684,0.11621760576963425,-0.028833763673901559,-0.1082896962761879,0.014945322647690773,0.02198214642703533,0.09498122334480286,-0.03696160018444061,-0.07163484394550324,0.11019808799028397,0.02524687722325325,-0.05157555639743805,0.12198378890752793,0.009080329909920693,-0.034513652324676517,-0.11068552732467652,0.08882670104503632,-0.01616150327026844,0.09840752184391022,0.09946513175964356,-0.01959970034658909,0.10596125572919846,-0.061678025871515277,0.06495890021324158,0.10023631155490875,-0.04873396083712578,-0.11319420486688614,-0.11270710080862045,-0.05329274386167526,-0.04871600121259689,0.033460646867752078,0.021562688052654268,-0.05278656631708145,0.08594060689210892,-0.10878933221101761,-0.10675519704818726,0.010880201123654843,0.03517292067408562,-0.09590518474578858,-0.1201184093952179,0.045579083263874057,-0.08356233686208725,-0.004407249856740236,-0.07176468521356583,0.05476139485836029,0.0018031243234872819,0.08484423905611038,0.11827389150857926,0.07195112854242325,0.06272323429584503,-0.03867544233798981,-0.0719129890203476,0.00045389230945147574,-0.03633839637041092,-0.07082866132259369,0.08820655196905136,-0.08059660345315933,0.060289397835731509,-0.026347214356064798,-0.004722260870039463,0.059907928109169009,0.0035985989961773159,0.09073751419782639,0.02966049499809742,0.002761473646387458,-0.02934427373111248,-0.10660503059625626,-0.09184282273054123,0.12654441595077516,-0.013067469000816346,0.05041663348674774,0.06068424880504608,0.09962231665849686,0.09965791553258896,0.07346879690885544,0.11568427830934525,-0.10179807245731354,0.07087232917547226,-0.0789252445101738,-0.08707493543624878,0.08313319087028504,-0.11317075043916702,-0.08252253383398056,0.09711216390132904,-0.07366736233234406,0.08692551404237747,0.11777668446302414,0.052973583340644839,0.026724014431238176,-0.07191164046525955,-0.06406889110803604,-0.08383829146623612,-0.060665637254714969,-0.05816863477230072,0.05490407347679138,-0.07506273686885834,0.08292283862829209,0.11016988009214401,-0.1160300150513649,-0.021062251180410386,0.029336338862776758,0.05244733393192291,-0.03484145924448967,0.08566447347402573,0.06409567594528198,-0.046144891530275348,0.10063397139310837,-0.042043667286634448,-0.038057733327150348,0.06956613063812256,0.0985257551074028,0.031400416046381,0.07413946092128754,0.07620067894458771,0.032840780913829806,-0.016420528292655946,0.1263490468263626,-0.023701393976807596,0.05727289617061615,0.05729077756404877,-0.014214253053069115,-0.11179156601428986,-0.07638322561979294,-0.04849550500512123,-0.05479314550757408,-0.08164823055267334,-0.06002553924918175,0.08607843518257141,-0.10416221618652344,0.12444254010915756,-0.056582480669021609,-0.06908105313777924,0.048820849508047107,-0.09431391209363938,-0.020244242623448373,0.05502491071820259,0.08911425620317459,0.016590986400842668,0.0034530824050307276,-0.0894683450460434,0.00021208413818385452,-0.0063367681577801708,0.05529908090829849,0.10019382834434509,-0.09450167417526245,-0.027392122894525529,0.06691315770149231,0.027364786714315416,0.12019846588373184,-0.04855731874704361,-0.060110002756118777,0.06317667663097382,0.046570148319005969,0.12251199781894684,-0.05257410183548927,-0.06690166890621185,-0.11275054514408112,0.10465440899133682,-0.01678922027349472,0.01841331273317337,-0.011448689736425877,0.08993545919656754,0.05981576815247536,0.12288177758455277,0.01661689393222332,0.12224439531564713,0.018085241317749025,-0.03305220976471901,0.07828165590763092,-0.04048542305827141,-0.045045796781778339,0.01075694989413023,-0.03195034712553024,0.041985202580690387,-0.042268916964530948,0.05074407532811165,-0.08832352608442307,-0.08418359607458115,-0.05522901937365532,-0.053543571382761,0.07176677882671356,0.03982449322938919,-0.057697445154190066,-0.002410681452602148,0.025025110691785814,-0.09227678179740906,-0.09792155027389527,0.04233527556061745,0.00032578143873251975,0.11194165796041489,0.023801421746611596,-0.0012263825628906489,-0.07928315550088883,-0.04848723113536835,-0.09736426919698715,0.07616519182920456,0.01873461715877056,-0.11988189071416855,-0.031634487211704257,-0.09277090430259705,-0.1093924269080162,0.050017476081848147,0.002500033238902688,0.05021524429321289,-0.03348991274833679,-0.013290629722177983,0.05975279584527016,-0.012220301665365696,0.11158960312604904,-0.080516017973423,0.10249332338571549,0.08899589627981186,-0.04094265028834343,-0.03460884094238281,-0.07300416380167008,0.07439128309488297,0.055508047342300418,-0.09436062723398209,-0.03475639596581459,-0.06663248687982559,-0.10119955986738205,-0.06376168876886368,-0.010941928252577782,0.12018740177154541,-0.0490197129547596,0.04485573247075081,-0.09992047399282456,-0.03829574212431908,0.0018407620955258608,-0.06573566794395447,-0.043672818690538409,-0.09576529264450073,0.019378215074539186,-0.09332275390625,-0.09106448292732239,0.061654798686504367,0.01769884303212166,-0.05889006704092026,0.02360905148088932,-0.11565254628658295,-0.03974901884794235,-0.10518828779459,-0.023126358166337014,-0.11844724416732788,-0.048695556819438937,0.01748296618461609,-0.09675736725330353,-0.013551821932196617,0.0708538293838501,-0.007107380777597427,0.04242955520749092,0.06327736377716065,0.0709243193268776,-0.022761104628443719,-0.05816001445055008,-0.06209688261151314,0.016465863212943078,-0.029367024078965188,-0.013002831488847733,0.007143802009522915,-0.11094676703214646,-0.03739503026008606,-0.11605765670537949,-0.00792589783668518,0.018626226112246515,0.0013075281167402864,0.10633912682533264,-0.08039455860853195,0.06171450763940811,0.02038222923874855,-0.04916686937212944,0.049161236733198169,0.037776727229356769,0.07149165123701096,-0.019389620050787927,-0.0317663699388504,0.10926896333694458,0.06496431678533554,0.1041325256228447,-0.11601687967777252,0.12512776255607606,-0.06960806250572205,-0.09249243140220642,0.07715678960084915,0.06851762533187866,0.06778351217508316,-0.10402964800596237,0.07295749336481095,-0.004113025031983852,-0.08961928635835648,0.0930015966296196,0.09538845717906952,-0.02122322842478752,-0.11789260804653168,-0.045143768191337588,-0.08080577105283737,0.11850886791944504,0.09167362004518509,0.0791344866156578,-0.037444524466991428,-0.025907989591360093,-0.04553243890404701,0.003553884569555521,0.08467467129230499,0.007807934191077948,0.032646544277668,0.05664392560720444,-0.04456183686852455,-0.007687259931117296,0.010310264304280281,0.016912756487727166,0.06020142883062363,-0.028537804260849954,-0.0022807957138866188,0.06294141709804535,-0.07216358184814453,-0.07193976640701294,-0.05791173875331879,-0.09248005598783493,0.05384654551744461,0.009531673975288868,0.06275420635938645,0.06542779505252838,0.10275232046842575,0.0024056059774011375,0.10770032554864884,-0.06620759516954422,-0.041147202253341678,0.12251631915569306,0.03660019114613533,0.058182112872600558,-0.010490480810403824,0.05868269503116608,0.05464373156428337,0.022246284410357477,0.005421759095042944,-0.04121480509638786,-0.03214437514543533,-0.12242331355810166,0.04668893292546272,0.10582206398248673,0.0318206250667572,-0.041446633636951449,0.08710503578186035,-0.11023059487342835,0.09137388318777085,-0.012529350817203522,0.08690884709358216,0.11128952354192734,-0.029949018731713296,0.03421768173575401,0.049240753054618838,-0.10759370774030686,0.06355704367160797,-0.05697460100054741,-0.06547553092241287,0.09239025413990021,-0.009011922404170037,0.06314299255609513,0.06725217401981354,-0.06130976602435112,-0.12438144534826279,0.011876747012138367,-0.04618268460035324,-0.07618147879838944,0.07158725708723068,-0.07399169355630875,-0.07616616040468216,-0.1051546260714531,-0.010037488304078579,0.10447663068771362,-0.0009468011558055878,0.09969644993543625,-0.053838662803173068,-0.07062066346406937,0.0067327008582651619,0.08349989354610443,0.04174370318651199,0.03302537649869919,0.06867951154708862,-0.06711979955434799,-0.11273477226495743,0.019272321835160257,0.0017217809800058604,-0.10563738644123078,0.08728187531232834,-0.012824354693293572,-0.06341583281755448,0.0645122230052948,-0.09895958751440048,0.11652429401874542,-0.07407236099243164,-0.0793377161026001,0.048561204224824908,-0.12459398806095123,-0.02093753032386303,-0.08521869778633118,0.10999506711959839,-0.0004579983069561422,-0.015759434551000596,0.056990452110767367,-0.07464656233787537,-0.11995871365070343,-0.046739183366298679,-0.11605419218540192,0.05531442165374756,-0.10290025919675827,0.08735621720552445,-0.06166013702750206,0.018699126318097116,-0.088703453540802,0.11707433313131333,-0.09290840476751328,0.003681136993691325,0.11448439955711365,-0.08284127712249756,-0.08365952968597412,-0.10756263136863709,-0.06544186919927597,-0.06329835206270218,0.07302295416593552,0.011861833743751049,0.04556566849350929,-0.03722292557358742,0.046248868107795718,0.10672260820865631,-0.007811063434928656,-0.10376867651939392,-0.09431087225675583,-0.03160449117422104,0.09101075679063797,0.11302290856838227,-0.0947323590517044,0.030967166647315027,0.04362327232956886,-0.1218535453081131,0.0632653534412384,0.11609384417533875,-0.05536314472556114,0.04301490634679794,0.026219390332698823,-0.0013666334562003613,0.10778443515300751,0.08115201443433762,-0.024540528655052186,-0.08432479202747345,-0.018119538202881814,0.04000770300626755,-0.0992785319685936,-0.12191327661275864,-0.09720249474048615,0.10810904204845429,0.11831850558519364,-0.11759695410728455,0.07827059179544449,-0.01665564626455307,0.11670263111591339,-0.08928343653678894,0.04208894446492195,-0.007362845353782177,-0.03635313734412193,-0.0778622254729271,-0.07890830934047699,0.10481635481119156,-0.11012711375951767,0.09524007141590119,-0.06445354968309403,0.01946590282022953,0.0618039034307003,0.08119319379329682,0.0059474799782037739,0.02642381750047207,0.07465069741010666,0.07349396497011185,0.02767350524663925,-0.06876502186059952,-0.08131500333547592,0.10793198645114899,0.0252334326505661,0.011373587884008885,0.014893847517669201,-0.043663140386343,0.10553417354822159,-0.06205325573682785,-0.040225256234407428,-0.05481703579425812,0.0050131892785429958,-0.009860824793577195,-0.04386551305651665,-0.020946508273482324,-0.02896217815577984,0.026362918317317964,0.0951356515288353,0.010493682697415352,0.12182505428791046,0.06324537843465805,0.08221045136451721,0.09663493931293488,-0.10180336236953736,-0.048687033355236056,0.028556393459439279,0.07875826209783554,0.014571906998753548,-0.03616402670741081,0.092110276222229,-0.0785277709364891,0.06908337026834488,-0.06887836009263993,0.10895439237356186,0.10698138177394867,-0.08739592880010605,-0.010211614891886711,-0.11189287155866623,0.05243654549121857,-0.03922780975699425,-0.12357401102781296,-0.11638164520263672,-0.11259102076292038,-0.014652715064585209,-0.051134780049324039,0.1010248139500618,-0.03884663060307503,0.12162706255912781,-0.0770820751786232,0.10135696828365326,0.08215810358524323,-0.10400258004665375,0.006866356357932091,0.0826316848397255,0.0115153007209301,0.03826645761728287,-0.004364904016256332,-0.016443658620119096,0.019434640184044839,0.031134696677327157,-0.08229373395442963,0.013539417646825314,0.058926306664943698,-0.06032558158040047,0.02928765118122101,0.11161742359399796,0.11011192202568054,-0.07859735935926438,0.052120666950941089,-0.04951508343219757,-0.1083056628704071,0.011433160863816738,-0.06847140192985535,-0.09693557769060135,-0.029763348400592805,0.05204702913761139,-0.03839418664574623,-0.12253077328205109,-0.04369839280843735,0.0032628572080284359,-0.07351213693618775,-0.10370054841041565,0.10732907801866532,0.0180374626070261,0.010128747671842575,0.07161592692136765,0.10169225186109543,0.11756441742181778,0.04315420240163803,-0.0729648768901825,0.07706718146800995,-0.07667601853609085,-0.07227348536252976,-0.024657074362039567,0.10458249598741532,-0.025939201936125757,0.024672308936715127,0.060000546276569369,-0.040028393268585208,-0.020106835290789605,-0.002633893396705389,-0.12527456879615785,-0.059097617864608768,0.015717215836048127,-0.1107395738363266,0.09591447561979294,-0.08926593512296677,0.0812731385231018,0.019571835175156595,-0.01226563099771738,-0.048088137060403827,-0.025844953954219819,0.04377121105790138,-0.1007964089512825,-0.06588385999202728,-0.11689261347055435,-0.061026547104120257,0.1108536496758461,0.0823156014084816,-0.11581914126873017,0.08061818033456803,0.07968852669000626,-0.08841996639966965,0.11962933838367462,-0.00019603033433668315,0.07865693420171738,0.0282199177891016,-0.035313960164785388,0.07391305267810822,0.0859384685754776,0.053305335342884067,-0.12053593248128891,0.049762435257434848,-0.08361174166202545,0.028102882206439973,-0.0900709256529808,-0.00045847034198231995,0.07586714625358582,0.08911091834306717,0.01440303772687912,-0.00210443208925426,0.04540320113301277,-0.09582400321960449,-0.0877154991030693,0.04512401670217514,-0.07940999418497086,0.06765701621770859,-0.10779934376478195,-0.016274284571409227,-0.11802808195352555,0.03742671012878418,0.0088316285982728,-0.10537821054458618,0.015695689246058465,0.023923661559820176,-0.016389844939112665,-0.10035229474306107,-0.029301412403583528,-0.0890401229262352,0.06860925257205963,0.023193681612610818,0.08486200124025345,-0.03616389259696007,-0.09841164946556092,0.11789240688085556,0.12535418570041657,-0.06809335201978684,-0.08057934045791626,0.06992223113775253,0.029671870172023774,0.053248707205057147,-0.07036232203245163,0.11189737915992737,0.04415091499686241,-0.07737945020198822,0.1211932972073555,0.08904897421598435,0.10689927637577057,0.022891532629728318,-0.07466493546962738,0.08537191152572632,0.06527932733297348,-0.03004225343465805,-0.12065001577138901,-0.10716117173433304,-0.018285442143678666,-0.0658762976527214,-0.01882072351872921,-0.046553533524274829,-0.055026378482580188,-0.12257254123687744,0.016703622415661813,-0.05043556168675423,0.012204788625240326,0.03609173744916916,-0.12233488261699677,-0.09801216423511505,0.03666737303137779,0.10576770454645157,-0.02600066177546978,-0.05261742323637009,-0.11415129154920578,-0.06391258537769318,0.044069379568099979,0.045092515647411349,0.06032722070813179,-0.015440715476870537,0.0999201312661171,-0.005638365633785725,0.0032187781762331726,-0.09862800687551499,-0.02503136359155178,-0.09664163738489151,0.011300965212285519,0.10259769856929779,-0.06367014348506928,0.06375537067651749,0.04862174019217491,-0.0339491181075573,0.010958457365632058,0.04056745395064354,0.03226761892437935,-0.10514821857213974,0.043417707085609439,-0.10287937521934509,0.07261442393064499,-0.027176538482308389,0.05428338795900345,-0.07811670750379563,0.029737677425146104,-0.07831881195306778,-0.02685229852795601,-0.053062841296195987,-0.0356278158724308,0.023440971970558168,-0.04985225573182106,-0.08074136823415756,0.05007750168442726,-0.058421097695827487,0.03871888294816017,-0.09133978933095932,-0.05829743668437004,-0.07091113924980164,0.0047126091085374359,0.061166394501924518,-0.058338649570941928,-0.06130588427186012,-0.10249970108270645,-0.012017936445772648,-0.0750960037112236,0.09639620780944824,-0.0747721716761589,-0.003372777486220002,-0.06972569972276688,-0.011485910043120385,0.10914967209100723,-0.012335755862295628,-0.0290561281144619,0.10204407572746277,-0.051132481545209888,-0.048786312341690066,-0.06679234653711319,0.09457479417324066,-0.021447625011205674,0.0855562686920166,0.013590141199529171,0.06473987549543381,0.005063854623585939,0.11789063364267349,0.016739733517169954,-0.042116936296224597,0.07512246072292328,-0.08388246595859528,-0.060940589755773547,-0.10678555071353913,-0.10695801675319672,0.021389072760939599,-0.10236091911792755,0.004229219164699316,-0.026618799194693567,0.11999604851007462,0.028390701860189439,0.08961106836795807,0.0870012491941452,-0.06159058213233948,0.10425128042697907,0.0542915016412735,-0.04237111657857895,-0.12274309247732163,0.005459750536829233,0.03563213720917702,-0.033227402716875079,-0.09855078160762787,-0.057105936110019687,0.0691804364323616,-0.11104384809732437,0.05705635994672775,0.09219253808259964,-0.056673020124435428,-0.10878345370292664,0.09802574664354325,0.013133182190358639,0.04921797290444374,0.03168271481990814,-0.1104113906621933,0.03438863903284073,-0.04212520271539688,0.1162085235118866,0.06298864632844925,-0.1212274506688118,0.05501217395067215,0.11063939332962036,-0.01214754767715931,-0.05660418048501015,0.04634738713502884,0.045489463955163959,-0.047200288623571399,-0.01989617571234703,0.05305580049753189,0.04026729613542557,0.040372174233198169,-0.00974163319915533,0.07015372812747956,0.021335149183869363,0.02611001767218113,-0.027163809165358545,-0.0006011385703459382,-0.014361725188791752,-0.08031762391328812,-0.02828543446958065,-0.11211665719747544,-0.11623633652925492,-0.09023775905370712,0.11691353470087052,-0.013288652524352074,0.050723783671855929,0.09551393985748291,-0.0536375567317009,0.01788916625082493,0.006645995192229748,-0.042515892535448077,-0.11236784607172013,-0.1172122210264206,-0.12548477947711945,-0.11037851125001908,-0.04228462278842926,-0.012838827446103096,-0.04067306965589523,-0.005615889560431242,-0.11759598553180695,0.0578116737306118,-0.09158383309841156,0.041484981775283816,0.09416460990905762,-0.015538050793111325,-0.07706140726804733,-0.08214357495307923,-0.10227774828672409,0.050014182925224307,-0.058087680488824847,0.055469803512096408,0.07973472774028778,0.053368695080280307,0.00027585247880779207,-0.07521560788154602,0.03343610092997551,-0.04439985007047653,-0.0980970486998558,-0.08850768208503723,-0.03563043475151062,-0.01865437626838684,-0.09364089369773865,0.1155615895986557,0.11713535338640213,-0.10890542715787888,-0.11120124161243439,-0.022544842213392259,-0.01788966730237007,-0.11821364611387253,0.10602991282939911,0.008723439648747445,0.003183915978297591,-0.09306608885526657,0.09116572886705399,-0.11508044600486756,0.1100824847817421,-0.023763636127114297,0.08206792175769806,-0.10274763405323029,0.048005878925323489,0.005101120565086603,-0.02990201860666275,0.08477363735437393,0.0028810256626456978,-0.06574629247188568,-0.0245019793510437,-0.006639264989644289,0.11925007402896881,-0.02363184653222561,-0.06190615892410278,-0.11545229703187943,0.025063544511795045,0.02621213160455227,-0.029126111418008806,0.008559852838516236,-0.09677357971668244,-0.015338669531047345,-0.10680889338254929,0.11465784162282944,-0.0837370976805687,0.10066381841897965,-0.0298372320830822,0.11118419468402863,-0.024666694924235345,-0.08934906125068665,0.07303560525178909,0.03418650105595589,0.06721747666597367,-0.07990787923336029,-0.0862317904829979,-0.10079966485500336,0.10749159008264542,-0.0742281898856163,0.10194127261638642,0.043373871594667438,-0.09277568012475968,0.1158498227596283,-0.08101841807365418,0.08294249325990677,-0.019156545400619508,-0.10821526497602463,-0.0809611827135086,-0.025654660537838937,0.059360578656196597,-0.05041162669658661,-0.10024470090866089,0.06649255007505417,-0.05821043625473976,0.009671819396317006,0.049562450498342517,0.045056384056806567,0.02497893013060093,-0.11234527081251145,0.11533252894878388,0.009684354066848755,0.09601078182458878,-0.02114124596118927,-0.06945011764764786,-0.1228475570678711,0.028757357969880105,0.003113980870693922,-0.074229896068573,0.04208284988999367,0.0956454649567604,0.12258773297071457,0.011315581388771534,-0.062479857355356219,0.06510785222053528,-0.10801790654659271,0.0329829603433609,0.011762523092329502,0.013310196809470654,0.013722128234803677,-0.049941420555114749,-0.08928089588880539,-0.05390661582350731,-0.10351938009262085,-0.11554628610610962,-0.09082640707492829,0.004804210737347603,-0.10238078981637955,0.1300976723432541,-0.008761398494243622,-0.06218235194683075,0.04777418076992035,0.01674363762140274,-0.030134188011288644,0.08477526158094406,0.10136472433805466,0.08241412043571472,-0.10518370568752289,0.12474048137664795,0.11556286364793778,0.06665758788585663,-0.008049938827753067,0.10193533450365067,0.0886792317032814,0.08331653475761414,-0.1018868088722229,0.06585034728050232,-0.043287958949804309,0.035158608108758929,0.0266453605145216,0.10601887106895447,0.082293801009655,-0.07272914797067642,-0.06100434809923172,0.12958578765392304,0.0991530641913414,-0.06260132044553757],