{"LearningRate":0.0024999999441206457,"hiddenAType":1,"outputAType":4,"layersSize":[8,128,128,4],"Layers":[{"InputSize":8,"NodeSize":128,"Weights":[0.0882333517074585,0.06752084940671921,0.010959742590785027,-0.02489445172250271,-0.008477959781885147,0.06299487501382828,0.023865757510066034,-0.044175926595926288,0.06490328162908554,0.060371123254299167,-0.049282897263765338,-0.07195982336997986,0.08079373091459274,-0.057749129831790927,-0.05647633224725723,0.0829230472445488,-0.016208605840802194,0.005514416377991438,-0.07754720002412796,0.03500328212976456,-0.07777366042137146,-0.06967731565237045,0.06822489947080612,-0.014810853637754918,-0.07630420476198197,0.07548275589942932,-0.08527461439371109,0.0663321316242218,0.07656233012676239,-0.07185133546590805,-0.044897761195898059,-0.0021233749575912954,-0.04434508830308914,-0.01210983656346798,0.0106983482837677,0.023838888853788377,0.08238723129034043,-0.08837897330522537,0.05817847326397896,-0.09572244435548783,0.012432345189154148,0.02812746725976467,0.08782920241355896,0.03140832856297493,0.009106063283979893,-0.06349695473909378,0.03248148784041405,0.038142453879117969,0.07358396053314209,0.07314620912075043,-0.014992636628448964,0.0825270414352417,0.030842415988445283,-0.026131335645914079,0.04607083648443222,-0.03700144588947296,-0.05563217028975487,-0.07745146751403809,0.029697775840759279,-0.06640968471765518,-0.02569456398487091,0.03869529813528061,0.10788168013095856,-0.09147823601961136,-0.02360926941037178,0.0016860170289874077,0.0012533921981230379,0.07544241100549698,0.038257896900177,0.04862814396619797,0.04688427969813347,-0.038644179701805118,0.055437278002500537,0.013827268034219742,-0.060865599662065509,-0.06333120167255402,0.01942787691950798,0.02313009276986122,-0.07775647193193436,-0.07823994010686875,0.05650688335299492,-0.03215019032359123,-0.03708212450146675,0.06809180229902268,-0.049648467451334,0.05454746633768082,0.05059293657541275,0.03510907292366028,0.018087973818182946,0.06638853251934052,-0.058504048734903339,0.06577286869287491,-0.059514500200748447,-0.08101171255111695,-0.045568376779556277,-0.03994286060333252,-0.009688209742307663,-0.08289586007595062,-0.07888778299093247,-0.059320367872714999,-0.08821005374193192,0.040982186794281009,0.05406453460454941,0.00882132537662983,-0.010342872701585293,-0.029920058324933053,0.08156245946884155,0.04933152347803116,-0.06508272141218186,0.00673963688313961,-0.03116045519709587,-0.05601425841450691,0.025231312960386277,0.02083815634250641,0.07581961154937744,0.07537119090557099,0.050902001559734347,0.017970876768231393,-0.022808032110333444,0.062284551560878757,-0.0274967011064291,0.05342412739992142,0.055307019501924518,0.08115494251251221,0.04597308486700058,0.03290463611483574,0.02575027197599411,-0.021217122673988344,0.06073707714676857,-0.06604763120412827,-0.025882389396429063,0.07183509320020676,0.040164653211832049,-0.07765299826860428,-0.010834566317498684,0.04004254564642906,-0.08647394180297852,-0.06633082032203675,0.042487986385822299,0.0004920061328448355,0.03336784988641739,0.026788540184497834,0.0006791157065890729,0.08583126217126847,0.06314259022474289,-0.07049377262592316,-0.07031626999378205,-0.055267803370952609,0.0915687158703804,0.03729086369276047,-0.07441123574972153,-0.07070690393447876,0.05917099863290787,-0.0474487766623497,0.022402886301279069,-0.04106297343969345,-0.0392669215798378,0.060106147080659869,0.016798611730337144,0.009040268138051033,-0.08529051393270493,-0.006303017493337393,0.029544712975621225,0.016753612086176873,0.02611345238983631,-0.026959925889968873,0.08632875233888626,-0.038742102682590488,0.007683782372623682,-0.06439095735549927,0.06733290106058121,-0.07818073779344559,-0.07108158618211746,0.007912009954452515,0.049737635999917987,-0.009616410359740258,0.015195257030427456,-0.061462122946977618,-0.08669289946556092,0.027083050459623338,0.0792824774980545,0.06416425108909607,0.024533532559871675,-0.058188945055007938,-0.04362506791949272,0.03293982520699501,0.05190324783325195,0.046429865062236789,-0.04022012650966644,0.0744737908244133,0.01101192831993103,0.005442195571959019,0.006736285984516144,0.01724938303232193,0.03152232617139816,-0.06146153062582016,0.01692020893096924,0.0017844617832452059,-0.08678917586803436,-0.06184530258178711,0.042222760617733,-0.007975982502102852,-0.009782424196600914,-0.04831395670771599,-0.04122283682227135,0.06009020283818245,0.05798083171248436,-0.09407427906990051,-0.07669622451066971,-0.06523200124502182,0.008239257149398327,0.01387745514512062,0.0540073923766613,-0.05281788110733032,-0.005206821486353874,0.0237733144313097,-0.031141066923737527,-0.02665199153125286,-0.014392474666237831,0.043501004576683047,-0.0743815153837204,0.07894781231880188,0.08637071400880814,0.020726073533296586,-0.05901651829481125,-0.057073213160037997,-0.04406673088669777,0.08739228546619415,-0.015180203132331372,-0.04265664517879486,-0.07634036988019943,0.07343407720327378,0.07593797892332077,0.08723050355911255,0.04227352887392044,0.0010483083315193654,-0.06801902502775192,-0.059805046766996387,0.06737478822469711,0.016725732013583185,-0.042352691292762759,0.08347111940383911,0.041976455599069598,-0.08631200343370438,0.04889832064509392,-0.031273506581783298,-0.004720431286841631,-0.013277935795485974,0.06416052579879761,-0.01592911221086979,-0.07842537760734558,-0.04344554990530014,0.06398167461156845,0.07226092368364334,-0.041883062571287158,-0.02703762985765934,0.07640994340181351,-0.034035440534353259,-0.056664567440748218,-0.04201781377196312,-0.05632588267326355,-0.08760272711515427,-0.023274186998605729,0.03813353180885315,0.07314842939376831,-0.0799047201871872,-0.06828510761260987,0.008212371729314328,-0.0006919695879332721,-0.049943652004003528,-0.00023974983196239918,-0.06057288125157356,0.03546370193362236,-0.040159597992897037,0.055983833968639377,0.06012217700481415,-0.03431287780404091,0.012466841377317906,0.02533564530313015,0.06713145971298218,-0.06525485962629318,-0.07759340852499008,0.07464657723903656,0.08272141963243485,-0.004117021802812815,-0.02129005640745163,-0.08104683458805084,-0.059163983911275867,0.067800372838974,0.005541632417589426,0.08813940733671189,0.029551798477768899,0.0094338683411479,0.04419391602277756,-0.04727422446012497,0.04722671955823898,-0.01666100323200226,0.02450932189822197,-0.08406884223222733,0.0046214028261601929,0.0352405309677124,-0.042781028896570209,-0.010366793721914292,0.028831498697400094,-0.01893189549446106,-0.05982819199562073,0.07469583302736283,-0.034288156777620319,0.014293321408331395,-0.02973717823624611,-0.07592552155256272,-0.06305377185344696,-0.011968892067670823,-0.0862976536154747,-0.03580514341592789,0.05483624339103699,0.06666965782642365,-0.06520633399486542,-0.06829793006181717,-0.023274719715118409,-0.009996236301958561,-0.04339487850666046,-0.08303095400333405,0.08402059227228165,-0.08792868256568909,0.031174374744296075,-0.0025183684192597868,-0.06001618504524231,0.08098283410072327,0.0740344449877739,-0.06836586445569992,-0.08241847902536392,-0.060765888541936877,0.0751543715596199,-0.01517630834132433,-0.005613367073237896,0.07247127592563629,-0.055661480873823169,-0.07974281907081604,0.004438732750713825,0.016327453777194024,0.0517820343375206,0.09715764224529267,0.020795969292521478,-0.05821933597326279,-0.07266006618738175,-0.025816218927502633,0.023482875898480417,-0.07976001501083374,-0.042796067893505099,0.0026210201904177667,-0.026034627109766008,0.044044435024261478,0.03748919442296028,0.08529689908027649,-0.04311508685350418,0.07390890270471573,0.05851989611983299,0.005989619065076113,-0.04414333403110504,-0.03205151855945587,0.012513626366853714,-0.05581560730934143,-0.04586583003401756,-0.07587092369794846,-0.048646070063114169,-0.06937044858932495,0.008914940990507603,0.06923478096723557,-0.0803363025188446,-0.027986371889710428,-0.009771464392542839,0.04885845258831978,-0.027758019044995309,-0.04992543160915375,-0.029749341309070588,0.06084093451499939,-0.07693212479352951,0.05649353191256523,-0.023767098784446718,-0.04116133973002434,0.035356562584638599,-0.025345833972096444,-0.03169213607907295,0.0190502367913723,-0.062137093394994739,0.02941885218024254,-0.07050473988056183,-0.02697138488292694,-0.04013454169034958,-0.022758029401302339,-0.005874319467693567,0.0051729497499763969,-0.06055736914277077,-0.013511762954294682,0.073788121342659,-0.009510466828942299,0.08119281381368637,0.03021344542503357,-0.036428991705179217,-0.03897212818264961,0.08850503712892533,-0.08574071526527405,-0.06218911334872246,-0.05676161125302315,0.02466912381350994,-0.03777437284588814,-0.023709610104560853,-0.050315238535404208,-0.029849840328097345,-0.02561713010072708,-0.03767339140176773,0.024238307029008867,-0.0034641704987734558,0.015383181162178517,-0.04962970316410065,-0.07530097663402558,-0.009106519632041455,-0.03646201640367508,0.008462461642920971,-0.06751827895641327,0.057309072464704517,0.08622568100690842,-0.05923319607973099,-0.0873967707157135,-0.06903553009033203,0.06948718428611756,-0.015436898916959763,0.0039818743243813519,0.0469895601272583,0.03216435760259628,-0.06104879081249237,-0.08382470905780792,-0.034478913992643359,-0.05463913828134537,-0.006283784285187721,0.024406323209404947,0.0546615906059742,-0.0846262127161026,-0.06686262041330338,-0.029882887378335,-0.08707442134618759,0.04104498028755188,-0.012377724051475525,-0.05317751318216324,0.026200637221336366,0.08561111986637116,-0.06463591754436493,-0.02558753825724125,0.08448808640241623,0.03231486678123474,0.05848078802227974,-0.07977579534053803,-0.027872182428836824,-0.08002547174692154,0.05249664932489395,0.018409034237265588,-0.06457658112049103,0.05459398031234741,-0.044577259570360187,-0.009996430017054081,0.0015918804565444589,0.06655096262693405,0.009047914296388626,-0.05105961859226227,0.07063096761703491,-0.06405026465654373,0.04819374531507492,-0.060747042298316959,0.049008339643478397,0.05406031012535095,-0.05820799246430397,0.04043632745742798,0.03370020166039467,-0.03795016184449196,-0.0856156125664711,0.029758978635072709,0.008841941133141518,0.005894563626497984,0.05678778514266014,0.009106525219976902,0.04923015832901001,-0.07280372083187103,0.055183276534080508,0.06657780706882477,-0.009658071212470532,-0.06897617131471634,0.04012935608625412,-0.08414706587791443,-0.03201877698302269,-0.08809255808591843,0.07736624032258988,0.059676527976989749,-0.0802454799413681,0.05606923624873161,-0.01075783185660839,-0.03168250247836113,0.06857569515705109,0.01702387072145939,0.02057996392250061,0.010728942230343819,0.03428614139556885,-0.01926899142563343,0.01899520680308342,0.022502388805150987,-0.06920899450778961,-0.08350644260644913,0.06609898060560227,-0.04248661920428276,-0.045271728187799457,0.07267310470342636,0.05997924879193306,0.01948264241218567,0.005643107462674379,-0.07834348827600479,0.03769080713391304,0.025920812040567399,0.040411923080682757,-0.05294961854815483,0.08491666615009308,-0.057618431746959689,0.04801274836063385,0.02931574545800686,-0.07055653631687164,0.009040193632245064,-0.051906704902648929,-0.03334568440914154,-0.08322297781705857,-0.04409162327647209,0.06146468594670296,0.018640665337443353,-0.06912799924612045,-0.04489635303616524,-0.00600034324452281,-0.06988172978162766,0.019212402403354646,0.038503844290971759,0.027228759601712228,-0.06943777948617935,0.04668331518769264,0.0679389238357544,0.06708940863609314,-0.07638030499219895,0.083793044090271,0.0035648427437990906,0.030041011050343515,0.0003194282471667975,0.01363967265933752,0.08629423379898071,-0.06061042845249176,0.003121844958513975,0.026509489864110948,-0.01911667361855507,-0.0259051825851202,0.011625278741121292,-0.046782881021499637,0.06834115087985993,0.06852056086063385,0.03892906382679939,-0.017964690923690797,-0.0005439816159196198,-0.053449440747499469,-0.07369733601808548,0.08225470036268234,0.06633738428354263,-0.03376597538590431,0.08201953768730164,0.012375490739941597,0.0708627700805664,-0.061746399849653247,-0.005051605869084597,0.07846547663211823,-0.02090270444750786,-0.07134999334812164,0.0422455258667469,-0.05140712112188339,0.07020945101976395,-0.022238008677959443,-0.0075655849650502209,-0.006785962730646133,0.07623093575239182,-0.018586335703730584,0.05593372881412506,-0.04694882035255432,-0.03793484717607498,0.0737881138920784,-0.014947171323001385,-0.03187324106693268,-0.00807608850300312,-0.07734541594982147,-0.000004456833266885951,0.06350553780794144,-0.006199216470122337,-0.004445679020136595,0.03846831992268562,-0.06327752768993378,-0.02623724937438965,0.08561954647302628,0.012370971962809563,0.05083322525024414,0.08794227242469788,-0.03871212527155876,0.030309351161122323,0.025729268789291383,0.026041105389595033,-0.057992272078990939,-0.06962723284959793,-0.0047315689735114578,0.03944895789027214,-0.021313179284334184,0.08043290674686432,-0.07532142102718353,0.030920157209038736,0.06318272650241852,-0.03296726569533348,-0.009534952230751515,-0.05801805853843689,0.02037532441318035,-0.05646262690424919,-0.0439215712249279,-0.036241911351680759,-0.04794510826468468,-0.04910721257328987,-0.01338855642825365,-0.01556670106947422,-0.08217445760965347,-0.008423390798270703,-0.03756332024931908,0.06606397777795792,-0.02773808129131794,-0.0011841095983982087,0.002898242324590683,-0.040097981691360477,-0.04830026254057884,-0.0036570283118635418,0.003152481745928526,-0.017020709812641145,0.08368103206157685,-0.032098740339279178,0.06926671415567398,0.023240605369210244,0.012464874424040318,0.02275368943810463,0.030913282185792924,0.09604867547750473,0.02687702141702175,0.06184257194399834,-0.08390539139509201,0.06093517318367958,0.0540626160800457,0.004711107816547155,0.06281675398349762,0.05271989107131958,0.00978014338761568,0.05212078243494034,-0.05010119080543518,-0.07901027798652649,-0.03179984539747238,0.07193336635828018,-0.016450781375169755,-0.07512861490249634,-0.08035602420568466,0.05260384455323219,-0.08849143236875534,-0.08765419572591782,-0.05353536456823349,-0.014122799970209599,0.02247166447341442,-0.068620964884758,0.0018730679294094444,-0.015427124686539173,0.059060607105493548,0.08489954471588135,-0.016469381749629976,-0.018728461116552354,-0.08737978339195252,-0.02671496570110321,-0.053532905876636508,0.06188320368528366,0.0013846117071807385,0.0588771253824234,-0.03534005954861641,0.00878909882158041,0.03141458332538605,-0.05570227652788162,0.0689808577299118,-0.005299000535160303,0.030693087726831437,-0.06390698254108429,-0.060331061482429507,0.0819815844297409,0.04124820604920387,-0.06992354989051819,-0.04024970531463623,0.04365972429513931,0.08266935497522354,-0.05289657786488533,-0.0011813815217465163,0.016221847385168077,-0.0038617171812802555,-0.06733684986829758,0.05580268055200577,-0.06879733502864838,0.0392475426197052,-0.08777996152639389,0.031580131500959399,-0.02835119515657425,-0.06082720309495926,0.05813734605908394,0.08302652090787888,-0.08362560719251633,-0.08075516670942307,0.00039761571679264307,-0.07526606321334839,0.07898484915494919,0.017329666763544084,-0.04139327257871628,-0.04728234186768532,-0.07990629971027374,0.035050660371780398,0.052882350981235507,0.0007942264783196151,0.04107585921883583,0.056557778269052508,-0.08410673588514328,-0.047887224704027179,0.06277921795845032,0.018809380009770395,-0.06698772311210633,0.03726201876997948,0.07349275052547455,-0.03300211951136589,-0.06463450938463211,0.06086043640971184,0.025576910004019738,-0.004540397785604,0.04656095802783966,-0.05143919214606285,-0.05440852418541908,-0.06894464045763016,-0.08101799339056015,-0.04709213227033615,-0.02444516494870186,-0.08912389725446701,0.08388785272836685,-0.0048028710298240189,0.06845925003290177,-0.08134723454713822,-0.008013203740119934,-0.007089892867952585,0.09073469042778015,0.06440409272909165,0.05625266209244728,0.041308119893074039,-0.06994268298149109,0.013311028480529786,0.007776766549795866,0.02412317879498005,-0.0357569120824337,-0.06804592907428742,-0.07554622739553452,-0.04274604842066765,-0.06191277876496315,-0.016477616503834726,0.08233623206615448,-0.08063270151615143,-0.030866999179124833,0.04221057891845703,-0.01436710450798273,0.02567397430539131,-0.00757339783012867,-0.03794429078698158,-0.05143909156322479,0.005639928393065929,-0.024563122540712358,-0.07667774707078934,-0.015619714744389058,-0.06864184141159058,-0.014109852723777295,-0.02814527601003647,0.04619501531124115,0.058080051094293597,-0.07567089051008225,-0.08558662980794907,0.04939975216984749,0.005969635210931301,0.04961780086159706,-0.07924371212720871,-0.07168377935886383,0.00978403352200985,0.08660649508237839,-0.04414433240890503,-0.015332348644733429,-0.001766649424098432,0.010334868915379048,0.027320440858602525,0.03898745775222778,-0.07185332477092743,0.11185750365257263,0.07807645201683045,0.08135801553726196,0.052931323647499087,0.05787606164813042,0.05311577394604683,0.05736495181918144,0.019592421129345895,-0.04608834534883499,0.0028943242505192758,0.0644540935754776,-0.06085715815424919,-0.03665914759039879,-0.04818113520741463,-0.03176099434494972,0.06407611072063446,0.008014378137886525,-0.06335455179214478,0.009863899089396,-0.038399290293455127,-0.01596236787736416,0.044412996619939807,-0.0062253596261143688,-0.012872248888015747,-0.027897601947188379,-0.05403953418135643,-0.015700502321124078,0.08685960620641709,0.034803714603185657,0.035899121314287189,-0.07176710665225983,-0.031605616211891177,0.017278913408517839,-0.04702616482973099,0.01764679327607155,0.023144226521253587,0.06773092597723007,0.01265852153301239,-0.0016137405764311553,0.0582197904586792,-0.021858299151062967,0.029812803491950036,-0.07901901751756668,-0.05460004135966301,-0.057571589946746829,-0.04131054878234863,-0.008847632445394993,-0.010897747240960598,-0.04259335249662399,-0.06334993988275528,-0.05834544822573662,0.021299315616488458,0.026118649169802667,0.048216432332992557,-0.052739523351192477,-0.028017420321702958,-0.07410608232021332,0.06010090932250023,0.024782106280326844,0.03973747417330742,0.021845491603016855,0.0691978707909584,-0.0709015429019928,-0.028165306895971299,-0.08700373768806458,0.0731663778424263,0.05527685210108757,-0.08228914439678192,0.03084554709494114,-0.01477836910635233,0.05981040745973587,-0.014920023269951344,0.09154705703258515,-0.058530714362859729,0.07970268279314041,-0.058318331837654117,-0.027928786352276803,0.0409705713391304,-0.08590370416641236,-0.011641659773886204,0.0006221698131412268,-0.048834022134542468,0.0031657011713832618,-0.02179829217493534,0.06677266955375672,-0.046532172709703448,-0.035138022154569629,0.004003798123449087,-0.06171239912509918,0.005004121921956539,-0.0521073117852211,0.025369537994265558,0.039202939718961719,-0.07300231605768204,-0.018646299839019777,0.0142205860465765,0.0608200803399086,-0.04231146723031998,-0.041956424713134769,-0.05577058345079422,0.016725238412618638,0.05387299880385399,0.06110212579369545,0.06285053491592407,0.06547313183546066,-0.017539246007800103,-0.06718642264604569,0.001381156500428915,-0.021515514701604844,-0.02441222034394741,0.044899340718984607,0.016742881387472154,-0.01918240636587143,0.007946438156068325,0.07787605375051499,0.034850113093853,-0.08154893666505814,0.02038310468196869,-0.04500533640384674,0.01503064390271902,0.037797071039676669,0.04479074850678444,-0.04765775427222252,-0.010747700929641724,0.0011699629249051214,-0.003647933714091778,-0.03878707066178322,-0.08664269000291825,-0.04908657819032669,0.0007130048470571637,-0.05417025089263916,0.06168372556567192,-0.009758751839399338,0.06681468337774277,0.045109476894140246,-0.025009341537952424,0.043805111199617389,0.061504095792770389,0.0728878602385521,0.013960317708551884,0.04357036575675011,-0.07115902006626129,-0.022854946553707124,-0.04728815704584122,-0.05719876289367676,0.029077181592583658,0.03267288580536842,0.011681328527629376,0.050168726593256,-0.00910956785082817,-0.05737244337797165,-0.05266737937927246,-0.014758813194930554,0.04226909577846527,0.010503917932510376,-0.06777946650981903,-0.052511703222990039,0.07517620921134949,0.021858226507902147,0.06311902403831482,-0.005490168929100037,0.05688867345452309,-0.013559166342020035,0.06657692790031433,-0.04364852234721184,-0.00718159694224596,0.010791132226586342,0.03680313006043434,0.03468729555606842,0.03951078653335571,-0.043299600481987,0.027102289721369745,0.024980731308460237,0.0572182759642601,-0.06757019460201264,-0.01233646273612976,-0.0005689996760338545,0.011212438344955445,-0.017843173816800119,-0.04360220581293106,-0.05362692475318909,-0.048114679753780368,-0.07538632303476334,0.029856717213988305,-0.0797882154583931,-0.05079992860555649,-0.00459082517772913,0.008318164385855198,-0.06483735144138336,0.016707899048924447,-0.04227851331233978,-0.06114393472671509,-0.053291041404008868,0.08555815368890763,0.06200949102640152,0.07880091667175293,-0.07979892194271088,-0.009155782870948315,0.07501201331615448,0.01986764185130596,-0.07764444500207901,-0.03377629071474075,-0.01962861604988575,-0.046327222138643268,-0.0002434161287965253,-0.06888512521982193,-0.07107973098754883,0.08458149433135987,0.04772073030471802,0.04736429825425148,-0.0526324026286602,0.05598567798733711,0.06866438686847687,0.05387216433882713,-0.07416580617427826,-0.06822781264781952,-0.02813449688255787,0.013264828361570835,0.07238839566707611,-0.04744819924235344,0.07584061473608017,-0.055163197219371799,-0.01939338631927967,-0.005198934115469456,0.006033871788531542,-0.003692385507747531],"Biases":[0.0027644061483442785,-0.005823522340506315,0.009046586230397225,0.004285090137273073,0.014143864624202252,-0.0026942002587020399,-0.017897125333547593,-0.0016491974238306285,-0.0013222412671893836,-0.005428126081824303,-0.0024934583343565466,0.006479925476014614,-0.0027837760280817749,-0.009318261407315731,0.003702591173350811,-0.001736702979542315,-0.0013868514215573669,-0.00028413193649612367,-0.000846284325234592,0.0021773797925561668,-0.0021577682346105577,0.008836967870593071,-0.000927886227145791,0.0037149512208998205,-0.001948331599123776,-0.010581654496490956,-0.004299922380596399,0.006688674446195364,-0.0005835853517055512,-0.002561548026278615,-0.0050810594111680988,0.00029686326161026955,0.0026203251909464599,-0.004211097955703735,0.001845938852056861,-0.004369806032627821,-0.011104099452495575,-0.005571511574089527,-0.00005600981603492983,-0.014512906782329083,-0.007534394506365061,-0.01524699479341507,0.0047463467344641689,-0.0056474111042916779,-0.0014867882709950209,0.002051959978416562,0.006667235866189003,-0.010530093684792519,-0.004762874450534582,0.014905561693012715,-0.00010201708937529474,-0.012373566627502442,-0.004197699949145317,-0.004069499671459198,0.0014311048435047269,0.002371681621298194,-0.00568509753793478,0.003705111565068364,0.0037651376333087684,0.0012791156768798829,-0.0039989156648516659,-0.0063820285722613338,-0.010033526457846165,-0.001861372496932745,-0.01744541898369789,0.0023535750806331636,-0.010777918621897698,-0.00831142719835043,-0.0038821962662041189,0.0020263150800019504,0.006119374185800552,-0.001930304104462266,-0.00408423226326704,-0.0003679867659229785,-0.00047338276635855436,-0.00008012737089302391,-0.009149466641247273,0.0015616366872563959,0.001124404021538794,-0.000020119900000281632,-0.008167187683284283,-0.017835337668657304,0.0030886312015354635,0.003949785605072975,-0.0007103293901309371,-0.002790024969726801,0.0013709953054785729,-0.0009458201238885522,-0.01228152122348547,0.0027626119554042818,-0.0046789878979325298,-0.005928120110183954,0.0018894132226705552,-0.01756466180086136,0.011229743249714375,-0.00009084050543606281,-0.0019008938688784838,0.00980361271649599,0.015373590402305127,0.002001160057261586,-0.0028470384422689678,-0.019941464066505433,-0.008819226175546646,-0.0001818029850255698,-0.008753214962780476,0.0037325378507375719,0.001143226632848382,-0.0061170305125415329,0.004559849388897419,-0.0043763634748756889,0.0001985919225262478,-0.009107750840485096,0.0077539184130728249,-0.022072499617934228,-0.012631412595510483,-0.00003188240953022614,-0.002814091742038727,-0.001393294776789844,0.014984672889113427,-0.006584560498595238,-0.010261636227369309,0.0008994349627755582,0.003820030251517892,-0.007065800949931145,-0.003264790866523981,-0.005285054910928011,-0.001794655341655016,-0.01016268040984869],"_Inputs":[0.07805824279785156,-0.06326358020305634,-0.2602669298648834,0.0,-0.14699983596801759,0.1120000034570694,0.0,0.0],"_Outputs":[0.010830788873136044,-0.010094435885548592,0.03124169260263443,-0.003554241731762886,-0.013345294632017613,-0.03481246158480644,-0.020339233800768853,-0.0007102381787262857,-0.0037755551747977735,0.013599919155240059,0.027010522782802583,0.018593542277812959,0.039794255048036578,-0.01913878321647644,-0.02084939554333687,-0.024730151519179345,-0.0003324291901662946,-0.01580076292157173,0.017562977969646455,0.016471870243549348,-0.022964317351579667,0.007319670170545578,0.022241691127419473,-0.0010295179672539235,-0.0130053935572505,0.00855562835931778,-0.022158969193696977,0.029466353356838228,0.007344026584178209,-0.0098542720079422,-0.03528349846601486,0.02541382610797882,0.023954108357429506,0.01883382722735405,-0.0009756449144333601,-0.025761965662240983,-0.02553912252187729,0.0034848456270992758,-0.02262139320373535,-0.017772333696484567,0.032459650188684466,0.021535173058509828,0.03808003291487694,0.008056117221713066,-0.026930782943964006,0.01898925192654133,0.01414739154279232,-0.005606725346297026,-0.007531852461397648,0.033150188624858859,0.024679118767380716,-0.011696407571434975,0.016334155574440957,-0.019931817427277566,0.013825037516653538,0.005617177113890648,-0.012832563370466233,-0.0033338074572384359,0.026400331407785417,0.00879510585218668,0.0016781971789896489,-0.005757137201726437,-0.01901281252503395,0.02718479186296463,0.004823729395866394,-0.019953874871134759,-0.01703193411231041,0.008572225458920002,-0.025061169639229776,-0.0032245430629700424,0.015106188133358956,0.003904712852090597,-0.008515452966094017,-0.011582469567656517,0.0027594228740781547,-0.008978122845292092,-0.02312462590634823,0.010395996272563935,-0.005517787765711546,0.012730084359645844,-0.02417256310582161,-0.024379616603255273,-0.01774483174085617,0.014468096196651459,0.009763999842107296,0.01766844652593136,-0.015367024578154087,0.006928193382918835,-0.012999669648706913,-0.012212712317705155,-0.004291699267923832,-0.016324495896697046,0.02957756631076336,-0.028146464377641679,0.032770946621894839,-0.0083039915189147,0.005517149809747934,0.016313716769218446,0.017572812736034395,-0.015552440658211708,-0.021146487444639207,0.010325109586119652,-0.0019920896738767626,-0.008950733579695225,-0.019710205495357515,0.016082467511296274,-0.006941657979041338,-0.005114158149808645,-0.0044106375426054,0.024128152057528497,-0.009940276853740216,-0.02064962312579155,0.0017120521515607834,-0.02652956172823906,0.02076733112335205,-0.007378819398581982,-0.01783713325858116,-0.009863501414656639,0.006273182108998299,0.016045348718762399,-0.0016360068693757058,-0.002145577222108841,0.033568836748600009,0.008293109014630318,0.008557572960853577,0.016099069267511369,-0.024055136367678644,-0.018980693072080613],"forwardCS":{"instanceID":9254}},{"InputSize":128,"NodeSize":128,"Weights":[0.073168084025383,0.03383408486843109,-0.055306870490312579,-0.047451432794332507,-0.04207068309187889,0.05181962996721268,0.02671554870903492,0.07556735724210739,-0.07305234670639038,0.006049929186701775,0.08014460653066635,-0.04357423633337021,-0.07981184870004654,0.04562811926007271,-0.07454938441514969,-0.0758642852306366,-0.08712280541658402,0.017446421086788179,0.059562887996435168,0.04995375871658325,0.08403435349464417,-0.005787324625998735,-0.04259829968214035,0.03264322876930237,0.001597555004991591,0.03281524404883385,0.004760162904858589,0.0605803057551384,0.06551791727542877,0.010132094845175743,0.04841531068086624,0.0466284304857254,0.06072722002863884,0.031815022230148318,-0.08167333900928498,0.07805727422237396,-0.0027984820771962406,-0.04783831909298897,-0.03692549467086792,0.0007014629081822932,0.07097885012626648,-0.04584866762161255,0.04735756665468216,-0.06284187734127045,0.07141924649477005,-0.02665521763265133,0.036297790706157687,0.058814600110054019,0.005458896979689598,-0.05131091549992561,0.06691832840442658,-0.048472508788108829,-0.05033758655190468,-0.033035457134246829,0.00450360169634223,0.037864141166210178,0.08551738411188126,0.08355719596147537,0.022051993757486345,0.06808312982320786,0.0861184149980545,-0.052693162113428119,0.07387951761484146,0.08004634082317352,0.0038960427045822145,0.02354903146624565,-0.0582604818046093,-0.051859475672245029,0.017050767317414285,-0.057523515075445178,0.0628884807229042,-0.04898231476545334,-0.02555912546813488,-0.06672167778015137,-0.018638744950294496,-0.014369017444550991,-0.0777769386768341,0.022263869643211366,0.08263901621103287,-0.030651994049549104,-0.033390600234270099,0.03068089298903942,0.001742787891998887,-0.021167978644371034,0.07447165250778198,-0.08519591391086579,-0.07558469474315644,0.04865673556923866,0.044861119240522388,-0.0757456123828888,0.05861779674887657,-0.026834100484848024,-0.0365694984793663,0.03851058706641197,-0.056402403861284259,-0.06262698769569397,-0.04361137002706528,0.052273139357566836,-0.07626519352197647,0.08399181813001633,0.07878182083368302,-0.008035852573812008,0.0536511205136776,-0.07425114512443543,0.03417549282312393,-0.059585124254226688,-0.024579867720603944,0.06769640743732453,-0.008176896721124649,0.08174669742584229,-0.04810410365462303,-0.003505152417346835,0.025038842111825944,0.027588438242673875,0.042756859213113788,0.06764859706163407,-0.03914862126111984,0.07855839282274246,-0.005705943796783686,0.005144885741174221,0.040397729724645618,0.0022086985409259798,0.047746531665325168,0.010276888497173787,-0.013119219802320004,-0.010490305721759797,0.04763215035200119,-0.027209322899580003,0.0655650794506073,0.06954435259103775,0.06737314164638519,0.06880535185337067,0.04870251193642616,0.02888176403939724,-0.08379502594470978,-0.0700511708855629,0.012827725149691105,0.05694747716188431,0.06495808809995651,-0.057649001479148868,0.03591831028461456,-0.0536513552069664,0.044361673295497897,-0.017700279131531717,0.05365459620952606,0.04070199280977249,0.03863459825515747,-0.040387123823165897,-0.029598461464047433,0.03363372012972832,0.045732270926237109,0.06849084794521332,-0.000359557248884812,0.060699764639139178,-0.08669234067201615,-0.009878153912723065,-0.07532395422458649,0.024830177426338197,0.0750521793961525,0.05591873452067375,0.041853856295347217,0.048089176416397098,-0.08202578872442246,-0.08521616458892822,0.01936216466128826,0.040251847356557849,0.05855269357562065,-0.0674574226140976,0.0029641324654221536,-0.07307539135217667,-0.05824559926986694,0.017498679459095,0.048229314386844638,0.06942759454250336,0.00186362792737782,0.0751732736825943,-0.022792888805270196,0.0527060441672802,0.0034937961027026178,0.04672738164663315,0.0843585655093193,-0.012321793474256993,0.04786030575633049,-0.04573473334312439,0.020781824365258218,0.02885977178812027,0.05832120031118393,0.029058001935482026,0.016260745003819467,-0.040635861456394199,-0.043219029903411868,-0.020223213359713556,0.033011969178915027,0.03720767796039581,-0.0723661556839943,0.004917254205793142,0.022394193336367608,-0.031456273049116138,0.020978350192308427,-0.023854868486523629,-0.015627320855855943,0.01429496519267559,-0.03225859999656677,-0.0843927189707756,-0.03843175247311592,0.01596328429877758,-0.05521553382277489,0.08320207893848419,-0.04948082193732262,0.05274992063641548,-0.07637320458889008,-0.008713001385331154,0.0585361011326313,-0.0489925853908062,-0.03506148234009743,-0.03098846971988678,-0.029142674058675767,-0.024649372324347497,0.06663551926612854,0.014293378219008446,-0.036402422934770587,0.03367595002055168,0.07644163072109223,-0.060928210616111758,0.05394500121474266,-0.04343070834875107,0.0725141167640686,-0.023820968344807626,-0.017906293272972108,0.07247336953878403,-0.01592308096587658,-0.019795671105384828,0.07803697139024735,0.009864812716841698,-0.048258475959300998,-0.04938327893614769,-0.07230117917060852,-0.07189837843179703,0.017988810315728189,0.041246455162763599,-0.0038062992971390487,0.04930789768695831,0.0344776026904583,0.01686270721256733,0.04759298637509346,0.0592036172747612,-0.05178087204694748,0.05310465395450592,-0.014407538808882237,-0.03993259742856026,-0.03096035309135914,0.0019383574835956097,-0.07379131764173508,0.002033988479524851,-0.07636138051748276,-0.0746603012084961,-0.035923708230257037,-0.0675477460026741,-0.006118535064160824,0.06391242891550064,-0.04100576788187027,0.025190139189362527,0.008030200377106667,0.06882531940937042,0.01614595204591751,-0.021859297528862954,-0.08064919710159302,-0.06873199343681336,-0.03287264704704285,-0.08508288860321045,0.04262468218803406,0.040776729583740237,0.06740881502628327,-0.07061231136322022,-0.07780683040618897,-0.04698311537504196,0.03283146396279335,0.08574991673231125,0.050126731395721439,0.0665728747844696,0.009981917217373848,0.008896657265722752,0.06042554974555969,-0.07179814577102661,-0.017151815816760064,-0.06689475476741791,0.07315359264612198,-0.06621655821800232,-0.025811312720179559,0.010640425607562065,0.04679126664996147,0.04903683811426163,-0.06507296115159989,-0.06790468096733093,-0.03623083233833313,0.04754325747489929,-0.053367529064416888,0.08247222751379013,-0.005418034736067057,0.07907230406999588,-0.0058917151764035229,-0.010510694235563279,-0.043688639998435977,-0.007566285785287619,0.07783164083957672,0.00438279053196311,0.06552053987979889,-0.003094026818871498,-0.06658931076526642,0.07911520451307297,0.06310853362083435,0.057553306221961978,-0.08370325714349747,-0.017302541062235833,0.07559807598590851,-0.06774740666151047,0.07395312190055847,0.046774160116910937,-0.07786984741687775,0.0799536257982254,-0.08286295086145401,-0.02758881449699402,0.009806875139474869,-0.06561505794525147,-0.037074774503707889,-0.0699458047747612,0.08126232773065567,-0.0808098167181015,-0.034085676074028018,-0.02219945378601551,-0.07970251142978668,-0.053976502269506457,-0.034736957401037219,-0.07732847332954407,-0.05499075725674629,0.04800224304199219,-0.03144541755318642,0.06028417870402336,-0.01456443127244711,-0.07729968428611756,0.02456151694059372,0.0780029296875,-0.0744713619351387,0.047779083251953128,0.03567478433251381,0.01635804772377014,-0.03075755573809147,0.001661132788285613,0.07844623923301697,-0.018304899334907533,-0.0072673228569328789,-0.07783237844705582,0.03982856124639511,0.04198160395026207,0.0822167620062828,0.05358196049928665,-0.01864020898938179,0.032308321446180347,-0.0827932357788086,0.0051185875199735168,-0.0022397590801119806,-0.0797339677810669,-0.009829451330006123,-0.03171496093273163,0.08995961397886276,-0.010833931155502797,-0.03769048675894737,0.012754947878420353,0.08040783554315567,0.050559915602207187,-0.06869172304868698,0.04294916242361069,0.009794195182621479,0.06141040846705437,0.020950013771653177,0.011794880032539368,0.055816687643527988,-0.08089796453714371,0.02705768495798111,0.029894962906837465,-0.04439442604780197,0.031805507838726047,-0.08163851499557495,-0.08380473405122757,-0.01679222099483013,-0.021112849935889245,0.06383374333381653,-0.06420636922121048,-0.08633238077163696,-0.07180971652269364,0.07626116275787354,0.060477521270513538,-0.08173710852861405,-0.055197373032569888,-0.004320493899285793,0.045357536524534228,0.04923282936215401,0.05377217382192612,-0.04341093450784683,-0.06405974924564362,-0.007103469222784042,-0.0766896903514862,0.019188225269317628,0.04224520921707153,-0.0635233148932457,0.01481803972274065,0.05427771061658859,-0.015567037276923657,0.03539305925369263,-0.02060646377503872,0.05654807388782501,0.017470385879278184,0.07549635320901871,0.04396495223045349,0.036931272596120837,-0.054088763892650607,0.007365888450294733,0.02622937597334385,-0.026521408930420877,-0.008744018152356148,-0.04719476401805878,-0.007336087990552187,-0.022981034591794015,0.08089734613895416,-0.06207301467657089,0.01480908878147602,-0.028837701305747033,0.0027672669384628536,-0.030242983251810075,-0.013894442468881607,-0.014227597042918206,-0.07785607874393463,-0.0773959532380104,0.014736250974237919,-0.013629141263663769,-0.06722269207239151,-0.040476273745298389,0.049495674669742587,0.0644276887178421,-0.021303480491042138,-0.0299660786986351,0.018081584945321084,0.04625498875975609,-0.08365090191364289,0.004827550612390041,-0.05069752410054207,-0.03203471004962921,0.024450965225696565,0.016379905864596368,-0.029206283390522004,-0.0653826892375946,0.0400182381272316,0.018056156113743783,-0.08817985653877258,-0.041701726615428928,-0.005506659392267466,0.01192750595510006,-0.026738110929727556,0.0612143874168396,-0.005315694492310286,-0.05526965111494064,-0.06404241919517517,0.030500685796141626,-0.010321546345949173,-0.021103426814079286,0.02364950068295002,0.04469119757413864,-0.008458848111331463,-0.054809559136629108,0.059595994651317599,-0.06438637524843216,0.01607019081711769,-0.05011330172419548,-0.07863298803567887,-0.031654082238674167,0.03727451711893082,0.01686055026948452,-0.07311465591192246,0.08529475331306458,-0.009967343881726265,-0.005749141331762075,-0.03062276914715767,-0.04454303905367851,-0.07550550252199173,-0.035877350717782977,-0.0722423866391182,0.0725756362080574,0.02151993289589882,0.00813219416886568,0.08784670382738114,-0.038462694734334949,0.06336939334869385,0.020028935745358468,-0.032541610300540927,-0.0552232526242733,-0.014186841435730458,0.06503693759441376,0.0006812112987972796,-0.014074536971747876,0.02872561663389206,-0.003351725172251463,0.0088072894141078,0.07906782627105713,0.07850140333175659,-0.05248017609119415,-0.027001269161701204,-0.07070104032754898,0.07770552486181259,0.01812104880809784,0.00767136225476861,0.023453570902347566,-0.021572168916463853,-0.06949698179960251,-0.027554979547858239,0.04155425354838371,0.001944895600900054,-0.05407845973968506,0.07750874012708664,-0.04208507388830185,-0.04174216836690903,-0.03710160031914711,0.053228870034217837,-0.046620700508356097,-0.07885406911373139,-0.06910774111747742,-0.036418817937374118,0.08027684688568115,-0.02685198187828064,0.015905581414699556,-0.07744783163070679,0.022162195295095445,0.06610458344221115,0.03218316286802292,0.06632646918296814,-0.04599636420607567,0.07793374359607697,-0.04746582731604576,-0.0707947313785553,0.02132812701165676,-0.0058171567507088188,-0.048499301075935367,-0.04719812795519829,0.06784690916538239,-0.07138476520776749,0.07014163583517075,-0.011030029505491257,-0.008656136691570282,0.0882284864783287,0.024645771831274034,0.012115933001041413,0.026564911007881166,-0.04921653866767883,0.017581714317202569,-0.08851966261863709,0.025886228308081628,-0.08325514197349549,0.06558486819267273,-0.0789690837264061,-0.018735481426119806,0.07074250280857086,-0.03510432690382004,-0.023967277258634568,-0.06083943322300911,-0.032224398106336597,0.07285420596599579,0.02810714580118656,0.005825741216540337,-0.0031356255058199169,0.03159239515662193,0.05712122097611427,0.04380614683032036,-0.06867555528879166,-0.06064840778708458,-0.0857926607131958,0.06508632749319077,0.03240133449435234,-0.07070734351873398,0.00736416457220912,0.05941547080874443,0.0350765734910965,0.08254175633192063,-0.01267789676785469,-0.01748662441968918,-0.007830332033336163,0.07160074263811112,-0.04945502430200577,0.047388844192028049,-0.04205023869872093,0.029141347855329515,-0.03466244041919708,-0.001711179269477725,-0.0032746335491538049,-0.045072827488183978,0.05720940977334976,0.04377362132072449,-0.04103837162256241,0.018293805420398713,-0.07657550275325775,0.052737247198820117,0.052689868956804278,0.08455554395914078,0.07529444247484207,-0.021992584690451623,0.03310556709766388,-0.032736245542764667,-0.02492862194776535,0.005365807097405195,0.06967154145240784,0.053631145507097247,-0.031698957085609439,0.04714921861886978,-0.07152853906154633,-0.007509693969041109,0.05925625562667847,-0.08664347231388092,-0.03211266174912453,0.037207406014204028,-0.015055820345878601,-0.030520690605044366,-0.05901017412543297,0.013242584653198719,-0.04108813405036926,0.015807945281267167,-0.05890420451760292,-0.08693312108516693,0.009655708447098732,0.036097072064876559,0.04225514829158783,0.04382836073637009,-0.03835471346974373,0.04335784167051315,0.026106130331754686,-0.07822390645742417,0.046672239899635318,-0.03985307738184929,-0.053268641233444217,0.07917005568742752,-0.08724360913038254,-0.08431736379861832,-0.07291979342699051,-0.03941253572702408,-0.02541046217083931,-0.06610583513975144,0.0765196904540062,0.018051588907837869,-0.013746483251452446,-0.04981619119644165,-0.05779869481921196,-0.05109228566288948,0.004458440467715263,0.0669109895825386,-0.04317827150225639,-0.036358945071697238,-0.055119529366493228,-0.036796875298023227,0.028815938159823419,0.05004645884037018,-0.05176916345953941,-0.03746367245912552,0.015342849306762219,-0.005585608538240194,0.07426092773675919,0.037960391491651538,0.055702947080135348,-0.023415077477693559,-0.07112284004688263,-0.018408680334687234,-0.016863489523530008,0.08071631193161011,-0.07350339740514755,0.06541185081005097,0.08207379281520844,-0.006433853413909674,0.0039739953354001049,0.009967762045562268,-0.05658605694770813,-0.06391747295856476,-0.05985872074961662,-0.03496072068810463,-0.029421983286738397,0.053876154124736789,0.06286918371915817,0.01870395615696907,0.06895700097084046,0.07895597815513611,0.011228944174945355,-0.00908067636191845,-0.00842581782490015,0.035993099212646487,0.053291384130716327,0.010191806592047215,0.03785788267850876,-0.05499162897467613,0.043210308998823169,0.061543434858322147,0.018404463306069375,-0.07541066408157349,0.047578878700733188,0.01855991967022419,-0.04720338433980942,-0.0626070648431778,0.08645909279584885,-0.0883263349533081,0.03557450696825981,0.052116118371486667,-0.07627810537815094,0.07591427117586136,0.00890787411481142,-0.043662719428539279,-0.019040971994400026,0.01754436083137989,-0.06652802228927612,-0.026837633922696115,0.04555440694093704,-0.08403277397155762,-0.06465739756822586,-0.03338540717959404,0.03678108751773834,-0.07062525302171707,-0.0033126745838671924,-0.04369369521737099,0.07789455354213715,0.06894851475954056,0.020343037322163583,-0.08539807796478272,0.009724059142172337,0.00002765014323813375,-0.035938892513513568,-0.07624257355928421,0.08727864176034928,0.04454287141561508,-0.07060854882001877,-0.08280351758003235,0.06919822096824646,-0.06577624380588532,0.016213763505220414,0.0006187664112076163,-0.02325953170657158,-0.015665967017412187,0.02106751687824726,0.04681795462965965,0.05398043617606163,0.017317451536655427,0.007399943191558123,-0.05457625165581703,0.07592493295669556,0.05885063856840134,-0.05299514904618263,-0.07087165862321854,0.004420763347297907,0.06806737184524536,-0.018359221518039705,0.011210142634809018,0.08274758607149124,0.00611070916056633,-0.040726859122514728,0.02078302763402462,0.06704159080982208,-0.06964688748121262,0.05748589336872101,-0.027156632393598558,-0.01622290350496769,0.049150578677654269,0.013937409967184067,0.01772945560514927,0.01031376514583826,-0.014282344840466977,0.06504905968904495,-0.01343882828950882,0.04379962757229805,0.07080470770597458,-0.07736018300056458,-0.02748188003897667,-0.04208149015903473,-0.025428079068660737,0.0618119016289711,-0.01462846715003252,-0.08445095270872116,-0.08710075169801712,-0.03987431526184082,-0.03362063691020012,0.06897984445095062,0.06837949901819229,-0.020923776552081109,0.057718850672245029,-0.03148505091667175,0.023589443415403367,-0.012304559350013733,0.0022496776655316355,-0.08189676702022553,-0.05386234074831009,0.07635581493377686,-0.06818201392889023,-0.05685525760054588,0.08496331423521042,-0.07576442509889603,-0.014706762507557869,-0.07749265432357788,-0.0066472794860601429,0.036990515887737277,-0.030177772045135499,-0.01466402504593134,-0.057356469333171847,0.03948281705379486,-0.07276640832424164,0.0810924842953682,-0.06700658798217774,-0.0864257663488388,-0.0804084837436676,0.0681491270661354,0.019592929631471635,0.03586921840906143,-0.08471154421567917,-0.07859481126070023,-0.05892912298440933,0.02624896727502346,-0.040264155715703967,-0.07879471033811569,-0.0015751186292618514,-0.05006176233291626,-0.07543827593326569,0.04590541496872902,-0.060802001506090167,-0.08173667639493942,0.04072357341647148,0.019415004178881646,-0.031613945960998538,-0.005738541018217802,0.017888961359858514,-0.03872518613934517,0.023694759234786035,-0.06168770417571068,-0.03255866840481758,0.001528347609564662,-0.015756944194436075,-0.04855407029390335,0.040570396929979327,0.030118105933070184,0.08199910819530487,-0.08003607392311096,0.05138351768255234,0.009638366289436818,0.008157777599990368,0.07176442444324494,0.0031853087712079288,0.0702156275510788,-0.01004755962640047,-0.04997679963707924,0.032456934452056888,0.052934058010578158,-0.024396659806370736,0.06487330794334412,-0.02751912735402584,0.024907652288675309,0.06038981303572655,0.029984084889292718,0.027023203670978547,-0.03646601364016533,-0.04330581799149513,0.031075764447450639,-0.013533476740121842,-0.07215588539838791,-0.01695157028734684,0.063114233314991,-0.06229439377784729,0.05753215402364731,-0.05493595823645592,-0.023667573928833009,0.03165831416845322,-0.02458709292113781,0.02122541144490242,0.06868980079889298,0.0628003254532814,-0.042389750480651858,-0.03720914572477341,0.07075958698987961,0.07323763519525528,0.022897478193044664,0.021933916956186296,0.08057896047830582,0.0561518631875515,0.006181566976010799,0.07919234037399292,-0.024270813912153245,-0.048668548464775088,0.08303584903478623,-0.002326261717826128,-0.023923249915242196,0.019873585551977159,-0.0870550200343132,0.029353976249694825,-0.027707967907190324,0.011500163935124874,0.05162619426846504,0.023846426978707315,-0.02938932366669178,0.0008592958911322057,-0.0652836412191391,0.026721874251961709,-0.05443834885954857,-0.059150926768779758,0.009282154962420464,-0.05583399906754494,0.04736786708235741,-0.023373473435640336,-0.06498739123344422,0.06547056138515473,-0.08596602827310562,-0.02256998047232628,0.029612189158797265,-0.07627563923597336,-0.07463844120502472,-0.00922584068030119,-0.07312815636396408,0.08529813587665558,0.06768664717674256,-0.05812995135784149,-0.0699671283364296,0.07051745802164078,-0.060651231557130817,0.07228728383779526,0.02645471878349781,0.08322103321552277,-0.07620599865913391,0.0031034101266413929,-0.0879300907254219,0.05858742445707321,-0.04246344417333603,0.05134500190615654,-0.008614827878773213,0.053238652646541598,-0.008090300485491753,-0.031158216297626497,-0.01676570624113083,-0.0014500303659588099,0.026308028027415277,-0.04055975377559662,0.005057066213339567,0.03605760261416435,-0.05628081411123276,0.010966534726321698,0.04248346760869026,0.03973003849387169,0.035217273980379108,-0.0540446899831295,0.053724031895399097,0.04070864990353584,-0.022553151473402978,-0.05800013616681099,0.08197979629039765,-0.08171805739402771,-0.002257052343338728,0.023877110332250596,0.049057651311159137,0.007088734768331051,0.034737490117549899,0.04227028787136078,-0.05012418329715729,-0.08051373064517975,-0.07765171676874161,-0.08772959560155869,-0.04129677638411522,-0.05066635459661484,0.041079405695199969,-0.04493320360779762,0.047659602016210559,-0.08678805083036423,-0.031406503170728686,-0.08177391439676285,-0.02212635986506939,0.06763151288032532,0.06990651041269303,-0.050152797251939777,-0.05848114937543869,-0.08344108611345291,0.014874682761728764,0.046695053577423099,0.06295361369848252,0.07931043952703476,0.026541616767644883,-0.046552009880542758,0.0558459497988224,0.03811143338680267,-0.008554147556424141,-0.033574629575014117,0.014782343059778214,0.013951104134321213,-0.029507748782634736,0.0035146758891642095,0.017211996018886567,-0.003032522741705179,0.06122073903679848,0.029903622344136239,-0.02001035213470459,-0.06121653690934181,-0.011692080646753312,-0.07850251346826554,-0.008606604300439358,-0.036224693059921268,0.06295256316661835,-0.01902003027498722,0.0397455133497715,-0.07234613597393036,0.07492905855178833,-0.0471777506172657,0.054964300245046619,-0.05910151079297066,-0.05986158922314644,0.08566758781671524,0.07730894535779953,-0.020943420007824899,-0.03758809715509415,0.03612712025642395,0.014569972641766072,0.01617969386279583,-0.07334251701831818,0.033404283225536349,0.022208767011761667,0.08136192709207535,-0.01833350397646427,0.022659093141555787,-0.06528107076883316,-0.003717815037816763,-0.011562696658074856,-0.06440117210149765,0.07784615457057953,-0.023445887491106988,-0.03717276453971863,-0.08479838818311691,0.05763821676373482,0.04056703299283981,-0.08070310950279236,0.0376838743686676,-0.08565999567508698,-0.022023912519216539,-0.08439945429563523,-0.07836129516363144,0.07002068310976029,0.0072314501740038399,0.046943001449108127,-0.04093560948967934,0.07697580754756928,-0.04303840175271034,-0.034250952303409579,0.057738397270441058,0.024399612098932267,-0.0077107870019972328,-0.08470893651247025,-0.0347692035138607,-0.037054043263196948,0.029683031141757966,-0.0023358489852398636,0.051828961819410327,0.08092329651117325,0.03133822977542877,-0.06344842910766602,-0.06632374972105026,0.02898639626801014,-0.07397569715976715,-0.015739239752292634,-0.06680360436439514,-0.03602655231952667,-0.020810138434171678,0.04121752083301544,-0.05641593784093857,0.01676025427877903,-0.08292192220687866,0.05141061916947365,-0.07135210186243057,-0.018256397917866708,0.0848841443657875,-0.0031483559869229795,-0.031228752806782724,-0.01673028990626335,0.008071689866483212,-0.07390940189361572,-0.05977150797843933,0.013162183575332165,-0.02877860702574253,-0.07506053894758225,-0.02088748663663864,-0.04489503055810928,0.0423528328537941,0.04034528136253357,-0.07685674726963043,0.0012219516793265939,0.08402730524539948,-0.037440069019794467,0.07088352739810944,0.0013789678923785687,0.08365500718355179,0.07080011069774628,0.043351221829652789,0.010370193049311638,-0.07265669107437134,-0.06800777465105057,0.08775883913040161,-0.08470826596021652,-0.0814468264579773,0.085023894906044,0.014069008640944958,0.05379515513777733,-0.05391557514667511,0.017073985189199449,-0.03688773140311241,0.08568171411752701,-0.08425551652908325,-0.018722480162978174,0.07012594491243363,-0.015261548571288586,0.025205064564943315,-0.05200567841529846,0.08265144377946854,-0.058345306664705279,0.026166783645749093,0.05835716798901558,-0.08587844669818878,-0.01386797334998846,-0.027653934434056283,0.01700962893664837,-0.03551357984542847,-0.0456831231713295,-0.02677658200263977,0.055424198508262637,-0.016776280477643014,-0.049556832760572436,0.028857002034783365,-0.020743636414408685,0.06629582494497299,-0.03231639042496681,0.08830858767032623,-0.06977537274360657,-0.08050081878900528,-0.0066654738038778309,-0.07012718915939331,0.08700549602508545,-0.010733474045991898,-0.054709989577531818,0.01986035145819187,-0.011342786252498627,0.06084822490811348,0.0694689080119133,0.012287172488868237,0.039471354335546496,0.036649320274591449,-0.05262048542499542,0.03596332669258118,-0.06152943894267082,0.06151612848043442,-0.07592238485813141,-0.02990986406803131,0.08406581729650498,-0.02773074060678482,-0.04718222841620445,0.023688847199082376,-0.016526294872164727,0.06288637965917587,0.08588749915361405,0.03483450040221214,-0.04152032360434532,0.07758279144763947,-0.00538086099550128,-0.06926466524600983,-0.04941590875387192,-0.0009066947968676686,-0.050029609352350238,0.022917011752724649,0.04624307528138161,-0.08799204230308533,-0.0283698420971632,0.041276514530181888,-0.031246667727828027,-0.017016911879181863,0.05068110302090645,-0.05186764523386955,0.037303656339645389,0.08526506274938584,-0.08189917355775833,-0.07108650356531143,0.05724981427192688,0.07587693631649018,0.045494526624679568,-0.08344924449920654,-0.02955573797225952,-0.04891299456357956,0.05714954435825348,0.036301594227552417,-0.05512106791138649,-0.03441169485449791,0.024620244279503824,0.06916838884353638,-0.08257295936346054,0.07667110860347748,0.06912659853696823,-0.07581713050603867,0.06092733144760132,0.002097038784995675,0.07257375866174698,-0.015642618760466577,-0.0063004521653056149,-0.019375471398234369,-0.05403110384941101,0.022511322051286699,0.04439382627606392,0.060388531535863879,-0.05100744962692261,-0.07888992130756378,0.07838542014360428,-0.013881129212677479,-0.06551069766283035,-0.02447429485619068,-0.04797231778502464,-0.08753123879432678,0.0636918693780899,0.07344459742307663,-0.07089120149612427,-0.03767818212509155,-0.00016039289766922593,0.046726714819669726,-0.08274703472852707,0.010126481764018536,0.042027197778224948,-0.028681760653853418,0.0870857760310173,-0.06505218893289566,-0.05262729153037071,-0.07883604615926743,0.06009514629840851,0.0520564429461956,0.0423591285943985,-0.05411272123456001,-0.04332977160811424,0.08758366852998734,-0.017923148348927499,-0.08123832941055298,0.04734854772686958,0.07332269847393036,0.010483896359801293,-0.01722906157374382,-0.07672201842069626,0.022426864132285119,-0.05116569250822067,0.07967901229858399,-0.024283653125166894,-0.03151828423142433,0.035658903419971469,0.05696840584278107,-0.010162407532334328,-0.007360131945461035,-0.05733936280012131,-0.0160744097083807,0.03575272858142853,-0.056668754667043689,-0.055994536727666858,-0.0736236497759819,0.034195657819509509,0.06311697512865067,0.010700849816203118,0.07020443677902222,0.08646678924560547,-0.039532192051410678,0.03139128535985947,-0.08060098439455033,-0.05203519016504288,0.08518869429826737,0.046442389488220218,-0.021397661417722703,0.04894992336630821,0.002558497479185462,-0.07372833788394928,0.059547483921051028,-0.0493224561214447,0.029586950317025186,-0.04385778307914734,-0.016732798889279367,0.028581706807017328,0.0467250682413578,0.03668196499347687,0.01830369606614113,0.052661068737506869,0.021203652024269105,0.030025271698832513,0.04036092758178711,-0.06632180511951447,-0.020799802616238595,0.08467866480350495,-0.06418845802545548,0.05288809910416603,0.020970091223716737,0.07535945624113083,0.07844128459692002,0.05975582078099251,0.021151158958673478,-0.0772222951054573,0.08454765379428864,0.05905967578291893,-0.060747649520635608,-0.014123905450105667,0.001513692899607122,0.07206089049577713,0.04793713986873627,0.025302890688180925,0.006057627499103546,0.02689003013074398,0.08159356564283371,0.09074046462774277,-0.01945030689239502,0.039497800171375278,0.02667156793177128,0.08723251521587372,-0.023926222696900369,0.005568892229348421,-0.009262213483452797,-0.082733154296875,0.026035185903310777,-0.06615317612886429,0.05069306492805481,0.001485968939960003,-0.03055252879858017,-0.02905675396323204,-0.011107588186860085,0.0711665153503418,0.05379435420036316,0.04390057176351547,-0.038961440324783328,-0.03760499507188797,-0.04296409711241722,-0.07615753263235092,-0.04823511838912964,-0.022382302209734918,-0.04936307668685913,-0.00012796936789527535,0.03234894946217537,0.04779742658138275,0.03985122963786125,-0.08283990621566773,0.06075669452548027,0.07914894074201584,0.08689065277576447,0.053311582654714587,0.042837198823690417,0.03643113747239113,0.05975998938083649,-0.025524307042360307,-0.02182663045823574,-0.029169367626309396,0.06673943996429444,-0.06285639852285385,0.057252123951911929,-0.0066052391193807129,0.01515305694192648,-0.017137916758656503,0.04506487771868706,0.0022668507881462576,0.07246069610118866,-0.0348440557718277,0.0020784204825758936,-0.03483111411333084,-0.00042828088044188917,0.05221523717045784,0.07931149750947952,-0.07535070180892945,-0.05127314478158951,-0.052144188433885577,-0.0030221508350223305,0.005849254317581654,0.06733513623476029,0.04632090777158737,0.05083293840289116,-0.07054390013217926,0.08441240340471268,0.04639134183526039,-0.0026180038694292309,0.028103336691856386,-0.07724834978580475,0.034509964287281039,0.047237131744623187,0.0864674374461174,0.011098040267825127,0.023524530231952668,0.07844066619873047,-0.07016614079475403,-0.022315066307783128,0.04765049368143082,-0.00004385810825624503,0.01801075041294098,0.0369623638689518,-0.07401138544082642,0.04349360242486,0.01189853623509407,-0.006769323255866766,-0.06518114358186722,-0.011454801075160504,-0.07727061957120896,-0.04657040536403656,-0.06939174979925156,-0.02987860143184662,0.016661951318383218,-0.07212469726800919,-0.08231598138809204,0.08221549540758133,-0.01921059563755989,0.0734039694070816,-0.03438693657517433,0.08065829426050186,0.03120742179453373,-0.018386665731668474,-0.015568283386528492,-0.017735037952661516,0.023879967629909517,-0.06843528151512146,-0.0015767902368679643,-0.07574661076068878,0.03318062424659729,0.07008221000432968,0.041329897940158847,0.07888368517160416,-0.0674380287528038,-0.009221629239618779,0.022509712725877763,-0.03967182710766792,0.04028914496302605,-0.039200760424137118,-0.06276564300060272,-0.07149489223957062,-0.04875268042087555,0.04965609684586525,0.008233833126723767,-0.05011237785220146,-0.08152707666158676,-0.016549905762076379,0.011630943045020104,-0.0812726765871048,-0.013492760248482228,0.07738548517227173,-0.023633182048797609,0.07842420786619187,0.04197372868657112,0.08749908208847046,0.0006879883585497737,0.05664512887597084,0.07670862972736359,-0.044610489159822467,0.08593059331178665,-0.0285789892077446,0.014403896406292916,0.006295038387179375,-0.07553628832101822,-0.005721704103052616,-0.03294717147946358,0.028338387608528138,0.084923654794693,-0.02291818894445896,-0.03633049875497818,0.04725537449121475,0.04131576418876648,-0.06004054844379425,-0.08527116477489472,-0.04883723706007004,-0.07338199764490128,0.062437161803245547,0.006270292215049267,0.07477905601263046,-0.013109964318573475,-0.03915909305214882,-0.07477433234453201,0.03624236211180687,0.08256828784942627,-0.043662331998348239,0.030802374705672265,-0.06555461883544922,0.002782979281619191,0.08393775671720505,0.06471255421638489,0.06705732643604279,-0.07485917210578919,-0.01828913390636444,-0.06051904335618019,-0.001638169982470572,-0.012295501306653023,0.05249814689159393,-0.06193002313375473,0.052744247019290927,0.03375638648867607,0.08108611404895783,0.005529612302780151,-0.04140283167362213,0.02554488182067871,0.01348932646214962,0.03559887781739235,-0.07154688239097595,-0.03335711732506752,-0.02849443070590496,0.049353767186403278,-0.07312536239624024,0.03470925986766815,0.033059075474739078,0.002479775110259652,-0.026506101712584497,-0.04063266143202782,-0.06943334639072418,-0.03248435631394386,-0.028140174224972726,-0.08142900466918946,0.06693233549594879,0.027469422668218614,0.06334209442138672,0.005819358397275209,0.0018750305753201247,0.0020067247096449138,-0.06943725049495697,0.06134340167045593,-0.0840037539601326,-0.06829767674207688,0.059865955263376239,-0.016932951286435128,-0.05905427038669586,-0.003947101067751646,0.06503023952245712,-0.08817467093467713,-0.01324860192835331,0.06327386200428009,-0.0769461914896965,0.08456094563007355,-0.050905562937259677,0.016859686002135278,-0.06704746186733246,0.050173867493867877,-0.08556902408599854,-0.04381200298666954,0.022297564893960954,0.07550988346338272,0.06726987659931183,-0.015462581999599934,0.0369715541601181,-0.024424415081739427,0.061601731926202777,-0.011887811124324799,-0.010746855288743973,-0.05231405049562454,-0.05671988055109978,-0.060739874839782718,-0.06434912234544754,-0.07413702458143234,-0.008177930489182473,-0.009410947561264038,0.07452084869146347,0.05209286883473396,-0.08342823386192322,-0.031953468918800357,-0.06394706666469574,-0.0182949248701334,0.05060931667685509,0.05013947933912277,-0.08608060330152512,-0.012643317691981793,0.04005049541592598,0.048992667347192767,-0.011452247388660908,-0.057571060955524448,0.037248894572257999,-0.05339152738451958,-0.06386371701955795,0.07859444618225098,0.05346241220831871,-0.05157531052827835,-0.01580946147441864,-0.008795741945505143,-0.032383885234594348,0.03482234850525856,-0.06691952049732208,0.04437761381268501,0.08141511678695679,-0.04633349925279617,-0.08606456220149994,-0.011045892722904683,-0.03992263227701187,0.054344967007637027,0.006937080528587103,-0.04240872710943222,-0.037950299680233,0.023413538932800294,0.046150289475917819,0.06427156180143357,0.03237257897853851,0.06379174441099167,0.0805027186870575,-0.0329342819750309,0.04710619896650314,0.059757791459560397,-0.046453457325696948,-0.08103827387094498,0.07106727361679077,-0.026831291615962983,0.045150451362133029,-0.008738759905099869,-0.08415208756923676,-0.05185100436210632,0.056381549686193469,0.063678078353405,0.016828160732984544,-0.002115354174748063,-0.08342501521110535,0.036533765494823459,0.050462182611227038,0.04004660248756409,0.0014959890395402909,0.025347216054797174,-0.017675787210464479,-0.005159481894224882,-0.036646731197834018,-0.011581705883145333,0.0009011196671053767,0.003355857217684388,0.05142826959490776,0.08453218638896942,0.07781482487916947,0.03160478174686432,0.049897514283657077,0.03907903656363487,0.002255384111776948,-0.05536094307899475,0.03881246969103813,-0.05631186068058014,0.001575436326675117,0.009721155278384686,-0.08282876014709473,0.0781211107969284,0.024515097960829736,-0.045242905616760257,0.024372875690460206,0.008740675635635853,0.058780308812856677,0.009772364050149918,-0.021608350798487665,0.06141192838549614,-0.07861924171447754,0.08595575392246247,-0.02606259286403656,0.026202423498034478,0.021574899554252626,0.05379928648471832,0.018021320924162866,0.01445574127137661,-0.06892364472150803,-0.0656944066286087,-0.04735853895545006,0.06758254021406174,-0.014019384980201722,0.08530529588460922,-0.04186146706342697,-0.024202225729823114,0.034270890057086948,-0.06976988166570664,-0.08391036093235016,0.02016410045325756,-0.02142374776303768,0.06241164728999138,-0.022093284875154496,-0.04339650645852089,0.01912534050643444,-0.03611882030963898,0.03766845539212227,-0.03452446311712265,-0.07732104510068894,0.08086708188056946,0.06814863532781601,0.07486571371555329,-0.00897855032235384,0.03431897610425949,0.08425121009349823,0.03451382741332054,0.05875520408153534,0.023823833093047143,0.03156455606222153,-0.046319231390953067,-0.03841030225157738,-0.05650409311056137,-0.0668877363204956,-0.08254818618297577,0.07807183265686035,-0.04089733213186264,-0.017085278406739236,0.08426354825496674,-0.020648783072829248,-0.07166257500648499,-0.0539165660738945,-0.008118417114019394,0.0841476246714592,0.0351121760904789,0.005071756895631552,0.053469978272914889,-0.006495858542621136,-0.058700282126665118,0.013513470068573952,0.07891824841499329,-0.07328224182128906,0.05002526193857193,0.04138158634305,0.004148808773607016,0.011624778620898724,0.06306750327348709,-0.011752955615520478,0.02201315574347973,-0.018446631729602815,0.0838380977511406,-0.045631930232048038,-0.004604152869433165,-0.022102994844317437,0.0118185980245471,-0.025343846529722215,-0.03233785182237625,-0.03487995266914368,0.04835836589336395,-0.01498487126082182,0.05836619436740875,-0.03346577286720276,0.021282566711306573,-0.03601386025547981,0.0356721356511116,-0.062007974833250049,0.0054038879461586479,-0.03917631506919861,-0.002066384069621563,0.07005514204502106,-0.0017767425160855055,0.021034574136137964,0.011320828460156918,0.07960033416748047,-0.07833678275346756,0.01612451672554016,0.03751572594046593,-0.08551421016454697,-0.08189509063959122,0.0590042807161808,0.07621978223323822,-0.01386451069265604,0.03317764028906822,0.058619432151317599,0.025571264326572419,0.011708157137036324,-0.04029020667076111,-0.03621123731136322,-0.019983943551778795,0.03737538307905197,-0.08314383029937744,-0.08300307393074036,0.059268027544021609,0.032254450023174289,-0.06450748443603516,-0.07504367083311081,0.03396834433078766,0.05075016990303993,-0.019513778388500215,-0.01415636669844389,-0.04342983290553093,0.02260442078113556,-0.061444107443094257,0.04314311221241951,-0.014424711465835572,0.0860169380903244,-0.06056322157382965,-0.045617226511240008,0.044513411819934848,0.05106228217482567,0.06742970645427704,0.03661927953362465,0.053940508514642718,0.06380684673786164,-0.08490277081727982,-0.0848642960190773,0.005321466829627752,-0.010915032587945462,-0.019753508269786836,0.07924465090036392,-0.039785321801900867,-0.07203467935323715,0.04121408984065056,0.010465680621564389,-0.02825355716049671,-0.011410285718739033,-0.08341283351182938,-0.03487731143832207,0.045906078070402148,-0.08575540781021118,0.029170075431466104,0.08227898925542832,-0.00889192707836628,0.06800839304924011,-0.06284826248884201,-0.08211732655763626,-0.01943090744316578,0.038692038506269458,-0.039739035069942477,-0.004533395171165466,-0.051571886986494067,-0.021532591432332994,-0.05979934707283974,0.050829436630010608,-0.07358076423406601,-0.043978121131658557,0.01396151352673769,0.02165013737976551,0.042699865996837619,0.07380959391593933,0.016519859433174135,0.06818485260009766,-0.04020412266254425,0.045775555074214938,-0.00994674488902092,-0.034355126321315768,0.017494624480605127,0.037635646760463718,0.03944022208452225,-0.0645112618803978,0.041447389870882037,0.06293699890375138,0.036901168525218967,0.08243343234062195,-0.031203703954815866,-0.0831337720155716,0.04884004965424538,0.007238281425088644,-0.005049396306276321,0.07253937423229218,0.05708931013941765,0.023370563983917238,-0.048890307545661929,-0.08093710988759995,0.0020442905370146038,0.03826510161161423,-0.049016766250133517,0.018309714272618295,-0.018775030970573427,-0.0431196391582489,-0.027305539697408677,0.03488454595208168,0.07924900949001312,-0.05774330347776413,0.035160478204488757,-0.005980595014989376,-0.03544606640934944,0.05512116849422455,0.05577002465724945,-0.04150191694498062,-0.028269942849874498,0.04867599904537201,-0.04808581620454788,-0.027456991374492646,-0.04180803522467613,-0.021067606285214425,0.02439747005701065,-0.07518016546964646,0.016795387491583825,-0.07522081583738327,0.018095064908266069,-0.04549090564250946,0.0030654994770884516,-0.06272618472576142,-0.061487723141908649,0.05682069808244705,-0.034291017800569537,0.047349508851766589,-0.005597667768597603,-0.026178235188126565,0.07860260456800461,0.04493565112352371,-0.011568001471459866,0.014738342724740506,0.0593881756067276,-0.07114500552415848,-0.03957691043615341,-0.013537750579416752,0.023569710552692415,-0.026171039789915086,0.0782531201839447,0.008917170576751233,0.0625501349568367,0.07182661443948746,-0.07202266901731491,-0.030306709930300714,-0.011531144380569458,0.04510406404733658,0.0157401692122221,0.07974675297737122,0.041244614869356158,0.010560753755271435,0.04964354261755943,0.03511255607008934,0.007343072444200516,-0.008896281942725182,0.06432465463876724,0.03173070028424263,-0.02042292430996895,-0.0628085806965828,0.06828869879245758,0.01684057153761387,-0.04190531745553017,0.01913241297006607,-0.033511023968458179,0.08079180866479874,-0.03723001480102539,-0.06440604478120804,-0.08144766092300415,-0.085631363093853,0.012801292352378369,-0.07302983105182648,0.0071765221655368809,-0.0736621543765068,0.008435617201030255,-0.07056521624326706,0.07826501131057739,0.02928890660405159,0.01560033019632101,0.07851845771074295,-0.05654700845479965,0.007995597086846829,-0.032718878239393237,0.023820921778678895,0.05752960219979286,0.022493740543723108,0.040151581168174747,-0.026816904544830323,0.0075361961498856548,-0.032348450273275378,0.03992560878396034,0.015582106076180935,-0.07011070102453232,-0.03549445793032646,-0.07155744731426239,-0.027045682072639467,0.016558624804019929,0.0598173514008522,0.08089262247085571,-0.03596572205424309,-0.012404603883624077,-0.05428974702954292,-0.04145026579499245,-0.05372177064418793,-0.08283543586730957,-0.015940770506858827,0.017724117264151574,0.0043777478858828548,0.023713158443570138,-0.043966278433799747,-0.025979747995734216,0.008071835152804852,-0.01637917570769787,-0.025191958993673326,0.06659609079360962,-0.08720579743385315,-0.07302216440439224,-0.0442926362156868,-0.063675157725811,-0.05691869929432869,-0.0645446851849556,0.06551828235387802,-0.06357614696025849,0.06308965384960175,0.02804684266448021,0.0046685258857905869,-0.004151920787990093,-0.026733366772532464,0.016382474452257158,-0.06121860444545746,0.06573045253753662,-0.029887380078434945,0.03357560187578201,-0.022028261795639993,-0.013793163001537323,-0.026470499113202096,-0.0659978911280632,-0.07529757171869278,-0.06907995790243149,-0.02980642020702362,-0.036285318434238437,-0.07377443462610245,-0.016289860010147096,-0.06649946421384812,-0.037435002624988559,0.0056001790799200539,-0.041295114904642108,-0.0785604789853096,0.015130528248846531,0.04928001016378403,0.052028678357601169,-0.08005765080451966,0.02812405303120613,-0.04139309749007225,-0.029744567349553109,-0.08228549361228943,-0.06542785465717316,0.07544324547052384,-0.03335995972156525,-0.08774980157613754,0.028017694130539895,-0.03955134376883507,0.047450389713048938,-0.053277794271707538,-0.008089406415820122,0.049701470881700519,0.050909679383039477,-0.016287200152873994,-0.040058691054582599,-0.03042696975171566,-0.04832451790571213,0.04511772468686104,0.08528625965118408,0.08376936614513397,0.046818602830171588,0.07058122754096985,-0.02030235156416893,0.007296541705727577,-0.004886223003268242,-0.06799136847257614,0.000859555322676897,0.043028805404901507,-0.023901570588350297,-0.009199591353535653,0.00894593819975853,-0.0796080157160759,0.06522320955991745,0.007694532163441181,-0.04984893277287483,0.08618559688329697,0.03805732727050781,-0.02369469404220581,0.007031995337456465,-0.026667963713407518,-0.025990338996052743,-0.06112377718091011,-0.042518336325883868,-0.07774783670902252,0.04410327225923538,0.07927195727825165,-0.046168018132448199,-0.0074187880381941799,-0.0060990978963673119,-0.004119853489100933,-0.02110564522445202,-0.06593451648950577,0.05157863348722458,-0.026335539296269418,-0.042146291583776477,-0.05044326186180115,0.002849460346624255,0.010339231230318547,-0.07707049697637558,-0.053501442074775699,-0.010483362711966038,-0.08034583181142807,0.030242865905165674,-0.06344108283519745,-0.0766858458518982,-0.011949039995670319,-0.07757412642240524,0.08329958468675614,0.07586256414651871,-0.00664162915199995,-0.07758235186338425,0.03323094919323921,-0.02514648623764515,-0.07070811837911606,0.07404958456754685,-0.07830742746591568,0.06015690788626671,0.002047070534899831,-0.02772544138133526,0.05339481309056282,0.05290650203824043,0.03662751987576485,0.035310205072164538,0.08139069378376007,0.08306960016489029,-0.051308996975421908,0.05714039131999016,-0.016659190878272058,-0.053727950900793079,-0.06546904146671295,-0.045936714857816699,0.02544904127717018,0.009704578667879105,-0.06476746499538422,-0.06523188203573227,-0.07130219787359238,-0.04324648529291153,0.01784522272646427,0.016977768391370775,-0.047738127410411838,-0.04053600877523422,0.002277989638969302,-0.012882660143077374,-0.026250168681144716,0.005657378118485212,0.06302063912153244,-0.08316563069820404,-0.0033118100836873056,0.0452943779528141,-0.042600490152835849,-0.07519284635782242,-0.07770735770463944,0.05673176050186157,-0.05503547191619873,0.07381346821784973,0.08321970701217652,-0.056841637939214709,-0.05975409969687462,0.04882371425628662,-0.039733510464429858,0.07749926298856735,-0.07552718371152878,-0.030781716108322145,0.080390565097332,0.0071207014843821529,0.03020412102341652,-0.0007021037163212895,-0.04003375396132469,0.06924144178628922,0.08184067159891129,-0.033721182495355609,0.006007401738315821,-0.05038405954837799,0.07401097565889359,-0.008922367356717587,0.06505735963582993,-0.054765570908784869,0.05711641162633896,-0.003943434916436672,0.049381155520677569,-0.05522773042321205,0.014817280694842339,0.02869817428290844,-0.013410231098532677,-0.07341208308935166,0.02054186351597309,-0.07030417025089264,0.05197346210479736,-0.012918857857584954,0.05170639231801033,-0.07863395661115647,-0.008951357565820217,-0.06414157897233963,-0.016077714040875436,-0.0004872842400800437,0.043917275965213779,0.06690098345279694,-0.08305247128009796,-0.04884190112352371,-0.08526712656021118,-0.08624652028083801,-0.020535342395305635,-0.088323213160038,0.0033127362839877607,-0.01953365094959736,-0.05356059968471527,0.005307688377797604,0.005708161275833845,-0.0009830339113250375,0.07625652104616165,0.022331587970256807,-0.048017095774412158,-0.07744178920984268,0.04082847014069557,-0.08838347345590592,-0.07002227008342743,0.06118147447705269,-0.060479938983917239,-0.022628504782915117,-0.0652732327580452,-0.04151926562190056,0.012488371692597866,-0.00903027132153511,0.030493471771478654,-0.03892507776618004,-0.07476639002561569,-0.06419681757688523,-0.037779550999403,0.05988232418894768,-0.07497967034578324,0.08444568514823914,0.03228115290403366,-0.08673098683357239,-0.0036535845138132574,-0.0816282331943512,0.009885985404253006,0.0686541423201561,-0.0583258755505085,0.05599348247051239,0.007259002421051264,-0.050680212676525119,-0.015452377498149872,-0.08206354826688767,-0.005466823931783438,0.03131011128425598,0.02597619965672493,-0.04316573590040207,0.05616879090666771,-0.06420061737298966,0.08103309571743012,-0.04920222610235214,0.0875634029507637,0.02957884408533573,-0.01599021628499031,-0.0029023578390479089,0.07052582502365112,0.0592828094959259,-0.018268486484885217,-0.0016996958293020726,0.006463147699832916,-0.0563880130648613,0.035666368901729587,0.011602974496781826,-0.06630780547857285,0.009972818195819855,-0.0366586335003376,-0.05320092290639877,-0.06313930451869965,-0.045178115367889407,-0.04897136986255646,0.006856000982224941,0.08658038079738617,-0.04003535583615303,0.010754510760307312,0.04343126341700554,0.0015077663119882346,-0.006457719951868057,-0.034610163420438769,0.025250514969229699,0.018922384828329088,0.04728405922651291,-0.003280157223343849,-0.022025777027010919,0.0052923522889614109,-0.0027066452894359829,-0.08051609247922898,0.017718086019158365,0.07905641943216324,-0.0368100106716156,0.040316663682460788,0.05798611044883728,0.05379718542098999,-0.07708946615457535,0.0813475027680397,-0.056236863136291507,-0.029862262308597566,0.011717461049556733,-0.03585098683834076,0.0862402468919754,-0.08167615532875061,0.07054267823696137,-0.08558093011379242,0.04433344677090645,-0.05737011507153511,0.08563490957021713,0.08822628855705261,0.045884519815444949,-0.07223433256149292,0.05088577792048454,0.04980695992708206,0.07429257780313492,-0.034333039075136188,0.08480194211006165,0.06074216961860657,-0.05522404983639717,-0.07601145654916763,-0.0858701542019844,0.0037438974250108005,0.0033466529566794636,0.05035998299717903,0.06223982945084572,-0.00030872932984493673,0.05243496224284172,0.04017990827560425,-0.05485227704048157,-0.08197405934333801,0.06952530890703201,0.08014921098947525,-0.07757553458213806,-0.04420970752835274,-0.04193472862243652,0.07324942201375961,-0.05524273216724396,-0.004826060496270657,-0.017628731206059457,0.04785037413239479,0.04086550697684288,-0.027719786390662195,0.026490747928619386,-0.004349935334175825,-0.028717534616589547,-0.06562072783708573,-0.03231428936123848,0.04384790360927582,0.050789766013622287,0.02046279050409794,0.031013408675789834,0.023129606619477273,0.031893596053123477,0.053887683898210528,-0.0015705825062468649,-0.07693681120872498,-0.03723631426692009,0.04691852256655693,0.016087183728814126,-0.01064235158264637,-0.08348787575960159,0.04665480554103851,-0.08451791107654572,0.006098125595599413,-0.015789495781064035,0.06162108853459358,0.045997414737939838,-0.0811048150062561,-0.08684536814689636,0.05030063912272453,0.07070567458868027,0.08627224713563919,-0.06272008270025253,-0.06548865884542465,-0.0011754598235711456,-0.024163072928786279,0.08575776219367981,0.056847747415304187,0.05903035029768944,0.029093405231833459,-0.07913853228092194,0.06443555653095246,0.07460929453372956,-0.027403559535741807,0.02388610504567623,-0.07711543887853623,-0.014334767125546933,-0.06890422850847244,-0.055986594408750537,-0.035458095371723178,0.029586132615804673,-0.014599669724702835,0.0036036954261362554,0.07296247780323029,0.08675851672887802,0.0488736592233181,0.06697111576795578,0.07346010953187943,-0.048759784549474719,-0.036493659019470218,0.029268084093928338,0.003450309159234166,-0.02937646396458149,0.04715835303068161,-0.042063090950250629,0.0570998378098011,-0.0647706463932991,-0.004107700195163488,0.02477225288748741,0.012549289502203465,-0.020954899489879609,0.0435858890414238,-0.008989703841507435,0.03918958082795143,-0.052342284470796588,-0.048198603093624118,-0.07063587009906769,-0.00813909899443388,0.05782267823815346,-0.04364013671875,-0.07239898294210434,0.07210655510425568,0.0422932505607605,0.06350087374448776,-0.018117474392056466,-0.02133566327393055,-0.06652712821960449,-0.08006218820810318,-0.005836949683725834,-0.0694245994091034,0.08461355417966843,0.06604092568159104,0.051060549914836887,0.06645181030035019,0.04289747402071953,-0.03254726901650429,0.007086434867233038,-0.05922418087720871,-0.008172624744474888,0.09057308733463288,0.07349178194999695,-0.06183736398816109,0.08475624769926071,-0.07437931001186371,0.0633087307214737,-0.0737895742058754,-0.0015459167771041394,0.07062192261219025,-0.05133148655295372,-0.05299428105354309,-0.04506377875804901,-0.030291972681879998,0.0503414049744606,0.06964977830648422,-0.007764692883938551,-0.05276404693722725,-0.05118618905544281,-0.004473631735891104,0.05710756033658981,-0.020596526563167573,-0.07691027224063873,-0.0020526922307908537,0.07140763103961945,0.05257553234696388,0.02956019528210163,-0.05091489851474762,0.01577475294470787,0.047748930752277377,-0.01745397038757801,-0.010978149250149727,0.052875906229019168,0.08210219442844391,0.08735662698745728,-0.05036063492298126,0.03688184171915054,0.09013485163450241,-0.011616106145083905,-0.03174353763461113,0.008433089591562748,0.053858786821365359,-0.061403390020132068,0.08137591928243637,0.05833173170685768,0.06064552068710327,-0.04438730701804161,-0.054420456290245059,0.06940711289644242,0.06141238659620285,0.0032282874453812839,-0.0338280163705349,0.0015200122725218535,-0.02099689655005932,0.05732521414756775,-0.05182996019721031,-0.07094662636518479,0.03063414990901947,-0.07970722019672394,0.06917615234851837,-0.016614867374300958,-0.0719623789191246,0.0025356668047606947,-0.05030966177582741,-0.07932296395301819,-0.0167060736566782,-0.0015532007673755289,0.005894279573112726,-0.017400462180376054,0.0587599091231823,0.03950746729969978,-0.05301559343934059,0.059900473803281787,0.08607357740402222,0.08486564457416535,0.032178767025470737,-0.04303235560655594,-0.0424070730805397,-0.07747816294431687,-0.06711435317993164,-0.03486078232526779,0.05282478779554367,0.02426080033183098,-0.07861442118883133,-0.0812917947769165,-0.07189949601888657,0.07011272013187409,-0.057068128138780597,-0.07557331770658493,0.0682627484202385,0.0794728547334671,0.07101637870073319,0.052025411278009418,0.012944139540195465,0.0014110610354691744,-0.04254663363099098,-0.006447561550885439,0.04759117588400841,0.04145359620451927,-0.06390667706727982,0.07543909549713135,-0.019033268094062806,0.06486745178699494,0.02701748162508011,-0.010808438062667847,0.06496167182922363,0.014378233812749386,0.08389674127101898,0.03260520473122597,-0.0801849365234375,-0.006390805821865797,-0.08541516214609146,-0.03648260235786438,-0.01808364875614643,-0.051332633942365649,-0.01789664290845394,-0.04598691314458847,0.011801428161561489,-0.036762386560440066,0.017563695088028909,0.05812050402164459,0.027474500238895417,-0.08599602431058884,-0.03524692356586456,0.015692831948399545,0.012312488630414009,-0.015658985823392869,-0.023818010464310647,-0.06420803815126419,-0.009297666139900685,0.012424744665622712,0.037676457315683368,-0.083449587225914,-0.00016546293045394123,0.012543038465082646,0.013215417042374611,0.012909607030451298,-0.04114465415477753,-0.07722374051809311,-0.0005244742496870458,-0.025984017178416253,0.057915229350328448,0.011873794719576836,-0.014498040080070496,-0.08226340264081955,0.03286499157547951,0.022096268832683564,-0.0015112404944375158,0.07702260464429856,0.028880219906568528,0.027882318943738939,0.06597183644771576,0.055067699402570727,0.05834124982357025,-0.033023662865161899,0.04824499785900116,0.012518901377916336,-0.0024570487439632417,-0.0685473307967186,-0.08793530613183975,-0.022900016978383066,0.0009579778998158872,-0.03012438304722309,-0.04368213936686516,-0.052037645131349567,0.005407371558248997,-0.0741850733757019,-0.017140179872512819,-0.07933658361434937,0.02947705052793026,-0.03465278074145317,-0.009129185229539872,0.06483389437198639,0.06915263086557388,0.06646831333637238,0.01125351432710886,0.06873130798339844,0.05267626792192459,-0.08420535176992417,-0.05483156442642212,-0.029833678156137468,0.01266555581241846,0.032984014600515369,-0.01687372662127018,0.04229067638516426,0.05090246722102165,0.07471508532762528,-0.03315533325076103,0.04154859483242035,0.046555642038583758,0.029725542291998864,-0.02260083332657814,0.02770719863474369,0.08420499414205551,-0.07667339593172074,0.08411706984043122,-0.004698888398706913,0.03768932819366455,0.013485126197338105,-0.0862283781170845,0.07598962634801865,0.05126665160059929,0.00307580572552979,0.0005875971983186901,0.040122684091329578,-0.004300557076931,0.02112257294356823,0.06664935499429703,-0.07735620439052582,0.08460143953561783,0.07497970014810562,-0.05172088369727135,-0.035301726311445239,-0.059668563306331637,0.05524951592087746,-0.028475705534219743,-0.020396588370203973,-0.00466344365850091,-0.08400984853506088,-0.04046204686164856,0.0709967315196991,-0.004073004238307476,0.008860809728503228,-0.07221536338329315,0.03871425241231918,-0.02317272685468197,0.02654416859149933,-0.017189523205161096,0.019147159531712533,0.07591646909713745,-0.04727203771471977,0.06062217429280281,-0.08449973165988922,0.000804117473307997,-0.08022408932447434,-0.03443346545100212,0.015187988057732582,-0.06446913629770279,0.012790471315383911,0.08026804774999619,0.04390561208128929,-0.01923016458749771,-0.05696098878979683,-0.035569071769714358,0.029449552297592164,0.013843315653502941,0.080486960709095,-0.0010231996420770884,-0.0875316932797432,0.03667277842760086,-0.06819824129343033,-0.0435989610850811,-0.07533319294452667,-0.07778100669384003,0.0007764089968986809,0.08237167447805405,0.08272366225719452,0.03554174676537514,0.08132612705230713,-0.007831186056137085,0.014307360164821148,-0.08594191074371338,0.011515015736222268,0.03686964139342308,0.07166295498609543,0.04814434051513672,0.03365221619606018,0.009733621962368489,-0.054159823805093768,-0.05877070128917694,-0.013799233362078667,0.01163607370108366,-0.07550961524248123,-0.04500356689095497,-0.07148940116167069,-0.04015481099486351,-0.06398238986730576,-0.013784188777208329,0.062445905059576038,0.01759430207312107,0.0009177303873002529,0.024668928235769273,0.06461697071790695,0.00044489867286756635,0.0032239691354334356,-0.05271359160542488,-0.030920039862394334,0.040404949337244037,0.02295423112809658,0.04601306840777397,-0.03739240765571594,-0.0616573803126812,0.05861746147274971,0.017720183357596399,-0.05199723690748215,-0.05083544924855232,0.04905679076910019,-0.07138106226921082,-0.007086959667503834,-0.05600174143910408,-0.037711843848228458,0.05047595873475075,0.08174271881580353,0.07926158607006073,0.043129388242959979,0.049458958208560947,0.07497735321521759,0.03889802098274231,-0.018096987158060075,0.038939137011766437,-0.07975006103515625,0.020396415144205095,0.031857460737228397,0.042387258261442187,0.08217817544937134,0.008065777830779553,0.03263504058122635,-0.060747869312763217,0.08521351963281632,0.05616691708564758,-0.07511855661869049,0.027550306171178819,0.050786092877388,0.014981579966843129,0.06794531643390656,0.022889593616127969,-0.046301182359457019,0.009672597981989384,-0.01703452318906784,0.04675213247537613,-0.03789660707116127,0.06977804005146027,-0.038773633539676669,0.04407700151205063,-0.07884418219327927,-0.058807000517845157,0.02373867854475975,-0.0171501487493515,-0.06831006705760956,0.025477899238467218,0.026005422696471216,0.06556716561317444,-0.009702947922050953,0.0009338625241070986,-0.06356064230203629,-0.058505136519670489,-0.0764937624335289,0.05336331948637962,0.07986839860677719,-0.08573082089424133,0.07648277282714844,0.0009219804196618497,-0.06127326190471649,0.0702003687620163,-0.06065552681684494,0.07240919768810272,-0.06785053014755249,0.01128263771533966,-0.06290196627378464,-0.04608786851167679,-0.012211521156132222,0.053949933499097827,-0.02852269820868969,0.05216003954410553,0.07920072227716446,-0.003117487533017993,-0.04017193615436554,-0.004790309350937605,-0.07930045574903488,0.0569072961807251,0.07902810722589493,0.0840221494436264,0.07687176764011383,-0.02210492268204689,0.025884438306093217,0.07108288258314133,0.0875529870390892,-0.07913365960121155,-0.08524704724550247,0.058569490909576419,-0.009577790275216103,-0.08710145205259323,0.008129499852657318,0.013706408441066742,-0.023719152435660363,0.039492666721343997,0.03845509886741638,-0.0012184514198452235,0.07136432081460953,-0.0872185230255127,0.06966403126716614,0.04702026769518852,0.05143057182431221,0.017921077087521554,0.041111864149570468,-0.06052917614579201,-0.031591616570949557,0.08743301033973694,0.037025563418865207,-0.0714614987373352,-0.01824854128062725,-0.016624363139271737,-0.0037318679969757797,-0.013796932995319367,-0.04605119675397873,-0.07902400195598602,0.008722497150301934,-0.019629277288913728,-0.08252158761024475,-0.02712458372116089,0.06404782831668854,-0.009269047528505326,-0.05618062987923622,-0.03319268673658371,-0.009457863867282868,0.0015310756862163544,-0.010797429829835892,-0.07848867028951645,-0.0006117174634709954,-0.0066935052163898949,0.06564304977655411,0.022904234007000924,-0.005487418733537197,-0.01010171789675951,-0.06234728917479515,-0.02828657068312168,0.005829359870404005,-0.046503596007823947,-0.06157015264034271,0.034105997532606128,-0.0881931483745575,-0.07590354979038239,-0.04611801728606224,-0.07443221658468247,0.024853868409991266,-0.07526486366987229,0.06433562934398651,0.04728354886174202,0.05281925946474075,-0.010231291875243187,-0.027855107560753824,0.055392105132341388,-0.036592163145542148,-0.01441026758402586,-0.08163708448410034,0.03774064779281616,0.046490442007780078,-0.029570525512099267,0.041132912039756778,-0.01877017877995968,0.05176679417490959,0.06250937283039093,-0.0181325301527977,-0.05747319757938385,0.025302790105342866,0.00542350672185421,-0.042014267295598987,0.07956408709287644,-0.05473430082201958,0.02150861546397209,-0.025148190557956697,0.005055808927863836,-0.07118741422891617,0.04027637466788292,-0.05655409023165703,-0.005594696383923292,-0.022107088938355447,0.010387413203716278,-0.054264795035123828,0.027408914640545846,0.07431817054748535,0.042438969016075137,-0.07584496587514878,0.023829929530620576,0.06394918262958527,-0.022402659058570863,-0.06287405639886856,0.020845167338848115,-0.08237762749195099,0.07899487018585205,0.03401178494095802,-0.040973011404275897,-0.0754690170288086,0.047646041959524158,0.0715886652469635,0.015169575810432434,0.002542742993682623,0.042662300169467929,0.05271739140152931,-0.06876125931739807,-0.0837751179933548,-0.005007061176002026,-0.07671840488910675,-0.08435805141925812,-0.022519303485751153,0.06371420621871948,0.010432124137878418,-0.08471392095088959,-0.0854136273264885,-0.020393697544932367,-0.08574649691581726,0.07121744006872177,-0.036445025354623798,0.03983054682612419,-0.029280846938490869,0.08704425394535065,0.0538545660674572,0.01848635822534561,0.07958079129457474,0.06634575128555298,0.007764063775539398,0.020229050889611245,-0.02249668538570404,-0.08164845407009125,-0.003529507899656892,0.08510186523199082,-0.06222454458475113,0.02559959515929222,0.023668838664889337,-0.08361531049013138,-0.015697529539465905,-0.021939918398857118,-0.012524822726845742,-0.0008522368152625859,-0.015375178307294846,0.009599417448043824,-0.03224179893732071,0.007078447844833136,-0.08509687334299088,-0.023624498397111894,-0.06276983767747879,0.052037958055734637,0.052713871002197269,-0.044949498027563098,0.002904406748712063,0.02738776244223118,-0.023063255473971368,0.058479078114032748,0.06713532656431198,-0.01988248899579048,-0.007374770473688841,-0.07608554512262345,-0.04788384586572647,-0.01962580345571041,-0.0017997632967308164,0.0007879501790739596,-0.027584148570895196,0.06289604306221008,0.08700579404830933,-0.013686132617294789,0.011638578027486802,0.08320719748735428,0.04266531392931938,-0.010326474905014038,-0.010705946013331414,0.07638466358184815,-0.024680960923433305,0.05106256902217865,0.05253669247031212,-0.0007846357184462249,0.07334756851196289,-0.08496364951133728,-0.012787766754627228,-0.0858418270945549,0.06533990055322647,0.04163753613829613,0.01173887774348259,-0.05023333802819252,-0.035013679414987567,-0.004601558670401573,0.07906810194253922,-0.05626048520207405,0.0195784792304039,0.025258362293243409,0.030883468687534334,-0.07263637334108353,0.07990245521068573,-0.06508287042379379,0.0628494843840599,-0.04394030198454857,-0.024897899478673936,0.07484005391597748,-0.0851605162024498,0.04280579462647438,-0.033925000578165057,-0.04566944018006325,-0.018910124897956849,0.049997832626104358,0.02839287556707859,0.06839000433683396,-0.03005385771393776,0.0853380411863327,-0.08556551486253739,-0.024017194285988809,0.045605048537254336,0.01313304528594017,0.06727512180805206,-0.055499475449323657,-0.044837914407253268,-0.05749421566724777,-0.01735878176987171,-0.0802888572216034,0.0685933455824852,-0.010995670221745968,-0.048002973198890689,-0.05887914448976517,-0.019553884863853456,0.021096952259540559,0.06593595445156098,-0.023242143914103509,0.06223100796341896,0.034295257180929187,0.035816848278045657,-0.005195103585720062,0.04507734999060631,-0.06429888308048248,-0.07915883511304856,-0.05071166902780533,-0.015762606635689737,0.03135061636567116,0.010420230217278004,0.033182378858327869,-0.06735420227050781,0.001467046095058322,0.03152342140674591,0.08530742675065994,-0.08306577056646347,0.06303039938211441,-0.024332528933882715,0.0661795362830162,-0.061583466827869418,0.06431356072425842,-0.06183972582221031,0.05924912542104721,0.08354023844003678,-0.011031902395188809,0.08795339614152909,0.030377674847841264,-0.052992142736911777,-0.05620043724775314,-0.05968624725937843,0.01897350884974003,-0.037407178431749347,-0.06179634481668472,-0.07060560584068299,-0.013704060576856137,-0.018429558724164964,0.022752700373530389,-0.05039357393980026,0.06188957765698433,-0.05939536914229393,0.06224774569272995,0.0053899469785392288,0.04469487816095352,-0.019698498770594598,0.0008490389445796609,0.08357015997171402,-0.07825858891010285,-0.041353315114974979,-0.06751015782356262,0.003153348807245493,-0.04979822784662247,-0.041066866368055347,0.08119958639144898,-0.05956752970814705,0.04227667674422264,0.045528948307037356,-0.0396977998316288,0.04985078051686287,-0.041388437151908877,0.08532226085662842,-0.04320988431572914,0.01876891776919365,-0.011277046985924244,0.08310330659151077,0.02313901111483574,-0.01627027802169323,-0.022022556513547899,0.086318738758564,0.021529188379645349,-0.05498185381293297,0.05322013050317764,0.01899702101945877,-0.04976270720362663,-0.07837966084480286,0.046541012823581699,-0.007550933863967657,-0.009293505921959877,-0.06166848912835121,0.013315302319824696,0.05735058709979057,-0.028229789808392526,0.014216055162250996,0.0829857736825943,0.05649333447217941,0.005492088850587606,-0.05187664180994034,-0.01793735660612583,-0.06617878377437592,-0.020617594942450525,0.08045559376478195,-0.057201333343982699,0.07646599411964417,-0.039144355803728107,0.003887401893734932,0.05704979598522186,-0.05052688717842102,0.06284726411104202,-0.035378146916627887,-0.04223472625017166,-0.08421575278043747,0.04540872946381569,-0.034342363476753238,0.0031085051596164705,-0.036062274128198627,0.07106083631515503,-0.027521587908267976,-0.08067106455564499,-0.011804915964603424,-0.08336523175239563,0.05725550651550293,-0.07241026312112808,0.04728064686059952,0.08371880650520325,0.07642437517642975,-0.07487910240888596,0.07601771503686905,-0.07416994124650955,-0.012331457808613778,-0.059732358902692798,0.0038229236379265787,-0.07548238337039948,-0.043616753071546558,0.036509495228528979,0.04860904440283775,0.05703902989625931,-0.00009185706585412845,0.010147303342819214,0.0221849512308836,0.04613930732011795,0.08064664900302887,0.06690516322851181,0.004727610386908054,0.058659978210926059,-0.04233923181891441,-0.025630636140704156,-0.0805850401520729,-0.057845909148454669,0.07495789229869843,0.08314095437526703,0.03358124941587448,0.08369918167591095,-0.08459250628948212,0.07555657625198364,-0.06044438108801842,-0.06546282023191452,0.0020980872213840486,0.00010939413186861202,-0.051090631633996966,-0.006566612049937248,-0.06742718815803528,0.08415111154317856,-0.008430695161223412,-0.08383206278085709,-0.08434557914733887,0.05506220459938049,0.04159330204129219,-0.006117930170148611,-0.07257657498121262,-0.0701831728219986,0.05989189073443413,0.025082899257540704,0.04300403222441673,0.03320760279893875,0.0700707957148552,0.03919753432273865,0.02879788540303707,0.010981950908899308,-0.0008506758604198694,0.05311041325330734,0.057839419692754748,0.024616729468107225,-0.08251308649778366,-0.049468833953142169,-0.08324234932661057,-0.07637724280357361,-0.02598167210817337,-0.05613289400935173,-0.007978007197380066,0.06598065048456192,0.06457116454839707,-0.034617919474840167,-0.0870954617857933,-0.018840046599507333,0.009565291926264763,0.05490916967391968,0.07890697568655014,-0.005987216718494892,0.07160552591085434,-0.0834292322397232,-0.05218431353569031,0.021952593699097635,-0.012296818196773529,0.053038276731967929,0.06056908518075943,-0.02317279949784279,0.007676342967897654,-0.011378255672752858,0.024253113195300103,0.04468496888875961,-0.04413829371333122,0.08002813160419464,-0.0412958562374115,-0.08233459293842316,-0.04351365193724632,-0.016154702752828599,0.07120493054389954,0.07524938136339188,0.06597104668617249,0.013223175890743733,0.07841334491968155,-0.06623557209968567,-0.03482712060213089,0.0615108385682106,0.079334557056427,0.061767395585775378,0.05720822885632515,0.06938210129737854,-0.01967473514378071,0.005391990765929222,-0.009244759567081929,-0.03776368498802185,0.0475710965692997,-0.027113178744912149,-0.019277170300483705,0.0406319834291935,-0.05305323749780655,0.04657111316919327,0.02584892138838768,-0.04624420031905174,-0.08064284920692444,-0.0497930571436882,0.0385177880525589,-0.07338367402553559,-0.07198500633239746,-0.0822090208530426,-0.06595458835363388,-0.05546216294169426,-0.034726254642009738,0.023998050019145013,-0.06851339340209961,-0.016086509451270105,-0.07808022201061249,0.02568906918168068,0.04877113923430443,-0.028129836544394494,0.07248613238334656,-0.08170916140079498,0.08426251262426377,-0.02458905801177025,-0.013590589165687561,-0.0626375749707222,0.010920342057943344,-0.0563218891620636,0.08579399436712265,0.08411549776792526,-0.008220084011554718,0.04558814689517021,0.03290198743343353,-0.003822614438831806,-0.07382099330425263,-0.051109954714775088,-0.0004874144506175071,-0.043216243386268619,-0.06653007864952088,-0.046377915889024737,-0.08319015055894852,-0.04357454180717468,0.04338613525032997,0.08795614540576935,0.07976541668176651,0.08641502261161804,-0.06574122607707977,0.04238056018948555,0.051488712430000308,0.06505434960126877,-0.013590175658464432,-0.024990547448396684,-0.03903213515877724,-0.01137589942663908,0.04320891201496124,0.003122420748695731,0.00677309837192297,0.08218693733215332,-0.02830119989812374,0.06768172979354859,-0.02112133614718914,-0.0740634873509407,0.08461981266736984,-0.05016450211405754,-0.06044608727097511,-0.06899755448102951,-0.030254798009991647,-0.0074739777483046059,-0.057830099016427997,0.028659433126449586,-0.08264864981174469,-0.07979137450456619,0.06373126804828644,-0.01892061159014702,-0.011257384903728962,0.03975966200232506,-0.010057114064693451,-0.012137604877352715,-0.00043457362335175276,-0.05304962396621704,0.006759457290172577,0.06470287591218949,0.0869167298078537,0.036246489733457568,0.08150690793991089,0.06658490747213364,-0.08703245222568512,-0.008912980556488037,0.07257269322872162,0.07544098794460297,0.008792197331786156,0.037498462945222858,-0.0013780633453279734,-0.07050326466560364,-0.013907345943152905,-0.06617552042007446,0.0576716847717762,-0.04505809396505356,-0.07981247454881668,-0.027619270607829095,-0.05940772965550423,-0.08564408123493195,-0.07095477730035782,-0.06523211300373078,-0.030415689572691919,0.0057772425934672359,0.07970280200242996,0.035508133471012118,-0.012392869219183922,0.04538189619779587,0.06063145771622658,0.06609728932380676,0.018678369000554086,-0.014235100708901883,0.05678114295005798,-0.035314563661813739,-0.017687944695353509,-0.003578742267563939,0.08015848696231842,-0.03302498161792755,0.018271517008543016,-0.004186278209090233,0.045161474496126178,0.06739187240600586,-0.04253773391246796,0.02991434931755066,0.07480832934379578,-0.022235095500946046,0.015465687029063702,-0.08493700623512268,0.02959604002535343,-0.08274440467357636,-0.06763000786304474,-0.06071781367063522,-0.07347840815782547,-0.006167125888168812,-0.030843058601021768,0.0037671050522476436,-0.04415620490908623,0.06396924704313278,0.011711720377206803,-0.049912482500076297,-0.02713850699365139,-0.0384071059525013,-0.014378383755683899,-0.03773185983300209,0.04347570613026619,0.02222611755132675,-0.006073989439755678,0.08177991211414337,-0.05898928642272949,-0.014763860031962395,0.06137828901410103,-0.06023194268345833,0.08672987669706345,-0.07485043257474899,0.06064782291650772,0.05914457142353058,0.053512945771217349,0.05593843385577202,0.07447285950183869,-0.002606410998851061,0.04292071610689163,-0.037678156048059466,0.035261716693639758,0.07266084104776383,0.0014674571575596929,-0.06018101051449776,-0.07385741919279099,0.0815412700176239,-0.06948941946029663,-0.0811859592795372,-0.0877324566245079,0.06830409169197083,-0.060476385056972507,-0.007266802713274956,0.018149709329009057,-0.041195981204509738,0.006823020987212658,0.06812970340251923,0.004818138666450977,0.054851826280355456,-0.06267386674880982,0.026806272566318513,-0.00792383961379528,-0.05146222561597824,0.07407645881175995,-0.037840038537979129,0.03655874356627464,0.05726490542292595,-0.05474952608346939,0.014466386288404465,-0.03057762235403061,0.005576769355684519,0.02876952290534973,0.07581675797700882,0.08190394192934036,-0.06120685487985611,0.04442393034696579,0.007197944913059473,0.029553484171628953,-0.03604010120034218,-0.0016898683970794082,0.023367617279291154,0.01610935665667057,0.0012495617847889662,0.059024691581726077,0.0021552597172558309,0.016145750880241395,-0.05062272399663925,-0.028223691508173944,0.06515561789274216,-0.043057672679424289,-0.04800843819975853,-0.030941849574446679,0.0412011556327343,-0.03696247190237045,0.04405568540096283,0.03071392886340618,-0.054796140640974048,-0.053357530385255817,-0.05625477805733681,0.054420940577983859,0.051869768649339679,0.008340632542967797,0.0649658590555191,0.006500495597720146,-0.021990520879626275,0.028270844370126725,-0.01829836703836918,0.01054360345005989,-0.036594096571207049,-0.01691025123000145,0.04198608919978142,-0.04860858619213104,0.06036315858364105,0.026853684335947038,0.05644616857171059,-0.07665454596281052,0.05625109374523163,-0.013838142156600953,0.07242560386657715,0.061416465789079669,-0.07087067514657974,0.01905849762260914,-0.08654411882162094,-0.0731988325715065,-0.010224579833447934,0.045057523995637897,0.0558663085103035,0.008314178325235844,0.03533967584371567,0.05171136185526848,0.0509890541434288,0.03936338424682617,-0.042287133634090427,-0.019348254427313806,-0.040899284183979037,0.08786268532276154,-0.03449619188904762,0.029833486303687097,-0.018092336133122445,-0.017324917018413545,-0.0775417909026146,-0.04232483729720116,0.029624726623296739,-0.08548416942358017,-0.024240847676992418,