{"LearningRate":0.002,"hiddenAType":1,"outputAType":4,"layersSize":[6,10,10,2],"Layers":[{"InputSize":6,"NodeSize":10,"Weights":[{"weigths":[0.4690955539397226,0.11086641965731464,-0.38626812761942877,0.4644486572606043,-0.06760020929320486,0.3374117320122624]},{"weigths":[-0.23626115316006977,-0.047431341847913439,-0.02396182184345842,-0.012353837298256957,-0.17388613945085619,-0.13295280589690573]},{"weigths":[0.2485618626320224,0.1999798061473771,0.06389780015534288,0.056093777635286719,0.28042044827856818,0.10591484890140059]},{"weigths":[0.24792126230535634,-0.10596470847313266,0.08875502738723991,0.30954583930645399,-0.24730525529065687,-0.2821040608519704]},{"weigths":[0.4342431581128153,-0.22456189430782085,-0.33020234797137817,0.12182202661702556,-0.17096468120040396,-0.4733436898327012]},{"weigths":[0.03790161290429388,0.018958174525704129,0.40668019682316888,-0.2049403941132541,-0.10695716650395242,-0.29478434722177768]},{"weigths":[0.08105779145203583,-0.1228512824047915,-0.5068424856470156,-0.48391534301214086,0.13942229608818103,0.05421048894468383]},{"weigths":[-0.12615426396033986,0.01204930998246657,-0.16914457263778458,-0.3454913481280695,-0.3964318925217639,-0.35137422843049295]},{"weigths":[0.19747715767490468,0.33979465325311888,-0.12238419497078929,0.46311887146788158,-0.3552231155341556,-0.014489593947705269]},{"weigths":[-0.13341867849223414,0.45995426158701177,-0.40253994022638819,0.2806524591656305,0.3327552604194845,-0.12939670995872908]}],"Biases":[-0.3251997127902279,-0.32473915557349566,-0.42343093455885857,0.4174693633102015,-0.04935357293788353,0.15854655337672275,0.03814776378019629,-0.36714939185495856,0.559010757525442,0.43036716310496078],"_Delta":[-0.0000065768460323255189,0.000012843557670895776,-0.0015730703793740058,0.0006140999490216185,-0.00174702229483196,-0.0008655824650054892,0.000011355444050461744,0.000012411172398444192,0.0006422539827767058,-0.0003721831760130699],"_Inputs":[2.11175799369812,1.7682421207427979,2.0118842124938967,2.456056833267212,2.456056833267212,-4.272702217102051],"_Outputs":[-0.382649579733649,-0.8450911575525019,0.9574595717212602,2.2904784627312839,1.7078635925587849,1.5837149355922693,-2.1053358070838588,-1.2734369989783859,1.6576141163435559,2.2114718076645625]},{"InputSize":10,"NodeSize":10,"Weights":[{"weigths":[-0.49952575756149178,-0.3244926832408395,-0.0048177117310376289,0.2091697429029396,-0.30676329765101009,0.1457238789510136,0.17113377672823408,0.07278106763638757,0.4328214632887065,-0.4032979082682261]},{"weigths":[0.31486939515005316,-0.09481027086483082,-0.34710200703570096,-0.18101218152002072,-0.3336207921621708,0.04513416901043429,-0.13518267160328918,0.43423570051269097,-0.4337244765186597,0.09635966060055633]},{"weigths":[0.17681906720011868,0.19768231421081218,0.22577911162779594,-0.0947750883143988,0.2804527867932749,-0.3932410405135854,0.030503475201907345,0.007418156127330567,-0.5045165687620147,-0.3161585291521866]},{"weigths":[-0.23640060387860088,-0.49455293953430787,0.11777396040064199,-0.44612347982938646,-0.4599272742207004,0.4351209896802231,0.2724970420817503,-0.21292673425507595,-0.4034840615507658,-0.4895811967882316]},{"weigths":[-0.1808146066246121,-0.4080505304312509,0.36603302359919639,0.19887856423526033,0.35339537510292798,0.08565327803392346,-0.30765624603989757,-0.17731853379578256,0.35660497617409528,-0.14228719829755932]},{"weigths":[0.4389764674102896,-0.40410428069442419,0.13720650561670259,0.22444982434471673,-0.3771111690044688,0.06118298421231999,0.08342417727893392,0.24145021003159654,-0.3975683201636407,-0.025949639283025958]},{"weigths":[0.20160151778773129,-0.09742761993564267,-0.3082783464569777,-0.2971700987830256,0.31881522758128918,-0.09819591174959663,-0.22526090264819199,0.01800692215179792,-0.3064928325453633,-0.05097342901197394]},{"weigths":[-0.00581735552989914,-0.2408473009874375,-0.3947270445815938,0.0505212032463559,-0.34307775985723795,0.2863091531189587,0.19441623118772939,-0.41108977617766737,0.43190245122934259,0.2318753847036205]},{"weigths":[0.4109825260042692,-0.2577583406915451,0.1754719096341535,-0.30306708681521396,0.31671165453798308,0.32251837764709148,-0.1580219016577571,-0.4221722826119834,-0.3575964480340759,0.36093483135139206]},{"weigths":[0.32592588889756465,0.4145381287052234,-0.28156069439693717,-0.2230965607860837,-0.4675995470036935,0.09157503892356739,-0.20452571260728093,0.34190744726360108,0.2865612199958587,0.2517374990137952]}],"Biases":[-0.37921257299877927,0.11903944844293599,0.14972486777782899,0.012293335753398163,-0.16581783891984848,-0.03227309158452855,-0.02265533969561642,0.14134933063726838,-0.454244636774336,0.0016609388350503055],"_Delta":[0.000048688118441584914,-0.00003255546168819686,-0.0001923084821737085,-0.00026046695054159064,-0.0020405272490520646,0.0001953724727871159,0.00015481279070846585,0.0007585485086704845,-0.002678336744316476,-0.00009650307268250771],"_Inputs":[-0.00382649579733649,-0.008450911575525019,0.9574595717212602,2.2904784627312839,1.7078635925587849,1.5837149355922693,-0.021053358070838587,-0.012734369989783858,1.6576141163435559,2.2114718076645625],"_Outputs":[-0.37215641679424019,-1.6351400820547913,-1.5335487636578289,-2.742632425768961,1.6686148115341602,-0.6534535701190333,-1.2257042841362865,0.9785775946138633,0.2859120576569408,-0.40557139643146858]},{"InputSize":10,"NodeSize":2,"Weights":[{"weigths":[0.07489960218215705,0.24640142603144955,0.2445731823827162,-0.40825715901632389,-0.24774689874801104,0.3538789607521311,0.3372901932509782,0.14966096442543773,-0.06363015527633008,0.11145867974759978]},{"weigths":[0.09315304931882276,-0.06228707588846654,-0.3679362049254058,-0.49834110387393179,-0.039040599955696527,0.3737984168542893,0.29619718300169459,0.014513008286339708,-0.051243556502407788,-0.18463550814347197]}],"Biases":[-0.02186081085287824,0.07148259688121626],"_Delta":[0.0,0.05226680049404121],"_Inputs":[-0.003721564167942402,-0.016351400820547914,-0.015335487636578289,-0.02742632425768961,1.6686148115341602,-0.0065345357011903329,-0.012257042841362864,0.9785775946138633,0.2859120576569408,-0.004055713964314685],"_Outputs":[-0.31075278518642676,0.021051893926551325]}]}