{"LearningRate":0.002,"hiddenAType":1,"outputAType":4,"layersSize":[3,10,2],"Layers":[{"InputSize":3,"NodeSize":10,"Weights":[{"weigths":[0.4016467218678574,-0.3371226603293147,0.03525572662510297]},{"weigths":[0.5645537961943289,-0.37505984986092885,0.09719334316496203]},{"weigths":[-0.419175153510009,0.40729685815552249,0.446820140321097]},{"weigths":[-0.39939440296100378,-0.027956529561001254,0.3956225441853777]},{"weigths":[-0.4930304421658691,-0.010174061187588306,-0.178424357218597]},{"weigths":[0.33041505325944167,0.01588789568074962,-0.2915730574520676]},{"weigths":[0.04536620474000004,-0.1034257062531683,0.026099113834850159]},{"weigths":[-0.32024131297235028,-0.5110860820266037,-0.21934888077209356]},{"weigths":[0.26588782118863565,-0.3218219002419999,0.12480358896935198]},{"weigths":[0.2442402683880226,0.05277672213810003,-0.2839754698637816]}],"Biases":[-0.2253569139187359,-0.07728169609910966,-0.34051373852377156,0.2136849936931,-0.3148402977523042,-0.43708071899482917,-0.34543295433386519,-0.27542273799810199,0.33176006639867269,-0.5229156473695266],"_Delta":[0.36408394217964099,-0.598203941798528,-0.000190998233135299,-0.005575851398535087,0.001514060018212071,0.1488691089860473,0.0038095429069758587,-0.0073639253911750549,0.4848516967683035,-0.3102429799671183],"_Inputs":[2.4338204860687258,1.4461801052093506,-3.5859992504119875],"_Outputs":[0.154140182092575,0.3796309531519674,-2.3739912453780755,-2.2177455458116754,-0.8896055637532397,1.4421605486272915,-0.4780166950186473,-1.0076923694135072,0.08713687888734312,1.152609086958247]},{"InputSize":10,"NodeSize":2,"Weights":[{"weigths":[0.22230016449715224,-0.37402290984589378,-0.0174424692955541,-0.3479394274176705,0.10077924816117548,0.0983569628580899,0.24325351066924467,-0.44596324259733269,0.3067213445615,-0.19780741607935743]},{"weigths":[0.0037333424799968946,-0.3611051406207166,-0.2340317624703377,-0.3088011600937352,0.3387052099492251,0.3033516979887345,0.43482860361714978,0.14045565770763664,0.43713932392739615,-0.34221289743917596]}],"Biases":[-0.039201801812951467,-0.062190677443735329],"_Delta":[1.638483537552257,-0.040504653648017838],"_Inputs":[0.154140182092575,0.3796309531519674,-0.023739912453780756,-0.02217745545811675,-0.008896055637532399,1.4421605486272915,-0.004780166950186473,-0.010076923694135072,0.08713687888734312,1.152609086958247],"_Outputs":[-0.18075823122387148,-0.11204096591831628]}]}