{"LearningRate":0.002,"hiddenAType":1,"outputAType":4,"layersSize":[3,10,2],"Layers":[{"InputSize":3,"NodeSize":10,"Weights":[{"weigths":[0.4308313161089637,-0.29465009728965649,0.08835781673742853]},{"weigths":[0.48400812616312818,-0.4245349503309353,0.14269344180188268]},{"weigths":[-0.4877384353956476,0.3603587325188271,0.3979367851751944]},{"weigths":[-0.3988093458559682,-0.04788656933782469,0.38963495793477817]},{"weigths":[-0.500653576569872,-0.054803714241925278,-0.0934901220680477]},{"weigths":[0.173902232827719,0.017618024762783035,-0.37239036057616506]},{"weigths":[0.04301245736404177,-0.09935127962138013,0.029080175523102299]},{"weigths":[-0.31983547225786038,-0.5055380901611886,-0.2226700123185563]},{"weigths":[0.21570932646004588,-0.41082820882959966,0.08647139098216117]},{"weigths":[0.1160049967147664,-0.0002533420892354982,-0.4416354272591268]}],"Biases":[-0.2062537132102616,-0.11137890244545376,-0.36981191481915856,0.17407818805868384,-0.32869595304781709,-0.4776739390700698,-0.34509364544391749,-0.27574008146265857,0.3369361740637161,-0.5703999661853803],"_Delta":[-0.000014496113851755204,0.00011822762700802859,9.466010637648097e-7,0.0000015846690242022659,-0.000001507716186055242,-0.00011774037896250944,-0.000001959395287574794,-6.061615220629916e-7,-0.00016325872575710697,0.00010450438706624573],"_Inputs":[3.0984983444213869,0.7815016508102417,-0.643000066280365],"_Outputs":[0.8415924499850906,0.9647955668761924,-1.8553210622906869,-1.3495906097389752,-1.862685304696552,0.31437464596962996,-0.3081614068904498,-1.5186517961629325,0.6286433357156688,0.07281737552150303]},{"InputSize":10,"NodeSize":2,"Weights":[{"weigths":[0.1753116136894313,-0.3528777686057038,0.025375468099020198,-0.2730135203314239,0.09974759785032954,-0.05777547961658909,0.24397469467019965,-0.4430913843926739,0.3862483318166529,-0.3919177205702441]},{"weigths":[0.03204208648276766,-0.2613293388824318,-0.2092358921847139,-0.3502738902254415,0.3332643004814784,0.2602523299562641,0.4331030640380705,0.13398542610174614,0.3608656956803824,-0.23099560630174185]}],"Biases":[0.027318471877326845,-0.020541064604223785],"_Delta":[0.0,-0.0004524085489735902],"_Inputs":[0.8415924499850906,0.9647955668761924,-0.01855321062290687,-0.013495906097389751,-0.01862685304696552,0.31437464596962996,-0.003081614068904498,-0.015186517961629325,0.6286433357156688,0.07281737552150303],"_Outputs":[0.03784833349709573,0.04517730744105297]}]}