{"LearningRate":0.002,"hiddenAType":1,"outputAType":4,"layersSize":[3,10,2],"Layers":[{"InputSize":3,"NodeSize":10,"Weights":[{"weigths":[0.390843852269713,-0.3250963034397275,0.09386662610090477]},{"weigths":[0.6556798280203002,-0.23777365434849929,0.1969444814023068]},{"weigths":[-0.5092347140817306,0.4274807286941525,0.3576511710139722]},{"weigths":[-0.4140749355061545,-0.004044932104185623,0.3573252533560897]},{"weigths":[-0.5006822766235648,-0.05425891604979719,-0.0946954311137135]},{"weigths":[0.3123944534659369,0.16846780298717158,-0.3647649370143846]},{"weigths":[0.04246247107288096,-0.09880629786703814,0.02905359482175928]},{"weigths":[-0.3178075893387226,-0.5052083896596862,-0.21965477969399578]},{"weigths":[0.11222006417616683,-0.45036281188667678,0.09398311773284275]},{"weigths":[0.14940150002561437,0.07753224574528173,-0.5082435433509175]}],"Biases":[-0.224474372866399,0.18250574881030197,-0.3575078346211153,0.30073108196997808,-0.32929017600426466,-0.4063639128319725,-0.3465021596706054,-0.2757039179300066,0.19806299173655887,-0.533115229368595],"_Delta":[-0.00015207275080308906,0.0488546458092907,-0.000051508300062777884,0.024779261236968294,-0.0000964095157264982,-0.00004954745647874995,-0.00022905975420302375,0.0004119324973684874,-0.03381704634637068,0.0003689460049214166],"_Inputs":[0.0,0.0,0.0],"_Outputs":[-0.22447467701190064,0.18260345810192056,-0.35750793763771546,0.300780640492452,-0.3292903688232961,-0.4063640119268854,-0.34650261779011379,-0.27570309406501189,0.1979953576438661,-0.5331144914765852]},{"InputSize":10,"NodeSize":2,"Weights":[{"weigths":[0.16242903690395775,-0.5218168952149889,0.0550160599290424,-0.26466750398458468,0.1029750872864067,0.05292168119786939,0.24465892194473719,-0.4399854573791689,0.3612001650506026,-0.3940715475486174]},{"weigths":[-0.0074187347975673569,-0.1512734862748793,-0.273623849646728,-0.4150728994974661,0.3331607897757619,0.3020299963444744,0.43365960219590207,0.13304780551339696,0.2744415045658062,-0.29431147743858629]}],"Biases":[-0.19628931682322776,-0.2193678412146467],"_Delta":[-0.093624116538355,0.0],"_Inputs":[-0.0022447467701190066,0.18260345810192056,-0.0035750793763771545,0.300780640492452,-0.003292903688232961,-0.004063640119268855,-0.003465026177901138,-0.0027570309406501189,0.1979953576438661,-0.005331144914765852],"_Outputs":[-0.29853286595277425,-0.31912862073570477]}]}