{"LearningRate":0.002,"hiddenAType":1,"outputAType":4,"layersSize":[6,10,2],"Layers":[{"InputSize":6,"NodeSize":10,"Weights":[{"weigths":[-0.4716401333592111,-0.20983357083625749,-0.2419972509785278,0.057451242118318718,0.3686288567399584,-0.21800860499084766]},{"weigths":[-0.00589272094929133,0.06469424528117823,-0.2981501513995874,0.39059921432709429,-0.3232279031487676,0.19267489041971048]},{"weigths":[0.10400478177530435,0.2783372700867191,0.23008709996688296,0.023524651967717453,0.30968244896812638,0.34266344682341096]},{"weigths":[0.1916660675447497,-0.31856231249715385,0.3427728205320461,-0.2284135897300875,0.1495819032656384,-0.14284440265295265]},{"weigths":[-0.20783765552394024,0.07681788667586066,0.3576686357073409,0.29107065321407679,0.07570615463977035,0.399111973245287]},{"weigths":[-0.013562243008679434,0.01467650233357852,0.36552581930524649,0.43926380664913119,-0.4431457853614026,-0.29034502922791535]},{"weigths":[-0.06996776951033812,0.05558479983986454,0.41566689158124456,-0.38947757437756616,-0.4324155857377724,-0.05516596288445431]},{"weigths":[-0.44553460003777736,-0.3937886795547737,0.35556370632375008,-0.004107362046836772,0.24025840562793564,0.1787832324054582]},{"weigths":[0.12272607895821444,-0.24300518186784515,0.28339977563307408,-0.25069248735029728,-0.3736349218971723,0.4000783738501111]},{"weigths":[0.1566390187826572,-0.003177830438455879,-0.47515224131057506,-0.41453277317873868,-0.5195133410248535,-0.42242092597502847]}],"Biases":[-0.31955933977990716,0.11323130021137869,0.20108274236043453,0.3362998256452453,0.25087494082463127,-0.47444230545932555,0.16585893026691615,0.19015380491269347,0.2618719044275492,0.4749670053762862],"_Delta":[0.00003304873001693763,0.0008753581968046076,-0.0025469670252351789,-0.004155653270604412,0.002601367912741098,-0.000024557596302811594,0.002223976094521432,0.0012606141217126467,0.0031984449341565959,-0.0015355892634694436],"_Inputs":[0.0,0.0,0.0,0.0,0.0,0.0],"_Outputs":[-0.3195592736824471,0.11323305092777229,0.20107764842638407,0.3362915143387041,0.25088014356045676,-0.4744423545745181,0.16586337821910519,0.1901563261409369,0.2618783013174175,0.4749639341977593]},{"InputSize":10,"NodeSize":2,"Weights":[{"weigths":[0.4040634226331938,0.1070238489798602,-0.3113996250454929,-0.5080823023870126,0.3180508363896684,-0.30024834263443175,0.2719098107994414,0.15412636321513596,0.39105121635135939,-0.18774562690858374]},{"weigths":[0.2648617196788628,0.09687909701259487,0.06584614519822345,0.10314245526494052,0.04150175997470965,-0.05782861512779544,0.009933554053072716,0.21922243778607643,-0.1867755776711436,0.03271930912176108]}],"Biases":[0.10538577749271769,-0.2892292470556723],"_Delta":[0.008179094707847154,0.0],"_Inputs":[-0.003195592736824471,0.11323305092777229,0.20107764842638407,0.3362915143387041,0.25088014356045676,-0.004744423545745181,0.16586337821910519,0.1901563261409369,0.2618783013174175,0.4749639341977593],"_Outputs":[0.05162043842709105,-0.21053110307908944]}]}