{"LearningRate":0.002,"hiddenAType":1,"outputAType":4,"layersSize":[3,10,2],"Layers":[{"InputSize":3,"NodeSize":10,"Weights":[{"weigths":[0.3913438546075275,-0.32432522684818806,0.09404859496890912]},{"weigths":[0.649817874834204,-0.26234109729150825,0.2147898362093312]},{"weigths":[-0.5014478676832229,0.4354626312659314,0.37199665155735819]},{"weigths":[-0.40180669031914376,0.0018604888388506548,0.3746230940159156]},{"weigths":[-0.5006495267043938,-0.05377389502186724,-0.09369542930645024]},{"weigths":[0.3212036812338414,0.21578817262047773,-0.3796271173481821]},{"weigths":[0.04257728786831423,-0.09790244506195758,0.028575882952499959]},{"weigths":[-0.31795663499073875,-0.5056241994791807,-0.22171880630307115]},{"weigths":[0.1133410693409857,-0.44884391587831937,0.08880726309190508]},{"weigths":[0.12141310994820862,-0.015405114605271647,-0.4761707086968894]}],"Biases":[-0.2241026664249315,0.17683071224671097,-0.35334352997523568,0.31916105611307518,-0.3295156722006407,-0.38945819248025345,-0.3462883533034356,-0.2754940540291311,0.191657835366413,-0.5719974382545504],"_Delta":[0.000005743059012183247,0.011466671573586126,0.0001723769325277418,0.0002672013731404092,-0.00020609046108287135,-0.020258385947000986,-0.000268187729406291,-0.00008213043501894536,-0.00016599258835071302,0.018584354652601437],"_Inputs":[1.3974254131317139,2.482574462890625,-1.1008005142211915],"_Outputs":[-0.5859189676459371,0.19741750309859064,-0.38250166050868569,-0.6500947973870455,-1.0594980225760096,1.0125854806937014,-0.5613017653717121,-1.730997981937456,-0.8620074269015611,0.08397681254745293]},{"InputSize":10,"NodeSize":2,"Weights":[{"weigths":[0.1615869067109134,-0.520803214060658,0.08392643769679877,-0.26451958460961758,0.1022413997884393,0.09857789432970037,0.24406578734767299,-0.44156435220940667,0.3595117051214083,-0.388577507250081]},{"weigths":[-0.009285204289871108,-0.185389681456764,-0.27869381630695685,-0.43200310685987688,0.3332008306529192,0.3275314631138535,0.43359781786874476,0.13278600584620968,0.2683718015383804,-0.3004662309385216]}],"Biases":[-0.09290307206271577,-0.22832934385189153],"_Delta":[0.0,-0.061851724882867057],"_Inputs":[-0.005859189676459371,0.19741750309859064,-0.0038250166050868567,-0.006500947973870455,-0.010594980225760095,1.0125854806937014,-0.005613017653717121,-0.01730997981937456,-0.00862007426901561,0.08397681254745293],"_Outputs":[-0.12598859721009676,0.03458947231007656]}]}