{"LearningRate":0.002,"hiddenAType":1,"outputAType":4,"layersSize":[3,10,2],"Layers":[{"InputSize":3,"NodeSize":10,"Weights":[{"weigths":[0.3907087945705473,-0.32529988282520935,0.09374806277205201]},{"weigths":[0.6602674701386407,-0.21950503279528298,0.18573879368095179]},{"weigths":[-0.5067689063830767,0.4413186725818016,0.3465592109165486]},{"weigths":[-0.4191935618734915,-0.002979776635312326,0.34659397207441469]},{"weigths":[-0.5007598653179649,-0.05467049115839239,-0.0956803446030352]},{"weigths":[0.30348448460464497,0.13188126784748945,-0.34007549224787578]},{"weigths":[0.04235531495552034,-0.09938950003842356,0.029550291831041139]},{"weigths":[-0.31792400016057756,-0.5056267646561782,-0.21447743359157005]},{"weigths":[0.11096693016703258,-0.4512272578100186,0.09792972573924004]},{"weigths":[0.16176913061955548,0.12020364002388412,-0.5360969716752025]}],"Biases":[-0.224573616408374,0.19404888545908795,-0.3533007498733348,0.2975576498146406,-0.329097793456598,-0.42272950379912208,-0.34674747286585996,-0.2772017101558119,0.19576365210295733,-0.513273994480603],"_Delta":[0.00001045676094563405,0.022004470972502339,0.00043027796903689485,0.000641658151808589,-0.0005252235225680886,-0.04186715197013468,-0.0006836154688995589,-0.00020550262609764946,-0.0004363658053332485,0.051491603138682697],"_Inputs":[1.9213640689849854,1.9586360454559327,0.0],"_Outputs":[-0.11102367481981512,1.0331079127491723,-0.46259831949439336,-0.5136911518575047,-1.3983283585760538,0.4179680079855938,-0.46004700949681967,-1.87839177254483,-0.4748258898310572,0.033856812682981577]},{"InputSize":10,"NodeSize":2,"Weights":[{"weigths":[0.16261392717405843,-0.5226340163698769,0.043228178351775958,-0.266750645500555,0.1031015744453678,0.05062046388549407,0.24479105162313287,-0.4397008973607184,0.3596992218716257,-0.39383643827892869]},{"weigths":[-0.006637617880223374,-0.13967735394478937,-0.2731267125254451,-0.40730410148795118,0.3333951175356492,0.2657593091740559,0.43393726634436899,0.13044650370324663,0.27699107657303498,-0.32685225133447118]}],"Biases":[-0.2219364119516396,-0.26144615929593259],"_Delta":[0.0,-0.15753785671799098],"_Inputs":[-0.0011102367481981514,1.0331079127491723,-0.004625983194943934,-0.005136911518575047,-0.013983283585760539,0.4179680079855938,-0.004600470094968196,-0.0187839177254483,-0.004748258898310573,0.033856812682981577],"_Outputs":[-0.7490767921383711,-0.3135028526798638]}]}