{"LearningRate":0.002,"hiddenAType":1,"outputAType":4,"layersSize":[6,10,10,2],"Layers":[{"InputSize":6,"NodeSize":10,"Weights":[{"weigths":[0.47068577027821748,0.10813218410363908,-0.38493549864204248,0.43871118595040256,-0.0848438174772777,0.3030232956448861]},{"weigths":[-0.236855640393651,-0.04698254386408701,-0.025970333357691005,-0.012952212015422136,-0.17562087526486137,-0.13405051338901437]},{"weigths":[0.21212585319740946,0.1863590924959,0.02885586855203226,0.029515150734739698,0.23899460329754469,0.115896836601663]},{"weigths":[0.2408928405885373,-0.11129483588725812,0.09158333828459008,0.3253771598081382,-0.245365537562748,-0.2762687006950648]},{"weigths":[0.4046354601181041,-0.1915705080689761,-0.32828482849159437,0.15498347047821249,-0.15720298686230634,-0.46899200342555977]},{"weigths":[0.04417088101719445,0.021012436001188386,0.3941060682118328,-0.22125310078368044,-0.1217245246505541,-0.290648200101675]},{"weigths":[0.08156210076032074,-0.12840609163043385,-0.5021660231666357,-0.4761759090070274,0.13564163724167145,0.056758140420757347]},{"weigths":[-0.1123466513384878,0.027677503568213914,-0.17244548876071018,-0.3486672393889982,-0.3930514675050391,-0.3685575950722067]},{"weigths":[0.2163751005037275,0.35012553640716889,-0.14182096668159098,0.4335579160992947,-0.35681952832990257,-0.012963435341734189]},{"weigths":[-0.10860179581824688,0.4705103708506261,-0.3915243400096111,0.28337404216232089,0.34249807554858677,-0.1374905563817569]}],"Biases":[-0.3260198940410899,-0.32289030204354349,-0.4321187641658264,0.41297793101860177,-0.045672988579022969,0.1631995392696896,0.038500942970003528,-0.3614763181631848,0.5777329526638128,0.4403739705480999],"_Delta":[0.01636453829169911,-0.000056959082332393976,0.00500490941670463,-0.004126829881921238,0.0140883105696677,0.00005118020717919819,-0.00922065018121532,-0.00005544864731763555,-0.01104747796842034,0.01434241152994085],"_Inputs":[2.705796241760254,1.1742037534713746,-1.0,-1.0,2.0471620559692385,0.0],"_Outputs":[0.8475844759965479,-1.33954413998749,0.7917228478965898,0.014707384696396152,0.6761744308525244,-0.11465134462495802,1.3641457490898297,-0.916493520986834,0.5517631467429542,1.5087498748102649]},{"InputSize":10,"NodeSize":10,"Weights":[{"weigths":[-0.4972857728315526,-0.3244847798615204,-0.005398465480425017,0.19326001808491698,-0.3158639417408428,0.1340015683074115,0.1712370107815614,0.07275823562256335,0.4202928273245084,-0.4091832300361156]},{"weigths":[0.31475019797868916,-0.09538228086115566,-0.3468126550880553,-0.18128323784863344,-0.33391217359314809,0.045211526775782617,-0.1379787827969749,0.4321953492787253,-0.4338150704362813,0.09704424380121608]},{"weigths":[0.17022216488647178,0.19717570039992009,0.2229646581473319,-0.0995802311610085,0.2728340430351564,-0.3932131772050576,0.02299390086605034,0.00558931901299543,-0.5086307114651721,-0.3188871493422748]},{"weigths":[-0.2395963512266216,-0.4945046353750075,0.11554336669922552,-0.4480662833923449,-0.4599833579786849,0.43693020475324986,0.2656368107335603,-0.21256009990213016,-0.4047247641525909,-0.4909836126576967]},{"weigths":[-0.20579158703079737,-0.4074204935063478,0.3297745606609413,0.175229846397046,0.34048844730922137,0.10137603935121362,-0.3092832303253022,-0.17533237728182625,0.33940581314997156,-0.16679563851658009]},{"weigths":[0.4077066796387802,-0.4046412852834157,0.11374039240403322,0.2200348694187296,-0.3774572823955317,0.05548325909919676,0.07633655067899463,0.23863376638305784,-0.4220467778963676,-0.07090106632377955]},{"weigths":[0.2035917742479664,-0.09745544220731216,-0.30678765544035466,-0.2958528845220986,0.318954122984876,-0.0992587467108531,-0.22530246794239745,0.017814552970660984,-0.3057491253741703,-0.05011938490515951]},{"weigths":[0.01842294261651479,-0.2414092794857028,-0.3772252524899634,0.07123385511063783,-0.33682428794297716,0.2777157609493535,0.1795398459100517,-0.4155123570608273,0.4547661786736467,0.23353679084127788]},{"weigths":[0.4108884533301055,-0.2577031965765611,0.17010975380755254,-0.31217906682252369,0.3067536304236455,0.3199350744936133,-0.15642593382762824,-0.4225875811552296,-0.3612290364806349,0.3559083579917459]},{"weigths":[0.2859002380128477,0.4145739840162391,-0.2964729423405892,-0.23752445910468937,-0.44071517394577339,0.11760965715724084,-0.1994785113577172,0.3508551140252876,0.2667186071599842,0.2433434394714219]}],"Biases":[-0.3836822312227953,0.11621444860942633,0.1444334483398534,0.006375641377565153,-0.1724172098370715,-0.05276262677547345,-0.023013744640991649,0.14616682973215656,-0.45646245052619929,0.01830432942786644],"_Delta":[0.00042575876157675753,-0.0012763373480528214,-0.007263853298190482,-0.010045276760660489,-0.0001920451064188637,0.007344605146726119,0.005890745439535231,-0.008515691681252443,0.0290723245310746,-0.0007492993001050331],"_Inputs":[0.8475844759965479,-0.0133954413998749,0.7917228478965898,0.014707384696396152,0.6761744308525244,-0.0011465134462495804,1.3641457490898297,-0.00916493520986834,0.5517631467429542,1.5087498748102649],"_Outputs":[-1.168513279638017,-0.4039612799906108,-0.08448833474174217,-1.016633685536184,-0.33228936263024858,-0.10156829418725186,-0.43234868947596186,0.4912101481405708,0.36096313403377858,-0.04231171003950216]},{"InputSize":10,"NodeSize":2,"Weights":[{"weigths":[0.0704950506226803,0.24327866450502837,0.2444842849907129,-0.4060358137105007,-0.1439219391826716,0.3440877336973812,0.3367950540571528,0.0898775866444269,-0.05056157278238941,0.03530898034463228]},{"weigths":[0.021313825811498253,-0.06389447350974378,-0.3636343344868484,-0.5028746286091629,-0.0096139323850987,0.36767683692947819,0.29489545143628517,-0.004263023701179132,0.014553839331359476,-0.03751052521848576]}],"Biases":[-0.05694340523820579,-0.013682843878490354],"_Delta":[0.0,1.9975708037694096],"_Inputs":[-0.011685132796380173,-0.004039612799906108,-0.0008448833474174217,-0.01016633685536184,-0.0033228936263024857,-0.0010156829418725186,-0.004323486894759619,0.4912101481405708,0.36096313403377858,-0.00042311710039502154],"_Outputs":[-0.030272961422998389,-0.0012145981152951666]}]}