{"LearningRate":0.002,"hiddenAType":1,"outputAType":4,"layersSize":[3,10,10,2],"Layers":[{"InputSize":3,"NodeSize":10,"Weights":[{"weigths":[0.36358719261597746,0.0330109786568697,-0.3349841858295791]},{"weigths":[-0.06971191584585541,-0.16764528320317999,0.28573581203926659]},{"weigths":[-0.400121821152876,-0.39883865434170798,-0.32085974021334487]},{"weigths":[-0.4535499197508779,0.3088986068485597,-0.15393513786554254]},{"weigths":[0.14250659599378874,0.4390184020558957,-0.2982418082948809]},{"weigths":[-0.4170613643678321,0.39194850014322465,0.1884192182119029]},{"weigths":[-0.31473412005419579,0.34727212087759437,-0.3628161988976082]},{"weigths":[-0.27444031385616549,-0.2146826129567748,-0.17319988503635268]},{"weigths":[0.17194587683591096,-0.4033380621152807,0.04853205032944147]},{"weigths":[-0.0354593026467527,-0.2409696756498538,-0.20073569816121096]}],"Biases":[-0.40429723230218636,0.4584755963961501,0.3002063385565655,-0.4181368684239045,-0.4539983463688057,0.2179233980387636,-0.42626084405739275,-0.34092613974132349,0.15417989930546079,-0.3573981443870208],"_Delta":[-0.0011316155736681739,0.000004993392393191916,0.000007343952240921122,0.0007633223142544617,-0.0006542637503897637,0.0000811069264468456,0.00009306490330444653,-0.0000028913377903498737,1.5174985822322295e-7,0.0000042664378592947438],"_Inputs":[0.7312560081481934,3.1487441062927248,-1.0353995561599732],"_Outputs":[0.3123353498307928,-0.41622436625560896,-0.9160077928535547,0.3822481846359733,1.3413501155506174,0.9520031556067546,0.8127210454845602,-1.0382618687113503,-1.0403420506813919,-0.9342380588650162]},{"InputSize":10,"NodeSize":10,"Weights":[{"weigths":[-0.3331351034479077,0.03987984115642663,0.4138258261746843,0.2474411263182733,0.18269539768175706,-0.11498215043900069,-0.305998460112898,0.3127752321486516,-0.10823963382057665,-0.1845003885439298]},{"weigths":[-0.3141413656871168,-0.485285014568641,0.07619195064176425,0.4273980852297277,-0.11523282874911804,-0.01614096599913225,0.4250564579617513,-0.22599642264022808,-0.4694803221862369,-0.46708733323203119]},{"weigths":[0.10715931736997064,0.13309703627153744,0.0076906208958188,0.31705079237030966,-0.3797599959057408,-0.40756823228676827,0.1041456841803098,-0.24080200087474075,0.46500597426771037,0.06962316720051826]},{"weigths":[0.3750777078849223,0.005650240381667319,-0.321479268077995,0.10763387676584041,0.023163974344213,-0.4791347407511654,-0.4033094733918932,-0.4162465682957286,-0.42449749164592268,0.482722113771115]},{"weigths":[0.01973554710538212,0.18438721324532127,-0.18923780576892555,0.08229510564564288,-0.41661713012945086,-0.42250976129982245,-0.17664384725128544,-0.22718074936625388,-0.46327736552493578,-0.29101542732705595]},{"weigths":[0.13379313209292763,-0.4317424456620149,0.4175454602262432,-0.4642280883494099,0.4262580391015226,-0.28764083788723979,-0.1212427514131745,-0.021953111338282286,-0.34426627329662048,-0.024502914694696906]},{"weigths":[0.35798214676790149,-0.07539228233802206,-0.16192572484092813,-0.2846420143738925,-0.27587187716218417,0.10510539376527488,0.17601831766436713,0.09606768110401012,0.15863277507700603,0.3685346863035746]},{"weigths":[0.3860008270262708,-0.17753531114374125,-0.24774077240238549,-0.2654293967694797,0.2152619142014191,-0.026879820341223265,-0.019314407684306958,0.09629668542908283,-0.012963092666989463,-0.1613082154299445]},{"weigths":[-0.38373118758554999,0.42116849221989979,0.4745680079202091,0.42516058133265796,-0.07349801257794934,-0.49451286432073879,-0.48280470971424557,-0.04365946908054844,-0.04338569253122161,0.42750491739771148]},{"weigths":[0.23084120242982734,-0.23700637504465414,-0.2499785944264243,0.19168712608351796,-0.04736588631159065,-0.454878020802544,-0.09345692777528683,-0.14185903744058477,0.28934198322247475,0.0542209836844425]}],"Biases":[-0.050396537834783147,-0.3089424984696161,-0.011275815044422785,-0.35255643705540459,0.06749605944797325,-0.4127231966783151,0.07576402609643245,0.10046980974186699,-0.1315542270970923,-0.26816838451556215],"_Delta":[9.016267056175701e-7,0.000029444942359768864,0.000038043143985765715,-0.000026396024357100554,0.00004357814622415107,0.00003246334173312661,0.000017633223182580475,-0.002930221858622835,-0.000030544272477401953,-0.00003643184866358571],"_Inputs":[0.3123353498307928,-0.004162243662556089,-0.009160077928535548,0.3822481846359733,1.3413501155506174,0.9520031556067546,0.8127210454845602,-0.010382618687113503,-0.010403420506813919,-0.009342380588650163],"_Outputs":[-0.17731310007168139,-0.05525273415301851,-0.6729820723429373,-0.9399592426160035,-0.9886413631367329,-0.3469845062528542,-0.05244923771731266,0.37064960626806967,-1.0598297267157347,-0.6940982864988647]},{"InputSize":10,"NodeSize":2,"Weights":[{"weigths":[-0.3793187866946767,0.40067187251723737,0.45916754762066189,0.16674136642430294,0.2995524479050665,-0.20430042371242197,-0.09979140127881357,-0.020262662298294443,0.2741973980567034,0.1425532587587042]},{"weigths":[-0.010312187360796836,-0.33677103900091345,-0.4351113671885701,0.30189960773636756,-0.49841692343378365,-0.3712934191321196,-0.2016767028977548,0.3351386624481564,0.34934442228001047,0.4166824773249823]}],"Biases":[-0.08618366521368974,-0.1756954517358442],"_Delta":[0.0,-0.008743311909219426],"_Inputs":[-0.0017731310007168139,-0.0005525273415301851,-0.006729820723429373,-0.009399592426160035,-0.009886413631367329,-0.0034698450625285425,-0.0005244923771731266,0.37064960626806967,-0.010598297267157347,-0.006940982864988648],"_Outputs":[-0.10399598346306129,-0.05147446381787618]}]}