{"LearningRate":0.002,"hiddenAType":1,"outputAType":4,"layersSize":[4,10,2],"Layers":[{"InputSize":4,"NodeSize":10,"Weights":[{"weigths":[0.4979872703552246,0.3868682384490967,-0.12084835767745972,0.20154736936092378]},{"weigths":[0.00940471887588501,-0.03280323743820191,0.3980456590652466,0.08926492929458618]},{"weigths":[0.44753825664520266,-0.4761618375778198,-0.11488944292068482,-0.4545696973800659]},{"weigths":[0.3730860948562622,-0.17029303312301637,-0.20788639783859257,0.39840996265411379]},{"weigths":[0.03582483530044556,-0.2214676737785339,0.1611796468496323,0.4415038824081421]},{"weigths":[0.16938303411006928,0.35177791118621828,0.3447415828704834,-0.3449890613555908]},{"weigths":[-0.4574944972991944,-0.4315667152404785,0.3749408721923828,-0.13881438970565797]},{"weigths":[0.002426683902740479,-0.47326409816741946,0.4210467338562012,-0.378679633140564]},{"weigths":[-0.2238425612449646,-0.3598248958587647,0.1102047562599182,-0.15805858373641969]},{"weigths":[0.3040151596069336,-0.2648431062698364,-0.3040904998779297,0.4428001642227173]}],"Biases":[0.3812354803085327,-0.18791896104812626,-0.375684142112732,0.16923557221889497,0.3351461887359619,0.10979324579238892,0.38749492168426516,-0.4247803688049317,0.2890956401824951,0.05115979909896851],"_Delta":[0.0,0.0,0.0,0.0,0.0,0.0,0.0,0.0,0.0,0.0],"_Inputs":[1.7899999618530274,2.0900001525878908,-1.0,2.299999952316284],"_Outputs":[2.6655946502347556,-0.4323796118144543,-1.5003898323621173,1.605376495513127,0.7906844322032782,0.009988350906226629,-2.0276086736299279,-2.70156851411852,-1.3373561144736784,1.3643556471581349]},{"InputSize":10,"NodeSize":2,"Weights":[{"weigths":[0.4715747833251953,0.1523737758398056,0.10410243272781372,-0.4390898942947388,-0.19617515802383424,-0.3326154947280884,-0.22545534372329713,-0.2340030074119568,0.3751492500305176,-0.36062943935394289]},{"weigths":[0.14686726033687592,-0.4717910289764405,-0.001144111156463623,0.35994839668273928,0.41938555240631106,-0.24192959070205689,0.42738640308380129,0.09070426225662232,0.44012629985809328,-0.002904236316680908]}],"Biases":[0.07442206144332886,0.340958833694458],"_Delta":[0.0,0.0],"_Inputs":[2.6655946502347556,-0.004323796118144543,-0.015003898323621174,1.605376495513127,0.7906844322032782,0.009988350906226629,-0.020276086736299278,-0.027015685141185205,-0.013373561144736785,1.3643556471581349],"_Outputs":[-0.02026180369944447,1.6205777280835763]}]}