{"LearningRate":0.002,"hiddenAType":1,"outputAType":4,"layersSize":[4,10,2],"Layers":[{"InputSize":4,"NodeSize":10,"Weights":[{"weigths":[0.031109814088410759,0.38080975777874606,0.15267722138976168,0.05743726084043363]},{"weigths":[-0.009413245060405782,-0.19014392350653665,-0.12978330876560358,-0.044864814307314888]},{"weigths":[-0.35108098044779947,-0.4838905310858308,-0.29602691132758737,0.23437082172351657]},{"weigths":[0.12603724432294473,0.38782418635041379,0.12324342847679061,-0.18478940092560534]},{"weigths":[0.4298396475777212,-0.44589049575504516,0.1257252519859416,-0.3912650950419003]},{"weigths":[0.15947573203459204,-0.028570430968183827,0.1778253941748256,-0.38954641796899389]},{"weigths":[-0.18691536614013797,0.24023352976701543,0.23525691524233267,-0.13218042015092255]},{"weigths":[-0.271035600381873,-0.21513759693646823,-0.2734210044236777,0.17782033945511653]},{"weigths":[0.09536504201423742,-0.29447051501600038,-0.04529328489719218,0.05430623820311148]},{"weigths":[0.4674499876872988,-0.3165319175174105,0.09331349718258039,-0.29198970617238387]}],"Biases":[0.0060551594209377599,0.004466610709843613,0.07813837878361696,-0.0025775404027124605,-0.07071547862560354,-0.20129420747841288,-0.0637154824489228,-0.05294783012734413,-0.36271952340350296,-0.1266427740808068],"_Delta":[-0.0022761055298201528,-0.00004308495351221263,-0.00017469389884937207,0.004951246052970739,0.0025778223932626357,-0.015341467993473669,0.010096318472496605,-0.000015559931008537358,0.0001449237041839767,0.010772333433235242],"_Inputs":[1.49881911277771,2.381180763244629,-1.0,-4.321752071380615],"_Outputs":[0.5584230246278388,-0.13873374481540419,-2.3171749923114959,1.7854626821840274,1.0771634331763292,1.474520003149666,0.5647431321123277,-1.4665379812907523,-1.110368626083513,0.9894701577451275]},{"InputSize":10,"NodeSize":2,"Weights":[{"weigths":[-0.0002960018950735971,-0.19113229085641635,0.3036816457583286,-0.2379582136614718,0.20347345033571893,-0.33042179812070596,0.24807842893257416,0.46909865136481429,-0.27287184484415746,-0.3630604700308926]},{"weigths":[0.05084272448341754,0.09624142607198741,0.39022416367638476,-0.11059893121066789,-0.057582353713710388,0.342691505356073,-0.2255274773813077,0.034757144380320539,-0.3237247072425699,-0.24062802607960058]}],"Biases":[0.15240518094864292,0.0969823101573374],"_Delta":[0.0,-0.0447675759500754],"_Inputs":[0.5584230246278388,-0.0013873374481540419,-0.023171749923114959,1.7854626821840274,1.0771634331763292,1.474520003149666,0.5647431321123277,-0.014665379812907522,-0.011103686260835131,0.9894701577451275],"_Outputs":[-0.7704232225105547,-0.0011842930889768566]}]}