{"LearningRate":0.002,"hiddenAType":1,"outputAType":4,"layersSize":[3,10,2],"Layers":[{"InputSize":3,"NodeSize":10,"Weights":[{"weigths":[-0.03202981280684951,-0.5193803053662899,-0.10888553530123586]},{"weigths":[0.40162444928364296,0.06754216486471254,-0.361382107668168]},{"weigths":[-0.3548065036777476,-0.2521503231928836,0.47650559298472408]},{"weigths":[-0.5141468810456652,0.43782423281560919,-0.41348829250688398]},{"weigths":[-0.14918327170504015,0.32631336365142279,-0.10379471631561377]},{"weigths":[-0.3920602964895845,0.1826299570944896,-0.28461833707115516]},{"weigths":[0.4294739894098252,-0.04640614186952592,-0.09339888929373998]},{"weigths":[-0.2719648525448719,0.1374139682746411,-0.0033609719197113449]},{"weigths":[-0.30391730114147366,-0.3464705842423005,0.4496639850246362]},{"weigths":[0.14507435000226319,0.042764921753262557,0.125387251333818]}],"Biases":[-0.0022319379009502909,0.1493227576112726,0.4344009696839491,0.2796911501712806,-0.3066467630597567,-0.32768186400212548,0.5126214852872323,-0.15715902418955694,-0.006947659402153599,0.2808435329254094],"_Delta":[-0.000836122283714164,-0.0067990927446008029,-0.0008504565899573355,0.080844210162612,-0.0579483552426129,-0.05787440262950154,0.060941216709065059,-0.054230682847002189,-0.0003628801864811783,-0.05683112109826122],"_Inputs":[0.22138023376464845,3.6586198806762697,-0.7738004922866821],"_Outputs":[-1.825307274687249,0.7647788067810655,-0.9354141951198312,2.0900897867967078,0.9327576643258313,0.4721950533658735,0.5120205029855623,0.2863490014879713,-1.689794233683913,0.3706872867159821]},{"InputSize":10,"NodeSize":2,"Weights":[{"weigths":[0.4513231502094187,0.03670022933042963,0.45906054027274376,-0.43638190630086967,0.31279436928021556,0.31239518692416859,-0.32894927498586626,0.2927270699184487,0.1958759287980597,0.30676374859982349]},{"weigths":[0.27957254738010936,-0.05956036385505383,0.14796623304696458,0.17644424228928808,-0.16654330286707409,-0.4126399962618007,0.1913075890845917,-0.18427199359392686,-0.020491451047716905,-0.13251244508259595]}],"Biases":[0.29334384464120347,-0.0894837750906503],"_Delta":[-0.18526022503525348,0.0],"_Inputs":[-0.01825307274687249,0.7647788067810655,-0.009354141951198311,2.0900897867967078,0.9327576643258313,0.4721950533658735,0.5120205029855623,0.2863490014879713,-0.01689794233683913,0.3706872867159821],"_Outputs":[-0.14091797151612907,-0.12651534152897557]}]}