{"LearningRate":0.0024999999441206457,"hiddenAType":1,"outputAType":4,"layersSize":[8,128,128,5],"Layers":[{"InputSize":8,"NodeSize":128,"Weights":[0.03781777620315552,-0.0631856843829155,-0.04527211934328079,-0.021200232207775117,-0.0064549073576927189,0.03284219279885292,-0.02461465448141098,0.013739526271820069,-0.06496826559305191,0.05498475581407547,0.029828963801264764,-0.037491194903850558,-0.08430130034685135,0.039636895060539249,-0.049669425934553149,-0.06110692769289017,0.05964762717485428,-0.018301397562026979,-0.03965791314840317,0.07236743718385697,0.013313479721546173,-0.08091027289628983,-0.032286033034324649,0.03917785361409187,-0.08067619055509567,-0.006273277103900909,-0.03852086514234543,0.023276586085557939,0.04432206600904465,0.07480921596288681,-0.0030505582690238954,0.07329071313142777,0.08065380901098252,-0.004646383225917816,0.043946728110313418,-0.043853845447301868,0.0004505366086959839,-0.06555917114019394,-0.013791240751743317,0.07778103649616242,-0.05338131636381149,0.075760118663311,0.0037257522344589235,0.019844450056552888,0.022108379751443864,-0.06826004385948181,-0.060009248554706576,0.07797587662935257,0.02774718403816223,-0.02840268611907959,-0.030875591561198236,-0.003148190677165985,-0.04514489695429802,-0.06112715229392052,-0.04172258824110031,-0.08696413785219193,0.05119145289063454,-0.039713598787784579,0.0016573071479797364,-0.01454952359199524,-0.01126902550458908,-0.08437801152467728,-0.00802072137594223,-0.0005891397595405579,0.0052003636956214909,0.004112064838409424,0.06366609781980515,0.08476390689611435,-0.07279371470212937,-0.08435354381799698,0.007361486554145813,0.08096431940793991,0.08349237591028214,-0.02413570135831833,-0.04437527805566788,0.07540980726480484,-0.028290892019867898,-0.022174522280693055,-0.08337103575468064,0.00482390820980072,0.08077574521303177,0.06078692525625229,0.05667012184858322,-0.02668924815952778,-0.08366309851408005,0.009802885353565216,0.04636475443840027,0.08115427941083908,-0.005861289799213409,-0.0005512908101081848,0.07837134599685669,-0.03720761090517044,-0.009969845414161682,0.014264464378356934,0.007949598133563996,0.006827443838119507,0.038156650960445407,-0.0013999193906784058,-0.07332993298768997,0.0582798607647419,0.08518821746110916,0.011093102395534516,0.013825058937072754,-0.028878524899482728,0.01421656459569931,0.05570078641176224,-0.003012433648109436,-0.0008088052272796631,0.02594098262488842,0.03741101175546646,-0.07425866276025772,-0.06806165724992752,0.04526166617870331,0.08643677830696106,-0.015259884297847748,0.025219786912202836,0.0023614540696144106,0.0235416479408741,0.058880601078271869,0.03328593447804451,-0.0876360610127449,0.046533722430467609,-0.00021563470363616943,0.0695127323269844,-0.04888317734003067,-0.04126624017953873,0.0366104356944561,-0.022442638874053956,-0.0768580213189125,-0.060314733535051349,0.032973457127809528,-0.07658307999372482,-0.05599116533994675,0.05954641476273537,0.04293130338191986,-0.04030743986368179,-0.02942340075969696,-0.07070658355951309,-0.04426421970129013,-0.037648312747478488,0.062264733016490939,0.06944723427295685,0.06713147461414337,0.08160405606031418,0.043231938034296039,-0.08262655884027481,0.03791508823633194,0.07778506726026535,0.05412363260984421,-0.0602877177298069,0.06753062456846237,0.06837586313486099,-0.031433992087841037,0.016728661954402925,-0.049065105617046359,-0.05827752500772476,0.004890628159046173,0.049278512597084048,-0.018290333449840547,0.06534422188997269,0.08301278948783875,0.0471501424908638,0.041186023503541949,0.08619340509176254,-0.06652794033288956,0.0393533930182457,0.005285605788230896,0.07681260257959366,-0.07950307428836823,0.004445701837539673,0.04240202158689499,-0.008168220520019532,0.07400291413068772,-0.08678596466779709,-0.05229045823216438,-0.06498657912015915,-0.04970104247331619,0.029481252655386926,0.0290226973593235,-0.08588612824678421,0.08163399249315262,0.04120153561234474,-0.04057925194501877,-0.08060034364461899,0.023448776453733445,0.029650326818227769,-0.0059861913323402409,0.08766154199838638,0.08487638086080551,-0.021740153431892396,0.01390480250120163,-0.05732133239507675,-0.004357762634754181,0.026769189164042474,-0.0494910404086113,0.08238104730844498,-0.03196525573730469,0.07483522593975067,0.025460105389356614,0.015384875237941742,0.024855617433786393,0.027833184227347375,-0.010460667312145234,-0.01739569753408432,0.07253704220056534,0.03089888207614422,0.04789504408836365,-0.07817056030035019,0.04462992399930954,-0.02433842420578003,-0.05957212299108505,0.011136829853057862,0.0029340609908103945,-0.06412356346845627,0.059041090309619907,-0.031237313523888589,-0.04401799291372299,0.06583225727081299,-0.0721711665391922,-0.014866359531879425,0.07374472171068192,-0.08196213096380234,-0.05483446270227432,0.008486807346343995,0.06804656982421875,0.05217208340764046,-0.0750259980559349,-0.014116257429122925,0.056161217391490939,-0.021854713559150697,-0.045203737914562228,0.04669158160686493,0.010715529322624207,0.004521921277046204,-0.061722271144390109,0.057994820177555087,0.08396745473146439,-0.009120166301727295,-0.08404941111803055,0.08331038802862168,0.05818880349397659,0.06124503165483475,0.02974781207740307,-0.010500647127628327,0.08274247497320175,0.0185282900929451,-0.0868108943104744,-0.013530097901821137,-0.08799605816602707,-0.018076710402965547,-0.05757560580968857,-0.04709821194410324,0.06738779693841934,-0.0523085817694664,0.0037881657481193544,-0.0878642126917839,-0.05310509353876114,-0.07671291381120682,-0.010502055287361145,0.03151281550526619,-0.014080725610256195,0.08305595070123673,-0.06951024383306503,-0.043430231511592868,-0.0764770582318306,-0.014764010906219483,0.022372785955667497,-0.013526581227779389,0.03551723062992096,-0.0028054341673851015,0.010105811059474945,0.08375713974237442,0.029269276186823846,-0.06269197911024094,0.08506570011377335,0.07754511386156082,0.07177308946847916,-0.05820130184292793,0.043115779757499698,-0.054258547723293307,-0.02362155169248581,0.08738905936479569,0.03342343866825104,0.07843821495771408,0.0013349726796150208,-0.04171641543507576,0.013624042272567749,0.01433449238538742,0.05840519815683365,0.05972355976700783,0.03449529781937599,-0.020669646561145784,0.08263342827558518,0.05009856075048447,0.04742873087525368,0.08347628265619278,0.04773674160242081,-0.08058492094278336,0.027958212420344354,-0.013206325471401215,0.08738202601671219,0.06354349106550217,0.06214969605207443,0.07868652045726776,0.055695775896310809,0.08071332424879074,0.0005616992712020874,-0.0267119649797678,0.005282066762447357,0.027310144156217576,-0.01269858330488205,-0.08280565589666367,0.05354762822389603,0.04157266020774841,-0.06952396780252457,-0.07832608371973038,-0.010320782661437989,0.04159415513277054,0.0723128393292427,0.028605591505765916,-0.0053530409932136539,-0.03131275624036789,-0.015354953706264496,-0.018412597477436067,-0.02195405215024948,0.03053368255496025,0.03348815441131592,0.03540107607841492,-0.06718144565820694,0.03237767145037651,0.04768567532300949,0.03023751638829708,0.07540632039308548,0.009032167494297028,0.020516544580459596,-0.029892979189753534,0.05267763510346413,0.06328458338975907,0.07479170709848404,-0.015314742922782898,0.038934603333473209,0.01843295246362686,-0.0036955922842025759,0.0260624922811985,0.07764879614114762,0.06507481634616852,0.04786946251988411,-0.08627600222826004,0.027269136160612108,-0.07010342180728913,-0.029507314786314966,0.012295953929424286,0.0004923716187477112,-0.010439872741699219,-0.026015721261501313,-0.0028008148074150087,-0.025492191314697267,0.010091356933116913,0.07336697727441788,-0.0058762505650520329,0.08701150864362717,0.07042630761861801,-0.08098436146974564,0.07559692114591599,-0.033095404505729678,0.04289368540048599,-0.07145573943853378,-0.07579071074724198,-0.026163466274738313,-0.06925692409276962,-0.01724827289581299,0.036397531628608707,0.0799950584769249,0.03216537833213806,0.030689140781760217,-0.03146766871213913,-0.04326286166906357,-0.021757982671260835,-0.053630076348781589,-0.009169332683086396,-0.06536497920751572,-0.02899712510406971,0.05805084854364395,-0.07158848643302918,0.043967947363853458,0.018835581839084626,0.03678879886865616,-0.017325401306152345,0.05564313381910324,-0.0341489240527153,0.08752050250768662,-0.0713709220290184,-0.005545206367969513,0.0042375847697257999,0.06949559599161148,-0.04171479493379593,-0.08069487661123276,-0.05216231197118759,-0.07023238390684128,0.01470281183719635,-0.010293662548065186,-0.010996609926223755,-0.08610887080430985,0.07805538922548294,0.067093126475811,-0.03943624347448349,0.04799075797200203,-0.0506405308842659,0.007612191140651703,0.0384560264647007,-0.07172521203756333,-0.04859984666109085,-0.04524868354201317,-0.054921768605709079,0.07919200509786606,0.025195781141519548,-0.036380916833877566,0.016749106347560884,0.008378468453884125,-0.010949000716209412,-0.021999463438987733,0.0671209767460823,-0.022284120321273805,-0.007651858031749725,-0.07236737757921219,-0.03140702098608017,-0.05046703666448593,0.05731187015771866,0.0297207310795784,-0.04653323441743851,-0.007608167827129364,0.01899854838848114,0.020040713250637056,0.06955306977033615,0.005101844668388367,-0.007449693977832794,-0.001569703221321106,0.005353882908821106,-0.06764084845781326,-0.045365117490291598,0.008250042796134949,-0.07304438203573227,0.0021370649337768556,0.06777720898389816,-0.0049210116267204288,0.06311409920454025,0.013176903128623963,-0.005660310387611389,0.012242257595062256,-0.009646542370319367,-0.08046460896730423,-0.04132651537656784,-0.08525202423334122,-0.027052177116274835,-0.08420752733945847,0.05357392877340317,-0.05832027643918991,0.03227095305919647,0.07480475306510925,-0.037221767008304599,-0.001191563904285431,-0.061239536851644519,-0.0026250630617141725,-0.07436402887105942,-0.02740422636270523,-0.06960304826498032,0.06518352776765824,-0.047011665999889377,-0.08239629119634628,0.024825144559144975,-0.041517771780490878,0.012934543192386628,-0.053074561059474948,0.001401752233505249,-0.024053171277046205,0.03406912833452225,0.08019006997346878,-0.06362313777208328,-0.06252530962228775,0.07731862366199494,0.014051221311092377,-0.08610235899686814,0.06880833208560944,-0.05229368060827255,0.049051765352487567,0.08067216724157334,-0.0720476284623146,-0.01686777174472809,0.04192342609167099,-0.024697326123714448,0.03956170752644539,-0.07170156389474869,0.04832424595952034,-0.0638863816857338,-0.08694437891244888,0.0638028234243393,-0.014839813113212586,-0.03218671679496765,0.07419345527887345,-0.004578843712806702,-0.005339443683624268,-0.032661013305187228,0.004811175167560577,-0.03804463893175125,-0.06576482206583023,0.08616531640291214,0.05878996104001999,0.0033894628286361696,0.0762074813246727,0.0101790651679039,0.04152859002351761,-0.05829370766878128,-0.008107759058475495,0.06888969987630844,0.06504883617162705,-0.06195049360394478,0.017010770738124849,0.08005639165639878,-0.03000388853251934,-0.011426925659179688,0.020437225699424745,0.02697545662522316,0.08719972521066666,0.07678259909152985,0.04063904285430908,0.07773684710264206,0.08814931660890579,-0.04856147617101669,-0.03165990114212036,-0.08815626055002213,-0.035756006836891177,-0.08245740085840225,-0.05892331525683403,-0.008171357214450837,0.08736888319253922,-0.0037866532802581789,-0.021783798933029176,-0.05088614672422409,0.06519503891468048,0.039222780615091327,0.08732219785451889,0.07844282686710358,-0.04033643752336502,0.03669717162847519,-0.008417852222919464,0.07058054208755493,-0.05094888061285019,-0.059632040560245517,-0.0853564515709877,-0.004079006612300873,-0.001081623136997223,0.01088152825832367,-0.06647472828626633,0.036056920886039737,-0.009330816566944123,-0.02232542634010315,-0.0704011470079422,0.023676369339227678,-0.009119197726249695,0.07705710083246231,0.02698179893195629,-0.08060538023710251,0.027343986555933954,-0.08301692456007004,0.03721380978822708,-0.05424722656607628,-0.0705544576048851,0.01628158986568451,0.02386505901813507,-0.04749416559934616,0.020211659371852876,-0.03829929605126381,-0.0036355555057525636,0.0025190412998199465,-0.06526627391576767,-0.0049261972308158878,0.04647422581911087,0.0009709447622299194,0.011082589626312256,-0.0023958906531333925,-0.032802753150463107,0.014658786356449128,-0.0012918338179588318,-0.04426797479391098,-0.006377503275871277,0.0013030022382736207,-0.08826389163732529,0.06764041632413864,0.061606280505657199,-0.07031362503767014,0.05060803145170212,0.06526375561952591,-0.002199508249759674,0.0006819888949394226,0.0437166690826416,-0.06033540517091751,-0.033077701926231387,0.05939237028360367,0.04106993228197098,0.06143655255436897,-0.03372713923454285,-0.029782341793179513,-0.05461590737104416,-0.011778771877288819,0.014991052448749543,0.04490434378385544,-0.007821857929229737,0.06763390451669693,0.0031808987259864809,-0.010717257857322693,-0.08825916796922684,0.05563413351774216,-0.04026580601930618,0.0026824697852134706,-0.0029762089252471925,0.021825246512889863,0.0036077573895454408,0.019177541136741639,0.03225173428654671,0.04402022808790207,0.03246738016605377,-0.045314375311136249,-0.0095008984208107,0.028944913297891618,-0.021370820701122285,0.03713368624448776,0.06800275295972824,0.012539982795715332,-0.07464218884706497,-0.030048122629523279,0.057906799018383029,0.04306332767009735,0.057644493877887729,0.02626991644501686,0.06758061796426773,-0.0629194900393486,0.07712609320878983,0.041934676468372348,-0.016884736716747285,-0.0528961643576622,0.029520196840167047,-0.07749401777982712,0.05294432118535042,0.05636187642812729,0.040722109377384189,-0.023660853505134584,0.05314028263092041,-0.08744882792234421,0.07990173995494843,-0.061041973531246188,0.030749011784791948,-0.05846349149942398,-0.0802851989865303,-0.03616677224636078,0.06050833314657211,-0.08521618694067002,0.045781612396240237,0.07574602216482163,-0.035899050533771518,-0.05432536453008652,-0.05139502137899399,-0.07229238003492356,-0.0001028701663017273,0.001110471785068512,0.05327228456735611,-0.07059866935014725,-0.0148581862449646,-0.016041606664657594,-0.027525169774889947,0.015174709260463715,0.034152790904045108,-0.06103670969605446,0.07497658580541611,0.017506353557109834,-0.07110243290662766,-0.058399055153131488,-0.003762289881706238,0.013276711106300354,0.0777537003159523,0.07343112677335739,-0.08047746866941452,-0.028096700087189676,-0.02875415049493313,0.039278943091630939,-0.023929491639137269,0.046286530792713168,0.07777916640043259,-0.0844326987862587,0.04021622613072395,-0.061956413090229037,0.04086362197995186,0.08675136417150498,0.07176733762025833,-0.05253427475690842,0.03949591517448425,0.03573327511548996,-0.04224807769060135,-0.06796253472566605,-0.051474325358867648,0.06001177802681923,-0.027452170848846437,-0.028133325278759004,-0.04567725211381912,0.07356896251440048,-0.04971914365887642,0.052058689296245578,-0.04550338536500931,-0.017071865499019624,0.05835973098874092,-0.06247108802199364,-0.02601763792335987,0.03771322965621948,-0.06247123330831528,0.03629954159259796,0.06924303621053696,0.08575323969125748,-0.06740327924489975,0.06085262447595596,0.0757884755730629,-0.0794755294919014,0.08728740364313126,0.06813756376504898,-0.002415403723716736,-0.060168422758579257,0.014290787279605866,0.037526436150074008,0.07311255484819412,0.035602811723947528,0.029616480693221093,-0.01490359753370285,0.07234447449445725,-0.07789485901594162,-0.03081824816763401,-0.05067570134997368,0.06503888219594956,-0.001743607223033905,0.07535424083471298,-0.009992793202400208,0.0804714784026146,-0.040289197117090228,0.06675811856985092,0.040961045771837237,-0.07204923778772354,0.08361472934484482,-0.004397191107273102,0.010237522423267365,-0.012439735233783722,-0.0028116703033447267,-0.024480856955051423,-0.01802326738834381,-0.02041669934988022,-0.07553716748952866,-0.06552640348672867,0.02049674093723297,0.05821054428815842,0.0174860879778862,-0.037413813173770908,0.001400865614414215,-0.08508298546075821,0.07540876418352127,-0.0183001309633255,0.0748993530869484,0.014374427497386933,-0.04108984023332596,-0.0334114208817482,0.07991387695074082,0.08326002210378647,-0.03692474216222763,-0.0648457333445549,0.04738184064626694,-0.05724743381142616,-0.03989272192120552,-0.04096997529268265,-0.08699389547109604,-0.03348502516746521,-0.05215071886777878,-0.038186006247997287,-0.028951503336429597,0.08405543863773346,0.061706651002168658,-0.037855364382267,-0.08508896082639694,-0.05450127273797989,0.05148186534643173,0.07489661127328873,-0.05257730931043625,0.06172793358564377,-0.056203920394182208,-0.07423434406518936,0.043725140392780307,-0.062013037502765658,-0.02547702193260193,0.0075821056962013248,0.04035836458206177,0.039751239120960239,0.07092342525720597,0.06157597154378891,-0.07321219891309738,-0.005182996392250061,-0.03485050052404404,-0.05712566524744034,0.011417336761951447,-0.025964828208088876,0.03877587988972664,0.05172233656048775,0.0830896869301796,-0.01822502166032791,0.012744776904582978,0.08652117103338242,-0.0051915571093559269,-0.04513245075941086,-0.049455590546131137,-0.04222346097230911,0.07857923954725266,-0.05448036640882492,0.06131165102124214,0.016788572072982789,-0.013123273849487305,-0.07864553481340409,0.007679015398025513,0.03141861781477928,-0.07968590408563614,-0.006153196096420288,0.019266285002231599,0.027730684727430345,-0.06442809849977493,0.046876080334186557,0.04059293121099472,-0.002619035542011261,0.06822485476732254,-0.05457810312509537,0.0556594654917717,-0.08488727360963822,-0.02221706509590149,0.011542707681655884,0.04550708830356598,0.03728681057691574,0.0005244836211204529,-0.015969663858413698,0.0028237253427505495,0.010004937648773194,-0.08524834364652634,-0.08280830830335617,0.06456730514764786,-0.03778647631406784,0.011084102094173432,-0.0021095871925354006,0.03083273395895958,0.005287289619445801,-0.028883984312415124,0.029334625229239465,0.03596746549010277,0.07970025390386582,0.06562778353691101,-0.019276969134807588,0.0643715113401413,-0.01013917475938797,0.04345337301492691,-0.06506497412919998,-0.07001680880784989,0.023641135543584825,-0.08018050342798233,0.052332643419504169,-0.057235632091760638,0.0463726744055748,-0.04152959957718849,0.005917556583881378,-0.07177134603261948,-0.013132192194461823,0.0670631155371666,0.06967931240797043,0.030691292136907579,0.0686277523636818,-0.008780419826507569,-0.003278590738773346,-0.0021597594022750856,-0.05327479913830757,0.0403243750333786,0.013888679444789887,-0.04088723286986351,-0.06600814312696457,0.056862715631723407,0.06732404977083206,-0.00393310934305191,-0.05321144685149193,0.08297602087259293,0.07353227585554123,0.035330500453710559,-0.0558716282248497,-0.05426064878702164,-0.08649898320436478,-0.042349375784397128,0.022662904113531114,0.059014372527599338,0.03639862686395645,0.014752253890037537,0.07715486735105515,-0.03001248650252819,-0.06767398864030838,-0.08748874813318253,0.05976366251707077,-0.05986287444829941,-0.054228413850069049,-0.0612589493393898,0.037454575300216678,0.0617828294634819,-0.05956769734621048,0.006483711302280426,0.034934043884277347,0.009005889296531678,0.07010948657989502,-0.07045464962720871,0.046482719480991366,-0.07436902076005936,-0.06418202072381973,0.018072262406349183,0.04036492109298706,-0.07555855065584183,0.06382088363170624,-0.05059336870908737,-0.019394174218177797,-0.07869119942188263,0.018311738967895509,-0.06495595723390579,0.025094103068113328,0.08220932632684708,0.044372010976076129,0.019080691039562227,-0.06677422672510147,0.0033910423517227175,-0.0013741031289100648,-0.08703281730413437,-0.05568409711122513,-0.012093335390090943,-0.014023110270500183,0.027347272261977197,-0.05464715510606766,-0.01832236349582672,-0.07059638947248459,0.07395488768815994,-0.02600383758544922,0.01158430427312851,0.08345203846693039,0.024913989007472993,0.056613776832818988,0.027114814147353174,-0.013480424880981446,-0.07801023870706558,-0.01826932281255722,0.06413736194372177,0.08380088955163956,-0.059503111988306048,0.08645383268594742,-0.049823008477687839,0.04341534152626991,0.08354704827070236,-0.07313656061887741,-0.06157677620649338,-0.0343458354473114,0.005657866597175598,-0.08236812800168991,0.06390739232301712,0.010325990617275238,-0.013907186686992646,-0.0683303251862526,0.03169168904423714,-0.07106240838766098,0.04469721391797066,0.017508380115032197,0.04199720174074173,0.010893091559410096,0.011472783982753754,-0.048995815217494968,-0.012500137090682984,0.04371253401041031,-0.023768089711666108,-0.08160074800252915,0.041156522929668429,-0.01828533411026001,-0.07113517075777054,0.026520585641264917,0.025153931230306627,-0.01903839409351349,-0.0009885430335998536,0.06981486082077027,-0.03406252712011337,0.03138675540685654,0.0022118762135505678,0.03829900175333023,0.024458657950162889,-0.02459275722503662,-0.06813602894544602,0.06282592564821243,-0.0030713602900505068,-0.023577041923999788,0.07164762169122696,-0.066695936024189,0.025618284940719606,0.06062843278050423,-0.06685102730989456,-0.03186684101819992,-0.02710987627506256,0.07651970535516739,-0.07544086128473282,0.01891479641199112,-0.08097503334283829,-0.0819362923502922,0.08071201294660568,-0.07127097249031067,-0.08005287498235703,0.05210090056061745,0.023593340069055558,-0.03402208536863327,-0.05274907499551773,0.05138292908668518,-0.03304431587457657,-0.007195107638835907,-0.06667285412549973,-0.04267186298966408,-0.023447461426258088,-0.00974246859550476,0.07214067131280899,-0.05633429437875748,0.009253628551959992],"Biases":[0.0,0.0,0.0,0.0,0.0,0.0,0.0,0.0,0.0,0.0,0.0,0.0,0.0,0.0,0.0,0.0,0.0,0.0,0.0,0.0,0.0,0.0,0.0,0.0,0.0,0.0,0.0,0.0,0.0,0.0,0.0,0.0,0.0,0.0,0.0,0.0,0.0,0.0,0.0,0.0,0.0,0.0,0.0,0.0,0.0,0.0,0.0,0.0,0.0,0.0,0.0,0.0,0.0,0.0,0.0,0.0,0.0,0.0,0.0,0.0,0.0,0.0,0.0,0.0,0.0,0.0,0.0,0.0,0.0,0.0,0.0,0.0,0.0,0.0,0.0,0.0,0.0,0.0,0.0,0.0,0.0,0.0,0.0,0.0,0.0,0.0,0.0,0.0,0.0,0.0,0.0,0.0,0.0,0.0,0.0,0.0,0.0,0.0,0.0,0.0,0.0,0.0,0.0,0.0,0.0,0.0,0.0,0.0,0.0,0.0,0.0,0.0,0.0,0.0,0.0,0.0,0.0,0.0,0.0,0.0,0.0,0.0,0.0,0.0,0.0,0.0,0.0,0.0],"_Inputs":[0.13499832153320313,-0.09000000357627869,0.0,0.0,-0.14699935913085938,0.1120000034570694,0.0,0.0],"_Outputs":[0.015419240109622479,0.003112334758043289,-0.0013195682549849153,-0.008463239297270775,0.003897446906194091,-0.024919841438531877,0.006092095281928778,0.0026911862660199405,0.001584986923262477,0.015118740499019623,0.018830111250281335,0.0023215326946228744,-0.006003109272569418,-0.0027171329129487278,0.00062047119718045,-0.013454779051244259,0.009952486492693425,0.0010166973806917668,-0.0014357338659465314,-0.0009488416835665703,0.021150220185518266,-0.03173130378127098,-0.016748441383242608,-0.014414655044674874,0.01008289959281683,-0.006351744290441275,0.0006022781599313021,-0.031887445598840716,-0.006212705746293068,-0.012325014919042588,-0.0077445837669074539,-0.02601693943142891,0.011107188649475575,-0.014530732296407223,-0.007475562393665314,-0.015922363847494127,-0.004026538692414761,0.00796879269182682,0.0025369126815348865,0.009662994183599949,0.0087425010278821,-0.022056451067328454,-0.0022430913522839548,-0.007234405260533094,0.0058836257085204128,0.015077134594321251,-0.005455601029098034,0.002478736685588956,-0.007763788104057312,0.004889939911663532,-0.014679438434541226,-0.0019331199582666159,0.004332674201577902,-0.016523493453860284,-0.00272393343038857,0.015479901805520058,0.012023022398352623,-0.017461193725466729,0.017457367852330209,-0.02620481513440609,0.011470808647572995,-0.006376556120812893,-0.001979683991521597,-0.026695413514971734,-0.0008288634708151221,0.003063814016059041,0.01140652783215046,-0.00241173361428082,0.0046018497087061409,0.0007815776043571532,-0.0006491141393780708,0.008312774822115898,0.0126503249630332,-0.01790943183004856,0.011156037449836731,0.0009529152303002775,0.007613453548401594,-0.01108683180063963,0.0013799072476103902,-0.0012231850996613503,0.0023234987165778877,0.02403157204389572,-0.0011784129310399294,0.01929129846394062,0.010586187243461609,0.00036609123344533145,-0.005428391043096781,0.0012977281585335732,-0.02697288803756237,0.005023262929171324,0.007753496058285236,0.004194083157926798,0.0058462838642299179,0.00006507388752652332,-0.005033957306295633,0.004650382790714502,-0.016739187762141229,-0.006514661014080048,0.030652491375803949,-0.019860075786709787,-0.007036535069346428,0.02715514972805977,-0.010095814242959023,0.017568305134773256,-0.014882498420774937,0.015819009393453599,-0.0010522404918447137,-0.01773502491414547,0.019439389929175378,0.022402560338377954,0.003086729906499386,0.0006190600106492639,-0.002372960327193141,-0.0046307723969221119,-0.0014278747839853168,0.009982654824852944,-0.002488528611138463,-0.0006082719191908836,0.01507139578461647,0.02000962197780609,-0.0032772417180240156,0.004386191722005606,-0.01580131985247135,0.009599958546459675,0.021431325003504754,-0.013711747713387013,-0.003323374781757593,0.014541121199727059],"forwardCS":{"instanceID":9256}},{"InputSize":128,"NodeSize":128,"Weights":[0.08447623997926712,-0.05562395602464676,0.03725016117095947,-0.024385273456573488,0.047491405159235,0.06654011458158493,-0.0022333264350891115,0.068318210542202,0.026405293494462968,0.03057616576552391,0.03913024812936783,-0.06115290895104408,0.08527592569589615,0.025422237813472749,-0.011782221496105194,-0.07642323523759842,0.03733045235276222,-0.07866797596216202,-0.07866925746202469,-0.03544294089078903,0.06289380043745041,-0.03641406446695328,-0.05472133681178093,-0.05869627371430397,0.00011149048805236816,0.0403645820915699,0.06829173862934113,0.03572368621826172,-0.002766132354736328,0.06742488592863083,-0.08038090914487839,-0.03358597308397293,0.02769315056502819,-0.031529031693935397,0.05566883832216263,-0.047309838235378268,-0.028467001393437387,-0.040808629244565967,0.06319498270750046,0.041134051978588107,-0.06646130234003067,0.050758980214595798,0.04558061435818672,0.03903284668922424,-0.0773642286658287,-0.0008692666888237,0.028771143406629564,0.026824800297617914,0.006254918873310089,0.03381999954581261,-0.042368847876787189,0.05563449114561081,-0.050753481686115268,-0.05866881459951401,0.029192840680480005,-0.007383108139038086,0.07641907781362534,0.03665117174386978,0.08319047838449478,-0.028967032209038736,-0.05424610897898674,-0.060946088284254077,0.012272246181964875,0.08150450140237808,0.07873890548944473,-0.0782969519495964,0.03435317799448967,-0.06837885826826096,-0.0659550353884697,0.0761704221367836,-0.010530486702919007,-0.02179170399904251,-0.01660485565662384,-0.020749956369400026,0.031128225848078729,0.02282196655869484,-0.0014583319425582886,-0.050697408616542819,-0.03235486149787903,-0.004117123782634735,-0.07849190384149552,-0.015956178307533265,0.04336798936128616,0.011401891708374024,0.011258319020271302,0.03867756575345993,-0.07688910514116287,0.005111135542392731,0.0488637275993824,0.07802750915288925,-0.000034362077713012695,0.04950808733701706,0.024539832025766374,-0.050538282841444018,0.02129015326499939,-0.03380779176950455,0.04205528274178505,-0.05586358159780502,-0.04546412080526352,-0.08562196046113968,-0.06413552910089493,0.06304923444986344,-0.07351244240999222,-0.03021472692489624,-0.02464482933282852,0.08714915066957474,-0.0036586299538612367,-0.02651429921388626,-0.013797074556350708,-0.04419726878404617,-0.05339225381612778,0.050385184586048129,-0.04216062277555466,0.05746663361787796,-0.03801804408431053,-0.042787592858076099,-0.014403022825717926,-0.03827815502882004,0.04000449925661087,0.028579628095030786,-0.029646335169672967,-0.07765819877386093,0.07018482685089112,0.07629392296075821,0.06614671647548676,-0.044392578303813937,-0.07428910583257675,-0.059381283819675449,0.08159715682268143,0.006579510867595673,0.034804992377758029,-0.05682025104761124,0.0011884868144989014,-0.050279948860406879,-0.06856953352689743,-0.011166863143444062,0.026201723143458368,0.055324334651231769,0.015290424227714539,0.06976668536663056,0.03275737166404724,-0.0018516480922698975,0.054046377539634708,-0.03471624106168747,-0.005821123719215393,0.07968275994062424,0.07886660844087601,0.026178648695349695,-0.03444867581129074,0.06172076612710953,-0.04625529795885086,-0.06684011965990067,-0.05184843763709068,0.017838455736637117,-0.03879675641655922,0.06578648835420609,-0.03929762914776802,0.01683732122182846,0.04117067903280258,-0.03870232030749321,0.0015776753425598145,-0.061617009341716769,0.037189699709415439,-0.02621501125395298,0.04254203289747238,0.015509337186813355,0.017341457307338716,0.024145253002643586,0.0822870060801506,0.009337961673736573,0.02990405075252056,-0.06701565533876419,0.010426238179206849,0.01009390503168106,0.01807466149330139,0.05789303034543991,0.06905201822519303,-0.03891748562455177,-0.08263536542654038,-0.023079857230186464,0.0018681064248085023,0.06145334988832474,0.005038157105445862,-0.053616397082805637,-0.0388663187623024,0.05591122806072235,0.03942319005727768,-0.05330889672040939,-0.02279658615589142,0.026237379759550096,0.05374252051115036,0.04630492627620697,0.055951520800590518,-0.01674320548772812,0.08486708253622055,0.031981006264686587,0.013515368103981018,-0.0030772536993026735,-0.06962800770998001,0.06398662179708481,-0.08347546309232712,-0.054598547518253329,0.045834802091121677,-0.04935484379529953,0.04390320926904678,-0.048629648983478549,-0.0760255977511406,-0.03856924921274185,-0.03060094080865383,-0.08594886213541031,-0.006361678242683411,0.05609334260225296,0.06948820501565933,0.05280386656522751,-0.015256702899932862,-0.08413849025964737,-0.04490641504526138,0.038120515644550326,0.02825954370200634,0.044674161821603778,-0.08813575655221939,0.06689174473285675,-0.011560998857021332,-0.009513989090919495,0.008044645190238953,-0.0031073689460754396,0.06598111987113953,-0.08270225673913956,-0.08022137731313706,0.03247673809528351,-0.04680131748318672,-0.07722606509923935,0.06188824027776718,0.011316478252410889,-0.0020214542746543886,0.04153360798954964,-0.08087191730737686,0.08469078689813614,-0.07125633209943772,-0.08050168305635452,0.03575586527585983,-0.04482800140976906,-0.07037157565355301,-0.07216577231884003,0.02445897087454796,-0.050446026027202609,0.08549147099256516,-0.042078934609889987,-0.005238719284534454,0.03809278458356857,-0.031053386628627778,-0.017607949674129487,0.03950181603431702,0.026669194921851159,-0.0008209049701690674,0.08132932335138321,-0.07273424416780472,0.03683461621403694,-0.04425496608018875,0.055200882256031039,-0.02459309995174408,-0.015355773270130158,0.0869377925992012,0.07496138662099838,0.04064028710126877,-0.040166087448596957,-0.03991391509771347,0.045031461864709857,-0.06874469667673111,-0.05465560778975487,0.07894355803728104,0.03460557386279106,-0.032937370240688327,-0.017800122499465944,0.05275265872478485,-0.013846300542354584,0.055354513227939609,0.0031110793352127077,-0.08023316413164139,-0.031255125999450687,-0.054750777781009677,-0.07147545367479325,0.05533946305513382,0.03517384082078934,-0.078105129301548,-0.04847998172044754,0.05784425511956215,0.08467916399240494,0.07484207302331925,0.055773936212062839,-0.08267413824796677,-0.008910320699214936,0.0032091140747070314,0.04550192505121231,0.02623484842479229,-0.07596824318170548,-0.07980213314294815,0.04895741492509842,0.06529589742422104,0.0638480857014656,-0.08811639994382858,-0.04936099797487259,0.05624816566705704,-0.06931046396493912,0.05686614662408829,-0.04974158853292465,0.03672473877668381,0.030531911179423333,-0.07283516973257065,0.07293033599853516,0.03982805460691452,0.07850796729326248,0.07097777724266052,-0.04348495975136757,-0.0624571219086647,0.08214665204286576,-0.018113650381565095,0.03786521032452583,0.05412993207573891,0.010228566825389862,-0.013626277446746827,0.07444018870592118,-0.03249990940093994,-0.053104646503925326,0.026086430996656419,-0.022982962429523469,0.04023352637887001,0.07851698249578476,0.034047022461891177,-0.0637471079826355,-0.06892067939043045,-0.05127749592065811,-0.02535831183195114,-0.03866750746965408,0.07819860428571701,-0.055689699947834018,0.001156836748123169,0.06626854091882706,-0.059522561728954318,0.05041491985321045,0.004494279623031616,0.03213256597518921,0.06828130036592484,-0.05615628883242607,-0.005145467817783356,-0.02298913151025772,-0.07410936802625656,0.000576704740524292,-0.048182614147663119,0.01387515664100647,-0.044047389179468158,0.03421638906002045,0.0720706656575203,-0.043165720999240878,-0.046289585530757907,-0.05039992183446884,0.012397907674312592,-0.03715858608484268,0.06434565037488938,-0.02145478129386902,-0.0353732705116272,-0.05014572665095329,0.0044410452246665958,0.07831817865371704,0.015815742313861848,0.0610048845410347,0.05013032257556915,-0.02848021686077118,0.07119664549827576,0.06830037385225296,0.01237952709197998,-0.001615285873413086,-0.013827376067638398,0.06092025712132454,0.05761735513806343,0.04604174196720123,0.05840779095888138,0.07738462835550308,-0.05410481244325638,0.03261407092213631,0.07242415100336075,0.04027619957923889,-0.06686437875032425,-0.07519233971834183,0.0029018595814704897,-0.018156707286834718,-0.005864322185516357,0.04443175345659256,-0.029566235840320588,0.05880149081349373,-0.05547842010855675,-0.02876793034374714,-0.06028299778699875,0.06131076067686081,0.08548500388860703,0.06910934299230576,-0.08604968339204788,-0.02312374860048294,-0.021507613360881807,0.03964201360940933,-0.029637210071086885,0.04551117494702339,0.054439861327409747,0.06237286701798439,-0.03177150338888168,0.06452429294586182,-0.011570081114768982,0.030083930119872094,0.03559044003486633,-0.06432338058948517,-0.056371770799160007,-0.05221349745988846,0.0006808936595916748,-0.003783024847507477,-0.026754090562462808,-0.007514201104640961,0.07177532464265824,0.004911191761493683,-0.06905292719602585,-0.050687067210674289,0.012825362384319306,-0.0805286392569542,0.08510447293519974,-0.06756424158811569,0.07047909498214722,-0.0601026676595211,0.0022792890667915346,-0.04107215255498886,0.0011963695287704468,-0.0879577174782753,-0.08300355821847916,-0.05705205723643303,0.04110967367887497,0.022001132369041444,0.08431165665388107,0.05494091659784317,-0.025379158556461335,0.034389927983284,-0.049732647836208346,-0.0014172196388244629,-0.074813611805439,0.04816528409719467,0.02362756058573723,0.019215457141399385,0.02376289665699005,0.038641490042209628,0.047629766166210178,0.03773033991456032,0.010631486773490906,-0.04965389519929886,-0.01542636752128601,-0.0014116540551185608,-0.0005833208560943604,-0.03326980769634247,-0.07908404618501663,0.029156681150197984,-0.06106947734951973,-0.07176124304533005,-0.028098030015826227,0.08386088907718659,0.054838210344314578,-0.06920502334833145,0.028853749856352807,0.08736049383878708,0.02006058394908905,0.009479023516178131,-0.027190228924155237,-0.0749647244811058,0.026003781706094743,-0.0812934935092926,0.05384385958313942,0.049039579927921298,-0.03741193562746048,0.014954537153244019,-0.05908519774675369,0.041522249579429629,-0.08020573109388352,0.03722544386982918,0.0505167618393898,0.013135857880115509,-0.01449345052242279,-0.048504240810871127,0.02315850928425789,-0.03412003070116043,0.021982520818710328,-0.060703642666339877,0.07854708284139633,-0.07674532383680344,-0.06899799406528473,0.011246263980865479,-0.0018086135387420655,-0.00248052179813385,-0.011964887380599976,-0.02040700614452362,-0.036247268319129947,0.05591634660959244,-0.04129975289106369,0.01924493908882141,0.08288579434156418,0.02349315583705902,-0.07278358191251755,0.05953610688447952,0.07098741084337235,-0.006093204021453857,-0.014059819281101227,-0.016143977642059327,0.010529391467571259,-0.016795530915260316,0.0451190210878849,0.0881398543715477,-0.006474502384662628,-0.05368385463953018,0.07364515215158463,0.07882868498563767,-0.053173474967479709,-0.0581166073679924,0.044048089534044269,-0.08658667653799057,0.080559141933918,0.04035674408078194,-0.005691371858119965,-0.07956136018037796,0.017367884516716005,-0.06233445182442665,0.02158764749765396,-0.009313449263572693,0.08439984172582627,-0.039817925542593,0.003964364528656006,-0.01746901124715805,0.04237448051571846,-0.07741525024175644,-0.003055885434150696,-0.07817791402339935,0.06763671338558197,0.025848720222711564,0.013649560511112214,-0.06345922499895096,-0.020838655531406404,0.05513433367013931,-0.01962214708328247,0.060775838792324069,-0.021163351833820344,-0.03225197643041611,0.022956330329179765,0.05591105669736862,-0.0293810423463583,0.02993844263255596,0.037522830069065097,0.03172365576028824,-0.08266229182481766,-0.07501234859228134,0.062090568244457248,0.013534188270568848,0.07594246417284012,0.017659373581409456,-0.07132299989461899,-0.00029027462005615234,0.03438641130924225,-0.02071729302406311,-0.07244358211755753,-0.07300541549921036,0.04122058302164078,-0.04697474464774132,0.06916449218988419,-0.020473308861255647,0.06563448160886765,0.039548806846141818,-0.07832745462656021,-0.05690830200910568,-0.005513615906238556,0.026582224294543268,0.0522034652531147,-0.0596507266163826,-0.00656716525554657,0.025765758007764818,0.026227852329611779,-0.08208166062831879,-0.0489492192864418,0.030220551416277887,-0.017706677317619325,0.04547802358865738,0.0016253814101219178,0.004488565027713776,-0.032949298620224,0.02281126007437706,0.015658073127269746,0.0697394385933876,0.06407475471496582,-0.010976970195770264,-0.07232934981584549,0.0775047168135643,-0.021915867924690248,0.0819702222943306,-0.009146086871623993,-0.04425481706857681,0.01084844022989273,0.012204259634017945,-0.07094340771436691,0.027540307492017747,-0.08772938698530197,0.04987923055887222,-0.03936637192964554,-0.02554156631231308,0.07942276448011399,0.011598698794841767,0.037204809486866,-0.06495527178049088,-0.012049436569213868,-0.030343569815158845,0.03764777630567551,0.05210292339324951,-0.08605553954839707,0.04420154541730881,0.084621362388134,0.04646613448858261,-0.05820827558636665,0.07217586785554886,-0.05560091882944107,-0.0037756487727165224,0.01865268498659134,-0.04432470351457596,0.07786677032709122,0.018141530454158784,-0.060482773929834369,-0.06892520934343338,0.04476168006658554,-0.0396965853869915,0.036158304661512378,0.011191517114639283,-0.02789517492055893,0.01961778849363327,-0.023235440254211427,0.0120638906955719,-0.03611224889755249,-0.08359823375940323,0.0005955472588539124,-0.03621234744787216,0.033436186611652377,-0.06325749307870865,0.006031163036823273,0.03494631126523018,0.016962870955467225,-0.07574204355478287,-0.020131409168243409,0.07970776408910752,0.0043127089738845829,0.024462025612592698,-0.0752912387251854,0.07384847849607468,-0.04620710760354996,0.046441562473773959,0.05077293515205383,0.027873076498508455,-0.06230182573199272,-0.04832812398672104,0.06982871145009995,0.010101616382598877,0.049462251365184787,0.01578870415687561,-0.06587047129869461,-0.007464617490768433,-0.007291607558727264,-0.04577436298131943,0.057301465421915057,-0.0024611353874206545,-0.06865441054105759,-0.00978398323059082,0.05448002368211746,-0.03306705504655838,0.06174223870038986,0.01039867103099823,0.026221152395009996,0.038844235241413119,0.050983164459466937,0.07218246161937714,0.04845770448446274,-0.0008030161261558533,-0.0016989707946777344,-0.018944889307022096,-0.033957891166210178,0.05007757619023323,0.06087484210729599,-0.0016266480088233948,-0.04733014851808548,-0.04680131748318672,0.0027974024415016176,0.07215134054422379,0.07099640369415283,-0.030674150213599206,-0.019358329474925996,0.0665767565369606,0.07066567987203598,0.02207549661397934,0.012765787541866303,-0.002706974744796753,-0.06236957758665085,-0.03262854367494583,0.051561567932367328,0.052356623113155368,0.000723421573638916,0.055652596056461337,0.0005899593234062195,0.0540282316505909,-0.01351621001958847,-0.05519420653581619,-0.07441472262144089,-0.06129036471247673,-0.02202184498310089,-0.035034701228141788,-0.004972055554389954,0.08408833295106888,-0.007972635328769684,0.07597201317548752,-0.02891833335161209,-0.018074750900268556,-0.08224969357252121,-0.02051248401403427,-0.0809805765748024,-0.037168364971876147,-0.05258940905332565,0.013224996626377106,-0.03144899755716324,0.0636289045214653,-0.03091699816286564,-0.016273796558380128,-0.07726512104272843,0.03660105913877487,-0.07662836462259293,-0.013343937695026398,0.009661756455898285,-0.014235235750675202,-0.07094564288854599,0.05422908440232277,-0.02680407650768757,0.042048580944538119,0.06717673689126969,-0.029774628579616548,-0.08210831135511399,-0.02843271754682064,0.005672931671142578,-0.047346822917461398,0.0033304989337921144,-0.08459635823965073,0.07837807387113571,-0.0839022770524025,-0.060745202004909518,0.04405879229307175,-0.028378324583172799,0.042536891996860507,0.00924934446811676,0.04911003261804581,-0.017693087458610536,0.014815263450145722,-0.019792400300502778,0.04685724154114723,0.07992271333932877,0.009410597383975983,0.08385846763849259,0.05917193740606308,-0.056303318589925769,0.0830502137541771,0.06247956305742264,0.004796929657459259,-0.059758711606264117,-0.06361811608076096,0.04051618650555611,0.05777919664978981,-0.01991932839155197,-0.08835441619157791,-0.04505244642496109,-0.02462063729763031,-0.018664702773094178,0.04493563622236252,-0.0659627839922905,0.027661394327878953,0.04247862473130226,0.03794453293085098,0.06511253863573075,0.057325445115566257,0.04272821918129921,-0.027228958904743196,0.06031893938779831,0.014012932777404786,-0.061367668211460116,-0.06723853200674057,0.019333630800247194,-0.01265687495470047,0.06908725947141648,-0.0006170645356178284,-0.05680602416396141,0.03236405551433563,-0.008250951766967774,0.05749879032373428,0.04247521236538887,0.0744568333029747,-0.009056083858013153,-0.046719975769519809,0.08608948439359665,-0.024381116032600404,0.025046877562999727,-0.010873347520828247,0.07428323477506638,0.05941049009561539,0.07619336992502213,0.06479500234127045,-0.08733490854501724,-0.047751300036907199,0.036713484674692157,0.053726840764284137,0.03598042577505112,-0.00682617723941803,-0.07975886017084122,0.0676937997341156,-0.03232795000076294,-0.045343585312366489,-0.01011485606431961,-0.050964076071977618,0.05318193882703781,-0.0836087092757225,-0.04557083919644356,0.022806834429502488,-0.0007061809301376343,-0.07674946635961533,-0.03591614216566086,-0.0029464513063430788,0.03332487866282463,-0.029869018122553827,-0.014601282775402069,-0.007203347980976105,-0.029819684103131295,-0.008891753852367401,-0.05974947661161423,-0.0075195953249931339,0.0035617798566818239,0.02150406688451767,0.06522136181592941,0.03310995176434517,-0.06376055628061295,0.013248071074485779,-0.00844275951385498,0.002910822629928589,-0.07704614847898483,0.015075601637363434,-0.0717187449336052,0.018610604107379915,-0.07240449637174607,0.021581217646598817,0.002332039177417755,-0.0544084832072258,-0.057716213166713718,-0.014091789722442627,0.04975865036249161,-0.028541982173919679,0.07431719452142716,-0.07207783311605454,0.03873893618583679,-0.02545122802257538,0.007432714104652405,-0.019560344517230989,-0.008758991956710816,0.011799417436122895,0.058214105665683749,-0.04055509716272354,0.04598020762205124,-0.06807375699281693,0.02281305566430092,0.05590755492448807,0.07887188345193863,0.06993510574102402,0.041263554245233539,0.08736906200647354,0.05678044632077217,0.006488412618637085,0.08180797845125199,0.08627899736166,-0.04458218067884445,-0.07805737107992172,0.016812764108181,0.04959600418806076,0.0161798894405365,0.04964754730463028,-0.001155361533164978,-0.0848066583275795,0.02359854429960251,-0.0002917274832725525,0.0009630471467971802,-0.0741770789027214,-0.03977310284972191,0.07310808449983597,0.06974443048238754,0.03393322601914406,-0.06007116287946701,0.07572674006223679,-0.06693711876869202,0.0686284527182579,0.03448524326086044,0.015925578773021699,-0.08070430159568787,-0.035796403884887698,-0.055413343012332919,0.06456638127565384,0.055300522595644,-0.026062672957777978,0.036213453859090808,0.0652410015463829,-0.004530459642410278,-0.05543028563261032,0.027262095361948015,0.08360550552606583,0.03507667034864426,-0.036574289202690127,0.05474341660737991,0.07937025278806687,0.02401651442050934,0.06130058318376541,0.0009576529264450073,0.07261621206998825,-0.02900591492652893,-0.061266638338565829,-0.02859247475862503,-0.03541478514671326,0.019660823047161104,0.0746253952383995,-0.08653794974088669,0.0184817835688591,-0.029220758005976678,-0.04189654439687729,-0.05912311002612114,-0.08249939233064652,-0.011469878256320954,-0.04936704784631729,0.06541749089956284,0.018333889544010164,0.0737319067120552,0.08098354190587998,-0.08262122422456742,-0.019988276064395906,0.03225698322057724,0.033591434359550479,0.021606318652629854,0.0284228827804327,0.0786818191409111,-0.08505751937627793,-0.05785735696554184,0.024045046418905259,-0.05214064568281174,0.007346458733081818,0.021678976714611055,-0.04847671836614609,-0.050156183540821078,0.03317289799451828,-0.04754256829619408,0.07964732497930527,-0.08483687788248062,0.06840382516384125,0.0003195032477378845,-0.006932489573955536,-0.006228514015674591,0.08299485594034195,0.02816285751760006,-0.08720437437295914,0.07290226966142655,0.0394013375043869,0.019317999482154847,0.0625452920794487,-0.02590845711529255,0.05174562335014343,-0.07336469739675522,-0.06628415733575821,-0.0559610053896904,0.04523812606930733,0.07819975167512894,-0.05099014192819595,0.04273209720849991,-0.03412266820669174,0.05517727881669998,0.07787507027387619,-0.026781193912029268,-0.07590579241514206,0.04963945597410202,0.01637616753578186,0.03491659462451935,-0.0828455314040184,-0.01749453693628311,0.0695980116724968,0.011096745729446411,-0.07937360554933548,-0.031109483912587167,-0.05748728662729263,-0.08604308217763901,-0.08487684279680252,-0.055329643189907077,-0.05204205960035324,0.018922366201877595,0.08796102553606034,-0.027280019596219064,-0.06887049973011017,-0.06433633714914322,0.024703361093997957,-0.052841950207948688,-0.03766920045018196,0.06613820046186447,-0.061308957636356357,-0.0719253197312355,0.03562740236520767,0.005931086838245392,-0.01827237755060196,0.07711007446050644,0.06779136508703232,0.025695644319057466,0.0758964791893959,-0.043215952813625339,0.047621361911296847,0.016159698367118837,-0.02317715436220169,-0.027561521157622339,-0.0761173740029335,-0.030512263998389245,0.03867883235216141,0.03986619785428047,-0.0663440003991127,0.024094488471746446,0.08502566069364548,0.004928812384605408,-0.038552410900592807,0.08739589899778366,-0.07964698225259781,-0.011747077107429505,-0.03550519049167633,0.004731498658657074,0.0721522644162178,0.02655373327434063,0.032449908554553989,0.07916808873414993,0.025726307183504106,-0.04229757934808731,-0.029307855293154718,-0.05960308387875557,0.0448320209980011,0.06779491156339646,0.02876347117125988,0.05765979737043381,-0.029390038922429086,-0.0066481903195381168,-0.00331144779920578,0.05514048784971237,-0.013042397797107697,-0.061283599585294726,0.0533708855509758,-0.06603608280420304,-0.04732806235551834,-0.06914228945970535,0.06647828966379166,0.05044897273182869,0.08194946497678757,0.022639092057943345,-0.0187920480966568,-0.01948656141757965,-0.0865698829293251,-0.07458963245153427,0.06975524872541428,0.06684523075819016,-0.032399728894233707,-0.04299642890691757,-0.051802925765514377,-0.005270875990390778,-0.0175086110830307,-0.006266340613365173,-0.05452803522348404,0.03208169341087341,0.08085938543081284,0.04683009535074234,-0.08338334411382675,-0.04018460959196091,0.08324078470468521,0.03085642121732235,0.06249494105577469,-0.053889743983745578,-0.05663185566663742,0.08637548238039017,-0.06660841405391693,-0.04880046099424362,-0.06737776845693588,-0.05660751834511757,-0.059641797095537189,-0.007708229124546051,-0.06742281466722489,0.08637983351945877,-0.02780791185796261,-0.050862185657024387,-0.06354927271604538,-0.012738391757011414,-0.04819921404123306,0.052574608474969867,-0.07225321978330612,-0.03183356672525406,0.06532429903745651,0.07163002341985703,-0.07118221372365952,-0.08007907122373581,-0.04515469819307327,-0.08095935732126236,0.03326328098773956,0.06266435235738754,0.03004532679915428,0.005779631435871124,-0.00048786401748657227,-0.05190761759877205,0.08421414345502854,0.055646203458309177,-0.08704816550016403,-0.028468750417232515,0.056155212223529819,-0.01640459895133972,-0.02791108749806881,0.07657221704721451,0.007337331771850586,-0.04906472936272621,0.026385968551039697,-0.052182458341121677,0.06441313028335571,0.03301941975951195,0.0855964794754982,-0.07956329733133316,-0.00985155999660492,0.004672624170780182,0.07293351739645004,0.06973368674516678,-0.0877966657280922,0.0038025379180908205,0.08194581419229508,0.05304599553346634,-0.04267188161611557,0.01485702395439148,0.011155731976032257,0.01274804025888443,-0.07571346312761307,-0.0696801170706749,0.03826495260000229,0.047155894339084628,-0.054745905101299289,-0.012122519314289093,-0.0793500766158104,0.05809260159730911,0.06639770418405533,0.05140313878655434,-0.04893871024250984,-0.049138374626636508,-0.028551042079925538,-0.05121857672929764,0.08376222103834152,-0.025993846356868745,0.05741237476468086,0.02944551222026348,-0.0008498206734657288,0.010241568088531495,0.023317907005548478,0.07304146140813828,0.017214275896549226,-0.015401266515254975,0.012762941420078278,0.03772079199552536,-0.06705925613641739,0.07266240566968918,-0.08096782118082047,0.05087970942258835,0.02498937025666237,-0.027203164994716646,0.05457272380590439,-0.007577084004878998,-0.03046533279120922,0.07645707577466965,0.08263134211301804,0.005799144506454468,0.06604666262865067,-0.05880308896303177,-0.012778006494045258,0.08059429377317429,0.006462320685386658,0.021378301084041597,-0.04854471608996391,0.03677409142255783,-0.03845382481813431,0.011479102075099945,0.06463408470153809,-0.06211387366056442,0.07351217418909073,0.032647620886564258,-0.07541067153215409,-0.0166483074426651,-0.003378733992576599,0.04295743256807327,0.06957953423261643,-0.05777582898736,0.03640966862440109,0.07151205092668534,0.02057071030139923,-0.02589568682014942,0.008983507752418518,-0.0036131367087364198,0.006201073527336121,-0.019944466650485994,0.0405815914273262,-0.006601281464099884,-0.07416283339262009,0.029258865863084794,0.012156590819358826,-0.054715417325496677,0.012949101626873017,-0.020407110452651979,0.08624178916215897,-0.028406692668795587,-0.06069491431117058,-0.07698404043912888,-0.05576373264193535,0.03148982673883438,-0.0023218169808387758,-0.029550723731517793,0.036028072237968448,0.06064324453473091,-0.08161362260580063,-0.0601859912276268,-0.07044093310832977,0.04398423805832863,-0.020979255437850953,0.0006719157099723816,-0.01231074333190918,0.006166540086269379,0.00661759078502655,-0.058172304183244708,0.023811910301446916,-0.06442057341337204,0.0673833042383194,0.06355752795934677,-0.010512739419937134,-0.030469946563243867,-0.043601807206869128,-0.015568695962429047,-0.0491618737578392,-0.05177383869886398,0.04734063893556595,0.01036670058965683,0.06367292255163193,-0.07870184630155564,0.010243423283100129,0.07923103123903275,0.07703258842229843,0.08062576502561569,0.051179610192775729,0.04812254756689072,0.05280672758817673,-0.03813939169049263,0.06933805346488953,-0.04322058707475662,-0.01087295264005661,-0.01953640580177307,-0.026007838547229768,-0.08396328240633011,0.015607580542564392,-0.028094233945012094,0.07438968867063523,-0.041877832263708118,0.0053727030754089359,0.05581812560558319,0.06363298743963242,0.058081455528736117,-0.030364179983735086,-0.05931570380926132,0.015035688877105713,-0.058120839297771457,0.0827508494257927,-0.03778237849473953,-0.08822647482156754,-0.072936050593853,0.015131466090679169,0.06668413430452347,0.05753948539495468,-0.051903463900089267,0.0448806956410408,-0.023356422781944276,0.028935154899954797,-0.04138966649770737,0.007588110864162445,-0.0421639047563076,-0.056714631617069247,0.07906583696603775,0.08440565317869187,0.07279381901025772,-0.018020950257778169,-0.0658072903752327,-0.016785264015197755,0.0801568403840065,0.03429402410984039,-0.010389760136604309,0.04242796450853348,-0.0035885199904441835,-0.06468237191438675,-0.06095612421631813,0.005821652710437775,0.028110256418585779,-0.00006718933582305908,-0.047228116542100909,0.0075644031167030338,0.07980474084615708,-0.06590486317873001,0.060881439596414569,-0.06048283725976944,-0.04479382187128067,-0.08641094714403153,-0.05448310822248459,0.034356147050857547,0.0341305136680603,0.06694621592760086,0.0005431175231933594,-0.03335566073656082,0.0614299550652504,0.0594162680208683,0.0835060104727745,0.04464847221970558,0.024941828101873399,-0.05019925907254219,-0.05540711432695389,-0.08377758413553238,0.0512385293841362,0.006355270743370056,0.07630621641874314,-0.05331163480877876,-0.05678973346948624,-0.03432533144950867,0.00116073340177536,0.017524458467960359,-0.020514123141765596,0.07334166765213013,0.057843469083309177,-0.05218333750963211,-0.018788635730743409,0.014925137162208557,0.06066832318902016,-0.017721034586429597,-0.04159334674477577,-0.074364572763443,0.01236298680305481,0.03645607456564903,-0.06698792427778244,-0.056776273995637897,-0.0013976618647575379,0.03448750078678131,0.08365907520055771,0.012456156313419342,-0.06166646629571915,-0.02625926584005356,-0.05737016350030899,-0.012772761285305024,0.06684663146734238,0.08709848672151566,-0.07115036994218826,-0.007323130965232849,0.027662869542837144,-0.0015623942017555237,-0.031719282269477847,0.07107802480459213,-0.019180580973625184,-0.06128605082631111,0.05908855050802231,-0.05635659769177437,0.031087426468729974,0.017495840787887574,0.021081149578094484,-0.042330302298069,-0.07207051664590836,0.030581962317228318,0.0840265229344368,0.060214169323444369,-0.03984832018613815,-0.017762906849384309,-0.005539074540138245,-0.06009335070848465,-0.06590119004249573,0.026827961206436158,0.04537512734532356,-0.08185900002717972,0.058501504361629489,-0.06500040739774704,-0.057701580226421359,0.006392300128936768,-0.08617643266916275,-0.0003738105297088623,-0.006243415176868439,-0.005933843553066254,0.022065654397010804,-0.03649298846721649,-0.002639099955558777,-0.05935123190283775,-0.005462624132633209,0.0462985634803772,-0.038004305213689807,-0.03365789353847504,-0.05155389755964279,-0.05333668738603592,0.030958060175180436,0.06994757801294327,-0.06705539673566818,0.05795959010720253,0.031237808987498285,-0.053806938230991366,0.00505664199590683,-0.06577550619840622,0.07199463248252869,-0.06590508669614792,-0.033152028918266299,0.0609138049185276,0.030069245025515558,-0.01849183440208435,-0.028052784502506257,-0.023885957896709443,0.06204574555158615,0.07722193747758866,-0.05759822204709053,0.012739673256874085,-0.012337848544120789,0.07865309715270996,-0.04985339567065239,-0.04694012552499771,-0.025919141247868539,0.028681140393018724,0.0281973984092474,0.031063426285982133,-0.01365014910697937,-0.08119376748800278,0.058646298944950107,-0.013937234878540039,-0.07977726310491562,-0.0534491166472435,0.05155868083238602,-0.022038638591766359,-0.07986559718847275,0.04525958001613617,0.06649691611528397,0.00752035528421402,-0.02432236820459366,0.0843404158949852,0.08782780915498734,-0.0639161542057991,0.07104946672916413,0.022584639489650728,0.05893922597169876,0.07564724236726761,-0.0840165987610817,0.0028641223907470705,0.023029204457998277,-0.031439222395420077,0.04934325069189072,0.054311901330947879,-0.08218540996313095,0.0607486292719841,-0.021514371037483217,0.024018917232751848,0.058047883212566379,0.0617297925055027,-0.08562060445547104,0.035073719918727878,-0.024886541068553926,0.02087821066379547,-0.06098570674657822,0.010275579988956452,-0.046843476593494418,-0.076405830681324,-0.00911019742488861,0.04641153663396835,-0.029802845790982248,-0.0363154411315918,0.043755315244197848,0.0037855803966522218,-0.0045945048332214359,-0.0387834794819355,-0.009182080626487732,0.059312961995601657,-0.019599810242652894,-0.03962784260511398,0.030705956742167474,0.019303500652313234,-0.01473410427570343,-0.031572259962558749,0.00781608372926712,-0.08626062422990799,-0.01936528831720352,-0.07488755136728287,-0.07954239100217819,-0.042099762707948688,-0.05722085386514664,-0.017839759588241578,0.045733921229839328,0.0038005635142326357,-0.06590162962675095,0.0668737068772316,0.07906251400709152,-0.07903429120779038,-0.017908498644828798,-0.08357136696577072,0.030875911936163904,0.05536549165844917,0.007237173616886139,0.04435595124959946,0.02547513321042061,0.032702431082725528,-0.06458022445440293,-0.05270416662096977,0.06663017719984055,-0.056675080209970477,0.05854865163564682,-0.0829038992524147,-0.03824325650930405,0.012988954782485962,-0.025303438305854799,0.01505107432603836,-0.02987772226333618,0.004371039569377899,-0.0662885382771492,0.08349791914224625,-0.07608634978532791,0.08360973745584488,-0.08281639963388443,0.03004804626107216,-0.06956834346055985,0.0769028291106224,0.014323703944683075,0.05296608805656433,0.012484431266784668,0.055603135377168658,0.06070840731263161,0.050286225974559787,-0.07986528426408768,-0.031155509874224664,-0.0576445572078228,-0.048487190157175067,-0.07258408516645432,0.002203129231929779,-0.042805399745702746,-0.06827837973833084,0.05621657520532608,-0.01005658507347107,-0.03737962990999222,-0.06720622628927231,0.01523660123348236,-0.05624079331755638,0.006473913788795471,0.07099402695894242,0.037950918078422549,0.048186615109443668,-0.02458254247903824,0.040485356003046039,-0.06636705994606018,0.005748249590396881,-0.05601195618510246,-0.06722068041563034,-0.07849859446287155,0.02310420200228691,0.06356190890073776,0.04226559400558472,0.07978237420320511,0.07543779909610748,0.07437493652105332,-0.08240901678800583,0.0715026929974556,-0.034996986389160159,-0.045556508004665378,0.02372100204229355,0.06383887678384781,-0.08644818514585495,0.034137070178985599,-0.03703231364488602,0.0013779625296592713,0.012733735144138337,-0.07477592676877976,0.042613618075847629,-0.08022749423980713,-0.05916806310415268,0.08317049592733383,0.07502178847789765,-0.08404972404241562,0.08537916094064713,-0.048003070056438449,0.0829368457198143,0.007363930344581604,0.06265839189291,-0.07899720221757889,-0.0825609341263771,-0.026128463447093965,0.07254885882139206,-0.06482648849487305,0.027572151273489,0.02377258986234665,-0.04967648535966873,0.04191168397665024,-0.08103755861520767,0.00417676568031311,-0.026239290833473207,0.007615715265274048,0.0031755641102790834,-0.011184684932231903,-0.04395196586847305,0.07470007985830307,0.07719700783491135,0.08091460913419724,-0.016179785132408143,0.0014744102954864503,-0.0813240334391594,-0.01818176358938217,0.010579228401184082,-0.056552089750766757,0.04106508567929268,-0.038737647235393527,0.04807882383465767,0.021342456340789796,0.06156276538968086,0.05150213837623596,0.06821705400943756,0.029162835329771043,0.02277204394340515,0.058063916862010959,0.04616304114460945,0.061621762812137607,-0.0004172027111053467,-0.021310068666934968,-0.08445193618535996,0.07149311155080795,0.0076247528195381168,-0.025973111391067506,-0.0607670322060585,0.031417544931173328,-0.08833848685026169,-0.0743076279759407,0.014324396848678589,0.06715453416109085,-0.03784090653061867,0.034932442009449008,-0.040775738656520846,0.03939316049218178,-0.07850206643342972,-0.005071140825748444,0.07934045046567917,0.008989550173282624,-0.008969388902187348,0.009097553789615631,0.07505137473344803,0.02377292886376381,0.028636125847697259,-0.017125412821769716,-0.020135879516601564,0.03274451568722725,0.08131691068410874,-0.013074338436126709,-0.01402970403432846,-0.05906090885400772,0.02081022411584854,0.004954896867275238,0.0013098269701004029,0.0501432791352272,-0.07631506770849228,0.01916329562664032,-0.01022108644247055,0.08795223385095597,-0.08567800372838974,0.01546383649110794,-0.013330847024917603,0.023697149008512498,0.057798393070697787,0.05981392040848732,-0.036673855036497119,0.03036518022418022,0.03499007970094681,-0.02389569580554962,-0.02690436691045761,0.027714837342500688,-0.035109348595142367,0.0018704012036323548,-0.023521974682807924,-0.05365310236811638,0.03521472215652466,0.031879767775535586,0.008224375545978547,-0.003916926681995392,-0.012179292738437653,-0.0717388242483139,-0.0006292834877967835,-0.07007651031017304,0.07472006231546402,-0.028677821159362794,-0.04339826479554176,-0.07862302660942078,0.08712619543075562,-0.04181747883558273,-0.0071345046162605289,-0.06646869331598282,0.08599590510129929,0.006758742034435272,0.0676795169711113,-0.02440609037876129,0.06406082957983017,-0.04841840639710426,0.08176814764738083,-0.08262773603200913,-0.02792472206056118,0.0468384213745594,0.021876245737075807,0.02255536988377571,-0.030102699995040895,0.07437152415513993,0.06626614183187485,0.017042405903339387,-0.024100296199321748,0.06239672377705574,-0.04851049929857254,0.052025265991687778,0.04019182175397873,0.0311665590852499,0.05588582903146744,0.014091327786445618,0.05922110751271248,0.025555148720741273,0.020100854337215425,0.04480782896280289,0.06406573206186295,0.06664653867483139,-0.01150628924369812,-0.06652017682790756,-0.021432943642139436,-0.002000764012336731,0.07932468503713608,0.05189475789666176,-0.08106502145528794,0.04019884020090103,0.0028044432401657106,0.08456925302743912,0.03915386646986008,0.03316272050142288,0.010140836238861084,-0.08637326210737229,-0.06755825132131577,0.0683860182762146,-0.02513076364994049,0.01686032861471176,0.014026418328285218,0.06938715279102326,-0.047127865254879,-0.056029658764600757,-0.04654280096292496,0.029792992398142816,0.021293528378009797,-0.05529487505555153,0.05521765723824501,-0.037441376596689227,0.04482194781303406,0.060846857726573947,0.07127619534730911,0.06982211023569107,0.08739178627729416,0.045175496488809589,-0.032342322170734408,0.0033133849501609804,0.018324680626392366,-0.019253216683864595,-0.05569832772016525,0.06946378201246262,-0.0011632665991783143,-0.05062194913625717,-0.009916193783283234,0.08149955421686173,-0.05290932208299637,-0.05924234539270401,-0.08112146705389023,-0.06878972798585892,0.06859808415174484,0.05046764388680458,-0.07667044550180435,0.00450645387172699,-0.019230417907238008,-0.04234585911035538,0.08672154694795609,-0.07251588255167008,0.03352486342191696,-0.07125318795442581,-0.04384434595704079,0.023741401731967927,0.027372267097234727,-0.057982198894023898,0.02647325210273266,0.05456096678972244,-0.035063788294792178,-0.02875937521457672,0.024006400257349016,-0.0696939006447792,0.0591132715344429,0.03915627300739288,0.029230711981654168,-0.060411565005779269,-0.07224494963884354,0.03492264449596405,-0.047079332172870639,0.011341661214828492,0.06522656232118607,-0.05209074169397354,0.021924719214439393,0.02771799825131893,-0.054248519241809848,0.08100586384534836,-0.039400361478328708,0.022660735994577409,-0.01960727572441101,0.05354282632470131,0.011058077216148377,-0.04116683453321457,-0.021334826946258546,-0.056333981454372409,-0.0768895074725151,0.02556678280234337,-0.03991836681962013,0.05700468271970749,-0.032664574682712558,-0.05707346647977829,-0.03879844397306442,-0.06808867305517197,0.008011937141418457,-0.046694643795490268,-0.02724638767540455,0.08684971183538437,0.05579317361116409,-0.0016441568732261658,-0.020624488592147828,-0.07478540390729904,-0.0681108608841896,0.0661863312125206,-0.06842707842588425,-0.06972521543502808,0.026773173362016679,0.024715837091207506,-0.025688260793685914,-0.011519357562065125,-0.0266422126442194,-0.0580737367272377,0.08775926381349564,-0.04130842909216881,-0.07139254361391068,-0.04359538108110428,-0.08453314751386643,0.025562863796949388,-0.016611114144325258,-0.00598975270986557,-0.04169755429029465,0.05998534709215164,-0.0858418270945549,0.07271801680326462,-0.00005077570676803589,0.06482972949743271,-0.034980542957782748,0.013163864612579346,-0.03623371571302414,0.06477253884077072,0.0673428624868393,0.009669631719589234,0.007415793836116791,0.03279338777065277,0.055811844766139987,0.07197035104036331,-0.016437701880931855,-0.0005124956369400024,-0.061401404440402988,-0.012994788587093354,-0.06734546273946762,-0.07498564571142197,-0.05757961422204971,0.0368848517537117,0.08045738190412522,-0.046536900103092197,-0.06499113887548447,-0.032664261758327487,0.03781912475824356,0.0008811354637145996,-0.03833145648241043,-0.009179659187793732,-0.06122594326734543,-0.04904816299676895,0.021268844604492189,-0.02182057499885559,0.029966404661536218,-0.04034782201051712,0.019381090998649598,-0.05027257278561592,-0.03092077188193798,-0.0663316622376442,-0.02195090800523758,-0.0786975845694542,0.013130314648151398,0.07479953020811081,-0.04346137493848801,0.0512983575463295,-0.017320260405540468,-0.05999865382909775,-0.054938189685344699,-0.08276190608739853,0.046833112835884097,0.04066228121519089,-0.030296511948108674,-0.028838232159614564,0.004200980067253113,0.06038589030504227,-0.03115447610616684,-0.08376642316579819,0.05518501251935959,-0.0681748017668724,-0.05275712162256241,0.014775432646274567,0.00816153734922409,-0.0480741485953331,-0.02700182981789112,-0.017699263989925386,0.015361711382865906,-0.024902120232582094,-0.025487154722213746,0.05102815479040146,0.0585172101855278,0.0719933733344078,0.021578140556812288,-0.00036989152431488037,0.06096646934747696,0.023838043212890626,-0.008974380791187287,-0.0785481259226799,0.006363660097122192,-0.025936337187886239,-0.03615448623895645,-0.0003278478980064392,-0.022240757942199708,-0.032421134412288669,-0.08526916056871414,0.07313966006040573,-0.03177932649850845,-0.010041981935501099,0.058012984693050387,-0.06468548625707627,0.01942507177591324,-0.011161066591739655,-0.06545446068048477,0.06672922521829605,0.04934156686067581,-0.06686937063932419,-0.0010954886674880982,-0.08152280002832413,-0.01741359382867813,0.08354071527719498,0.08800918608903885,-0.008955538272857666,-0.058919500559568408,-0.040956251323223117,-0.01452472060918808,-0.08707789331674576,0.06238824874162674,0.04014232009649277,0.08100249618291855,-0.0475192591547966,0.002202160656452179,-0.04871463030576706,-0.03779885917901993,-0.010872714221477509,-0.019843317568302156,-0.05209390074014664,0.054538145661354068,0.024683929979801179,-0.04157007485628128,0.06819412857294083,-0.019803255796432496,0.06608808785676956,0.001218453049659729,0.08099303394556046,-0.07947032898664475,-0.0004551932215690613,-0.019651614129543306,-0.0024029314517974855,-0.023975051939487459,-0.009504064917564392,0.05141938477754593,-0.03254009783267975,0.01082051545381546,-0.05060049146413803,-0.058574236929416659,-0.08739978820085526,0.07440469413995743,0.053692616522312167,0.06073417514562607,0.06078844144940376,0.0617871955037117,0.06687920540571213,0.05591542273759842,-0.03479623794555664,-0.06541553884744644,-0.027478763833642007,0.07516659051179886,-0.0004676729440689087,-0.03980260342359543,-0.07086676359176636,0.01050376147031784,-0.011502601206302643,-0.051043979823589328,-0.0072678327560424809,0.08230879157781601,0.01170399785041809,0.002004683017730713,-0.08367083221673966,0.07907833904027939,0.07563313096761704,-0.022533588111400605,0.07414447516202927,-0.07169697433710098,-0.08132801204919815,0.08818279951810837,-0.08779203146696091,-0.0731176808476448,0.05762605741620064,-0.04283691197633743,-0.03432551771402359,0.03564879298210144,0.05733463540673256,-0.019739799201488496,0.029481103643774987,0.06262395530939102,-0.06388003379106522,0.057529814541339877,0.03553000092506409,-0.0725972130894661,0.08783858269453049,-0.05871491879224777,-0.045468442142009738,-0.054137714207172397,0.07494869083166123,-0.0291974488645792,0.020290933549404146,-0.04467224329710007,0.029837604612112047,0.0744878277182579,-0.04401267319917679,-0.019718602299690248,0.017036736011505128,0.05924784392118454,0.025269415229558946,-0.07661590725183487,0.03151410073041916,-0.02451145648956299,0.06281737238168717,0.043717317283153537,0.0022520869970321657,0.01860862225294113,-0.0751323401927948,-0.0026030391454696657,-0.06031264737248421,-0.015381544828414917,-0.0035828500986099245,0.013577155768871308,0.06613390147686005,-0.06990588456392288,-0.007045172154903412,0.05306302756071091,-0.06998511403799057,-0.008321486413478852,-0.07024773210287094,0.042558684945106509,0.05628751590847969,-0.032132454216480258,-0.05045291408896446,-0.04925767332315445,-0.012166813015937806,-0.0027320757508277895,0.02214140072464943,0.01483028382062912,0.000722050666809082,0.03944068029522896,0.0782599076628685,-0.05407579988241196,0.02560035139322281,-0.018970370292663575,0.0002743452787399292,-0.07420570403337479,0.0736432895064354,0.0683932676911354,0.001029469072818756,0.013618223369121552,-0.0655440166592598,0.08055379241704941,-0.05961494892835617,-0.077128104865551,-0.07253622263669968,0.011514298617839814,0.081980399787426,-0.06397750228643418,0.021125972270965577,-0.0693836584687233,-0.005445025861263275,0.06320054084062576,-0.027646571397781373,0.014435365796089173,0.038898758590221408,0.043770257383584979,-0.0004695281386375427,-0.07061470299959183,-0.07505830377340317,-0.0033698007464408876,-0.015193864703178406,0.002025313675403595,0.026460355147719384,0.07873580604791641,0.05379119887948036,0.058192990720272067,-0.011281713843345642,-0.026868434622883798,-0.08698468655347824,-0.019736476242542268,0.015658915042877198,0.08587635308504105,-0.028220148757100107,-0.07424884289503098,0.074357770383358,-0.05654020980000496,-0.08530852943658829,0.05560073256492615,0.038844846189022067,-0.02111656963825226,0.08116001635789871,0.01593097299337387,-0.08215977996587753,0.06451839208602905,-0.0694391056895256,0.07598590105772019,0.07591269165277481,-0.05676204711198807,0.01529887318611145,-0.026802854612469674,0.010383538901805878,0.06786126643419266,0.018141277134418489,-0.020075105130672456,0.001160457730293274,-0.047429151833057407,0.07834292203187943,0.01888337731361389,-0.0535089448094368,-0.013843566179275513,0.05027410760521889,-0.012255385518074036,0.025430794805288316,0.013631165027618409,-0.06489118188619614,0.013635359704494477,0.05001562088727951,0.027746152132749559,-0.054365869611501697,0.010163173079490662,-0.024049848318099977,0.0828474685549736,0.060105133801698688,0.08059092611074448,-0.056669931858778,0.059882424771785739,0.02843782678246498,-0.084361232817173,0.0023283883929252626,-0.0329156219959259,-0.03743060678243637,0.0401633083820343,-0.00513043999671936,-0.017941899597644807,0.01689828187227249,-0.035393983125686648,-0.058714475482702258,0.0773959830403328,-0.057014040648937228,0.01631486415863037,0.046858105808496478,-0.018513686954975129,0.02882837876677513,-0.008074186742305756,-0.049611397087574008,-0.03705468028783798,-0.008720867335796357,0.04383017122745514,-0.0388135090470314,-0.0441124364733696,0.020472019910812379,-0.06641633063554764,0.04634728282690048,-0.004188857972621918,-0.007791973650455475,0.041992250829935077,0.08723335713148117,-0.032359808683395389,0.07052598148584366,-0.03976016491651535,-0.06417611986398697,0.03923213854432106,-0.04317359998822212,-0.059145428240299228,0.05931570380926132,0.04176497459411621,0.022996727377176286,0.07089150696992874,-0.07100430876016617,-0.018401257693767549,0.058661166578531268,0.021757014095783235,0.08639080077409744,0.03300601616501808,0.08149426430463791,0.053392890840768817,-0.03604338318109512,-0.02966650389134884,0.0073985084891319279,0.03251275047659874,-0.019214734435081483,0.036085519939661029,0.038318224251270297,0.06192246451973915,-0.08408207446336746,-0.058865003287792209,0.044976502656936648,0.06065405160188675,0.041932038962841037,0.06675837188959122,0.022977929562330247,-0.034578271210193637,-0.018709123134613038,-0.056804947555065158,0.07049743086099625,-0.00223705917596817,0.08777254074811936,-0.07117531448602677,-0.014409445226192475,-0.03592819720506668,0.01685658097267151,-0.08273398131132126,-0.0660671815276146,0.036219462752342227,-0.07360460609197617,0.008363716304302216,-0.05155126005411148,0.02312464639544487,-0.05205831676721573,-0.042312223464250568,-0.017815038561820985,0.0728539451956749,0.019065432250499727,-0.0717770978808403,-0.07180029898881912,0.04333553463220596,0.04399319365620613,0.04345386102795601,-0.06768075376749039,-0.038805101066827777,0.05218605697154999,0.06754504144191742,-0.013193301856517792,-0.08131831139326096,0.06807977706193924,0.018180303275585176,0.05583793669939041,-0.03697661682963371,0.017223253846168519,0.05323987454175949,0.08598294109106064,0.002602517604827881,-0.06200291961431503,-0.013905078172683716,-0.007999375462532044,-0.04307863861322403,0.045845694839954379,-0.012387372553348542,-0.02679552137851715,0.06232220679521561,-0.08777422457933426,-0.01825863867998123,-0.009548820555210114,-0.039533041417598727,-0.02328888326883316,-0.06979749351739884,-0.0800328329205513,-0.04653650149703026,0.06963763386011124,-0.03011462837457657,0.05765790119767189,0.004165150225162506,-0.017664894461631776,0.022146817296743394,-0.005117923021316528,-0.032914675772190097,-0.04207903891801834,0.06656481325626373,0.006236478686332703,-0.005298227071762085,-0.08790671080350876,0.08521872013807297,0.07586059719324112,-0.031744152307510379,0.06798314303159714,0.01441943645477295,-0.08496782928705216,-0.013060331344604493,0.037864454090595248,0.07795114070177078,0.0290639977902174,0.04455920308828354,-0.07439740747213364,0.060253240168094638,0.048194520175457,0.057377658784389499,-0.030480675399303438,-0.052400462329387668,0.009754791855812073,0.01907731592655182,0.07671303302049637,-0.034923963248729709,-0.03590657562017441,0.006197728216648102,0.06251070648431778,0.01875249296426773,-0.04712695628404617,0.07325619459152222,-0.08506158739328385,0.04180467873811722,-0.08169879764318466,0.045816320925951007,0.03086291067302227,-0.08783320337533951,0.07451177388429642,-0.03419773280620575,-0.029641613364219667,-0.06435657292604447,0.05961119383573532,0.08079715073108673,-0.003793373703956604,0.05921754613518715,0.0868421420454979,0.06615468114614487,-0.03485484421253204,0.07600119709968567,-0.024705857038497926,-0.0036956146359443666,0.06666841357946396,0.07862428575754166,-0.06580082327127457,0.017283275723457338,0.08743252605199814,-0.04504157975316048,0.023046988993883134,-0.0524987056851387,0.08044006675481796,0.06790993362665177,0.02872241847217083,-0.06640494614839554,0.02646404318511486,0.014220736920833588,-0.027033144608139993,0.03403151407837868,0.03493370860815048,-0.03085377812385559,0.02813565358519554,-0.04598558694124222,-0.00829874724149704,-0.02386106550693512,-0.024184949696063997,0.05152969807386398,0.0502285435795784,-0.05837502330541611,0.04971085488796234,0.032147400081157687,-0.01319228857755661,-0.06415677815675736,0.048140738159418109,0.06534666568040848,0.03522768244147301,0.03118700161576271,0.0297565795481205,-0.08619283884763718,0.012018457055091858,-0.047906406223773959,-0.05652283877134323,-0.004232272505760193,-0.041709545999765399,-0.08287199586629868,-0.062400706112384799,-0.08210601657629013,-0.018071040511131288,0.05409328639507294,0.0064172446727752689,0.0882342979311943,-0.08195649832487107,-0.03897029533982277,0.07831866294145584,-0.023930229246616365,-0.055191926658153537,-0.0350119024515152,0.003958776593208313,-0.01084505021572113,-0.05432368069887161,0.03302253782749176,-0.013679884374141693,-0.07120419293642044,-0.0464937649667263,0.08185961097478867,-0.014141775667667389,0.07549787312746048,0.013312578201293946,0.004606790840625763,0.06868022680282593,-0.045330412685871127,0.07045989483594895,-0.023063331842422487,-0.0036329030990600588,0.00556153804063797,0.008914344012737275,-0.07693549245595932,0.047643259167671207,0.07356481999158859,-0.017267383635044099,-0.01037837564945221,-0.07906893640756607,-0.030100762844085695,-0.07446325570344925,-0.013276629149913788,0.08622006326913834,0.04075954109430313,-0.0047861188650131229,0.035427290946245196,0.05366656929254532,-0.036316387355327609,-0.06440373510122299,0.03931436687707901,-0.0701211467385292,0.08296184986829758,-0.04736321419477463,-0.023376040160655977,0.006651818752288818,0.04603573679924011,-0.08383818715810776,-0.04336844012141228,-0.04480234906077385,0.00390799343585968,0.00992654263973236,0.07698047906160355,0.002633132040500641,-0.06710901111364365,-0.05848262459039688,-0.0770961120724678,0.057918302714824679,-0.046156756579875949,-0.0875382050871849,-0.0052275508642196659,-0.052631743252277377,-0.058027319610118869,-0.07367589324712753,0.007030293345451355,-0.05920978635549545,0.03824200481176376,0.050950437784194949,-0.040965043008327487,0.043939732015132907,-0.047873951494693759,-0.01998564600944519,0.0032079964876174928,0.08766662329435349,-0.042553700506687167,0.01608634740114212,-0.07787857204675675,-0.000045843422412872314,-0.0575106181204319,0.0207589790225029,0.06619598716497421,0.08701799064874649,0.04894964396953583,-0.016975916922092439,0.021240293979644777,0.014950722455978394,0.04725455492734909,-0.04808700829744339,-0.007032401859760284,0.027483535930514337,-0.014741584658622742,0.08194998651742935,0.08535879105329514,-0.06168191507458687,-0.010077320039272309,-0.04107179492712021,-0.01808439940214157,0.07509391754865647,0.022581014782190324,0.033287473022937778,0.07123187929391861,-0.045782603323459628,0.060157857835292819,0.07704301923513413,0.07645442336797714,0.006002418696880341,0.07242058962583542,-0.060809262096881869,-0.08143080770969391,0.005296245217323303,0.027609808370471,-0.06759199500083924,0.0002555474638938904,0.03429151698946953,0.07713896781206131,0.07194549590349198,0.01652389019727707,-0.08228828758001328,0.08237204700708389,0.07215502113103867,0.013495013117790223,-0.06456638127565384,0.05113411322236061,-0.0769188180565834,-0.03024713695049286,0.011102668941020966,-0.054401446133852008,0.04754423350095749,0.0251009538769722,-0.0814947858452797,-0.06739374250173569,-0.06200838461518288,0.06206890195608139,-0.013941891491413117,-0.07953458279371262,-0.08351176232099533,-0.07660079747438431,-0.05721535533666611,0.07036484032869339,-0.061744797974824908,-0.01589944213628769,-0.002468906342983246,0.02569185197353363,0.0022027939558029176,-0.05985436215996742,0.0045107752084732059,0.08270496875047684,-0.06770452857017517,-0.07205382734537125,0.029583480209112169,0.08281693607568741,-0.007583558559417725,0.0026259049773216249,0.06453423947095871,-0.004016414284706116,-0.06160735338926315,0.02774811163544655,-0.0794626995921135,0.05301295593380928,0.0013506263494491578,-0.01658264547586441,0.05499836802482605,-0.06050662323832512,-0.035198695957660678,0.0010386556386947632,0.030748290941119195,-0.006373099982738495,0.01132933795452118,0.027716396376490594,-0.057431045919656757,-0.04010925069451332,-0.0824660137295723,-0.02847452461719513,-0.08337912708520889,0.03636514022946358,-0.008807942271232605,-0.006741970777511597,-0.020711474120616914,0.04013892263174057,-0.009202733635902405,0.0508834645152092,-0.051375843584537509,0.0841943696141243,0.01119162142276764,0.03178597241640091,0.03115246072411537,0.05952965468168259,-0.05291062220931053,-0.08375655859708786,-0.08538325875997544,-0.0798531100153923,0.03986465185880661,0.021152526140213014,0.013637274503707886,0.011884979903697968,-0.044442035257816318,0.06576214730739594,-0.010157108306884766,-0.01595263183116913,0.08541499823331833,-0.08630228787660599,-0.013993903994560242,0.013310804963111878,-0.03513577580451965,0.07870112359523773,0.06648314744234085,0.02545342966914177,0.023374132812023164,-0.022555969655513765,-0.024938955903053285,-0.08348210901021958,0.07101720571517945,0.02437857910990715,0.02641570381820202,0.04947171360254288,0.058013979345560077,0.03714966028928757,0.05669199675321579,-0.03910941630601883,-0.027932116761803628,0.08674856275320053,-0.011111035943031311,0.016191020607948304,0.028088679537177087,-0.006723083555698395,-0.019189827144145967,0.0510665699839592,-0.032859064638614658,0.03784428536891937,-0.02741253189742565,0.07505938410758972,0.0180373415350914,0.009202457964420319,-0.06599671393632889,0.002170383930206299,0.0820428803563118,0.007873103022575379,-0.02709006518125534,0.025944184511899949,0.04672420397400856,-0.07565338164567948,-0.0832839235663414,0.0718630775809288,-0.019560106098651887,-0.06841074675321579,-0.06677912920713425,0.08691609650850296,-0.06196031719446182,0.008195020258426667,-0.05196208506822586,-0.030604355037212373,-0.053861103951931,0.009260982275009156,-0.0025233030319213869,0.05185895413160324,-0.08103852719068527,-0.08736837655305863,-0.04841376468539238,0.011534802615642548,0.07488135248422623,0.0883345678448677,-0.023894868791103364,-0.07877155393362045,0.0333816297352314,0.02584233507514,0.05274353176355362,-0.028088271617889406,0.01854471117258072,0.039221517741680148,0.052253805100917819,0.016698569059371949,0.06819716095924378,0.08094186335802078,0.0023398995399475099,0.0015706568956375123,-0.005545124411582947,-0.037602540105581287,0.07856089621782303,0.003675028681755066,-0.02613293193280697,0.027095383033156396,-0.004473477602005005,-0.08512783795595169,0.01846916228532791,-0.055355943739414218,-0.0011593028903007508,-0.04756966978311539,0.05922742560505867,0.01569153368473053,-0.056940387934446338,-0.08028189092874527,0.08100790530443192,-0.012511573731899262,-0.024166442453861238,-0.04620619863271713,0.04641731083393097,0.05963483825325966,-0.05063212662935257,0.0011972934007644654,-0.045672811567783359,-0.01618853211402893,0.07211274653673172,0.07276646792888642,-0.08223334699869156,0.06343526393175125,-0.03283653408288956,0.0839591696858406,0.0812893882393837,0.06477121263742447,-0.03538352996110916,-0.040862537920475009,-0.08509153872728348,0.01610855758190155,-0.04899144917726517,-0.08062120527029038,0.025672990828752519,0.00437135249376297,-0.0032911300659179689,-0.024064302444458009,0.027997370809316636,0.004323244094848633,-0.013154104351997376,0.03054145537316799,-0.017692960798740388,0.03816402703523636,-0.07177989929914475,0.015346840023994446,-0.015919610857963563,0.029372936114668847,0.032641004770994189,-0.08700788766145706,-0.021650463342666627,-0.02408689260482788,-0.030653811991214753,0.03142542392015457,-0.009013429284095765,-0.0008408576250076294,0.02464873716235161,0.04180338978767395,0.014790773391723633,0.023886237293481828,-0.045091692358255389,-0.06170300394296646,0.00535912811756134,-0.04142589122056961,-0.014409594237804413,0.05062881484627724,0.02072441577911377,0.052089013159275058,-0.02230675518512726,-0.023978866636753084,0.07059738039970398,0.05487365275621414,0.04489058628678322,-0.04779433459043503,-0.03526035696268082,0.016312167048454286,-0.02540193498134613,-0.00265522301197052,-0.06345932930707932,0.02985442243516445,0.0639505460858345,-0.015262946486473084,-0.0648919865489006,-0.012609042227268219,-0.03457307070493698,-0.03685953468084335,0.06803082674741745,0.02162574976682663,-0.04284026101231575,-0.011857755482196808,0.05156230181455612,0.029599284753203393,-0.06578832119703293,-0.011996902525424958,-0.04761158674955368,0.05504854395985603,0.043717700988054278,0.02338266745209694,0.07669831067323685,0.07506882399320603,-0.06504268199205399,0.07437349110841751,-0.009983733296394349,0.06210089474916458,-0.07149646431207657,-0.0698896124958992,-0.04182087630033493,-0.06208295747637749,0.06528215855360031,0.004798240959644318,-0.08539190143346787,0.04322441294789314,0.0694257989525795,0.0778898373246193,0.0751289650797844,0.0365966334939003,-0.04448772221803665,-0.08177965134382248,-0.03182992339134216,-0.05767073482275009,0.06362871080636978,-0.04816649109125137,-0.045077063143253329,-0.00491081178188324,0.0679122731089592,-0.07988762110471726,0.015583403408527375,-0.07578610628843308,-0.018902786076068879,-0.06689567118883133,0.04007037729024887,0.056809328496456149,-0.060725919902324679,0.005215935409069061,0.0619264617562294,0.050674356520175937,-0.05468315631151199,-0.04411283880472183,-0.04289616271853447,-0.03354938328266144,0.03683461621403694,0.028892967849969865,0.08136505633592606,-0.024742737412452699,0.0005056709051132202,-0.07860652357339859,-0.05412403494119644,0.027520624920725824,-0.023038804531097413,-0.03734873980283737,-0.031532324850559238,0.06620647758245468,-0.08762560039758682,-0.021731644868850709,0.07103050500154495,0.051284514367580417,0.008038744330406189,-0.057552747428417209,0.0055085644125938419,-0.03179420530796051,-0.02578277885913849,-0.05599763244390488,0.07535012811422348,-0.0828346386551857,0.08312017470598221,0.03797426074743271,-0.08623967319726944,0.04565967991948128,-0.0504198893904686,0.06532300263643265,0.013068929314613343,0.015538163483142853,-0.06758839637041092,0.003412574529647827,-0.04702507704496384,0.08047931641340256,-0.01272726058959961,-0.04047944396734238,0.05705694109201431,0.0446125790476799,-0.05600089579820633,-0.07749439775943756,0.01251772791147232,0.07283567637205124,0.07652192562818527,0.032267097383737567,0.07131025195121765,0.039027534425258639,0.014724984765052796,0.05926453322172165,0.04010866582393646,-0.07485438138246536,-0.07769788056612015,-0.014473028481006623,0.010388262569904328,0.06228069216012955,-0.003093525767326355,-0.05380959436297417,-0.04331911355257034,0.012667372822761536,-0.04923940449953079,-0.029488809406757356,0.053312137722969058,-0.0020020082592964174,0.0033842772245407106,-0.014657169580459595,0.0625002309679985,0.05894371122121811,-0.02552555501461029,0.028919203206896783,0.013066232204437256,0.012416094541549683,0.0822809562087059,-0.07569906860589981,0.006474673748016357,0.005608722567558289,-0.03626914322376251,-0.04488398879766464,-0.021845772862434388,0.007845140993595124,0.01770128309726715,0.07423614710569382,-0.08617927879095078,0.051436834037303928,0.08747009187936783,-0.00008040666580200195,0.03236883878707886,-0.06438169628381729,-0.05018395930528641,0.0030233487486839296,-0.048223283141851428,0.06111859530210495,0.03392437472939491,0.03484918177127838,0.03953462094068527,0.0628003403544426,-0.03393959999084473,0.08556244522333145,0.04883919656276703,0.026630399748682977,0.01170513778924942,0.009961709380149842,-0.029924334958195688,0.011034078896045685,-0.0031958594918251039,-0.05505276471376419,0.002109609544277191,-0.03543436527252197,-0.08773814886808396,-0.04916033893823624,0.06473395228385925,-0.07578995823860169,0.04982604458928108,-0.05607333034276962,0.013135813176631928,-0.019764013588428499,-0.08722349256277085,-0.04030763357877731,0.005838237702846527,-0.08281413465738297,-0.07730545848608017,-0.06763649731874466,-0.017625592648983,-0.03386177867650986,-0.05975017696619034,-0.008748747408390046,-0.017202772200107576,0.05739324167370796,-0.02410990744829178,-0.07426373660564423,-0.04279173165559769,-0.07310297340154648,0.01698438823223114,0.0043389201164245609,-0.01975546032190323,-0.051832906901836398,-0.05197557434439659,0.08028983324766159,-0.08444348722696305,0.07319756597280503,-0.08584358543157578,0.06299596279859543,-0.03192761540412903,0.024096909910440446,0.005782686173915863,-0.07256155461072922,0.02632877603173256,-0.032265596091747287,-0.023320786654949189,-0.08228575438261032,0.05045017600059509,-0.07794447988271713,-0.06337767094373703,0.014027617871761322,-0.04145164415240288,-0.04173693805932999,0.02850036881864071,-0.04875455051660538,0.06757762283086777,-0.004286579787731171,-0.08083071559667587,0.07410497218370438,0.00315963476896286,0.032244887202978137,-0.04258761182427406,0.038861580193042758,-0.06209992617368698,0.05254044383764267,0.049919210374355319,0.05936235934495926,0.013616122305393219,0.0030862167477607729,0.009495824575424195,-0.08738585561513901,-0.07510078698396683,0.04144183546304703,-0.083076111972332,-0.059759028255939487,0.05879632383584976,0.08392513543367386,-0.07627273350954056,-0.0516342893242836,0.01559409499168396,0.011229276657104493,-0.034959807991981509,0.022374242544174196,0.05223909765481949,0.014106519520282746,0.009534470736980439,0.051622889935970309,0.07417289167642594,0.06876137852668762,0.006359294056892395,-0.05921369045972824,-0.0644363984465599,-0.03963452950119972,0.04363583028316498,0.05950171500444412,0.06421293318271637,-0.060854025185108188,-0.011109158396720887,-0.018477484583854677,0.06412825733423233,-0.049707211554050449,-0.06981343030929566,-0.03497549146413803,0.08452663570642472,-0.021347999572753907,0.06497574597597122,0.029094304889440538,0.047771506011486056,0.005095735192298889,-0.005516402423381805,-0.007031872868537903,0.06134692579507828,0.05668797343969345,-0.06614924222230911,0.017623737454414369,0.04680997505784035,-0.03737138956785202,-0.061200253665447238,0.07854088395833969,0.08503400534391403,0.008096985518932343,0.08433862775564194,0.017720714211463929,0.07244021445512772,0.03460266441106796,-0.019362881779670717,0.07589957863092423,-0.04324113577604294,0.024410147219896318,-0.012851998209953308,0.08533912152051926,0.004218235611915588,-0.0006065219640731812,0.076203353703022,0.04571611434221268,-0.04698830097913742,-0.04187888652086258,0.07337857037782669,-0.08636418730020523,-0.002300657331943512,-0.05332309752702713,0.049702174961566928,-0.0019142553210258484,0.002849578857421875,0.08529943972826004,-0.055394239723682407,-0.04365181177854538,-0.07579373568296433,0.004658877849578857,0.034427251666784289,-0.061683766543865207,-0.08834559470415116,-0.022396087646484376,0.007749550044536591,-0.029005343094468118,-0.025287315249443055,-0.06618765741586685,0.06186554580926895,0.023156024515628816,-0.056019045412540439,0.014863245189189911,-0.06187581270933151,-0.08172764629125595,-0.037376802414655688,0.0783051922917366,0.023810435086488725,-0.016796879470348359,-0.02214900404214859,0.05756152421236038,-0.054516904056072238,-0.02156655490398407,-0.04407008737325668,-0.02181798219680786,0.020485758781433107,0.023797180503606797,0.08177148550748825,0.07015460729598999,-0.055380068719387057,0.03913501277565956,-0.02567671239376068,0.07432780414819718,-0.01552531123161316,-0.036150313913822177,-0.04431896656751633,-0.00518866628408432,-0.033118560910224918,0.02300981804728508,0.013653986155986786,-0.08599691838026047,-0.059921033680438998,-0.05409792810678482,0.03492707014083862,0.03653256967663765,0.01717516779899597,0.05267567187547684,0.06397315859794617,0.06069027632474899,0.02146989107131958,0.0396127887070179,-0.011889994144439698,-0.0312555655837059,0.07556302100419998,0.03868315368890762,-0.08449477702379227,-0.05167267099022865,-0.03205998241901398,0.005066253244876862,0.032794248312711719,0.07945237308740616,0.045989710837602618,0.08373168855905533,0.04456072300672531,0.0713529884815216,-0.04712598770856857,0.054889924824237826,0.003529787063598633,0.06643179804086685,0.04574134200811386,-0.03185107558965683,-0.019858717918395997,-0.0010021179914474488,-0.07932101935148239,0.05884002894163132,0.0739692971110344,0.08041103929281235,-0.05075504630804062,-0.0478028878569603,-0.07368310540914536,0.04058064892888069,-0.013281159102916718,-0.014376156032085419,-0.019173264503479005,-0.08167441934347153,-0.06671241670846939,-0.013380773365497589,0.0017948746681213379,0.010782398283481598,0.030540701001882554,0.07527802139520645,-0.02850407175719738,-0.018069393932819368,-0.00924091786146164,-0.05217895656824112,-0.045998714864254,0.025671347975730897,0.022263038903474809,0.07493730634450913,-0.06698668748140335,0.013533718883991242,-0.05397201329469681,-0.0034355446696281435,-0.023724384605884553,0.07112038135528565,-0.01025303453207016,0.08673878759145737,0.04280576854944229,0.027958635240793229,-0.03364415466785431,-0.03220760077238083,-0.046265967190265658,0.07361490279436112,0.013684168457984925,0.0684046670794487,0.006446920335292816,-0.050109125673770908,-0.018330052495002748,0.05328889191150665,-0.04481419175863266,0.04932152479887009,-0.016162127256393434,0.06931034475564957,-0.034731559455394748,0.06529558449983597,-0.028533553704619409,-0.07675337046384812,0.03175981715321541,0.08785974234342575,-0.022738806903362275,-0.006624676287174225,-0.021286025643348695,-0.027491135522723199,-0.06074937433004379,-0.07111313194036484,0.07414770871400833,-0.06035685911774635,-0.07465546578168869,0.001317247748374939,0.024663172662258149,0.00038335472345352173,0.04158153012394905,-0.00994129478931427,0.03911223262548447,-0.0365975946187973,0.020321622490882875,0.008637942373752594,-0.08806697279214859,0.0864323303103447,0.061992086470127109,0.030649458989501,0.035717450082302096,0.0676540806889534,-0.08801675587892533,0.0826394334435463,0.017941564321517946,0.053813450038433078,0.08632364124059677,0.07093103975057602,-0.03775041550397873,0.047729555517435077,0.07012107968330383,-0.0231265127658844,0.04293429106473923,0.05694717913866043,0.08414109796285629,-0.020815454423427583,-0.017715826630592347,0.07354161888360977,0.08141019195318222,-0.007157959043979645,-0.08118662983179093,-0.04056980460882187,-0.07594554871320725,0.04778461903333664,-0.052309550344944,-0.0492045059800148,0.008069612085819245,-0.027445532381534578,-0.08506249636411667,0.007555462419986725,-0.06580618768930435,-0.04565178230404854,0.003046765923500061,0.01080256700515747,-0.05026174336671829,0.03861255943775177,-0.06059393659234047,0.00016379356384277344,0.045036010444164279,-0.039507873356342319,0.02336243912577629,-0.038408514112234119,-0.07737084478139878,-0.06718479841947556,0.08605509251356125,0.01694599539041519,-0.019301243126392366,-0.07123350352048874,-0.05554758757352829,0.05745934695005417,-0.028345050290226938,-0.030558645725250245,-0.05619136244058609,0.026083480566740037,-0.05144882947206497,-0.03529740869998932,-0.0007857754826545715,-0.039783500134944919,0.07456672936677933,0.04859050363302231,0.02261209860444069,-0.006922565400600433,0.05221142619848251,-0.00603581964969635,-0.0008559897541999817,0.03953321650624275,0.014705702662467957,0.003153882920742035,0.00577157735824585,-0.07333151251077652,0.020173557102680208,-0.05975004658102989,0.047698576003313068,0.054140277206897739,0.011971212923526764,-0.06698895245790482,0.08285576850175858,0.02004646509885788,0.03248564898967743,-0.02499968558549881,0.037629880011081699,-0.06569574028253555,-0.019586428999900819,-0.0061837732791900639,0.03548901528120041,-0.00735088437795639,0.03157496452331543,0.021818295121192933,0.033349595963954929,0.01663583517074585,-0.07092458754777909,-0.058304645121097568,-0.013890579342842102,-0.057854048907756808,0.07274889200925827,-0.05206254869699478,0.01256735622882843,0.0034505128860473634,0.020382419228553773,0.0449332594871521,0.021847695112228395,0.003928877413272858,0.0373493954539299,-0.056177832186222079,0.06280596554279328,-0.06967218965291977,0.05500873178243637,-0.08251335471868515,-0.02617979794740677,-0.03576839715242386,-0.019192270934581758,-0.05895347148180008,-0.07238837331533432,-0.0037358254194259645,0.07205585390329361,0.034835632890462878,0.03469570353627205,0.07410258799791336,0.015541262924671173,-0.033983394503593448,0.043209679424762729,0.0529886819422245,-0.08619258552789688,-0.011993758380413056,-0.07385914772748947,-0.07713062316179276,-0.021233171224594117,-0.08557479828596115,0.04786117747426033,-0.0454939641058445,-0.03228991478681564,0.07536324113607407,0.08719900995492935,0.04455579072237015,0.08691517263650894,-0.034643687307834628,0.0834774374961853,-0.0015161558985710145,-0.006975650787353516,-0.041442207992076877,0.025427844375371934,0.07614049315452576,0.037790317088365558,-0.005431473255157471,-0.0699324980378151,0.034608207643032077,-0.031312085688114169,0.03932924568653107,0.038320817053318027,-0.060375653207302096,-0.08316528052091599,0.010525450110435486,0.07155834883451462,-0.034378163516521457,0.08473575860261917,-0.01983686536550522,-0.08274918049573899,-0.05289243906736374,-0.04517927020788193,-0.08647339791059494,0.08580813556909561,-0.043737392872571948,-0.013893462717533112,-0.028108522295951844,0.08169766515493393,0.0721292495727539,-0.04035677760839462,-0.009769544005393982,0.009483769536018372,-0.029003068804740907,-0.02949393354356289,-0.022449441254138948,-0.052784331142902377,0.08206532150506973,0.03794819861650467,0.024057377129793168,-0.0750974789261818,0.07091040164232254,-0.07390931993722916,0.0696474090218544,0.019671127200126649,-0.004668213427066803,-0.061832837760448459,0.03325266018509865,-0.0779169574379921,0.0782570019364357,-0.07501635700464249,0.06397918611764908,0.08746735006570816,-0.03476005792617798,-0.06225789338350296,-0.019758135080337526,-0.08269639313220978,0.03686923533678055,-0.04182393103837967,0.05021796375513077,-0.025378838181495668,0.08178930729627609,-0.06378044933080673,-0.012220636010169983,-0.008121602237224579,0.06926655024290085,-0.006656832993030548,0.0820142850279808,0.005280166864395142,0.020920567214488984,0.04051784425973892,-0.026835434138774873,0.02628612332046032,-0.004712425172328949,-0.06566782295703888,0.04851596802473068,0.07639587670564652,-0.06672275811433792,0.03155723959207535,-0.043076615780591968,0.051567066460847858,0.045324839651584628,0.06423986703157425,-0.06876199692487717,0.06895086914300919,-0.060158826410770419,-0.07668764144182205,0.05156093090772629,0.06801993399858475,0.010909385979175568,-0.04306074604392052,0.0821317657828331,-0.009370937943458557,0.062301598489284518,0.0637059286236763,-0.027787281200289727,0.08203374594449997,-0.0321078822016716,-0.011438578367233277,-0.022025324404239656,-0.08205538243055344,-0.06406261771917343,-0.03212117403745651,0.03453647345304489,-0.08552958816289902,-0.048866428434848788,0.009381793439388276,-0.029075203463435174,-0.01636543869972229,0.01054336130619049,-0.05698025971651077,-0.0027926191687583925,0.014258436858654023,0.0710100382566452,-0.04166720062494278,-0.029657544568181039,0.04274212568998337,0.0721210464835167,0.006527125835418701,0.03055945411324501,-0.05428014323115349,0.07407749444246292,-0.05976296216249466,-0.016280561685562135,-0.00008811801671981812,0.050382718443870547,0.07593608647584915,0.027172913774847986,0.06535070389509201,0.006216481328010559,-0.010107330977916718,0.027405839413404466,0.07569978386163712,-0.0008331239223480225,0.020272307097911836,0.046978119760751727,-0.005959704518318176,-0.007084935903549194,-0.004412427544593811,-0.08449722081422806,-0.04082007333636284,-0.058339010924100879,-0.011621810495853424,0.04128357023000717,0.06939969211816788,-0.015302754938602448,-0.06486593931913376,0.046055711805820468,0.055157847702503207,-0.07241620868444443,0.01232311874628067,0.0869341716170311,0.006657823920249939,0.0732099637389183,0.055659107863903049,-0.04783489927649498,0.04302411153912544,-0.04615006595849991,0.05128978192806244,0.03823509067296982,0.07114426046609879,-0.03980199247598648,-0.045860789716243747,0.0033980384469032289,0.04298563301563263,-0.04452228918671608,0.05289504677057266,-0.026624448597431184,-0.016797088086605073,-0.04563186317682266,0.008472919464111328,-0.08057299256324768,0.05530399829149246,0.0742579773068428,-0.057131487876176837,0.025047004222869874,0.05015331506729126,0.06861814111471176,-0.07770199328660965,-0.07149036973714829,-0.05958175286650658,-0.06918725371360779,-0.04246751219034195,-0.06391068547964096,-0.008699372410774231,-0.011756181716918946,-0.08218293637037277,-0.060478828847408298,0.03891080990433693,-0.02876295894384384,0.06860727071762085,-0.027730023488402368,0.04112071543931961,0.00649435818195343,0.0758654847741127,-0.047309182584285739,-0.06317106634378433,-0.0184144526720047,0.06750563532114029,-0.04902317374944687,-0.07912682741880417,-0.07878365367650986,0.01478230208158493,-0.08398322016000748,-0.0072867125272750858,0.04773079603910446,-0.04073622077703476,-0.06372645497322083,-0.08717893809080124,0.002803303301334381,-0.06435241550207138,-0.08408857136964798,-0.01926954835653305,-0.013238482177257538,-0.07372019439935684,-0.005158446729183197,-0.07195807248353958,0.02273048833012581,0.04564625769853592,0.05053252726793289,-0.004213407635688782,0.03550589457154274,-0.07672477513551712,-0.07583720237016678,0.017462611198425294,0.049602750688791278,0.07460998743772507,-0.04473944753408432,0.04935115575790405,0.0483926460146904,-0.023240670561790468,0.05873063951730728,-0.025805264711380006,0.03110753372311592,-0.0381828173995018,0.05499870330095291,-0.05566713958978653,-0.0007756203413009644,-0.025517694652080537,-0.009517654776573182,-0.052360884845256808,-0.06137731298804283,0.02978820912539959,-0.01123540848493576,-0.0007317662239074707,-0.08493983000516892,0.07463099807500839,-0.06493257731199265,