{"LearningRate":0.002,"hiddenAType":1,"outputAType":4,"layersSize":[3,10,2],"Layers":[{"InputSize":3,"NodeSize":10,"Weights":[{"weigths":[-0.269732865795691,0.10915451617361022,-0.3822893952945427]},{"weigths":[-0.5077562475268671,-0.47337319919582829,-0.21439047109109223]},{"weigths":[-0.46413144502353106,0.16074176066220989,-0.261905143816914]},{"weigths":[0.5133642524167609,0.2770612907270918,-0.04025653706593635]},{"weigths":[0.0034646485092366624,0.19432066491628956,-0.35269389540004028]},{"weigths":[0.11991861266829318,-0.1414668212688351,0.09917508705052104]},{"weigths":[-0.12514354477603166,-0.48233683134935836,-0.2229552315087294]},{"weigths":[0.1717965604374425,0.40011634498017975,0.22595840171800767]},{"weigths":[0.16364210764925075,-0.4155984197759768,-0.12489210379948804]},{"weigths":[0.20901220823674603,0.18897268179466179,0.3987424604147947]}],"Biases":[0.20493619543474285,-0.16935908732123773,-0.2089790552960288,0.214893676583105,0.030042632352483276,0.035160297574456437,-0.33304122874705696,-0.3250690769423564,-0.33355174767749387,-0.12486714843846118],"_Delta":[2.9046867724789888,8.00630650633185,4.084008878493373,-5.066011137786086,1.1531641541997256,-0.5698315239098367,6.496894459970493,-4.184649940848678,3.7409534677728017,5.4233698990932119],"_Inputs":[1.7899999618530274,2.0900001525878908,2.299999952316284],"_Outputs":[-0.8484875599474038,-2.338720834243642,-1.1929791401084507,1.4798316533448464,-0.3368505852975975,0.16645338970257779,-1.8978067376509336,1.2223773837460908,-1.0927692823272509,1.7116849495466056]}]}