{"layerSizes":[3,9,4,2],"connections":[{"weights":[-1.542181068361458e-46,-1.651729847774586e-46,-1.692268238192588e-46,-3.576315501614171e-32,-5.955314078398052e-32,-4.447434188190933e-33,-6.457382497624778e-32,-1.0752893831751854e-31,-8.030271287079823e-33,-1.6520243528598386e-41,-1.9289002172717925e-41,-2.1227118585567864e-41,-1.5310513412209048e-32,-2.549521037226097e-32,-1.903984722770886e-33,-2.018878810082053e-40,-2.357240010165697e-40,-2.594074207175627e-40,-1.0720179454276211e-32,-1.785134326045613e-32,-1.3331400036534368e-33,-2.803003222048926e-46,-3.2331019646951854e-46,-3.3507448253347318e-46,-5.3977629191540937e-42,-6.302437954071066e-42,-6.935660580410027e-42],"biases":[-2.0726093404436844,-636683599452954.8,-1149593633385124.6,-240396.68590464165,-272569709925151.9,-2937802.0460234808,-190849001958848.35,-4.094409164363578,-78546.36107483137],"activationType":2},{"weights":[-9.22888943134676e-48,5.0683380311781778e-48,-1.0919903903026236e-47,-1.8635637716314045e-47,6.6150660245384739e-49,-9.407490258579047e-48,-2.7655204044185429e-47,2.844665999596783e-48,1.8397675633867085e-47,2.0263295392110305e-47,-1.9542493041183284e-32,-1.8376669798576489e-32,-7.155069128229514e-41,-7.186719518910724e-32,-3.155762667011154e-42,-4.5249499223421558e-32,5.895084758058411e-46,-2.6151626518343657e-41,-1.0573488130224378e-47,-3.084864546802415e-48,-7.906396627673633e-48,-1.7400212582909685e-47,-8.152138602887061e-48,-6.563626903859054e-48,-5.426814636120969e-48,-5.771471997604643e-48,2.5960637944185416e-48,2.210191567752718e-47,-1.240396319850008e-47,4.0571625052462369e-47,-3.47356581835946e-42,1.0818044603819909e-46,-1.5409415752587239e-43,-7.167071291933739e-48,2.3343533938144209e-46,-1.2695848833411358e-42],"biases":[0.0,-13103389248553.27,-0.1171660234627917,-3013.0569789471],"activationType":2},{"weights":[-1.5464284283186118e-47,-1.6439350452432136e-35,-3.262609631918994e-45,4.373441466091109e-42,9.116504460485e-48,1.6439350452417284e-35,3.226113297838303e-45,-4.373441000323845e-42],"biases":[1.0770120797284815,-1.0770120797284815],"activationType":5}],"costFunctionType":0}